solver_type L2R_L2LOSS_SVC
nr_class 2
label 1 -1
nr_feature 512
bias -1
w
-0.1737665763899147 
-0.2359500922365651 
-0.562979017776245 
0.07932310372321774 
-1.102214970229303 
-0.408082547560517 
-0.2866752135521732 
-0.4121682666978557 
-0.1977693306809339 
0.6251482133370171 
-0.3430023828726504 
-0.4480063622096166 
-0.07920415820715464 
-0.4068665045545244 
-0.08294976164086078 
-0.9481294445755218 
-0.1746970879404465 
-0.1662742404406514 
-0.6040979657335277 
0.1468772296581711 
-0.02491704382769312 
-0.1665791880865658 
0.08729383750501471 
-0.9845156897221521 
0.3828178217474371 
-0.24434051166607 
0.2924461275490285 
0.4724859963113329 
-0.5844794304942696 
-0.09193981884912286 
-0.5696600910465214 
-0.00681018693699822 
0.4365611077576005 
0.7037669818942784 
-0.4247990960151447 
-0.2907262847202768 
-0.7571719482098265 
-0.7666737703358302 
0.2943529810336222 
-0.4828005452186284 
-0.416736067530376 
-0.540482832277646 
-0.7680839256056728 
0.5421070296541695 
0.1462491662928341 
-0.1689781071531415 
-0.2479442589332933 
-0.2272792022788257 
1.267059335224766 
0.1876950630490307 
-0.2983125050246159 
-0.2810222700310334 
-0.6874688396171363 
0.6922108744091917 
-0.1946385731911361 
0.610476486418043 
0.4054649591310178 
-0.08391523571961498 
-0.1578800327478403 
-0.1901137801038341 
0.7253746782530058 
0.8818817522369151 
0.07955244481998054 
-0.5011286944596234 
-1.077449743603985 
-0.1839738184134232 
-0.6564170731256493 
0.3447102795238064 
-1.295907996454077 
0.4820117372906532 
0.1607618597381676 
-0.2025306015744014 
0.3667841603260534 
-0.1555318553448456 
0.07053089581197636 
0.06965956106526001 
-0.1341366445863306 
0.2087659574140568 
1.14728693785905 
0.04803121650090813 
-0.4543341200468401 
-0.4298992211628113 
-0.005970375518450722 
-0.492498966889132 
-0.3186170445677604 
-0.2384325056165403 
-0.4709278430953945 
-0.491694545599575 
-0.07041756904549683 
0.5433896441704515 
-1.143886964304014 
0.1409655129386199 
0.4819390822672631 
-0.4012068624660209 
-0.310083386489538 
0.2979925502997131 
-0.131557853975743 
-0.2041375844241452 
-0.2619991733572948 
-0.3620891216628813 
0.06475593927851137 
0.008063963994206818 
-0.231868512789069 
0.03094991298901831 
1.343469621620532 
-0.5560621210267713 
-0.5528981946544737 
-0.2497977701284482 
-0.01529989376165846 
0.2309744782863041 
-1.233825755501172 
-0.4449072343754505 
-0.3731499736571787 
-0.2481584800959373 
0.4102415342577316 
-0.2343017994833997 
-0.3282892505100553 
-0.08071268661358579 
-0.01068752765417653 
0.6949037897049868 
-0.6761570730397982 
-0.1593728943667116 
-0.4333217113442974 
0.05522769736876264 
-0.7486207766706691 
-0.1255996810080678 
-1.227716146343986 
-0.3388881752865237 
-0.3716045829846744 
-0.5970249772018634 
0.4028518051967252 
-0.5597604041066756 
-0.216390309697673 
0.8188549136954654 
-0.4825024296433969 
-0.5155076951484469 
-0.03092665543757644 
-0.1366261985798386 
-0.4396182245232115 
-0.5358239681723758 
0.339792075473732 
-0.170135131132039 
0.08908470774875309 
-0.1151827203966735 
0.3338870331840409 
-0.7635430158418475 
0.03117898734755924 
0.368195860743433 
-0.1709935568222841 
-0.2043582981275825 
0.1614269952484822 
-0.3442504664290692 
-0.222922068261662 
-0.2079081924685392 
-0.08503650803038573 
-0.3912995840722456 
-0.08939834500797235 
-0.5294042922952945 
0.0606168646093143 
0.3164093515378628 
-0.2205904273471398 
0.10158623890893 
-0.3309489383934234 
0.03202181922484887 
-0.201312766281116 
0.5336359855101594 
0.7949585683852153 
-0.8094723065342071 
-0.02495901954197817 
-0.2478458002533786 
-0.1932941021195673 
-0.5859942955162086 
-0.3840534076948558 
-0.1528623547878472 
-0.1589657891024058 
-0.5710095075633069 
-0.5631574896790869 
0.02728619143671996 
-0.2387760693159448 
-0.7977041978336357 
0.02801110403114267 
-0.5067627268971772 
-0.1415832522123474 
-0.491233467444646 
0.1704036056609408 
-0.7502781695577462 
0.1537522807621641 
-0.1023610110821411 
0.2165043680055302 
-0.2013768904896404 
-0.7791114846630888 
-0.4136799279075242 
-0.4238055422369378 
-0.3589491466845915 
-0.5333945687176412 
0.5622212973109557 
-1.526848381543455 
0.6611000418150946 
1.397385614410416 
0.1714201970614413 
-0.08098633316207185 
0.2918039806768036 
-0.5975356542504254 
-0.0002548789978550953 
-0.5149090728706394 
-0.7679549066324058 
-0.2476244107104664 
0.1704296033179256 
-0.3343714635892429 
-0.7525884509354549 
0.2845450058020788 
-0.2692916430759885 
-0.3748709379329986 
-0.3695773172175325 
0.5637354665942518 
-0.1625651379588513 
0.2873580358259384 
1.518941595794651 
0.1093432874775783 
-0.1042810417032722 
-0.1040908894478955 
0.03697038580835698 
-0.1885804352810868 
-0.1803208011896392 
-0.04980900247578612 
-0.04250177243171208 
0.2679042202622181 
-0.4975190412081707 
0.03961084983985557 
-0.4792028863632943 
0.2841447849873057 
0.4974365719342605 
0.3389781713872466 
1.084488637207148 
0.5406922158140985 
-0.2016686004156309 
-0.8203261728749656 
-0.3498651745446208 
0.1494778349570318 
-0.009296455375008117 
0.6802800368279898 
-0.218759890421855 
0.6221997993712075 
0.5602976328504365 
0.5080045744478682 
-0.5553062481721485 
-0.675943157754489 
-0.3513496396054404 
0.3918796521164167 
-0.7719741316328278 
-0.03244801571572846 
-0.2808004367257497 
0.5628541090061847 
-0.02710739612850215 
-0.4464292468613719 
-0.2038577751761721 
0.1094701706466265 
1.02413856441503 
-0.2764725557244445 
0.9550303292576661 
-0.1902283858569458 
-0.225598332942536 
0.2521598735912029 
0.05522226594449479 
0.03370027199307456 
0.592755877741782 
-0.5377446266855647 
-0.4501366340453531 
0.4273623185401803 
-0.4260917147727373 
-0.0195264837819749 
-1.488436773673388 
-0.07338926717160695 
0.3168476594535687 
-0.5608038266110524 
-0.07528177960666081 
0.1329895491872494 
-0.6525520675726955 
-0.1082057021675148 
0.1377759628019492 
0.2576771788502271 
-0.3424525838957516 
0.212554664694735 
-0.1058629376686023 
0.601578372913473 
1.082090571117033 
-0.2874997470445868 
0.0671589385093373 
-0.1310671415049427 
-0.03997885784288796 
0.3012905644802061 
1.061045076539856 
0.5889134883026648 
-0.3183776641211486 
-0.3723675217490858 
-0.2895824367801765 
0.03023180276926161 
0.05058042360713291 
0.175490635792503 
-0.3678027903126672 
-0.3188486486847999 
-0.1139616887831013 
-0.4096126689022758 
-0.2470926171367987 
-0.5238753084296299 
-0.6981707686422196 
0.1157780182966574 
0.05353606928427822 
-0.4153345294146888 
-0.3677244971857965 
-0.06191487297113837 
-0.1938951416882653 
-0.3317713563985639 
0.2974710837968412 
-0.602693066850283 
-0.3178387543192026 
-0.1130969249640263 
-0.2324324786032206 
-0.7016156742378965 
-0.04712452910496442 
-0.2953461736917281 
-0.3553869698205849 
-0.1353548437040457 
-0.348498326008553 
0.1347811011547594 
-0.110567857874888 
-0.5420812086374567 
-0.6911945825191546 
-0.6929752467720526 
-0.2354369616800548 
-0.1667434243375941 
0.4565854800668862 
-0.07331446267834725 
0.4433976141663218 
-0.4835927371641348 
-0.4046463803556924 
1.535737626434935 
0.008470260879266209 
-0.1904690712001926 
-0.1328563833294076 
-0.7565961546155624 
0.5334598298848142 
0.4801046412064089 
-0.2099163399395785 
-0.1990820871826489 
-0.198647404010976 
-0.1353828522084812 
-1.271582197092475 
1.123479466897356 
-0.4600885982133105 
-0.7033463859879537 
-0.449482270125113 
1.930922554912829 
-0.1221883590702372 
-0.2667687506660472 
0.02285126395897293 
0.06490719239888464 
-0.1240421295627262 
0.3241616174362503 
-0.5664245366929317 
0.4394743483849455 
-0.4176056537962596 
-0.2018071635647412 
-0.4092007793015704 
-0.6349435699680748 
0.2239958861330257 
0.2897979946236068 
-0.4566672784852936 
-0.445065522144219 
0.4409348793969076 
1.058188571518787 
-0.8042139873753043 
-0.4929496919733312 
0.4968190727959262 
-0.640784194102941 
-0.1734813466050578 
-0.6011340858258941 
-0.7546310262732224 
-0.3872418100256859 
0.01016492940937704 
-0.3096582723725897 
-0.1648506881371825 
-0.7730007450274946 
-0.05682789830136557 
-0.5129574522785356 
0.4074422390055764 
0.2637164694397642 
0.1927018494000855 
0.4107953872508442 
-0.3233452905626267 
-0.7172708100759693 
-0.3898144354500617 
-0.268835183469939 
-0.003065159809801416 
-0.5288218355550847 
-0.6291353927370561 
0.235507882447261 
-1.110723073159647 
0.5489231201002831 
-0.05413773697353113 
-0.1646615788998403 
-0.02201976658362786 
-0.2207408951723782 
-0.5671661071103741 
0.4450181501066557 
0.02252769769935644 
1.00248436180687 
-0.4449856758044465 
0.5211030716589661 
-0.2837694889849499 
0.7398668283381455 
-0.4316615714453998 
-0.3832884325183901 
-0.3350170320258036 
-0.9914630532109885 
-0.2032195093033082 
-0.7021907914518651 
-0.4960974639949842 
-0.180036735106378 
0.1292319109436864 
0.7770409286577166 
0.4480912435748937 
-0.5156648682150163 
0.06092403498827022 
-0.3477015450293532 
0.08820098107980014 
-0.04456054942918217 
-0.3716235171247374 
-0.2067004684026689 
-0.0871132525822864 
-0.4498840071187799 
-0.2126630541436983 
0.4167858841773364 
-0.318686988944746 
-0.0670995026766074 
0.8721181792590612 
1.078116965883089 
-0.3178636282144259 
0.04609351670970657 
-0.6819849908510294 
-0.1638269673708831 
0.6830589551645775 
-0.007241083454617532 
0.1304331412064947 
-0.07692810038296491 
-0.4353348593282405 
-0.1670210452856182 
0.09935843006563322 
0.161614229787292 
0.1959545798668204 
-0.4925427923090553 
0.5567405365817029 
0.5477544887211003 
-0.7678666445066866 
0.1415088073996756 
-0.1337878904401871 
-0.4026619977835064 
-0.3492072924486271 
-0.349416151878428 
-0.3773999866241828 
0.6082591146871524 
-0.2756588033283853 
0.2889934558222461 
-0.5702815975568818 
-0.855901375695473 
-0.7003466717004105 
-0.1857534392317168 
-0.5704732454332222 
1.419812911750479 
0.2724036339604519 
0.5378130580832418 
0.09213517053755162 
0.425559618588888 
0.2138952753476646 
0.2611036255074257 
0.1642553837833881 
0.1329787209799682 
0.1363847293116893 
-0.05744345408535854 
1.39234343144696 
-0.336423413365379 
0.1682485240069633 
0.1015977613999919 
0.07036365901815718 
0.07464492678961544 
0.3082042943026073 
-0.233474702490945 
-0.5685223998401832 
0.8580179733387301 
-0.1356226993761717 
-0.3542069609261335 
-0.5215719075007004 
-0.02548700931321825 
-0.6138156417516191 
-0.0294345174914874 
-0.08722806952300149 
-0.2463472318307466 
0.5132749712785936 
-0.4849356471241195 
-0.01568586807934746 
-0.6043333134381643 
-1.372522885684707 
0.6430744436474926 
-0.0904395900785229 
0.05526834117235649 
0.3196033104004504 
-0.2321241461753172 
-0.6743152323244521 
0.5763053932947095 
0.05507113242486236 
-0.239106361312608 
-0.005496171426334178 
