solver_type L2R_L2LOSS_SVC
nr_class 2
label 1 -1
nr_feature 512
bias -1
w
1.007449877856804 
1.522596809877809 
-0.5215365985380239 
-0.7635453265252563 
0.3688899463324515 
0.2483154172022551 
1.127530848910459 
0.7897111852794685 
0.04299744132538518 
-0.2694523272533356 
-1.050095333392397 
-0.4968134108323784 
0.009408707295182216 
0.2201930546374992 
0.3646748920051101 
0.4533315072977983 
-0.3373448857675496 
-0.1532185445005952 
0.4303257324770972 
-0.2000793725788489 
-0.3345831965342215 
-0.5061958441821067 
-0.123367386185387 
-0.8466200469744476 
0.4098417069140609 
-0.1966714635034274 
-0.008897610351502459 
-0.7428320032466111 
0.6736702240440157 
-0.4870758400258053 
-0.3152520035380099 
-0.4024778786718056 
-0.1785565749596557 
-1.045589858840254 
-0.08421022991626401 
0.09858705889064702 
0.1214906270042225 
-1.06690864364153 
-0.9781207977134648 
0.06029862287232619 
-0.2825086066907215 
-0.4481697162692143 
1.316259561043702 
-0.167689281132415 
0.1712699201841464 
-0.8213072901839357 
1.153707550549793 
-0.1088815189733839 
1.200945368141855 
-0.1603513303972101 
0.346582427522822 
-0.1824144578214765 
0.2034677679113215 
-0.0004816829538357567 
0.1935156414069348 
-0.5384898396394688 
0.6767505152761949 
0.6340076801994633 
0.1057516361711294 
0.3187537539498169 
0.6752335878069592 
0.2290055880072561 
-0.3797958579800512 
0.08851205166335838 
-0.9162132548278754 
-0.802281091763834 
-0.489545015244449 
0.1362380982895195 
-0.3392130552903428 
0.4865846417336788 
-0.4619047873834583 
0.08040853912664928 
-1.166735689911569 
-0.1980708264281246 
0.08476030982259326 
0.4522540440208992 
-0.6755023236942931 
-0.6456819349420837 
-0.03522063679672383 
-0.02949993597521005 
-0.1450062060279149 
0.3723931798427804 
-0.2879737149276564 
0.6471745251412865 
0.5729679309298426 
-0.6729742173013433 
0.007742724941623279 
0.5656825666052994 
0.3774225023244578 
-0.8782159482427958 
-0.7536187394938813 
-0.6629876359379562 
-0.1743869536664158 
-0.7218503295985714 
-0.7866444189058056 
0.4689176691738745 
-0.02764927700677447 
0.829479065942011 
-0.2997512897654714 
-0.1393542112491409 
0.1046218367444682 
0.6030576351704131 
-0.1849440882628668 
-0.1874443364146283 
0.5866484163159706 
0.2867393793489886 
0.1915947826012731 
1.56100971119625 
-0.9271274316579609 
-0.5886958081405269 
-0.7669867751646594 
-0.7005667532932158 
0.5643032313241307 
-0.2553359328341656 
-0.6971349458819653 
0.0228795677326807 
-0.1234929209227752 
-1.184333042664589 
1.087834914591379 
-0.6221581324146166 
0.2786099406184656 
0.182675058823577 
0.1438860318673046 
0.2011325145621148 
0.2299300082517339 
-0.5948393889960382 
0.7170542100438914 
-0.1086859354137553 
0.6017476134892458 
-0.2864123713381728 
1.019861407761138 
-0.6332432324329614 
0.7950194309016599 
-0.3389194781734248 
-1.255157548090241 
-0.3845538558397357 
-0.4195751921158073 
-0.5195059785089908 
-0.06796941919698682 
-0.08357257524394932 
-0.5651416090481364 
1.436515633048982 
-0.307330621095359 
0.9474661577039449 
0.5624796727620006 
-0.5278306296345028 
0.08258149175766023 
-0.186428976721951 
1.644342050987463 
0.4239221737377853 
1.631056733910562 
-0.497895610293289 
0.1663611798280337 
0.2156346844429053 
-0.1440067714985092 
-0.1302548481151454 
-0.7347012156771433 
1.268342957309998 
-0.8729790946390962 
-1.042428990929519 
-1.26360249155383 
-0.9290429963505192 
0.757682125467343 
0.2868572366944946 
0.3711280363121106 
-0.35879961534305 
-0.4933949143562524 
-0.9730172838472981 
-0.1561329931148004 
-0.4530779166606219 
-0.7275957953056433 
0.2648981821757416 
-0.5425464943462143 
-1.032814220702426 
0.1252514084119415 
0.5139245760363497 
-0.2701000825201377 
0.7128511978482166 
-0.8655477618976277 
-0.04700593112854161 
0.1173484066503252 
-0.4741755644580153 
-0.8718350932590823 
0.1724178771032215 
-0.183146405463087 
-0.006441351037426856 
-0.5234714874448588 
0.4398407261461499 
-0.439192925273187 
0.08433342989017326 
0.3631662768365808 
-0.6264954038764322 
-0.6877421434966411 
-0.201210711149717 
-0.1588536130690766 
0.1836314985223848 
0.4888827787936083 
-0.6865299568103517 
0.4810435882907144 
0.6300139417824637 
-1.338990269127952 
-0.7002459912521483 
-0.1907103952613614 
-0.3129824003049568 
-1.28251211187472 
-1.071020020277503 
-0.9286394131340328 
0.570416693511919 
-0.1540869767324886 
-0.480805140191657 
0.0442949735011739 
-0.5234025880744718 
-0.8747386276678984 
-0.7829428219995961 
-0.7296994599217738 
0.1260335512821261 
0.3896542412472191 
0.3461940753945919 
-0.5654574527986791 
0.3597860458662763 
-0.2511918282913745 
-0.1354511964931559 
-0.4146873006658313 
0.8141953678476184 
-0.802760448124506 
-0.6678380092674809 
-0.6347436069412964 
0.2710362121078669 
0.3841604542772069 
-0.5981097212179906 
-0.7363845772101049 
0.2720738816795343 
-0.4140834726238727 
0.2597838093643138 
-0.6181108643120891 
-0.1186193223711052 
0.3598329668247513 
0.2142879136663718 
-0.3622841611286768 
-0.3847767839804055 
0.8675415866919155 
-0.05848778294961116 
0.3093852182183741 
-0.6187565714370343 
0.01430220695535729 
0.01508497569038285 
-1.013055325575862 
1.08401422309661 
-0.5578249359192392 
0.3398573660089128 
0.5342373827447027 
-0.9226769767947082 
0.2903773023672305 
0.1424990657502196 
-0.9891089087109637 
0.1681874477249027 
-0.05640852026501116 
-0.5388457517083046 
-0.4483766279561551 
-0.2785194523055021 
0.7556242801900535 
0.1490393351679416 
2.018198760320585 
0.4397067915065792 
-0.3398693712485843 
-0.1881716750384571 
-0.3250814937303464 
-0.3143774378249029 
-0.1036677140734986 
-0.3600725873134917 
-0.1038495496153381 
-0.845066031819402 
-0.05838135074114877 
-0.3744042442238343 
-0.1201556785433868 
0.1259595774855317 
-1.203414208022143 
-0.4252040947284265 
-0.4145353192418185 
0.2092849680976462 
0.08717823084193153 
-0.5179110104078078 
0.3586063839576604 
1.125324672584677 
-0.9922572423089401 
-0.3975097077235569 
0.1301971766366929 
-0.05603767702421501 
-0.3694910008739056 
-0.04912255911506903 
0.09867193539816976 
0.614351349897806 
-0.06727755173432015 
-0.4724539106413818 
-0.9017173450990832 
-0.8926766013848607 
0.5522905004280652 
-0.3858704176608905 
-0.4689267925186349 
-0.04909587461364801 
-1.068185359894732 
-0.2452775980507988 
-0.4682352808004235 
-1.095797544057374 
0.4150830483751888 
-0.986120481672541 
0.04336305234075295 
0.9901212668197326 
-0.2079631147433542 
0.5930882831940589 
-1.323463460569377 
-0.537695632862379 
-0.6528734959816848 
0.6619959030269617 
-0.5251756065796522 
0.8353697042405104 
0.189524345547615 
1.316978307456123 
-0.2248467637933135 
0.2578973213716623 
-0.3332702895604502 
-0.4984887351144796 
0.1345643261765777 
-0.3495684883997972 
-0.2823565876243213 
0.8762615369205889 
-0.7051984110390699 
-0.4263767075982123 
-0.05164036662857652 
0.01810193438796921 
-0.4413319108472094 
-1.351363878837057 
0.2584337923522902 
-0.7269221720511072 
0.3878652843373448 
-0.06772050441250189 
0.346107723385271 
0.06770641543001023 
-0.1118953036530675 
-0.7026047129157595 
0.03827731480890603 
1.654006866798133 
1.012667725877375 
-0.2190884936512308 
1.322856437035082 
-0.2894199832003157 
1.286481220378784 
-1.098572581127553 
-0.8998628112727176 
-0.2379448230915018 
-0.4412631443183332 
0.3224418567293856 
0.09920383992713527 
0.04709145796003383 
-1.069612435413265 
-0.3740986551508835 
1.406655581001912 
-0.7500918846643004 
0.0314452003994059 
-1.104716690638196 
-0.2551825910056714 
-0.1088344340266046 
-0.4711704279529042 
0.1322213988521708 
1.499499765810508 
-1.084161150998702 
-0.3498923475428757 
0.1499836350498809 
0.4674432532810141 
-0.1478656527038958 
0.2311255210578434 
-0.4877590741978751 
0.900147941951338 
0.4633589733488819 
1.18592946797113 
-0.6393001409848921 
0.2564996856657354 
-0.2059912955834618 
-1.428719374289548 
-0.4252964514739725 
-0.4529352062814748 
-0.2754781175650413 
0.1105047717387685 
-0.1284576930868547 
0.04362369684316562 
0.07843640706547458 
-0.6842469299999429 
-0.29691851850196 
0.03234659656755792 
-0.2579151765975015 
1.079969961624417 
0.1851195330346926 
-0.1628617619973748 
0.4967005354287692 
-0.8396319120690769 
-1.344928929025986 
-0.2837080804105465 
-1.756978323316526 
0.3718870928040296 
-0.5330657432884572 
-0.3477527230201466 
-0.2326487923194615 
-0.4510450627334999 
0.317318117223094 
-0.2977595992719811 
-0.2002298712183863 
-0.3256378850770896 
1.551883060822171 
-0.8378854036092298 
0.2552996399031615 
-0.1888112186611838 
-0.56585104682416 
0.8100771345575029 
-0.6330850036483587 
-0.08163763323199813 
-0.2117846231791339 
-1.135139795310365 
-0.514228141671262 
0.1504057675682673 
-0.1783946868538791 
-1.062321584169345 
-0.5894387182564822 
-0.5665106545391465 
0.8858791942879685 
-0.4534416880049073 
0.3768159331000647 
-0.3083706160914987 
-0.7968871543943943 
0.1929713440729201 
0.6447362676465558 
0.0731455061065603 
-0.4204270547070462 
-0.3321247568772071 
-0.5875996419194378 
0.7973464222898806 
0.02358176825045871 
-0.2161003355279855 
-0.3460214201034348 
-0.272097549414176 
-0.2930052838718252 
-0.454121677654991 
-0.05962078486618592 
-0.01977332049169846 
-0.2632788120725994 
-0.1829775679876754 
-0.1320656678897719 
-0.6994412897168581 
0.3246394140087656 
1.062014908515871 
0.4920499436453269 
0.005016184539778045 
-1.350726241235875 
-0.116058337089895 
0.2859405652402654 
-0.6695294386368936 
-0.2468844744083817 
-0.3649232959958968 
-0.3188415627428608 
0.2937025935018512 
0.04586092075411913 
-0.7139535193912151 
0.01245524688128869 
-0.3385882408341438 
-1.037599084951461 
0.8311381590360628 
0.4985580705986763 
0.2722991468897771 
-0.600225011717622 
0.3048621037364929 
-0.3592998674593788 
0.5684304378715096 
0.3265613654978703 
-0.3831223595690373 
0.619255682926074 
0.2177414883865725 
0.296230908774463 
-0.06433299822365252 
-0.460458562200848 
-0.4041907971145204 
-0.2029178227977614 
1.189415000829081 
-0.4417294392941135 
0.004205498381071357 
-1.074256020254971 
-0.9079441564037972 
-0.4443340297938895 
0.7553942245366405 
0.4483708894276729 
-1.305380139508486 
-0.1481198608430699 
0.04578570364956155 
-0.1919274646926528 
0.01644870754091945 
0.1611064287002571 
-0.3039772364711278 
-1.100869098330032 
-0.2150735548315339 
-0.102845294573591 
-0.3677172392028336 
-0.5074353067405575 
0.3746696719547711 
-0.6042403552649224 
-0.3025376755713489 
-0.274883136941093 
-0.5645582001140842 
-0.5098587169088354 
-0.7917277913648201 
-0.7169589960080318 
-0.9878446034620022 
-1.034376220813374 
-0.3246727130743128 
0.06358765252878171 
