solver_type L2R_L2LOSS_SVC
nr_class 2
label 1 -1
nr_feature 512
bias -1
w
-0.01236051012752332 
0.3145109373373272 
0.04613161364177926 
-0.1865052997828032 
0.5844029450936649 
-0.6208599535567129 
0.2400195770983916 
-0.3404752423343581 
-0.5796676413398705 
0.5173961362600886 
0.3046794382709301 
-0.2289008632915259 
0.6084424020927379 
0.3627101438261575 
-0.2946151244805281 
-0.2933142783312914 
-0.4771185521812835 
0.06956990102949744 
-0.2606404536931571 
0.8303488125455581 
1.121730365171669 
-0.3641606808671918 
1.499207213342858 
-0.9526640403115657 
-0.01851821397025489 
-0.01887407673827857 
0.111405572693736 
0.5879993198907281 
1.313891902315793 
-0.4597137841591921 
0.2472886796751485 
0.2663876643642193 
-0.7271864207598316 
0.7518671153485614 
-0.3380156702963717 
-0.5649169352945009 
-0.02111975166458638 
-1.154349606765993 
-0.777373120037274 
-0.1257848034016386 
-0.7955865787656334 
0.153353232518264 
-0.425156977238489 
-0.7909464878886054 
0.04308663016641003 
-0.9641020269081785 
0.5401052291883305 
0.09507709555618761 
-0.1815074508053094 
-0.05701931810252941 
-0.531553167878559 
-0.4693825728702864 
-0.1251302291834908 
-0.7555045438814008 
0.0887815046657465 
-0.3931512243267425 
0.2972881556291855 
-0.3497893177913655 
1.872415699853011 
1.682235102415262 
-1.453324690440075 
-0.01312679507076849 
-0.3452050016196963 
-0.1351141013125931 
-1.03095049308225 
-0.2455232686175956 
1.030125257647152 
0.2865054382273408 
1.187936818476697 
-0.2413287789042849 
-0.2030068597416306 
-0.195390402539027 
0.8607236235584711 
-0.3834671092030284 
1.03440839426513 
0.6153071416379422 
0.6849533948221785 
0.7391937964006456 
-0.1423929626731926 
-0.1585964167247714 
-0.7073844922247857 
0.3010072141822148 
0.6275994780399529 
0.03265239265374028 
0.5530746947085912 
-0.1513747306925486 
-0.3950138981433478 
0.6814855507740881 
0.6049567597932639 
0.297200751752852 
0.07428173682897692 
-0.5737338442679837 
0.4898614995440568 
-0.6698531937554187 
0.009404059645754394 
-0.9106772095718116 
0.7831248926118279 
-0.8207036292127874 
-0.4595218822083343 
1.313554251970186 
0.1905561965269902 
-0.1317844992520935 
-0.959061583926103 
0.05546257402343349 
-0.1251834171906909 
-0.1539394219053699 
-1.215604700419922 
-0.03498176371160204 
1.112169607157474 
0.1639205275254432 
-0.6923892905412906 
-0.682034730814744 
-0.8097262813170559 
0.07127865047513654 
-0.4176160831006941 
0.1615028704518026 
0.406821365787816 
1.059100808050181 
0.2584865585878635 
-0.05953838037692367 
0.3632287834200971 
0.3504729598628831 
-0.21271008420743 
0.05887059373253891 
-0.256921140686112 
-0.3211477172227534 
1.628788547478524 
0.1413420663909006 
0.4948260729150564 
0.006357685319076177 
1.159048000203412 
0.7895048663462195 
-0.2712691159031737 
-1.182951140835659 
-0.2718199319472768 
0.8015400136442538 
0.4896964302983829 
-0.05806036409736934 
0.331987625980916 
-0.6927889280203169 
-0.06539892106633147 
-0.3723981137745261 
-0.09843522122138897 
-0.01956012519249388 
-0.3431989209642721 
-0.02846247773868575 
0.1758246977448066 
-0.5463324251453376 
1.186010712816673 
-0.5216519255522782 
-0.5105419465932933 
-0.2673831924208144 
-0.917876805181837 
-0.2871179962954348 
-0.0001496392490027516 
-0.3429566720620914 
0.4649987505686894 
-0.225290565162608 
-0.2548311174641212 
-0.3268689618427129 
-0.451229692743294 
-0.02903090435239019 
0.0718641463226372 
-0.04609236474248724 
-0.4397085128692914 
-1.799000296603662 
-1.06925069051959 
0.7726518543572465 
0.6156861593164851 
0.4403412913404965 
-0.6147340489118848 
-0.6649850922204359 
-0.2596026483585063 
0.1944883142486706 
-0.1113015414738864 
0.7184108610590147 
-1.292657779739708 
0.07645507223201087 
0.3930362208154659 
-0.4234473570668373 
-0.1200141841245122 
0.09478131056894611 
0.5298754905841226 
-0.7880204339418321 
1.206078766148498 
0.1819943998700883 
1.1954427012451 
-0.3810039287191498 
0.6705355833464279 
-0.1671945094129453 
0.3444487740376087 
-0.3168894387662857 
-0.3942849903231171 
0.6480227274854024 
1.214241565016969 
1.066767608932751 
-0.5149004546558968 
-0.0229780566270249 
-1.028777357868535 
-0.2936738238018763 
-0.07252341329666821 
0.13493088593899 
-1.316874175179544 
-0.2282455037818682 
-0.137024564535242 
-0.8043590107676304 
0.3560965530484571 
-0.6517953673785963 
-0.7259077188075302 
-0.7194009061591301 
0.2739034113441363 
0.1191601668910422 
-0.8745518450768189 
1.258251456019192 
-0.6121717995796661 
-0.6596943544626185 
-0.4172343005388661 
-0.1551873805810882 
-0.1435867899793 
0.2890255093307592 
0.2280352454567358 
-0.2201077485331587 
0.3725984822840184 
-0.5664509294888787 
0.2714105181641063 
1.293698262332033 
-0.598557707639345 
-0.8014788780369388 
-0.4775177610472149 
-0.1189800029856724 
-0.6770053157188585 
-0.3388930951602395 
-0.4368434470296304 
-0.801601722341301 
1.034865828204863 
-0.1127756373182078 
0.06242905136009344 
-0.1500804583549039 
-0.5720161165880879 
0.4237126655971978 
-0.8572862387619262 
-0.4341291493468726 
-0.8310262012985949 
-0.4685226352740347 
0.2707571990513342 
0.1632539170434405 
-0.7610012527941988 
-0.3678266301250171 
-0.7546170460430219 
-1.349812527806233 
0.04699184908648823 
0.1274689913905325 
-0.03575208122102214 
-0.08477954044187985 
-0.4862139028531371 
1.471052706697135 
0.9506781325349462 
-0.3897613378963361 
0.5151884927328921 
0.185399910977069 
1.690360011069787 
-1.340137338262036 
-0.1335890094454116 
0.2775004360284872 
0.1048546840930723 
0.496736174898564 
-0.3421071579387255 
-0.6074082828844594 
-0.3910065267286091 
0.002221331981959713 
1.458886734772037 
0.2067661448471452 
-0.206284005890196 
-0.3304718221296985 
0.07635469017538164 
0.5307333921389308 
-0.6395899061554323 
0.1022677048755104 
-0.0374023599227113 
1.866096907331507 
-0.2012702618987652 
-0.2065151626766386 
-0.9163915010162834 
1.172476902875399 
0.6751821641886395 
0.9330527085145075 
0.09007531565781035 
-0.06576680452965251 
0.3053042524748382 
-0.6918543171417767 
-0.3945968420970375 
0.05000541344829119 
0.09279329939882421 
-0.2234388775976163 
0.4296473496197016 
-0.08471277731908226 
0.3219254584221156 
-0.7246781645876009 
-0.4450021253429842 
-0.02109690583819103 
-1.675670063039071 
0.3564511650978601 
-0.3402190641012772 
-0.1813314755097727 
-0.1450341959089665 
-0.3749529138877519 
0.02480059354326547 
-0.04104117515770943 
0.2944533759157126 
-0.3791439597507599 
-0.5646215275565417 
0.6237339105895062 
-0.2688531262010243 
0.2670809165711058 
-0.4527753361706889 
0.06348258556208766 
0.005653466531663001 
-0.02536497938537043 
0.2150237571330756 
0.2208709225836469 
0.2451184348455247 
-0.2604160896085067 
0.168648701289751 
0.2809898327879715 
0.5646627641605729 
0.134587331518581 
0.1798505976124441 
0.1153433218488677 
0.01705081498473272 
0.2062467431736875 
0.4821394206776794 
-0.5261889376940783 
-0.5263729549568018 
-0.4034361540821156 
1.073040173269124 
-0.4337192605155163 
0.3800093371632457 
-0.754261777181898 
0.7160749725977497 
-0.4264566121649875 
-1.50294850541277 
-0.03663132720135286 
-0.4110804883966067 
-0.5014255359924624 
-0.06341353140077526 
0.2222101199351442 
-1.678433461281557 
0.09600839450750502 
-0.2318292776666112 
-0.965624341984612 
-0.9789249083506163 
0.3263665396642284 
-1.280813753946244 
0.2857948752168908 
0.3110163902528877 
-0.216173873662869 
-0.07439597244229273 
0.4228204556549168 
-0.0606044807596095 
-0.03802536984328969 
0.3718294611959022 
-0.3703764436934077 
-0.1793688013277825 
1.112951420215387 
0.05187444397431235 
0.2782503653749628 
-0.1849282542613104 
-0.0003988306805534445 
0.1652009535927368 
1.822609236411414 
-0.2434250376377969 
0.05675143691945436 
0.1533798464246574 
-0.3780261107455062 
0.1618699112332975 
-0.364584992297467 
-0.2296055134637223 
0.6809935379962054 
0.2198744985501991 
-0.8444990046062664 
-0.0647672374802245 
0.3395017757518659 
0.9764428227955405 
0.5870681036766574 
0.02511136614060464 
0.01572127153694232 
-0.5246184612696944 
0.006376689134293226 
-0.6021399319765588 
1.021668505109631 
-0.6254470403089973 
-0.8666007859143346 
0.5226838810453753 
0.3943185135941906 
0.5584911364374884 
-0.3884871510035566 
-0.6842491245394551 
-0.8118474645808155 
-0.1443261562148211 
-0.5753945745106831 
0.7654324182490614 
-0.2915189631678174 
0.1823101412837896 
0.9447513870774639 
0.3093550400536676 
0.3872963685139132 
1.060074880157294 
0.7150020573062351 
-0.107726834498664 
0.005491728102920848 
0.5475829869838581 
0.3121641748110701 
-0.2173528021620709 
1.401825888642638 
-0.258507297216169 
-0.155962056478034 
-0.8700081751997573 
0.4658262952479199 
0.7112430543579071 
-0.4687926023679008 
0.9132590055490323 
-0.2539988781873649 
0.535138202862692 
0.1883948455297756 
0.2710623046707085 
-0.08905474279672852 
0.5857656734640104 
0.1776484080976218 
-0.2297309701550127 
0.03723819211990244 
-0.5183647901690064 
0.2321866706121019 
-0.1256726234735994 
-0.1677146532666352 
-0.7417299291211253 
0.4512303271781083 
-0.5591512390819998 
0.5778547368033183 
1.142668125509493 
-1.032211390672496 
0.1760092706855039 
0.9934443947934767 
-0.6647741297353541 
-0.06178997359945964 
0.9225603814479517 
-1.116139240294501 
-0.6975011564288519 
0.2794653839441247 
-0.6963191549885215 
-0.3047999323954105 
-1.588358644375703 
-1.018745861051561 
-0.1191830138012263 
-0.05820675752869412 
-0.6501796861638244 
-0.5727151300721697 
1.276099573805342 
0.2006122476330806 
0.1703046785189826 
1.015827556753128 
-0.9245676067458005 
-0.1499081788465264 
0.1514311024998392 
-0.9120769231727913 
-0.6178089240954616 
-0.7163675296521202 
-0.8376736978220068 
0.149932574595082 
0.2726247158311787 
-0.4763509746757107 
0.1209276792894491 
0.3547906114022656 
0.4793657748733783 
-0.6380606630722665 
-0.111594735283603 
-0.02829943772262804 
-0.5149073045050609 
-0.08481437732620205 
0.0006201244497732036 
0.1296839286851066 
-0.3767406418161101 
0.777097512391124 
-0.9015219895776588 
0.2097495311574966 
0.5298104483853728 
0.1070252781594688 
-0.3770076526813345 
-0.7672313181276522 
-0.2375993647678886 
-0.5374498552220107 
-0.0762256127879966 
-0.09731022288277369 
-1.128721683778683 
-0.4745287842086282 
0.06056797365694625 
-0.1161614482512892 
-0.6008357963223074 
0.3679633330263645 
-0.6790300202620436 
-0.6961312826963302 
0.4017446662672229 
-1.285389079906733 
-0.551053283357419 
0.1646382884984742 
0.8116795235923043 
-0.3263700924405402 
-0.9155004868020298 
0.5820406313970976 
-1.499375453877465 
-0.8923957844337805 
-0.8776986421761618 
0.02844520058495902 
