solver_type L2R_L2LOSS_SVC
nr_class 2
label 1 -1
nr_feature 512
bias -1
w
0.917875760082364 
-0.9301776099673722 
0.7398326898348909 
0.1076288699667082 
-0.1039933900584997 
0.3711835174081687 
0.141981969392114 
0.05342486904892488 
0.9019595517205726 
0.1167635633219624 
0.1849554764194291 
-0.1087730974351642 
-0.2928843675504736 
0.2292849690307218 
-0.02821887804632425 
-0.9640420384271462 
0.277191430342612 
0.1946200802377851 
-0.9399292308496016 
-0.2967819187307806 
-0.06460213410326064 
-0.486688070964242 
-0.1392327570011787 
-0.3493693491987348 
-0.4190332940084613 
0.2620889520210653 
0.5947395179760137 
-0.2943905873380514 
-0.2949840892045574 
0.304887351711309 
-0.6525492269887186 
0.1403407902825203 
0.1895247669494499 
-0.5257605484354414 
-0.4330324208521212 
-0.5333309668687318 
-0.4362335444864893 
-0.6413192226948302 
-0.7361751893978544 
-0.1281624319842329 
-0.1298628068225259 
-0.6880832738040837 
0.412092220345563 
-4.290416807635694e-05 
-0.160712800125252 
0.06423142256447002 
0.4410130263571961 
-0.2449854658665269 
0.04176766358464126 
-0.5860597311468637 
-0.2979046556240538 
-0.3124299654553153 
-0.9837014999934954 
-0.5680849444975378 
-0.1775368153970542 
-0.3298971645302997 
-0.8730396744280641 
0.155335996274389 
-0.3027947245386594 
0.02797010167034691 
-1.345644844949072 
-0.2021881810920178 
0.3679463666187484 
0.4024605724357832 
-1.654568682806365 
0.4264840947440695 
0.3704391901050174 
-0.06463487877490132 
0.7406724707299488 
-0.3328403770720622 
0.3634386587122524 
0.02495418240108641 
1.34352478816822 
-0.2263967540033911 
-0.1677852189811634 
0.2918412012605178 
-0.6555915023263925 
0.4146401812733365 
0.123371981753936 
1.089280708698926 
0.3470475031785416 
0.7193906737641632 
0.3369113541653319 
-0.7645038093249673 
0.5293213186511084 
0.649637222257015 
0.5734824030465692 
0.06694903420738997 
-0.1159036155429219 
-0.2925158305210241 
-1.417576154294028 
-0.4827463497026408 
-0.07782210966936864 
0.1658903676295955 
0.1087304736165838 
-0.05632822880000395 
0.3923044656627426 
-0.1618326018245979 
-0.4365039247293591 
-0.2503920266276015 
-0.1068852453419502 
0.2676014333050111 
-0.2404173295466951 
-0.06792227076978045 
-0.7832050068118982 
-0.2070091517703599 
-0.9456382815061141 
0.3233470382583499 
0.1685048964722725 
0.6098194268571515 
0.5876273900912641 
-0.3724872138992989 
1.037863252218363 
0.1715853896903077 
-0.1431375403650612 
-0.1831205669968685 
-0.2489061224399498 
0.7212752136098055 
0.3541167641710801 
0.2228476965529008 
0.1738159582068578 
0.8272831628612416 
-0.3172798757790374 
1.130473685549008 
0.748415951062697 
0.7723313294582206 
0.489662026241813 
-0.2896779295007927 
-0.4070744433646475 
-0.7056292507655976 
-0.5916741989903792 
0.3771378618681487 
-0.02013116123753746 
0.04812469313068489 
-0.04132425537449869 
0.7249729128705698 
0.2581270539107485 
-0.172416340318007 
-0.0230564210481009 
0.228290028092684 
1.148819255082993 
-0.1259491203901735 
-0.06141528871959722 
0.1034926499994387 
-0.3446373197061428 
-0.4131968780930094 
0.26046471293009 
-0.1712850064683558 
-0.1888167289155898 
0.04643607861836192 
-0.6255553244072795 
0.1731245325916419 
-0.3228969212527504 
-0.3057612255201209 
-0.1720468003867804 
-0.08148447602957355 
-0.2110328730621103 
-0.9056629267857699 
0.1340837367835056 
0.2601053387848975 
-0.7866233738889822 
0.3710661266436706 
0.793405376120112 
-0.02836393154712943 
0.004086801195522809 
-0.5587243894987347 
-0.1422603894125544 
0.3244335039223671 
0.3850516791480447 
-0.3485116968996121 
0.6695655796542594 
-0.199236522802437 
0.2582386091360452 
-0.2644581505543017 
0.1680983208407817 
0.3862887709874755 
-0.3931170983513662 
0.4901084808207219 
0.3804521578991608 
-1.430649040951193 
0.0314235782895011 
0.2880861241701375 
-0.2903200782148668 
-0.5239308234770989 
0.1668977523259906 
-0.623456440682699 
0.527041014126486 
-0.0437157239968996 
-0.09027210096651228 
0.5266615941893118 
-0.1466058546608496 
-0.2578775285441383 
0.2027760650093025 
-0.7794226459918451 
0.2939448784471141 
0.5519713639709618 
-0.1581266729147864 
-0.2142506804313813 
-0.5036921488044744 
-0.2266105399517467 
0.5447738489932757 
0.4314968636004875 
0.1966407091864573 
0.1018296433717893 
-0.4220323435277666 
-0.8673398151751114 
-0.2499118034588607 
-0.07091444323272332 
0.5326568398067789 
-0.7541963711260926 
0.1148233190056947 
-0.2981839583219089 
-0.1604921726153426 
-0.3320964228602613 
-0.1120751919686134 
-0.3813664239290979 
0.2457613822414887 
1.11198663479684 
-0.195899672106119 
0.6960679156326217 
0.07101514787303581 
-0.07229847139151614 
-0.6492106125104494 
0.02044630027667959 
-0.3695415730956777 
-0.03111013213291912 
0.5216602076504286 
-1.665760768469465 
-0.1499289577566277 
-0.2160751582911572 
0.3465781909019972 
0.4550828387838711 
0.5701716036500905 
0.3802446944674171 
0.2915083745962718 
-0.5515472708143047 
-0.6165719721352032 
1.008565362207428 
1.030499610812019 
0.3616558728684929 
-1.628171103304156 
1.809433881402529 
-0.01199212616193307 
-0.09926854215497462 
0.4598626276340064 
-0.06462954566179291 
-0.1619222537708929 
-0.3160416866853777 
-0.4576261104772472 
0.5804206850437507 
0.5551246646335302 
-0.03462329369446058 
-0.418898750347395 
-0.2216433359151909 
-0.4461173815733138 
-0.5092857651680966 
0.6164082412676816 
-0.02440197480894482 
0.1881402675436509 
0.6760095340280513 
0.5230899194880875 
-0.660414682221686 
-1.80563897748323 
0.05971072527934416 
-0.261090284258451 
0.6552079853739508 
0.2113103698873647 
-0.2516691159526629 
0.07663003060275245 
0.09463170981156196 
-0.4622582017711146 
1.471636133573863 
-0.3727377813144601 
-0.3272991334190913 
-0.6857861562650103 
0.2829444570469228 
-0.256690814755729 
-0.4737493726536411 
0.7355361303507127 
-0.2558374404894849 
-0.2483905449900211 
0.3030992755396441 
0.6404349685597144 
-0.6162092286465627 
-0.8201899040423609 
-0.6386565510739531 
-0.1643491487701396 
0.003608255863642912 
0.492849810143519 
0.06109099641978373 
0.1509012814182506 
-0.172228964466138 
-0.1831166579688078 
0.598046189342689 
0.2343674393033175 
-0.03936887676097638 
-0.3956554618508795 
0.1709973049834152 
-0.4423327174231217 
-0.4222805182501879 
-1.394511159677341 
-0.5813433963865847 
-0.01769634732041428 
-0.4298781216206979 
0.01740314517505655 
-0.6135172252742289 
-0.1539392697127253 
-0.3150086288312341 
-0.7146629551593214 
-0.6248800771167132 
0.7420776976111363 
-0.4423971326784237 
-0.4522867184532716 
0.09086941331623517 
0.08345522599581179 
0.4547076461788239 
0.8481441984696009 
0.5596214344265922 
-0.539263153290769 
-0.3109780256157982 
-0.1660614652758369 
0.631490419725997 
-0.2281672616161928 
-0.1266970779137075 
-0.2548404853853954 
-0.0414092145229012 
-0.1959266967851128 
0.2101897435644112 
-0.1465953063702318 
-0.4023378961770842 
0.5728033458398365 
-0.1726169921675197 
0.0004371256809130777 
0.3998229101421322 
0.01388382447806706 
-0.2639328355351614 
-0.1680759473003965 
-0.2114452110913558 
0.186456878810515 
-0.23747158540742 
-0.9459065678107635 
-1.092948074916211 
0.4083528250045118 
-0.04275784297751662 
0.204664735562394 
0.1273348644359148 
-1.258619555069823 
-0.5949198501335303 
-0.6687505335964984 
-0.636862004473257 
-0.8099851882418634 
0.09029654380491742 
-0.4034489150261424 
-0.5823177093173085 
0.02623976079602334 
-0.6491248516821375 
-0.5668064705641945 
0.7174362889841088 
0.1801719126414967 
0.09752032580908288 
-0.8192805139376083 
0.8040030810599129 
0.2083326964913869 
0.2500401460218623 
0.2742485374827681 
0.1700541092556874 
0.6355239592521286 
0.1859304438960365 
1.030564436617345 
0.6866962950285881 
0.2160884209434643 
-0.3957139779064968 
-0.7422158650820972 
0.01589122434853844 
1.086347607958691 
0.05012111257826289 
-0.2635921324971409 
-0.9235110882102543 
-0.6132573742014807 
0.1995003036268561 
-0.2234890564813823 
-0.3889443149469352 
-0.1617177796129226 
0.08082948280862953 
-0.4578020320077029 
-0.3011323087393925 
0.3712358571767457 
0.4104256860921646 
0.2252441554094106 
0.2148464752261338 
-0.2737190472126825 
-0.3155164223753609 
0.5735190755986935 
0.5020468636158917 
0.5776064280155484 
0.4508343447948849 
0.2388598486068206 
-1.007711645315202 
0.5757649447651709 
0.1972353346847457 
0.6457986558821922 
0.7968681827376313 
0.6071931729080096 
1.167718827917336 
0.3524146250230971 
-0.530472605415732 
0.1574140123690029 
0.1409593973697594 
-0.5974174771584138 
-0.08220773929535825 
0.4750726220995727 
-0.2176382254370286 
0.1214161389196728 
-0.06341367156424789 
-0.7607988344630754 
-0.4474236815575568 
-0.9731316489445651 
-0.3507095173217862 
0.7495879852009846 
1.01971216905475 
0.2011511733197807 
0.8542142288946879 
-0.6875684697463451 
0.6591431709681727 
-0.2720386815696316 
0.2811762192534619 
-0.6386150134029812 
0.2848591408900766 
-0.8520993259666531 
0.6116121698749976 
-0.1635774946776533 
-0.6983274383076792 
-0.07002432354387651 
-0.1195621030820305 
0.2754109230176197 
0.2457790703240583 
-0.2820405917572879 
-0.36660618899058 
-0.3922499114018867 
-0.9292709263254653 
-0.4136497701706789 
-0.3970394319685943 
0.02776269306783791 
0.3821675112844877 
-0.3486348426143598 
-0.6768104992673141 
0.6297229062136394 
-0.4951564503693847 
0.2343559011410689 
0.4435025264773753 
-1.046772566211377 
0.168477172683512 
0.501770684014074 
0.3677720464589326 
0.2512703466323105 
0.3848297851441392 
-0.8071123006407184 
-0.4933980321779758 
-0.2173888135342512 
0.8701413400869108 
1.544043049456965 
0.02169585996892143 
-0.2666500536217448 
-0.2310064464291084 
-0.6288648878579683 
-0.6895379889784045 
0.08722348124766641 
0.1474255897406288 
-0.5288324904148191 
-0.1476832390438354 
-0.161411744220992 
-0.5263890774121851 
0.7897936006866263 
-0.7291586376659419 
0.2292588923479247 
0.06866013505521093 
0.1193486412300399 
-0.2173739067511408 
0.2626027157566414 
-0.548184415941165 
0.4611687726540493 
0.6592217447281368 
-0.3641891451349935 
-0.0664131949840218 
0.1934257697756748 
0.05568373602291937 
0.8423315517165144 
-1.043753221722216 
-0.9143836678757816 
0.570884911803526 
-0.1501733400551135 
-0.1688404149023309 
1.237654161098635 
-1.848817514220913 
-0.1252243681491337 
-1.136360448142311 
-0.3975645636835102 
-0.3357434770648541 
0.2484035567037411 
0.144683904588519 
0.8303769387718872 
-0.3898556124397752 
0.008981688308975076 
-0.1270299131635139 
0.007717374315298436 
0.3628738657670074 
-0.6311498918363373 
-0.5825039105568548 
0.305383147885039 
-0.4150047637338461 
0.04714677609396029 
0.7017227000593246 
