solver_type L2R_L2LOSS_SVC
nr_class 2
label 1 -1
nr_feature 512
bias -1
w
-0.004418003857960526 
-1.160472852760831 
-0.5597750411935598 
0.08319869502294398 
-1.021440172742003 
-0.6404725362494971 
1.309332281097652 
0.412209409593784 
-0.1356531953669749 
-0.1088039601161805 
0.4620691074608161 
0.009828871800912044 
0.343275170904013 
-0.3843932966238958 
0.8363006574663115 
-0.5332189283344373 
-0.464869613227919 
-0.163110836338937 
-0.1043852612806556 
-0.2504187922044501 
0.005638192081708881 
0.005194333860146448 
-0.4871301169103439 
0.54375944060783 
-0.4138004602362525 
0.02240756459463305 
0.1784961581910891 
-0.1789917250337494 
-0.2943144840122182 
0.00596089457442036 
-0.6153242297481841 
-0.1482086002575801 
-0.225076256149449 
0.01421561281437723 
-0.08328494085858888 
-0.1545713689547837 
-0.3313747208236423 
-0.1394537464599574 
-0.3506500063632358 
-0.1582060644871808 
-0.05252516878304107 
-0.2753332250112753 
-0.3343183494192059 
0.1212292512667255 
0.1001187610569882 
-0.4430846377294385 
-0.02063526471278209 
-0.4165237259054717 
-0.1629916058913073 
-0.1574374349495258 
-0.1809871519897427 
0.5724771363895708 
-0.01737800343139335 
-0.1749631918597032 
0.05384243528051021 
-0.4906437742120126 
-0.9468102093697655 
-0.1798043317686726 
-0.06524471419761844 
-0.1645721999750881 
-1.263014185919845 
0.191903391913909 
0.4204572948187888 
-0.08094867136800264 
-0.8982847724989043 
-0.4894821130245383 
0.102238661104596 
-0.3753720898547693 
0.190047098299656 
-0.8007723484033804 
0.0410253314207555 
-0.08391883200663343 
-0.2777939138052754 
0.04471254015325983 
-0.4965634759759482 
-0.02095753969017499 
0.2068708724010656 
-0.5283836671293083 
0.1527638293255361 
0.1177628445560374 
-0.5974545729129811 
-0.1039792204682311 
-0.4484306540607904 
-0.3130523484023137 
-0.4298111538166774 
0.4363277405252529 
0.3649409362466572 
-0.2476366555635419 
0.01148485140752754 
-0.2764456459686158 
-0.7455399462883441 
-0.03214616196616935 
-0.2162856427301424 
-0.211483538396439 
-0.3769438285794824 
0.2426746108021055 
-0.08966958659907479 
0.3212166799922399 
-0.02482460051905894 
-0.165490524485766 
0.5519283241392041 
-0.1852745168263305 
-0.1163314488079264 
-0.07331388806290645 
-0.3099371682648239 
-0.1272956095658731 
-0.5847677576771487 
-0.1901014042536863 
-0.1929337849105239 
-0.03991579146892157 
-0.9911834815989051 
0.5447879928127706 
-0.3716205505259501 
0.0680828670404158 
-0.135187110440811 
-0.02230954169947619 
-0.4289103784553532 
-0.3036584940650916 
-0.5969222496028476 
-0.03906224925358819 
0.3073954488449903 
0.1370861773738519 
-0.4676507881441777 
0.04111466128731645 
-0.5591849510180451 
-0.1711764646616119 
-0.7453956769886647 
-0.0607977456960931 
0.6515306869494173 
-0.2927698824222734 
-0.1643210480731217 
0.0469533697476861 
-0.05681446245863727 
-0.5890290148374741 
-0.2249110744664085 
0.001363015330872066 
-0.2317293154901255 
0.4794518572877081 
-0.1521069683732374 
-0.2655311620733734 
-0.1701186813145728 
-0.4236523456533215 
-0.1561701663646425 
0.2478191675176325 
0.06367287264546252 
-0.2542990678148631 
-0.07259225538984493 
0.08407072179880754 
0.05817399992292172 
-0.09410187657615399 
0.4179230896104032 
-0.1645128132274463 
0.1955174708246657 
0.08445962548195471 
0.2366870907532451 
0.005549924394440565 
-0.2725180571980231 
0.09529437406306182 
0.3047635943653105 
-0.2470571108870108 
-0.4189976173058446 
-0.04129488505942198 
-0.1837937278101052 
-0.0391689409842762 
0.03544450723920778 
-0.7268191550531728 
1.277028792730961 
0.7292637183883641 
-0.2483132705475269 
-0.06631787099110316 
-0.2940076881617594 
0.4270782706943055 
0.4604257162774602 
-0.1983954039603369 
0.761445000181255 
-0.5136099132363482 
-1.300852443717817 
0.5587829285521256 
0.09237360211339118 
0.03745809271449033 
-0.1158383333935291 
-0.1788157554911974 
-0.6645705894717788 
0.800751887283184 
-0.162274857270422 
-0.7969680559011728 
-0.09773593556644003 
-0.3182688795207014 
0.2754669375880444 
-0.07348592241877595 
-0.5038566420566589 
-0.04571482536848301 
0.8091482195004167 
-0.1396083905322964 
-0.5211455607819371 
-0.184491557509662 
-0.9522237269572411 
0.008705860224769851 
-0.5027014758475439 
-0.7063419980206828 
1.256078939517425 
-0.1660271878025195 
-0.08110829387903223 
0.3100781113383785 
0.4027346148981081 
-0.6883604119063509 
-0.3389073201846743 
-0.3489946895840779 
-0.1932710033667345 
0.173305731581273 
-0.145768595641398 
0.4511816580460749 
-0.3146580768135749 
0.2193008454028025 
-0.09227699468718603 
-0.3629210860766062 
-0.3499013464301128 
-0.1430603812589317 
-0.7279632657433593 
-0.01411918896867879 
0.3889831801686057 
0.06051720317064392 
0.5568556559729738 
-0.2089721621611764 
0.08183921282520061 
-0.2860892742522556 
-0.1477549914331242 
-0.7552675833470573 
0.3406134690515059 
-0.2496518670097451 
-0.0407709855457565 
0.03181623636196411 
-0.1122003867901066 
-0.1752211869962778 
-0.1611590165450364 
0.02185406286566016 
0.06222080949956285 
0.2948863419934419 
0.7080162935539025 
-0.0469816142049065 
0.1905148427446472 
0.158578700854424 
0.0587627698153773 
-0.1115841202602958 
-0.01811235301933116 
-0.1588327596041193 
-0.3937231017314065 
0.1534315774181562 
0.4999440877505453 
-0.717399451568913 
0.2045417956783808 
-0.2489082443041707 
0.05692875952609122 
-0.2367670322923816 
-0.2263068051162874 
-0.6904859001116124 
0.5463506592118598 
-0.04909646113646778 
-0.3172354271896081 
-0.550149685843381 
0.2827081153332329 
0.1274194953507501 
-1.219826691262015 
-0.4824071295860087 
-0.1808932159544964 
0.4527797135898418 
0.259376954985539 
0.3462471731096524 
-0.01518141516441023 
-0.8755211900161152 
0.3157118396859713 
-0.5517953648784497 
0.187923757667822 
-0.3560923307575041 
0.2704856097883477 
0.2555251554646785 
0.08117563559160311 
0.3170679977680519 
-0.1449791004883332 
-0.29546077750617 
0.1606164965855342 
1.418367796519218 
-0.06571983920608072 
0.8216019691526433 
-0.06915159441423706 
-0.02437375723920984 
0.04121955538137016 
0.1783696099313051 
-0.08237853001483836 
-0.1530124439437816 
-0.03410372391737237 
1.258258784961622 
0.0380869003663669 
-0.2336225488072236 
-0.3430739200320894 
-0.1205701315033265 
-0.7667519905160179 
-0.7074623670789242 
-0.02947615106419213 
-0.1172333039589969 
-0.2403380641555065 
-0.2438015411666761 
0.1167893705495126 
-0.04673066626090851 
0.4160590628814465 
-0.09444329191231049 
0.1755859760742091 
0.2235423184244878 
0.09168113299877961 
-0.03429278332662894 
-0.01950967040432394 
-0.192863745320608 
-0.3396241171280077 
0.8454790210296668 
-0.3055655661182226 
-0.4865256179589032 
0.006931627236375338 
-0.6533722518941866 
-0.4701354358854122 
-0.2678639494078803 
0.09728967527783737 
-0.09484357047412754 
-0.1457411405933151 
0.03560078867300512 
0.1234437881893231 
0.229217065096875 
0.7473370163560984 
-0.04893861582440738 
-2.285214506391296 
0.05671927463032434 
1.376265402549335 
0.419635268260739 
-0.4424777930533594 
-0.2495418613546058 
-0.5400401804305721 
-0.09503330106322827 
0.2196056947239967 
-0.5604913166701996 
-0.1373554058692432 
0.006497356922202336 
-0.4659578005679017 
-0.2667825902892696 
-0.2243915836374779 
0.2056582125946004 
0.01899482864661245 
0.4156417763672423 
-0.03761175958242366 
-0.08982915997304416 
-0.7158021669398266 
0.3211519361939927 
-0.7647790787535741 
-0.3204039060380128 
0.3295893891974285 
-0.4388338525150187 
-0.7752777136885992 
-0.2847780692510035 
0.05547235487310304 
0.08069018032356734 
0.2103613690660615 
0.2842426887385159 
-0.8759041215331703 
-0.2339319987967317 
0.7859349253044545 
0.3538095052743186 
-0.4598255136083704 
-0.2444103274969864 
0.6192818361280162 
-0.427771283249549 
2.020950906965246 
-0.01942378819826176 
-0.2106116807319032 
-0.2470096867583636 
-0.2276559318158667 
-0.3471252119915694 
-0.5912535283802243 
-0.08833705750958895 
1.107397681343791 
-0.8428373127152017 
-0.4440895852170878 
-0.2650117914397846 
0.3268660013483448 
-0.3007031255254233 
-0.3217758701857708 
0.4360888422504252 
0.07984756045340199 
-0.1293202643363769 
-0.08032120417317307 
-0.1986238443019196 
-0.1462819612064871 
0.4454270348968581 
-0.1159958660595859 
0.9309732541008714 
-0.03774786882878846 
-0.1226956449047448 
0.1612317658136454 
0.3929492457501483 
0.1218010203285626 
-0.3416859322641391 
0.1291220821753204 
-0.1542243479039087 
1.648743639824483 
0.0244466196045953 
-0.2773003256222285 
-0.159905726483453 
-0.1856398737119594 
-0.269297554370911 
-0.3190280806959148 
-0.02347928453040489 
-0.190066031665991 
-0.2746548864196096 
-0.1801877207585419 
-0.491515635544716 
-0.1742819533113451 
0.2655145895083115 
1.700176092001124 
-0.3919920437676384 
-0.6695597261144354 
-0.5490481834407447 
-0.04191670623541217 
0.8882910746404508 
-0.1471136251042444 
-0.8301769687786306 
-0.3302377948581461 
0.01742865629048682 
-0.1457380063254625 
-0.4450568389323737 
0.009218105091229755 
0.03770489338908313 
-0.08203706074702136 
0.7888040799250208 
0.2078360160157599 
-0.7378400808969222 
-0.1796170030733563 
-0.3510063636113008 
-0.9673284539501987 
-0.2612361247295218 
-0.2336172427605285 
0.04120470756135142 
0.2604957364782018 
-0.2666843888412005 
-0.1638260981388364 
-0.4315357612191864 
-0.02969941273040701 
-0.07897372302381178 
-0.2910423293945172 
0.1087002629153231 
-0.1979827800801992 
-0.3928282134186522 
-0.2388557768892351 
-0.1706564161222487 
-0.2910361345355552 
0.6185191043359342 
-0.2019196650999346 
-0.3137265608527059 
-0.3617657723226886 
0.7247448121146141 
-0.2683307060883696 
-0.2388479149828222 
-0.02262176295378825 
-0.1479451897616182 
-0.589177629773728 
0.1761885975458978 
-0.1978206357323911 
-0.853648314139511 
0.4307625082269023 
-0.2311371886011958 
-0.1476522037560319 
-0.03998522000134858 
-0.07878801592527351 
-0.3874109105304825 
-0.129939495234529 
-0.2235270655771926 
-0.1889064543178491 
0.414868216434628 
0.003325564699440379 
0.3608851989082418 
-0.6736543496095919 
0.003047969980443021 
-0.2420512478680394 
-0.2821194404197316 
0.4028529172361405 
0.05910825339985717 
-0.4227137608859642 
0.1280369075661186 
-0.01050479916384248 
-0.2329668994874668 
-0.07947364760381498 
-0.3301858290779589 
0.3491148386097154 
0.08313454347055932 
-0.2705562838932708 
0.03628963913002016 
0.2647879669476105 
-0.7013698741149279 
-0.004317932114630721 
-0.03021821490255493 
0.01931377056430525 
0.3538267360651627 
-0.09191383290544572 
-0.3279616187435588 
0.2137174353562062 
-0.7413736836346381 
0.2801353821171008 
0.07956103481313136 
-0.1537140583487871 
-0.08786988487114468 
-0.7427785990002328 
0.2323638193622836 
-0.41754181833849 
-0.1993646925675936 
-0.02791482927534297 
0.1894463633493592 
