solver_type L2R_L2LOSS_SVC
nr_class 2
label 1 -1
nr_feature 512
bias -1
w
0.1434528178678887 
-0.05383511668768248 
-1.348867067996443 
-0.7097137684818356 
-0.9357865893529803 
0.168413081524735 
0.1927088396544011 
-0.631401305467685 
-0.9396648992146773 
-0.07312675200780848 
-0.1438085173840545 
-0.3208295587495352 
-0.082857187209495 
0.3539434110813729 
0.4226153490199808 
0.02375473629876572 
0.6579720663015782 
0.3590265812163553 
0.5907633738553519 
-0.07301403488692557 
-0.3753257671314574 
0.1292337332538061 
0.9847038865953535 
-0.9883225259491031 
0.01482177728446248 
-0.6000400277400316 
-0.3965976491194192 
-0.05839247731187706 
-0.09560037024962879 
-0.1768830655994721 
-0.9901482088742526 
0.1801888919588988 
-0.07541900232675983 
-0.2988488873210662 
-0.5088520634755419 
-0.9614803790903791 
-0.7928232376753604 
-0.01666564423854958 
-0.08057784772249109 
0.5271001282919445 
-0.826363259412404 
-0.1055907565658786 
-0.02906847630946154 
0.0784887544693324 
-0.1286839936573291 
0.1078608460997742 
0.06456945910061086 
-0.1379080378891065 
-0.1200240056228003 
0.5327827412532926 
-0.3187663528030271 
0.02064118316623246 
-0.6711816390976718 
0.4687073547243917 
0.06231216823327426 
-0.1742240213934543 
-1.273093254833444 
0.46350349150953 
-0.5307865967460336 
0.04998424143677745 
0.2904849563896073 
-0.09903339779789101 
0.7947265325783232 
-0.2237318900830995 
-1.51320560456046 
-0.8865548428793227 
0.192510084892858 
0.002239687566881477 
-0.5194554491844647 
0.4026220989656416 
0.6717027871499162 
-0.2084902557350838 
0.9813515813342557 
-0.2543605343349447 
0.0970018904427354 
0.2261795989592742 
0.3087557060803318 
0.05169088973269455 
-0.03285700634280268 
0.2602205562170331 
-0.6475211802935599 
0.08396290486940908 
0.2951948628714092 
-0.4812854855294387 
-0.06836372334393734 
-0.02405774454287788 
0.08357200934164637 
-0.1637174376557417 
-0.07413961743977499 
1.186210532244052 
-0.6551753588151172 
-0.3658287689631547 
1.174001906352776 
-0.9540219749551219 
0.04485759258948213 
-0.6368047888121406 
0.1277889268521073 
0.9592223195488069 
0.2686006319497148 
0.02355131595719688 
-0.04443914241133678 
-0.3219403408958903 
-0.1667208380173918 
0.4083911881884447 
0.5389718322050578 
0.2578365354280273 
-0.6628777937936788 
0.2455003724413531 
0.9403280996967691 
0.9615634717885517 
-1.214599040124991 
-0.0564501304921376 
-0.5695410759390779 
-0.6155914071275039 
1.141604950851727 
-0.1317788919539311 
-0.2729641365109106 
-0.8029561300880291 
0.3471548934669602 
0.7017325527123254 
-0.4190360311534697 
-0.4448199598279888 
1.094201547046777 
0.2305079336265854 
-0.339300567447435 
-0.01919943819783364 
-0.0499270625729668 
0.4439927546725232 
0.4868471033792701 
-0.7964109976503455 
-0.9703643936929632 
0.0270852632409676 
0.8802816851194346 
-0.8932384935522039 
1.190095090599601 
-0.3941636611978107 
0.04827942238978018 
0.9253665147358241 
-0.3640137809302016 
-0.1333917668055288 
0.6111772567788383 
0.3433139909547431 
0.04440883861378962 
-0.1815905680084967 
-0.06329715561007915 
-0.1809654710857072 
-0.4510010226900723 
0.1293604489818409 
-0.2714214558016976 
-0.1490666752718851 
-1.460617875115426 
-0.3394563056724389 
0.3070249205404686 
-0.5555428170899909 
0.4441665192984937 
-0.1877791869417729 
-0.3593165851748091 
-0.9335572917592886 
0.6326985117875077 
2.169330102752374 
-0.9666951402987891 
0.7374270143175282 
0.9324378346705779 
0.3232199475412389 
0.1582776587317499 
-0.6001778622851994 
-0.1666822582845575 
-0.3785289448921521 
-0.04860224697690652 
-0.5221280753094317 
-0.04205699345216947 
1.079564555155376 
0.5141504114608152 
0.08138222304951997 
-0.6266649840819258 
0.4388454316327639 
-0.252987657023188 
0.7562064512188702 
-0.345545647434372 
0.8607909367617493 
1.246153931394907 
1.284628952026897 
-0.8328228782220345 
0.5990297330466298 
0.260924638493203 
1.077821308807502 
0.007580489440736115 
-0.3929952235523453 
-0.3206184512925503 
0.799614342349251 
-0.4680516712606192 
0.06899778960267877 
-0.8992109503284131 
-0.5565572496727083 
-0.7674634593071997 
-0.9746618134817431 
0.3718389331599652 
-0.4104117820831251 
-0.6000087977664413 
0.9778142220404741 
0.5934899259148658 
0.2435789073058477 
-1.005827229832762 
0.7047192582368802 
0.4681947863176527 
-0.9723402275640708 
0.5490661390764561 
-0.5710340842623005 
-0.5316860254396379 
-0.4627578286348866 
1.127366342922497 
-0.3035061696047593 
-0.8709443525079197 
-0.01552139882863469 
-0.3304031121109571 
0.08472059855573004 
-0.6497074748558107 
0.3256097956317481 
0.2043998531265405 
0.6101210505099682 
0.1085316631959016 
0.2484896145103997 
-0.5789955874493166 
1.043470012928634 
0.16563476630789 
-0.1804880028696634 
0.5879094286858889 
-0.1687814677529711 
0.3677984363913106 
-0.2035950730425599 
-0.0841177377069279 
0.4559779399877468 
-0.7737029612283238 
0.2833475750640665 
0.5945248516452235 
0.803184632184425 
0.06629030295970979 
1.122458347054815 
-0.6216502858808391 
-0.04509632152264662 
-0.5978066087287334 
-0.2524975453842564 
0.06100883565047102 
-0.3507712667272267 
0.4957391078526839 
-0.01229760930316393 
-0.4064874020991792 
0.9732653089036953 
0.5352081387111828 
2.432772670946471 
0.4121709113694979 
0.0808450625045109 
-0.0114118379844203 
0.2819450396293485 
-0.1487864762258373 
-0.4617736634283064 
-0.2218599986010167 
-0.189236826486976 
-0.5304615527953082 
-0.7092542583465639 
0.4753592085836937 
-0.2817585496831538 
-0.5896881006814928 
0.07533824669259881 
-0.2870762128535805 
-0.04582275373006385 
0.4864666063679062 
1.005977920122548 
-0.2884700831467398 
0.8436033720455208 
-0.5110045810325061 
-1.014810395529569 
1.336987627742696 
-0.4309542886844609 
0.0844802063124792 
-0.2747286942271098 
-0.1878024264476588 
-0.3626883489593127 
0.9732385091859612 
0.816712761179422 
-0.3537511613613413 
-0.4319127986331937 
-0.7420444060173566 
-0.4041872974275502 
-0.5186760812748805 
0.08293052537685026 
-0.06864263628267096 
1.09707724604363 
-0.5507395479854218 
0.04812731613552723 
0.2764832444806203 
0.302427371117892 
0.01706956060094328 
-0.5850433153882716 
-0.9262731986168093 
-0.3249053324266066 
-1.249647954100188 
-0.6241794324933184 
-0.6019120372897907 
0.1952062119400028 
-0.2093275265546774 
-0.6590782754445648 
-0.614787557660286 
-0.9815993252499695 
0.6070974048196541 
1.321846942516354 
0.498565505047988 
-0.3445451664972952 
-0.3279690414133692 
-0.1381267233799048 
0.463210959932404 
-0.4138341751586587 
-0.4476743076147038 
0.7781081425165615 
0.8269213868762305 
0.1072537071536161 
0.8575211470341474 
-0.1484231740204356 
-0.9449637873250486 
-0.6088198223530276 
0.4760424299497338 
0.408297158277629 
-0.2594305366610881 
0.7254422632963418 
-0.294632761085479 
-0.2048440740900251 
-0.5776872314948784 
-0.2288589669829305 
-0.7051065061719278 
-0.2320612846287441 
0.3546886580977246 
-0.2607048207135617 
-0.4385589630034146 
-0.09506281657765783 
0.6132451605794378 
-1.053139354688881 
-0.05428050017802474 
-0.2435322002547239 
-0.0497792643062475 
0.7961741643585512 
-0.9218548004662899 
-0.9981938612653978 
0.1207263857156807 
0.2224075290250626 
0.883996146728924 
-0.2135288615730929 
0.3236820150839409 
-0.6255105665119289 
0.07716186175358758 
-0.7001400030436692 
1.079122040395776 
-0.1194950679880465 
-0.9323130502303767 
-0.04433272646504073 
0.7589833275367722 
-0.3503762550895588 
-0.8433575593513007 
0.4704071493148685 
-0.4846748317488769 
0.150116082656143 
-0.1616388279225361 
-0.4290627084428477 
0.2523936121492675 
-0.1368345190134933 
-0.1578923672324799 
-0.2712943738953848 
-0.3114513598658519 
-0.4413617126997297 
-1.18797511257371 
0.3871401981276726 
0.02531534270929501 
-0.4142720606795764 
-0.4114591164683178 
0.710583979435347 
0.0283249309223927 
-0.03183178246131436 
0.1783640517582019 
-0.2853623073029217 
-0.3800397249897282 
0.8183447770151421 
0.9931773037291776 
0.744664863798627 
-0.6545586498945993 
0.4566878596258816 
0.36574272222438 
0.5436352767457803 
0.7638399603744445 
0.1069285446580268 
-0.1548929232160975 
0.01341037879946096 
0.4000206863205019 
0.8998270319718686 
0.9828588509103238 
-0.1464512518296445 
0.1653528811116303 
0.09581807665357006 
0.6188896017788152 
-1.194446454523888 
0.8157292882936015 
-0.1342864949252957 
0.6737250859815119 
-0.3096921982655229 
-1.364895798663881 
-1.128880890496558 
-0.6482501519458977 
0.101843663780616 
0.2678271334922676 
0.5318086497030139 
0.05982455593577655 
0.2434105715769755 
0.124722858849752 
2.47924564712198 
-0.8092020381651962 
0.662076392354772 
1.455425086491194 
0.05392934815168547 
-1.11016194159356 
-0.5040276321601115 
0.2144445813129041 
0.2397957344552299 
-0.3904005144727752 
-0.8196807250272745 
-0.3396430203364416 
0.6246569427460159 
-0.7812759727235057 
0.544323493459665 
-0.5659837913705834 
0.2133919920770031 
-0.01172320225969757 
-0.06818247356650614 
1.046359088816578 
-0.6661054666216535 
0.1372045223369467 
-0.3686289239731137 
-0.2795501603234141 
0.7893062167253794 
-0.2164019452792053 
-0.8788648773227761 
-0.03346374411393156 
-0.1799632489531373 
0.2754899874537313 
0.4476910961467106 
0.1931888066637737 
0.9139645385152344 
0.670347391321656 
-0.08796105647473999 
-0.6558947491370271 
0.5520270811257425 
0.2367325864944622 
-0.2208914361686777 
-0.8434798840001144 
-0.8321999048437277 
0.5956392643596253 
-0.6833972276546928 
0.3637513657275932 
0.06367554414580801 
-0.8609563366497412 
-0.7752540879222599 
0.1211152189224329 
-0.9244117763203651 
0.6740231588267122 
-0.001956750112648369 
-0.330295809193337 
-0.3743899474601373 
-0.4701074701926907 
0.4134774089597816 
-0.4431220309297697 
0.3234041518501503 
0.03618383703779122 
0.3517968488007898 
-0.2370607289989576 
-0.04077448753313982 
-0.6934633112943805 
0.978101381367953 
-0.308705073397711 
-0.2840685674822638 
1.555288449172465 
1.368146063868733 
0.401576669883595 
-0.30032884657449 
0.3663186706517982 
0.3255978712696495 
0.1031375597438318 
0.01131247377872502 
0.6423074517087898 
-0.09204472068698409 
0.009244436934460552 
-0.5494623902128425 
0.2266715736245467 
0.2713612883400685 
-0.993445414481939 
-0.7583822795072941 
0.4658190092810265 
-0.6531574474086338 
0.6871793517772774 
-0.3088675669811471 
0.7422496272980583 
0.2239546419923375 
-0.1478429993763103 
-0.3806821664752328 
-0.07998436815352288 
0.3296171762392653 
0.3862611630343358 
0.062592199813384 
0.2644302749614256 
0.03274697044944817 
-0.3316621834580703 
-0.1409701076584451 
-0.7303535072262861 
0.1231770944922613 
-0.5684053703522378 
0.8346246367531776 
