solver_type L2R_L2LOSS_SVC
nr_class 2
label 1 -1
nr_feature 512
bias -1
w
-0.2471758252370461 
0.5848743445850387 
-0.2672877825720025 
-0.2207439032255001 
-0.6565126948634978 
-0.03690641095212612 
-0.4270715090641878 
-0.2136756489035855 
-0.02035669293250149 
-0.1835083519549793 
0.8753182708214302 
0.631204977696934 
1.460693900588176 
0.006631864885819834 
-0.2856011682843689 
-0.9392354628415331 
0.629761434050801 
-0.04546260076280113 
-1.037719279544196 
-0.7050488483544104 
-0.795672962916034 
0.09176408840010268 
0.0002630355900121398 
-0.4923360744193797 
1.981733900118265 
-0.5368690368992868 
0.228822531116878 
0.1325050703367691 
-0.75452720625016 
0.03447155927099137 
-1.389151944880111 
0.6871138705041121 
-0.1166840240726431 
0.6663926272259515 
0.1115535297943739 
-0.287431139417249 
-0.1316168641039914 
-0.08634286980257508 
-0.5167789482853247 
-0.08140415193022973 
-0.1415794739363905 
-0.1757354019482471 
-0.531979696081506 
-0.3564664955758837 
0.7229630505851926 
-0.267382265840492 
0.1813150623521458 
-0.4695148967463683 
-0.5612321102816086 
-0.9173301798201248 
-0.6936828982930636 
0.04891802652845885 
-0.8547192507721892 
0.1195097225530711 
0.1736384095464306 
-0.7626644808255674 
0.8271326516866599 
-0.355087050966996 
0.2138844096236169 
-0.239620268716109 
-0.9359545850590866 
-0.4211060650497896 
-0.424982313588096 
-0.2666639717757815 
0.2542836951360594 
-0.4520693053676731 
0.04899134659602518 
0.507543629657664 
-0.7891877192878914 
-0.4438307639941502 
0.9343063333964367 
-0.3372129029206486 
-0.04332481943278352 
0.2612483716200906 
-0.9207686995760859 
0.3232063415681717 
-0.1853387665622628 
1.092778636251674 
0.1056363213473916 
0.09049487037250095 
0.03218867151608332 
0.3732637640546457 
-0.5787617242704869 
0.1436510488332531 
-0.02670395013908184 
0.2066522826230922 
-0.2072958970452954 
0.2489668049193748 
-0.1267200053936921 
-0.691070498578756 
0.3321610688697262 
0.2958982956460151 
0.1302223807257706 
-0.468449055662802 
-0.1976271596807329 
1.110746772759386 
-0.4449136068009124 
-0.4961987061994345 
0.4230959601435367 
0.06331619119722764 
-0.2080413238190178 
-0.9256610422696655 
-0.3438988253051857 
-0.6409885811518438 
-0.2053070272848715 
0.1719517186909309 
-0.5166881599303731 
-0.267073878257627 
0.1827559397950855 
0.02935252215019292 
-0.3078243351532037 
-0.1017650113948087 
0.3061216493459845 
0.4075690100692249 
-0.1581850385390984 
1.033613963466064 
0.4991148206587506 
0.5355213495177268 
-0.5389438309533084 
-0.5186613623932265 
-0.3715014292974003 
0.3820705844585727 
0.1419142161449223 
0.05047801946291744 
-0.4624984161224622 
0.6041920752821019 
1.289547298024585 
0.05367561053654159 
0.005901191756732671 
-0.204635291752386 
1.28375099662805 
0.344680173689793 
-0.2048201343900131 
0.2638317222376602 
-0.2547838172352862 
-0.07849456565546929 
0.06594767608481589 
-0.008922062804946482 
-0.4723932923267801 
-0.2107722741929991 
-0.3177929141047752 
-0.3138624787088711 
-0.2530445882939761 
-0.1550191652461185 
-0.328482787791642 
0.1815485040555341 
-0.247900089954719 
0.2886042279374071 
0.2198340559463487 
0.1571275560662249 
-0.9990288630829959 
-0.2819322068179893 
-0.2961567245187962 
-0.210872468032216 
-0.4865585822785513 
0.1246423315148842 
-0.5906286118502787 
1.767159669915511 
-0.8044861961826417 
0.6275018969942651 
-0.4880984721516453 
0.2035321515049419 
0.2886380290978854 
-0.1707773584009161 
0.9095590325263357 
-0.6180601139904367 
0.008288685034593958 
1.149156478248318 
-0.09039920120631184 
0.05616346460282021 
-0.3333636539915898 
-0.5754442045240337 
-0.3332861735520791 
0.2561320612569119 
-0.1042334720462413 
-0.8391773914696227 
-0.1558690999081409 
-0.1593706044968737 
-0.4887769473592247 
-1.119869612129138 
-0.1411191081317383 
-0.1489510003558635 
0.1199253925262346 
-0.1242050493013079 
0.1144939944511258 
0.5511357812494212 
-0.1909967579003289 
-0.8483888052070295 
-0.1392254524066057 
-0.2045499890410177 
0.6864813295109038 
-0.1653757038323531 
0.3153017076719419 
-0.4366540168973689 
-1.017144782657558 
-0.2334925765344026 
-1.547003947349341 
-0.1572933117395415 
-0.9143176463656633 
-0.6818751614315161 
-0.2347561698711012 
-0.05099038021638671 
-0.5386630899572339 
-0.07035321649417985 
0.3673357536595497 
-1.193036582947903 
0.4033568921311898 
-0.4634656570892714 
-0.4290852290824113 
0.1924465757460267 
-0.3005363675034033 
0.5190077593919042 
0.6210488542604455 
-0.225305168218388 
-0.3788580880486995 
0.5656163903965536 
-0.947751520106729 
-0.4674936386027014 
-1.468475910891087 
-0.4140684677525886 
0.6562963284173208 
0.01437398978201024 
-0.5098374475810563 
0.4242913750026223 
-0.2663370909006593 
0.6000853597050516 
-0.2085258451241663 
1.75883013879815 
-0.1505616177040413 
-0.3426260417271945 
-0.7442640528253228 
0.5020987564802285 
0.266985622208788 
-0.2184533794998236 
0.8438365733738816 
0.2970398202463908 
0.7174369119620216 
-0.5162557733806328 
-0.9105357738181851 
-0.05972361144719226 
-0.02785689042687339 
-0.5492111199149191 
0.1559501825260865 
-0.5159008961034861 
0.4684960602018063 
-0.2402601513453437 
-0.7895840741790022 
-0.2674988238022351 
-1.181304723865926 
0.07311162393188306 
2.023877150738185 
-0.03108788203405059 
-0.2092198169136505 
0.589609032407985 
-0.2503465110349867 
0.004699429124287377 
0.2711741112307828 
-0.2785377075430908 
-0.4760563805144726 
0.3083731701063685 
-0.02652457902212807 
0.3092595036078051 
-0.9439569824791779 
-0.3880021529520813 
-0.3160622215477549 
0.5439158573409296 
-0.3754204257795207 
-0.3427028876108732 
0.1147461771747502 
-0.6648271829314102 
0.6892716887536998 
0.1433596496586146 
-0.350511437790671 
0.006036416039554381 
0.1035505374901686 
-0.4204189794718403 
-0.9132498649381029 
-0.1680337782747823 
0.3189010406878062 
-0.03823888329232878 
0.5053677266545366 
-0.07301325468808492 
-0.1873128667944244 
-0.5321831355486754 
-0.04335588721318956 
0.1427489806248298 
-0.03017459565736019 
-0.2189459879247548 
-0.6454512486491366 
-0.1396469531834925 
0.07967469640288204 
-0.2380284038698462 
-0.02174878378799795 
-0.5430229164046034 
-0.02944197900642156 
-1.103329030121829 
1.406710496202844 
1.097140160141088 
-0.6155652047454292 
-0.3073774621250148 
-1.20501887934145 
0.1775728199143713 
-0.1090446264606323 
0.1122677805400299 
-0.2626939598996589 
-0.5636475995871786 
-0.4095752190659539 
-0.8859084466681233 
0.09437340835812225 
0.2938571019064161 
0.03277968780547482 
-0.217163440670861 
0.006064367795600443 
-0.2215010135595327 
-1.049947619534824 
0.1018686860976605 
-0.2870010078094227 
0.5068264077729865 
0.5568337926157785 
-0.06891063706273601 
-0.2797891641098584 
-0.1739189788870628 
0.2993850710958798 
-0.4880016078618263 
-0.4470054595688416 
0.5680468014357645 
-0.3228554533388011 
0.3268153635551677 
-1.115068264204774 
0.577158233887067 
0.3244369746970712 
0.1260967093274901 
0.1041487852128539 
-0.2433730181677606 
0.2819885924908976 
-1.053892225722575 
-0.3077708880158554 
0.7693942236403283 
-0.006859331839015013 
-0.4050339586080263 
-0.5778457000725886 
-0.7162845167004664 
0.4778874007739134 
-0.143612448986854 
0.9735543763641382 
0.5263936301600104 
-0.951171496135482 
-0.7660212971902602 
-1.511446741647497 
0.725735659736255 
-1.167530833241625 
0.05835985346123402 
0.007621858329128274 
0.005999516320754803 
0.2827035122627165 
1.22934627170352 
-0.2928796923488835 
0.003879290848340043 
0.4454030125142887 
-0.3301420089948233 
0.06716510430506741 
1.138297233105147 
-0.2538209054533916 
-0.3761446411151768 
-0.3890671420898935 
0.631356882847401 
-0.8984030949196348 
0.3950066470849137 
0.1757601999844406 
1.334357603745464 
0.2304127152728951 
-0.4152621755455417 
-0.5483622342486849 
-0.7780149922749386 
0.2222024905603088 
-0.6343811226374101 
0.3833410489039847 
-0.3208044088856686 
-0.9998538134275881 
1.025708172647775 
0.03926626241072972 
-0.167650877536912 
0.4252707087557608 
-0.183088265703982 
-0.3156851120279155 
-0.01597613148188272 
-0.05993447970866287 
0.9559782906785435 
0.161537903240475 
-0.2705337008464112 
-0.6900249363681494 
0.6172045393681973 
0.2384478607244609 
0.6923778165930687 
-0.02713493590998044 
0.3763795334085434 
0.4925574936832975 
-1.049511243343438 
-0.09401206856723859 
-0.1642949095451086 
1.144879638363369 
0.09170288979524016 
0.2078737187936501 
-0.3134115427794093 
-0.1670955898679598 
-0.2148403461439279 
-0.2352643096087184 
1.375055273793135 
0.01266223531692461 
-0.4508981390073036 
0.5152997566832479 
-0.02610310381164818 
-0.3439964769830208 
-0.2876056820379686 
-0.8399742238656516 
0.5637207871536127 
1.045785049495795 
-0.6960065821848702 
0.5106509311719699 
-0.2582333755909867 
-0.4612065013657343 
-0.2461790085507914 
-0.3587677949826341 
0.03268832442943673 
-0.1071978009390196 
-0.4309345829190814 
-0.3542886246581391 
-0.3515364155341316 
0.2105455018937865 
0.07251777166541212 
-0.2186575221257635 
-0.7906002026892985 
-0.1660283744991167 
-0.3726877746733874 
0.09323733055702763 
0.6589256259393997 
-0.3213198206001475 
-0.1350065133647193 
-0.5022197566777793 
-0.609680912509202 
-0.1991164473306876 
-0.1482965730400174 
-0.1528097298606584 
0.109394616568392 
0.8284716840912605 
-0.4281861960352776 
-0.01049424964665048 
0.914623099232006 
-0.02157715809656109 
0.1448415763553532 
0.3704538030466298 
-0.1587003448200667 
0.1103527600948769 
0.4296578531176893 
0.06610227445822336 
0.2048003681207274 
0.3534848346385884 
0.2160158798467099 
0.2981743914073827 
-0.08506688042445809 
0.3875602369727253 
0.1342298455188252 
0.1761585300777564 
-1.558685292391268 
-1.653797495187426 
0.6833828462459365 
-0.06091403721281355 
0.8068449773720709 
0.3324341579730883 
0.8944730280569947 
0.2539620250394797 
-0.3286052224512809 
-0.6546165477095066 
-0.4504030412350614 
0.4083897755859114 
-0.01935850516843265 
-0.4512233030947335 
0.2389015182188719 
0.3120262001674411 
-0.09151159763809828 
0.09176565713672087 
0.01368487697361929 
-0.8984672143698706 
0.1093913248734811 
-0.7384101598690286 
-0.2488651021515937 
-0.0449508108320938 
-0.8800830317020288 
-0.9471225984913275 
0.1266637206415491 
-0.5562040642258078 
-0.2040260577232741 
0.3382372072846289 
-1.006404406341932 
0.0463028051806839 
-0.2504017661902174 
-0.609218211556418 
-0.2371985358274373 
-0.04224845145073771 
-0.4862464147049201 
0.7347507688336629 
-0.3048950663846199 
0.1328046555717676 
0.07175116912294663 
-0.4763992128139157 
0.3795829336584886 
0.1895530056799259 
0.01773023037885001 
-1.039747847760211 
0.1515960265351669 
-0.2138266576236924 
0.424131166354632 
