solver_type L2R_L2LOSS_SVC
nr_class 2
label 1 -1
nr_feature 512
bias -1
w
0.3292942912857403 
-0.6473770897889395 
-0.3989427230171134 
-0.2791990633676465 
1.194079237800639 
-0.6594304184537828 
-0.1098853061318645 
-0.02741596797207471 
-0.05558401932179347 
-0.05161993025971484 
-0.5838405394283867 
-0.3922040198498523 
-0.7564369461163271 
0.8127537050825986 
0.3269300336028469 
-0.08615995631712789 
-0.7375551888464094 
-0.168445452274151 
-0.07447959958388745 
-0.04236343471866632 
0.004598699285728969 
-0.3146638476438129 
0.9421458097238122 
-0.9507332186625694 
0.175516164975787 
0.4641906555702199 
-0.0215036075826815 
0.1797765036844835 
-0.542951434956622 
-0.01748535592186407 
-0.1700554502109673 
-0.2395370325109541 
-0.3027628385734807 
-0.3176306239128749 
-0.4140144612839943 
-0.1224141686154534 
0.05472380265970643 
-0.0009837433732665976 
-0.3177789157660063 
-0.1686414184559828 
-0.469937506651647 
0.43757887365756 
0.9187003332420844 
-0.08293811059434185 
-0.1077909609613612 
-0.3635344468167647 
0.09810155319323477 
-0.6067682694806645 
0.0167799825122165 
0.3007000709914207 
-0.5754321954419673 
-0.2271581015250543 
1.067314157782012 
-0.1988706959738302 
1.297841296627856 
-0.4231744191541202 
-0.05247589461093247 
-0.3135901655009768 
-0.4552229105221683 
-0.1864205888583306 
0.5530378348168311 
-0.2207070049048606 
-0.06524791472235235 
-0.4057253104359054 
-1.221252483849277 
-0.3567395958014244 
0.6824039812677511 
0.574386498464947 
-0.8354205297661025 
0.1294411717637555 
0.7527732266621834 
0.005149448949885612 
0.104964491558807 
-0.2957018240166952 
-0.5758267164426079 
-0.2119662983178495 
-0.0557255260181417 
-0.486361661210008 
0.00454314379038686 
-0.06905325152863154 
-0.4170165904417104 
-0.1827124150126178 
0.03683784829457892 
-0.5587133448409008 
-0.5630744615594571 
-0.1687671905817337 
-0.3762688717826587 
-0.5412723722835552 
1.082714718707266 
1.149296830361082 
-0.3999535136408481 
-0.5908583383492844 
0.09869821831269443 
-0.2452450032966492 
-0.1200385051028436 
-0.3490965252486504 
1.423501535716599 
-0.3116727297556642 
-0.1432485093735957 
-0.143360630073056 
-0.1417479274244383 
-0.5079093679971969 
-0.4624800509225526 
0.2032744080320087 
-0.3083293918459589 
0.09837061006231773 
-0.3049610906565124 
-0.0749527376514727 
-0.1045502786198201 
-0.05270267427357804 
-0.3678338754931835 
-0.19179346907992 
0.3832980413773542 
-0.5635281319503418 
-0.1979169331519433 
-0.2556550383442351 
0.5965111950469194 
-0.1826848749195161 
0.05840436023196548 
-0.1311318561261186 
-0.09819979824518388 
0.3625751560148345 
-0.3260058468233598 
0.1734328232331702 
-0.516668678109956 
-0.0753954921077853 
0.07225909108270313 
-0.0715294018636304 
0.2339354673153271 
-0.3101801832224545 
-0.4044639573070479 
-0.4803676540063105 
-0.224136835227838 
-0.7185050811141539 
0.6141206195489292 
-0.499761684893939 
0.2144269378711963 
-0.02104102210669121 
0.2557214883503928 
-0.1357251112399727 
-0.03195868333311403 
-0.5992712145242602 
0.2257475748809981 
0.5280171475598106 
-0.1734960959156581 
-0.2762769643711561 
0.2485282449822701 
-0.2604655932966754 
-0.02641293486934446 
-0.4676060125889248 
-1.286643131649109 
-0.6475197188472644 
-0.05563074883780265 
-0.1009102246723654 
-0.3199456748068754 
-0.3292828124276106 
-0.5417024450122878 
0.2286686353918354 
-0.5131141197945918 
-0.05745154665161608 
-0.3797935867680219 
-0.1386584619446114 
-0.2001595282798895 
0.2391556004918912 
-0.1563070291297829 
0.9806487306776223 
0.5294208588462729 
-0.8427246317228092 
-0.2731034096165619 
-0.245610485884487 
-0.2603444767807659 
-0.09016013161038461 
0.2072867684231113 
-0.2216975925968636 
0.4534304904665452 
-0.1430383186089128 
1.488464882751563 
0.3709298992160925 
-0.3890835031650547 
-0.4757904219650301 
0.0111904748506977 
-0.2621852393555799 
0.6775244286682196 
-0.5998537463349679 
-0.04143511706713314 
-0.1114277280657742 
-0.151752327308452 
-0.7894328678419322 
-0.3939551146905591 
0.4489064036774169 
0.001616005746848017 
-0.3166924601065801 
0.08624188546834609 
-0.2181995767368296 
-0.004299428762788392 
0.3789358661097474 
-1.170572442212599 
-0.2007253287247478 
-0.7724390472820755 
-0.7261201513883042 
0.2075510654855349 
-0.1973955315817625 
-0.4100164899691758 
0.1370781138935926 
-0.395702383433219 
-0.4180144529569566 
-0.06638621702627491 
-0.4776134355986978 
-0.5033692309034457 
-0.383816643231018 
-0.4374434677854226 
0.455364510122348 
0.06874899435426016 
-0.4164389899241516 
-0.341628726927351 
0.842858340812781 
-0.4824126972094687 
-0.04371482857753257 
1.134177692021079 
0.3156902942892826 
-0.1866603397241998 
-0.1444115829654598 
-0.4512730592321939 
-0.2468586941974715 
0.4094697285786624 
-0.3497954853648483 
-0.1446282070097946 
-1.061373017404108 
0.09332248184521144 
-0.4358556619207459 
-0.4477948254163943 
0.04617429934319867 
-0.3876988153515484 
-0.09066182411248916 
-0.3292960894291589 
0.8448043268729264 
0.3630644479731324 
0.01123971971118871 
0.7779642387109637 
-0.6031150667153782 
-0.476791681415163 
-0.2779434815541542 
0.4147394293361307 
-0.3728270349187235 
0.2810345676267863 
-0.2792223801497807 
0.1516079995346049 
0.429066524112494 
-0.9159430546862416 
0.02805643171606343 
-0.2458076384119173 
-0.3666192492039744 
0.1884945437715957 
-0.3753268948474333 
-0.04528584156667161 
0.3500966291926033 
-0.1556123202133739 
0.1465308867563334 
0.07955986804622193 
0.2819765093423846 
-0.1455443250548395 
-0.7577710391797441 
-0.3321225588589785 
0.5365206655482416 
-0.1510017574565939 
-0.1039081718243003 
-0.2854609657786926 
-0.343192595773702 
-0.1844104782374371 
0.677863413281833 
-0.07465138731873244 
-1.142822382009835 
-0.06884046850755737 
-0.4628081601798557 
-0.2659513624352224 
0.1126671680083521 
-0.6788112692165404 
0.1137800718839141 
0.1777327892749789 
0.6502653916800654 
-0.4237692815589863 
-0.07023878135918472 
0.4375668375573352 
-0.5117889784313233 
0.7135857293014886 
-0.2946769491959678 
-0.3895014796420056 
0.05068302742233163 
-0.5212725989188167 
-0.06192803218841952 
-0.139834247827943 
0.1005227364399914 
0.09447602712141442 
0.6729247224079027 
-0.3014895914596049 
-0.2609570422994426 
0.5942284455075911 
-0.6922486518806783 
-0.2124459966209376 
-0.06358945138686721 
-0.5637827835435835 
-0.1347074319091603 
-0.1927869554360566 
0.526021503615957 
0.1172732378287295 
-0.4222723985064025 
-0.2948392173871857 
1.1569326936514 
-0.1693536205216454 
-0.4820837553977164 
0.3753697782427781 
0.2302131096729297 
0.2490121519228433 
0.3302430121509166 
0.6778347464048415 
-0.5321322999215852 
-0.0411938461210483 
-0.01560280882280892 
-0.04577408369457384 
-0.4431231004594706 
0.4883617760233857 
0.001064033481605192 
-0.3132099783431687 
1.152962484453056 
-0.1962150522577573 
-0.5065839674252322 
-0.2117523292105901 
0.08871608709584253 
-0.146426036671916 
-0.4113864677538671 
-0.3155360779531667 
-0.1538850856048736 
0.09148161420449083 
-0.5690624525250109 
0.2194810666110544 
-0.4613254695293817 
0.09310654639345521 
-0.49253722138149 
0.1061171685995686 
-0.2894643853134223 
-0.7006254659662837 
-0.9657983294533752 
-0.3560946376504395 
0.0275075652624659 
0.1392149472604477 
-0.244065334243666 
0.1594116236102477 
-0.426817038441693 
-1.14855612391644 
-0.4449388824617339 
0.6745275353051727 
-0.02352936032090648 
-0.8081169417373253 
-0.4181502205936872 
-1.251645323594275 
-0.2793821210097636 
-0.1353823398791587 
-0.2103557110597868 
-0.2334414792453201 
-0.4975644757190246 
-0.6007394254620441 
-0.001793858847055723 
-0.1820038575642717 
0.4397415441213764 
-0.9575145321011993 
0.1253905340833399 
-0.2318193370623308 
-0.5646709553115639 
0.0929950460721783 
-0.1350321226560106 
0.4079224311792039 
-0.4834706207459942 
-0.212055787280954 
0.1543929506957478 
-0.161589375403674 
0.1295072583260869 
-0.3138919921010713 
-0.7518860952941917 
0.2072902513894241 
0.7074121710610373 
0.1700940339619339 
-0.3378067170490562 
-0.3565116867708745 
0.638530108237178 
-0.088435665368042 
-0.1909379064172249 
0.195379227919165 
0.05196783362330876 
-0.2334832305078493 
-0.1428200832548738 
-0.4873930220111058 
-0.3474497857788661 
-0.04649650380203324 
0.04422419576140181 
0.06025403810578275 
-0.3574241347240457 
0.3451062505387898 
-1.548709132114661 
-0.08506884343061166 
-0.1433697625979535 
-0.5808185602084852 
-0.2374693625267735 
-0.6328837424707653 
-0.1513163384301955 
-0.7075987050863367 
-0.7379294125925213 
-0.2353318632734936 
0.09030174715590691 
-0.3432973029066919 
-0.1106384491680056 
-0.05078580605296573 
-0.3240302675399084 
-0.1065054451319473 
0.5693747832449557 
-0.1922601722234068 
-0.8608717230472168 
-0.6959789881474895 
-0.7681085119408874 
-0.3626277374173477 
-0.2084835891310261 
-0.2247499383164155 
-1.24047041367095 
1.784763669392509 
-0.2365818343743736 
-0.04922425112728012 
0.1750711214513131 
-0.4756248838401562 
-0.09245088434305297 
-0.2228279155853386 
0.09647814889968803 
-0.1583177475495719 
-0.4571251367739624 
0.5123695331262325 
-0.3069876856657802 
-0.2277054146346755 
-0.1839643211990756 
0.2790495897721003 
-0.5436377085044968 
-0.06385425072358331 
0.1402024280521335 
-0.380830624033437 
-0.3715858991246372 
-0.4244656525431141 
0.1585186391085751 
-0.04379227096137978 
1.327512561729195 
0.01033145911322565 
-0.5044140917993706 
-0.2171620533754552 
-0.05704373893877312 
0.08244209589902704 
-0.4310840844645674 
0.4380989494599415 
0.002940489049111322 
-0.1755419364471713 
-0.256849159378178 
-0.2663652819341656 
-0.3587421377271588 
0.1922494459080251 
-0.2872131178279409 
-0.5177774846780996 
-0.2032365918758713 
-0.3756931492478802 
-0.9321768177018321 
-0.7290942867852173 
-0.09695501598329639 
0.2719255812879033 
-0.2204374439783003 
-0.3696990971335763 
-0.515155494048118 
0.677117910406598 
0.1458924147838012 
-0.4814750440154073 
-0.3298536119662394 
-0.3182057560345203 
-0.3639636925522105 
-0.4607859904956993 
0.5642651920796061 
-0.3013101459996273 
0.4770507096557118 
-0.4550700967351322 
-0.223446144178001 
-0.683063826568555 
-0.2621453067354731 
-0.337202146148705 
-0.2166461115206361 
0.9901645859165794 
-0.5891827104483984 
-0.1680533844585818 
0.05966952828634375 
0.5920957268208813 
-0.2382042811755334 
-0.4502399947809671 
-0.3541632751424091 
-0.1269489946926931 
0.2127876098190415 
0.08592323855124148 
-0.1359163506777009 
-0.3243174612376531 
0.4567819252834213 
0.1511589875592445 
-0.3249594951765931 
-0.2749346334086238 
-0.150868761200583 
-0.2758705156392542 
-0.06702817880513456 
0.938361847019584 
-0.4473087048306561 
-0.657843815650945 
-0.429071400583234 
-0.1088705972076487 
0.1462315388469763 
