solver_type L2R_L2LOSS_SVC
nr_class 2
label 1 -1
nr_feature 512
bias -1
w
-0.251228327130067 
-0.4214818695239793 
-0.4890738045422481 
-0.3790615835130974 
-1.016087514009656 
0.2302398651435451 
-0.7006224049128729 
0.9056572044098561 
-0.5414073798610055 
0.0845934985223826 
1.025911342834581 
-0.1636354305670318 
-0.5958348663948839 
-0.5807205613555887 
-0.1828553907644667 
-0.2285480758139374 
-0.6520985908781323 
-0.4113999460242787 
-0.7173345732074077 
0.002224461543886706 
-0.4282963795091927 
0.09321074352583142 
-0.07326315196557837 
0.9878839039335472 
-0.8051262110930896 
0.3048236949669564 
0.2491612622196005 
-0.6115997855415507 
0.7988409011881893 
-0.3200631586808945 
1.143966228226696 
-0.4222565507737125 
-0.1965595565926857 
-0.9766118359747133 
-0.4903258075487975 
0.356540902860408 
-0.1908660246035865 
-0.5686531626943441 
-0.927076389879858 
-0.2502631473615032 
-0.6875436566431365 
-0.4382764948319036 
0.5554109367009826 
-0.2052014496048824 
-0.2916417417805002 
-0.05193719679817191 
-0.2042254450246791 
0.4184226236862539 
0.2004079334251474 
-0.1256375753227247 
-0.7160603703094531 
0.06406152830805867 
-0.09984373759600536 
-0.4341538997512571 
-0.1641713053426425 
-0.219987468375761 
-2.016826387366947 
-0.6612062016212038 
0.4976448856299659 
-0.5878967807040558 
0.4153615998654435 
-0.3487075412142108 
-0.3200204501058954 
-0.1895231777262903 
-0.7130167189817821 
0.4655534539270423 
0.1126425420763943 
-0.5071211107519453 
-0.09245457347508483 
0.08796491623608113 
-0.2937457078315171 
0.4218668889549369 
-0.2793690844406081 
1.636982583093048 
-0.8602873076883043 
-0.3923366670531248 
-0.3363889969223594 
0.07209481152722777 
0.02663416153492725 
0.2038785419595371 
-0.7809441527794972 
-0.3685380386995257 
0.2171246275507321 
-0.7296697406697574 
-0.4691872839902799 
-0.01490997387049648 
0.06351713590954615 
-0.8207251688463592 
-0.1849525040514725 
0.3924440899793245 
-0.7695551277858529 
-0.6615022584699528 
0.3651133746628938 
-0.5093514735122333 
-0.1183827651418691 
-0.3907174395825133 
0.4459028991069331 
-0.4273367725830193 
-0.3572331196552371 
0.4195040259972792 
-0.4351591191586308 
0.14367851018272 
0.2434670632698398 
0.6534136698644883 
0.4945731021622502 
0.01110861109069858 
-0.7132225352022576 
0.03771485246464806 
-0.2756707930588436 
-0.5167112503001111 
0.1396725282176166 
-0.07233227067612606 
-0.4891557777738166 
-0.2451849843753076 
-0.05411917529644331 
0.1045286160759359 
-0.3040526384852544 
-0.8601980298938809 
0.9489740908083716 
0.3472842042948237 
-0.6120662996077455 
-0.04516498496357303 
-0.2034135809170162 
-0.2123031245270059 
0.8060436513375414 
-0.2058700981673764 
-0.08403079432968225 
-0.1279975890839038 
-0.01445144213586291 
-0.7026058952439326 
-0.1568735968718018 
-0.6697770821588375 
-0.4383538345128372 
-1.157125506832201 
-0.439994694489637 
-0.5086665475123918 
-0.08053000686363158 
0.6940470037999159 
0.2372880991304431 
-0.6988919410612638 
-0.5384313492390714 
0.3606173763240025 
0.1188060484022389 
-0.5670285065522274 
-0.4213410666601248 
0.1275512741632169 
0.314756686555944 
-0.2769115361745919 
0.02432278805636638 
-0.5793545123607369 
0.3908457658919233 
-0.8248474369617366 
-0.1806936642641264 
0.3341811252143408 
-0.2344026442025725 
0.5011647207450547 
0.02140459830329335 
-0.3170862754702788 
0.5193443174454088 
-0.6080455948052014 
-0.4753956725054957 
-0.1163737141103397 
0.9424423426458983 
-0.1770608265195202 
0.488659772577104 
-0.3040270951999747 
-0.2167784335988292 
-0.09294140209287007 
0.4096531478689565 
-0.3773272394755822 
-0.4703520897056896 
0.2750027757129929 
-0.1629594828711287 
-0.2161481723025854 
-0.2947405232833414 
0.5244811493682202 
-0.8927785981942464 
-0.1830332089210727 
0.04271241588527992 
0.3096209095517597 
-0.11852425612738 
-0.9207521690168603 
-0.8208052177534825 
-0.5738340100303115 
-0.3751224479967517 
-0.30037571117077 
-0.1255327804974822 
1.229435357308622 
-0.2834764463269495 
-0.09503970044574689 
-1.050837982049886 
0.5006454676038996 
-0.2647924913786975 
-0.4241210059302564 
0.4533860910802054 
-0.0003246378096677821 
0.5437563956848797 
0.4693085138514104 
-0.4542898722893677 
0.170499445433383 
0.3378295814895383 
-0.1495399652906242 
0.674720301824822 
-0.06676517739373365 
-0.5774355201521724 
0.1297992328195199 
-0.02342170954195613 
-0.06734129415906852 
-0.3925522954716785 
-0.2500547020633165 
-0.1624408716930784 
-0.03677564376418115 
-0.2576288334911179 
-0.01337938833804759 
-0.04629931274046662 
-0.02247332705248269 
-0.3395181427605352 
0.4521736523588527 
-0.4344982722072456 
1.181691085620244 
0.6505808997788022 
-0.2420167223174634 
-0.09510476701056042 
-0.2556265559788873 
-0.4714000265163402 
0.2709654376098629 
-0.309895788595114 
-0.9617794087158831 
-0.3346989067213654 
0.887685220351884 
-0.6838026615799053 
-0.3501172647298263 
-0.3929256039062383 
-0.1755725365657519 
0.4006842302737079 
0.05151275097844051 
-0.09403317320749363 
-0.4452812474382654 
0.1725384141251084 
0.4642477333868898 
1.136718477057626 
-0.3379718636997447 
-0.4897083213032832 
-0.165540882493202 
0.193075732683742 
-0.4612191833014346 
-0.6306638219130096 
0.4764285218499587 
-0.330195570597284 
1.631349186342797 
-0.08241222850247584 
-0.4418371814859433 
-0.2430198688224658 
-0.2779596696815262 
-0.2679672341560747 
0.2806085937102799 
-0.4019994472481309 
0.7863017645064634 
0.2153698492725698 
-0.23774444180547 
-0.2168528011720931 
-0.03980495006836761 
1.052384706779944 
0.25175371892226 
-0.4987508907110413 
0.06447249067954657 
-0.2977563849141139 
-0.2550777890041568 
-0.07774467386167898 
-0.006229354559228146 
-0.5878188233541363 
-0.2360271084888614 
-0.1096654028308351 
-0.2366441633680649 
-0.3543758049145186 
0.5265881409979036 
-0.4314932674183111 
-0.5167016772342636 
0.2521041959698769 
0.01699622937563182 
-0.05195823747237837 
-0.03106672959399233 
-0.520707174021767 
0.06557425636407531 
-0.2095579003453639 
-0.1448614015284032 
-0.3956933535047889 
-0.292719747856411 
-0.1222904431703254 
-0.2132339317220759 
-0.03819962136382495 
0.1493790534566005 
0.9692938883236637 
-0.1693625414310576 
-0.1581981152721809 
-0.6961812847149509 
-0.6723768658952135 
-0.2116603315800129 
-0.1569675926830197 
0.1457378525885578 
0.6924173741421853 
-0.03812916980908736 
-0.1609099759054136 
-0.5511918856950423 
1.231051189605934 
0.2390217785697576 
-0.1435409380381621 
1.233372358784191 
-0.3696574555975054 
-0.5323678630730153 
-0.7256713509914677 
-0.2906930151936095 
-0.3121741188090321 
0.2170594477652424 
-0.2425756313166565 
0.6578573034063869 
-0.3937045450410163 
-0.6261745190409914 
-0.280500039502751 
0.3281532333132345 
0.4049686817911587 
-0.2646343878168909 
-0.04847489049857269 
-0.1097774746317445 
0.3450294938242119 
0.1768736725336005 
0.5439208514166453 
-0.1093321208355384 
-0.4611059207355813 
-0.2652652397812333 
-0.0115568678514121 
-0.1058659839007973 
-0.1420297893973618 
0.2782237868207763 
-0.1659228817525911 
0.5109529674540648 
-0.2790059976307416 
-0.5064974414790091 
-0.1885579895014587 
-0.1617478340108499 
-0.4117909201600262 
1.53825888035013 
-0.6042954827081036 
-0.3648554510131216 
0.3473523519451284 
-0.4587029065691348 
-0.2985937882389054 
-0.9247838660273161 
-0.6055957095157992 
-0.7157832067683968 
-0.2769290922921609 
-0.1552071028413232 
-0.8969765657446661 
-0.5051125478839898 
-1.193491130337409 
-0.1839852121875515 
-0.2185489787449458 
-0.05587089296747411 
0.9220087685671177 
-0.2185596419165897 
-0.1495838089504425 
-0.3215084339945456 
-0.05878625111243975 
-0.2920159937076471 
0.3388845404306551 
-0.5383993028060431 
1.014252479826414 
0.1014823856279842 
1.124347565454108 
-0.3288538143111212 
-0.3737843422898163 
0.09214464488806491 
-0.1527491098292091 
-0.7191511106475797 
-0.3355366216232247 
-0.1435586574498841 
-0.3968861747311737 
-0.4495903725952015 
0.5038938775631551 
-1.006753408576129 
-0.2397012091341575 
-0.1113349726468771 
-0.6510432318830421 
-0.4281951228613661 
-0.3030365380210139 
0.09306028985118005 
-0.3637971476793746 
0.2080359519353599 
0.01523519229843722 
-0.1600842341698554 
0.5797535754477887 
-0.3180272467381482 
-0.204769545743888 
0.005306506860779363 
0.7948902749828424 
-0.5245687035884211 
0.1450348756016619 
-1.71087457340364 
0.3050281107432301 
-0.3454486154056937 
0.6603296143314115 
-0.3921671143718098 
-0.2520843448631053 
-0.09826226242386164 
-0.2685989206441701 
-1.129056048389906 
-0.1829439547713028 
0.607511611748581 
-0.9656293724414451 
0.2024054716909673 
-0.2456150084533563 
0.5267272955496239 
-0.2700298697277636 
-0.2929872528781555 
0.7954417644991296 
-0.4507041362391433 
0.07003766945980992 
0.8077709054185862 
-0.5638421686818157 
-0.1310892348003815 
-0.8349528953208122 
-0.93760692395834 
-0.6669395131831373 
-0.2332816837399441 
-0.7436504395084087 
-0.2136007925703197 
-0.5659515731917335 
0.02582394595370225 
-0.460333091000744 
0.2987095281078253 
-0.1434687782486227 
0.5785275063296242 
0.06874824787006212 
-0.642824705542107 
-0.1674024329303519 
0.07474690861640783 
0.1812031791022016 
1.157765408108289 
-0.1178478344727085 
-0.3331892697036389 
-0.2516970827576256 
-0.3465393886890293 
0.3845542258779859 
-0.09541004802459427 
-0.2293179386140264 
-0.463955934097165 
0.3322851565289486 
-0.3058193114645579 
-0.3517319753725348 
-0.03084975567717877 
-0.201936489479145 
-1.023705813080828 
0.1235734554993237 
0.378548455437817 
-0.1774762784880391 
0.3069534277335031 
-0.003182966832723706 
-0.4265894827641665 
-0.3536812870303772 
-0.5745360688852623 
0.038977734923533 
0.0549729879806162 
0.1488792090051948 
-1.058710239534533 
-1.334467700738133 
-0.7921391833282477 
-0.8161319836861854 
0.1992471646921183 
-0.1885022320531254 
-0.1629751140511982 
-0.05338622064904246 
-0.1714126691321589 
0.003987326519357539 
2.105754415948389 
-0.06829204510358551 
-0.2821991088777937 
0.3047916869751101 
0.3074945646597653 
-0.2768212713209656 
0.1739520217028627 
-0.4010574814750599 
-0.4194800337907955 
0.2703579289192619 
-0.3969079124023474 
0.0133246662517189 
0.0953460699710048 
-0.5230638180334455 
-0.4878465440312501 
-0.5664297093285861 
-0.1362089422092823 
-0.5128272888557212 
-0.1010418786939687 
0.5787364363949206 
0.3458094397547137 
-0.2593479008116123 
-0.9895782041913952 
0.6490842725048936 
-0.3867770220212065 
-0.6439122368247394 
-0.246205850798164 
-0.3102479604346522 
-0.0162727403223988 
0.1986927923570477 
-0.2440463397957328 
-0.2366697395810239 
-0.2677934551713423 
0.2887913303007881 
-0.5468774547592371 
0.2033477870650357 
-0.09614387229991067 
0.2204384021743241 
-0.2486330421079288 
