solver_type L2R_L2LOSS_SVC
nr_class 2
label 1 -1
nr_feature 512
bias -1
w
-0.4353130378341186 
0.1560175331408776 
-0.613614716769904 
0.0493665692953895 
1.347542752983226 
0.3006686695182449 
-0.3940766361914117 
1.022613202666102 
-0.3653619114462553 
-0.2416762567324969 
-0.5814739644764217 
-0.3029098985895905 
0.2893701793957643 
-0.2935218828911412 
-0.2731315640103673 
0.3668132338522659 
-0.5128337549444464 
-0.2887245397508801 
0.02222544223901906 
-0.09406057915249175 
-0.1385994569861139 
-0.3571148016677503 
0.5584320209210032 
-0.6843883634836898 
0.1881339010558974 
-0.2070090556481682 
0.0524983969666355 
-0.1392974443226093 
0.240177380963609 
-0.3051558646004879 
-0.0535387614189461 
1.666370427538145 
0.22512882208497 
-0.3167868269360545 
-0.2247140214393355 
-0.2544836327094634 
0.4812544153639125 
-0.3838462408964015 
0.1697138103183271 
0.06095250132182595 
0.7354801031492798 
0.1289548673786119 
0.2865296768843665 
0.4437670528971988 
-0.1947436321368738 
-0.3382712125681206 
-0.3666672416278114 
-0.4656724107609178 
-0.4745271955654248 
-0.4179957741132996 
0.3669394526075259 
-0.05449432611063838 
-0.1640252630181477 
0.09301577558082341 
0.2495939055096919 
0.9317534831957841 
-0.6515398174901659 
-0.4650147470565369 
0.02301052501328759 
-0.7123450425638828 
-1.297445491892632 
-0.3440603091261559 
-0.2360083130582478 
0.1103953140899345 
-0.9505342182293148 
0.02135214242389944 
-0.4774251479766808 
0.8839542898262981 
-1.399109521162112 
-0.1598622726702299 
0.3353542404637178 
1.109773392079324 
0.9838209428603324 
-0.4908826742169288 
0.628459708812461 
-0.3291267827537635 
-0.08058673085454059 
0.9852431081684926 
0.8980577514629041 
-0.4334901565791142 
-1.162260819356726 
-0.0866538242745076 
0.233490141484398 
-0.2822127218582772 
-0.4140233154543613 
-0.09890272952369029 
-0.3604530999943195 
-0.6366470520196269 
-0.2576723361277167 
-0.9568382834081859 
-0.685383800265236 
-0.2482945241495967 
-0.1318927955377693 
-0.210002870837477 
-0.4279949559493311 
-0.4416423159466588 
0.6388261564895306 
-0.3219984845884004 
0.1130058984083539 
0.08781934160196299 
0.3712829213337406 
0.3501489664802607 
-0.07601903383564847 
0.9190349640100685 
1.426210013901905 
-0.2790887026208414 
0.7792918522141524 
0.07742963764543762 
-0.2832848390741348 
-0.3596484502398759 
0.3364192099777589 
0.1265514122688493 
-0.7779526672996373 
-0.2387374818273424 
0.2188932871082774 
0.8231683788733355 
-0.3372314855547517 
-0.1062880923182058 
-0.3088708987524791 
-0.2833758482598001 
0.1461010349152739 
0.05247136863980566 
0.006512694351046565 
-0.008315665038310917 
1.279002879997333 
-0.01972221160281522 
-0.1234119725196176 
-0.1464346526334272 
-0.2317455369027755 
-0.7010187565401894 
0.2759970941900269 
-0.2107896431722402 
-0.07374414340788896 
-0.9349086083035979 
-0.4964879190232876 
-0.6011141210876209 
-0.1671567231174096 
0.3339638647160884 
-0.2117400909081332 
0.7829640312766603 
0.2182106946386607 
0.07567723580150695 
-0.2098738576405937 
-0.02697578472930984 
-0.242638952634804 
-0.3464820697778165 
0.3795722465492031 
-0.4275343127444557 
-0.2398586462660747 
-0.4001538590059609 
-0.3834629854832438 
-0.3394695715618181 
-0.3184169149121361 
0.0672222666435021 
-0.2838010062597111 
-0.0990084202825714 
-0.1708436755385832 
-0.6838765201031541 
-0.6385289495792672 
-0.558581321086565 
-0.3382118235062852 
0.001477761115420605 
-0.02347129083671219 
-0.2672659193391377 
8.799981537629259e-05 
-0.7382512049348847 
-0.6622621829376699 
0.107744574333908 
0.3700591980384648 
-0.3379138495069677 
-0.5167381928959032 
-0.685108830763508 
-0.4253557913609252 
-0.4373926972015897 
0.03092818445937782 
-0.4168512735058392 
-2.32977408374169 
-0.06280564128906972 
0.1012633248372606 
-0.4526651293090145 
-0.2709772866963919 
-0.5785457386965164 
-0.7323536806721144 
-0.1260849508799898 
-0.5473353764753198 
-0.9048123499676075 
-0.0641024105606427 
-0.6020607360093471 
-0.3039368406389455 
-0.2011114206712263 
-0.04001941222692131 
-0.5536429243238479 
-0.08993638657104043 
-0.02006601194723654 
0.1492371709456306 
0.002376674397249785 
-0.34960920411927 
-0.2611145951786759 
-0.7428876676367719 
0.2522688881802019 
1.375955661560541 
-0.1733872771950716 
0.5902258359514896 
-0.1083279830102289 
0.7497194246678617 
0.1316775057223375 
-0.3167306957445213 
-0.4723801835398231 
-0.0988804111477426 
-0.06132580124041977 
-0.005400391389285492 
-0.4466027335826202 
-0.5037807154251657 
-0.08099295490101552 
-0.4002651085999786 
-0.7335782391380202 
-0.2936876151855544 
0.6870388067369588 
-0.7532373820663324 
0.8905710578014037 
-0.1219455101614143 
-0.1737669301422317 
-0.3798639345444507 
-0.0386155698048226 
-0.3429613676393491 
0.426332563161929 
0.09991822396228014 
-0.8024867175700123 
-0.3430047892599675 
0.5405752256279099 
-0.6162937157944843 
-0.1025104002969108 
-0.2953838898236347 
0.1054909708980861 
-0.2487078355546085 
0.2059413274990054 
0.1457044637636429 
-0.3278562039882318 
0.02990112585218636 
0.07394568442230803 
-0.03996259385935786 
-0.4235126319277611 
0.5609905796548317 
0.008561907040840439 
0.2937742030557363 
-0.2444098497996665 
-0.1457881066506691 
-0.2055205951104084 
-0.9031383901778324 
0.200413628506595 
-0.2114793720758124 
-0.3361825378880687 
-0.05323836441456342 
-0.2854933018749531 
-0.3953255405212774 
-0.02380712895806071 
-0.2659217931386715 
-0.2779738623904486 
1.016701292096375 
-0.3323037679507081 
-0.2062200088551567 
1.062468796626931 
-0.7940110276398902 
0.0234686927209954 
-0.1447742260446177 
-0.228425965488206 
0.1516993180183342 
0.02287536918666889 
0.168128525640057 
0.00514722194922187 
-0.1855370434158683 
-1.350036261034756 
-0.1832184339530666 
-0.02376507630692752 
-0.135606613552943 
-0.09388846281009926 
-0.6267390416346711 
-0.2051105080871669 
-0.09718006503873293 
-0.4728550831544328 
0.1209546037374231 
-0.237555376630791 
-0.1302264257126522 
0.3725699266761779 
-0.5761928822198377 
-0.2111382520998837 
-0.08882425761268899 
-0.188269791564892 
-0.8465978691673423 
-0.2337322413805442 
-0.03341656678381928 
1.062792033915248 
0.3156324461352575 
-0.233870998343753 
0.2620145553018559 
0.6157765574800553 
-0.3971260195953898 
0.2014113867106189 
-0.4708244711252933 
-0.4452522466654774 
-0.4916796646626142 
-0.0544538831758352 
-0.4867533195545626 
-0.3624270041581756 
-0.4145298358281362 
-0.1289395349262075 
-0.1520389506652574 
-0.5251702057056352 
0.2052869402676706 
-0.673316842809988 
-0.3344806071775636 
-0.1850831945073943 
-0.1598214492065551 
0.0286154803023683 
-0.7719003833532405 
-0.1358097631834776 
0.09011044818500075 
0.242105940613121 
0.1526732203269375 
-0.1206232866513299 
0.6875736247092347 
-0.2205166189498684 
0.4536356385511451 
-0.1083223488571382 
-0.2641527926805467 
0.4289839070445165 
-0.09714695324636798 
-0.3296124394290325 
0.8670780420740514 
-0.1134708616280509 
0.1515512943868767 
-0.1551604230462319 
1.034021407910427 
-0.3115148984974543 
-0.09613925103072354 
-0.2635890720667925 
0.4661811099195655 
-0.1176338146186553 
1.102035607676746 
-0.1670665764273301 
1.26165124708983 
-0.0789115646308453 
0.3697108774339542 
0.2217336770499585 
0.04858694759379159 
-0.8232845599440889 
-0.3047497956543318 
-0.3162319941917472 
-0.3543439209457317 
-0.09116291838322821 
-1.164946057037699 
-0.1096585697592975 
0.03950991596629957 
-0.4986220244617669 
-1.153917619272483 
0.4615645501527087 
-0.3607471521582268 
-0.1269683074200181 
-0.1001751419410054 
0.0629003928337869 
-0.7368451567057501 
0.3349858955949185 
-0.1835080342837654 
-0.1340769994815652 
-0.4166889884980653 
0.1527146726044797 
-0.7323094176669279 
-0.385897433547499 
-0.00267308501208598 
0.09229461076183597 
-0.3506578367062717 
-0.4872631277414721 
-0.2612910883479526 
0.9704026821811793 
0.9024503499743698 
-0.08736519713945405 
-0.2036419246491303 
0.3418409139267199 
-0.5813633474051358 
-0.6969838857705873 
-0.2212540243496482 
0.6175526884656652 
-0.2713815848534397 
0.2536177935022723 
0.2948736165405543 
-0.2979145443562781 
-0.1312183800864009 
-0.4539902840968916 
-0.09503401750598502 
-0.2673404991304652 
0.5416908050028086 
-0.4522719731890604 
-0.1115404969749872 
0.2586356420769783 
-0.1530801540209644 
0.44954208224148 
-0.3057738633608499 
-1.140691692990393 
-0.1079398048298048 
0.54031181704103 
-0.8419204060394305 
-0.3498505639879954 
-0.3861824594077455 
2.598562041006124 
0.09769032918544411 
-0.5609886742161897 
-0.1629220688843926 
0.1235532373160665 
0.2057901552949004 
-0.1423338716382132 
0.9120876711237549 
-0.2297193891956268 
-0.0713092932207998 
-0.6425825190884448 
0.193900241095308 
-0.5676349449028784 
1.698585098146414 
0.5791043421962403 
-0.3285478510721058 
-0.1875558124064124 
-0.6382978844213132 
-0.8200387414323074 
-0.4102759698397431 
-0.1071765863533968 
-0.91204816805969 
-0.3249074287621124 
-0.4449783123360112 
-0.07080390105684536 
-0.02978983849626117 
-0.2384772977590006 
-0.2028854616446155 
-0.3871617402580887 
-0.02454960548727678 
-0.4067994106578423 
0.5222707156549747 
1.141207316404648 
-0.3332345038312827 
-0.613709268727255 
-0.2926226607812291 
0.2665088509081802 
-0.2001257494771136 
0.0152211963440417 
-0.2670949936310053 
0.1983508450616689 
-0.5186549598785929 
-0.6119282020151257 
0.2716324122501597 
-0.2622819113325071 
-0.2914305624997778 
0.08355876904368437 
-1.137057163405534 
0.3653543976089574 
0.9460348026094924 
0.1539917744365343 
0.9373938120783021 
-0.3883140375335284 
-0.09242316111200276 
-0.4646017162937854 
0.400578921087212 
-0.1196403511080297 
0.1336087949578002 
-0.2061314316810555 
-0.003650274436951687 
-1.074679704339597 
-1.047133115789057 
-0.2422677878273993 
-0.5377307927144201 
-0.2526478424465378 
-0.3918807451276188 
-0.05302750088771083 
0.7020606717967741 
-0.266269633571087 
-0.8326458491540617 
0.7303615505582133 
-0.08021705712218065 
-0.4829398323811702 
0.5797220881149748 
-0.2345798899813232 
-0.3819285276990732 
-0.2546765377908844 
-0.1952448290587525 
-0.1449659358695665 
-1.067964990072341 
-0.3607760256407401 
0.02713599611675275 
-0.2366983509897344 
0.2798091779461858 
-0.03465789282614543 
-1.048370773616158 
-0.2078845060963119 
-0.742753376425257 
0.08402410376226871 
-0.5966138518848647 
-1.158259814937081 
0.0168520006402082 
-0.8809011717418678 
-0.1781958097714539 
0.7157066535090667 
-0.1210870376335228 
0.01460263357092213 
-0.4188159995693445 
-0.6453696223946737 
-0.03736180167011208 
0.4047758541748298 
-0.1847090172198927 
-0.3989192626374122 
0.9594990682900678 
0.2686848515904933 
-0.7005446499263954 
-0.4816938810311639 
-0.3004481941400652 
-0.3158830181042387 
