solver_type L2R_L2LOSS_SVC
nr_class 2
label 1 -1
nr_feature 512
bias -1
w
0.1037914275341472 
-0.06955170564525277 
-0.427551754086837 
0.02519293813031764 
-1.328790648178197 
-0.1679185455452165 
-0.06919723430182573 
-0.3499622248309985 
-0.1149108935328116 
-0.0212375340975114 
1.002408470527817 
0.07645855694533787 
-0.006294626864805507 
-0.3382060745738555 
0.1410523752381408 
-0.8815278262948962 
-0.3093484394608167 
-0.2888026320676417 
0.3894041625811809 
-0.2167560331227931 
-0.282897529898939 
0.5358557212591378 
-0.4001289350212918 
-0.9130957272692279 
-0.2909680961966965 
0.1693107548351436 
-0.2072367518815058 
-0.06252520599028126 
-0.392604292868088 
-0.04559513644873324 
-0.2708771311433775 
0.01755241583807435 
-0.1479983865751231 
0.02168288934437355 
-0.2411421545986584 
-0.4367891700302212 
-0.04467413115378614 
0.04040518278119633 
-0.2793316594109966 
0.06964107470361788 
0.3866222287483991 
-0.3131781149276964 
-0.8183120184140975 
-0.06382307404097286 
-0.2796768469958978 
0.4136826159226101 
-0.1071367761930043 
-0.09510161094940157 
-0.185108028865907 
-0.2408430046455785 
0.5623900588263373 
-0.04159345787143494 
-0.3625661858481621 
-0.1966617628316601 
-0.136235768752131 
-0.5274129002804996 
-1.80077296972598 
-0.2638262076710786 
0.1027173526449634 
0.3907503424534085 
-0.7241972336477145 
-0.120542873868019 
0.04924608804894166 
-0.1825957094703033 
-0.7000013454229459 
-0.5127115699116565 
0.4238386968322467 
-0.1325353960740032 
-0.8699401050468254 
-0.4997552883218908 
-0.2618017626765486 
-0.09164868810910579 
-0.1896643559154358 
-0.262022782238358 
-0.4461311227354141 
-0.1570292147273887 
0.2802361505269674 
-0.5029470490315974 
-0.1504005343058935 
-0.08333520744001487 
-0.5640340425118584 
0.5505076587763691 
-0.1408808194971869 
-0.4564235078369218 
-0.2741791479249937 
0.02934393220340879 
-0.1032794818618943 
0.4497234599785935 
-0.1554475365293634 
-0.3210214796857033 
-0.8249498511595124 
-0.06627490936213987 
-0.1419225499455483 
-0.150027432994659 
-0.05893814410221306 
0.1805992208288718 
0.02914437066443634 
-0.5745081118772516 
-0.04108697556455603 
0.1618239502198992 
-0.2153953397237015 
-0.250218238376221 
0.4146966085247953 
-0.1415816520171547 
-0.2234062024827901 
-0.09682564515423846 
-0.568408277445806 
0.1129523582307564 
0.04511011943320825 
-0.1341393438245186 
-0.3250960580590043 
0.9552213607850359 
-0.2714466134303561 
-0.2972244020650666 
-0.04952668379536802 
-0.2501534664841735 
-0.1123399996848192 
0.1069470301819561 
-0.490798105401629 
0.8414174314498681 
-0.01875095409156693 
-0.1924459719339979 
0.1037847132978897 
0.4548331317351864 
-0.2143334585372753 
0.01569545475523012 
0.269228229434133 
-0.1646846258572079 
0.04923533631803451 
-0.3885798711479744 
-0.09661853041897336 
0.2721577453819687 
0.03242122430155005 
-0.5700636290001961 
0.04432333893969442 
-0.117998504791782 
0.1465194952165793 
0.008424566770812367 
-0.003950497659120839 
-0.4659125826731446 
-0.0006032245083446627 
0.4350214521137329 
0.05264503547465107 
0.6585029216429279 
0.2296947182393808 
-0.613788225957968 
-0.1382253494870651 
0.04345185632829527 
0.1938531871939712 
-0.1215384337093813 
-0.2002502923636816 
-0.1297489551599237 
-0.1564080589135599 
-0.2537209339864 
-0.2629347193497491 
-0.2418166119641738 
0.01816151655612097 
1.148140847716144 
-0.1967527617714679 
-0.1589270563788774 
-0.2109159562468201 
0.4899457764593904 
-0.2150504540055173 
0.5869418600910065 
0.3818346229058703 
-0.8173403303101796 
0.3659231927621259 
0.4804865161737976 
0.6698513534640309 
0.3465606602653108 
-0.03050777778804811 
-0.4768691116545982 
-0.06769197330618613 
-0.1393013972802109 
-0.2208578041551477 
-0.1992149761347155 
-0.5791380764947172 
-0.1773394497580275 
0.02850166616661055 
-0.6422295077154714 
-0.06134424477260191 
-0.2350583601009781 
-0.6351856080844082 
0.1909938600937146 
0.2276177112319518 
-0.7048958367109989 
-0.1014373535384022 
-0.1760180308025105 
-0.4976126249441721 
0.5291565803314149 
-0.08229888273179382 
-0.09916555083384491 
-0.09198812521484927 
-0.2619813129094123 
0.1877094840089517 
-0.09268088302689724 
-1.307726667510446 
-0.2230519787722136 
-0.835967369959197 
-0.1163092972124909 
-0.3964158093622876 
-0.0604090757109052 
-0.5100436043457183 
0.04052095711169252 
0.03679002802593956 
-0.5096342263436673 
-0.4136991121584656 
-0.2467336947003026 
0.01502586144066615 
-0.2028992163348611 
-0.4312448707083373 
0.3256833665461339 
-0.1173986549091252 
-0.3289864594015646 
-0.1209179349152856 
-0.4666764778444728 
0.1861328926641729 
-0.5115109898544867 
-0.5570796570244723 
-0.1348466734128559 
-0.1186186764085356 
0.0559733392140258 
-0.02452210305876113 
-0.188299556253968 
-0.2865472975870727 
-0.1658475666516996 
0.1575961675129038 
-1.063170320102889 
0.1615181521707907 
-0.2871569407756184 
0.02564297482036415 
-0.04916345356427675 
-0.1095649366160222 
-0.158524529580495 
-0.1621710767797376 
-0.1403369125674682 
-0.3253152145908355 
-0.1698168268618671 
-0.3038768925694988 
-0.313886862143249 
-0.7941076153441666 
0.7384088813609242 
-0.06370085271124526 
-0.02113115668753974 
-0.1087593446847595 
-0.1140464893136329 
-0.6456850370383389 
-0.1333989650112844 
-0.5407016414438622 
1.169843795500823 
-0.07433783399357446 
0.008207707770753072 
-0.05081181333380468 
-0.2305940345858987 
0.1598057638511903 
-0.7329492513180846 
0.2296152790305374 
-0.07765703075334232 
-0.02767254458786658 
-0.4287349225096266 
-0.1071419061718307 
-1.164174841445523 
0.09519349555120005 
-0.05234281353389306 
-0.2870675787170942 
-0.01847127315268337 
0.4452940244828607 
-0.05312172521873413 
0.001705689128292324 
0.4619536290348515 
-0.1311064207892901 
-0.6419521361814542 
0.2932704807822816 
-0.3743513324537068 
-0.495569717208414 
0.7035514403559215 
-0.001320052803052653 
-0.4173954024617816 
-0.1665935396540847 
-0.1456205262894547 
0.6843338716138543 
0.9354167390401561 
0.6183713561122587 
-0.08584316231348167 
-0.1573972369801258 
0.1336431790835088 
0.1252923671532903 
-0.3064801930497161 
-0.03978388755200801 
-0.1233478564244642 
0.1925213831377065 
0.1302457657771213 
0.1129086915684765 
-0.2782343435028596 
-0.3312112207620193 
-0.2514948368091647 
-0.4393414873084863 
-0.6016103734323164 
0.3443892549002046 
-0.1151926228720067 
-0.4465691650287694 
-0.07501981830630372 
0.9399158353474778 
-0.2816063718333677 
0.4301913555449755 
-0.4960448992902285 
-0.1802209883456286 
-0.6465585555985274 
-0.2869800914846288 
-0.4121261215829056 
0.3085782668995142 
-0.1021419113349339 
-0.1296646744956772 
-0.1944893364787774 
-0.4831762850477616 
-0.2397047351200596 
-0.1654091176203637 
0.1148824767263475 
-0.5240879908810073 
-0.4363650703542646 
-0.4226740089705754 
0.1298355407443477 
1.305740656826621 
-0.2529643384215204 
0.7891301593431019 
0.207919386197222 
-0.2620201754206021 
0.065018028353828 
-1.94829502326475 
-0.2097346048878913 
0.5796288701478902 
-0.09306034716754515 
0.679808586213449 
-0.4168121826017413 
-0.7863802057239312 
-0.4078520832028175 
-0.29847877085229 
-0.6108621041358068 
-0.285663994697833 
0.3095535837732064 
-0.3442115153592156 
-0.04052368963296428 
0.5283391531624975 
-0.1515126348537032 
0.3383099614149637 
0.3255677208608957 
-0.6646949981364892 
-0.3885330481966167 
-0.9934106909470815 
-0.3250960762258877 
-0.7816233228070676 
0.05585030834415139 
-0.1543041791502587 
-0.2494116045679563 
0.1515810253577192 
-0.03407060599069357 
-0.1744660251919323 
-0.06664090692392761 
-0.08584374079974819 
0.2748040682820127 
-0.2557218101897319 
0.4359180510308341 
0.6179918760456273 
-0.2406966505055739 
-0.8233157316191295 
-0.02588080990860694 
-0.3041491452632323 
-0.4202172048856241 
0.9039114531916206 
0.1837226486823575 
-0.1639784277177301 
-0.2985248866031283 
-0.2649212994349431 
0.3459213229545569 
-0.4347930158178375 
0.5943765766117425 
0.4331409726545581 
-0.3098849098393852 
-0.4617851954204917 
-0.4010505535504325 
0.2536733168514773 
-0.3028552748105027 
-0.242092211167285 
0.1676382460019301 
-0.289604468172581 
0.1545492472947259 
-0.16261107402202 
-0.2392885362722275 
-0.5082465199225645 
-0.06638043249579391 
0.6450077235441339 
-0.3507118702480453 
0.7910512514880703 
0.1592203435096793 
0.161280527255219 
0.0123011653356557 
-0.2601112296799599 
-0.2584725969812931 
0.0450050616829939 
-0.1331437768636954 
-0.5071522829743067 
0.5170129048249189 
0.4590534578396835 
0.2464479660754438 
-0.1461631649535386 
0.118899829000286 
-0.2298577739759754 
0.2008336243334164 
-0.6378274082588163 
-0.2470198691983052 
-0.01652385694561031 
0.2827418862111635 
-0.1114921104581521 
0.1215450610354044 
0.5971740723296933 
0.2412405299933306 
0.7667049992557741 
0.08037358963417399 
-0.09983240095933174 
0.1390250908234179 
-0.4017495831512998 
-1.111891692379884 
-0.2818532251067027 
-0.05211082093176285 
-0.04027031378471749 
0.2538906033855417 
-0.2530277653019266 
-0.2814961164394271 
-0.1768178546885481 
0.07114368997704459 
0.04623502403534319 
-0.2721813672700181 
-0.1953293438310168 
0.2329739218887803 
0.1568988889220304 
0.03383022950386359 
-0.2124928237350505 
-0.675229926502475 
-0.1717821365061659 
-0.2085885339668752 
-0.1117539731918317 
0.05081880629712945 
0.1882999434471665 
0.2118955748450072 
-0.1327272587052594 
-0.249176371596683 
-0.1519230357343714 
-0.5310497848626065 
-0.1001893977142299 
-0.06490871264698778 
-0.6258781407772512 
-0.3617545690623439 
-0.2418396975055798 
-0.79806491574343 
0.5330050657205543 
-0.08751342859472365 
-0.3271914725365932 
0.05381012854703647 
-0.1366408506425223 
0.1319702703574175 
-0.2051525873831445 
0.08298702810506511 
-0.1015973937188788 
-0.5451562497053035 
1.611300835471305 
-0.1768027098854577 
-0.7978847273191972 
-0.02808896016609798 
-0.1251236135308348 
-0.3756519368086196 
-0.0268246137617867 
-0.1580972515091246 
0.9359407654833342 
-0.07152787042078236 
0.2480037400167349 
0.557157730453871 
-0.6622147848968178 
-0.1694439407692236 
0.08749921611085135 
0.04866480185642216 
0.4411278080682701 
-0.1755910845796215 
0.2225754473828054 
0.09815776879303821 
-0.09585389163385186 
-0.1983466344846572 
-0.4996129155058509 
-0.4069760221870152 
0.1226247844136166 
0.1242925827451103 
0.4963016439554026 
0.1178963595757618 
0.3244554847841112 
-0.9572192329521878 
0.05094665104402218 
-0.5405278536730248 
0.08642827958712831 
-0.4562490352208904 
0.3900389690556987 
-0.1010618288532789 
-0.3816532734104633 
-0.5938672808790045 
-0.06273697970973163 
-0.1253660298371248 
-0.1628482489156028 
0.04458062327067353 
-0.5927296834470206 
-0.051540598918438 
-0.6694910111632301 
-0.2611054642644343 
-0.6982881199407078 
0.7365947493237196 
