solver_type L2R_L2LOSS_SVC
nr_class 2
label 1 -1
nr_feature 512
bias -1
w
0.4203093735449697 
-1.153642320826434 
-0.8342387189494934 
1.067444818798192 
0.135262831717203 
-0.4884061200623837 
-0.2143148999804677 
-1.065459604921338 
-0.03950144944980943 
-0.2997473836359492 
0.5008108186750694 
0.6585123881990004 
-0.3616272858711031 
-0.2850504300233586 
-0.2600884040700187 
-0.741999125526254 
0.2244538396913916 
-0.3342972848073972 
0.9546370283391928 
-0.6287865874861438 
-0.5615805527938311 
-0.09716413718248293 
-0.1928451613100084 
-0.4606930813974341 
-0.2132004712032046 
-0.3824875653939986 
-0.0838511269425332 
-0.2346691769099379 
0.1688041459667795 
-0.356396288686593 
-0.1453364901832001 
1.89258509825413 
0.4815897255946228 
0.4251317531561861 
-0.09867478501007447 
-0.3564149710489853 
-0.209977525207193 
1.034100576604288 
-0.3806803282472394 
-0.2267153848006006 
0.2391831992163737 
-0.03326645773487056 
-0.9425654853014073 
0.005102670686263596 
-0.07014794704428458 
-0.4560139421504369 
-0.1439371849021071 
0.05261977723455118 
-0.4552674157641995 
-0.6066578875280967 
-0.4526181970231497 
0.1714219978844061 
0.1977984931661004 
0.2948113384329858 
0.1331724899108062 
-0.46171642431581 
-0.6921175387775041 
0.01716230417173539 
-0.4849380111250095 
-0.4239728744940408 
-1.608524837021633 
0.0707739099887349 
0.161181766040131 
-0.192919495075731 
-0.5479586159310652 
0.9560789817662738 
-0.06413842643891565 
0.2685297570075887 
-0.3818812241546242 
1.296005043681672 
0.3831314037662337 
0.7789530587500253 
-0.3686378779845523 
0.6145179242008733 
-0.6677989546477174 
0.08824385113144873 
-0.2832343855858034 
-0.2443027727657113 
0.2074957921571879 
0.2120602210898731 
-0.1757899385487061 
-0.09693646800280445 
-0.4303672480326797 
-0.2944330217119195 
-0.3408182537671283 
-0.2194042336470363 
0.1270208189538228 
-0.2841210435244108 
-0.3149137523861366 
-0.293226797997905 
-0.78057466588233 
0.6903487885116733 
1.346222893887589 
-0.08514468834932622 
-0.5588594678505875 
-0.2868835891619161 
1.030697806628146 
-0.09073862412105452 
-0.1099238402272952 
0.195917556577125 
0.1383952583661164 
0.3740208411877403 
-0.3958505332914927 
0.123617464348982 
-0.3967471869240813 
-0.1157785561498021 
-0.8444447127282514 
-0.4034906695820873 
-0.3081062662479781 
0.07136601722140246 
-0.1324362087090586 
0.212402542946258 
-0.3330650401065994 
0.2490711830144541 
-0.047837663648659 
-0.1450993282396635 
-0.3685525589778692 
-0.7394235485617617 
-0.5513805994538213 
-0.03502398853609442 
-0.2780418229156642 
-0.2172098364883575 
-0.355200920453529 
-0.3096160830400425 
0.3062590828039792 
-0.05032452662379323 
-0.2480348903910173 
0.1654007819963244 
-0.2144783018695112 
-0.3773525117215977 
-0.1525058349846187 
-0.2315286306607413 
0.2246543752777451 
-1.006674508335514 
0.01522106791690294 
-0.1255583661629469 
-0.1568253904156989 
-0.2843667846924848 
-0.02291573266661263 
0.06355679258438469 
-0.1092133857537232 
-0.2615165650494048 
0.1330772682679842 
0.1835452791645376 
0.4200276222600328 
-0.1865355988695384 
0.281840054953053 
0.04449761029076556 
-0.03929295487020824 
-0.08348703823976067 
0.2144327336564806 
0.5954742112261934 
0.409506937968463 
-0.341854941159345 
-0.2079804836337895 
-0.08361658332983973 
-0.1443529947707893 
-0.3956717131724255 
0.01528115560408245 
-0.2747751041139776 
-0.321702842234132 
0.4497314937878763 
0.2083693732178065 
-0.2599509322846813 
-0.4119022006570959 
-1.179633698706963 
0.4933488793495657 
0.6661763884201923 
-0.3192701901202026 
0.2559149894412389 
0.3199946329638628 
-0.1301744530173876 
-0.4673487162687282 
-0.3583998624590732 
-0.1411616194564523 
-0.2370273889474148 
0.7666218753090774 
0.6138270883604506 
-0.042032899862851 
-0.9205835647330857 
0.03839341169046227 
-0.145258008538815 
-0.1422011078625632 
0.1805359786228996 
0.04719764670005947 
-0.9888213906797515 
-0.3915675998156735 
0.9455574300473341 
-0.6300661040898105 
0.251867030443605 
-0.578034696453933 
-0.03934577696315789 
0.874523574187196 
0.02036718955182386 
-0.5966838355015072 
0.05722559987984237 
-0.9980472287033274 
-0.1768840636166224 
0.7276037125613215 
-0.01349105301542745 
0.2499267678859064 
-0.2141732037550852 
0.7358834051180105 
0.1224495559007855 
-0.3073210298409467 
-1.146815749237656 
-0.5322015298632488 
-0.09906122462485986 
0.05137624021512784 
0.8083349282068552 
-0.1495030637795094 
-0.1245414259651708 
-0.3634882635909065 
-0.1055321289163696 
-0.2926580168187807 
0.4730984663479937 
-0.7679427250968194 
0.03359572992542841 
-0.1811052022159739 
-0.04082850293436269 
-0.08568676017731476 
-0.0398014017667475 
0.7462705131325102 
0.9956811209012738 
0.4266731592631224 
-0.0629283851116631 
-0.1648298871946214 
-1.041396030112363 
0.3537898706889313 
-0.3387660087714559 
-0.1377454105876048 
-0.3653017593974606 
0.2555611883545599 
0.1092875604361231 
-0.0821088642333339 
1.243820815132788 
-0.2213933271439777 
0.06450164218125244 
0.07927873380406998 
-0.3984513550798591 
-0.8795017335132415 
-0.1707603067690413 
0.4084790219486193 
0.1160342952642457 
-0.25639183990851 
0.2692558046080324 
0.1358865766200573 
0.6394477149412957 
-0.1047541655665489 
0.169416256376391 
0.3427126674727748 
-0.2663076404639811 
0.9600169260453109 
-0.2535677063091707 
0.329355185685312 
-0.5241782723551796 
0.4576665722072454 
0.1768922952541465 
-0.6093532915616759 
-0.7042758867753168 
0.1561372326907226 
0.1920555322156756 
-0.255496626292312 
-0.3497629593732307 
0.2352675344918103 
0.2595663435419906 
0.4001619123480195 
1.130746215075279 
-0.2080312285099991 
-0.5382083855561177 
0.1402569247381159 
-0.3734235500872199 
0.4662347620588754 
0.03393228704890013 
0.1912623560673835 
-0.05521708863333906 
-0.3059066935356196 
-0.3810816399070869 
0.4241548456017592 
-0.1028836236394992 
-0.05473401854006678 
0.7959920318882218 
0.1207493865636663 
0.8415660289834316 
0.2727399204930807 
0.005781617603020486 
-0.3960394480239108 
0.03278165957600847 
-0.03377227998542016 
-0.4548304396492796 
0.2431804646136521 
0.02144149171669338 
-0.04694818766939735 
-0.1242739654470168 
-0.4923759923449965 
-0.2156123660346901 
-0.8636475449058721 
0.07381521205502412 
1.197802970036919 
0.2670831946129446 
0.9327510816110011 
0.03396576851855578 
-0.349828618649208 
0.8162415978064034 
0.2847331468742919 
-0.6101040004959254 
0.1042595323318854 
-0.7387471280643869 
0.7597080622992066 
-0.5558935682681115 
-0.07620687232401882 
-0.3893449884655797 
0.634803515009531 
1.20058774678041 
-0.3842107703379701 
0.7580710780912885 
-0.2599945242493108 
0.1792953683936907 
0.06133555363580764 
-0.7449352461821974 
0.5451941077300864 
0.4106532026650123 
0.02472761139807264 
0.2148248171457054 
0.2406187556830822 
0.4985211836152899 
-0.1048979068879878 
-0.110824354214276 
-2.553267387967717 
-0.06018200607180947 
0.571917821477879 
-0.5298444171171919 
-0.6098776586456329 
-0.1471658868226897 
-0.6063192526046703 
-0.03730798628867066 
0.1691895224152876 
-0.6430155750356145 
-0.6949457199524158 
0.3668977969592897 
-0.6618234521036127 
-0.04558840346409643 
-0.04804142250868156 
0.6788533563792495 
-0.3287324531798936 
-0.350213507390069 
-0.8456247213622685 
-1.211989384911861 
-0.980724836576805 
-0.00494807664032411 
-0.4391762307640236 
0.3492932197741407 
-0.7439242789640693 
-0.1131322349607413 
-0.2200052984352199 
0.4536826512298311 
-0.6028142490421439 
0.7200192565871586 
-0.2208562588713774 
0.782154836168981 
-0.6511303598715834 
0.342163313572967 
0.2207823170860753 
-0.1359170322679821 
-0.486669208108239 
0.24087674517399 
0.5690321272638001 
-0.567789927363477 
0.04000491177863447 
0.3122470332965873 
-0.3778057674810734 
0.240980958894222 
-0.2912831288057472 
-0.6704551601850307 
0.8025857378641212 
0.3483329877142342 
0.3423510513502634 
-0.1374576251401724 
-0.9222918404934188 
1.340747117633713 
-0.09112918130471449 
-0.1978084680730285 
-0.2862004983394223 
1.532687768276383 
0.03103268933268221 
-0.1445540474250511 
-0.2458814187876237 
-0.1790524007438654 
-0.2631243183891252 
0.2088546441038905 
0.08617170774457794 
0.1021579016283996 
-0.1234427498309215 
0.206729317938521 
-0.06348085155302423 
0.6897662847150728 
-0.1889204914152612 
-1.475683244222096 
0.6693535064404934 
0.3429940251445047 
0.7232813904808549 
0.1874699196121658 
0.1023274857539896 
0.2452958748708782 
-0.3952550283616046 
0.3644964425848913 
-0.2709927628951419 
0.1421723452002495 
-0.2689224592594047 
-0.1257566730566688 
0.107168114293866 
-0.392835921154031 
0.5370968384561758 
-0.4236738039469066 
-0.2802695313458938 
-0.2814226403288546 
-1.066655813483878 
-0.5035422791982296 
-0.3676387635737047 
-0.2790699162008313 
0.6385652566521455 
-1.142460783963453 
-0.3479726525237855 
-0.09673148909433177 
-0.6569878314277745 
0.883010561473957 
-0.2328717529448883 
-0.1547005334291479 
0.07220314875224852 
1.319177432733234 
0.06978020520140696 
-0.0731361665779422 
0.07813412953251055 
-0.2675306650714732 
0.03397657136377036 
-0.7058449290699962 
-0.1270737155889632 
-0.8075097814996873 
0.9627735503927209 
0.3456277954934928 
0.1534629329325061 
-0.3723849110172307 
0.3427626711599643 
0.1470066390533155 
0.3369832815775211 
-0.142565175816999 
-0.2765960313450318 
0.7404014548431531 
-0.2001102666608923 
-0.267350790184754 
0.5032759001148381 
0.1110577893649249 
-0.3533407924022607 
-0.6413062193973181 
0.1089507795341435 
-0.08326393152107552 
-0.7582651874213885 
-0.2660707787517056 
-0.0004726292209476094 
0.02690997656470504 
0.04756700460035384 
0.2825631563502098 
-0.5752293303854605 
-1.11671419628946 
-0.5887408134220483 
0.1092465444062194 
-0.3799856950548504 
0.08084542787387325 
-0.4171912676252256 
-0.5626176900610356 
0.07327903297658596 
-0.06040360424137856 
-0.3175630683990919 
0.4323792254953857 
0.4098151071085466 
0.1565109127793892 
-0.2536077312635163 
-0.1054956860408524 
0.2145306251890527 
0.1929020717365982 
-0.3705517483307904 
-0.1374393290041476 
-1.034151830192789 
0.5310441617261625 
-0.2101978501552298 
-0.4793082549071916 
-0.7014546373097282 
0.7547517205155205 
-0.1544995009458074 
0.02249027589729966 
-0.4588586463285562 
0.09056716740184388 
0.1971057092072815 
-0.9792747383991488 
0.04371579137625359 
0.1600313188397298 
-0.3543977899065437 
0.1730413246458699 
-0.1866597109170353 
-0.585622057430112 
-0.2243207616070736 
-0.3572914822095424 
0.1066454347187526 
0.4010433573265386 
0.2939267243428379 
0.3120515442568966 
0.03094903124966324 
-0.7282693459671848 
0.317494798362262 
-0.2952033652592913 
-0.3213387073198909 
-0.2014488698780007 
