solver_type L2R_L2LOSS_SVC
nr_class 2
label 1 -1
nr_feature 512
bias -1
w
0.4650490064253988 
-0.8965656633192381 
-0.3108354660110362 
0.611853626102255 
-0.4572488917450652 
-0.1857470647655066 
0.6182925476050518 
-0.4266438267243092 
-0.1930964770206509 
-0.2979464985571385 
-0.5966123172369227 
1.710221142701966 
0.152140367010638 
-0.2294163175875936 
-0.1210624856176697 
-1.009618379612896 
-0.2276198121882352 
-0.5455582871153523 
0.02816707408374709 
-0.4158238287310724 
-0.4344789946100426 
0.02802032949272285 
-0.549882568158761 
-0.529667833777158 
-0.007858483757598145 
-0.08305160417445369 
0.6704083266660487 
-0.3598710096392993 
0.8885085958041927 
-0.2273814945125771 
-0.6103700489774291 
0.1306230235490827 
1.157164111098357 
0.483640629950904 
-0.7370296105188184 
-0.3597846795924216 
-0.3393498431467951 
1.579981648170713 
-0.4057950809942755 
0.03029449919686158 
0.8007415388241806 
-0.2312461701858755 
-1.388652872813031 
0.01884726129991581 
0.6655007912383789 
0.5186490578557719 
-0.1444735081144904 
-0.005294137239772841 
-0.3322942969943085 
-0.02100662845610618 
-0.080826081785737 
-0.1825275678654034 
0.2076481117706241 
0.4488226922712292 
-0.2277836772539757 
-0.8991581033814284 
-0.9089169239374388 
-0.09888728231810376 
-0.2050482133780506 
0.1334534000430928 
-1.878323290188264 
0.343864988516277 
0.2591593554356988 
-0.4576833195655202 
-0.2539607746401281 
0.4676663321681463 
-0.5747892519988671 
-0.6993037105855973 
-0.941020449860549 
0.8603873664975903 
0.04736484939486184 
-0.4024966356572846 
-0.5304136725593019 
-0.2653850693998628 
-0.5101983806829276 
-0.4437061450430265 
0.3208974584689605 
-0.3697494101240235 
-0.00194876193501986 
0.2123731519053783 
-0.3518437806281382 
0.09487400508671116 
-0.5665072503136017 
0.06090228051955737 
-0.0308551669255715 
-0.03042153280536795 
-0.09901439546162573 
0.1699336924523368 
-0.2264245294663044 
-0.3357169043117608 
-0.457471572524748 
0.3751078251690962 
-0.2911354863452632 
-0.02416141053581376 
0.1135577227313037 
-0.0936248001841556 
-0.5867100899302797 
0.9327905624235244 
0.006253540986097324 
0.5989262191672846 
0.7310655704614709 
-0.7343198208795249 
-0.03516222197971105 
0.04300316717982661 
-0.1253530678779254 
-0.2700215407995555 
-0.05368391006043199 
1.509273891597799 
-0.1535963663513918 
-0.5834860039466414 
0.2891519322921935 
-0.31196563290435 
-0.8577549790866851 
1.475359209464472 
0.150276799209111 
-0.7784646833695759 
-0.3230649183705866 
-0.6758532317941999 
-0.5365174317025136 
0.008432492548603196 
0.5682178031726126 
-0.1425527500087574 
-0.3848621757596934 
0.04089157893019466 
-0.3518544113499366 
0.4969956339558501 
-0.2079426113432836 
0.02629458701976672 
0.4405626525395273 
-0.3380858521059114 
-0.4009125417341989 
-0.02756054496891839 
-0.3725158626735572 
-1.401457910915001 
-0.3448674039389372 
0.4416498282305084 
0.5980982623655577 
0.04217441693560468 
-0.2130482786388543 
-0.1626547257005391 
0.09756700959553699 
0.04588140073744207 
-0.1525767934962034 
0.09229568516424272 
0.2785395629340864 
0.08032795610539545 
-0.3203169150789505 
0.2612864329047294 
-0.08786527139009666 
-0.02631352463232667 
-0.07358269992030057 
-0.1666911391030265 
0.7664919196892912 
0.2423916782921251 
-0.168098888557394 
0.05835514711280094 
-1.139125413368272 
0.3772115274152228 
0.01110604769365242 
0.03519781771440132 
-0.6210148159480914 
-0.111613716025591 
0.526354257007155 
0.1644803993551194 
-0.1432231091312062 
-0.2112171366377563 
1.695464203065161 
1.796029465584139 
0.4747957584309202 
0.5037629757850431 
-0.2429589795627384 
-0.3962560823097019 
0.1409195266742129 
-0.6168425661659314 
-0.2762996556183242 
0.1038513342337976 
-0.5565197395145438 
-0.1546047431306552 
0.6465332479768502 
0.10365477887695 
-0.1337974591125045 
-0.2478953115223654 
-0.2792334004280633 
0.0258147972942727 
0.6213397040536293 
-1.092431081371194 
0.2440274685682733 
-0.7306563143477244 
0.5682508195112208 
-0.1347402636531455 
0.1722843749375935 
0.04354813429744698 
0.1230958569930972 
0.403212410158074 
-0.5230474482681484 
-0.2348684765351247 
-0.8161872772537856 
0.2915376930480814 
-0.1481675486330236 
-0.4683201974698368 
0.5731692635355249 
-0.03466412881646778 
0.9356750199963861 
0.5350547447760584 
0.4233367138036114 
-0.6626756077578145 
-0.5939179124650141 
-0.3292007764123988 
-0.5185451853666085 
1.214328565822406 
-0.2796797332477007 
-0.2706619257499986 
-0.566588255729001 
-0.1317965666166053 
0.1396822730069589 
0.5679699876030151 
0.4906029815718823 
-0.6376525576827551 
0.5300499160871205 
-0.1692433355033114 
-0.378178838005277 
-0.1295719084433208 
0.8612965760238189 
0.2045541880367307 
0.3019294337712436 
0.4153803807802245 
-0.09408043991505267 
-0.3046451947903119 
0.9054843115601126 
-0.6871408836850657 
0.6881793292536292 
0.1376223167787313 
0.1789083835663624 
0.1736500093307947 
0.171953792937262 
0.7411293508144021 
-0.147008907870371 
0.05482714359896775 
0.1435600092179748 
-0.1219592173712787 
-0.6424700337940921 
0.4040244269409952 
0.01945953001583365 
-0.4658545072495499 
0.1022130846530573 
0.09491810341173834 
0.03032307417062616 
0.06937704855077179 
-0.04277700779210495 
-1.112625715860663 
0.2810514232744448 
-0.2355983443668389 
-0.08331258107588757 
-0.4799102629500878 
-0.2399966246734326 
-0.4235336891223427 
0.5585119881730254 
0.03627322142830029 
-0.3039220965378251 
-0.1901934629235554 
-0.2086283665854025 
-0.00477401048852575 
0.1345244331845553 
-0.750256104706553 
0.3840377478979798 
1.113704340210921 
1.075428344289058 
0.7205892240538148 
-0.2721572049733766 
-0.3037773777953602 
0.1432044153890308 
0.5860556110766497 
0.5405076137579008 
-0.09768541625167933 
-0.3970773111537112 
0.02330853839568976 
-0.8355885702241794 
-0.09818259328182143 
0.6191288108415843 
-0.7289851426351863 
0.718415505626893 
0.8349769503567617 
-0.4389150751298345 
-0.01642782845771149 
0.1043424528792667 
-0.7000951631639918 
0.1820851409028503 
0.9867204793593577 
-0.1908449020611806 
-0.3857668003106221 
-0.130170516315357 
-0.05970657088189133 
-0.3795390289176148 
-0.7267379505696423 
-0.3784671135874837 
-0.2104094874065663 
-1.319774932541295 
-0.4082924173518414 
1.479026091044049 
0.1956038186061418 
1.060043164533044 
0.2810100545296681 
0.4005029902345694 
0.1163851051682735 
-0.2362418902918753 
-0.2396657147522557 
0.3416266149972847 
-0.5120889772145086 
0.719837998074077 
-0.9592321157138647 
0.04504391896287394 
-0.5911026667055469 
-0.3792415860059855 
0.2937194892797225 
-0.5323428252121021 
0.4204564523754395 
0.5746333529916455 
-0.5094563150454952 
0.08679334681991036 
0.2577086112219762 
0.5010930080816428 
0.3860449225091365 
-0.3050315707204925 
0.1604359285873039 
1.325914395604758 
0.3752448511029241 
0.4206343116466071 
0.0986998147415781 
-1.038933723398344 
-2.694764512272893e-05 
1.10026979601734 
0.6406136990482562 
-0.6050993502106237 
0.3498619015402704 
-0.4098757648281386 
0.09360434111036725 
0.2071237827004157 
-0.01462543202070639 
-0.6901679409738467 
-0.05908630956631813 
-0.8656996313369033 
-0.4535205529931514 
-0.2128042471473406 
0.2965753939961662 
0.7593871223746057 
-0.0002885316891173056 
-0.1974028830312293 
0.2448109275406735 
-0.695871421187617 
1.759658148679187 
-1.121832584673553 
0.03151486193929108 
0.9893095639577709 
0.03885402026267633 
0.6295782434792019 
0.4588414832938994 
-0.03641070823561638 
0.3951718394658331 
0.3657502231321405 
0.2696999930628634 
-0.7245451168018409 
0.2674065397217316 
0.9386285645087936 
-0.06972880062855485 
-0.7864512095732588 
-0.3890185680948178 
1.581016576304113 
-0.891479381175621 
0.4571254604644229 
0.7118948466710056 
-0.2275624633585119 
-0.6091161343406726 
0.3552228998817524 
-1.057203459181688 
-0.4332221568200482 
0.5362723385783955 
2.006930112737565 
-0.4069191414223244 
-1.433463906892916 
-0.8234883928704787 
1.248004090810281 
-0.3232582321596124 
-1.091453888414255 
-0.0762489236231996 
0.3866728561628194 
-0.005607168740823407 
0.2182869714365176 
0.3961874373639149 
-0.1206282211046465 
0.8053182404867658 
-0.2496530275551659 
0.3321428063538543 
0.6612526987796502 
0.6338939992028804 
0.05572042541287985 
0.2990969052530003 
0.3431617651401535 
-0.09925491149631889 
0.5989452994568217 
-0.4064599034475159 
-0.3691890522952552 
0.5119527763586321 
-0.02889873499005957 
0.1234460805765594 
-0.3016522092372457 
0.3708883480959532 
-0.07495935005117578 
-0.1535825079984953 
-0.4942775799576012 
-0.3290898959674954 
-0.317026720899624 
-0.4883756566939071 
0.5135487761279414 
-0.3137422175924973 
0.1650682391438859 
-0.5084234385311814 
-0.7851331507834232 
-0.4887646559568787 
-0.1806869273554644 
-0.1156063562722627 
-0.404104691932876 
-1.152766778566313 
-0.5100731010215238 
-0.4354166664743282 
-0.3188354558229688 
0.8695144505773631 
-0.5777086176374695 
0.5586271499608806 
0.08571855066927928 
0.9782054386615464 
0.5727355390941038 
-0.7646828708289705 
-0.07829751315220852 
1.384052857681438 
-1.34849313726601 
-0.3509705550022908 
-0.4895618073863992 
1.271392261438905 
-0.2471312628721039 
-0.9865209753966043 
-0.1753936446857619 
-0.31678149528085 
-0.5717891171204103 
0.05886023621014329 
0.6359934777915798 
0.9224383673874115 
0.07905659570064695 
-0.2613073276500227 
0.01276854929836788 
-0.3976568175208013 
-0.3685323922431863 
0.02424317824879441 
0.5318622069038125 
-0.06924583714841727 
0.5358400287575773 
0.2576820361128735 
-0.3990656499629367 
-0.7198601403290908 
0.8565962173737545 
-0.2377722272241355 
-0.7539060126152985 
0.4966875696939954 
-0.1182559025942625 
-1.501700579153294 
-0.2068336646727965 
0.06761585133963868 
-0.714603744520408 
-0.01320040898035326 
-0.5398120551796571 
-0.140559685502692 
0.05090514554330241 
0.6610438179666591 
-0.5604713736966117 
0.1520366439997871 
1.006824834293844 
0.3138669855638292 
-0.2084098219286934 
-0.2064588758123033 
-0.009444553767248356 
-0.274189785464558 
0.8458625746158813 
0.09328068728620027 
-0.175212153116291 
0.5946902165940804 
-0.4475266790519775 
0.01574464074755389 
-0.3965037359571137 
-0.1330417717187679 
0.1607597902820333 
0.172307295681634 
-0.350807941093655 
-0.1644080768878393 
0.3410243939481853 
-1.726190452178563 
-0.2597369853714069 
1.266296364111279 
0.3458845403970205 
0.5143187645830484 
-0.3046779415013923 
-0.09548262931703068 
-0.1934884430211286 
-1.465969498508353 
0.1789986506593892 
0.1743994427685893 
-0.1977010336794233 
-0.2947545698382446 
-0.7215949285488225 
-0.5815708177179477 
-1.050518821896768 
-0.2926488928057008 
-0.9253025971770655 
0.7706979935701476 
