solver_type L2R_L2LOSS_SVC
nr_class 2
label 1 -1
nr_feature 512
bias -1
w
-0.009071031765619606 
-1.96642652835313 
0.0586119873086207 
0.7141430971572523 
-0.646664639425002 
-0.1883208306855746 
0.2048883587103951 
-0.4870505934994278 
0.3772068546072164 
-0.1934361585453319 
-0.1666902136141762 
0.6793483653789041 
0.3437920823050877 
-0.9347417020696273 
0.07129201296608291 
-0.2611138096008882 
-0.04740888451256014 
-0.4200789236602445 
-0.2106831050714547 
-0.5515108977095419 
-0.3168259912350221 
0.9369586505529774 
-0.5640271315052729 
-0.09318959096641366 
-0.4562540368420557 
-0.04295875775766985 
0.1529235079178911 
0.5152700330981113 
-0.4158520832778622 
0.7835768471430197 
-0.7549525441949086 
1.045103807946865 
-0.6500601681565982 
0.2853434472205525 
-0.5517810044796292 
0.6569218406774187 
-0.5187309956555173 
1.106015207454011 
-0.03974416729863488 
0.2478570947606201 
-0.006901434991424708 
-0.4424760174261371 
-0.9058380011359531 
0.7240234469904058 
0.2010670128744205 
0.6887765138325226 
-0.161019260752427 
0.445388696594434 
-0.6972225805247678 
-0.3555036338553208 
0.6040549071875969 
0.1319522065410806 
0.1555822969236052 
0.1508196177387802 
0.675729594433083 
0.03233111980098968 
-0.7675646772928052 
-0.3747971469380134 
-0.8090415067441716 
-0.2436191768678671 
-0.9838542617695618 
-0.01871010277189122 
0.2500217812257337 
-0.3250477268846659 
-0.05400475829255708 
-0.2878437346603478 
-0.7153360572466867 
-0.950618281205842 
0.08455144496575337 
-0.8968222083337145 
-0.3468394714825151 
-0.01241325039919466 
-0.8349809114811032 
0.2556967487619783 
-0.05512936766400869 
-0.2584615546437556 
-0.08986485961226684 
-0.4374779283082962 
0.03268690254058623 
-0.1651599466483069 
0.1884463222537261 
-0.1869311634439596 
-0.2822457271347689 
0.34187280931489 
-0.1146409628371682 
0.5004346254571768 
0.2372516149114552 
-0.5445103628011334 
-0.222299337530399 
-1.115592517575058 
-0.6559854904352393 
0.2450525146222125 
0.09054315469575844 
0.1699295678733636 
0.05102945756802864 
-0.0268272185309986 
-0.148687267217295 
1.099975512658451 
-0.162609667280239 
0.8313699332201246 
0.4696009593636654 
-0.1263133633290189 
-0.1565651003406024 
-0.9031762136048582 
0.04886468331601254 
-0.0127674438621881 
-0.2752733590350787 
-0.5036103186457856 
0.2047928225925694 
0.4329321570157229 
-0.09557684889391535 
-0.6506281819664486 
-0.8224930328556032 
1.239419827031076 
-0.1150800346273999 
0.116975512143479 
-0.2718026341160477 
0.4595312677283245 
-0.2629095613973786 
-0.09248549714424796 
-0.3641805891060065 
0.09793969784436657 
-0.2382758313720992 
-0.2159849852390969 
-0.7967849915503414 
0.1892745443522946 
0.8289520838318323 
-0.5993543616509174 
-0.4381369040614568 
-0.08648667894721294 
0.0954825394727824 
-0.2105663070245814 
-0.3589012378788682 
-0.2607911429464028 
0.5497286873734816 
-0.03800647248703337 
-0.6197398861089021 
0.13264335053267 
-0.3961406570151627 
-0.551262878620203 
-0.05749591959197752 
-0.4917220658358975 
-0.1311209597808869 
0.4479708477616172 
0.6124954158794144 
0.6627957490199278 
-0.3650288148212431 
0.380333715711358 
0.3462759056712019 
-0.05929863522169823 
-0.07365025013065173 
-0.199523732179063 
0.3591643577174636 
-0.04495664681765966 
0.05725819426591179 
0.2541719676040913 
-0.8416421718050943 
-0.007102474208240287 
0.0967057977556484 
-0.1366503252010342 
-0.6254291424189695 
-0.1225933919549176 
0.8019921164216918 
-0.2611182873503022 
0.141870184334538 
-0.5008320194351135 
1.327171520006044 
1.56357278070658 
-0.2434546656079191 
0.4849399358500898 
-0.3397800015279343 
0.4165947441913507 
0.2372478916611451 
-0.2857980738336143 
-0.1558491919114942 
-0.03186330709268408 
0.5159288563344047 
-0.4733693151421938 
0.1792653583038545 
0.7420245609691604 
-0.4501267650806019 
-0.1612034410271131 
0.5486706200358847 
0.4386084574961684 
0.1293128871238711 
-0.8893679549822876 
-0.171816624321038 
-0.272121281901366 
-0.6269094185516857 
-0.0773340955641679 
0.03535609703910431 
0.5749859953861906 
0.5525130698100341 
0.938358785061621 
-0.6186130118599584 
-0.3605430309328094 
-0.4207021913683185 
-0.6224237654746121 
-0.9605393461486397 
-0.9492294187468098 
0.6928733068220019 
-0.3602345923267447 
1.238782432004786 
0.07642396700683955 
0.2851362124169043 
-0.9887126072788954 
-0.1799209252726814 
-0.5758994477383285 
-0.2641018158669072 
0.2955895019060327 
-0.6266364457822846 
-0.07563856016700579 
-0.7556582331875997 
-0.3376097511824791 
-0.08524728170839758 
-0.007652733055897625 
0.5034501163321037 
0.6282671459022399 
-0.1330913310222623 
-0.2211567017633654 
-0.3996774405414985 
0.1773997073107649 
0.3981110282963355 
0.1418996336223363 
0.8063800984147349 
0.6945955372755052 
0.3996548280893322 
-0.06364518824994896 
-0.02669939505132245 
-0.795615870301105 
-0.3682721063619744 
-0.3427118772999501 
0.2648896403750767 
0.1437114931891267 
-0.05619122300675637 
0.02232158893494276 
-0.5881809872950214 
0.155430802619657 
0.132058576108327 
0.3568484161666621 
-1.483773637921197 
0.1059387203056649 
-0.2526478027427261 
0.02462631024307529 
-0.2425662219504274 
-0.2432278206279941 
1.184303802589569 
-0.3513511497632014 
-0.1567565482062125 
-0.7545996465025052 
0.3105849781789928 
0.07667100487612677 
0.4292526632499532 
-0.2306692563275667 
-0.1825496715413631 
-0.8996664093821383 
0.8210168664010762 
0.0670724714858561 
0.1789094055483526 
-0.3270623792539236 
-0.07180826371715278 
0.6634210651248376 
-1.3270410537163 
-0.5676817383671424 
-0.5476859343362404 
0.274773353501739 
0.06534106804829581 
0.3678215963934559 
-0.1965120789883156 
-1.124453764060553 
0.4579183541019276 
-0.6160884598861701 
0.2415314928698817 
-0.3532717678905103 
-0.4363189219274688 
0.1404495218320091 
0.3001954299430702 
-0.040492112731039 
-0.06453612511050676 
-0.2776875287053002 
0.1049094172984133 
0.5190573983895732 
-0.2425912282785254 
-0.1801898486608521 
-0.468793910122164 
-0.7676942661749827 
-0.1679930143441136 
0.7350784412555175 
0.4944005548251761 
-0.3810152658742144 
0.01513565563892267 
-0.4876354253408586 
-0.4081903880287566 
-0.2133039201792051 
-0.2282204881659885 
-0.02883740364745888 
-0.9730492699362261 
-0.7515373505045242 
0.6957382039822652 
0.5831011018338944 
0.9632055784887601 
0.3869998466665668 
0.05972745700964469 
0.2659902992477226 
-0.3019341348561038 
-0.3931600429252248 
0.1071888339657005 
-0.8437098509057401 
0.06328056378638533 
-0.8679811776459317 
-0.1428830091809906 
0.0575903984426155 
0.2291375926459431 
0.3622061402135704 
0.004567436118506483 
-0.2914813393969422 
0.3744025557333418 
0.1131576905421543 
0.4177089759976177 
-0.1183114727647445 
0.43673708260295 
0.1851323864197543 
0.2825587905604361 
0.5203949173784311 
0.7551619902594138 
0.341047024577291 
-0.2924804346537814 
0.5640074650624607 
-2.467455572563343 
-0.2661163813439356 
-0.3558804874210817 
0.3324947844831864 
-0.6030260569959179 
0.02389694768471227 
-1.120548548495707 
-0.785949195638599 
0.4231042709375377 
-0.4214243803065594 
-0.4247915605276519 
0.395387401763892 
-0.9930512404340422 
1.021680543251845 
-0.1080288587229909 
0.7353151170101027 
-0.2305373066174006 
-0.7523738876954804 
-0.8720283381077215 
-0.113346451068801 
0.1600822060493164 
1.869168032426796 
-0.6832749332353671 
0.5758997452343544 
-0.7906352254599514 
-0.7570280397180701 
-0.7467160288598633 
0.3533244978115598 
0.05939237175722119 
0.09727798798115549 
-0.4128700380003296 
0.6475698094382913 
-1.389798882242683 
0.1939461490817252 
0.6700609195354185 
0.1213550044225302 
-0.2934870067746691 
0.3179152272138303 
1.067274462958846 
-0.6014358274074786 
1.000604198581228 
0.2536053768351647 
-0.04234939651752728 
0.8815572325986908 
-0.08660929435130095 
-0.7363727749969625 
1.804415513780632 
0.7110191932502608 
0.8877532732463254 
-1.057662037721052 
0.03293606811930678 
-0.3528667359942437 
0.8521006319674407 
-0.3246868017358235 
0.6754649344522635 
0.5370697372924544 
0.6391178677316032 
-0.3963795009823261 
0.02066096056623127 
-0.5427712031177394 
1.628247687142056 
0.2885533363637638 
-0.3961472043651705 
1.26783599525498 
-0.001846646072155884 
-0.1579625434413381 
-0.09209859507796828 
-0.04843355722841261 
0.5005654064146519 
0.5915717257852237 
0.5147855489063645 
0.4430600950994837 
-0.3848159577939951 
0.3431497940430281 
0.8819878173807078 
-0.09323503705115667 
-0.3364371308865882 
0.5573674572613407 
0.1588525548375015 
-0.3097245015785881 
-0.4582460185003664 
-0.330206006079283 
0.1068614158746109 
-0.3537129436768888 
0.3744028590146105 
-0.2651218511662303 
-0.3489755942920318 
-0.6939499001051223 
0.1957210874241077 
-0.4831395575412925 
-0.365072724831936 
-0.06343681728737771 
0.3435756448140364 
-1.220311594907001 
-0.07178881626787682 
0.2635685352006852 
-1.156360156017559 
-0.4184687064329289 
-0.4669182713474372 
0.1367919751136618 
-0.2628611405217818 
0.4287908018064376 
-0.321515050571088 
-0.210090892481721 
-0.05517796298486369 
-0.2052138955732485 
-0.7264221314091956 
-0.2942499198036373 
0.2089149736485164 
-0.4729342477013702 
1.252583755596762 
-0.5809826439840032 
0.206783832727296 
-0.2544005397700481 
0.2196242873478214 
0.1914954048393791 
-0.3145102288638444 
0.2879200905492118 
0.8152684473723586 
-0.8152843777224551 
-0.1140422205282637 
-0.459307087866263 
-0.3214619394176707 
1.651154456579449 
1.008268995829139 
-0.150988994253191 
0.5415130600700753 
0.5827445901441198 
-0.5330354841522315 
-0.4840282669682074 
-0.1275782464713373 
0.9834028002440649 
-0.04451476603664012 
0.4180480017854965 
-0.6703181347947492 
-1.108513511610467 
-0.1030841251020877 
0.1074509433536882 
-0.4139185770475982 
-0.1755872352991832 
0.6991631402589195 
0.6738971895442222 
-0.1705844135226156 
0.1434235736715306 
-0.7548840108385059 
-0.03772505422073939 
0.1956948719548536 
0.05993443093129547 
-0.5299814188874681 
-0.01913057326440542 
-0.260501586997772 
-0.01783511797210782 
0.01218178286632351 
0.263545741108055 
0.9011870746357443 
0.1400192352075145 
-0.2477309759224484 
0.2144828891286351 
-0.54682311069774 
-0.5187633815571635 
0.3930888980491887 
-0.3171653831839093 
-0.1172254667418677 
0.2904272885492342 
0.4121218729842531 
-0.5371358423121475 
0.1704503379128474 
1.364485091688081 
0.4208245235374676 
0.1327410499587609 
0.5083334385171638 
-0.1779083475443153 
-0.558597674981812 
-0.6312463955049725 
0.1340712661036127 
0.1437868032529885 
-0.1778021714260681 
0.166476895245781 
-1.233513741496184 
-0.07351463772000121 
-1.380942171239477 
0.1081457709094381 
0.9715377867237885 
-0.1578704206333485 
