solver_type L2R_L2LOSS_SVC
nr_class 2
label 1 -1
nr_feature 512
bias -1
w
-0.0618985642122921 
-1.115412616989515 
-1.37892069102582 
0.03866152180830924 
0.1897341104568471 
0.6442953088892663 
0.6219980634105217 
-1.203975773632548 
-0.4823879490091714 
0.7238216611799221 
-0.2612909071430051 
-0.06314580674596493 
-0.3980320624957373 
-0.1841127980066807 
0.6956110997445208 
-0.9043447862752767 
-0.3676967543551949 
-0.171954837621399 
0.8183664908355712 
-0.07511968783734491 
-0.6466827909329563 
-0.005246929180906235 
-0.9900802879299038 
-0.7051111284998899 
-0.2388441352626096 
0.8580094807643305 
-0.4176207376807807 
-0.1727624057294347 
-1.619281428541507 
-0.09252837242478922 
-1.083149447323001 
-0.5620659577137207 
-0.6559772710004443 
-0.4216405830467615 
0.2774937850182915 
-1.102915148818748 
-0.07803879509704328 
-0.5830920665552547 
-0.9076082614307904 
-0.2501020073333459 
0.6791277698989686 
-0.716689524972232 
-0.555439737886311 
-0.4318999814005068 
0.1716492968429323 
0.2145681850899102 
-0.1986852357072563 
-0.5683367282485505 
0.9757989507986627 
0.3092397477306493 
-0.3923730421670588 
-0.362008179782923 
-0.4989624761669521 
0.1749459473022176 
-0.2642755134803956 
-0.1773528993856961 
0.4153200395170747 
0.1167009426284574 
-0.4365011658986998 
-0.5515818416788334 
-0.4873330095508974 
-0.3663485824403553 
-0.1104403580650198 
-0.196597833523878 
-0.9963331484089268 
-0.2760749739196736 
0.4766743724156306 
0.3392108537351095 
0.1538982652065242 
-0.2974412484991942 
0.2229613844557171 
0.5073142581800152 
0.2926503780050903 
0.612206882998196 
-0.2252216014377582 
0.1479977456483882 
-0.6962601428498252 
-0.06006435472720879 
0.727034716153932 
0.6752972743555372 
-0.4438309956024926 
-0.1067376952864963 
-0.6291107204569437 
-0.2107594581690164 
-0.3456989020471252 
0.1378372246798631 
1.026830885118833 
0.1515590704437293 
0.1234198667628664 
-0.09773654622802433 
-0.005153653315336158 
0.4746110649536874 
-0.5089595289269516 
-0.6858146063205521 
0.01787315303417596 
-0.2022983401515855 
0.5344417580952856 
0.3332557907271735 
0.1527576462095691 
0.08772405026848347 
-0.2230727170528971 
-0.1788381789973713 
0.6022141059502788 
0.2335567517144467 
0.5438869472575363 
0.956776061856497 
-0.5732941419176768 
-0.3052491608692102 
-0.7037312721445841 
-0.2125669117855753 
0.1846453937531079 
0.4234932443334214 
-0.8272412081888949 
-0.3709407198139836 
-0.3728343914137766 
0.5962401585915145 
-0.2944330141522565 
0.7252064477396193 
0.5600211664438146 
-0.3531440752399036 
0.06931172726598392 
-0.1864006696926066 
-0.2715727420465607 
-0.275824753689329 
-0.5189474076329194 
0.2657974154029426 
-0.3544916707435406 
0.04141772826551717 
-0.3003882941311746 
-1.280805078120324 
1.489227669517038 
0.4713045172406312 
0.1389303905714453 
0.2306379221936053 
-0.03946079732069935 
-0.3270849983983407 
-0.2203675168543239 
-0.2487278969929843 
-0.2116302779018678 
-0.04951182503671554 
0.03761314619311874 
-0.2526482339725901 
0.2494920477043649 
-0.269020582491282 
-0.4220415485339287 
-0.4006960035104717 
0.3962000630881604 
0.2833608031494437 
0.2770904610716092 
-0.08055217321981807 
1.532004550222012 
-0.7934162353184319 
-0.5539208867613695 
0.3118451426443752 
-0.1295043460340661 
-0.3262081322004604 
0.1660738769811527 
-0.6360725800972494 
0.477429100184855 
0.3639786384694387 
-0.4272011194003179 
-0.2045938728868166 
-0.4388182666543015 
-0.08981041355719196 
-0.3602070187623845 
-1.530038784096558 
0.6758931951593149 
-0.200169367922784 
-0.01608324002267902 
-0.3865329086572455 
0.3731969078078781 
0.9206630297335733 
0.07226615267993587 
0.2874847710897431 
0.1642905095280632 
-0.7310696880671254 
-0.3935448837302774 
-0.02380939896643211 
-0.6431486201043353 
-0.1913348597849409 
0.03486052748354182 
-0.5196122141810759 
-0.4217159294542536 
1.283005345453796 
-0.419439898018944 
-1.928947318214987 
-0.2657123466252481 
1.062442954039387 
-0.5472454846546018 
0.1265738066947728 
-0.5885636974353263 
0.05769544315326799 
0.0218739372268382 
-0.7722148899369875 
0.09632157888369092 
0.1670060655519241 
-1.893584699589893 
-0.3995595915084094 
0.4052311744438392 
0.03222146076524179 
0.5503469141475794 
-0.1537872309569628 
1.039724877072141 
-0.1692673288089998 
0.2199480790905636 
-0.7095613630515878 
-0.7385517266964389 
0.1311061634995762 
0.5154179761404954 
-0.2468573544399269 
-0.5001266830409289 
-0.6575461084047461 
-0.2512208258119634 
0.5801150370775724 
-0.4187642148213365 
-0.4806862094405799 
-1.124179886286236 
0.6219561088814317 
-0.2638117473832376 
0.2426790033644964 
-0.5101221810197469 
0.008396187290582641 
0.09953217034413631 
-0.5835972657854755 
0.4390178796711732 
-0.6640411821711675 
0.2893724153080225 
-0.9406498018207908 
-0.5701064820198293 
0.3203014033350209 
-0.4901016375234934 
0.4416088481674849 
-0.6346847653244829 
-0.2202895201725068 
0.01935446114707963 
-0.4525170916838309 
-0.2438397535782865 
-0.2225037143511877 
-0.2432621850794094 
-0.3943086062489135 
0.8188027246424988 
-0.1687441638439423 
0.02121800194179463 
-0.05552045495226564 
-0.3543632493857243 
0.1043457985214124 
-0.6082166251341424 
0.6909641919988684 
-0.5898403640253319 
0.6320068577861442 
1.171314983618324 
-0.02171101486860769 
-0.1250004987255286 
-0.6486260376025813 
-0.4421754067176008 
-1.256041795805042 
0.5273158773431414 
-0.3408353105988423 
0.2111593319203401 
-0.01471969115089251 
0.7048961408269124 
-0.5862390456393055 
-0.7574055929047776 
-0.3782276345209646 
-0.0459521996006954 
-0.2784664062555031 
-0.2311717765598247 
-0.4887623992132173 
0.4714899052012245 
-1.01468327989494 
0.8660604108243988 
-0.6336859223070402 
-0.3219672174894779 
0.8361341535885903 
-0.7698054512490939 
0.548170552338385 
-0.07072109931599933 
-0.4142412537408865 
0.328746799465611 
0.4892169162195599 
-0.5989552945373352 
0.007615419616063143 
-0.3474371797247069 
-0.2699477753306902 
-0.1919431611053356 
-0.5234407012845737 
-0.1770861536915979 
-0.1677853557968694 
-0.6319006399715171 
0.4576587582757087 
-0.1040822702320151 
-0.5595569153113348 
0.1282276178226854 
-0.09508094876792025 
-0.180492862322964 
0.9767314028551521 
0.4536136617112333 
-0.4946158704508644 
-0.2649153233125546 
0.1533059348667281 
0.298042393163744 
-0.2806046659938423 
-0.1790151205997547 
0.2275359984795751 
1.203410469171057 
-0.5234640992316032 
-0.3602392712928351 
-0.718187750141479 
-0.7142081397032563 
0.2671382684047884 
0.08762832535760667 
-0.6437987125451814 
0.6644321392505013 
-0.08383106220794835 
-0.2765572235660521 
0.3627786735461845 
-0.3122513688561794 
-0.01438307903173767 
-0.6154686168554023 
0.8465312280683239 
0.5840573585159273 
-0.1670524433582353 
-0.2555160901089366 
0.0660621579249501 
-0.1938485443155388 
0.6730819365084093 
-0.2794839297983974 
-0.6382512703674302 
-0.8058913888457336 
-0.305894073290814 
0.06899338305018234 
-0.03455659785454326 
0.5038442093670715 
-0.1672823013548532 
-0.1807382235798119 
-0.7585633506799351 
0.1171227136983398 
-0.9610096174063997 
-0.4581883836596472 
0.4684279483248606 
-0.7693102697163605 
-1.126763487306717 
0.8490802320755513 
-0.3806767453930029 
-0.03441144240729158 
-0.3553566039440242 
0.0833784963985644 
0.629191414436442 
-0.2172094048378239 
0.260171226923452 
-0.1640974954778157 
0.2253017502267929 
-0.2805319789128919 
-0.530981430658365 
0.3557444315205567 
-0.1917587782125574 
-0.1329687690756529 
-0.04131389631551342 
-0.24376920182483 
-0.3690000841757176 
-1.086348501386549 
0.6743638968800818 
-0.1509599078350805 
0.2272480730968948 
-0.3464598133778996 
0.7178676591928053 
-1.05685761013988 
-0.06143688722677392 
0.5912669679953411 
0.1736042924065584 
0.3038561665778139 
-0.6024951530056174 
0.1623573226870869 
0.1052084761906229 
-0.5914491391990967 
-0.5434230417533831 
0.1416939217667279 
-0.2118555919666815 
-1.288424140004307 
-0.359904264909696 
-0.2739660711626679 
-0.02610153202808384 
-0.6402139935466225 
0.1994737886987315 
0.4224121753992723 
0.6406576017845494 
-0.4984425836865224 
0.3768723765671132 
-0.6886035289855746 
-0.391293328788374 
-0.53191584341374 
0.678212068076905 
-0.3524339020180816 
0.1475877449022488 
-0.1368157001501393 
0.2315685823433633 
0.434146610665143 
1.063623542824997 
-0.3958859550984726 
-0.2448276567631192 
0.6123022985045573 
-0.1308535000334768 
0.4345924156339503 
-0.5821194841500241 
0.03687546645667254 
-0.1505974449485889 
-0.3536377321542267 
0.3712998600975039 
-0.4921265952835853 
-0.111293752305237 
0.9849728267959391 
0.4904016585852661 
-0.331599014528053 
0.1768081003760503 
-0.3077535609530766 
0.2350142821122032 
-0.5542730422227419 
-0.1092623634995003 
-0.1242309233347452 
-0.1131202518055146 
0.3311732709603629 
-0.1705482176646773 
-0.7817066909750993 
-0.152190517515396 
-0.4178857217490892 
-0.4842489558394271 
-0.1331764732462035 
0.1110710532790559 
-0.04444093968989709 
0.09092541769879586 
-0.1924026955585813 
-4.189695550372956e-05 
0.03966141969868116 
-0.4511275759212819 
0.6167449759569847 
-0.09104767180161667 
-0.656522731847763 
0.3045784601548863 
2.049204515035534 
0.6063218580283912 
-0.1131642979540302 
-0.7162192366223118 
0.537436096208842 
-0.1577059496642812 
0.7207877202314099 
-0.0114668643982369 
-0.3741169681732926 
-0.07248978684369552 
0.02900888387055832 
0.1169434692112617 
0.5640838317682035 
-0.7259980514013388 
-0.2673258264833859 
0.02769712069474993 
-0.6720206096548328 
-0.2254169881879284 
-0.1442666735458879 
-0.4198999633981879 
-0.7829738758646122 
-0.5579021878173773 
0.8875087515942461 
-0.1906162128534097 
-0.7226371468858508 
0.3600679304775355 
-0.9947790346671482 
0.1388569825996249 
-0.8927137642973931 
-0.004237060360278775 
-0.1299697734478959 
0.2911243171672783 
-0.03647963238173423 
0.2748774361338222 
-0.3692866908884724 
0.2423195843203944 
0.8327264816526753 
-0.4120585204083372 
-0.1095339793104611 
-0.1671937746139536 
0.02803971644542238 
0.5054717563600543 
-0.5009713572196258 
0.1154134247485015 
-0.1932933921734111 
0.1249156903348699 
-0.1065359426269273 
-0.4316378212009982 
-0.3726761721123162 
-0.8631172538696393 
-0.1843237114328446 
-0.1389294704575478 
0.3419610485438668 
-0.3589226805214294 
-0.3739658554790269 
-0.1536296978784565 
-0.418471524008351 
0.7080670863253126 
-0.4065284542554979 
-0.09835916868001651 
-0.6425198523424424 
-0.7947239538270783 
0.6336356118719589 
0.06029837276935662 
-0.2185371134869101 
0.03685239490446762 
0.1674867280875276 
0.2288641334418353 
-0.9042927723933215 
-0.1683022831297912 
-0.1909942613074638 
-0.4608763941220513 
0.2370618174437409 
0.610954506187434 
