solver_type L2R_L2LOSS_SVC
nr_class 2
label 1 -1
nr_feature 512
bias -1
w
0.008917580642498764 
-1.170974868942313 
0.2721415342478724 
0.7826866059620223 
-0.822386256168584 
-0.7923523930735993 
-0.2557563579836202 
-0.1815075554276674 
-0.3535738600001984 
0.2304278753523959 
0.1147777324836611 
-0.2074883296426094 
-0.3537789304720703 
-0.02028454627927904 
-0.2849293142486519 
0.01825632768921446 
-0.1874543102849359 
0.1694003532679895 
0.3369949238965787 
1.21184483007382 
-0.1473596174965681 
-0.03701205639110271 
0.9596116024444771 
-1.378142219815191 
-0.8163261299274137 
-0.003415340027405154 
-0.328679329092291 
-0.5025288698632457 
-0.3533498270830771 
-0.1687077895260029 
-0.2918832000404627 
-0.2256301951021178 
-0.5418227980214332 
0.0311485009731248 
0.1772271313869023 
-0.1935780877028152 
0.4573188447315903 
0.2415282595636949 
0.08454177539920617 
-0.01816224638226635 
-0.6073375596273947 
0.1018830244413194 
0.2849800619858801 
0.3451403814127483 
-0.113623153780217 
-0.5644411333217155 
0.03510365583262347 
-0.395629456866504 
1.300197223457671 
0.02155785489849046 
-0.8628686824180624 
-0.08214330840603047 
-0.6874910512841912 
0.4624501779986688 
-0.04821680254711412 
-0.5028912598622783 
-0.3137714026071909 
1.071198461189081 
-0.4560439202103027 
-0.1401592357971649 
-0.03089654027808827 
0.7494256190259582 
-0.0196809376374513 
-0.383012349581596 
-0.6808056111063611 
-0.2330219768697753 
0.03630310693135062 
-0.4827998296158795 
-0.8700668865758546 
0.5103696587832069 
-0.2201339440760406 
-0.06754498486196787 
-0.3035056237252195 
0.2668422013421721 
0.4315480479163261 
0.03739521104135176 
-0.2791269333146167 
-0.7200846703944628 
0.2782169821082196 
0.3153741853164717 
-0.4056370632132286 
0.4528679189901379 
-0.4031127227813962 
-0.2416858488601676 
-0.09232721543124901 
0.004875818638810757 
0.6382225464222971 
-0.3460872619198443 
-0.05790622500036451 
-0.1261473037433848 
-0.1651981708860817 
0.3474782651012165 
-0.2031744936968206 
-0.1208581066464426 
-0.4592457527912976 
-0.3958436188996481 
-0.3980142005222746 
-0.1575982105347375 
0.01789976415641967 
0.192194892349181 
-0.2144024110077731 
0.2208190765260354 
0.3666920914775623 
0.7429328241838544 
-0.2865273511097571 
-0.0206846417030831 
-0.5376362096222477 
0.1217305575582766 
0.0592488366392851 
0.02105537018091387 
0.04469541952978499 
-0.2196066467286351 
-0.6025851746810587 
0.100015121446119 
-0.2596745639184615 
-0.8031620210257527 
-0.324686625542672 
-0.487940272980525 
-0.654602043946832 
0.4857038410697839 
-0.02189001927026438 
-0.4979907310923762 
0.426397767006463 
-0.2705167838339927 
-0.5709121653565268 
-0.08502423614609173 
-0.5598923444405954 
0.3761605687730918 
-0.1999679714870247 
-0.4813878639635715 
-0.3246952698472597 
-0.3935724703995336 
-0.3372682336253551 
2.169251789366451 
-0.4102384649834445 
-0.1630996488721066 
-0.2745249105695283 
-0.1987760691912779 
-0.3652360516080516 
-0.2316099631779595 
-0.2285288336705387 
0.1126853199239616 
-0.08199400174986443 
0.1498623030654854 
-0.3215312389633201 
-0.2660654802616763 
-0.294549930686294 
0.1814322480232049 
0.4418806178985944 
-0.04689956236709945 
-0.145235766983024 
-0.3773329502078362 
-0.4382461731558621 
-0.3159327174918217 
-0.6033030691001404 
0.1999151979973576 
0.334050477591082 
-0.03841857886148785 
0.04285448534628882 
-0.3635125247930685 
0.6200812841480251 
-0.1673572005237021 
-0.2794555271781561 
-0.1403735760455352 
0.09931790029918426 
-0.1815505336690565 
0.3694594552890259 
-0.07840158149980692 
0.8566182225116309 
0.08467313143847886 
0.3607353482580598 
0.3412531382854703 
-0.2786960232317894 
-0.2614673564998541 
-0.2631136889615947 
-0.4653099638630031 
-0.2440670160454381 
-0.0001489457976838289 
-0.5759671664498582 
-0.5838915576014907 
0.6162657499450171 
0.1857499864251778 
-0.6154697950795104 
-0.1376028454273413 
-0.3617688672569491 
-0.8816489915886823 
-0.3316030485511505 
-0.5352939168985243 
-0.03431400426472561 
0.2912266191888714 
-0.3217669128423631 
0.06897910939522642 
-0.6106954396320061 
-0.1735291179611666 
-0.6033737205700559 
-0.4708616472004685 
-0.79334200402368 
-0.4160406010922194 
-0.2321638055339389 
-0.9023436565143778 
-1.008124168232728 
0.5221984200514785 
-0.1874987835256142 
-0.1354119845686908 
-0.07970028410903185 
-0.4263661891706625 
-0.3275726306287333 
0.05733214109914883 
-0.3751639810107816 
-0.001503565921982904 
0.2867960417040817 
-0.03082948162154335 
-0.3798774291662912 
-0.1222798893094879 
-0.01454041523913366 
-0.01519351998123145 
-0.3476011698421422 
-0.1988301163393778 
-0.6577935019465232 
-0.2556312758009259 
0.4688049650139223 
-0.04210419768587995 
0.2545907960072175 
0.01201982356221265 
0.8966444186333367 
0.10408299619422 
-0.3951040195237073 
-0.6435532392887553 
-0.2681705160436658 
-0.345696147638437 
-0.8276966562903283 
0.4419848213770909 
0.0007721489287524641 
0.08460927323720618 
-0.1351830410060937 
-0.2565495297763398 
-0.3487302630288175 
-0.06201303916078361 
-0.3941026321592774 
-0.4028485174970347 
-0.8865465045349783 
0.3655151318065656 
0.09795676176107712 
-0.2255587473569886 
-0.100792067173213 
-0.3820828224104907 
-0.5183560887668244 
-0.3397510422607176 
-0.2258211126010993 
-0.2846471185760565 
0.7170448584468895 
-0.1575272631865982 
-0.1679189811309761 
-0.2058615432693171 
0.406902265040175 
-1.049262132586403 
0.1221811099245675 
-0.1423784273204807 
-0.5023118443384532 
-0.251016181948267 
-0.05412638539863641 
-0.4122684851820035 
-0.1876676285440625 
-0.05845311744019794 
-0.291555586920085 
0.4413648267829916 
0.1868186600608845 
-0.1884837968648709 
0.7330198606351043 
-0.05406675387168921 
-0.06386049956656652 
-0.2961244146485407 
1.306239451315678 
-0.4725509547485209 
-0.4577600430149433 
-0.4816232050609551 
1.27798210456075 
-0.3032510852422515 
0.05608315142162764 
-0.3711865376442723 
1.68681409959309 
-0.228024155591505 
0.618697726672905 
0.1416948174475418 
0.2893203180169901 
-0.1953739917322552 
-0.2597399839886513 
-0.214580668415042 
-0.5865999627414583 
-0.1089506694719353 
-0.1097252151706711 
0.1477727478017475 
-0.02457916011290823 
-0.1597537860436404 
0.2566857812190456 
-0.4129535122549126 
-0.5244356109645331 
1.108770382749064 
-0.6012281269897628 
0.03339762861294972 
-0.2020942792567379 
-0.08416912950158234 
-0.293385694137956 
0.6348745496111192 
-0.1498550981243003 
0.04217038567301385 
0.08478867697935592 
0.1955446635302997 
-0.550539941049079 
-0.5158749581872045 
-0.3304588394059029 
-0.07569583785722739 
1.060411620388283 
-0.08134712232590456 
0.1421996346071653 
-0.01422557303937329 
0.5103339815842618 
-0.05976564348435028 
0.6953016108947466 
-1.122458981515257 
-0.2734004107162765 
0.3377560220432714 
-0.3036420175710838 
-0.04300658664282557 
0.0657610485170276 
0.4053243963500572 
-0.4779195184823442 
0.2112406440237221 
-1.549306193467946 
-0.2258068677643652 
-0.1259835066788835 
-0.3716052835717593 
-0.5975330474420606 
-0.4404175156344984 
-0.2835721207791979 
-0.7640698398780168 
-0.2813468302514203 
0.05847018188843464 
-0.5104062886325491 
-0.535916470682622 
-0.6960162921187431 
-0.6257974110089264 
0.1862400063624501 
-0.1803059761924146 
-0.2176747116971005 
0.6187363375821328 
0.3018378254227216 
-1.472228621483332 
-0.2224658988961692 
0.3523502558466292 
-1.14093877488339 
0.373982426512224 
-0.8624074627516894 
1.092685080975946 
-0.3303750006131781 
-0.4677309704253417 
-0.1699253942690964 
-0.006170243165959129 
-0.3384863663331876 
-0.5262801025619283 
-0.1613119904505324 
-0.3084635486752673 
0.8496377679228598 
0.1321578952961283 
0.5058131741421873 
-0.199987108931384 
0.3181402729451805 
0.2280257076559511 
-0.6941825421130561 
-0.2612760593253867 
-0.238631224058413 
-0.1643009432580517 
-0.2111508206846157 
-0.4279935495869915 
-0.4334963576554491 
-0.3356010756865767 
0.864443519312548 
-0.6360932278224283 
-0.4956573007303599 
-0.3377402898637213 
0.7425692997559087 
-0.1383646399629888 
-0.4669184690849331 
-0.4226196099488356 
-0.2654252375539212 
0.1112405064692722 
-0.2344274837865778 
0.3973236382358545 
0.03735882751158958 
-0.09254799299324799 
0.2313875493262542 
1.349176554605704 
-0.02147047702117004 
-0.3458468933161496 
-0.3866210994727007 
0.438129048277747 
-0.541869475902341 
0.4829023322500887 
-0.2345800718457335 
-0.04388837911500592 
0.57813113164079 
-0.2176129367874781 
-0.3308765897657782 
-0.3156623761473487 
-0.5238865739495505 
-0.03784832845541115 
0.2875176525672593 
-0.2703131702020906 
1.01966490456893 
-0.1089219840308296 
-0.2844168738338021 
-0.254764410361024 
0.2086034409226833 
-0.02121978778137829 
-0.5144411256164435 
-0.6360569586190464 
-0.2921484627501874 
-0.5903247396272171 
0.5833708376773032 
-0.4106254067760449 
-0.4638148880207715 
-0.5480243560277941 
-0.6796148546090568 
-0.003451376995847391 
-0.009178188471249365 
-0.5490206449864293 
-0.1031211903818395 
-0.2467713393092283 
0.04647478108641426 
1.630221348770088 
-0.3896266097414496 
-0.6479254087517011 
-0.318161155946672 
-0.0227912905074071 
0.2490855542526582 
-0.1610236907030795 
-0.2334913557677095 
-0.2219722573405714 
-0.3924949858024272 
0.4189016786662583 
-0.1745798231442205 
-0.1481100520309926 
0.2484645998651733 
-0.216628077380861 
-0.3557731216563127 
0.03552994613036246 
0.10786373092374 
-0.7099247582144161 
0.1626573482966831 
-0.1925676663727938 
0.07272031195202554 
-0.4562335081742933 
-0.1867186025820454 
0.2447799381006198 
0.1034379162187648 
-0.01237260936114736 
-0.2664982723243062 
-0.1756923086023893 
0.188965400480677 
0.4780075346714986 
0.2495894144667151 
0.1521901313609785 
0.3638096737612324 
0.4298042941616085 
-0.336860438971556 
0.7065965911508937 
-0.8134506076375208 
-0.2525030914903712 
-0.277517036386924 
-0.3238291154986582 
-0.03532005422451172 
0.458937858493472 
-0.3413958954494267 
0.4502321391353371 
-0.148644666903696 
1.159762479624862 
-0.8972333566631038 
-0.1648772767757307 
-0.03239271029305104 
-0.5103968042767281 
0.433729922150636 
-0.179282150682406 
-0.2278407124916106 
-0.4209721604086715 
-0.5874993524005746 
-0.490542491355477 
0.8252493717297308 
-0.4138951279857957 
-0.5011851238844747 
-0.06010268005892069 
-0.2703384141279811 
-0.3723298816998736 
0.05352150964216123 
1.737847250953891 
-0.06954491147698204 
-0.6242399428703895 
-0.1148186919519083 
0.2602880305130127 
-0.03184228707157344 
-0.4081906006704439 
-0.3532455992246186 
0.0484777414464134 
-0.2589441491704521 
-0.09405005738203444 
-0.1569905930712751 
-0.09998057350107503 
-0.1583437899160247 
0.1034987150859965 
-0.5073033380566131 
-0.1476938597619024 
-0.6743964564609736 
0.2007745055657133 
