solver_type L2R_L2LOSS_SVC
nr_class 2
label 1 -1
nr_feature 512
bias -1
w
-0.4993875341663294 
0.04038950203397145 
-0.511716341626102 
-0.419298943964567 
-0.3652386037541154 
-1.061402349754676 
-0.03890203237935667 
-0.4085167543559383 
-0.6563073029719816 
-0.2027092652760677 
-0.3805384213332758 
1.712062139429503 
-0.5154102206988784 
-0.9422730351739836 
-0.2717483272205886 
-1.504122311765731 
-0.3027523740038001 
0.1055403058061891 
1.507531670435662 
-0.7045933758563951 
-0.2233631737043671 
-0.159598859924308 
-1.11972548587964 
-0.6951586858156729 
0.5950366856779022 
0.2267408911938661 
-0.1613735842495323 
-0.09974683780938574 
1.004963905686419 
-0.1013116041978093 
-0.1298846015212232 
-0.4972004988794307 
-0.7371792208518054 
-0.08464771510719926 
-0.5759979009241031 
-0.9696294622559994 
-0.2795913920613357 
0.147515446198832 
-0.6628536479629999 
0.5168962875788812 
-0.6776561969444954 
-0.9195155192798526 
-0.1187881947744648 
0.1813712450010614 
-0.08057125169453572 
-0.6142189021500206 
0.5667278458817994 
-0.4824878810568197 
-0.2000181053315135 
-0.5131022539638131 
-1.05776518341313 
-0.4546558854770522 
-0.4321799298184409 
-0.1653850732280013 
-0.1572357186989345 
-0.004121421968919233 
0.08487695016377557 
0.3800375989488413 
-0.4430400901955693 
-1.093322364675491 
-1.431734915692159 
-0.116723078535117 
-0.337245590530439 
-0.3413833470735194 
-0.909340724325756 
-0.4569781798967564 
-0.8996751164665622 
-0.1487673434001441 
-1.449535589867049 
1.964782348321395 
-0.4773364833721996 
-0.3066619580386191 
-0.4163091887063166 
-0.670194048527449 
-0.4108214117658978 
1.083379447144148 
-0.3463359528404159 
-0.5481501720423005 
0.3108218084631131 
0.0449261821422058 
-0.8342240300999134 
-0.4329914386156717 
-0.7599930492912855 
-0.3401596838537256 
-0.5447498968525838 
0.5376409048578417 
1.103735852960214 
-0.3520755693603863 
-0.4015746175606389 
0.8703141948665558 
-0.7342558459097261 
-0.4158891127903753 
0.9216498418509943 
-0.6326584743379894 
0.08643599884998014 
-0.2474682302337856 
-0.5379943383824424 
0.278321327802633 
-0.5342188616772259 
-0.4973339809381073 
-0.2934912369283973 
0.1646367476063007 
0.3421212754374092 
-0.2130879057590202 
-0.7003253932627148 
-0.3739837977145967 
-0.05105334494434564 
-0.1449915987771482 
0.04922245017497252 
-0.2161067586449255 
-0.2522692942188318 
-0.4744967190600519 
-0.4239368098785678 
-0.104157207892123 
0.5746140846238571 
-0.6249371765448568 
0.1535345180502467 
0.1463756154118433 
-0.4782738466624528 
-0.004786126991129359 
-0.4302537990393814 
0.07593383067692497 
-0.3941463482379592 
-0.1061482878976277 
1.495761470923394 
0.004454618317119293 
0.6827688213116876 
-0.1527229348218124 
-0.2644062564078296 
-0.3597784613453032 
-0.7349982267607508 
-0.6596433005174379 
-0.6799181908697876 
0.5968729088104879 
-0.6417628933167862 
-0.6275049546162713 
0.2038252979804736 
0.1273282478507487 
-0.3213149881921147 
-0.3474349774055015 
-0.02205914785447839 
-0.1316283193862897 
-0.4082207826989738 
-0.1407374837763101 
-0.5603692285823235 
-0.2040588445634806 
0.9867579926329118 
-0.5677778969749478 
-0.5128015658663335 
-0.1160020878519019 
1.173738822659107 
0.3741527530098713 
-0.5090601502427199 
-0.3123382348521456 
-0.6953238583843142 
0.7513185995791032 
-0.6209114157094798 
-1.599041347073009 
1.877019735138931 
0.7085504816166603 
0.4915784038432136 
0.2765867393184229 
0.5889409923117378 
-0.1983325600792524 
-0.08818953580963147 
0.1560775487094979 
-0.08999146464416646 
-0.3661223337544723 
-0.5976259154476224 
-0.2075783763728983 
0.0345490142329085 
0.05597134417026871 
-0.6077952995949341 
-0.5894008985013752 
-0.3777104976188138 
-0.07627406164889917 
-1.079926671343177 
0.2648454601462615 
0.4749096180883673 
0.9019091606286717 
-0.209779051423922 
0.1448807221365065 
-0.9295774732661264 
-0.3270439187938997 
0.02106438250655374 
0.09798528261604562 
1.356206448208844 
-0.3965093402020073 
-0.2279998632164466 
-0.3846758878561485 
0.660409574966591 
0.5071199413921018 
-0.2224678507318868 
-0.6060519533562523 
0.1517068240416757 
0.3725197037674145 
1.240587520150062 
-0.1493649615385443 
0.4277026646861191 
-0.2751369051393702 
0.4841723878089179 
0.5508883301518963 
-0.4043074933998347 
-0.3637629997295825 
-0.7691409748861029 
-0.4272249033659576 
0.3802045456959353 
-0.343409256541082 
0.2688771255874498 
-0.6417195299736383 
1.638891352248366 
-0.4602184011095745 
-0.07384949774834031 
-0.06204171324959711 
-0.3322033214224454 
0.1287946839106683 
0.5571730975683723 
0.2569748238537284 
-0.3845355733405161 
0.003345508848645299 
0.480941667688222 
-0.2258901172438116 
-0.3368505273266389 
-0.3276805184110112 
-0.454501213856597 
-0.7332455283537861 
-0.07568743343523147 
-0.6946110219296029 
-0.06593306943516783 
0.534425708886621 
0.1491124862433822 
-0.2144042327638662 
0.01847709718630769 
0.09239172094218928 
-0.1537538482500435 
0.001421878430920021 
-0.02170218105392533 
0.09078342569922998 
0.2115041544670425 
-0.2966439108393648 
1.671032529280509 
-0.5903616814815094 
0.9698683882792198 
0.2510972835276639 
-0.3439505766526231 
1.05809818985023 
-0.1087989077256005 
0.01240647148798525 
-0.05980026815025728 
0.715553500307157 
-0.1926872384418608 
-0.4252961879372648 
-0.2728291313863513 
-0.6245468832716023 
0.05883189316448579 
0.160852176978732 
-0.4743861641539522 
-0.08124192460562676 
-0.2495624640739578 
-0.1450724673140641 
-0.2324497273708193 
1.393192886963937 
-0.5229299157518917 
-0.4068263559288959 
-0.5835876890773709 
-0.2264827561188622 
0.74128573228051 
0.6335103039392355 
0.1954816823625387 
0.9208967804302017 
-0.3330725878088046 
-0.527879131740366 
-0.258070781391086 
0.1897783709312278 
-0.7908696517047401 
1.300814503110268 
-0.3480043933133901 
0.4069983969335983 
-0.03803799807976429 
0.183098464751549 
0.05731876033814368 
-0.4536210980163393 
0.03323078289235539 
-0.4137044044552621 
0.09636321184061956 
0.04023212440688291 
0.4566624607317787 
0.1540233926929726 
-0.7324651956606214 
0.2337366869095943 
0.3518577515268167 
-0.1878948266636207 
-0.7563368460336251 
-0.2266740069862863 
-0.4309185191641065 
-0.7286535022265032 
-0.4612648485911093 
-0.3003230256506023 
-0.1295966103496877 
-0.4679613855811593 
-0.9242339925673767 
-0.4545713465889943 
-0.2190215782073512 
-0.4991829442937709 
0.2569056108438415 
-0.05839746888441621 
0.252104021169306 
-0.3023325559882492 
0.06780692624464175 
-0.841499250737234 
-0.4797210469512789 
0.8432047292967718 
-0.9304552165348399 
-0.4163713958731493 
0.1806486343312224 
-0.2521028477900024 
-0.229063606638022 
1.890214341553615 
-0.5105451131369801 
-0.8078369420869228 
0.6869294585169476 
-0.4178510482011863 
1.054774083787779 
0.3324835827463305 
-0.7029364999626264 
-0.4105423932765749 
-0.3988466686367323 
-0.7842554658411557 
-1.218711876197998 
-0.2162223013814243 
-0.3719858224231504 
-0.5372748532662748 
-0.6436795749197551 
-0.2232141200227955 
0.5997629013354787 
-0.3471480903144235 
-0.155595193138749 
-0.2744063783028577 
1.759387325054809 
0.003804208050405176 
-0.7495761935397388 
-1.017696702665 
-0.2135219056738717 
-0.5621845642793437 
-0.01848504196764462 
-0.3011262481227006 
0.4058851437810035 
-0.627469044865393 
-0.5302754982042923 
0.06110169178514473 
-0.3308160632768222 
-0.09341433172923791 
-0.5630141689500756 
-0.005163421832381023 
-0.2455880149824963 
0.5689366973903276 
-0.800847620744345 
-0.05931289065665743 
-0.4386180538224606 
-0.5192229955817853 
-0.5047907480647645 
0.3243919568008293 
-0.3121213450673719 
-0.504678943921071 
-1.227135934489765 
-0.3256200806315381 
-0.2313039750856732 
0.2938022665295627 
-0.03945315186302534 
-0.08381550676393408 
-0.383300574713271 
-0.8122560222696531 
0.05353950160364856 
-0.5917721497700662 
-0.6856181496343042 
-0.7060993722263295 
0.2166465518780228 
0.3980441536419032 
-0.4523103595677174 
-0.5488142510873305 
-0.07343416925738723 
0.03423559140403905 
0.3770278432990022 
-0.4970474758170386 
-0.592821583738637 
-0.230736843362776 
-0.2169031386572134 
-0.3560840088124909 
0.7653274848784968 
0.5372412675983976 
0.0538486943560565 
0.2995280550288684 
0.3247268094690087 
-0.01850439272404559 
-0.4312588529912805 
0.6894420524015082 
-0.2131975910049979 
-0.02612811869612548 
-0.2182718506125436 
-0.2237335746579572 
-0.1253532208010808 
0.3360266092420034 
-0.1115457046289262 
0.1747408561451881 
-0.652618324359147 
-0.837300599760191 
-0.4941018383681001 
-0.5631135855926663 
-0.3485192713084455 
1.000459262867941 
0.34430827656872 
0.3710086338186294 
-0.1240712131318164 
-0.1266220689578609 
0.3867239323090667 
0.08489596839329894 
0.5877190360404182 
-0.4202945146477106 
-0.4700817513170761 
0.07356356972835575 
-0.4162926138417532 
-0.2092395143978962 
-0.4057502178617311 
-0.2191960626175814 
-0.3055250872649936 
-0.3757253175777749 
-0.8388093633230778 
0.3797512944886071 
-0.6689196253784344 
0.5988257009581901 
-0.3314893199009414 
-0.03549413714276622 
0.6660108494842261 
1.720014748036344 
-0.08832658089778626 
-1.34477834782764 
-0.4274770834611855 
-0.1478859611570973 
0.7214488031255797 
0.07478741764744085 
-0.5069284286415726 
-0.2021347372516196 
0.6029830115976007 
-0.119334241094724 
0.1187461994811729 
1.031488625652749 
-0.6469304706938583 
1.767973193969424 
-0.2128171844406159 
-0.3065883547457903 
-1.020388325852157 
-0.6296950576925208 
-0.4434461127463993 
0.695576272133861 
-0.08168243383345239 
-0.1184826184089248 
-0.6938669290841695 
-0.6073374596183457 
-0.1910679200731759 
-0.3164484707553155 
0.1186118936786635 
0.3478066665131673 
-0.2673059658821762 
-1.334938909876383 
0.2633887159673732 
-0.1780227975264496 
0.005268222646023158 
-0.3203985582899807 
0.2594756960072442 
-0.02696427274639122 
-0.04595309367627326 
-0.06272270868418571 
0.266575339091444 
-0.2245797317829064 
0.04405258355805599 
0.0978487352932952 
0.2803389257536436 
-0.3908002664974262 
0.2279638565860362 
-0.1639557344037066 
0.09554711753883188 
-0.4021988964509627 
-1.44543632821689 
0.1503406081396068 
-0.3986602108265871 
-0.5116831418967139 
0.1430450856559514 
0.2282578433288444 
0.07383079935849349 
-0.0973803146256756 
-0.1660206585153488 
-0.7129944806124346 
0.1666013234408425 
0.2608583334201209 
-0.0161350967440044 
-0.1722111548985127 
0.8476626145972779 
-0.155186881322798 
-0.5545966055089653 
0.1775946772181209 
-0.7429566243203806 
0.6149088721515867 
-0.005804260569101175 
0.2341334656091518 
0.6816285872502877 
-0.1611619672393682 
-0.8777226814262478 
-0.004846876359302457 
0.4245687092193116 
1.085532024793097 
-0.5159957148848547 
0.1308499130105461 
