solver_type L2R_L2LOSS_SVC
nr_class 2
label 1 -1
nr_feature 512
bias -1
w
-0.2026442680621915 
-0.5973855165618797 
-0.7835970511158266 
-0.2072602276932342 
0.0886857609218898 
-0.5725404500183778 
0.02223415332052644 
-0.08323774914723187 
-0.1591185828631793 
0.7307623750424611 
-1.085354761374407 
-0.4334170851669684 
0.6066328616331722 
0.01066179375495248 
-0.08991480123329074 
-1.173219742455162 
-0.5300563446939706 
-0.1705758625797564 
0.690775784598352 
-0.1367975825686753 
-0.2819499456930426 
-0.04054374635322595 
-0.2328420553654132 
1.089128770966376 
-0.6312791240537003 
0.06150179378249643 
0.09277314407446542 
-0.1340368804061628 
-0.03145992798259695 
-0.26639778017916 
-0.309667510865961 
-0.2460963181998288 
1.525617810756287 
-0.34995365397985 
-0.433233988534921 
-0.483716654197851 
-0.2781117385326553 
-0.3182051969589303 
-0.4227012238400066 
-0.2338161150958589 
-0.4037880223737456 
0.1058450302384313 
-0.01542552241176178 
0.0770306009879269 
0.07050187176447018 
-0.3869319874622784 
0.6260821487920343 
-0.3865617909339311 
0.7477937878606574 
-0.5073269514088893 
-0.550835683402692 
-0.05745291453038105 
-0.3887997888592854 
-0.3191359037420586 
0.2093541443702238 
-0.5285318819100449 
-0.4378817486823791 
0.3278262618931667 
-0.2515708671671287 
-0.3593619629432896 
-0.8700248781660558 
-0.1989410566757525 
-0.2190008735317338 
0.2818369611812838 
-0.9674178700256829 
-0.4749820576931366 
-0.5583077578424576 
-0.08884498817852439 
-1.03071783426837 
-0.3587550836934311 
-0.363202158678366 
-0.2395344116700035 
-0.4559899065615206 
0.3388318423894997 
0.3019456902747159 
0.01081656133042746 
-0.07524737341283146 
-0.6038819319684483 
-0.0404057631938597 
-0.1064298186280951 
-0.7830281178166036 
-0.2510383129790202 
-0.3028982066713344 
-0.4824448974433825 
-0.488726496521984 
0.1271651994745801 
-0.3678235323453725 
-0.03412043793409272 
0.7355179365339936 
-0.6795356747731711 
-0.1020020161968336 
-0.2886691285161857 
-0.04357810118452533 
-0.1661914285176003 
-0.4267379106576715 
0.2065672656385807 
-0.3056278380868894 
0.2771234841906883 
-0.1636082483611468 
-0.2668896493613215 
-0.1542258939491928 
-0.3948479523090181 
-0.1882142527343946 
-0.07737655761165695 
-0.7918495334855805 
0.1852911006044285 
-0.6175248770496689 
-0.1044984045380934 
0.2794246343617039 
0.3010344553695568 
-0.5426174830399705 
0.5526037088738194 
0.003135206533105475 
0.5185198723842991 
-0.1457259851192483 
1.322832727047599 
-0.0622960971760713 
-0.7901203117641296 
0.005802555659966087 
-0.129994736924254 
-0.1584139574856941 
-0.02605004768368908 
0.8913746669503162 
-0.2655189656682277 
0.5708703180420054 
0.06505387768537826 
-0.6081318184693792 
-0.06813744591903233 
0.1282566144694904 
-0.5370950236295297 
-0.3239761266477434 
-0.642542190466606 
-0.1027617598956186 
1.570461233262652 
-0.4619091133944222 
-0.4166855510138529 
-0.06598588786441444 
0.03012570819532025 
-0.2458331567730125 
-0.5057993837268405 
-0.2183945107393391 
0.7908953602539461 
0.1855678155800794 
-0.07709109730724589 
1.269777424086181 
-0.4185905154157502 
-0.07441533301318244 
-0.03171051187211634 
0.01045537634272006 
-0.06236374742958304 
-0.1908444968476734 
0.7503620481930571 
-0.1571831949951775 
-0.06777217850111757 
-0.3375239341407671 
-0.2047155869279638 
0.9147552271879404 
0.3205389527009412 
-0.367914252061234 
0.1166403218489446 
-0.2041944776673962 
-0.2424012071065964 
0.5689711354170663 
-0.01959780063770719 
-0.2054755703287368 
-0.5188848073211187 
0.4072833876017605 
-0.04485438878280033 
-0.1606273502130473 
-0.1368914184678358 
-0.08803346546800114 
0.3287366395369036 
0.7975554448864518 
-0.2732886918654783 
-0.04723231929097265 
0.1564440408525934 
-0.3171844273032409 
-0.2644851905003398 
-0.1629793936664557 
-0.4831694460067741 
0.3359975945165699 
-0.2875839786697325 
-0.5821189951277612 
-0.7034678030906703 
-0.2945127117496238 
1.060202901398611 
0.05554555823484321 
-0.4940438295795599 
0.008522553815535039 
-0.1272471712450836 
-0.4670685719216186 
-0.07091721078701818 
-0.4467280055264682 
-0.2052881886196225 
-0.3744462644317942 
-0.3940336356898405 
-0.7800291347733614 
-0.3252845508314356 
-0.6317293568832515 
-0.115840776541931 
0.08812650523004439 
-0.2659582808053731 
-0.3028129924079946 
-0.1065416217308826 
-0.6041424813201277 
-0.1816614415190726 
-0.1709837082099581 
1.09098099298109 
0.3797444320460032 
0.04337720931711708 
-0.5300630707959516 
0.708699383468845 
-0.4683295417854431 
-0.4077165365410879 
0.4947289888546986 
0.08274713203466112 
-0.6494119520247084 
-0.5301116673838808 
0.1230796452212016 
-0.3248047957234446 
-0.2240086945132491 
0.2919546098506637 
-0.3037036829077321 
-0.09060529784314243 
-0.2613885004259608 
-0.2515092495637025 
0.3853134554324654 
0.2527035110577402 
-0.05587652584759997 
-0.124085438884474 
-0.6045112831490059 
0.03832595787028789 
-0.4314806596321054 
-0.1696023650871786 
-0.2024277567610083 
-0.08700996482406984 
0.6011179085027407 
0.04955831487225095 
0.1678647466519536 
-0.2774947461095673 
-0.3778750062270975 
1.272696524470275 
-0.2449494100307387 
-0.001511524837467047 
0.4189045605463588 
-0.2185219412662614 
-0.3237211843704608 
0.08257385608710156 
-0.1953754456311277 
-0.259303339544063 
-0.2083679772946594 
-0.2130310416587645 
0.2965908823423714 
-0.4539232619175815 
-0.3872505201216843 
0.515551720896849 
-0.3697135259081005 
-0.3067740951664217 
-0.3642337182929087 
0.1658663169421496 
-0.1955809399843232 
-0.1323306703227402 
0.4540993267950654 
-0.33538622871145 
-0.2207105903002286 
0.9959231385188704 
-0.4870028269262027 
0.01880116235274553 
-0.08257187602390406 
0.451351138659847 
-0.2987363655804431 
-0.5366688882729237 
0.1732324213243883 
-0.3038879719516659 
-0.2095201342127852 
-0.2397719576619786 
-0.4723116719490524 
0.008822455978725071 
-0.144390576240932 
0.08273734999390953 
0.2064494405675431 
0.2254298268847815 
-0.1837913423672182 
-0.5261313411326262 
-0.790757249863256 
-0.3254585202828873 
0.04657623681322919 
-0.2724585900118919 
-0.3896457177985269 
0.3204816502927158 
0.1594277373668521 
0.03096185700295271 
0.1509146032158315 
0.4590801245514103 
-0.3730857766279839 
-0.332769033421019 
0.150939988180921 
-0.5849461587807885 
-0.2945937372259395 
-0.1597736302046878 
0.8702030601228563 
-0.08325461825125513 
-0.5389208950828021 
-0.3236686363816924 
1.319957466036631 
-0.2690675494719176 
-0.2135587691128397 
-0.3733423464713318 
-0.02271253231427579 
-0.05676747749266271 
-0.2827128383283165 
-0.3896217117091533 
0.5187518647096067 
-0.2809286736901711 
-0.7711033371996477 
-0.2119322629332941 
-0.2795299544456586 
-0.1708795313632116 
-0.2901986826290755 
0.3850542683002143 
-0.4148589844650071 
-0.06756469144618313 
-0.3039410988015555 
-0.2171811180215564 
-0.4024496089190118 
-0.4145105885969831 
-0.287936954556338 
-0.1937416293419308 
-1.176701023250051 
-0.2572697262121919 
-0.2298501440643241 
-0.2342826947468992 
-0.2736688452565877 
0.147438749612843 
-0.6789797999983794 
-0.5913809791988828 
-0.245360253329151 
-0.5331208789501444 
0.02915175283375397 
0.1712577231934732 
-0.7173511096754268 
-1.009863443165301 
-0.3732914594052141 
-0.2624272977503575 
-0.03068046254278535 
0.7331461906702111 
0.6202909881590846 
-0.09659473903395738 
-0.6977523474956256 
-0.08468435268365958 
-0.9741481493328283 
-0.2352675397529303 
-0.6015369113250179 
-0.5427466172168542 
0.641756374985166 
-0.1133907790042836 
-0.303202426133577 
-0.04139691654857251 
-0.4508848779663892 
-0.4314039208441892 
-0.7206118743364874 
-0.2990134503321955 
-0.2898742962199941 
0.4461054940164493 
-0.2887329270184855 
-0.2860415896096282 
-0.523204966484438 
-0.3387546576802246 
0.4433822651827472 
0.0343118410276665 
0.3971604378899375 
-0.3609279961264842 
-0.1789325409948077 
0.2773464376403021 
-0.5766868056277401 
-0.1182765040693035 
-0.164756029476856 
0.112633693458762 
-0.4721771977404468 
-0.1549903966992394 
-0.1712698432916566 
-0.2649198618063264 
-0.2951137141989597 
-0.0820620792045252 
-0.06569041778787062 
-0.2168994242253846 
-0.088765997262249 
0.1382204334474159 
0.8966080053643759 
0.1079843800878495 
1.349377469969176 
-0.4977792607123002 
0.0222477276300049 
-0.1677053457320169 
0.3732345240655817 
-0.2898428425126413 
0.2769028184107623 
-1.10666014030641 
-0.0649907110849654 
0.1627304748142699 
-0.2620923365199141 
-0.2967284355082602 
0.5112791680951346 
0.08940906694696589 
-0.2161751738763374 
-0.9365040302305553 
-0.1444258115890751 
0.0134861595740071 
-0.773333356124286 
0.09434860287433314 
-0.2908958623182881 
0.2464220878523842 
0.2505185587554822 
-0.1970552324552176 
-0.5221837932553207 
-0.5435638461975678 
-0.7751228633860741 
0.90537222427942 
0.5406397384055106 
0.04589906144637815 
-0.5479657552811633 
-0.7993267550554386 
-0.3938965413495703 
-0.3209671298802019 
-0.5756926045102631 
0.2216549342244724 
-0.262775714421058 
0.133330393946925 
-0.1800098500360373 
0.2102158274708293 
-0.135988946555731 
-0.7258105806041427 
-0.4623750375206777 
0.1797896081084876 
-0.07924567272275689 
1.949213198673299 
-0.1514433873711324 
0.6828350738776497 
-0.2503157187922856 
-0.4187217857495344 
0.01151575829062603 
1.0721471485573 
0.393071372307989 
-0.183686636121299 
-0.3975140917123606 
1.241299505825755 
0.1342583406770508 
-0.4211113033558756 
-0.2407343628922035 
0.1917765263248613 
-0.9520215734625387 
-0.2310225892068989 
0.7946151445690396 
-0.5414388412777607 
-0.136707345608773 
0.1386074713700989 
-0.2489477396046031 
-0.5874854452700619 
0.5493907294589826 
-0.09035299546255157 
0.1381978210810788 
-0.1537216778535648 
-0.394808130495904 
-0.1699262111420066 
-0.6721393127954479 
-0.3575705875639741 
-0.04070900758239102 
0.167323619518772 
0.2722416432522624 
0.2405869486737313 
-0.06833364269115805 
-0.2609481861632765 
0.487281996018565 
-0.1213009081017546 
-0.006215558016437276 
-0.2262586490060799 
-0.6465829353547382 
0.3531624027814077 
-0.3925639081625612 
-0.05495901736869575 
-0.06208890581874308 
-0.2185558188083337 
-0.233375584603863 
-0.3408068874534403 
0.2404706012481509 
-0.4885875456860122 
-0.2298476476307584 
-0.2487181871688733 
0.1523101613141003 
-0.09083220027942905 
-0.5075592857524956 
-0.3259600568334033 
-0.138733850422137 
1.652240929689301 
-0.1099913292581884 
-0.5386430070832634 
-0.2990842793017081 
-0.1966827158393459 
-0.5470769808546362 
-0.3224861795772612 
-0.4831295414344854 
-0.1003025762197987 
-0.07291640041431986 
0.7109938101021962 
-0.3341181202743506 
0.5681377925761011 
-0.7100690427009604 
-0.3476935543280175 
0.4286943468988088 
-0.2236460594115144 
-0.2663576930047253 
-0.01671900603707155 
