solver_type L2R_L2LOSS_SVC
nr_class 2
label 1 -1
nr_feature 512
bias -1
w
0.0311973979052952 
0.2562637760675804 
-0.7459253921194517 
0.06869376363138135 
-0.5539173020055891 
0.09753050517291166 
-0.2811566888531148 
-0.5133933773958551 
0.6857858049400487 
0.05030674033583403 
-0.4652143275210807 
-0.1813647027645789 
-0.8933478173586478 
0.005423821547328116 
0.06604664346875254 
-1.002861228851642 
0.02758296053897867 
0.2805943154345339 
0.1110981583744154 
-0.2560686660202187 
-0.005112826133370153 
-0.01069539738143781 
0.1816475684735015 
-1.089939646434049 
-0.2164867268472371 
-0.1435602661552468 
-0.09316063255122543 
0.0354801195718398 
-0.4459403498967068 
0.00342378085073391 
-0.4371941922052875 
-0.3325541677646192 
-0.1593603307071695 
-0.4785894339511124 
0.3317164467016122 
-0.7062440905678894 
-0.3942571845697322 
0.06226393413983146 
0.2015666509439396 
-0.2520734024628487 
-0.3372091150806116 
0.05919048896593016 
-0.2297971178814116 
-0.1776392420144982 
-0.2086469967644016 
0.2097560706121802 
-0.1784208071868151 
-0.3886939990446973 
-0.3085930200744844 
-0.5542503576799558 
-0.1463370068669461 
-0.1901229052163037 
0.3379053534522503 
0.09958659289629769 
0.2054096187835852 
-0.1804897531665139 
0.2935128767871141 
-0.04435464418788163 
-0.5359172139196003 
-0.348329443099485 
-0.12942376969164 
0.1351553055505874 
-0.05492746730075757 
0.6368054349057077 
-1.140793670004523 
-0.2131152386716616 
0.6634565048600728 
-0.4245651396749535 
-1.254450999970042 
1.706266479395278 
0.9454963332250913 
0.006523954813707693 
0.1461000044433757 
0.09482623032899849 
-0.680739707747078 
-0.1280470491521934 
-0.1198690895263291 
0.496404200372911 
1.146513187871298 
-0.3397731770373582 
-0.3957228159325243 
-0.1601529774509357 
-0.3346927751133446 
0.5719902167827379 
0.1941032119575407 
-0.2211354151257166 
1.069265115274908 
-0.5926074794576555 
-0.03750110533861964 
0.2513696181736756 
-0.6654385594457328 
-0.1412719596802453 
0.7195114385701814 
-0.4248027803133371 
-0.4555478717300315 
-0.2629920904576881 
-0.01952716785731293 
-0.2500605892627469 
0.06357284095471644 
-0.04476920016855021 
0.6366867513568276 
-0.1041150007195423 
-0.2657024059286365 
0.1273779903398103 
0.701247828562931 
-0.1051358477348079 
-0.8374622053506549 
-0.2912589309538235 
-0.02367030029483646 
-0.145884938821851 
0.7063292602693709 
-0.05794243770329661 
0.3593396372834153 
0.1052806806072849 
0.6059370050487696 
-0.2955067320019584 
-0.09763746738908578 
-0.2284402340606226 
2.065172021059444 
0.005334238382227677 
-0.1517964390940956 
-0.1210865994326698 
-0.1719440928831715 
-0.001701915434070712 
0.0748231439646698 
-0.07113546054323981 
-0.9088063334184101 
0.4292928552730138 
-0.04243826129548438 
-0.4971226521652021 
-0.06734082297798391 
-0.1419395014351551 
0.07899561215690415 
-0.3320446334359387 
0.3517171971936794 
0.2006073330015937 
-0.2112797826320293 
-0.2035988401403825 
-0.1277548247665163 
-0.4484887697724654 
0.08713110185317424 
-0.237655019667486 
-0.03442950958447156 
0.03485541443311838 
0.4429699913240007 
-0.1369626601795301 
0.3056611718201978 
-0.1832684981738815 
-0.09853880779937153 
-0.3711987331293311 
0.0811982549972135 
0.1069333940545689 
-0.3662058026399715 
-0.2083050082406389 
0.03969497694541713 
-0.2706115248127172 
-0.5297346133560271 
-0.2214442383291273 
0.1152314707457153 
-0.2197534052964813 
0.07284355854958086 
0.8494767329537373 
-0.006719958267799323 
-0.1577108486739306 
-0.1243874478188486 
-0.9801436870962699 
0.3820973700582715 
-0.8501905570896515 
-0.2427070509249527 
-0.1530539481598606 
-0.2369716915663016 
-0.6196492758111943 
-0.2824089093569763 
0.4344677435544914 
-0.02634552269517607 
-0.745628515836642 
-0.4610294266380549 
-0.2524549849343411 
-0.03337321560173938 
-1.169122967681519 
-0.0154467608487063 
0.1172237716335938 
-0.121670924670662 
1.000587445513849 
0.5128980082884813 
-1.284544556176689 
0.1697117496766831 
0.5857843437771399 
0.3608090364721259 
-0.1569662043386937 
-0.5707438023730123 
-0.06691599501086493 
-0.2083778443985283 
-0.1951584446000699 
-0.7225420866296072 
-0.07284905823255021 
-1.33601637430606 
-0.3318384035648991 
1.598000902262317 
-0.6798706655760274 
-0.4246551866718338 
-0.026880320648335 
-0.3359782077081843 
0.09463883179050529 
-0.2535334963176879 
-0.2802228338798191 
-0.1474180447510998 
-0.3864456398439455 
-0.241351353557553 
-0.3434486032516093 
-0.3037995162094837 
-0.2736037001649667 
-0.4053007315087863 
-0.2799150733634519 
-0.05172389720038216 
-0.2828218415696876 
-0.9010176295143101 
0.8078102395999631 
0.1113008209537985 
0.04931153362218195 
0.2152433352680965 
0.09150490619151526 
0.1070248297551843 
-0.1058436763965534 
0.05820861961102718 
-0.147175086116611 
-0.05739424792799869 
0.5938725955742796 
-0.1122810987034599 
0.02227859728930556 
-0.3491356696671009 
-0.1533520486233879 
-0.2833225381013298 
-0.1018696172759653 
0.7021735192219846 
-0.2516277817019797 
-0.2584247805834355 
-0.2079595418664562 
-0.2910394191303252 
-0.2143775626746336 
0.3234478073774165 
-0.5340975849234777 
0.01274902546700346 
0.29884431763288 
-0.00479680494520034 
-0.1514260923393626 
-0.4342141056582279 
0.06249314873275025 
-0.1274352872867228 
-0.3181387791587663 
-0.09185890009937692 
-0.09968448285143321 
0.3097674167882886 
0.237670075774547 
-0.7052084770732625 
-0.9728099712138085 
-0.02036418596187396 
-0.2938941447309368 
-0.09238832731203468 
-0.5472253549648061 
-0.1772893315397671 
-0.6368649708080448 
-0.633380234150397 
-0.166602228293773 
-0.135144109250228 
-0.09739355337308593 
-0.2236295580310807 
-0.1635498298505146 
0.03184286743900373 
-0.3970976921407231 
0.5122110640419468 
-0.6842685368254235 
-0.02608176593381512 
-0.5458196595730049 
-0.431424918358875 
-0.005205274550605122 
-0.3199798206779174 
-0.547096415756126 
0.2369499621241433 
-0.2352088229431502 
-0.2890929258126863 
-0.1176180592555421 
0.3545995223217184 
-0.3876477099178057 
-0.3138679723161833 
-0.4837820103837385 
-0.03255814472058055 
0.04875069369509784 
-0.5481278635353148 
-0.0564733143887996 
-0.1108628500891829 
-0.4760426134143725 
-0.1126806383339986 
-0.004745969085200363 
-0.05883798163185244 
-0.5184199430656559 
-0.2887836349059154 
0.120147202764564 
0.196720677205395 
-0.1251860577662571 
0.1198518363173944 
-0.4361796608241417 
-0.4909424434109699 
-0.234643199840059 
-0.2093687816891394 
-0.04066350622330725 
-0.2329481433013124 
-0.5041010075115278 
-0.4878887391312099 
-0.603985770712851 
-0.488357538076868 
-0.2127360829701666 
-0.0846745544467204 
-0.02805639512713472 
-0.2401740718931981 
0.1854598960572277 
-0.07993784705040195 
-0.1096115418388261 
-0.2821900414749488 
-0.3312954607069286 
-0.08079318532002043 
0.04324316056859992 
-0.1423220377093226 
-0.2152512418174913 
-0.00509086537865834 
0.2114775819287889 
-0.08412108798430426 
0.09892245274464313 
-1.296478120448385 
-0.1368416886681604 
0.02182355228024586 
-0.0611590495346752 
0.05648381072435017 
-0.3912065766291143 
-0.5756549394425577 
-0.4987149671167876 
0.7149628102824277 
-0.3413651073561996 
0.102330455318531 
0.8416289890601821 
-0.6184581082996343 
-0.6248634903690629 
-0.2688974247405474 
0.4283578245835509 
0.4583983664560945 
0.8732904799703631 
-0.08261715710239188 
-0.6503284452955607 
-0.908326536899293 
1.266552898129839 
0.366281387466941 
-0.2798347826347787 
-0.585385515002206 
0.327231854991063 
0.6167272918380485 
-0.4119647529146902 
-0.5618458985735694 
-0.02912687914431456 
0.8534753190660253 
-0.2193978722131712 
-0.7427741446548957 
-0.2880212369652216 
0.07895542255425234 
-0.1788900530302734 
-1.455798143380722 
0.1965466357946384 
-0.5580319160868964 
-0.6047191562669376 
-0.03801189841287374 
0.2612086762488526 
0.3150015657168025 
-0.1764796699873256 
-0.3737502086878751 
-0.1764336855078019 
-0.4967798035477042 
-0.3679484959912262 
-0.07172989063190682 
-0.7001544125518144 
0.3288239327267951 
-0.2449151390673585 
-0.2973188453344207 
-0.281677881388313 
-0.4350251054460316 
0.6906781686997577 
0.1459852451794844 
-0.02682008920083153 
-0.1359234356937764 
0.1887493024127108 
-0.3623088044934896 
-0.1169761555813344 
-0.3100556246118374 
0.4668550435210125 
-0.1260512720724358 
0.3169180351277675 
0.01582148466129398 
0.1082983269501407 
0.223000824121005 
0.2847321676051635 
0.05882570133454249 
-0.1425158174538582 
-0.7736439433953255 
-0.1222039235754123 
-0.05426224535376601 
-0.414421615801794 
0.1131711652451715 
-0.27040436650566 
0.06709777864480691 
0.2485807556395404 
-0.3192544784161144 
0.1259975436576568 
-0.1530490452127426 
0.4783071710942227 
-0.374547780917457 
0.3371898071420742 
-0.2379731291019536 
-0.325864975184642 
-0.6301924844952626 
-0.5871894706130044 
-0.1783250394445144 
-0.2099723323551023 
0.5329178489797197 
-0.2241210497013218 
-0.03027467426020577 
-0.245973399022607 
-0.3998023694883741 
-0.1921187991495108 
-0.4500551198376613 
-0.03254156348419916 
0.01213983387162953 
0.1864072935063004 
0.1153783117632295 
-0.01315318525147375 
0.04155076287229416 
-0.2911395314501181 
-1.225662540024274 
0.1443892942183164 
-0.3958736647329237 
-0.1724961332486968 
-0.3011027512805995 
-0.3364726319466664 
-0.2507863746039605 
-0.122274062235531 
0.309780126425387 
0.1387463267586135 
-0.1078845790604958 
0.6018561603022089 
-0.271003960647613 
0.151377453095087 
-0.2223329015209784 
0.01527798704740574 
0.4859877065674513 
-0.06149167326242168 
-0.103316386453666 
-1.292632181184696 
-0.2133802893904842 
0.1538005338924293 
-0.3442255834977839 
0.318648186102245 
-0.1726787187998324 
-0.1444083439250571 
0.824756978122457 
-0.1263215572470824 
-0.493378626421518 
-1.082188498230116 
-1.406550750862845 
0.07924923669622597 
-0.3169026616703891 
0.02014915746624854 
-0.2396875580143294 
-0.3473209988634933 
0.8202729807499471 
-0.1034317420298161 
-0.27692566091831 
-0.2932116587221589 
-0.03802074888603387 
0.3093371867410105 
-0.3791061845414281 
-0.1156474143715616 
-0.2403539594992919 
-0.1894303844327289 
-0.1114946889554534 
-0.03006949418659446 
0.02080400466394077 
-0.2922501972715321 
-0.5007644431176645 
-0.05889352274518624 
-0.5416932156443637 
-0.7247947343689618 
-0.4506814633862561 
-0.09658117054970689 
-0.2632839861551261 
-0.08404707349258844 
-0.3246923046282716 
-0.1785040821765142 
-0.1676726635999833 
0.03918597817925734 
0.03766425037157294 
0.1138160761277283 
0.2982369212456918 
-0.1035338844996093 
-0.2220481749385787 
-0.4532565501329575 
0.1648139265059073 
0.08678814861721 
0.3050334241039152 
-0.1080943050517118 
-0.09897072432839715 
-0.3698328955160943 
0.9570090555193478 
-0.4752749363156845 
-0.1858818030854171 
0.1892332938825164 
