solver_type L2R_L2LOSS_SVC
nr_class 2
label 1 -1
nr_feature 512
bias -1
w
0.1431244792305616 
0.2312714310133904 
1.102871551058081 
0.4563513693407161 
-1.054846993022994 
-0.8050028606348213 
0.03443812438781105 
-0.7004919141735481 
-0.4584677395642783 
0.0002401972187593242 
0.8484487235091991 
0.3920032118133126 
0.63061950524718 
-0.2286333421276598 
0.9256175685381129 
-0.6797124816707996 
-0.1740105663471241 
-0.5128140772663136 
1.675387389586804 
-0.7106830964817339 
-0.5876789625210079 
-0.2748076428145373 
-0.8664920361504233 
0.06866451934876064 
-0.9367772058452037 
0.6324036736598921 
-0.3145878379223466 
-0.05315829204271319 
-0.8548998349388993 
0.1248711354465282 
-1.095499744962658 
-0.00236912481121164 
-0.3094860512376615 
0.2703949441029474 
-0.4501653984528655 
-0.4411010368398297 
-0.05877908479056059 
-0.01046637427368948 
-0.6126703278938234 
0.3033996497088259 
0.8801928953622626 
0.06888535048593801 
-0.6934725321479206 
0.8679251246755713 
-0.3477330439612686 
1.309079994992835 
-0.2036421747226208 
-0.2263344981744274 
0.2867679678747783 
-0.6557895255879267 
-0.384557310710932 
0.03263538196259683 
-1.247534017226257 
-0.3786045278932615 
0.4675567453439259 
-0.4642730880149525 
-0.8716513285924903 
-0.4024627253997244 
0.1732466255567602 
0.7664116521690389 
-0.2312713066796495 
-0.4101366098635318 
-0.03891736918299141 
0.3931940080554068 
-1.306469832492252 
0.1600293399558023 
0.2622059166170347 
-0.3599951098951307 
-0.1702477913025335 
0.1820688053506444 
0.5163712740927011 
0.7305082925209695 
0.02634444276536835 
0.02966134839761728 
-1.053319901330174 
-0.3644039024215375 
-0.1936469733405231 
0.05819020521504058 
0.4441489000749316 
0.1949344291853492 
-0.6056884109415642 
-0.03651321573493232 
-0.09698407257741327 
-0.3259708399025119 
-0.325024981769063 
0.4168057925381841 
-0.06018782409816947 
0.3090425481603543 
-0.2667589125978889 
-0.6083056529231939 
-0.3156018258884705 
0.5694946025234512 
-0.213070889250716 
-0.4444448257187981 
-0.421922705839732 
0.08871149268457183 
0.1387334236743634 
0.5802421678931098 
-0.4313373643644106 
0.2355249661094599 
-0.4474299891169974 
-0.1276256232078268 
-0.2610791948306093 
-0.0009612219093597363 
-0.7026246969387334 
-0.3116813303556513 
-0.3706186442837215 
0.6286010358328015 
-0.2428277517323759 
0.1425110412124619 
-0.465585380664496 
-0.01700886202647714 
-0.07427645725068739 
0.8065244801881135 
-0.3739527302706662 
0.4997585644594868 
-0.2967266974854558 
-0.08927373657918079 
1.010607178026966 
-0.4462790742480335 
0.3764456312106544 
0.5101814325254942 
-0.196620534273899 
-0.03577597988284335 
-0.2826444451354401 
0.3523290325108681 
-1.462002440374549 
-0.1756620335679346 
-0.2471012458227131 
-1.071944921206587 
-0.2524986471442902 
-0.684018434339937 
0.06943347710184146 
0.3672235962835779 
0.1657604425623053 
-0.3412410264264533 
-0.09898141531129366 
0.02625216737032655 
-0.3268883321322258 
-0.6384061987711429 
0.002231863762678116 
-0.3955772665193 
0.0308978706278589 
0.5353158323919426 
-0.09360848391299523 
-0.7621959892920438 
-0.3931455217056183 
-0.09046842827872781 
0.4878400459847967 
-0.6279677795460563 
-0.1021000198445777 
0.3862638520649265 
0.0859653873048168 
0.1473696742787421 
-0.2238260330732202 
-0.2840514807929392 
0.4741836801260246 
1.160673878162436 
0.4074182840774882 
0.5084337352651084 
0.4344030743117671 
0.1609643280511834 
-0.101589565379867 
-0.07570987502348814 
-0.06827408943396664 
-0.5299953485452288 
0.4467934460305672 
1.749772746460996 
0.144208042582387 
-0.01324735265956115 
-0.3454491404130402 
-0.2037143235289311 
0.1694145394275331 
-0.1988240561444863 
0.0640679366473733 
0.2219608549102628 
-0.3147438733779033 
0.2968554624590506 
-0.5862422936116091 
-0.2080064921846052 
-0.01271686731423074 
0.298520937466737 
0.3223838612670459 
0.2801777257922322 
0.09273473432752104 
-0.2999575494050196 
0.0526149401486805 
0.5291273652439454 
0.4524013748962462 
-0.1934132960961646 
-0.01508032259375985 
0.2025943227903152 
0.2589125073346954 
-0.3070230907690046 
-0.5336244729693602 
-0.01248202998344315 
-1.896760375390979 
-0.7207727192186879 
-0.8040516629391847 
-0.3298755697194415 
0.2540702805694317 
-0.3241194251930973 
-0.1345459670820774 
0.1407056632893277 
-0.07640664618479621 
-0.5321261063104991 
-0.1882908736402158 
-0.4402063412375137 
0.2683415534728106 
0.05977892797587692 
-0.6975703578546554 
0.07742078355898958 
-0.4702766520548169 
0.1193859251968104 
-0.3377217436106124 
0.4330993163391864 
-0.3656803266207491 
0.1225022918902182 
-0.3983637682978198 
0.1835044551846812 
-0.09967912698374043 
0.3251200910784993 
0.678451419581922 
0.1804445860094117 
-0.4427969435356599 
-0.4962808906494688 
-0.2697202857212931 
-0.6691433766042567 
0.1239778030987995 
-0.374547582981381 
0.2912033666185584 
0.0826182314009592 
-0.3954515474107733 
-0.09756071748343008 
-0.2404780309367348 
0.1597256549345737 
0.1710196994836385 
-0.2745752269486383 
-0.4004151298194377 
-0.039967128842126 
1.0312406442825 
-0.1216156437271098 
0.1248989383258759 
0.03193695997584518 
-0.1066847430491573 
-0.156313629729954 
-0.5055215044307869 
0.3041308547964618 
-0.2336790087812998 
0.1408821702563965 
-0.05370518453393087 
-0.6865088113337771 
0.8459950342910901 
-0.1994613001610051 
0.01830503104949706 
-0.4011003352611021 
0.2875278827956697 
-0.3837117632644437 
0.1437279113402818 
-0.4159393299843821 
0.3004447674570007 
0.7446090260902818 
-0.345354910317992 
0.8374474378293003 
-0.4867395271299377 
0.6463133180009754 
0.2652464269709587 
-0.3741434900689847 
0.3858683869983288 
0.7758012493064764 
-0.05396757555876445 
-0.4742165614537085 
0.1247232539360622 
-0.3095799493441015 
-0.564510382266691 
0.4342426091465112 
-0.6695624060492643 
-0.7484303590849647 
-0.09761615798451891 
0.06864117270120582 
-0.5018232839738612 
0.6827754235043521 
-0.3864869918105542 
-0.3382314916874687 
-0.8714262489005117 
-0.8590353399474923 
0.02673836349548327 
-0.3679187953965847 
-0.7011481284816757 
0.2070775450668127 
-0.01354028964759014 
0.2423243450553512 
0.222909419701241 
-0.3620375845757887 
-0.1093693758895187 
0.07431656975627748 
-0.8217755646345606 
-0.1721679264351557 
1.305205138698664 
-0.5954733521701088 
-0.7641175885168935 
0.02523982665673487 
0.4157552665488929 
-0.08145970062451877 
0.03299116288074489 
-0.3355750360968174 
-0.07852769327538725 
-0.4883456909028836 
-0.5562143829274209 
-0.6944909389857852 
-0.4373285947913645 
-0.6232469705580123 
0.1521614404298958 
-0.1620517325665458 
-0.4511781124355911 
-0.8729711528925981 
0.2654610692603072 
0.179286155892123 
0.003098114731791763 
0.2596939842449313 
-0.5456113996493094 
-0.06464910229750577 
0.4566632279263772 
0.1747257883671061 
0.7020880644265488 
-0.1059772060338831 
-0.09236158451229073 
0.1489887455348304 
-1.209373543879986 
0.1079366333081034 
0.3691994725530259 
-0.3966959976776044 
0.214655504872379 
0.05566614774578375 
-0.4695859679340011 
-0.7464049454714318 
0.2273649820480971 
-0.01217856044880354 
-0.3701955102994336 
0.3483550914119742 
0.03192464928805484 
-0.9806694272906128 
-0.04866083555628524 
-0.2966601119733825 
0.1879355332098425 
0.9042827495986805 
-1.206109958689617 
0.01902428347092082 
-0.6171221276272875 
-1.006914345046824 
-0.8291469229267677 
0.4941314709488674 
0.1846257656347296 
-0.2642710589376595 
-0.4845065899071205 
-0.5228526241934903 
-0.5562768513352992 
-0.09497985490684159 
0.4789815948709514 
-0.7590697294835443 
0.09759983454302719 
-0.1131642090474194 
0.2586103980899995 
-0.3489475195160549 
-1.360966201680071 
-0.7092642905640755 
-1.025152558986361 
0.06916555452303332 
0.01632247989009405 
-0.2364234342345547 
0.2263227574143342 
-0.3990832344970538 
-0.06448686357258918 
-0.2146207694158852 
0.5024301660261178 
0.4712056169482711 
-0.1517570128680532 
-0.03046542128759742 
-1.202875514072888 
0.1557849656580674 
0.6490772566341136 
-0.6670102125880717 
-0.7324742110672079 
-0.35832113596432 
0.5702222843879513 
-0.168715642282222 
-0.0001152134116296581 
-0.03076330249716975 
-0.3452020290333062 
0.4074379699817631 
1.164867499684645 
-0.1356668555011565 
0.5481666569185538 
0.03859451973301998 
0.2506692423615271 
0.1156907391069318 
-0.04049390843604972 
-0.005977145966682422 
-0.1470069708427868 
-0.1853035496234024 
0.3552077887444196 
0.6321966473996857 
2.096138102944236 
-0.1472088228542847 
0.05591298917027496 
0.1907437752839712 
0.1412040243234943 
-0.3370827447112772 
-0.4913600354485564 
-0.2587319911038491 
0.1718095488219235 
1.054466225904736 
0.2303994526870866 
0.1953164165534208 
-0.06081734919566393 
0.05492710707279008 
-0.1730167800694812 
-0.4366012196441386 
0.1290270575258186 
-0.1795571542881841 
-0.9076099550300251 
-0.373122256787305 
-0.6260618481921192 
0.2581796731019333 
-0.4404695115411508 
1.576545034977441 
-0.4189899173385993 
0.1131464130011233 
0.4456450319346063 
0.5701941559719285 
0.2058876787430317 
-0.2899545187528626 
-0.2806046805413789 
-0.1085005432097527 
-0.715753049880069 
0.4603296517112918 
0.1725286447187728 
0.2277974832866017 
-0.5743522456634357 
0.5981699494129662 
-0.3219327342620493 
-0.1942271794811419 
0.9064966098503452 
-0.2119771238460875 
0.1441489613360352 
0.2494885566639394 
1.195896734937295 
-0.7235996542073576 
-0.03643081888520967 
0.1147275084776545 
-0.6947213832058522 
-0.5903682349739801 
0.3767492881164526 
-0.4308043961222601 
-0.03162430754229608 
0.0168043155546148 
-0.6675741823268475 
-0.7703840557503455 
-0.002564524729716614 
-0.1044067401908885 
1.020221144958622 
-0.1040768522805266 
-0.3930328982057462 
-0.5740865507421949 
-0.5487379865587425 
-0.289767230333291 
-0.4179920856030048 
-0.2978726151897761 
-0.3106470157122911 
0.6986230807531305 
0.1946717106779048 
0.3288985981548791 
0.4577458376788026 
-0.0793134244863086 
-0.1923981828584824 
-0.8501236990953779 
-0.8104880027215062 
0.1062747459645974 
-0.2079502493905459 
0.2975955583889582 
0.7121266591186557 
-0.2355402451676279 
0.7468173081509849 
-0.1063772839482227 
-0.1134543705799916 
-0.168226590021039 
0.7603294828288439 
-0.5914836252924045 
-0.08224088909746968 
0.1941134832196526 
1.327972202577721 
0.08783070572657573 
0.862076336440731 
-1.049870781137307 
-0.1130750237278588 
-0.6539931524888379 
-0.3379653449856805 
-0.6154030326751628 
0.08960333336390675 
-0.4995366243907449 
0.1793094621441818 
0.4550137338695825 
-0.287232118095732 
0.3355323406813655 
-0.1794427074107714 
0.794778647597845 
0.5615137993912522 
0.07807448473769785 
-1.409099352054554 
-0.4582127013917411 
-0.7211796578147084 
-0.2664647526148201 
