solver_type L2R_L2LOSS_SVC
nr_class 2
label 1 -1
nr_feature 512
bias -1
w
0.492661464963367 
-0.8913036623557801 
-0.5608171837838642 
0.2135723111131789 
-0.3293745933079503 
-0.3954460975245871 
-0.01112329153064748 
-0.5037736960987436 
-0.414922957508979 
-0.1130773742394278 
-0.484182653903985 
-0.2562366885100235 
-0.2368181624937138 
0.5215664104015699 
0.4111120221582845 
-0.3495309433184662 
-0.3412007743109523 
0.050816893090344 
-0.3060712419700785 
0.4759128922676286 
-0.1186507602627928 
0.09330247231513472 
0.7109856091063996 
-0.744883871194451 
-0.6427986017820553 
0.0601157285387268 
0.02237977776178141 
-0.3064362498749952 
-1.273841718752621 
-0.1164898453565925 
-0.5153309500609442 
-0.2174288853673894 
0.4794117631552107 
-0.3114834779100094 
-0.1295672886003905 
-0.4458687405361938 
-0.3544189869427206 
-0.2511337302755618 
-0.1645876401587673 
-0.1425681915531488 
-0.175413702688757 
-0.1671179612251477 
-0.6966328979633674 
0.07740826944313502 
0.3794249374313985 
-0.1839767311141494 
-0.02416400543299305 
-0.2906499947178617 
1.109271217756288 
-0.3165608395726103 
-0.5502672109173891 
-0.06130570270815578 
0.563544356761829 
-0.1430212991553228 
0.5508348576241815 
-0.1833226320405113 
-0.06785698570854931 
-0.2981382603643344 
-0.1310672467469809 
-0.2142976247892202 
-0.1639114337259127 
-0.03048495653673816 
0.1526358337245428 
-0.1460074165013822 
-0.8048931709263221 
0.3857181356642104 
-0.2354879559312257 
0.0693868495209168 
-0.7910734875894294 
-0.7961259923312801 
-0.01425204762220361 
-0.05615850245490484 
0.3017087553917437 
-0.06043041281837733 
0.2232974736323155 
0.03352283170090849 
-0.1096574436023699 
-0.465496900795162 
-0.08145603393706152 
0.2529599268920705 
0.5675082482294933 
-0.04365903455625156 
0.2490273515077953 
-0.3950473778641459 
-0.1721599323312401 
0.08552113586514065 
0.1646867742513843 
-0.3303446787932576 
-0.06831541765566544 
-0.1816368729829342 
-0.2119652431715563 
-0.1583005146366033 
-0.1815142110428696 
-0.2753027971170502 
-0.173576853379361 
-0.2105430109269115 
0.07752395738310175 
-0.1636797338103924 
0.1602261991791618 
0.008831513165694544 
-0.2655804048626893 
-0.3197488837125804 
-0.1482033010120315 
0.04694959333699554 
-0.2869836871779584 
0.0428689656786169 
-0.5882623149342388 
-0.2580625643935923 
0.6465570351760267 
-0.1997205290785211 
0.05985508911947922 
-0.1487093451757206 
-0.3810595594438179 
-0.3616214838312723 
-0.08257642042236259 
-0.4333949886763273 
-0.3438947851956841 
-0.4468046196730499 
-0.3025687895143072 
-0.1523491682242884 
0.0679520280956367 
0.408771510084311 
-0.1101928731794969 
0.5645364768900497 
-0.2725189413372904 
-0.187137772758897 
-0.2976491978446821 
-0.126694342950685 
0.4561169361009831 
-0.2460183512463555 
0.6689760255632865 
-0.02083683719508048 
1.030722981646243 
-0.6154567279838039 
0.1522232604735674 
0.02285722039372488 
0.7837283889290062 
0.1033152864026301 
-0.4139319823529655 
-0.5215917129162185 
0.005970003777210526 
-0.4355003807418333 
0.0905212462790928 
0.3222034045283318 
-0.1653587786140836 
-0.1378891604265566 
-0.1939003181951714 
0.2914204818888189 
-0.2481299533759544 
-0.3402190223446322 
-0.2583443724641033 
-0.2476967153277218 
-0.2293985014711503 
0.007078532827786703 
-0.2990360672682552 
-0.1748097031787608 
0.1456840303083603 
0.1716630647175758 
-0.3646593414620342 
-0.2540313247364489 
-0.05101641668713059 
-0.1052602544725781 
0.3075273697989383 
-0.0326081498602462 
0.1942901985899476 
-0.1775399974055427 
-0.03256986730615351 
0.0788617441645981 
-0.2469696518569267 
-0.1768921689210957 
-0.2388950091723561 
-0.3166505235030099 
0.2480976968764557 
-0.1016091055711985 
-0.04464771256435759 
-0.2627693275591284 
0.5376961121965609 
0.04398177731401418 
-0.2695002007963538 
-0.5353529196501682 
-0.1038771642435688 
-0.1697194364538862 
-0.2214251114809578 
-0.3465831917402815 
-0.1107490446994033 
-0.7390913680449369 
-0.1142952551858827 
-0.5124682089401322 
-0.2416711443674034 
-0.08311096573520363 
-0.4122361289730103 
-0.0987112098026123 
-0.1870593897219583 
0.001219323128314007 
-0.4738383676274731 
0.04192177200380785 
-1.009969205705695 
-0.2596930269560285 
-0.03964722660930831 
-0.176949028565267 
-0.5264030722732744 
-0.04791666704917321 
-0.561200765789778 
0.3566020151322191 
0.7637143480161626 
-0.6441015876309374 
0.4072288256048525 
-0.2115655589873363 
-0.2326274663837915 
-0.2635682803767175 
-0.1180176396625326 
0.1130887721708507 
-0.2757927471851267 
0.2301523955852853 
-0.2478309118777017 
-0.2744981463997676 
0.1312254846550659 
-0.3103375067647819 
-0.4991405502882775 
-0.05609411712967245 
-0.174583165635065 
0.0814552371472248 
-0.2897656323111318 
-0.2237307276734957 
-0.05590306458754781 
-0.05698531036696686 
0.01687552563347204 
-1.020860635279412 
0.1916946443828846 
0.1479282867712531 
-0.1732196434232691 
-0.05406038143747543 
-0.2123802911456428 
-0.2066894981967859 
0.01509893206249194 
1.305096465055307 
-0.03525742229479374 
0.009537436644457102 
-0.1627854017840649 
-0.07787414729327183 
-0.8525794937660907 
0.1894062649349448 
-0.1128476397496664 
0.0005573022100095575 
0.233666231936075 
0.02475831571540653 
-0.5479127653831093 
-0.08198927014046048 
-0.3232987286687028 
-0.5951608085763492 
0.2239382938311702 
-0.2790899829238666 
0.5829099639962554 
0.5545361684650866 
0.2790505636045211 
-0.7006296522526549 
0.2205234154081437 
-0.3332414144132024 
0.08291179827272459 
-0.5728432129624531 
0.1085148679450921 
-0.09259441125869793 
-1.013648236362067 
-0.9536832427151242 
0.4124230015480158 
-0.1744182353299079 
0.0430916304225913 
-0.2329755428331598 
-0.02511979167354609 
-0.6373580579133544 
0.4301618671397093 
-1.157063661821881 
0.04790750890626726 
-0.3427310701964927 
-0.378079733962553 
0.2552539333721086 
-0.01322468842830894 
0.298971250570146 
0.2525929091354454 
-0.1551493663114366 
0.08239929176655635 
0.1340009514648246 
0.01246996478946919 
0.02099120879536067 
-0.3143645474355177 
-0.2670164678628849 
-0.1748603959869377 
0.02420311596334225 
-0.3565906198080943 
-0.1378434114152904 
-0.02623105463064259 
-0.1957900431386675 
-0.1304055376402292 
-0.0581948980739506 
-0.1677467713842193 
-0.5604124445933464 
0.127545388679781 
-0.5313588068210039 
-0.2479505755135888 
-0.1723965021755527 
-0.6433438775619674 
-0.2777579410025185 
-0.1746977751902718 
-0.2240969431172546 
-0.0609716435800022 
-0.3569212951736518 
-0.09263783016533041 
-0.1586803970574251 
0.3933322093020853 
-0.1671064531135265 
-0.2572333274088426 
-0.2344284264073676 
-0.2344576228216138 
0.4817438844483202 
-0.5553070751415543 
-0.4583453575149192 
-0.1026036018195751 
0.6448655367756542 
0.09522965734222837 
-0.5033874470539561 
-0.2420796652802807 
-0.1309279512703914 
-0.1803313074736866 
0.1453848926123662 
0.3039328110948006 
-0.194418672456662 
0.2102743453076446 
0.2131948945211789 
-0.6385664501251709 
0.1832593492100884 
-0.05825494550821454 
-0.1365579193193122 
-0.3252877776927445 
0.07976361289244523 
-0.6045311997443288 
-0.5585876054635888 
-0.1160014792693705 
-0.1549347802687992 
-0.2294406941459904 
-0.1937457294085892 
-0.6574250613196653 
-0.671951112095887 
0.122373456426904 
-0.03075365780080383 
0.4734277836018694 
-0.2138036164223964 
-0.2024544745220871 
0.171542844293884 
-1.016816570347403 
-0.3489117115320716 
-0.2084975809366955 
0.6567703611720945 
0.5893912724183356 
-0.2982250521054581 
-0.7364415633191048 
0.1056672731356466 
-0.2670220280314973 
0.1458407200535761 
-0.25671001378201 
-0.2542136783038899 
-0.3382321287030055 
-0.121661237152206 
0.7864902023587903 
-0.1449092318887415 
-0.1055670808613403 
-0.08328478664376301 
-0.3307521959254067 
0.4222719036437309 
-0.2255365052992344 
-0.1427227909491375 
-0.09037812416943819 
-0.332761015994515 
-0.2227276314920923 
-0.126354251555798 
-0.4472380257558606 
-0.06755384197110587 
-0.1733706966420694 
-0.671000164715714 
-0.4388736185219833 
-0.2153032689018769 
-0.09333609662288837 
-0.2408701122318283 
-0.4078532863441649 
0.6444750071498726 
0.01267768218623579 
0.09257133338811245 
0.1051758422649355 
0.6790222399279786 
-0.2487623903406149 
0.6080828961067392 
0.7505306335023426 
-0.2380148602649372 
-0.1496654814444865 
0.03421122902741702 
-0.2209587139065226 
-0.0330896883300596 
-0.1681272901479535 
-1.009926062220955 
-0.07813937518048195 
-0.215594195122699 
-0.704556481431034 
-0.08548836933597934 
-0.1188448586983504 
-0.2602055768781686 
-0.4064088920981903 
-0.3849335152238987 
0.6384261523831936 
0.9829311219074149 
-0.28966874425738 
-0.04150262590834688 
-0.1285460081195492 
-0.3853868083625067 
-0.1619577238376455 
-0.07243367763548984 
0.2323988587591373 
-0.2480670450466802 
-0.7665382266961982 
-0.1832729117630523 
-0.1649384267487675 
-0.08340761297635868 
-0.2202280928460794 
-0.7713821785055891 
0.4062486210939246 
-0.0435921601121461 
-0.5538637518728621 
-0.3785095133118713 
-0.2311732419433065 
-0.1476677076004372 
0.6393023333735971 
0.3169036335727071 
-0.08782029763687689 
-0.7073544112708915 
0.1878637185214589 
-0.1808127065904142 
0.1953795987572388 
0.6322830530370408 
0.3517756517199763 
-0.7175481377095539 
0.5020583068720117 
0.1211456455975299 
-0.1381691847731533 
-0.1852761346031994 
0.0160221164146647 
0.1990459294771432 
0.007936500694289441 
-0.3249018361783322 
-0.1981028713777097 
-0.5765017032361084 
-0.0128086466854416 
0.06036170802226405 
-0.1763776906907846 
0.5510440793071342 
-0.1738917735033354 
-1.151950409768005 
-0.3477085576053608 
0.03456588829143643 
-0.1617315244884016 
-0.1416455466195412 
0.04305466835901887 
0.569548373722192 
-0.4602083691301868 
0.08440621267868098 
-0.3983767299031353 
-0.3848936894475821 
0.09626448995904965 
0.007814363065635044 
-0.7013079190319197 
-0.1394688513254403 
-0.08086817565157431 
-0.1742989635373003 
-0.01795580444809866 
0.1405317763185954 
0.09925875744864658 
-0.2702452578078558 
-0.08070885386287459 
0.2481560631668764 
0.1407650302623951 
-0.06661200595610937 
-0.2645450492474357 
0.2562086030176718 
-0.2967923375402148 
-0.09171579095307915 
-0.5376929594816358 
0.4221801392442982 
-0.1498672289220312 
-0.08893811607672394 
-0.3207724777916423 
0.2138548580534734 
-0.4231555182092968 
-0.1037453702735607 
-0.352004275607196 
-0.1411295255789088 
-0.3753234425802177 
-0.7825603281633597 
-0.01845526624027471 
-0.03226125221518523 
-0.1510906979646919 
0.3871272246169979 
0.08870395409813353 
-0.2771220976181217 
-0.2561432764822364 
-0.6594201943849828 
-0.1399194643661153 
-0.08069689449735451 
-0.1774955875553685 
0.05006880245853208 
0.201497398252436 
-0.2476695335829025 
-0.7700770476921615 
1.401909786868451 
-0.3265126106664589 
-0.03363686893816861 
