solver_type L2R_L2LOSS_SVC
nr_class 2
label 1 -1
nr_feature 512
bias -1
w
-0.2435282524482206 
0.490319655969888 
-0.9747958625971218 
-0.1433453600613641 
-0.9166378894561342 
-0.7682548818043099 
-0.3900840170039488 
-0.7800408289411057 
-0.08925125199683617 
-0.08286776452325864 
-0.8016902439713827 
-0.1854264134182452 
-0.905219541611411 
-0.5600736939148921 
-0.2178675184700071 
-0.6416377369831333 
-0.3439010731309316 
0.2358334119859384 
-0.009637770397268854 
-0.07653768872451065 
-0.4466973564512129 
-0.1713388817709788 
-0.6051318557275496 
0.2649468338346438 
0.8825462054718834 
0.5057739946158389 
-0.287689638659596 
0.07154793485695525 
1.639143993376637 
-0.2320313360893928 
-0.2031352464610863 
-0.3752272923198058 
0.4372595444947468 
-0.07905771969026137 
-0.4928788756607837 
0.0424409833242662 
-0.302246235311444 
0.183393708604567 
0.07475343647530124 
-0.1274444526434644 
-0.4606020775928793 
-0.1231073087375429 
-0.9351348668883916 
0.49501088132757 
-0.1856369379139807 
-0.2926195875578138 
-0.08516798886695923 
-0.4756978588744031 
-0.03656308337457399 
-0.2172581283393674 
-0.1584260165883784 
-0.07498302437019007 
-0.797112799263834 
-0.1866979318298802 
-0.07038095093700528 
-0.1352603306732112 
-1.312643480573128 
-0.2058508610486415 
-0.7330040845183158 
0.05508945919358663 
1.426064953255692 
-0.07088895913247735 
-0.2185065146213451 
-0.2301548150515495 
0.7000786445552357 
-0.5216927133063195 
-0.3739002339110445 
-0.4238876047457514 
-0.186393114859332 
1.521438542681138 
0.4110283690375894 
-0.2493992937531209 
0.0423463338226262 
-0.04702881167724508 
-0.7586056897783109 
-0.343434241638335 
-0.2191145404440055 
0.220695141895032 
0.9367851239955667 
-0.1023055113372776 
-0.8329283686764659 
-0.2608197293853727 
-0.1175539361517758 
-0.312423733459597 
-0.04881961778922836 
0.1690245758277085 
-0.4951217588989151 
-0.8481217117862654 
-0.3060572651792 
-0.1426638774192487 
-0.837887529716254 
-0.08801410273794838 
0.222263380908884 
-0.447766954175807 
-0.6848223647206759 
0.1235192687736412 
-0.3998533295911451 
0.01047314716679274 
1.460061401835518 
-0.1072029081237335 
-0.2538444868464984 
-0.4635966516046998 
-0.359168456697565 
-0.07881841390661101 
-0.4909178180119445 
0.6107453329729063 
-0.4850150908924427 
-0.2205847780784589 
-0.4490258263572186 
-0.02611126770257614 
-0.06577262349597685 
-0.2333425881264606 
-0.151877734472197 
0.6581222411246934 
-0.1779943382225789 
-0.4148431520652218 
-0.08132628859100656 
-0.6512099275145271 
0.8447395606816913 
0.05250245405196734 
-0.4528156241700423 
0.01118161919295629 
-0.03262823660830522 
-0.2923343627526392 
-0.3646586905225428 
-0.2964271426822562 
0.04324851834761527 
-0.1048222960383672 
-0.2475261486052638 
-0.4113801774739297 
0.3851106307615453 
-0.5067506055559964 
-0.03270412122535582 
-0.3145209617343421 
-0.05833409722661478 
0.2657029149728876 
-0.1002330033652758 
-0.1919500379892845 
-0.2311315262565702 
-0.2770383082067995 
-0.01076739160739357 
-0.3366276785089897 
-0.2653370660413629 
0.8349549480152478 
-0.2758041125676057 
-0.4376498336424529 
0.01731184962216073 
-0.02460429426378027 
0.08265710828692889 
-0.1379668975086951 
0.2080660592824558 
-0.1355701067309612 
-0.4220457426576175 
0.3141571250136325 
-0.2216414181942274 
-0.09857501665717779 
0.03770569392150234 
-0.4447089116766917 
0.3168080272674531 
-0.00739263808082629 
0.6882479083809919 
-0.1620455255037505 
-0.03767525522443663 
-0.1143637010815412 
-0.2364440064254829 
-0.4552564254350503 
0.101682216502825 
0.1205882857229277 
0.180988140656444 
-0.2303330542561821 
-0.289961168148227 
0.3165374576653631 
-0.01284285674799456 
-0.1184765246184326 
0.6583740192996704 
-0.00614042312325902 
-0.6847862687273708 
-0.2636099616834774 
0.2226114931570467 
-0.883136809852206 
-0.01253781841274762 
-0.1565627999817383 
-0.6901855460022303 
-0.3290472516127012 
0.06465667535875116 
-0.7141711029422499 
-0.001920949255937273 
-0.5484766513475302 
0.2680298747146758 
-0.1117311837161402 
-0.5671398806195432 
0.4896803286440448 
-0.1868637657782825 
-0.4811804029121935 
-0.8583206539281965 
-0.02476680833908405 
-1.239662024662162 
-0.4188780097641764 
-0.6306046456719167 
-0.1307748708056423 
-0.5068884341884073 
0.3464267598013332 
0.2046147599650791 
-0.01209616975983255 
-0.09537714629514343 
-0.7153627380729536 
-0.5977106542859444 
-0.3331117113580774 
-0.04040032219298408 
-0.1562544937966037 
-0.3840884134593966 
-0.2848689290460208 
0.2655660107715262 
0.1255710320927785 
-0.03185891447562048 
-0.3526422994858163 
-0.1147261408300893 
-0.6429374882155557 
0.6094731994598238 
-0.1200585643582875 
-0.2166724508565003 
-0.08159660010274529 
0.5705704561576463 
0.2674000746497144 
0.05129419381875119 
-0.3251712122354395 
0.03588400635361729 
-0.7511343114113777 
-0.01536228632314988 
-0.4036093864925498 
-0.3320821700760198 
0.04625051474908071 
0.0002210997925090157 
-0.2211397712228648 
0.2664012641063113 
-0.2434997309043708 
-0.7209994962959426 
-0.1220785176194359 
-0.615437057532795 
-0.2534399437695201 
0.669631941717356 
-0.3103827009332764 
-0.06585656225782968 
0.04928851260573319 
-0.3056168989792183 
-0.4279423460465272 
-0.7422808215710719 
0.5346807797618763 
-0.1525198539497248 
0.04639824019523717 
-0.01604479362778038 
-0.362834827627006 
-0.2319603721315265 
-0.2932604777785183 
-0.6097574850761135 
-0.5968083335190157 
-0.105228839629564 
0.5789026156322465 
0.093267009600148 
-0.4460455651046406 
-0.09769101127848658 
0.171226188024635 
0.9169388443525963 
-1.046555342216996 
-0.2682785762875127 
-0.2246150001206862 
-0.06100613824226874 
-0.2389343778895348 
-0.07980664021491515 
-0.5977208446658532 
-0.1367684777160582 
-0.6903727815357855 
-0.0493387680240449 
0.04014941884587167 
-0.5353029312861006 
-0.2529524211091864 
1.203482430444965 
-0.4489539893360961 
-0.1932352165562836 
1.233043641357618 
-0.3679144307889727 
-0.04900579026705905 
-0.2957243770236245 
-0.1635975570460916 
-0.6815831385577954 
0.1130999642554927 
0.0567068509083944 
0.2017109673137295 
-0.3845736523139163 
0.7341281814459347 
-0.0191534829284218 
-0.5418529150119487 
0.2926986563761654 
-0.2689718622684469 
-0.3865133182474099 
-0.3802852787139347 
-0.9903147618908599 
-0.02737823320522701 
0.2668465483342137 
-0.1410216949532193 
0.0616518659696004 
-0.547838166051705 
-0.1686666246596115 
-0.330374789081642 
0.758715805170889 
-0.5427470235540016 
-0.3361069826364497 
-0.4569285861616652 
-0.3507955984783461 
-0.5249901571512404 
-0.1492552910291314 
-0.5091514842796838 
-0.09088540894871482 
0.05674594757948045 
-0.5398730215826193 
-0.3075957547827443 
-0.3397030550488634 
0.3340141819747743 
0.04580751774188382 
0.9821474780327516 
-0.6621024172653212 
0.2219101542526666 
-0.003611614644590859 
-0.241928641531247 
0.03652001615507626 
0.6665955213147524 
-0.493346265236995 
0.07650588093098834 
-0.3509314453418705 
0.04721437741608971 
0.2773585160444674 
-0.5183598813003933 
-0.3488616726530834 
-0.3698675403241464 
0.3171299699762131 
-0.7417799586141877 
-0.1655950424039582 
-0.7851401804547288 
-0.400749348360684 
0.04534746873723131 
-0.6408695313316854 
-0.4277157088792286 
-0.1324077606279152 
0.1580675567066047 
-0.1914468142914356 
0.01120533856736644 
1.26055332221405 
-0.5785656570240623 
0.03275486290313775 
-0.6393744586179892 
-0.04834353793278273 
-0.2545865256257533 
-0.5297539297820838 
-0.3292785343464369 
-0.7540107645127656 
1.142687753121855 
-0.6033377453717738 
-0.1029962203353464 
0.1933759540553004 
-0.4924174042747982 
-0.8054964233704399 
-0.09784585425507629 
-0.1212619429119887 
0.07025547856836886 
0.4927128993709555 
0.4668854861550152 
-0.7991308861714463 
-0.2523231604457767 
-0.6278292720871284 
0.08126438025517262 
-0.3296480805549541 
-0.4404500348867229 
-0.1120152518331993 
0.01914682925962101 
-0.9778781757743258 
-0.2482229492023077 
-0.1104368012061369 
-0.202260019602539 
-0.4917048107602046 
-0.1884914150694873 
-0.06911626434831775 
-0.2513540977395125 
-0.2685008271848522 
-0.4191786348712582 
-0.2201593634555943 
-0.09991033691483819 
-0.2672694656497518 
-0.001014811272793535 
0.1270634275849137 
0.02635448290786406 
-0.2304386932045899 
0.06068104291846358 
-0.1788825650457338 
-0.2835043284003098 
-0.0416344563025811 
1.083273907985789 
-0.2167140626865769 
-0.853899868502958 
0.3407134350549985 
0.06081377393248901 
0.4413802059801019 
0.08010923145449853 
-0.1580326993214914 
0.4678384132317482 
-0.3585378917522912 
-0.1187611863855834 
0.1317937065326376 
0.1832542107161023 
-0.655250826173531 
-0.2250703379704169 
0.5510951007769747 
0.4325039465503597 
0.004809379331012509 
-0.2512031027917603 
-0.04313510576858884 
-0.2005329760548663 
0.3530717363760318 
0.1839103941531754 
0.06177800095085768 
-0.2128753471549462 
0.5985427662858034 
-0.9684235982985659 
-0.591308952224235 
0.0364007666356823 
-0.1267266254059433 
-0.5698117180303992 
-0.3232748030752193 
-0.1051445273744722 
-0.184783617150534 
-0.0437792431254282 
-0.3589196648173589 
-0.2215676324597894 
0.1764863225860859 
0.105844857052911 
-0.7903522090748565 
-0.04194361382549044 
-0.6563931104242143 
-0.1876411051424191 
0.3732674985641511 
-0.448345438911221 
-0.155753435645 
0.01379192172818145 
0.5518763336554824 
-0.1480743229909198 
-0.06451172171947567 
0.1205043680801904 
-0.4035973484590107 
-0.5281016359612379 
-0.2088211246679044 
0.1468008453489514 
-0.7592400144088662 
-0.2699270990130399 
-0.4591444022890245 
-1.105670429725313 
0.06156145418509262 
0.3559611032383074 
-0.1807844249980849 
0.3812031072586213 
-0.07623706829287545 
0.2099274535460662 
1.351175809417895 
-0.1141084664968852 
-0.2088145917581651 
-0.4648384914930375 
-1.018931587128015 
0.2520139431635454 
-0.6004281590307746 
-0.4049144019951605 
0.2977300961856876 
-0.3255269059716169 
-0.1026363883226615 
-0.1744235271386893 
-0.1331669950230296 
0.04437570857742525 
-0.1560260998611612 
-0.3965633796001316 
0.1528318002235916 
-0.1778497718247348 
-0.3718652945662561 
0.005994801586410877 
-0.1648542491779106 
-0.1220107193283421 
0.4301608399706214 
-0.06904179324476839 
-0.4578508546188076 
-0.1983882762616219 
0.2319037857714823 
-0.6150583526818738 
0.7012612753198701 
-0.2150827477384065 
0.6830711254302027 
-0.3328301303030153 
-0.1220271561907774 
-1.155013232949539 
0.0641660464076643 
-0.1568555956970664 
0.425056065603054 
-0.4613834297395044 
-0.5687647575681949 
0.228540762033735 
0.06761830113188523 
0.08964985787196003 
-0.3627001640673703 
0.1360087232788446 
0.009011733293577923 
-0.03525230470804445 
-1.211313639968291 
-0.2244827753418417 
0.1771387328393194 
-0.1539908646508274 
-0.7382730694430406 
0.1383652622660091 
