solver_type L2R_L2LOSS_SVC
nr_class 2
label 1 -1
nr_feature 512
bias -1
w
-0.0477499656703061 
-0.9560877312774348 
-0.4165746442347689 
-0.0006580278216883981 
-1.284117777181491 
-0.3730238862766233 
0.1159122256780249 
0.07443168366739167 
-0.3191167879393606 
-0.1405387589696491 
0.2289757406364697 
-0.01545527152746758 
0.04760469597701366 
-0.009652606111945232 
0.4955526711172829 
-0.7675666429752376 
-0.3545766330780756 
0.01322831140587519 
-0.3988476428907841 
-0.2811429417663235 
-0.007596713850609137 
0.2281141417604813 
-0.4494459977884509 
-0.1379898849701772 
-0.5392291430096726 
0.344517594969906 
0.2405621985851231 
-0.04682320000224464 
-0.971718258251179 
0.08462143440597433 
-0.30030381125851 
-0.2244295031544283 
-0.1969386799794073 
0.02755864690251576 
-0.07720337412386333 
-0.3821498273059013 
-0.1628896228276936 
-0.2215152166163224 
0.04651622765434106 
-0.06009418364950616 
-0.2005249195802469 
-0.3406455008384559 
-0.5622025254428891 
0.1632094742528289 
-0.130144924351164 
0.278440382023728 
0.1850680745808002 
-0.05450724067385799 
-0.2262868010662284 
-0.3214953690331921 
-0.3831694155415417 
-0.07881325422033859 
0.02662595015043872 
-0.2087008410256247 
0.06244403178410629 
-0.4451438217547807 
-1.111036270618497 
0.06952230302746523 
-0.1276792423274108 
0.1605309941411507 
-0.6534783775158951 
0.01346660214792071 
-0.1616871408543078 
0.3729337612272933 
-0.6492077810123124 
-0.2637944724377023 
-0.1712358526346643 
-0.2873114091421946 
-0.5975882547452043 
-0.6598335792196257 
0.4246990758767155 
-0.1421711651462496 
-0.3417814331112377 
0.05372284413778895 
-0.49638233860406 
-0.1624880729672581 
-0.03876614306073188 
-0.4237567792573313 
0.2020252801056039 
0.134308680668731 
-0.549924774598093 
-0.03017281353993355 
-0.05560399104856091 
-0.2938647536740387 
-0.3415385274219774 
0.2035894121691852 
0.5552939324275638 
-0.504938297677789 
0.0948963331756614 
-0.7815477977287157 
-0.590462347047585 
0.0703210300891418 
-0.1243611530920665 
-0.2404218201146757 
0.1514758190018229 
0.2795068685301929 
-0.2014650294570027 
-0.1135336690159446 
0.318130918240891 
-0.09546282583303639 
0.2588757549386215 
-0.249065006378096 
-0.1923759261322443 
-0.2852777814688987 
-0.2861196725317545 
0.1049224662677233 
-0.3757828666551969 
-0.06461851625767462 
-0.2202406059682731 
0.01461654749093687 
0.1417182635599972 
-0.1812476852364521 
0.7070501061145027 
-0.3188167403161788 
-0.1113484022408016 
-0.378971858996543 
-0.1180730216154596 
-0.5003523242610587 
-0.4312091258562554 
-0.1988756008951443 
0.1220150803038832 
0.0152991145764278 
-0.3945420401450887 
0.1214788040548044 
-0.17496181133444 
-0.1020985028694422 
-0.6165100421014011 
-0.1233560964892951 
0.3355873155328913 
-0.2377421800245447 
-0.1829799914041062 
-0.06005088171379622 
-0.09655404603574 
0.5879340487098307 
-0.1954098668556616 
-0.4159334882742207 
-0.1820333518768211 
0.1301408557204763 
-0.245171888965976 
-0.1223469824878066 
-0.2876057786565381 
-0.290344107711017 
0.2117194310951605 
0.2525814389786625 
-0.01131822284408848 
-0.2353457217165774 
-0.2165057673377454 
-0.05278455317825855 
0.04839247980021449 
-0.2190553252804399 
1.308171069113171 
0.1712341296427723 
-0.1534406535413479 
0.1360047786902213 
-0.06116306360811544 
0.1647955912634603 
0.3134553901062559 
-0.4673540435099114 
0.04301155691893353 
-0.1971140190526976 
-0.3331219828957285 
-0.1404716723856651 
-0.1984366357702383 
-0.1059945068723527 
-0.01176047481646282 
-0.5825904887167163 
1.076047244982056 
0.7807329702105528 
-0.2410267594867169 
-0.05267890982596259 
-0.09395203450864993 
-0.3459946918891588 
0.3413977764229185 
-0.1040536033598608 
-0.0005763997424713899 
-0.4154247247468735 
0.2846037480315891 
-0.04357569634139185 
0.6833060066919506 
-0.7446669358406982 
-0.06686539887879203 
0.04005574461453641 
-0.3526757525554414 
-0.4196569988730574 
-0.2461096997576451 
-0.5810526841449736 
-0.1258348239210695 
-0.1782164273472893 
-0.314582235635551 
0.3295873233421811 
-0.340859211720959 
-0.1105832459823965 
0.4237338723442163 
-0.1055321176723344 
-0.4148637688308832 
-0.08570639614860766 
-0.2749779955457858 
-0.3238082473153753 
-0.466780745416954 
-0.2895917706473838 
-0.06331126697516655 
0.2051214123121043 
0.7429153886183447 
0.06003990789973441 
-0.08104270294206158 
-0.5853831515456004 
-0.2348926392316339 
-0.3038845623436006 
-0.0134507433413198 
0.1971729440629681 
-0.3953723632153823 
-0.1290634956842944 
-0.1209072137612788 
-0.2952185695424065 
-0.1099722626229242 
-0.02681000820909006 
-0.4529489601654947 
-0.3214536571566031 
-0.511173523851091 
-0.1368092954784293 
-0.188162022257529 
-0.03846791492590438 
-0.1577087612606307 
-0.129885909620123 
0.0252061219144286 
-0.2330105611657363 
-0.07794428916329556 
-0.782247416977179 
0.4365211699994639 
-0.1832433045783221 
-0.3408549783001903 
0.05093428935569538 
-0.1534916910588559 
-0.1032412708519171 
0.1656751205471916 
-0.01671518120314312 
-0.2780477784986121 
0.06753800780728504 
0.001173930695268979 
-0.181898545260891 
-0.4078357268025986 
0.06190864066343555 
-0.08187681061459864 
-0.1532962545839014 
0.3509965533014072 
-0.04462203193436644 
-0.07161013491621414 
-9.214755128700465e-05 
0.1000500730551839 
-0.6014815673910059 
-0.06270582735230242 
-0.1977207259721748 
0.234024356984678 
-0.2857181091696802 
0.3414250076438586 
-0.4030419947442555 
0.06666420628278977 
0.044825702264019 
-0.3164238383882346 
-0.3295088916394222 
-0.0021019382045832 
0.4362872841944171 
-0.9612814006310247 
-0.2571921119294402 
-0.1170959334058399 
-0.05855001224695655 
1.039244825442175 
-0.1797194426836767 
-0.102414071804919 
-0.6009372360322076 
0.5369758980373239 
-0.6184081648152945 
0.07040971231163279 
-0.2981834046864506 
-0.4677845501679197 
-0.173219940137163 
-0.2234070691517497 
-0.03918399061945987 
0.01665033668788235 
-0.06509390384519681 
0.1457120216121666 
-0.05143840960052885 
-0.1670809380183769 
0.04619008293827281 
-0.1250512275351073 
-0.2607361014026434 
0.07356121146564518 
-0.009068912661479255 
0.3890122907864669 
-0.1980133184641321 
-0.1018836265051249 
0.07676501236889287 
-0.08997200199675055 
-0.1099359109613625 
-0.2195518395931308 
-0.2256764475266864 
-0.2422812302858056 
-0.1071296911592676 
-0.3626038567174673 
-0.1324302858438764 
-0.2742540394518722 
0.2089268645224535 
0.1874112409744473 
0.09834706959366403 
0.2616411643085946 
-0.4051793549324896 
-0.008440942792832371 
0.339531130894717 
0.2632040889612486 
-0.08615473686358963 
-0.2674563291147654 
-0.2391899190305471 
-0.1685466319025935 
-0.06519498420786456 
-0.4621521595042863 
-0.2267198847750251 
0.1292170781573213 
-0.2805368345987026 
0.1125889703031033 
0.5156156833897477 
0.2626550933334283 
-0.07955554808701017 
-0.0715946947158381 
0.4180743896430314 
0.2379159626432978 
0.2095407254855177 
0.002094322321323584 
0.2738050395994953 
-1.984709328948256 
-0.2310425515667031 
0.05011060964645809 
-0.1250952781560796 
-0.2850495531326382 
-0.2419951383826214 
-0.3491628451344153 
-0.4008870623385251 
-0.1503247785152136 
-0.3574172017835262 
-0.05915285969223666 
0.1358474006988585 
-0.6702107086035258 
-0.6955410095547868 
-0.2504631854597568 
0.03580324463103797 
0.07228134904305118 
0.2395163454188612 
-0.6202164980721245 
-0.7756120955063885 
-1.019341530156152 
0.4084349525000993 
-0.6009880714437568 
-0.007769230361411866 
1.517158205739363 
-0.1063742955808771 
-0.9669782025433999 
-0.1249842941285446 
-0.3475114480999887 
-0.04550980493924785 
-0.221309284366707 
-0.1395022890963104 
-0.6202591773683607 
-0.2359669083399722 
0.4616425396479 
-0.1739232008975309 
-1.220392421260105 
-0.07332794053434939 
0.9000638137657982 
-0.5002376420543833 
-0.1342333125036591 
0.03678798664021832 
-0.02225003057900628 
-0.287215149833019 
0.04201131125680552 
-0.0238754832336241 
-0.4010052309582784 
0.002908057587136789 
0.3972092588083733 
-0.5303189441719185 
-0.5566178735356707 
-0.2626312499493962 
0.2927547217465764 
-0.1779370980708888 
-0.2257511085060023 
-0.1885236074943135 
0.201423547799564 
-0.1243463505319752 
-0.08597452893666455 
-0.08471729348006525 
-0.2552443410399975 
-0.07772541894743193 
0.7606847234972747 
-0.1999867335881874 
-0.04908649911248857 
-0.07633964174116066 
-0.1022613102818588 
0.8763241320129199 
0.6299915713521765 
-1.090837121678687 
0.05553746002702411 
-0.03484041672647192 
-0.2123928135538366 
-0.01754166785598292 
0.06458718910510906 
-0.2067407298172362 
0.06358899191526327 
-0.1464571045748421 
0.06499684219407513 
-0.04028652846479808 
-0.3500191912055556 
-0.1600142549574156 
-0.07144955182541549 
-0.2774722124608912 
-0.1180136455343544 
-0.1351950328764893 
1.274202121920209 
-0.2748252307950059 
-0.6636565362573295 
0.05306955020064877 
0.1577630625589361 
-0.1809237680294311 
0.0545608201435523 
-0.7248912135603424 
-0.224553740430541 
0.03129308205435725 
-0.4297002785744453 
-0.01236583877868033 
-0.05994725711178458 
-0.0959492487953512 
-0.0863675802893932 
0.2411373708981892 
0.08381545479696564 
-0.5118662916210382 
0.3366565516671409 
-0.2009655012688297 
-0.7791337681701622 
-0.2513553174836729 
-0.2044361145297254 
-0.2701804084948402 
-0.07281075955096111 
-0.3505067441785045 
-0.08049394833837273 
-0.2776377459503664 
0.1599778545162464 
0.06994377535193665 
-0.08018854874578416 
-0.1268393319187862 
0.1027322121839098 
-0.3756743319755348 
-0.2052475474118304 
-0.01738617865063113 
-0.2441420292355762 
0.4309298831445665 
-0.08354079470033415 
-0.5646876516786334 
-0.2293146945065959 
1.288099933290685 
-0.2679430842550016 
-0.3557444757685284 
0.06493132616038635 
0.01295810124111351 
-0.2039283508007231 
-0.03996438499455874 
-0.3261354212533665 
-1.153675111352776 
-0.7755015832371415 
-0.3440027380581622 
-0.746129924197638 
0.04547081784469858 
0.06591044587981938 
-0.3625834736942668 
-0.1378502999031369 
0.2799685144119716 
0.05876870209316733 
0.03048402842894799 
0.08304700830052093 
0.4186225236884904 
-0.5087994782499285 
-0.09418482110146514 
0.267711676213006 
-0.1500662737220143 
0.4236887746825571 
-0.08060571442647553 
-0.5070974090532512 
-0.1833286726582843 
-0.2077987062925302 
-0.06856015955519336 
0.8706110019653871 
-0.4161828687931881 
-0.4059746472398256 
0.3329796242001724 
-0.1727435262123159 
-0.1714509728974348 
-0.1817757646868456 
-0.4116719861081605 
-0.04747338196760526 
-0.09580127325780396 
-0.1844052460786239 
-0.2937373814465525 
-0.070318833239557 
-0.1512633048399801 
-0.1427757709611504 
-0.395388426972942 
-0.1275263950367709 
0.3141424385247671 
-0.1134729978827793 
-0.1654191642883295 
-0.2818404659292734 
-0.1753790818592108 
-0.6685693922638727 
-0.119068627671385 
0.004658445226497095 
0.06020701072946137 
