solver_type L2R_L2LOSS_SVC
nr_class 2
label 1 -1
nr_feature 512
bias -1
w
-0.2435001427191263 
0.1464852181149105 
-0.9033092993864877 
0.4210440312821412 
-0.1561652421958455 
0.6311348136343753 
-0.04457424649170975 
-0.7233940032392465 
-0.2304793852975925 
-0.2866740106720691 
1.844226811887848 
-0.1451418380105781 
0.4187692002428147 
0.6789308724840631 
0.1311505952941073 
0.2501425475349118 
0.006139861641384892 
0.3738113431151883 
-0.7452677112587655 
-0.4914248566866058 
0.07700736643392174 
-0.1879277100019562 
1.626944385882596 
-1.078556733432405 
0.3662766903159493 
-0.3200293612979545 
-0.2619365765937389 
0.2113846731671268 
0.6028284647703841 
-0.1602266846070801 
-0.4129439669061361 
-0.2004830287689959 
-0.6982986494295758 
-0.384639830174395 
-0.3763100236143109 
-0.08078884642413582 
0.6281938797204453 
-0.9263101255793503 
-0.4386855412377272 
-0.1286747078968029 
-0.5443705166524777 
-0.2224493287659275 
-0.5129059602559222 
-0.1080568883339653 
-0.161986068069578 
-0.5900062847291888 
-0.1771990855353627 
-0.3076951388789615 
0.2979682837765913 
0.09618275385440563 
-0.6310245565667256 
-0.262809654918297 
-0.5299895481249218 
-0.1336667690001271 
0.2988985624971619 
0.7788522759372372 
-0.882913562812018 
0.2241997255551259 
-0.2243003269662399 
-0.06308217442091822 
-0.2133760937101027 
0.3546658625155417 
-0.3888702710434929 
-0.3591607558271254 
-0.3644530514223309 
-0.6956800132587273 
-0.6703764465037111 
0.50574085157455 
-1.243190336521595 
0.792797905937582 
-0.5454247851686678 
0.2014783178564045 
-0.3720884858320533 
-0.3969038996349516 
-0.171788728854902 
-0.3982463676085052 
-0.153299611185505 
-0.3979755161567224 
-0.3694041289191609 
-0.3368347792537814 
-0.3330202352668792 
-0.1636975775490584 
0.9646130056980826 
-0.3174334619960829 
0.3869205682289564 
-0.2735675945494985 
-0.2077030664984936 
0.4459556291293927 
0.3439588199154183 
-0.64877782758647 
-1.054893023945615 
-0.4240477771715525 
-0.08639486617575391 
-0.259346976209768 
-0.08203124017539087 
0.2768042105994438 
0.6019258785381152 
-0.1948611235442462 
-0.3744944032102202 
-0.2448441165079058 
0.1560186049294292 
-0.4996430278073318 
1.334680374720685 
-0.4074316799920285 
-0.4796307276439237 
-0.3873382663953586 
-0.4386516266778369 
0.516525750286798 
-0.279304776077731 
-0.1992139206565466 
-0.6056055933188125 
0.8266606866260073 
-0.2356388217617471 
-0.3515149054223363 
-0.0678750266166625 
-0.3186576093129178 
-0.09801044443671224 
0.4334839011425213 
-0.3682070344266248 
-0.3770041682569714 
-0.4999635262163645 
-0.3228847625186606 
-0.1778691135818062 
-0.2877268537546491 
0.2989015425030637 
-0.2059464428622315 
-0.2618493205696091 
-0.1175554241886731 
0.3330373243146234 
-0.5371920833910694 
-0.4159866442288895 
-0.2816124684704904 
0.1665741727649774 
0.06754065704498131 
-0.5464359389772107 
-0.4125037866158934 
-0.2914870966562483 
-0.2801718923487525 
-0.5166697426875324 
-0.3265486510634999 
-0.3323047808984337 
-0.6036661994391692 
-0.2045638332540865 
-0.2906821387364046 
0.00357166439127829 
-0.5856167019212681 
-0.3601689706766226 
0.001092852958184768 
0.03722573346510721 
-0.3296176457715932 
0.2611038080964287 
-0.3291511857127377 
-0.3135976129961637 
0.5167321377297024 
-0.03822322717884106 
-0.3342769477158208 
1.00136659958502 
-0.6542961684172987 
0.7309134477233787 
-0.2249064124015357 
-0.4198117069963612 
-0.2571834840501123 
-0.3554253477430171 
-0.1303037387883262 
-0.2098938438343348 
-0.9322549849101713 
-0.4691243136923417 
-0.5356915879538884 
0.4729950784130505 
-0.4860168162841769 
-0.4916528082484632 
-0.1855681809868567 
-0.1981543386302853 
-0.07008756326353442 
-0.1429308374854661 
0.558608955591929 
-0.8889668375859077 
-0.2411801549515377 
-0.347377078389118 
-1.316032397917893 
-0.1541460158827146 
-0.414326028526003 
-0.1121147172361692 
0.7180561660008319 
0.1424493818601471 
-0.7484348739601645 
-0.2591308331515266 
0.6509713654666421 
-0.7124302471189641 
-0.2697882789976047 
0.1007153641562894 
-0.2899112484547908 
0.2205048069373468 
-0.3925116910915566 
-0.108301538871387 
-0.5852048355921384 
1.527499039401045 
-0.3466652935809189 
2.695845656510817 
0.6192177571426158 
0.2378071788223629 
-0.0006034258862021726 
-0.1704222511983915 
-0.186127342606062 
-0.602092251284521 
-0.4404636256668001 
-0.02614710703276528 
0.3054654860114766 
-0.4237246132857912 
-0.4962389293028789 
-0.3105233379534203 
0.2564001970512941 
-0.5202612112987912 
0.2783669634153043 
0.3230217003253754 
-0.2871071335663706 
-1.023811714064614 
-0.1942736973294446 
-1.038375033935831 
-0.4619229513772228 
0.1492337414621442 
-0.1309348606777275 
-0.4053340968891639 
-0.0889463574182528 
-0.3806977978507976 
-0.3586853787714552 
0.0169803161517818 
0.2949807253099969 
0.5045333644730322 
-0.3568251249999312 
-0.3552100482183443 
-0.2125898053146526 
-0.346166074525153 
-0.1671959786620053 
-0.1590638106626437 
0.3385961157583872 
-0.5755798574402105 
0.2235718678054532 
-0.413003161461272 
-0.2755653082572839 
0.7266197376702094 
0.01186873769434288 
0.3509446678279348 
-0.2073622388529441 
0.1472318624794336 
-0.454407034160848 
-0.448207837763893 
0.8204178494129077 
0.10925961499744 
-0.619131121122487 
-0.1786320080251165 
-0.3427485192845067 
0.1440822843495922 
-0.4494772415611226 
-0.1581227486554141 
0.02583317321002159 
-0.02965916010605442 
0.1463454875807607 
-0.5028881676901719 
0.7519282892976981 
-0.04377192766930725 
0.5754566340335198 
-0.4079173435405538 
-0.9593723285831709 
-0.4729153585151579 
0.1566859107090013 
-0.3428049433437869 
-0.09320212012378394 
-0.07060820905121788 
-0.2335568409998517 
-0.490668732096854 
-1.053702283956368 
-0.3234017234252682 
-0.7060797893697534 
-0.6771728404177004 
-0.1154165029847837 
-0.1863525924076198 
0.67922745213027 
-0.2045059762476506 
0.3961067382451827 
-0.6183829726325726 
-0.1468965760689117 
-0.2564968095346324 
-0.5574710152435365 
0.3407945667675997 
0.5173095572877601 
-0.1618191412453347 
-0.1381099655927663 
-0.6442917188587471 
0.3631141181883396 
0.1654534033286546 
0.1643164605753832 
0.1845876058418017 
-0.2125267451838555 
-0.3222618915000212 
-0.3691281001476562 
0.4314959215752391 
0.9591780487275103 
0.3992009175086588 
0.1875012786193949 
-0.585446220101578 
-0.04562576257617579 
-0.4408956022447084 
-0.4115343740800998 
0.4483582809016637 
-0.3600896464331391 
-0.16138393368439 
0.634254978322884 
0.6931022273406489 
-0.05538355350009646 
-0.5663685293756475 
-0.2310219872661619 
-0.07591404238658633 
-0.2956577071574805 
-0.8333276992724449 
-0.2714844732862619 
0.7070672788399098 
-0.0758004762148714 
-0.248970373588881 
2.116959616015649 
-0.01417309272979894 
-0.3079212102039255 
-0.2684239257862204 
-0.3711406368106787 
-0.3458189573067211 
0.9282038238683324 
-0.4150740459924623 
-0.4080084253677555 
-1.326448222082793 
-0.3734410213505384 
-0.3034461292084962 
0.3038085819169897 
-0.1705647203167829 
-0.3753652464403829 
-0.6364675873621451 
-0.5599523591921044 
-0.009947344980360271 
-0.428675018739249 
0.3946358155676046 
-0.4682191413492832 
1.16930489274766 
0.2522550929342931 
0.4239889322239756 
-0.001812312452677581 
-0.1571304002607558 
-0.6211866089040489 
-0.1121695537758619 
-1.023310810611732 
-0.6644913627871922 
0.1747503153160218 
-1.267822929484822 
-0.3050283049304612 
2.058193579539632 
-0.295864797237739 
-0.694046624482109 
-0.3021327368988283 
0.5639907930538361 
-0.2112627814952372 
-0.08422971148704221 
0.4903633274796073 
-0.4334525241117695 
-0.3420229860317724 
-0.02017527235729282 
-0.1298215258840693 
-0.975419160700022 
-0.1188760743312295 
0.8740783127790508 
-0.2012504164431305 
0.9410628376553439 
0.2079899529931822 
-0.1281904180837045 
0.2944932089518825 
-0.5119859850505626 
-0.3001558970419153 
-0.6429420860544592 
0.0525577505532069 
1.01194760767242 
-0.494996100627541 
-0.8217198803888162 
-0.2747842242216315 
-0.3111992077586593 
0.4186884106752932 
-0.2391346419758863 
-0.341121992690045 
-0.3935003987313981 
-0.2932856193867279 
0.8771719863806918 
-0.3507183120354352 
-0.1211621011763173 
-0.3402481194156702 
-0.3675430887034146 
0.07653059108307884 
0.2950727669325749 
0.1079633879349498 
-0.349611598032418 
0.04692327579259375 
0.144759314298231 
-1.168352383636381 
-0.006163784927294796 
-0.285398041103247 
-0.1798131090571213 
0.2519755544325731 
-0.07390644146478841 
-0.2238854694502289 
-0.5307649071184914 
-0.1758327025717633 
-0.3338677509028114 
-0.2891552591712409 
-1.07011255902403 
0.6641275729422391 
-0.0909634194532857 
-0.3873669275624043 
-0.2679305971193298 
-0.3645297582900619 
0.8364504586438226 
-0.3665059257784081 
-0.07512593532958994 
-0.475793575333604 
-0.06742668427800667 
0.129447157171786 
-0.6723898937425795 
-0.5681013211397443 
0.4509016043496119 
-0.04595588914562662 
-0.04944731544402237 
-0.5183585747712219 
0.03452749570597848 
-0.4457422911154548 
-0.1639703716262957 
-0.3034988252600796 
-0.221843413541074 
-0.6695648798914852 
-0.3684457797492506 
-0.487199151843651 
-0.6755325343880988 
-0.3278520390832116 
-0.3021437819654966 
-0.3646722768603477 
-0.4237351354294895 
-0.4067242430904523 
-0.4405210763735878 
-0.1148883602288422 
-0.005326367646945935 
-0.1488291782500846 
0.2686337984483148 
0.3043002498923033 
-0.1893997780077669 
-0.4902107295532283 
-0.01982676517523966 
-0.3043264899036354 
-0.4333855298491168 
0.6563047352509581 
-0.4457328325824084 
-0.2191876810357341 
0.2097611180739505 
-0.2399024706662586 
-0.010558661930324 
-0.2348888872426035 
0.3428116417686716 
-0.1708290783117632 
-0.2581938157816933 
-0.1678923412190021 
-0.5146793021160027 
-1.318332160247491 
1.488203118371157 
-0.318970034429378 
-0.2706852412226792 
-0.2978270553436392 
0.05972968451743433 
0.147146653794519 
-0.1221879205109846 
-0.09021264035752148 
-0.3454006809919487 
0.08515669230102013 
-0.1904056597712346 
-0.5511022135647774 
-0.1213494448524827 
-0.2619776500774874 
-0.4163144346333156 
-0.3856504532072484 
-0.5292054627441176 
-0.1851709754841809 
-0.9572009233398967 
-0.3097592624737898 
0.4957691423943579 
-0.08244081533292755 
-0.5117089623061986 
-0.1492291973105407 
-1.057911971250693 
-0.004908555918432078 
1.109967957245882 
-0.1438717055097967 
-0.08825713264958118 
-0.4178618267922269 
-0.03090372175153773 
0.198066298163538 
-0.2911877983272734 
0.2503652360416551 
-0.3867026550456679 
-0.1007419209963786 
-0.1968418456842078 
-0.3905705310124041 
0.02985994389116125 
-0.06312493508255633 
-0.1569880574745714 
0.1591990867400646 
-0.3448429380023663 
-0.3575642534588602 
-0.0478359700175643 
0.5262695736310036 
0.261034622272337 
0.5238453949346908 
