solver_type L2R_L2LOSS_SVC
nr_class 2
label 1 -1
nr_feature 512
bias -1
w
-0.03857498752551559 
-0.5202969321984622 
-0.4255535363635533 
0.3574781363359332 
0.0266877827450236 
0.00966176606128016 
-0.2379366253341089 
0.1158433800737455 
-0.4020913427506735 
0.05166747275340725 
-0.9431804302157148 
-0.556992111398504 
-0.5686430724211298 
-0.1371782822503792 
0.3669361913795111 
0.2739278693446595 
-0.266538508906216 
0.4543902782080373 
-0.6391964284083164 
-0.517223875094901 
-0.07807497207858263 
-0.3217579422730253 
0.3656985411552462 
-1.363800575449882 
0.3279782941600565 
-0.03598794646638388 
-0.1435802791959157 
-0.402810700334179 
-0.02300610907485912 
-0.2740505639490248 
-0.5170742579967085 
-0.1572807375604857 
-0.929653057363154 
0.1236302610400627 
-0.2812386070248545 
0.5919667956502074 
0.1566808041479615 
-0.3512477942496214 
0.05101704914421528 
-0.3585681569464344 
-0.1818516120944291 
-0.5511666162834018 
0.5644193052313556 
0.1637258531387571 
-0.04501876499426324 
0.3521975149258633 
-0.07088394480173173 
-0.06606719766454565 
0.6648396377695394 
1.238582647279636 
-0.8237509754110843 
0.1419489298116589 
0.1498419997409441 
1.236851054154027 
-0.2333275963452149 
-0.06221950748638376 
0.309086424958895 
-0.1967842031183983 
-0.5269807797398965 
0.08363772238534839 
-0.3853093310141771 
0.8875634487770766 
-0.03975780265772367 
-0.06058205368644978 
0.1426337216841744 
-0.2563804314153315 
-0.2882258251199742 
0.3657154606438681 
-1.019965162187525 
-0.4301801856910514 
-0.05415763930345954 
-0.1736527768457007 
-0.1892571189655593 
0.3458460333333357 
-0.619864412969322 
-0.3394140810535916 
0.03937608233008914 
0.01016915794455221 
-0.177949945957819 
0.3115966477089173 
-0.370597388735856 
-0.1112020079406204 
-0.3822526694479529 
-0.3039626399999377 
-0.03246929772748904 
-0.15993167923938 
0.2492721281044122 
-0.0007556901372648521 
-0.3638932502720447 
-0.4048890428279168 
-0.4606279822629606 
0.5015503646741049 
0.2006297463723188 
-0.5335428853836282 
0.06299644693510707 
-0.2436542953366059 
0.1599280553372601 
-0.5096981209652564 
-0.2699282317636694 
0.4057490326259346 
-0.03996615168280709 
0.03042202779955859 
1.367799931677029 
0.2426798625764033 
-0.2575925322696133 
-0.2053606105299411 
0.0588218347596943 
0.06931950434561797 
-0.2387126969636796 
-0.2850874323535266 
-0.2960415352055509 
0.1818494832042399 
-0.4084335806231561 
-0.05444859507914643 
0.230868262427569 
-0.3793247235081285 
-0.1302748025831003 
-0.278857920364622 
-0.05894277413790847 
-0.2759000697119238 
0.5335070631107257 
0.07722540956052637 
0.1195302931757518 
0.2678035795589448 
-0.1481026599790054 
-0.1817414222583575 
0.1701121463199596 
0.1813229678388092 
-0.01447853794753414 
-0.6350495186067776 
-0.2933686556049922 
-0.3297546695250752 
0.2237181672401992 
-0.8975600449251407 
0.6003136486261713 
-0.06839427373411039 
0.4270967130386463 
0.01077065159659193 
-0.5367712126282678 
-0.09663907326965325 
-0.3880674021731103 
-0.5819669497730041 
0.1252684134520207 
-0.03916969373379479 
-0.2184573341915004 
0.01064477551398674 
0.009200642617266263 
0.7371139167905711 
0.3640423698158078 
0.1729314133472452 
-0.917766710774151 
0.3735272965293326 
-0.1058394725796588 
-0.1188542519646303 
0.4210647136623332 
0.2448208159689641 
0.3568751934951264 
-0.3497504294516133 
0.03752048511028714 
0.3580670238971318 
-0.4960709011282616 
0.02422627397272244 
0.09372428584707704 
0.4123233631742051 
0.5258412355136884 
-0.1480625710683334 
0.01923015436474376 
0.2927239459125673 
0.1628623216644365 
-0.05543986619553866 
-0.4769617835676944 
-0.45657587202932 
0.35554067215743 
-0.1922893488308617 
0.0314151291422094 
0.4893026546636912 
-0.5620563400689076 
-0.2112248869015703 
-0.1648501051637617 
0.2239103314185093 
0.09223487917919641 
-0.3647824377035226 
0.2016052884225721 
-0.9565804611541607 
0.5261467721593304 
0.02878944148920203 
0.6721366204227548 
-0.2642121967323867 
-0.04927532889432969 
-0.1692124925254839 
0.1189738560187312 
0.005186573191482952 
-0.4622294615064625 
-0.5335022432020258 
0.4390990027156277 
0.8964026770459352 
-0.8936146624374052 
-0.3706646037744982 
0.5738698144035284 
0.3549533697566522 
-0.2739148519998507 
-0.001885997451581161 
0.1945268413252061 
0.05712457201882779 
0.2153374440623827 
-0.2382486201877572 
-0.2486698974241663 
-0.03074833035977397 
-0.4474187626289745 
-0.03149342017278919 
0.5254915521342184 
-0.3663786591452046 
0.3218915730825402 
-0.5719275889946408 
-0.3355095693078992 
-0.05553053048367595 
-0.3841839214108123 
-0.6793580900535061 
-0.398603742227814 
0.2268249035037921 
-0.1637853075062223 
-0.1992890881449232 
0.132495928976819 
0.04487364349309447 
-0.1795500754227689 
-0.3451159813386114 
-0.1448149209130924 
0.3949987397698317 
0.534181567104296 
-0.623979182039998 
-0.01726880476970754 
-0.2078264062221678 
-0.1311467854386006 
-0.06831447372910958 
0.283704705666371 
0.5835241071629012 
-0.456783032353207 
0.06115666944458379 
-0.5212210853120594 
-0.1515208460312398 
-0.6726215164814074 
0.9404852212550331 
0.1322882590242295 
0.0132830653984809 
-0.09758523941253817 
0.3652551076591805 
-0.1936445269481301 
0.7529352943844743 
-0.4746272987604794 
0.2994944866716563 
1.538351398014278 
0.245371244670462 
-0.2066823476410621 
-0.2735688936096862 
-0.1227621326689536 
-0.01312728011968191 
-0.07924265520177405 
-0.3241757358906468 
-0.6406241975564982 
0.9490843106028453 
0.3175889028467674 
-0.8963800099376147 
0.5976608838556057 
-0.1177767610627841 
-0.330472353696821 
0.7343462911083576 
0.1135992077785503 
-0.1758685385570691 
-0.02336949023128785 
-0.3316365041661886 
0.1776306279803525 
0.1565236473646283 
-0.09157273361159542 
-0.4275085628992539 
-0.3981441925483552 
-0.03120002171568922 
-0.3382202948913744 
-0.05400964372293698 
0.8807012189669003 
-0.2560525461640635 
-0.4785878876601949 
0.2964155740691241 
0.1421158562135447 
-0.4951581041939558 
0.2135923286561246 
0.08265340253192045 
-0.3487130985716823 
0.4617520182640859 
0.1226043079220953 
0.1353463598964076 
0.02714874535195072 
1.225295814810818 
-0.3520399251314126 
0.398788780224331 
-0.3674187661279043 
-0.5358886737903269 
0.1775217956194375 
-0.4134883192283587 
-0.3964830693906164 
-0.1801149366690448 
-0.4764029424007138 
-0.4940544588221447 
0.0202750030540917 
-0.1131445789781044 
-0.4663341472253922 
1.346136365037499 
0.1103265279340779 
-0.3578095282196045 
-0.4036537769876631 
1.596943861766329 
0.110579891141142 
-0.363222527810642 
1.265223288256531 
-0.4295541455407045 
0.04546375461955176 
0.02750982920076634 
0.4728546322268689 
-0.6028754991448263 
-0.3682393248025805 
-0.729048358344011 
-0.1397442164844209 
0.0776104453912401 
-0.250607150611421 
-0.1241689413475753 
-0.5143813195686721 
0.2810672425892223 
-0.5588853772358758 
-0.3247939278982877 
-1.865480949998623 
-0.4927981101561607 
-0.3424264468080817 
0.48435329763989 
-0.0676056713703692 
-0.32949350225246 
-0.2557134755519545 
0.6061617368794943 
0.3883227387662269 
0.6954077972237618 
-0.112659209649889 
-0.3382288239057373 
-0.2868879152978188 
-0.5477428212262579 
0.7296115723756671 
-0.1244866534933704 
0.03626346655342023 
0.1961059935476241 
0.3106433576135866 
-0.3751314507666753 
-0.869575232857782 
0.09423480065693578 
-0.7136479808091983 
0.4631401467634572 
0.2989143809253429 
0.3319608203742703 
-0.7707953275997284 
0.2959479961453583 
-0.3980064668165957 
0.06329061015100833 
-0.2343491026919841 
-0.4281563292185277 
0.1623005422812949 
-0.002095516142834741 
-0.2402333917537934 
-0.03823898602665055 
-0.3677617709346945 
-0.3043934308809502 
-0.4179996012121925 
-0.6396551009134213 
-0.08770034439287913 
1.357164049454546 
0.08382799064822387 
-0.3685941432319261 
-0.4787374891411719 
0.7627457520716062 
0.05311770213951861 
0.3348656848844877 
0.8829488155134693 
-0.4338372825991419 
0.08092688526145235 
-0.3197325022977168 
0.5646372797165752 
-0.246072490349409 
-0.332383978429694 
-0.02899611294906713 
0.7304190441461933 
0.6998895745875008 
0.5554751736166187 
0.4557967409605513 
-0.2809629221963983 
-0.07950958361266705 
-0.01015699760602856 
-0.6171644128103407 
0.6320303179086721 
0.05506542866343383 
-0.4910974637095934 
-0.6856410665099847 
-0.1480066669144699 
-0.6402804754592161 
-0.1284354429347323 
-0.2820639986526909 
-0.6203107894674348 
0.7463686672335093 
-0.1724635204849218 
-0.2829320846207198 
0.5103249974909755 
-0.819781870388218 
0.1647503381009741 
-0.3025065840103601 
-1.049647371295192 
-0.2454218218496674 
0.01272456948269447 
-0.24188919294956 
-0.05153329323590054 
-0.411624357714299 
0.6816722364704781 
-0.2548225681968939 
-0.2435871315632018 
-0.4320839956820622 
0.2609519367641587 
-0.1194593083346994 
0.9645610124655738 
-1.061626663674624 
-0.478448934133162 
0.1638026756592923 
0.7429643772969363 
-0.02340801967417544 
0.8574670075247898 
-0.0506271302205795 
-0.12314346695796 
0.07072155736000067 
-0.2517044012887328 
-0.3952573851379561 
-0.5617242567131052 
-0.5765143087880601 
-0.4227678914362175 
0.1777373597336068 
0.2712652462284474 
-0.710590456190879 
-0.236344792906976 
-0.4169371479581658 
-0.1443185585591788 
0.2381349653053676 
1.013346630143107 
0.06095908299762823 
0.1256122224098358 
-0.5592916641729608 
-0.1314695360528817 
0.2886370283566332 
0.1270682365711354 
-0.2314930898455358 
-1.154991368906228 
-0.5625489430771815 
-0.3858435405684549 
-0.576422014371085 
-0.2590166437894503 
0.409482228564328 
-0.614754734959307 
-0.03234818486370825 
-0.3474813353220855 
0.02532298317510318 
-0.3912009507461912 
0.1939871132265054 
0.01707880984048891 
-0.786567476521816 
-0.2483909107983078 
-0.2092565714459229 
0.4379673587377457 
-0.3356733891533306 
0.8112870607211503 
0.05219168729067915 
0.1327969856601657 
0.05390619996938911 
-0.4068410673216291 
-0.2302977249584667 
1.801703400112789 
-0.2337010731595692 
-0.01498990535431545 
-0.2660279508741369 
0.1230072248350175 
0.2359233620354811 
-0.5262915138252482 
0.3549886945843978 
-1.412337860121222 
0.1995181048218717 
-0.3042456138962191 
-0.4864981974506191 
-0.04286635277255336 
-0.3803897183864682 
-0.9721951141398292 
0.1347879707790081 
0.569985341175853 
-0.1111054394687071 
-0.2991480696730385 
-1.300736270265888 
-0.1864535227341141 
-0.3465069915611592 
-0.06324339232629116 
0.2079375490793899 
-0.4861796939307554 
-0.05864861126086635 
-0.4396207513078729 
1.082541703941404 
0.5535554906570012 
0.06949776350932664 
0.1727697126793022 
-0.06000315751298826 
-0.7449551917235562 
-0.1036514729950125 
-1.300359239392351 
-0.3892273287718546 
-0.6546171232076178 
-0.1048974972598418 
