solver_type L2R_L2LOSS_SVC
nr_class 2
label 1 -1
nr_feature 512
bias -1
w
0.266702740437635 
-0.1673688683503598 
-0.513791463954369 
-0.1709707229559429 
-0.6789274941431874 
-0.4033832430010766 
-0.007414294607289899 
0.1679912395166756 
0.001203868570547606 
-0.1800746239018817 
-0.168915725566638 
-0.1435136683270562 
-0.306357583170265 
-0.3261446190346416 
0.08303870229701002 
-0.7046158732036781 
-0.1906689304191513 
-0.2247076430482976 
1.469903617963394 
-0.2947787098039 
-0.1664648774318973 
-0.199031897097161 
-0.2594504293443949 
-0.3149076110373898 
-0.3812771270319193 
0.02674767010406614 
0.7342875914318798 
-0.1059055212654206 
-0.4613776708202848 
0.3876440666217345 
-0.5436643597868889 
-0.1011042863027746 
-0.1690055046282431 
-0.5060907091851951 
-0.09266077079870345 
-0.5692105766522385 
-0.2245125262967841 
-0.4904489479759314 
-0.354654832729804 
-0.2262368413693886 
-0.1383573650961939 
-0.1477163529159541 
0.1398843046749126 
-0.1568116076671921 
0.7003908153696436 
0.6262987830107922 
0.02867964878473317 
-0.2705272598329602 
-0.1924641283657171 
-0.4747876371675226 
-0.4916410362045692 
0.03604158728261549 
-0.5485862458322599 
-0.1185014343584705 
-0.08387080116048197 
-0.4535440599968493 
-0.7500145039094123 
-0.340788433459971 
-0.01554649134644021 
-0.176142598618473 
0.2683949084239614 
-0.01098040655704559 
-0.007182050892325686 
-0.1240335377503806 
-0.6824257009689307 
-0.3628030864650968 
-0.4224177871327792 
-0.2974743973330698 
-0.9071748300892 
-0.2734323597008434 
-0.3877172859318661 
-0.1013418814599049 
0.03285044227334303 
-0.1946130183877369 
-0.5716523548795731 
-0.1482967741493126 
-0.1764172268593953 
-0.03062507742669534 
0.2518253632505416 
-0.09080867752868864 
-0.6232710793624113 
-0.1203076931434237 
0.104593882502585 
-0.3905045065433138 
-0.3319687069122716 
-0.2344257916953132 
-0.3517701015590696 
-0.01726422264849976 
-0.2167743413513024 
-0.706344910451348 
0.4373737452467673 
-0.152703087593672 
-0.2546071556112717 
-0.04308301831475232 
-0.2290570263720306 
0.02501843132280372 
0.2350346577691189 
-0.09141432112344622 
0.09538483550684423 
-0.1431518464052462 
-0.1545969912981888 
-0.3505706521360909 
-0.2368302338099407 
-0.1179269360899341 
-0.6279534590353256 
-0.07455283334074513 
-0.0919164849344575 
-0.1991084676866486 
-0.2271600824509796 
-0.1806249910030325 
-0.4630480766594277 
-0.196880840282709 
-0.3768461743616062 
0.01403788645205307 
-0.2043657790350628 
0.2176764967550275 
-0.1717557387521186 
-0.5910950521983958 
-0.4901236117450345 
0.9020419920185145 
-0.05961395742940925 
-0.01305913361734094 
0.04908749748083416 
0.5101647855103906 
-0.3120362572330878 
-0.1036723513135905 
-1.052483969831971 
-0.1550684581103342 
-0.04206344442320466 
0.5330995295307195 
-0.3139482523949298 
-0.07261208701168148 
0.1678877298799429 
-0.520465838413657 
-0.07239931411988224 
0.03580055695991222 
0.08673309317301747 
0.04552442280765124 
0.4401710475422831 
-0.3143123611356065 
-0.02771315412432532 
1.234958973970534 
0.06038572188341378 
0.0325356054673682 
-0.2436597531895785 
-0.2111092852817099 
-0.1490045770776217 
-0.1455089149546208 
-0.1959361554370337 
-0.2759576405302723 
-0.1955129577716614 
-0.4509692835097464 
-0.2947559782452274 
0.03106972132601093 
-0.2583200428421601 
0.1159963303366102 
0.385228311289749 
0.9710306029690271 
-0.07342174582715436 
-0.2836750685987526 
0.03883892146103477 
-0.1350440190085609 
-0.1326224955078543 
-0.056029483636484 
-0.1555202988550043 
-0.4877260157618704 
0.5118763420727787 
-0.5780714522243815 
-0.1000892203870325 
-0.09662095815189817 
-0.03276627569575782 
-0.09007565170893128 
-0.06635234369680242 
-0.1525309960204164 
-0.2085126491444558 
0.7353493428332761 
0.1311287525588665 
-0.03353794892986448 
0.9641099607575292 
-1.075260878451739 
-0.07884612720640224 
-0.2008395017076476 
-0.4671558566107559 
-0.3171756397189795 
-0.09736189291124418 
0.0612349159484025 
-0.129127058829928 
0.5594535363293038 
0.002254144510442173 
-0.04542009619854651 
0.2820252810304492 
-0.1936860746362033 
-0.0833143387369422 
-0.3090905301470895 
0.4704318823524961 
0.5918196056655776 
-0.588967090184782 
0.05936616479455961 
-0.7219120045808685 
-0.07995465330596974 
-0.05943070327481328 
-0.013495273827379 
0.4446055814949473 
0.0003966928528230072 
-0.2798392092656404 
-0.3917712069554568 
-0.2878796680941692 
-0.01504328685288664 
-0.2115940731130874 
-0.3329484990514752 
0.3419684727639136 
-0.0160377909093084 
-0.318623232899635 
-0.3162931372859504 
0.006841401531106993 
0.1482887172507626 
-0.5266228120661666 
-0.06718986671384714 
-0.7824006456763564 
0.09229596927843989 
-0.1176551722768447 
-0.167021446172347 
0.01906265874181345 
-0.1717862842330345 
-0.02590657335505078 
0.02818915844898207 
-0.03609252759313782 
-0.4844507379515953 
0.1602656779716684 
-0.1114681217085185 
-0.1178118632905517 
-0.2341949940187622 
-0.1196063974664675 
-0.2416840908561134 
-0.09439292343112403 
-0.1342576183745873 
-0.3188435575380758 
-0.2868655386490421 
0.2504407863044778 
-0.3662788414661026 
-0.2086519408690954 
0.2364411224135972 
-0.2948323305913099 
-0.1389787483397165 
0.1651214211997134 
-0.1685167253991565 
0.07491256950372423 
-0.07527990621281483 
0.01121477749102012 
0.04345999249202756 
0.02677140429324639 
-0.2546051845746639 
-0.401777613100584 
-0.1331093208291969 
-0.2557968502972491 
0.2075014411162107 
-0.2138205523487268 
0.3410241091200044 
-0.4043241350636809 
-0.2775664859741056 
0.318652841588638 
-0.4857954816293001 
-0.6067942500131642 
-0.1497596322873352 
-0.2419582234333973 
-0.0463424476471383 
0.402390211851823 
-0.2226407388265791 
-0.1488423976725033 
-0.5085916951625893 
0.05395141611579506 
0.7482103447002794 
-0.2205072354936196 
-0.3914785668259637 
0.3864588379065083 
0.7106014000442967 
-0.4701356953853206 
-0.156895450650294 
-0.0697341082331671 
-0.2873119415612926 
0.2135109575226731 
0.2271566951720205 
-0.2324218068774155 
-0.207913016457245 
-0.3710184765773997 
-0.2246360259463258 
-0.2008123309344204 
-0.06887603048917026 
-0.3503942094860595 
0.5772318779985602 
-0.08591417801532319 
0.1898270923353794 
-0.09389379046022102 
-0.1389473575169809 
-0.2354512361964913 
0.06882791758664643 
-0.1533909483699998 
-0.478483985450628 
-0.06636338679338571 
-0.1361492502984288 
1.003965490797558 
-0.2046176757979641 
0.06503741411860368 
-0.2043904492865739 
0.2510762928062726 
-0.2029460148334498 
-0.1205687320861485 
-0.08506574352672884 
-0.2265075939712251 
-0.2408358097061473 
-0.3070547720892803 
-0.2521705580888741 
-0.1016741577128234 
-0.2834519088186656 
-0.5088280579672482 
-0.1972207908592414 
-0.1727130331363171 
-0.5865602432272825 
-0.09959596894381058 
-0.3827395910123123 
0.3509113116209069 
0.1502736598120444 
-0.1739616378523146 
-0.1287125904643455 
1.06619483938925 
-0.2696420482391992 
-0.3800663490362303 
-0.2249175701951106 
-1.150697186048836 
-0.2483914124785089 
0.3397682535202314 
-0.2805418195280343 
-0.1345350625643399 
-0.0907782537049921 
-0.631702288922514 
-0.2408571823596302 
-0.03407637171711773 
-0.543115823947683 
-0.2588762459012238 
-0.2316148533974053 
-0.3564614601388407 
-0.6966480576601871 
-0.2316786805765538 
-0.1939423091350273 
-0.06944423055049663 
-0.2025365341344323 
-0.7097589370639117 
-0.3388554400728608 
-0.7774361300585511 
0.1570124337054573 
-0.7580816465288787 
0.007297247077302177 
-0.6901575469096105 
0.2389652438862033 
-0.8260182113544792 
-0.2708963088775214 
-0.1767532909988732 
-0.08319676581321633 
1.988092422224829 
-0.5154943363342669 
-0.420308621810938 
-0.1826767024862109 
0.2764887724609572 
0.8506691384466525 
0.8946747258842809 
0.3360063890982795 
0.02547426630854599 
-0.3728897324182098 
-0.07614554952175069 
-0.02768324289126206 
-0.203613967894023 
-0.3436330921400287 
0.1232361300890023 
-0.1204847714234966 
-0.5488835328912263 
-0.1391830451362237 
-0.431849034752792 
-0.6464237519737106 
-0.6444664605368614 
-0.1898893702718354 
-0.1684362285263705 
-0.1507387716818847 
-0.2286660626107957 
0.4822274040106659 
0.2314458756624158 
-0.1589274763211662 
-0.1946579816649835 
-0.1693236973594552 
-0.149921431870676 
-0.2492768646111439 
0.7268295818688117 
-0.1872910221315948 
0.3496907640525758 
-0.1562117038232126 
-0.2433249066890143 
-0.2889339080489629 
-0.0659284955585264 
-0.37275341999539 
-0.01538166892308419 
-0.08611102879207463 
-0.1382750180397004 
0.8420697487114477 
0.6778549689173994 
0.5200151007560572 
-0.3458779573385505 
-0.7672084041527174 
0.1675596682072206 
-0.2093551131174075 
-0.3121090678909119 
-0.1810491602350368 
-0.1742025212590552 
-0.552430742445685 
-0.3026808019524335 
-0.04407252374588329 
0.2032053249946672 
-0.3412890923335495 
-0.4920624659879347 
-0.3702289105850867 
-0.04219823326384929 
0.06844167142000684 
-0.4645192647709261 
-0.8727355949667517 
-0.240702830268829 
-0.2374016996838386 
0.1968071103912697 
-0.07661648041640738 
-0.3663552649909134 
-0.1530624569979835 
-0.2995328726739365 
-0.07485048190465342 
0.5076277486673559 
-0.170964794601106 
-0.1064565671262941 
-0.31472633019728 
-0.7994313168041515 
0.01723907508277542 
-0.135431656579628 
-0.1762104119183605 
-0.2529103678795864 
-0.2826649963459754 
-0.2211836315779541 
0.03504066355585516 
-0.2004622525983409 
0.05860538264953231 
-0.3188830813600546 
0.4800284306168636 
-0.05127384434914216 
-0.5695058647550295 
-0.1229706978333357 
-0.07415406937987945 
0.1505832132973653 
0.4495683713977764 
0.2781202365455958 
0.4520670758547861 
-0.1523372984957305 
-0.160813523955764 
-0.3159463828447565 
0.2224595055797358 
-0.2771809617603639 
-0.2227667721147208 
1.618176855851142 
-0.1533598487621658 
-0.3622607359590048 
-0.5610128175017364 
-1.136795644577781 
-0.05173591258154164 
-0.1842183649417538 
-0.3167745013332467 
-0.2034485250360528 
-0.1552658274891478 
-0.02141241268875891 
-0.08587445914578058 
0.002969539834226423 
0.131190927268106 
-0.09535275803321364 
-0.1217579052755877 
-0.291776093274596 
-0.0971713147789835 
-0.009474305135139256 
-0.3591876131393787 
0.3392749126171358 
-0.1776920484616451 
-0.1536958512310256 
-0.2493139076906766 
0.07222623343204174 
-0.3310426867162249 
0.2402743745651102 
0.1312669576545497 
-0.2638155227125026 
-0.0648814970401525 
0.3942803328698768 
-0.2554321534213608 
-0.2407007903748261 
-0.9585782967988782 
-0.108102210148726 
-0.2966705041649749 
-0.2936957640702513 
0.2342685701079799 
-0.2209714095983497 
-0.2116235784267945 
0.1340414571755522 
-0.8127745616219496 
-0.1694440087431627 
-0.1112182828786087 
-0.1882553151746552 
-0.141958770043686 
-0.5999634686229166 
0.03487858336671991 
-0.6514007783980637 
-0.4291945367251659 
-0.2181797615062671 
0.1277478479839969 
