solver_type L2R_L2LOSS_SVC
nr_class 2
label 1 -1
nr_feature 512
bias -1
w
-0.1048581794814424 
0.6109777193451079 
0.7481201997897747 
0.381236165074031 
-0.2189925039559609 
0.2407508018950108 
-0.09272575131687329 
-0.6207854472781411 
-0.1303675535791934 
-0.2677803465877547 
-0.6040617231830798 
-0.1927518901841923 
-0.6387128022084426 
-0.6023807996299512 
-0.1513756071618605 
-0.6526485134910487 
-0.906979503035367 
-0.1028829982648354 
-0.7111779824662462 
-0.5302347620624214 
0.8522593380509059 
-0.220066813171271 
0.4248386839873878 
-1.427017527167717 
0.0978888861292774 
-0.2155983073613164 
-0.1721066648680478 
-0.2930762056052268 
-0.4012333908876071 
-0.02632462597236264 
-0.2701623214883692 
-0.297396475265702 
2.221873357396479 
-0.3542361409275102 
-0.2506261579522816 
-0.4842335708216625 
-0.23407871936534 
-0.2339340132566929 
-0.5744568563331113 
0.07801019007373243 
-0.121315101072423 
-0.5014921645796094 
-0.4795890125686731 
-0.1653872588536934 
-0.08600156254525146 
-0.4437857902570704 
-0.1234733838275063 
-0.3401941685477285 
-0.3034158187582626 
0.3773715298346795 
-0.08659817128072524 
-0.08006051696080792 
-0.0001841487036438501 
-0.2731658420225012 
-0.03726057230036237 
0.3784781521158574 
-0.8869118177815222 
0.02459487487159021 
-0.4120311005896377 
0.615377936741801 
-1.060019580101246 
-0.07208795655963308 
-0.005664657335513416 
-0.3394741966765166 
-0.607908138381635 
0.4656382716528561 
-0.06591452589429282 
0.2398094192894785 
-0.010096390176593 
-0.6653146941967096 
0.2197766401470671 
-0.3465977435292001 
-0.2650711270371099 
0.2295799363468653 
-0.3408067805112035 
-0.214630952834689 
-0.05230970420670591 
-0.2816544220583183 
-0.1113855052255452 
0.07623430984588997 
-0.1930902142464885 
0.03674982857994573 
0.01780789750823086 
-0.3003464716879909 
-0.3566234535476113 
0.167097938210477 
-0.3615247322649458 
-0.5069199061485781 
0.1027737005539961 
-0.5203804927690311 
-0.4932679367006815 
-0.1833706404215364 
-0.1581320995497353 
-0.3169025974841301 
0.2542704990420611 
0.1316266558296519 
-0.3896361809627523 
0.5421523747553045 
0.00611253169176932 
-0.3540533131216307 
-0.206855005665405 
0.06858889561265927 
-0.2962277680969919 
-0.1111731738617217 
-0.3412236376066604 
0.9077651425351202 
0.5434019140815519 
0.04887994194757896 
-0.1732092530176784 
-0.1764065309815058 
-0.7378694255639625 
-0.2012326831019171 
-0.1979811340427785 
-0.3769120316297797 
-0.02759339115180937 
-0.585821110357052 
-0.1595816820409648 
-0.5265233721386837 
-0.4306978513330537 
-0.3780524853242564 
-0.5522704324861037 
0.2083799226637591 
-0.1704314584878933 
-0.03505180530224471 
1.40875460391165 
0.06247099397509674 
-0.1789385317004626 
-0.1976911491131209 
-0.08132021387893365 
-0.7811699335783189 
-0.5544288833986021 
0.05525420019470307 
-0.02165380308319485 
-0.3242510602508727 
0.1116249911438223 
-0.4127427249140685 
-0.001877050226773303 
-0.1053516429079514 
-0.2280041609898374 
-0.1679963159268761 
0.5330366415021379 
-0.3231119216324493 
-0.1863931554307384 
0.09388848283507857 
0.3192368277335714 
0.06801500956589834 
-0.2268317442603379 
-0.1488057897487223 
-0.1339196002578435 
-0.2979154966502162 
-0.6274611916746103 
-0.4163348619764943 
-0.2077354618587884 
0.2795478047386384 
-0.3121117334649847 
-0.3008019336241821 
-0.5014780869103573 
0.2049602784438576 
-0.2409770545234576 
0.5141163329454757 
-0.3801495973649997 
-0.1123706695232469 
0.212128480698592 
-0.1093703233690525 
0.4844686844824781 
-0.7797260511025764 
-0.304207971628164 
-0.04324438462015838 
0.09741016742791428 
0.002587423322319404 
-0.218043539027401 
-0.02689051971868011 
-0.153682289451474 
-0.1574233812979482 
-0.135055478656356 
-0.7163409765232392 
-0.06736245872097731 
0.3015108150903597 
-0.2883706369069123 
-0.5570788883276712 
0.1798740174412154 
-0.2751613556416853 
-0.4683926768451999 
-0.3799358446656667 
0.1830263894225681 
-0.5721281439067436 
-0.08068908158196098 
-0.8216994710135561 
-0.4658511560083048 
0.8126337464360115 
0.3697809770604881 
0.2729922240129662 
-0.3455788934126631 
-0.3565319165318332 
-0.6149116399216468 
-0.4392093783411554 
-1.238807732273593 
0.2319618295716029 
0.1418740049955462 
-0.3833709323155285 
0.1236284467658816 
-0.1925965395400902 
1.210532159670674 
0.1205634674464138 
-0.4794295761109792 
-0.9805438645632011 
-0.6557750161242595 
-0.4363590349498779 
-0.2465237029655666 
0.9753586126417241 
-0.4208327323563113 
-0.1175492310545543 
-0.2983529275284912 
-0.3178321368988159 
-0.174740613271861 
-0.4300474474674323 
-0.5372805304407299 
-0.1782952698907967 
0.01791439396476742 
-0.1939617293898959 
0.1410436669086102 
-0.08360236197304646 
-0.3488392951953675 
-0.2873300004794288 
-0.1580079035002585 
-0.1398696453718406 
-0.342767432903983 
0.4008716043088559 
-0.1542586660909456 
-0.8212114142845262 
0.1032711988702452 
-0.1011836492923394 
-0.307226453500029 
-0.1254537823095933 
-0.09787511855286445 
0.5806252862911704 
-0.2531043933074575 
-0.2443156587418841 
0.2115174593408928 
-0.3466998465884813 
-0.7534178876154338 
-0.2615155777934923 
-0.2710853850705914 
-0.3003625531279161 
-0.1557269015586365 
-0.1876780446813573 
-0.4403339571523145 
0.543990226441606 
-0.6179895703360757 
-0.3632379251457973 
-0.2531566579545232 
-0.3075591781657455 
-0.09017479657087064 
-0.1361861343725486 
0.04495065002896821 
0.1234946666005631 
-0.2332793552607163 
-0.2485169446691672 
-0.02956369580756901 
-0.3559604541031041 
-0.1264987254314659 
0.6025998359150346 
-0.8525698926776407 
0.414871759219948 
-0.06959282814406267 
-0.2673827657783511 
-0.1193179526565823 
-0.3199997942996016 
-0.1000437657966359 
-0.7353157781294408 
-0.2507885408943842 
1.605137660968911 
-0.05946961088275594 
1.404833692897242 
-0.7862115183239488 
-0.3026297468286797 
-0.1793664776469669 
-0.575017426021877 
0.4595546980145399 
-0.4575471419593066 
-0.2432003806378367 
-0.2641920665886417 
0.2027813538907155 
-0.4126094354429132 
-0.1816487944740767 
-0.3227167294062628 
-0.08005185572777899 
-0.250083460966942 
0.1289682292152154 
-0.2685917403451281 
0.06249469743682268 
-0.2931140735908455 
-0.3557143825776095 
-0.1135351144587661 
-0.3217769859831973 
-0.3471674918450641 
-0.7831166314823234 
-0.331024671422733 
-0.3245548601087381 
-0.07000154828362373 
-1.192988123140184 
1.166530294031401 
-0.3220559377462541 
0.1838310562985247 
-0.1741699341871592 
-0.3169483549295709 
-0.2638190299527287 
0.04442987679308225 
-0.3731341571065616 
-0.3452653289934083 
-0.03736487031657547 
-0.2563799181046007 
0.2234946576586668 
0.3118757527235135 
-0.1316757748205288 
-0.04712312206527682 
0.4270874239671442 
-0.5222909554449119 
-0.02786250777473147 
-0.487133654810756 
0.2768938160734078 
0.0860164380375335 
0.03247519301672319 
0.2755341233719901 
-0.1734656369897533 
-0.1929188157516804 
-0.02312407422109272 
-0.3782156922805682 
-0.1791799922959879 
-0.3344550242756844 
-0.1530265108599839 
-0.3306303215743039 
-0.3803425798684484 
-0.3740196066134474 
0.2200218549619366 
-0.1641724515087375 
-0.1437311353342999 
-0.2120713202956779 
-0.3574169475800368 
0.03416605922243329 
-0.5487675136888557 
-0.05905820949222719 
-0.277729549732758 
-0.1918714157737612 
-0.1728023809304579 
-0.3734943816707119 
-0.007202546871872145 
-0.4544365157976884 
-1.204708370111613 
-0.4675541016893186 
-0.4318910256796553 
-0.1999840396769623 
-0.455862863898039 
-0.1509556025303505 
-1.488494820590614 
0.2203839143502751 
-0.573275373192636 
-0.2064995568890688 
-0.04378228704434192 
-0.5280639967288857 
0.9802583236559392 
-0.2538946761454846 
-0.1656468373076945 
0.2090167305443866 
-1.591380619212331 
-0.4487873985134117 
-0.1829761598212596 
-0.5276345042507985 
-0.009586742415384699 
-0.113264181720316 
-0.163762455932027 
-0.2981542819541944 
-0.3643295727596254 
0.09993394975610573 
0.2652051088126353 
0.4663454850382746 
0.1360593500729183 
-0.5761734001909535 
-0.6808622776983686 
2.156745699038511 
-0.157194171975596 
-0.2190385162704962 
0.251579462254067 
-0.1067368295521642 
-0.1900675486149488 
-0.2588402097922199 
-0.2612022667893051 
-0.2284400259488374 
-0.4840433364302585 
-0.00679297972912318 
-0.3161598306223319 
-0.3505891683699449 
-0.03080200547580529 
0.1081909369178095 
-0.327432724471851 
0.7781464015708286 
-0.04203047473225046 
-0.9941793432957459 
-0.1381035669856916 
-0.1743124809613283 
1.052167619278224 
-0.0805897197425265 
-0.4593863257321395 
0.07099990444817168 
-0.1118671852232018 
0.005557335568237648 
-0.2877715332062563 
-0.1096823964316452 
-0.6577108494766232 
0.07204416205310973 
-0.1103279628091443 
-0.1617916568656792 
-0.2018015546099431 
0.1662674673440389 
0.126639959809934 
-0.2904085109512919 
-0.7305584256876484 
-0.06551000981489841 
-0.2264199985138017 
-0.1190479206984493 
-0.4285309185708437 
0.9614254862488318 
-0.2553444368858345 
-0.1904810217733731 
-0.2366396446597792 
0.107062321073856 
-0.4487143024830208 
-0.03318332968771282 
-0.2332166535312025 
0.4561621985819415 
0.01034832921110599 
0.08834785359958128 
-0.2011433437349003 
-0.135575138166875 
-0.7809668532633974 
-0.7207843952866024 
-0.1354762550138915 
0.5492230648207737 
-0.2164749700497502 
-0.05106259810580119 
0.03476952566332948 
-0.1625545364213172 
0.3335618527171393 
-0.09599629447880759 
-0.2137128841741391 
-0.6576275972788774 
-0.06105250617899932 
-0.187307128540903 
0.4740641182512064 
-0.02263672133798761 
0.3495192111444098 
-0.3919192115455876 
-0.02794387337956685 
-0.3114546458907693 
-0.03072783020670094 
-0.5459165576833946 
0.3759111371524498 
0.1472504904741813 
0.4486738036794319 
0.07121992273233135 
-0.2569687574481157 
0.1216702979170746 
-0.333985330285765 
-0.4879494500005577 
-0.5772706187082897 
0.001966061818392494 
-0.5614574714196454 
-0.2465631258242222 
-0.4502261904990736 
0.1603830678136134 
0.006856210455509543 
-0.3052067272650951 
-0.374398941184005 
-0.3061597364884995 
-0.1208672232721749 
-0.3381477764246169 
-0.4518893146521513 
-0.006935418096128967 
-0.2009957597103821 
-0.1747694914483291 
-0.4136030195656091 
-0.2133523403761441 
-0.9410000416894948 
0.1160844339957142 
-0.3974601339887316 
-0.08095014633342465 
-0.42887619699419 
-0.6588688864269789 
-0.4158034954593897 
0.1955631589956722 
-0.4973763356976363 
-0.2179676258504137 
-0.1079360982301615 
-0.6902985225780124 
0.135107434315487 
0.2622795662984315 
0.015244831477969 
-0.1355043829655964 
-0.1761190615644652 
-0.3747236083990436 
-0.07051613700444989 
-1.638022034801353 
-0.2183021568655911 
0.03708361571190903 
-0.0862700990242069 
-0.01847534418285685 
2.432099449936675 
-0.1045010916638667 
-0.584314265216716 
0.008178995902337401 
-0.6684041365273579 
0.00374665934650957 
