solver_type L2R_L2LOSS_SVC
nr_class 2
label 1 -1
nr_feature 512
bias -1
w
-0.06969364334779631 
-0.481787971163252 
-0.5664539019990417 
0.007768294687715451 
-1.416734531401192 
-0.2573618732683474 
-0.2163809862144327 
-0.2939583464792696 
0.1931414013911966 
0.05346192686285128 
0.470788903285752 
0.5663002174937491 
-0.1838024715831509 
-0.1533064035377252 
0.001890894217108486 
-0.9635469366408228 
0.04348831717978734 
-0.1816014783369729 
-0.1852724710438605 
-0.2534577114565746 
0.08366717616780704 
0.09596716826398528 
-0.537789215433801 
0.7530156243122998 
0.03931796251497842 
0.2357241062916217 
0.515335044008999 
-0.1418416686534594 
-0.3092319374028945 
0.2844771156367304 
-0.7801799116903028 
-0.122836016084164 
0.2356496639908013 
-0.1896185281140447 
0.09464151583475554 
0.02877021339230675 
-0.2650189328035761 
0.1008951858574534 
0.1821093795094181 
-0.1272974661185355 
0.05109860926930308 
-0.2239899180702107 
-0.5285513779566048 
0.1828632953131573 
0.2138825141437819 
-0.2372984832314834 
0.04038124240354931 
-0.3012111210217799 
-0.08753389520203222 
-0.4401160837312671 
-0.3116174398973758 
-0.02260881765623177 
0.0459905654718975 
0.1003800076074468 
0.1742023989435463 
-0.3724489045641594 
-1.408747364296978 
-0.2791782738695696 
-0.03890989540876322 
-0.2401479984290147 
-1.012959197443693 
-0.07737193372023052 
0.1966287391353762 
-0.1255946751941642 
-0.5082147282664302 
-0.3399423620145784 
-0.1919377820345042 
-0.13220672146555 
-0.9043023491308876 
-0.3880782373796269 
-0.2035970562750167 
0.0581376779217676 
-0.009707814295188539 
0.1770192269304615 
-0.583165272393351 
-0.136998954737429 
0.0342517034659896 
-0.3287985662034999 
-0.0318952714683972 
-0.0698893194587705 
-0.3881999286515883 
-0.1615953665916853 
0.6904600736275234 
-0.2708777171730511 
-0.2998894688020958 
0.06970249281772913 
-0.1050459296901092 
-0.3234259227357861 
0.01646188073904332 
-0.06762285328219884 
-0.6313646115140866 
-0.02953033515411951 
-0.1430621968131893 
0.08290689077185949 
-0.2687291108007154 
0.2471741909169301 
0.04270806776107492 
-0.09099971356830902 
0.1105874126940608 
0.2858089327219823 
-0.1657658120001674 
0.1813527327138593 
-0.05146404001729333 
-0.3182572642897388 
0.04470618276934026 
0.2741167424426896 
-0.5769877165113455 
-0.1643039335606942 
-0.171790040399222 
0.03393870632811608 
-0.629498115221986 
-0.1950232876802251 
-0.3451268213924936 
0.1069807893715407 
-0.1185880849758344 
-0.3787525955603965 
0.09994998009976028 
0.12346149418179 
-0.2294285532214863 
-0.1573318912990934 
-0.2669246307764115 
0.1019972640972385 
0.2253781378902278 
0.1020142612780524 
-0.423711204258038 
-0.1664242996128439 
-1.029706083872446 
-0.1122553128906626 
0.1618594912249211 
-0.3272508723323206 
-0.08676065434114394 
0.03372503739244859 
0.0163714780232792 
-0.6356380958715395 
0.5526496332443165 
-0.05494668554274713 
-0.1552256239528252 
0.06268361814693392 
-0.1709442581273951 
0.09038364883680057 
-0.168021840249018 
-0.3624924765931615 
0.06937827769301672 
0.07392382529971415 
0.06389967995275871 
-0.2664590408654267 
-0.2805147774394237 
0.04346233402390743 
-0.08968134466637372 
-0.1060574036261337 
0.3051260709775837 
-0.1147789123769172 
-0.2344681340660291 
-0.06831209646215493 
-0.2604327363049768 
0.06801763041175572 
-0.4178302485830062 
-0.5570891906590583 
-0.05243498004132942 
0.3239592710307921 
-0.07404788631343481 
0.1654846699075873 
0.07963415176660885 
0.164964378581601 
0.07146901133873435 
-0.4492578256165949 
1.17968802045629 
-0.08521918416479733 
-0.08130415223813481 
0.1113795373584497 
0.02515134698739284 
-0.2617142527584146 
-0.02261586013421954 
-0.07879493267197638 
-0.0266138626670024 
-0.2992400079771017 
-0.618113524023251 
-0.1286277274520303 
0.00840544810407275 
0.6945065112707481 
0.03936269701454699 
0.06432724309571633 
-0.5004531604878807 
0.4995439507505716 
0.152875143755156 
-0.5476802620458676 
-0.1619818533011123 
-0.4987490868416112 
-0.3579908242350906 
0.03229303413257211 
-0.3722346664712771 
-0.03536477706279018 
0.3955178065747592 
-0.02871665792733977 
-0.5530429937743125 
-0.2769224731728196 
-1.01100605323318 
-0.3265813845455444 
0.08209189989017956 
-0.4560664028935987 
0.1360497467221757 
0.09138695655000445 
0.1273225447716564 
0.2464173390995347 
0.1362026090505752 
-0.5362162245128743 
0.04926029386779147 
-0.2393227819459035 
0.3430858752284996 
-0.02895435844986372 
-0.2363769987845951 
-0.2187031461130556 
0.00783350888075734 
-0.2770840344316489 
-0.05496078432805272 
-0.02546535768303722 
-0.3767431574579684 
0.2811378967784823 
-0.3069575433698799 
0.04858682514659181 
-0.1837983086725246 
-0.03506229938794595 
-0.2959193312464937 
-0.1321214752890914 
0.09295025317465254 
-0.1890941366920893 
0.05296090709382541 
-0.7050081277942452 
0.05247331064585135 
-0.2906261658680958 
-0.5434073650749316 
0.01407605162237419 
-0.1447203710861643 
0.1929481245316468 
0.1198904897543381 
0.2731539252108633 
-0.2861336246683267 
-0.1660215603725009 
-0.06257890111378835 
-0.1825360018729905 
-0.0765930457003544 
-0.1375478666879019 
0.05942317564146669 
0.03266758971609166 
0.2149886373512228 
-0.1149140926864346 
0.1456154456961155 
-0.1607939117990475 
0.5368434830243878 
-0.2787108535901475 
-0.06502556030324942 
-0.2141181854907975 
0.5042283612402388 
-0.2012530504008805 
0.1862126521056685 
0.3096096058558709 
0.3244869498926396 
0.1228200253648264 
-0.3637064712108812 
-0.3655429267807478 
0.03808944130458503 
-0.7492751093657729 
-0.8788793766722987 
0.2123733527692477 
-0.2546284631072629 
0.2803062791159048 
1.128053188164208 
0.1736100751054729 
-0.01874269649292388 
-0.3942629117315593 
0.001214613423997936 
-0.5795363317462927 
0.5013946794242163 
-0.285386740069411 
-0.4271725837214866 
-0.04849024837235683 
-0.2987152783564512 
-0.3647235248148891 
-0.09028367284741602 
0.07691159933242725 
-0.104332362054064 
0.4269466081752783 
0.1532281337655165 
-0.1792213147718025 
-0.5272517905534365 
0.09145241726560208 
-0.02695297252449852 
0.06232466324202157 
0.450111211409827 
-0.2062696262201995 
0.09425841844738447 
0.04547448766600335 
0.2267858133005388 
-0.09697460211257802 
-0.1171267752236925 
-0.09189891958145768 
-0.5551847513363475 
-0.5380163825012337 
0.2260641103952339 
-0.08186478825876371 
-0.4435628262505069 
-0.06995260738105076 
-0.008422744951254642 
0.133972601499969 
0.09875518262181171 
-0.4377159380521031 
0.1864147649141175 
-0.1460702234946784 
0.2042316011258125 
-0.4617591588492639 
-0.2206619705759948 
-0.2749545248713036 
-0.03521087675472527 
-0.04099616529758018 
-0.4074457679613097 
-0.3570601132946057 
0.01063923055335006 
-0.6135188761005309 
-0.2603680723629916 
-0.2169085163785897 
0.2734615346964246 
-0.09145069582685102 
0.1979377718552985 
0.5381874270149311 
0.5994670467984439 
0.03840353382763727 
-0.2258610199003986 
-0.004074321218936555 
-1.827531074220915 
-0.2207712983965387 
-0.05698458959839602 
-0.1577336993042057 
-0.279425834427283 
-0.1104256642758898 
-0.1614317326923745 
-0.4554841529692164 
0.07609883591868129 
-0.2815362553708761 
-0.2662119078394964 
0.06483432574491234 
-0.5526550521692853 
-0.3234836430958029 
-0.03953398701780014 
0.1446858238894804 
-0.1692589239776264 
-0.303816308137289 
0.2474753282918761 
-0.5262867468752809 
-0.9819101718760648 
0.1212370401807501 
-0.4089112179516404 
-0.1170019396027245 
1.206356411980276 
-0.3392277607826054 
-0.8907253238062817 
-0.1951402630200396 
-0.2657352799274068 
-0.06252108362515248 
-0.08083550624136662 
-0.241711694127059 
-0.6471055228737643 
0.08861351612272519 
0.3896783887286746 
0.2274015957784409 
-0.9756212659694868 
-0.1604300661239509 
0.6747992449365191 
-0.2125556077867671 
-0.08022237015143492 
-0.1298215437237379 
-0.1042645687847168 
-0.05078918308942566 
-0.1404730185001187 
-0.1587965862546756 
-0.4380108957110943 
-0.08484080129646233 
-0.0124001801638733 
-0.4387884700628334 
-0.4827248667540958 
-0.06387321721764534 
0.07654245458438742 
-0.2389662078082431 
-0.2816717892429803 
-0.02392609787662174 
0.4048284392026826 
-0.1449643379545662 
0.2114535838651981 
0.1530121795112462 
0.3572539269349177 
-0.09017817839045325 
0.03229347704958303 
-0.1016489157934914 
-0.1225262071715034 
0.1355431002775671 
-0.1193398034127299 
0.3706164189151414 
-0.03888409940741785 
-1.013362890557519 
0.5053482228758052 
0.1849799710106273 
-0.4696019041725935 
-0.1138711005624273 
-0.08542115351807904 
-0.195650748038187 
0.0002385554279601028 
-0.4171981806313105 
-0.2381514785095507 
-0.02176358557356969 
0.1071102285944992 
-0.2480728709923567 
-0.005144266055159401 
-0.06601109644947786 
-0.1330851782705461 
-0.1446750681692147 
0.1441466350177942 
-0.1767788462456115 
-0.7411628616119887 
-0.3274542587259724 
-0.007616953369528848 
-0.1476187230122361 
-0.03079150999640509 
-0.5440102565610065 
-0.279621318059927 
-0.06641755154402429 
-0.4189443041095987 
-0.3972265056789797 
-0.3431380357095965 
-0.1083172902442529 
-0.1784177110307747 
0.3687840968327641 
0.1859603056727148 
-0.6502243495561199 
-0.02254266823185015 
0.2238896050954265 
-0.6761101517811574 
-0.2165654895823571 
-0.1221805188209141 
-0.07980297251750071 
-0.06004408691137915 
-0.368295520028269 
0.1103686249965466 
-0.2980302848404177 
-0.03136690077720215 
-0.01672532947698938 
0.4566771975225477 
-0.08524359195889919 
0.1490656697522518 
-0.1894092315042208 
-0.1662249576204798 
-0.09016854417217657 
0.4540091147498994 
0.4937543170131219 
0.0008712221879196569 
-0.2194981566325979 
-0.3073721528750282 
0.09628428692778281 
-0.3392682163607941 
-0.1676427385130643 
-0.1909873956420155 
0.07672158362830235 
-0.4488320459225071 
0.09908192914664193 
-0.2066054637283782 
-1.147702101748303 
-0.3069412472541201 
-0.1305964156926882 
-0.5516859622938109 
-0.3073489909669419 
0.1738733153262891 
-0.1911423069390955 
-0.0314504745763288 
0.2006908017301398 
-0.2689629381124563 
0.09002506149163578 
0.6310526621223355 
-0.09637708464137321 
-0.6104385443765948 
-0.06996744503598333 
0.1737866418994144 
-0.1535927386748987 
-0.2113728684404263 
-0.06785191344308057 
-0.05848145887118089 
0.352696289092545 
-0.1818185340637802 
-0.2295135732285779 
-0.4259331563334237 
-0.2594962479295816 
0.9980418528936564 
-0.04159713807032582 
-0.05498123067567502 
-0.183493881458935 
0.3608373488596829 
-0.8376938544274284 
-0.002746514021465688 
0.5585293038119927 
0.4558611616055252 
-0.3611263680084502 
0.4432436231202992 
0.212521009820153 
0.3134444881212129 
-0.6335254045249472 
0.2689915861780744 
0.0542244925222005 
-0.01543964008702212 
0.08123391506726454 
-0.4053256304017036 
-0.3754222384721154 
-0.8069406427794942 
0.2503481248269537 
-0.1925780484408569 
0.1763512231420365 
