solver_type L2R_L2LOSS_SVC
nr_class 2
label 1 -1
nr_feature 512
bias -1
w
0.2165256332118848 
-0.8121904048556053 
-0.6080461626930145 
0.02463402027131129 
-0.9846453577242338 
-0.4501970795152633 
0.04864877190217869 
-0.6612852762778019 
-0.02404223590852195 
-0.05422611587040334 
-0.7594312487669543 
0.0196355177004485 
-0.1655898580329798 
-0.2608039917348604 
-0.08305557831861494 
-0.3236830274107971 
0.1951985545494149 
-0.2588463785556106 
-0.6048942783400145 
-0.445278715352709 
0.5999882803131799 
-0.2163793666659311 
-0.3380592741413678 
-0.3978080647368193 
0.2144502561751548 
0.4787035649479709 
0.09959907450655614 
0.5148149065101936 
1.055902853574437 
0.7744460076098361 
-0.01004745813830013 
-0.1609276557176712 
-0.1555031725700391 
-0.1809967737752842 
-0.1277069403705063 
-0.2594646302711134 
-0.10245085370352 
0.2066761570220403 
1.160198522893445 
-0.03754422906794205 
-0.1248769052392649 
-0.2095732115022665 
-0.5999969776567597 
0.5907136465412889 
-0.2036691657964173 
0.01767229676092715 
0.00389957373619407 
-0.3576702459777813 
-0.2585673371901572 
-0.5370685364849994 
-0.3688557037485135 
0.1943397653829901 
-0.6935240964334176 
-0.358574864714772 
0.1571833664839185 
-0.2130849686092158 
-0.09451952613258148 
-0.1721802544521494 
-0.02416556847931917 
0.2727166275504389 
-0.4632093148976981 
-0.1788307172372714 
-0.2223916977944925 
-0.1445475406624119 
-0.5196460762153523 
1.610767879251022 
0.09757559516557709 
0.1462773657354922 
-0.7684003999673464 
-0.4137579393659713 
-0.1249349781913451 
0.1045621801272929 
1.090220004839113 
-0.005177594932951971 
-0.7519499645567539 
-0.1186087993367184 
-0.09652805493074168 
0.020060977917786 
0.1475846322707456 
-0.1348109695642984 
-0.5624457913289188 
0.1987768488336401 
-0.0299395187616344 
-0.2577158787946442 
0.1637270830512496 
0.08595506033366207 
0.2252085550273475 
-0.159216192217901 
-0.200338748113386 
0.5543032678562723 
-0.6023809442648982 
0.5980205700994896 
-0.004987099250225541 
0.5138197142455396 
-0.485655130911381 
0.4308027679899615 
0.3416608528138599 
0.2095635501935322 
0.5203026047322468 
-0.05238064246519126 
0.2334775560139168 
-0.3188016453637533 
-0.2490017421821451 
0.4430717772664264 
-0.2634684196085681 
-0.273398025284268 
0.2567445732011746 
-0.1086350905198039 
0.02341145249410159 
0.4296034007146882 
-0.6283488565979092 
0.1607664703259471 
-0.2282827676545225 
-0.2618852145404741 
-0.1677261324167614 
-0.1567014007655064 
0.09203611373209504 
-0.5188480994326599 
-0.1529748301870008 
-0.2335914590576151 
-0.2659071009988559 
-0.04491111577485431 
0.4126516043455342 
0.006801045328001453 
-0.03104596934535392 
0.4926449919658935 
-0.7528548452363674 
0.4771481242603806 
0.03787079488607684 
-0.1863807034409709 
-0.1591290307558191 
0.3473711976074318 
-0.3026269639288558 
-0.5337075132203213 
0.02561947093917712 
-0.2553612407823297 
-0.0518445058121863 
0.5648749235546563 
0.1581322752224892 
-0.3116107981912942 
-0.3044495028062185 
0.3287492368439844 
-0.1300861368856641 
-0.209936724810514 
-0.1430287502769852 
0.4039587726859114 
-0.2148670407992821 
-0.1453418219865388 
-0.1877506881762267 
-0.2113775383902974 
-0.9444883360109528 
-0.2275123124105277 
-0.1069457400923149 
-0.2615983224747474 
-0.3094571149487705 
-0.235837785381438 
-0.1662950013180578 
-0.4372855773124345 
0.2223585514016976 
0.5006621901634256 
-0.22898936986708 
-0.0261112589629046 
-0.168047221412124 
-0.09552784964176733 
0.0902118728910742 
0.1705811391432614 
-0.3347215529516259 
-0.5368303858493437 
-0.2432166089201504 
-0.08090788894297536 
0.01200174070601254 
-0.4626611924852638 
0.3201833657099954 
-0.1071805559230919 
0.9442923005856202 
-0.04307570113094988 
-1.215664074846639 
-0.07452269114261004 
0.529513933372328 
-0.6332410027477986 
0.1294638468450338 
0.3560058745137011 
-0.5123007482841275 
-0.168663322448941 
0.06492163922820171 
-1.060002175097882 
1.378499093260984 
-0.1230357334484894 
-0.2181023110209021 
0.2209952895533478 
0.236691451735532 
-0.2821233308601943 
-0.07523812302312356 
0.8079136002891855 
-0.6821313106402307 
-0.1751476836430961 
-1.443565558761243 
0.08008307994563164 
-0.7275722393450625 
0.07821005023739352 
-0.4960506937089093 
-0.0310817982774084 
-0.3754541688189372 
0.09924985233271034 
-0.3190115595250393 
-0.7344446266061946 
-0.267045646721251 
-0.3074957927971594 
-0.2152913212435823 
0.7023931066107463 
-0.2428308578931247 
-0.1151839699951842 
-0.3462386058904727 
-0.1449455906588286 
-0.08065890941718842 
-0.06857089993413128 
-0.5931195648726715 
1.162032115670051 
0.07025073178507099 
0.207755838941 
-0.06095941384064462 
-0.05438595437455341 
-0.3976528860573944 
0.09680639423086167 
-0.2354779666012236 
0.2270376445598015 
0.1244255733272733 
-0.6541054176662134 
-0.2123106016835578 
-0.01736103096065172 
-0.4386442306151892 
-0.01419303765679108 
-0.2216948724782885 
0.379795456053779 
1.581764980336882 
-0.2577118170180699 
0.8094939877076766 
0.1820203988290153 
0.3181809356081742 
-0.3227482324844042 
-0.4267422889939945 
0.2746553656308756 
0.6686625670011022 
-0.1337214024661967 
-0.1661170365370136 
-0.09751252390687962 
-0.446516795771895 
0.1496536987529196 
-0.532841947262045 
-0.5851449061931229 
0.4976514882290148 
-0.2966251931190817 
-0.434014199207012 
-0.3365825397514157 
-0.560621484312712 
-0.4155536571357214 
0.05104031168714607 
-0.06153319963438249 
-0.4211288396814615 
0.1818842168918552 
-0.1260130271413298 
-0.5138961821609079 
-0.411089714221086 
-0.08327345968673203 
0.02728298825870394 
-0.002366386316108096 
-0.08960371838259744 
-0.411171539395098 
-0.1615569500658981 
-0.507638245043058 
-0.2563971857325924 
0.03577967169048058 
0.0311095454625262 
-0.3005009683025501 
-0.5237423772885182 
-0.08447454601247707 
-0.2589557935155365 
-0.159411244361392 
0.005986370118516819 
-0.1545583472615173 
-0.09073737337755769 
0.04104894813672805 
-0.1191687565729531 
-0.3420827428850371 
0.101770842391804 
0.0254461986548932 
0.2458158035532041 
-0.2501198210659885 
-0.5238953661579965 
0.1571964191569145 
-0.09603224085229461 
-0.3458760896936591 
0.05096376145218907 
-0.1348728631681015 
0.1439908071281188 
-0.5729977371074436 
-0.1858672592992322 
-0.4685249059566372 
-0.4267553753718825 
-0.2046459360120033 
-0.5182213534480015 
0.3831144068612815 
-0.2741343121691314 
-0.2339617695265556 
0.3198265005503533 
-0.1921266799606718 
-0.2497393758829571 
-0.5943851756781219 
-0.2172944705825248 
-0.3135559899995666 
-0.2626580687654615 
0.4144716201245973 
-0.300103684491317 
0.1798218841733369 
-0.3141542452695391 
-0.3474963539233663 
-0.09956448929669084 
-0.3498361528337096 
-0.3875005364687976 
-0.5944876562523056 
0.3841538438829507 
-0.04879030734817257 
0.461957437710601 
-0.3470168040955378 
0.4412021885767394 
-0.2394352649367842 
-0.2474709036075772 
-0.2834341041024858 
-1.8107158966433 
0.1247190175282337 
0.3696759320435609 
-0.0643882845232857 
-0.09299230109263229 
-0.3792231493854185 
-0.1961630099122945 
-0.6645143872948417 
0.03856907882717508 
-0.3017654742892641 
0.03189594688742963 
0.1758348465219624 
-0.7298235833254713 
-0.0270344662978936 
-0.336643710502712 
-0.184933857031999 
1.230302485441965 
0.0687854416025216 
-0.7474844312014205 
0.3486351519673249 
-0.8975667118547428 
-0.5706152790182212 
-0.5914306292969388 
-0.08265187325315536 
-0.5636756861593495 
-0.00679908303959609 
0.1406288398257985 
-0.3112562400050926 
-0.5068461897022211 
0.2136810797497657 
-0.4075724698774024 
0.557117143445984 
-0.5409193835418877 
-0.1003092703489745 
0.3740933550801042 
-0.2473493786822017 
-0.6322073333579717 
0.06194126932645392 
0.9624848674425289 
0.06347717690071657 
0.1678412782520113 
0.03271641203844516 
-0.1473128519150154 
-0.02794416963452844 
-0.1829116165267917 
0.05973733192965346 
-0.6610672499615249 
-0.3112556618492311 
-0.02846018766337684 
-0.5589389326932702 
-0.5487523704550927 
-0.003963394974229808 
-0.04635609371290448 
-0.4062261764918432 
-0.2999849710368033 
-0.2307631095173674 
0.3396669871724147 
-0.04215895877320671 
0.1451760295308074 
0.2771013055260613 
-0.4930364494794784 
0.5474289482416013 
-0.286959488056571 
-0.288050506230445 
-0.1557553563121427 
0.00412078345912503 
0.6237691951939152 
1.045175249159398 
-0.0907618926549808 
-0.8885598874775753 
0.1412600165122905 
0.2407410799417093 
-0.1119230804903337 
-0.2168025485674082 
0.3249508712937373 
0.2758597515147407 
-0.1117799393304282 
-0.3311263216981583 
0.04564834319550142 
0.3233674439426518 
-0.5755368588220492 
0.3156156984587789 
-0.1433291630087804 
0.3918039615126906 
0.6139764591767394 
0.1780309002580563 
-0.7413016827553138 
-0.4346417494651753 
0.7905241680757086 
0.00457410839208096 
0.2320376833482245 
-0.1834682751136741 
-0.3023237415775252 
0.1502336825830084 
-0.2684391508244944 
-0.1292176806261166 
-0.3987898932417943 
-0.2629467558135666 
-0.1497291495024822 
0.4950545055867547 
-0.3526232979002583 
0.2161432052120092 
0.3113226622133585 
-0.5616108800692213 
-0.1011355467421367 
-0.1321328638852464 
-0.6768360033757062 
0.6116735806184003 
-0.09379824814927341 
-0.1273928029440922 
0.04576635476211822 
0.02543090159212546 
0.3930002416547498 
0.124724052314355 
-0.08228610766816889 
-0.1722050303500888 
0.06836108366363035 
-0.6660156271724496 
-0.08478494335942269 
-0.11333694791569 
-0.2879837836991826 
0.8992675354192606 
-0.6627963108922786 
0.09314953323702899 
-0.3755376138139949 
-0.5717226304783665 
-0.2950289992079715 
0.4317239707643225 
-0.227020056939992 
-0.08293060902880078 
0.1706675913939436 
0.3007337909912654 
-0.2494197754673182 
-0.1599053424585045 
0.5068772637755679 
-0.9574869529749208 
-1.488263678165568 
0.7042265228002239 
-0.5802421342775284 
-0.1265701867723752 
-0.05102030242439066 
0.4702270122890699 
0.1810902773275187 
0.01760311359369287 
-0.4740732097596482 
0.5662560825150416 
-0.02651466107628845 
-0.2806424706256855 
-0.3535401921896074 
0.02894437319447522 
0.005466748613398008 
0.04347853940191013 
-0.3825377376273198 
-0.08533603870581342 
0.2842709692694214 
0.5937144278821957 
-0.2492974980585685 
-0.008921568220810742 
-0.6121292838619148 
0.7257287397568661 
0.3021560495500198 
0.2305975911261102 
0.5629357426888596 
-0.1728327014870153 
-0.4004875799489937 
-0.7030825607534947 
-0.07899315107415812 
0.232706635122146 
-0.08853064204317618 
-0.1715978682517629 
0.01547015121418808 
0.6273816168212651 
0.1410037647287523 
-0.2440435780236722 
-0.1847767558705942 
0.1319478477278603 
0.1451046033775943 
0.0671197759505394 
-1.06994057177784 
0.2306345606460728 
-0.910954801274626 
-0.3380515298828986 
-0.122115675879846 
0.5910579993249937 
