solver_type L2R_L2LOSS_SVC
nr_class 2
label 1 -1
nr_feature 512
bias -1
w
0.2942346047616229 
-0.5549132310711991 
-0.8956863204425402 
0.1456513132358872 
-0.842553944930987 
-0.1037322675186657 
0.8577342813141828 
-0.5123060874243426 
-0.2905234434334982 
0.09122411266147867 
-1.187244650426513 
-0.3488753151336997 
-0.5748639452889415 
0.8614200006751214 
0.08993445966901255 
0.4630371067332091 
-0.09200080815156476 
1.150238566743019 
-0.00673467878053379 
-0.4839036723626614 
0.1280071790100876 
-0.5095485618986914 
-0.9426880335447315 
-1.332760107224154 
-0.01816788273752462 
0.7416333823121342 
0.4163818595108227 
-0.525170362347668 
-0.01322030554350082 
-0.1889819568168498 
-1.266997876567482 
-0.2654777328020112 
-0.1279847286074127 
0.7728020505524122 
0.3214225522004447 
-0.3070278399665983 
-0.5294953210956806 
0.1650028636337746 
-0.7946069968789982 
0.1905367643464502 
-0.2274873848960254 
-0.3309564235818874 
0.9538840505180023 
0.486558791393898 
-0.293606800477572 
-0.0792612464493244 
-0.0564984187056343 
0.104839390587226 
0.5044200556089765 
-0.3242671271401976 
0.1115514451987017 
0.3974664688905322 
0.01721162219152439 
-0.01025252647632239 
-0.1003131522424891 
1.376493197029643 
-0.02756623541693331 
0.1002963095387262 
-0.3222675657113026 
0.9992608763983537 
1.167755252445619 
0.2320314468867783 
-0.4990470842967166 
0.2001374034414232 
-0.9475591896723589 
-0.4085441166478742 
0.07980559793130287 
0.322088340236595 
-0.5618442585310341 
-0.1818654071131071 
0.1561609566160095 
-0.2701799231097877 
0.2829029556450696 
-0.09562089047956711 
-0.5333492296321369 
0.05059787410925583 
0.4228074901885339 
-0.4151443592243938 
-0.4914441429961839 
0.6872316768322176 
-0.3430483546966883 
0.8237019698512834 
-0.1974881318251924 
-0.2032586624896988 
0.2424849530221499 
-0.2789928268247481 
0.1745244001788858 
0.4602534120997694 
-0.03692463375222325 
-0.6692380103977842 
-0.9939368532812912 
-0.5150634565208744 
-0.1893177912762018 
-0.4702702046141777 
-0.7827362174755007 
-0.5604458709667814 
0.04934155432889899 
0.1537926126271374 
-0.01817261655536368 
-0.3597546646168756 
-0.308122826163454 
-0.51331370140638 
0.2325898054136081 
-0.1430424717741214 
0.4213925950533442 
0.01560193971088162 
-0.8260297172670882 
-0.1527249593194834 
0.3143760397123463 
0.1722688361275967 
-0.1816602272792688 
0.2945415812228084 
-0.2414501728033511 
-0.7183102386661453 
-0.4541532016133874 
0.1292975615991089 
0.07172550197376316 
-0.602934559156352 
0.2744300739810607 
0.259475794812446 
-0.7411843588895501 
-0.09454697006052903 
0.4425124185857338 
-0.1057722950474934 
0.3371921031229292 
0.6507779136683817 
-0.6749932903839794 
0.09571255527133504 
0.06557232875016739 
-0.1962368004130345 
-0.05691045873908045 
0.1193426519787095 
0.2883202396326252 
-0.6086768627418028 
-0.332589986166021 
0.6685657952354592 
0.2100052099223155 
0.4733689696808866 
0.1199194894721366 
-0.6823016077394113 
-0.3430745727834811 
1.483084737406568 
0.08394474958055947 
0.1026791405544594 
-0.5321778328313801 
-0.549593804137652 
-0.3084661847528227 
-0.3086318828634894 
0.313466763086153 
-0.3031081046707586 
1.176545013641697 
0.3826136346031073 
-0.3321473738099188 
-0.2561666603567549 
-0.2816753745326073 
0.1099791484965595 
-0.1243497059421117 
1.311730137978803 
0.4885220192881621 
0.00490429296737108 
0.3094870009873256 
-0.301403771105046 
-0.5408953170422338 
0.2793252047478533 
0.4775958358286299 
-1.061127042728893 
-1.013863272251694 
-0.06297992802185609 
0.5708459019632162 
-0.08635762160199882 
0.06359298468446363 
-0.6860459146473926 
-0.1600088319572953 
0.1412342962276622 
-0.1048587925688257 
0.384927491378385 
-0.6412075638429343 
0.4828701240815508 
0.8195283661242116 
-0.8394091196742085 
0.3112082734977877 
0.492997732849654 
-0.1987143618389748 
-0.9100554216566007 
0.7020030917674963 
-0.495829081894263 
0.3112236597245515 
-0.6921260023039462 
-0.518566564554618 
-0.09981440164556193 
0.1051729078356035 
-0.3366791608155385 
-0.4350944295166001 
0.1822274408732149 
-0.1504594952270742 
-0.1612718576115091 
0.4632339911265239 
0.1062872906689522 
-0.7764149328750836 
-0.6612710975363617 
-0.8836695657997806 
-0.276542690193595 
-0.3641933974791043 
-0.1941692371604822 
0.2806599683629239 
-0.4241490168670091 
-0.2112133835995496 
-0.3966591430020658 
0.5143788863179622 
-0.5445548359288317 
0.0104871338040546 
-0.2107752723306686 
-0.3047195641731661 
0.693889943096932 
-0.322548009822799 
-0.6666988351427873 
0.2422673525729703 
0.5927607105788508 
-0.02926578198244088 
1.503648546765765 
0.2494710324039204 
0.1988134564689371 
-0.260209129221613 
-0.1843130558264511 
-0.1334729224166827 
-0.06429729727015869 
-0.1167459242739013 
-0.7242675890401628 
0.1366709557958984 
0.03101858957509241 
0.2125428492320851 
0.6128304219550025 
-0.08001331756860521 
-0.1854617441807038 
-0.1623148547198827 
-0.3703671039104363 
-0.2019681132337174 
0.5814187100439612 
0.6972334139033818 
-0.176524774878328 
-0.7616389615732354 
0.6579825114660819 
-0.3471816236080715 
0.6660973129685487 
-0.1533141974384739 
0.04652662278620236 
-0.9861009532625092 
-0.05136971071334421 
0.2048127537915813 
-1.008519019837463 
-0.1242327347704278 
-0.3005189774713343 
-0.3659597169618664 
-0.1537144658630842 
-0.8070893854179869 
-0.3223425214120488 
0.6364714392441682 
-0.4252493873669338 
-0.02074935247739377 
-0.6456544386158248 
-0.2543910433281025 
-0.2362158212006839 
-0.998223339349361 
0.2151889096841998 
-0.3431667755715253 
-0.241481027111643 
-0.01552710112546388 
-0.2959392317643162 
0.3097700150583299 
-0.1230323006029442 
-0.08346243528797781 
-1.200929126222089 
-0.1957982804999788 
0.1751778552613358 
-0.07408079924831039 
-0.5706511192825073 
-0.09103532643620074 
-0.3477205127768985 
-0.06706139510906796 
-0.01788267516911024 
0.08656360034773618 
-0.3121631859065027 
0.2449425220220766 
1.177737524108688 
-0.7173511782532982 
0.4160818114084072 
-0.2628887852895216 
-0.08067988900045235 
-0.4520480771325726 
-0.0811966066146456 
0.07231357249815047 
1.037495224122478 
0.8387138067872474 
0.08311772072993363 
-0.02052167867129897 
-0.01771171377550092 
0.09659211045234073 
-1.339871403469719 
0.07428938446218304 
-0.2090463679711056 
-0.7357869658419428 
-0.2634708296153729 
0.450941401759168 
-0.5467875887006879 
0.3248811632877282 
-0.7345754052039017 
0.05869400199369976 
-0.1818722279117979 
-0.4953448421906262 
0.1182190592028153 
-0.2647318623391275 
-0.4057471038962376 
-0.5148648995461628 
-0.2987008030868427 
-0.03853326880266146 
0.5275080452255934 
0.1572216629990866 
1.952950616082746 
-0.3943364285090672 
0.03555029324808291 
0.8596356857905596 
0.05694144785462069 
-0.2197708803014418 
0.04380126189297943 
-0.4677710184449645 
0.5694148960122787 
-0.1447376255551186 
-0.7148846086835112 
-0.3768509552706109 
0.2484763570288631 
1.337421994423282 
-0.4101403321891229 
-0.3907085538822158 
-0.566860694716449 
-0.7557353566673205 
-1.039559326792327 
0.3507054232433253 
-0.4606232845141481 
-0.7831796503072633 
-0.2463832905789516 
-1.013821425156857 
0.07156925248504192 
0.594074216234569 
0.03756059341454753 
0.9894509463999384 
0.864967018817752 
-0.01213763338222286 
0.3631031255496061 
0.07529836969452852 
-0.02222155495260093 
-1.537969666800455 
1.059203965375124 
-0.4655120608235573 
0.1192249890255413 
-0.4166461286389523 
-0.4006309955255485 
-0.6815568260203378 
0.306440438411561 
0.08621137016786753 
0.4677605549462204 
0.0916994409190829 
-0.2648076117217636 
-0.05605412254305085 
-0.4047328365404838 
-0.01803249204723244 
0.4239917304593354 
0.4679409741774136 
-0.8249974321674267 
-0.5189475445245396 
0.4502614590008989 
0.4574740313427345 
-0.6464284691485354 
0.06494486555624254 
-0.01834229100753353 
-1.184421661579796 
-0.2244497255055329 
-0.1473527266742825 
0.6185319929581612 
-1.209654408179031 
0.2828623889109552 
0.16422622309578 
0.02883661838285157 
0.3031295821284069 
-0.2944884360741527 
0.3421787289269778 
-0.07049413082166021 
-0.4533796382611414 
0.2939975890077223 
-0.5182539423009409 
0.3252175258805509 
0.4998935040997353 
0.5234087830425423 
-0.138759793980981 
0.2156844877737051 
1.137151465453652 
-0.8012942029075966 
-0.3533402107978865 
-0.9238410640343661 
0.1530954284675925 
-0.32509752513094 
0.7545638468930352 
0.3853115388836597 
-0.2283835708395109 
-0.8274954806923531 
-0.1859210707212412 
-0.6030086025335527 
0.2484054838872771 
0.0999455132123689 
-0.5924207808074311 
-0.4360499047690657 
-0.2206954723618861 
0.06015649811180881 
-0.08281533628843342 
-0.04415500578904751 
0.3105757035866946 
-0.2506825433169719 
-0.5747176006835607 
0.2739840212649906 
0.1257842557481363 
-0.3048597442258971 
0.01948851437746118 
-0.6702731518462928 
-0.1947896209018927 
0.180287964969046 
0.1952793196364343 
0.1933901967725264 
0.5218056571627563 
0.2818877877672489 
-0.09806084238287578 
0.06999648991599124 
0.4543188756844492 
0.4371012404313491 
1.301297356265923 
-0.1966853326230503 
-0.4558293363377109 
0.4923584933571311 
-0.4759508114036074 
-0.3290683583144881 
0.09654527411449787 
-0.5596460170684765 
0.114641541435474 
0.1573399490849719 
-0.0846793461436387 
0.0362942810507207 
0.04019514476690041 
0.3133024099758942 
-0.1228994683520369 
0.05389396963369123 
1.117770685637703 
0.2005183054696494 
-0.520562168316655 
-0.5180702576782272 
-0.06586763060866822 
0.6388529324016801 
0.1397190418598719 
-0.1802455556757454 
-0.4523647626777607 
-0.5157926772837029 
-0.09632020916155432 
-0.5753239287658662 
-0.2455484643843834 
0.4024844208579174 
-0.2985919129482336 
-0.2306989796036979 
-0.4055428121485131 
0.3227396057374264 
0.395490861200493 
0.7149361676367945 
-0.4629960947584142 
-0.3273446073947542 
-0.0388022685261394 
-0.2604517475517974 
-0.5784245383853621 
0.6915744281232583 
-0.2822863645760475 
0.2192529881923949 
0.7227543293337781 
0.4483125421912681 
-0.0009184431051948599 
1.524548198412444 
-0.3395256138597816 
-0.2049086535124836 
0.1897250898244571 
-0.05662550337232156 
-0.338521749917829 
-0.4947847685529155 
0.6847775587008844 
-0.6317431669706742 
-1.090828214859006 
-0.2584180860051604 
-0.09345257152740762 
-0.136038762768877 
0.0308301351215686 
-0.4542634644971433 
-0.2045566019735069 
-0.4065012730889538 
-0.6575150512554879 
0.6168023967811239 
0.981022855937535 
0.6384270125737164 
0.3187904552737302 
-1.470236212869797 
-0.2020891388000551 
0.4754468639472387 
-0.208538829344521 
-0.01214364667669302 
-0.3789138644953667 
0.3108526482939899 
0.03762419191581467 
-0.4172439683435104 
-0.8672030712922199 
0.9683456935906279 
