solver_type L2R_L2LOSS_SVC
nr_class 2
label 1 -1
nr_feature 512
bias -1
w
0.08947749113070709 
-0.8537197787193349 
-0.4370775330162042 
-0.1028228958874984 
-1.231874302048122 
0.09556751602442633 
-0.05861502488739333 
-0.0655232007479325 
0.6691042330398861 
-0.07739162089395368 
-0.3775697791043634 
-0.2649145336826927 
-0.3874576727317481 
-0.2276938131713641 
0.1741233298786913 
-0.01521145939923957 
0.475561657075169 
0.1277385593133397 
-0.14629676851924 
-0.2258269623399161 
-0.1902059116641821 
-0.1077630913829242 
-0.1574646107604954 
-0.7653496569033498 
1.101418261744785 
-0.1979662231020485 
-0.1562672963060038 
-0.1774811147353727 
0.2357253538479157 
-0.1069114645507224 
-0.07893633248188391 
-0.1717777366175529 
-0.3524236151618597 
-0.3768960887759987 
-0.1880901395122371 
-0.03889640532392599 
-0.320236718367294 
0.04317349600258625 
-0.2001843788371052 
-0.1306135509408842 
-0.1085481198885662 
-0.07720239510862002 
-0.2167752715186368 
-0.1558754463171284 
-0.04028592488166653 
-0.07829528241674262 
0.3316473119719353 
-0.2191409645094266 
0.7648432268559237 
-0.2807894460022354 
-0.1488668356583949 
-0.07953513393451231 
-0.4627093119089698 
0.1857579950757115 
-0.05601051811545271 
0.4789541128339018 
-1.350075401857438 
-0.4279477044547553 
-0.08149397246231166 
-8.812840992068922e-05 
-0.01602713875236736 
-0.06259705407438174 
-0.05738842945536243 
0.2644877794452173 
-0.6253900491289879 
-0.4342675381121887 
-0.2652302104107081 
-0.04043400253075937 
-0.8381685558987935 
-0.3894064906097845 
-0.04098924352457984 
0.07537250400753616 
0.08157169428776785 
0.1373647772962969 
-0.3554943704790242 
-0.09973374034544484 
-0.1345499713623253 
-0.2967495440573926 
-0.008874858837453856 
-0.1004528424118846 
-0.6458042197992407 
0.3720096459476413 
0.07216880762039656 
-0.3015624965498747 
-0.2304991305846699 
-0.09293157021045162 
-0.2206528116910078 
-0.08146499078162568 
0.1362869911482479 
-0.09394455330762508 
-0.876466660251935 
-0.00132151899559603 
-0.1854454555696944 
-0.2709366433620847 
-0.2545586792074277 
-0.02864635866624891 
-0.1621680428376553 
-0.345179858335791 
0.4257229328068584 
-0.1355288719081769 
-0.2030360650629026 
-0.2575940175464902 
0.2560440615553483 
0.931192489862269 
-0.1561272650821108 
0.2170604476042893 
-0.3759960121308585 
0.3952411487757416 
0.01669435353049618 
-0.1569104078689124 
-0.776228781341834 
-0.1232982004060714 
-0.3007448186820605 
-0.2642433958491655 
0.5828152856190622 
-0.3328855638692476 
-0.3186858072360798 
-0.1025530052669647 
-0.267586869922718 
-0.1454666128487198 
-0.3535919338374333 
-0.05432861556006842 
0.271621080322316 
-0.1464731556959367 
0.009640692717597319 
-0.1546655051002775 
-0.4661691340708943 
0.02851106070961582 
0.4195851131347516 
-0.2206708098873359 
0.02600242230704274 
-0.07985546147949271 
0.3348145227021853 
-0.2674239395587739 
0.06730557825318186 
-0.3228015345027018 
0.3488218946050226 
0.3074620293499267 
-0.202847414568709 
-0.481937582042594 
0.2147691284115323 
0.1398507253697563 
-0.01940945454910949 
-0.03181909148117119 
0.2013246794701465 
-0.233880090423216 
0.4749428186201092 
0.05364060395656092 
-0.07869517483227989 
-0.1604750045571309 
-0.6636009588086031 
-0.1133915433316629 
-0.08898243379882138 
-0.1291866576947177 
0.3265282132607418 
-0.2450164541734788 
0.3990566066641905 
-0.7433421296804569 
-0.1257576065522431 
0.7915535744856991 
0.1272952388808807 
-0.1441636545428863 
0.02208684198377182 
-0.09213125748389291 
-0.03090752588938458 
-0.6793282467594253 
0.1418846412506615 
-0.4559434535099572 
-0.1942267835032186 
0.3610271494080435 
0.04967043464770096 
-0.493627450233151 
0.4705389073577882 
-0.1314558038536248 
-0.09671820009967227 
-0.2106997311724692 
-0.9852879682465361 
0.1918136374242823 
0.4083108823621424 
-0.7212616718277004 
-0.0375636203991318 
-0.02014922254302801 
-0.387812500016365 
-0.3134964592050337 
-0.1877295810316389 
-0.8150075073836558 
-0.08852547792633293 
-0.2086790120798787 
-0.3524044046034236 
-0.08564595637357049 
0.2986147254852689 
-0.1491493091805576 
-0.1129184795471339 
0.03295746686275558 
-0.6045958220692988 
-0.0671574433167437 
-1.262430112361301 
-0.2906358657325656 
-0.4719703135750145 
-0.1106566123399519 
-0.5922885520052128 
0.1099132140198728 
-0.4445691496448324 
0.1633709743809596 
0.492906856357205 
-0.6711600497695978 
-0.3580958344342088 
0.1140332172280225 
-0.2143634454540084 
-0.06130089554893251 
-0.1597199080911089 
-0.1610554492587089 
0.3407855352541543 
0.3944901936398345 
-0.1137265292133909 
-0.08955565545066484 
-0.01374689715491583 
0.8675760055096384 
-0.2594548743096595 
0.4939584440194862 
-0.1360383907336611 
-0.04655768917630351 
-0.2885126061573811 
-0.266100220259012 
-0.09779864570502868 
-0.2308909693677257 
-0.1074679285765845 
-0.1371570461201995 
-0.06015328531003141 
0.262069945785362 
-0.2866037094512259 
0.1272481448561392 
-0.1845112556679059 
-0.08081980443746163 
-0.1029748650783744 
-0.08048928485860513 
-0.3834271308755479 
-0.005149389262204938 
-0.2217194664454344 
-0.008451415589403141 
-0.1980623626510081 
-0.1745088777594269 
-0.1634479727892233 
-0.0846327497540591 
0.7478595913253094 
-0.05536937642675827 
-0.0530506522947003 
-0.09800522851699453 
-0.06041447072327644 
-0.569226154570645 
-0.0845447173692568 
-0.1477734911205104 
-0.3354782492983497 
-0.06956766336899155 
-0.07226772227432679 
-0.5668263245990584 
-0.1151956097083271 
-0.1662261946652046 
-0.2861034530132536 
-0.4498222087966368 
-0.1449246755157508 
-0.09186072330082548 
-0.9629730192758715 
-0.2266071639711487 
-0.132978879380709 
-0.158991817998069 
-0.2919689901941664 
-0.3114723654840825 
-0.05942355505180733 
-0.6629238533511623 
-0.0972534426362324 
-0.8828603021222191 
-0.1226786503572226 
-0.1938821145569116 
-0.3613335858885546 
0.07911444552644246 
0.00989253438563059 
-0.3243859259557449 
0.002737058119251212 
-0.2705995109473106 
-0.3976084578031755 
-0.1485811751470945 
-0.183145183378958 
-0.2919961784037766 
-0.1516136320497386 
-0.1653764415841567 
0.05082702274321285 
-0.06319583761433856 
-0.3607974135654132 
-0.07669874892567162 
0.07884386012723162 
-0.0281691348857972 
-0.09815775916308905 
0.2042470892560794 
-0.1563307233986612 
-0.1645181831245399 
-0.3938630418684269 
-0.5464408987000837 
0.07797983333863888 
-0.2112129921716229 
-0.2384888836704248 
-0.233674406079363 
-0.1934291882158508 
-0.2861885450597531 
0.1392609976262943 
-0.4708177147669582 
-0.0339648613557349 
-0.3917180297956231 
0.6862876269950394 
-0.2595714665100369 
-0.1802501430896346 
-0.09946513687794356 
-0.03406304564419547 
-0.06653316581555119 
0.07357400747470592 
-0.378943730703751 
0.03188593210821525 
-0.5671383159873792 
0.4791289229570657 
-0.4604724146371425 
-0.1960132858747784 
-0.1174065602367387 
-0.007247071916878709 
0.3025052137913801 
0.1028522319267172 
-0.1528960498325238 
-0.2392794642017842 
-0.3703033082733995 
-1.445847598293881 
-0.107408223889987 
0.09992654426344286 
0.2500036897466145 
0.2056836031904294 
-0.2769186270591282 
0.5007893974344979 
-0.3094155609261424 
-0.1232292505259948 
-0.3927111837631158 
-0.2601083839328324 
-0.09651903173395986 
-0.2678092121296948 
-0.8629161285889745 
-0.0358304658265746 
-0.2126382453280155 
1.005469663240648 
0.4701564105108861 
-0.1133210298824922 
-0.04245218938327154 
-0.1436123009605718 
-0.366998041918022 
-0.3368664123756288 
0.1276558628059884 
0.1237580793590466 
-0.009034347224471464 
0.3204270927758482 
-0.06058211196421522 
-0.3509454017712585 
-0.0487373643625204 
-0.1849428867272359 
-0.2390605233611078 
0.1761535549323204 
-0.2907376408520984 
-0.1512268404766287 
-0.2573918266991271 
-0.9311470714958993 
-0.1856736264816129 
-0.456012227817529 
-0.4664429631929884 
-0.01859899869036788 
0.1460431416472731 
-0.1079378193826901 
-0.2141441351557898 
-0.06321869142409521 
0.3977182069239591 
-0.613582714444843 
0.1724649118123616 
0.2723809042570455 
1.262130461024474 
-0.4696371737729603 
0.005084050918498905 
-0.04674648834646708 
0.2737611846593268 
-0.2152122812951722 
-0.1244615439027583 
-0.1143988558548748 
-0.06358282182597674 
-0.01080823617570585 
-0.08486953266333562 
-0.08666076273173966 
0.3087353237229054 
0.7164536293255719 
-0.413586444998217 
0.021383408755254 
-0.1633633557255949 
-0.1514536553928008 
0.1090630727414836 
-0.0324664172578189 
-0.2356366406610983 
0.0469971935408899 
-0.1412094200223514 
-0.6823372593698349 
-0.1270359772586467 
-0.1604197260243254 
0.5416078848846907 
-0.07627243880973393 
-0.06211680593309687 
-0.1547307632625109 
0.1871563059916284 
-0.4688911816166024 
-0.204058774776945 
-0.107058528308321 
0.1393580641644468 
-0.1233616522896535 
-0.0724603288491019 
-0.7470053939110378 
0.01238185366591574 
-0.1984712739289062 
-0.355756813409473 
0.2458433057711675 
-0.09616094095438765 
-0.2429842644001241 
-0.9861819478018538 
-0.3315120258320003 
0.2213608036741977 
-0.3681764829459072 
-0.2508624546584376 
-0.2953707765912721 
0.2239972389259286 
-0.188847640316614 
-0.06877124825522202 
0.0755140461002884 
-0.5429916117598317 
0.07707182651441188 
-0.2128068931711475 
-0.3236762277681489 
0.2958644532188353 
-0.1904905572978969 
-0.1213519299262573 
-0.02825916771434527 
-0.1453815990452068 
0.07814703379814777 
0.2312166835009068 
0.2121333440203851 
-0.0640003124155961 
-0.1808494144889365 
-0.3704132975098156 
0.4015832558961959 
-0.1030420127347515 
-0.1227893052427394 
-0.1267965416133449 
-0.3904086096461604 
-0.3514468058994988 
0.2535573319903425 
-0.3042964648804276 
-0.310912824798158 
-0.04875382811228605 
-0.1578292299368101 
-0.3378804490298103 
0.4696488927447763 
-0.08107796057316152 
-0.4312668840758332 
0.1334503269515611 
0.5673990228308449 
-0.5755610524287406 
-0.4897303399775005 
-0.3998539312155033 
-0.01279011388153593 
-0.1969658294854067 
-0.2597224214573425 
0.1453909681087001 
0.01463002371155568 
0.1955863814007657 
0.08368931602354339 
-0.2224766016456228 
0.8118092359623119 
0.04843270384641658 
0.3125777618497902 
0.3386194965031675 
0.2343928681742069 
-0.1963856600697603 
0.1049432386563966 
-0.01118059140246708 
0.3559565634819838 
-0.1755911063957769 
-0.08266237754262382 
-0.3000346134547457 
-0.1969809567778525 
-0.2528029771818236 
-0.5931497196856628 
0.01904177480551128 
-0.3052906125883879 
-0.1354125522133397 
-0.2736468146555427 
-0.8903916182563042 
-0.08520030242596124 
-0.3058084827233155 
-0.25389456461605 
-0.3200845441992088 
0.1302533325734066 
-0.146089083386708 
0.2495279625826086 
-0.4221581097439859 
-0.1814711894214265 
-0.03758312476415655 
-0.1229951169774392 
0.1938426292060554 
-0.3622174105996267 
-0.09827039065781901 
-0.8033273960670544 
-0.2525892542878358 
0.5065524296329792 
-0.0609070212090532 
