solver_type L2R_L2LOSS_SVC
nr_class 2
label 1 -1
nr_feature 512
bias -1
w
-0.03926842429272849 
-1.076787777331431 
-0.475492890110825 
-0.1596288273628266 
-1.458689453239544 
0.3239451136016926 
-0.05240801261138663 
-0.555286070669285 
-0.4405961776952403 
0.09831107705716002 
-0.3911912033306088 
0.2076579302622648 
-0.5590740229970232 
-0.3589637391496392 
0.2248352769245018 
-0.884257737005314 
-0.04427359738461787 
-0.3295502004511421 
-0.3305838601391444 
-0.6404945587136407 
0.2312481518489452 
-0.1099027248283522 
-0.4453737897022222 
-0.1567131129061155 
0.262227105149603 
0.4042287396651266 
-0.2410059360261068 
-0.100683304603095 
1.710153105066624 
0.1196370508122048 
-0.027930571899004 
-0.07621826516040676 
-0.307592320196034 
-0.3325719476807162 
-0.0566972856964225 
1.095750743750788 
0.07994522702375641 
0.9432887539968927 
0.522260477348196 
-0.179258830714869 
-0.3340266077011211 
-0.4670892643118554 
-0.8533160742633844 
0.04168720379256412 
-0.1523857838555138 
0.3115789764184179 
-0.1144109539430773 
-0.2762372633625609 
-0.1516674651798591 
0.3711209478363487 
-0.535939041709071 
0.4995731240549857 
-0.3369996546016439 
0.2596787689463177 
0.05944957835474414 
-0.4660826700633801 
-0.7509301078946119 
-0.2626688516917592 
-0.4728528998838167 
0.8573048452437264 
-0.1835976552278825 
-0.07040968208534004 
-0.1396185155953585 
0.1596392611884069 
-0.6510299533617844 
-0.329267769493571 
-0.07523117833241878 
-0.2692489677612434 
-0.6891000048094412 
0.01781117295962116 
0.1047861438707968 
0.3427414914969383 
0.2448261473123874 
0.06947096321398466 
-0.4119535762919777 
-0.183789079680931 
0.03638641509155934 
0.09403418824747355 
-0.06159242105505496 
-0.1862840861419458 
-0.5401174760081855 
0.1300163799709521 
-0.1359511144530391 
-0.331059854041548 
-0.4810412119070428 
0.05161132323571734 
-0.1681863872455127 
-0.626819661799995 
-0.01201659919016785 
0.2583840236185092 
-0.9163372891919639 
0.4054623242819415 
-0.2822078503716907 
-0.276174689627218 
-0.07200960886065105 
-0.2341136893575819 
-0.386899132055994 
-0.2420976688044964 
0.005555395298218904 
0.0006751027058769876 
0.344024351870938 
-0.05639843864641218 
-0.1979429303588312 
-0.198542516291032 
-0.3184611548986089 
0.01213710167317233 
-0.726487051562443 
-0.09164746265618015 
-0.2410894663369414 
-0.01068476921940193 
-0.2495244523686065 
-0.08566549294920496 
-0.3264122128312603 
-0.3452954558421024 
-0.1907815545105055 
-0.01852166569826159 
-0.3802774331125332 
-0.1527960406286666 
-0.4676777573833389 
-0.2155311000871867 
0.4589864998516725 
0.4801894868309715 
-0.3942399327216887 
0.00403536379844864 
-0.5531780205688649 
-0.09400087157778249 
-0.02783949513877173 
-0.1964579770745657 
0.002236711684406796 
-0.4925498569898709 
-0.1609049051709106 
-0.2889212533320095 
-0.1623968920662894 
-0.1454679302810822 
0.1560648901184437 
0.1692345576184271 
-0.1901169491471813 
0.9464780578581659 
0.08747673355025051 
-0.2287981315898188 
-0.1598554493735864 
-0.1829931902559873 
-0.1791079751734124 
0.7610271747586006 
0.08266174521801206 
-0.1078774202684992 
-0.3236272637704233 
-0.07918108355055251 
0.2154325376252177 
-0.1885988028537197 
0.02621710759883816 
0.09573441666678506 
-0.3844397334724917 
-0.179324247460919 
0.06371877318792307 
0.1924344551764534 
-0.3355120807433948 
0.978073222856117 
0.05898358803460893 
0.02102034177549749 
-0.5231669679257692 
0.02657790740466766 
-0.2110349931887663 
-0.1867798327669789 
-0.08841454299912174 
-0.6672859793439379 
0.7790244205154132 
0.7679837267422784 
-0.09866133263810241 
0.3479418320905013 
0.5384839454090365 
-0.5133951374957914 
0.7897581716747483 
-0.2349763263343845 
0.1521767571939646 
-0.4840100332544119 
-0.4398609141800209 
0.9884977635266166 
0.2144718873253747 
-0.72551903371731 
0.1779154593522639 
0.04532279407069246 
-0.4723844267645621 
0.5502254026485071 
0.1413356212228251 
-0.06125820367296904 
-0.02926168864180769 
-0.4091652519987127 
0.1842929270253186 
0.04049171259706884 
-0.2381834198799443 
0.03880960422054711 
1.743072520100293 
-0.1069868826333212 
-0.577718955471027 
-0.2884683447768631 
-0.9947388816563592 
-0.3814387182953663 
-0.6367889069163093 
-0.6133772849963414 
-0.5196673151048808 
-0.1492941884214094 
0.03235369280320879 
-0.09188946079452739 
-0.3895860503552438 
-0.6308807367439355 
-0.4928506683310466 
-0.3917248491441645 
-0.4271703974759471 
0.1702406917302584 
-0.3795952388414042 
-0.2339554027445445 
-0.07279187882286194 
-0.4524757508697223 
0.177620478777192 
0.1898282817524916 
0.1758851899291981 
-0.2743216907993062 
0.3302224112617408 
-0.1809650911838426 
-0.3160548455712259 
0.174113228494219 
-0.3450820107794024 
0.1509612055294075 
0.233790714343359 
-0.1019172483756602 
-0.1977294538963472 
-0.5190952480042412 
-0.1157715082705867 
-0.3431029342463098 
-0.1338655818749741 
-0.1330543885304173 
-0.2075086103633139 
0.02002863365246097 
-0.008306970947327578 
-0.06295120018754137 
-0.3008261649512624 
0.04073461211064712 
0.3124297860368636 
0.001574250480592198 
1.966969275485558 
0.05737046556361298 
0.2410363811682258 
-0.1403330363715678 
-0.2166279379048171 
0.186778019782249 
-0.5507513387575694 
-0.1642643636094134 
0.0008760811289450334 
-0.00410654225478905 
0.3185416776015104 
0.07905081308907538 
0.1593683299302348 
-0.1746886761906344 
-0.2172036184026175 
0.1682786397596289 
-0.0458273934254897 
0.1285060924523733 
0.25492201781647 
-0.2420909334828247 
-0.002760613584132131 
0.4046171543629177 
-0.8299393525526315 
0.324859654043165 
-0.2399476503870182 
0.3984659033215058 
0.3277974810291201 
-0.1314075095476677 
-0.07624993048888555 
-0.5166806601070214 
0.587669282385933 
1.773146028671154 
-0.01128111989573387 
-0.4696534381716852 
-0.6448935320496885 
0.02045811393087405 
-0.2307642540020283 
-0.4056063286279567 
-0.1484501635531352 
-0.3466471460471923 
0.01490292996543622 
0.4610290466487937 
0.7885308393979876 
-0.4748052783424497 
-0.256653921463698 
-0.4192214869114366 
0.4326908621487572 
-0.1150387016355437 
0.1608104890760475 
-0.1881667320686804 
-0.1271297343658904 
-0.3848832349908696 
-0.08191421786149981 
-0.1524370405304044 
-0.3765781962061183 
-0.4904603403723464 
-0.6691674445483077 
-0.6614549201759816 
0.1853328197926554 
-0.1636486682191828 
-0.3505950991544929 
0.06708820602311889 
-0.229255406454545 
0.1151010679872442 
0.1437800880474254 
-0.4545102360195332 
-0.2415754543263026 
1.251955870437791 
-0.4977798795635812 
0.0006583550751797878 
-0.2215791504589167 
-0.3228623411797431 
-0.3972804711211181 
-0.1328182290836159 
0.2647705799723083 
0.5667729701726452 
-0.06468430811253395 
-0.5288972716632444 
0.2485654156356759 
0.05082795915779873 
0.03329359527661687 
0.3854785182999621 
-0.0584451786616927 
0.4923469556531966 
0.5218179853882334 
-0.2955391798236877 
-0.2428056133848192 
0.1628631846748212 
-2.254465894222664 
-0.06900108045024472 
0.04438666120034586 
-0.003710456683261917 
-0.322486162320672 
-0.3124029504120742 
-0.606341383503115 
-0.6120876456728536 
-0.1596342715516834 
-0.5040025291801247 
-0.3891443111164957 
0.02312370882222073 
-0.8274394715730784 
-0.5384537879075634 
-0.3080941161448724 
0.4434769849744775 
-0.2335479399980246 
-0.4220109552551006 
-0.1954048488509435 
-0.6800035205859902 
-0.5392815001086082 
0.04398979044301031 
-0.8784006232881317 
-0.062524564021549 
0.2952810018483031 
-0.522058669310374 
0.01862598993470743 
0.02561466149151407 
-0.4913431666827288 
-0.0845476777514643 
0.19686697205758 
-0.1845785586500676 
-0.6225765029239874 
-0.0127787210553198 
0.05498127574867447 
-0.1461897716010723 
-0.7600435679494807 
-0.264574261072697 
0.7074234445102844 
0.05546288900129105 
-0.1536527086610817 
-0.1118041899118825 
-0.1621641833032814 
-0.1158760250951966 
-0.3079813711415261 
-0.2005893025534836 
-0.09222822377996637 
-0.1324820939422567 
1.227142796368501 
-0.2213907444171459 
-0.7119786598166246 
0.791955271897604 
0.5249941183576116 
-0.3377566350448514 
-0.4763225186863099 
-0.1097833477266743 
-0.04442963336439382 
-0.2073214074756754 
-0.1570072358513809 
0.3352339518737439 
-0.3980074421465215 
-0.1916579019751361 
-0.4207703354390613 
-0.5570813360430105 
0.8259300910759773 
-0.004542573781551759 
0.08744005787337021 
0.4133220456551215 
-0.1704268950092733 
-0.9798757334985373 
-0.08617295561173673 
-0.163513941597664 
-0.9676260744209918 
0.05036515399304124 
0.1388477219064673 
-0.2554383171563522 
-0.402659390920109 
0.02548110727212229 
-0.3416697474523789 
-0.2291811169618692 
-0.2351951964519928 
-0.2714504172391608 
0.09653272840776393 
-0.135196399911279 
0.05378119820389028 
0.001133353809363479 
-0.4393237902288923 
-0.5161547534789668 
-0.4143436768454533 
0.0101216604682521 
0.1843131325661949 
-0.146613194885363 
-0.0786633275680584 
-0.5138852754349725 
-0.05712472576971978 
-0.2928792020861741 
-0.5902192039034327 
0.0170393456110049 
0.3208379369107842 
0.06912598681898025 
-0.1720057171880583 
0.1255135653121898 
-0.2548712471717314 
-0.7658979565956193 
0.9159091204153752 
-0.0466690360657841 
-1.227334069450055 
-0.5873866583104824 
-0.3266821137446506 
-0.3843802281808756 
-0.0227634095085876 
-0.5247187902804996 
1.080648894369453 
-0.3794845735748903 
0.2420357734249039 
0.02650414421921621 
-0.0129289876816491 
-0.03936387450039383 
0.3737813612884158 
-0.5482843654488851 
0.1809911894473699 
-0.08605416981637276 
-0.0910411894832128 
0.5383862277256629 
0.0297498440559934 
-0.5306303165467364 
-0.3510128050857653 
-0.01702000994044468 
-0.4762347908570013 
-0.4997411994845518 
-0.2123853354220854 
-0.1452459890066153 
-0.1716059088875304 
0.1089238199793749 
-0.2038530174298971 
-1.178554039751648 
-0.6894063949177159 
0.5908831827092237 
-0.745898082430162 
0.1094549340394297 
-0.3003748056769562 
0.1444226691921488 
0.07707914697710225 
-3.101221852689566e-05 
-0.3932852813505151 
-0.1283810532982107 
0.2193487185663821 
0.5097208801016241 
-0.7493591291018684 
-0.1621495381809514 
-0.03442045988812319 
-0.1902938026004085 
0.8171925056072188 
0.1855883250445679 
-0.3834759629877777 
-0.2611405757476479 
-0.216877782131863 
0.09333224774873433 
-0.6965202240789393 
-0.4647477420759288 
0.4009806682077848 
0.2798260027748296 
-0.04790103251425648 
-0.2232958643032709 
0.4020734409619589 
-0.5740782147250881 
-0.09580241711645383 
-0.08326748285850158 
-0.2696429848528938 
-0.2699741149379649 
0.5553833830529852 
-0.4581037295034691 
0.218762669675019 
-0.4659060348902344 
-0.2350441007396903 
-0.02545744609309271 
-0.243525478815493 
-0.09792874271577455 
-0.7409183648233987 
-0.3886442244306915 
-0.9028117758219973 
-0.2634806422983705 
0.01396263598510312 
0.1717103554243442 
