solver_type L2R_L2LOSS_SVC
nr_class 2
label 1 -1
nr_feature 512
bias -1
w
0.6472145107679491 
0.9029158264247391 
-0.0239364362819941 
-0.344881328634693 
0.4210385613377045 
1.109343777372039 
-0.1100324352011818 
-0.1307721019151033 
-0.8901189270304892 
-0.1686480450716673 
-0.5008777566426064 
-0.775060801102923 
1.429243519592196 
-0.4524239887794741 
0.09309403394649321 
0.3388134461685911 
-0.5265000321682473 
-0.4289322138624078 
0.632503287273705 
0.2479775354073864 
-0.1873282056379935 
0.5976151873980391 
0.6206617269344188 
-1.327968042717337 
-0.9630823376604778 
-0.2868983302415212 
-0.04190903096117014 
-0.35135833457508 
-0.6804683656770925 
0.4598155370250922 
0.5484842373897114 
0.5530637173687173 
0.312170612136846 
-0.03072402874047758 
-0.5430927375953548 
-0.1258974850099629 
-0.06877274135959449 
0.4873681449081171 
-0.08548594601766236 
0.1542195992965977 
0.01848259138596545 
-0.7288083840854376 
0.4078557060570739 
-0.2711449338176971 
0.3390224270273665 
-0.4882144158328998 
0.2312892099411139 
-0.6137338298923067 
-0.3175855466061402 
-0.3860109954853987 
-0.05674885166801021 
0.1178949650056113 
-0.1764560586671401 
-0.04191750632310221 
0.1290126885326667 
-0.4157730530267083 
-0.9940953408133019 
-0.4103152278165814 
-0.05486472500796823 
-0.1343098858351291 
0.1435415291101422 
-0.3442792475394167 
0.730288078085203 
-0.500430632051438 
-0.4965050848506985 
-0.07049210429068113 
-0.996195542676821 
0.8369311167750666 
-0.6962268599698327 
-0.4506656967623235 
-0.1336021676472259 
-0.03284033248238152 
-0.4075556690392633 
0.1084958942404935 
-0.02384535097552307 
0.1725786344622966 
-0.4569218642008978 
-0.7770181641124593 
-0.1252622857449948 
0.2404883875580578 
-0.6861549885682279 
-0.2206903667215735 
-0.4874413472201593 
-0.2131575994411625 
-0.5175698633371449 
-0.4635314234472298 
-0.1767445920783832 
-0.4939244108969545 
0.2238974378302208 
-0.4575020890490296 
0.7402721283074315 
0.1745129845585127 
0.1169825462402427 
-0.1603271269026238 
0.07767024618882053 
0.132354965218701 
-0.1296974746252127 
0.6504450720248516 
0.04780536845084953 
-0.06080526836536743 
-0.4941850457393019 
-0.2481997000739658 
0.7966457125911989 
0.1002601587009115 
-0.802242328684025 
0.04154360231715486 
-0.03163479859459069 
-0.2222206499428358 
-0.3964242065650803 
-0.4469143300030248 
0.5481805197242789 
-0.4418817855418165 
0.1519069328284967 
-0.6498548139580745 
-0.4075688116813443 
0.2857149984045161 
-0.05446527435416288 
-0.7469897139239798 
-0.272679802480676 
-0.34081349159193 
-0.3536515812732139 
-0.2279813856978284 
-0.2835602273537614 
0.01840668014035853 
0.4977549697699201 
-0.1863912579982166 
-0.2775607097332476 
-0.4942004341415376 
-0.2965250917889908 
-0.02389514823228352 
-0.02088382469491764 
0.9584589866202844 
0.5383803180503968 
-0.1280078509601096 
-0.2203570211358797 
-0.5296059424994792 
0.4444142594961573 
-0.1277193094149769 
-0.7196550895612301 
0.6389937209798822 
-0.09095497055180433 
-0.767924591400311 
-0.2583052691769842 
-0.1518946912354926 
-0.2973207502413356 
-0.5168621624162788 
-0.005169447227471514 
-0.4183879598613202 
1.131416450958435 
-0.2219160521399896 
0.2226729809858592 
-0.6302663754793199 
0.1159560495938158 
-0.07660647320153161 
-0.7757440164796977 
-0.172754968696713 
-0.1038775288840385 
1.35234726009299 
-0.6230706322954159 
-0.2604220986452782 
-0.1393193430078178 
-0.6083294629893973 
-0.1785058055670545 
-0.1619278400381686 
0.05950535312859029 
0.7035491998887758 
-0.5764831827956373 
-0.2431993368539987 
0.725751211666507 
-0.6000796925707599 
-0.5370251813371832 
0.7108915658428361 
-0.001150194879482525 
-0.423753891928468 
0.03870384119055224 
-0.311620527179098 
-0.4716570005333044 
-0.2530409584385287 
0.3162067066990202 
0.2165118673296265 
-0.03789827188509174 
-0.7201893134457458 
-0.5051902333148514 
-0.5334134779421519 
-0.01724515531498073 
-0.7247805745510862 
-0.08916544346930537 
-0.6299527204824453 
0.5134475244030059 
0.02037861035738346 
0.1840014185556196 
0.2780800585089327 
-0.2767667832807563 
0.2366488287672857 
-0.06791588241123772 
-0.1371588594022467 
-0.4670420262839123 
-0.4707392658973635 
-0.4231202036152699 
1.602260520963012 
0.3721861008194753 
0.08619533274282461 
1.415757397323171 
-0.05045458057814029 
-0.8727992136082422 
-0.4895334517483776 
0.6726237919965979 
-0.5832987233692789 
-0.5730905673479836 
-0.5014979442478935 
0.3199919547367704 
-0.3342099622832473 
-0.2024345939478493 
0.4112217251671652 
0.5806695661220879 
0.08983099083869396 
-0.6808011363921589 
-0.1823399464428734 
-1.076939736723681 
-0.4641448042413877 
-0.1452218591138905 
-0.212197815745584 
-0.4310514123406825 
-0.3183362424967667 
-0.188900740869878 
0.4078298509991115 
-0.5146855970416898 
0.6233985406460271 
-0.2036633440433697 
-0.04581985888559988 
-0.2814923167632171 
0.1797454969629453 
0.4230827367158236 
0.2684153552324168 
0.3770205196061898 
0.2853047663689378 
-0.1698447214545996 
-0.4066684297036964 
0.2084492531427791 
-0.2713147086582599 
0.3844151807712111 
-0.1655536231719044 
-0.3109198502606546 
-0.4333299392465155 
-0.1067616172223358 
0.2127287877563181 
-0.3348519602810886 
-0.09304239028182605 
-0.3467467815983636 
-0.08494918415079848 
0.120705419777632 
-0.6436670008519939 
-0.07717276159943792 
-0.2727374730464716 
-0.175937662055243 
0.002999838059990355 
0.9346850886882003 
-0.3164733844259008 
-0.5137059456222138 
0.08229263651661103 
-0.2117239989556124 
1.164310981468378 
-0.5011791450813556 
0.4755991744177774 
-0.06179691373527896 
-0.271968748193642 
-0.5015685933962127 
-0.4567566997579252 
-0.2456941328574336 
0.4684375181082551 
0.7379096031347165 
-0.7474366077276293 
-0.4173648600768735 
-0.02662861931850862 
-0.2334107169329471 
-0.2152630087046901 
0.490886657251815 
-0.1058060419758268 
-0.3538561271283756 
2.642223369186592 
0.3191356509891297 
-0.2771186127467665 
-0.003556648989948036 
0.9433290750806934 
0.3422363256984488 
0.1050726589665994 
-0.201923851105881 
0.1742538338961242 
-0.2974262845994821 
-0.1276238738148601 
-0.1523061211144828 
0.4116379380326415 
-0.3507221192004803 
0.1291394055483906 
-0.1625329352510761 
0.1155836698119329 
-0.3711454559492797 
-0.8135905836262199 
-0.3689284771881279 
-0.2821180931567933 
-0.4339827796997899 
0.4103927570433678 
-0.6204273955265721 
0.03124783064918411 
-0.6138489868594166 
-0.5951468912633321 
0.4661839571156301 
0.200381936921995 
-0.01358746214669682 
-0.5277785127119948 
-0.5054273993501268 
0.7784429774776233 
-0.399372946130079 
-0.1771181026762936 
-1.040042301687814 
-0.06652531983417857 
-0.3427049801960812 
0.0343863379010709 
-0.7331088047798641 
0.2321719490236892 
-0.2722179625308345 
0.4361514814181732 
-0.2820000392079565 
0.03097000892787786 
0.2161073212129117 
-0.6110908704688859 
-0.5988014904447752 
1.525839968386102 
0.3681218924657013 
0.3519615176901485 
-0.3591590848510569 
-0.7526184543847677 
-0.4282091316895139 
-0.6203658201528743 
-0.8600336212619579 
-0.2511121932250339 
-0.3471496469387812 
0.4944716696441294 
0.3337644950078976 
-0.1168978425001804 
0.01927927091164121 
-0.3287097986989134 
0.09640137669588311 
0.1469557836800597 
-0.08578975969470294 
-0.3551997534735417 
-0.009003726675309423 
-1.189671434936355 
-0.3606593862879738 
-0.424495767018809 
-0.5113518501014834 
0.07914875686420884 
-0.7939277316674597 
-0.7152578707658007 
-0.3659989450155464 
0.0183713248337605 
1.591424844097076 
-0.3012748649115671 
-0.4628664060291116 
-0.3447618773423358 
1.041565257337414 
-0.3742612730587034 
-0.30202486827981 
-0.2476553216581864 
-0.826905425559905 
-0.3294998506689439 
-0.5210591275956097 
-0.7071344418128513 
0.2788738820028845 
-0.2948106678513166 
0.2022624733576762 
-0.7085874696515638 
-0.07928513371800008 
-0.6226225439826731 
0.1818035989087588 
-0.3095094228678895 
-0.2635489225035019 
0.5783448867689179 
0.9627003047363177 
1.438576822759458 
-0.3661092458576128 
-0.09923392382485344 
-0.06846397753677218 
-0.2337388431974927 
-0.1360169967709828 
0.04345271644225625 
-0.1027084709386126 
0.4167661024096782 
0.08602094652680799 
-0.1762454534669968 
-0.7358646557122339 
-0.3833573989647566 
-0.1074237079636754 
-0.05636943678058341 
-0.5507602066508382 
-0.5424278006791945 
-0.4238844202546085 
-1.047970469986977 
-0.2605528602729817 
-0.4361672762582544 
0.09316804447006256 
-0.4059509670533478 
-0.4196977153004025 
0.05908084403536201 
-0.6080347681317895 
-0.06879003381242721 
-0.2699511219626258 
0.08085970419401585 
-0.4071212261569045 
-0.05154003754562635 
-0.2598545410411764 
-0.2542191309840791 
-0.1660348796068921 
-0.07410336138979623 
-0.3346401958748381 
0.1534253290747484 
-0.7686409997589784 
0.5188546069901542 
-0.01532074455011893 
-0.2094444357915959 
-1.053780166041523 
-2.004268013473069 
0.5413812217113234 
0.5496702056819114 
0.06821790425461893 
-0.2861713086388661 
-0.1445628051327889 
0.1461655868800762 
-0.4425040711251154 
0.1392686929049666 
0.07237572669268047 
-1.384304536292408 
0.3733744516771697 
-0.2562473579854409 
0.5470481053510807 
0.2642788628292791 
-0.08510503860862466 
-0.2306197023590545 
-0.0738653602046976 
-0.004598759901132846 
-0.2169279169999606 
-0.4410283768909392 
-0.0794743210532935 
-0.01858062067882095 
-0.359153013857992 
-0.08279026091541684 
-0.3688872051422313 
0.5101899998844808 
0.1731373944589697 
-0.1368443567994188 
-1.019940966801448 
-0.7504767478694861 
0.483512733956 
0.1606686893499858 
0.1728746795967332 
0.02520164538236105 
0.4017684670538017 
0.1930757372961431 
-0.4828273455976606 
0.2573907978431219 
-0.3684852837694932 
-0.2149839609995606 
-0.5122319749323552 
-1.345034463328649 
1.081247035197452 
-0.1148707147800602 
-0.04699714764959671 
-0.3797810954863685 
1.739445100377712 
-0.3829800992814252 
0.5032743291087075 
-0.5878722083190735 
-0.1514990211917239 
0.06825187152860086 
-0.02938580809203085 
-0.5266224026632835 
0.4372803671758073 
-0.4064454852623064 
-0.2271328070968899 
0.4636080716280617 
-0.7858724291923618 
-0.1441648758957544 
-0.7754948277282154 
-0.2472068494031763 
-0.4468003685095223 
-0.807489283059578 
-0.2579208420614607 
-0.4666140799229972 
-0.5287387164106627 
-0.07681787248463154 
0.06714548210587437 
0.5444576664207419 
-0.4269858925126535 
-0.7990342223927032 
0.3103073677502037 
0.02622059036670257 
-0.09703751787676708 
-0.3132080766072586 
-0.4291218094320854 
-0.1039686222874756 
0.4496927271910098 
-1.513905404289721 
-0.04662771912251358 
0.1554335219361467 
-0.2902958648998038 
-0.2720070713126946 
-0.3791293603099995 
-0.2698588296234037 
-0.7410302867315931 
-0.482345672770444 
-0.2786669773432703 
-0.0902851646082159 
