solver_type L2R_L2LOSS_SVC
nr_class 2
label 1 -1
nr_feature 512
bias -1
w
-0.04119160878304323 
-1.00030878396216 
-0.6285599316336516 
-0.07195728740815166 
1.51509500347957 
-0.2765633419287704 
-0.1473226759122941 
-0.6451280735178586 
-0.3344561969833512 
0.1727148183904826 
0.9617152649042298 
0.00428914634093042 
0.0870783440675164 
-0.2410450617437295 
-0.1778012998492453 
-0.2219256216863547 
0.07092554347178089 
-0.240859166165065 
-0.5556732123651245 
-0.01811419376578654 
-0.3933576761655481 
-0.07463993993466995 
-0.1020866002909954 
-0.359617749354451 
-0.8142126573998046 
-0.1801864378261891 
-0.06238349318001135 
0.1615171063087094 
-1.148095723585554 
0.8933459575892622 
-0.6292937466972961 
0.1879641604278997 
-0.3391709347463117 
-0.3715054030926488 
0.05268588237427228 
-0.622618497678576 
-0.158185069305145 
-0.3813291832582145 
-0.4635687558844863 
-0.1945422470432527 
-0.2882129045771457 
-0.3709596067090092 
-0.3075633138679329 
0.1920728126711797 
-0.1074239941205961 
0.05490064602146533 
-0.0544711999155155 
-0.3770586460934685 
0.1920393648778919 
-0.3270915243654718 
-0.02434328438286159 
0.8902371197929861 
-0.4482689278251434 
0.2066550777205531 
0.06605100967310047 
-0.5104516733868625 
-0.2274920414442982 
-0.2085089121331432 
-0.1546528226304899 
-0.3423855516817922 
-0.4022952182235712 
-0.2332695461775691 
-0.04815030289857839 
-0.06638199445180346 
-0.8784328840732943 
0.05093367223157379 
-0.4331264892370816 
-0.1007675295249691 
-1.096413609799936 
-0.2240783250634207 
-0.09442639424251655 
0.03955796352329612 
0.7323575539643377 
-0.074006469349569 
-0.1709100556940871 
0.02993386033526814 
0.005152883566949082 
-0.1049076679003953 
-0.003316192092472428 
-0.1671554982548664 
-0.6806650274741811 
-0.1351656580354199 
0.7559913510757847 
0.02573129212060652 
0.03577437995957462 
-0.1344865358211793 
0.4976187668808159 
-0.7589281947650494 
-0.171946714390041 
-0.7773627953576019 
-0.4008340481082499 
0.37137074259654 
0.1586588359516801 
0.1566132144699017 
-0.09244410157797835 
0.6694405022149001 
-0.03992913288219683 
-0.4663518730317989 
-0.08355322887116139 
-0.08193596276758534 
-0.3197232367304569 
-0.2179755350543577 
-0.3836907351740338 
-0.3335301607920226 
-0.6742737211302535 
0.008512847296181941 
-0.287934684362614 
0.1209587817080777 
0.3516779642844735 
0.2404416110704843 
-0.5294946655396294 
-0.286956621823402 
-0.158459915824847 
0.2264205069959844 
0.1434165806326737 
-0.554243560289969 
0.3951022704391766 
-0.5445154641514935 
1.182816944825697 
0.05380619640203648 
-0.4614626674952046 
0.3122408817337552 
0.09567614672934571 
0.2498248377689367 
-0.3073343557518548 
-0.01837125536884043 
0.3492999862899014 
-0.1988826516226145 
-0.1328127793863011 
-0.4723828728501182 
0.02927677423141216 
-0.3238291025359414 
-0.05268236722672334 
-0.501906892727942 
0.4916698302604368 
-0.2731053469905059 
0.7339616767767652 
-0.003946717500053876 
-0.3805499830058375 
0.1594246077175415 
-0.1636525862483366 
-0.1655675043317734 
0.3103303235777152 
0.4127225655140795 
-0.05177236790734531 
-0.4075367718931501 
1.605168097204501 
-0.250607646981168 
-0.3186425999745168 
-0.3086424675940268 
-0.2067805202052609 
-0.0072723420305637 
-0.224394703448796 
0.1240445953989498 
0.03141242640483784 
0.8117459827803524 
-0.4164350138673449 
0.0222600196130377 
0.4093704833775501 
-0.1315316839274613 
-0.4685953303773845 
0.06786541189098895 
0.2141591617213129 
-0.1239722462515397 
-0.1318932289856127 
-0.5759603512433243 
0.2992276345941343 
-0.5934772524681052 
-0.0001816054697946613 
0.09196089642616948 
-0.3139608056886032 
-0.7683253785941184 
-0.1530456960811868 
0.03558289761742142 
-0.009113529937339913 
-0.4778638433653573 
0.170476193276734 
-0.3191966979135349 
-0.2189739993913817 
-0.9833099586489608 
0.3002064805520536 
-0.1564285521570034 
-0.7050043177587585 
-0.7644202275459667 
0.7192613272780529 
-0.4351650480120219 
-0.07396225174499009 
-0.1748063473157318 
-0.2556281964132471 
-0.08086296689017165 
-0.2210579763168746 
0.07190744032031429 
0.02960480644748358 
-0.1020477265291781 
-0.1933138031456245 
0.2724062939928157 
0.5385347506935164 
-0.192724082368162 
-0.1894661052541652 
-0.5307555417236348 
0.4802191172531454 
0.09743443626698763 
-0.7321895748363573 
0.5536807713011292 
-0.2229927785216358 
-0.6746032788123979 
-0.2484744244683338 
-0.2756468463703589 
0.4904125352574851 
-0.4204685133174353 
-0.09384859225827774 
-0.2686088681023773 
-0.4229617000890432 
0.03261087786990864 
-0.08494811790036902 
-0.5575346620377017 
-0.2943795957262001 
1.487610427926806 
0.3998513480007384 
0.4926143902985121 
-0.0763401508551961 
0.1289356040925086 
-0.3778794902306776 
-0.09370956389861253 
1.816790573398008 
-0.1798565142293855 
0.1094748041526622 
-0.8019841002925489 
0.08987271996047226 
-0.06899761305277063 
0.041347382731593 
-0.1216309257464079 
-0.1968947732165982 
0.3426213800130676 
0.6494198578492689 
-0.05405154586240855 
-0.0323002701292804 
-0.1204850769141777 
-0.5582731883619304 
0.1096374111272859 
-0.8830274599630391 
0.3292560323026222 
-0.1253776028190504 
0.3224746448513461 
0.1652414372185405 
-0.02277753184213578 
-0.7099640904219203 
0.02767518005089636 
-0.3949467485665463 
0.03529702438241403 
0.02108626779971742 
-0.1422115623261999 
0.2402853540560793 
-0.1090335272029776 
-0.5663722985077587 
-0.1013212963393193 
-0.06434445082499735 
-0.1204331637374485 
-0.3323228024544334 
-0.6102230550710105 
0.4168543558029317 
-0.3612097478831784 
-0.7627966993998168 
-0.5202741446239939 
-0.3456005435433204 
0.0554932493099757 
0.006206424452076864 
-0.2115696364226696 
-0.06387301186318639 
-0.7919999858507648 
-0.08885303290565696 
-1.083463451426047 
0.1411735302997548 
-0.3454143223248546 
0.3174358485250854 
0.0425250545049309 
-0.1978198347455875 
-0.1346132318128659 
-0.1097989921042406 
-0.3331566691037716 
-0.3566264598621064 
-0.3086612299853536 
0.2259601145449947 
1.081817937348552 
-0.584042294894259 
-0.02730661882178492 
-0.1624672931126364 
0.6334573153007222 
-0.2326321154270493 
0.9473002613189019 
-0.164492475040496 
-0.2598163070597722 
-0.06702220297585171 
0.415099506319733 
-0.2353749900415379 
0.5267092940596954 
-0.118502494535811 
0.1714150996247915 
-0.146834366643656 
0.3801885429389117 
-0.5457792301962829 
0.8128693239174833 
0.3185060260391098 
-0.4423657142851798 
-0.3107903294697392 
-0.5804036796124665 
0.05024662928583076 
-0.6486516177905524 
0.01331631214594418 
-0.3621586002800368 
-0.1718238944374021 
-0.1435803773805814 
-0.4502407984890739 
0.2716427885361626 
-0.5292935368631778 
-0.4991288925665782 
-0.005479600493556292 
0.4158451651330072 
-0.04206259120097043 
-0.6228138657373393 
-0.3685935740826978 
-0.2078289484660824 
-0.1033904552721124 
-0.2043130644167689 
-0.2107470230598747 
1.231750003986872 
-0.2639036712410433 
-0.3216340636954527 
-1.822755454184293 
0.06594176687735691 
-0.1655694506642877 
-0.09065862596596364 
0.03445711909747023 
-0.07872170672099972 
-0.4217038457175467 
-0.5008407443566064 
0.1997652364484263 
-0.0927883527070363 
0.694514667852686 
-0.154375753717595 
-0.6975376361463925 
-0.4961342379595552 
-0.056893757684738 
0.6679948733873786 
0.09754259013879205 
-0.5051487165494825 
0.08875245457207988 
-0.6143701387936948 
-0.9101484822913073 
-0.08705894189384152 
0.07563014139451142 
0.5880190434811828 
-0.6495631477862194 
0.07812535038228093 
0.4627140834293862 
-0.2567078098786622 
-0.3895488819545376 
0.09100965193780715 
-0.2928520910781302 
-0.2142360561578794 
-0.8155074335199021 
0.06472133277528799 
-0.2210590433907602 
-0.001538400076112324 
-0.01967058148528965 
0.1564296777922966 
-0.6821780780421257 
-0.5801243971501159 
-0.1795300516018654 
-0.01832378174317531 
-0.2833401404939233 
-0.5750253277270768 
-0.3153404188307193 
-0.5472629407019191 
0.878753736217222 
0.3103939423126451 
-0.08268593833923674 
-0.7770937456226052 
-0.9116715952267086 
-0.4441705316186701 
0.06425760524833501 
0.2601199776116263 
-0.3836893042600006 
0.8002762834425808 
-0.1881144702313584 
-0.2133009904608784 
0.3747936255686243 
0.3919420706472299 
-0.2493423666064786 
0.4422667170149674 
-0.1440256385890971 
-0.1853269872105873 
0.1580296483384025 
-0.03776143823062573 
0.04555744312027147 
-0.1342918423593581 
0.1582463848455637 
-1.24423192879856 
0.08881420419753722 
-0.0156297892062098 
0.6307371423467765 
0.3930031153497544 
0.16872086151249 
-0.2509683924721908 
-0.1270360907252041 
-0.2846112605333415 
0.1051252471808361 
-0.1703921336660835 
0.162266982229079 
0.3064530839852531 
0.3787965467548158 
-0.4089302448666175 
-0.3470110792239666 
-0.198931837640629 
-0.7832270063539665 
-0.3838069881713901 
-0.8624345815537561 
-0.2793107230947867 
0.07453539337287145 
-0.1089571493773562 
0.02601675521151245 
0.1042627939933794 
-0.04550325151393392 
0.2977433256814361 
-0.5206972924269035 
-0.2290298974398954 
-0.2109049364587312 
-0.1777001379220256 
0.06811050290279949 
-0.09850136479043238 
-0.06535766685092045 
1.53877009813069 
0.7499399759884444 
0.07022971759027653 
0.1037461462686503 
-0.196109384645403 
-0.4624650284437548 
-0.2362012310630418 
-0.08422157540856305 
-0.4759233841780862 
-0.215386166286506 
-0.05435564487052698 
0.2880345666756212 
0.6058635703096654 
0.4110027540575431 
-0.2051961643707759 
0.1604647264594035 
-0.007287515759188628 
-0.2306795421826134 
0.2209479519197692 
-0.4460088777992268 
-0.07168065332381109 
-0.3141891487338958 
-0.2803276022786845 
-0.3272717383196981 
0.2401793776973921 
-0.2061873581199656 
-0.4011678010843474 
-0.4132810560002628 
-0.1097520020532931 
-0.1200596638736736 
0.2451566379784041 
0.1533045124856163 
-0.8315459702244797 
-1.267754022708279 
0.3421207399331491 
-0.4752356413163165 
-0.2263696263928399 
-0.153774643902937 
-0.4873286015817039 
-0.2246330990761312 
0.2024399008595399 
0.581628611435911 
-0.3213028568050454 
0.361060448251627 
1.104694643975273 
-0.7498974277170298 
-0.139795452210508 
-0.2628463680571733 
-0.08017189741686538 
-0.2044010876411292 
0.05164447101485917 
-0.1768923568202704 
-0.2160233413723676 
-0.1759197792586038 
-0.3093665885722553 
-0.3599680791749656 
-0.7316568432719482 
-0.5160206133477763 
0.2584338636426048 
-0.6032970596451611 
-0.1882115520717406 
-0.4245120378431766 
-1.220418444833048 
-0.1115544383560624 
0.8390443207388563 
0.1719421686098926 
0.06986910690586007 
-0.06654826531788752 
0.1510650057680676 
0.08105975683102537 
-1.069562428353956 
-0.2397483932867278 
0.648956571646797 
0.4285987418540167 
-0.1538114954224666 
-0.268168437705397 
-0.6283432287640359 
-0.08316630145724793 
-0.2692682265897292 
-0.3258010253366408 
0.01659682513762206 
