solver_type L2R_L2LOSS_SVC
nr_class 2
label 1 -1
nr_feature 512
bias -1
w
0.5067665659659578 
1.029597087082569 
-0.8535664667882115 
0.2986770932966629 
-1.503092111482381 
-0.4329212326432059 
-0.4921539258172195 
-0.4245103703329918 
-0.03706149107246857 
-0.09232342293177256 
0.1006140107697707 
0.8132239114844915 
0.9386980038260484 
-0.3326263846843642 
0.1178027287791109 
-1.038895583666472 
-0.234727172083102 
-0.1798809783075113 
0.4680567894701433 
-0.1026624295519131 
0.6389028251746137 
0.3160404930400075 
-0.6341681066152185 
0.114257367443447 
-0.4758865683339189 
-0.2896304807704566 
0.4017783795664908 
-0.2508718153114008 
-0.7854078275405805 
-0.2123742261554518 
-0.3596325102474058 
0.5447130906561679 
-0.4209795433817011 
0.05570762123311002 
-0.004038357607215728 
0.8276527817321417 
-0.09483762895947231 
0.1718196516528782 
-0.2352584313199895 
0.1920214015030276 
-0.07798633015068172 
-0.2958181563745066 
-0.5360017473494401 
-0.1707839316672735 
-0.2229477363012629 
-0.4074106513547984 
0.01208557888072696 
-0.1892458949513543 
-0.5631344028373398 
0.2050958041735035 
-0.1053810832425688 
0.260460772959507 
0.9173376252892755 
-0.2969980699805083 
-0.08073824075643302 
-0.5455724641111397 
-1.003597667246134 
-0.1248100565950288 
-0.2012745638460102 
-0.1849140515663142 
-1.708953661920407 
-0.09041618533008408 
-0.02405896926875938 
-0.07178232062833102 
-0.1203940896749751 
-0.6186591449548265 
-0.4996332026424721 
-0.07503161437705208 
0.1116691616644176 
-1.178675917703106 
0.3404829174339635 
0.427630423571497 
-0.5894162008359467 
-0.2710604224452507 
-0.08090380178472348 
1.226972578281389 
-0.4062603881158004 
-0.223258131835443 
-0.08290580112209291 
-0.1091450277949477 
0.8371683433423871 
-0.1298436091113572 
1.383496123864617 
0.8394159389038031 
-0.123493231479719 
0.3359747844227934 
-0.1664745722055436 
0.08891707978608314 
0.09893777530351333 
1.20364723125515 
-1.168647890774499 
-0.3418283898810119 
-0.2735390468200468 
-0.02940759590988265 
0.1501944139378319 
0.09561425929069842 
-0.4227145031341325 
-0.3259525993724233 
-0.1763673486597821 
0.7216994414299276 
0.0880767439223549 
0.1734775303496089 
0.1092232821211686 
-0.6863631023881741 
0.2674691695894029 
0.317458289002578 
-0.3240908400247756 
0.29611672493415 
-0.2566249827056099 
0.2829676420152507 
0.945899178047499 
-0.4092381240667983 
-0.1404468372700866 
-0.1063441312898429 
-0.2468056483726019 
-0.5149684730969464 
-0.1187264593765105 
-0.4108047745503587 
-0.6734739382286719 
-0.2455692132132553 
0.2095330928840407 
-0.05809112474520084 
-0.2646369987494934 
0.4406588905356409 
-0.5918810708326518 
0.0193424005288527 
-0.0827359283714309 
0.2142274318231786 
-0.08016683693394207 
-0.1273849764827027 
-0.3297779194612243 
-0.5028447537560832 
0.2906330906121041 
-0.2544346792711219 
0.1027020148604205 
-0.2099737072145899 
-0.1857236246819736 
-0.2573553083402146 
-0.5910075895103453 
0.05263110689277186 
-0.2364336338592468 
-0.1431547022803935 
-0.3470783704822578 
-0.2158624016081749 
-0.08693054904961631 
-0.4641006916534642 
-0.1983083041839891 
0.06393874652809294 
-0.3068032164142469 
-0.2502954835219209 
-1.277007206053053 
-0.291993247273838 
-0.1790046727448725 
0.173450219269786 
-0.2115114502790564 
0.261906074016389 
-0.6962167102824343 
-0.1259776034311916 
-0.4327491678103513 
-0.1856892362208805 
-0.3655817686815858 
0.1897831445747318 
0.2014417422181165 
0.3748725387617516 
0.9794815983076391 
-0.7163006128394799 
0.3354594539786613 
-0.391845248302457 
-0.34624934977394 
0.02874706390216308 
-0.01833967692532574 
-0.5845790637948983 
-0.3865915150487995 
-0.09586868788514069 
-0.1486933762857964 
-0.4842766512333611 
-0.4505941753353107 
-0.1299250077994894 
0.1402647148035453 
1.070954541690724 
0.0883587879061547 
-0.2546559225352781 
-0.1631655223520654 
-0.4016021323382909 
1.23622717388152 
-0.189587305331509 
-0.2827235847883565 
-0.6117827580253374 
0.3818274917511728 
-0.2041084647549411 
-0.575066725716006 
0.03472873934995504 
0.6411995559977423 
-0.325438627189399 
0.09802653798302545 
-0.08625506068627077 
-0.6913368556016156 
-0.5893787807361899 
-0.6664909160776591 
-0.3773159266798854 
0.211391684636485 
0.4849621742140406 
0.03842658125366227 
0.2571308969908295 
-0.4666767309185178 
-0.9231203866872414 
-0.5671331550796366 
0.4485299192008319 
-0.4936439263570644 
-0.02770036726365848 
-0.1487263286502119 
0.1031212994636786 
-0.321614776607392 
-0.3349105368470884 
-0.001935146953866018 
0.3218271725691998 
-0.1923854602611513 
-0.05934667469461236 
-0.4197208735784395 
0.6044220675549011 
-0.3368358180902553 
0.06377696568513969 
-0.43488538268407 
-0.1464917540339199 
0.685591157293969 
-0.2658375102746391 
0.1286757993818591 
-1.10466430536216 
0.2308814879401877 
-0.3348635476210704 
0.184606839612562 
-0.1217269438798805 
-0.05586208763523522 
0.147684026438939 
0.6083718231673989 
0.09433955135509856 
-0.3862251250368928 
0.01270422718050246 
0.2091950612303322 
0.7438057667488309 
-0.3591934840633711 
-0.1327356813178581 
0.01921296948681041 
0.2624958071726136 
-0.1078175359918177 
0.2593784450874263 
-0.4161570318525273 
-0.2883449541406474 
-0.2682381224586652 
-0.2266405772143739 
0.1619231307261961 
-0.1723506217543121 
1.69497467922545 
-0.4152988297676783 
-0.09462950828786078 
-0.6322799952958096 
-0.1247813710873609 
-0.299846082740947 
0.3608404684606356 
-0.01825487693074711 
0.3058142673526537 
-0.5886254676361112 
-1.143868051873039 
-0.04356368796933539 
-0.4369470057758127 
-0.07558610543277977 
0.4013781308321179 
0.4063365284345086 
0.1009040805604226 
-0.9333900851314192 
0.2500324920057302 
-0.6449529877319409 
1.008784172645341 
-0.237527393430385 
0.04418605559618125 
-0.190835480271748 
0.02550877108035545 
-0.4817669980690226 
-0.2305302516894543 
-0.2090120418915431 
0.3017307558010708 
0.2234146399744783 
-0.01105687270241066 
-0.06219840546008738 
-0.1445727413509531 
0.06535172307005221 
-0.0816425047262951 
0.2585451016203923 
0.5943385811713615 
-0.3387118593442422 
-0.01935596646392913 
0.3864097507075951 
-0.2304719649649508 
-0.1355644182734809 
-0.3329481302174431 
-0.4690265781247149 
-0.4906718568380102 
0.9664064273841946 
0.928304651321592 
-0.1001623881681458 
-0.3013643358154509 
-0.3191302460698983 
0.03610621603750318 
-0.2989413570091789 
0.376268804048391 
-0.4017024048497311 
0.6747481813513474 
-0.5884830021153806 
-0.3868226793932813 
-0.7518183866060004 
-0.3206706379214315 
0.06309495264093783 
-0.4289727204875834 
0.3160325512576058 
-0.3284289988569216 
-0.4144095142053065 
0.001953540180287686 
-0.2766942243503243 
-0.2119230730137992 
-0.103662702380287 
-0.08007810876968163 
0.4419197768434879 
0.3245420912833361 
-0.2060288047829242 
-0.3880836229331158 
-0.3492111779098367 
-0.1769220916198784 
0.03767106276576156 
-1.995487131667493 
-0.02676964918246749 
0.6542731772319927 
-0.3102729672231155 
0.2312427295802547 
-0.5492377874413141 
-0.5971563510653288 
-0.691875046847506 
0.003089995533963478 
-0.5806273386830401 
0.2888602079156841 
-0.01458668536626631 
-0.3805922187116624 
-0.09690455008667265 
0.2049641137405283 
-0.08371070956436649 
0.01191899559623607 
-0.6731786714798347 
-0.7278363615136734 
-0.7263056989013639 
1.253585666726404 
1.165086807173753 
-0.9415744101143629 
0.004975959506671351 
1.692917264603773 
1.232829581630599 
-0.1767394169146135 
-0.2981786872616445 
-0.4243082005033062 
0.3004624795384743 
-0.1876356648245712 
-0.1769563985945193 
-0.9033815954155625 
0.5436295834337217 
0.8489099027329418 
0.1415734446010562 
-1.264408878855773 
-0.1371700874231831 
0.3492841642436994 
-0.6175911817581592 
0.5141553602967034 
0.5519178556221072 
-0.1300113151572866 
0.2530802430431596 
-0.3032327169562898 
-0.4189879555047946 
1.134309703996772 
-0.2686151025310025 
-0.009195429446107198 
-0.5213401946114352 
-0.5267282456143488 
0.1742111627757935 
-0.0002906083570747873 
0.6269295802032173 
0.04769117949866918 
0.0003578622740133189 
0.2689002133400148 
-0.2410954282370925 
0.1630570723269763 
0.2081528039563718 
-0.4547849394711678 
0.3728331469096817 
-0.4324171995022322 
0.110826908824466 
0.6564066234308731 
0.456508264583832 
-0.4036281670248835 
-0.4540379034989511 
-0.1035208268761828 
-0.3938967059874696 
0.3964559250990551 
0.1207374521470802 
-0.6203263045403086 
-0.1095191514320393 
0.4543518800084074 
-0.1590586543594109 
0.355539560594235 
2.348565222942006 
-0.4248298806630045 
0.4192241227580015 
0.5215636881567038 
-0.286762816721114 
0.1289040170838868 
-0.3293669953311272 
-0.2347260191788798 
0.01445025181677456 
0.859030014807647 
-0.5016336525516262 
-0.1986917213117842 
-0.7013544543221376 
-0.02878713203447956 
0.04709219018052053 
-0.1815664548368092 
-1.561668875001355 
-0.3852965715231552 
-0.3480226673180648 
-0.4352156310378178 
-0.4270180930976114 
-0.5511944100217376 
-0.1016435660988719 
-0.3788094969368054 
0.5608872894015556 
-0.2068228221421905 
1.092514881053218 
0.04458109571998093 
0.1711290986913573 
0.1620661568199501 
-0.4216013642797133 
-0.3657070740651787 
-0.816013726018224 
0.8353249256617284 
-0.5312137418237911 
-0.1994501647948904 
-0.0423970681385162 
-0.2559967760432682 
-0.06158183570867488 
1.281728177269935 
0.3603810509432356 
-0.1968827113501284 
0.161956340405411 
-0.003827675918515034 
-0.182616038166571 
-0.1602821712603561 
-0.5206936781087996 
-0.2838486209510324 
-0.0226184976481208 
-0.100382606252627 
-0.1714225769294948 
-0.5285712891080298 
-0.4958417221404255 
-0.1205765996622854 
0.202287076780158 
-0.05165065788487078 
0.1958252575111799 
-0.06261105107226278 
-1.296191650902303 
0.004495647853004922 
0.3757555320012957 
-0.7181199779319278 
-0.5224176187093955 
-0.1164317875583311 
-0.5657281895676252 
0.05545363940294837 
0.1167296087568372 
0.1276864844720991 
-0.1419462610285551 
-0.1336023944793801 
0.1298446730081987 
-0.7126378395542741 
-0.1170842734661223 
0.698927290329413 
-0.6681145692723782 
-0.6225522814526837 
-0.06999804946391451 
0.8802231226195963 
0.05315051387969996 
-0.2473742306426266 
-0.2498863427867605 
-0.2040892114622665 
-0.975380644300652 
-0.1104462426973115 
-0.1562793247670901 
-0.570449936182245 
-0.1551526329778683 
0.4879237767536884 
-1.533530473275146 
-0.04613128085884993 
1.273323464443776 
0.6120544056351582 
-0.08781723857963171 
0.2269035252837842 
-0.3068622677610922 
-0.2220844372347068 
-1.105206750604278 
-0.3104906106569028 
-0.01167786313742946 
-0.1562552278235391 
0.06358007561825173 
-0.3589306972624698 
-0.5093086409811696 
-0.8132266788297218 
0.5564770432284872 
-0.4014922731848401 
0.1946583488788906 
