solver_type L2R_L2LOSS_SVC
nr_class 2
label 1 -1
nr_feature 512
bias -1
w
-0.0500399060702171 
-0.239650799321119 
-0.628663587536235 
0.1606620334316342 
-0.7796462433044946 
-0.5786261164784934 
0.5970153959557716 
-0.3578231816972242 
-0.4282811779176652 
-0.248495219363522 
0.7937759797026005 
-0.1502653377710785 
-0.20901848311922 
0.1908654305296934 
0.4259085669023119 
-0.585873414461952 
0.8541634570797573 
0.02810439569831778 
0.1814278770808376 
-0.7612155435496749 
-0.3444378613113569 
-0.02804030968258368 
-0.4603068618639198 
-0.7190432122905249 
-0.3621149192139723 
0.7170481704675953 
0.4106924673877265 
-0.3514937126128256 
-0.8822127215424441 
0.2596231202409612 
-0.8138624833899892 
-0.1593387830528339 
0.3572468038202081 
2.093812287602519 
-0.4453324524700841 
-0.4876586782803787 
-0.5531617649035092 
0.06312501269500753 
-0.4808990888470885 
0.125577669495645 
1.152647776920518 
-0.4666211472214004 
-0.7130687444549652 
-0.1389624726826412 
-0.07934796527891262 
0.184674830663474 
0.309597986872794 
-0.1244666845010574 
-0.01539893909763675 
-0.7153713112697776 
0.1520257835715076 
0.1427247566211133 
-0.07876605581605112 
1.270400561880885 
-0.03378284778747859 
-0.7237995712225076 
-0.5335118309810999 
0.5195384830151084 
0.6281950063243167 
0.09412519566199203 
-1.03824652796607 
-0.1739846912454711 
0.119530428702814 
0.01947153766834691 
-0.9887421268778701 
-0.1591143391739042 
0.01274889762968707 
-0.2778770401071224 
-0.3148101767329285 
-0.8921886261390055 
-0.4174082822693237 
0.3357268863716396 
-0.6221128760461693 
0.2993879894780129 
-0.169834136277543 
-0.3382300142356935 
0.9800899003347617 
-0.2040088687150233 
1.124383963868635 
-0.1655962939871893 
-0.2228575726130495 
0.3301730951255944 
-0.3765248605621 
0.7050042527013182 
-0.5477037134897393 
-0.1522334109482254 
0.4241786161479136 
0.820392623738216 
-0.2906740815371738 
-0.6482747319369271 
-0.983319704580905 
-0.04241397911697434 
0.2363480350266818 
-0.3182876946645996 
-0.4220374752217627 
1.210688150941671 
0.1534788349894458 
-0.09014506865497197 
0.2357631834536809 
-0.1712462908100296 
-0.02885999765175579 
1.157460530475702 
0.4792811597043017 
-0.4341935590108811 
0.5209112081399759 
0.06897330469906848 
-0.03070632078725126 
-0.2354480128795156 
-0.3140900111116106 
-0.2953168463810897 
-0.4685282176822539 
-0.3009223784519441 
-0.1721007239930009 
0.08537732895956805 
-0.2857420465835798 
-0.5328125654013018 
-0.253896061035187 
0.1627372708728009 
-0.1466103729675061 
-0.2037473080646745 
0.2985547511377245 
0.6828087990136686 
0.2960502924913758 
0.3251059025178122 
-0.2987875169210646 
-0.04075955705321906 
-0.3793282247096956 
-0.1157245662126171 
-0.1697240000339604 
-0.5243667890206019 
-0.08764312887459641 
0.05708106356055233 
-0.4449239609407365 
-0.7753193997544691 
-0.4305506981828757 
0.9397080675738989 
-0.1562082071505833 
-0.2539064982146855 
-0.2768722174708402 
-0.1754056024862767 
-0.0896124651052862 
-0.05668272453029834 
-0.09075015620647763 
0.3442632078516992 
0.07967365879376218 
0.3883001125818479 
-0.5606167430053552 
-0.2181146391787996 
0.2906724304346528 
-0.05034382691502141 
0.5400923952579461 
0.008795031315815858 
0.0830186188221579 
-0.3420887981864799 
-0.2945476923465216 
-0.3629491055891794 
-0.4346812900203822 
0.6317598519798968 
-0.09093105812177019 
-0.04410370274453206 
-0.6163411591928339 
-0.2641529584261083 
0.08114445295191038 
-0.02282650346332804 
0.8990043727945963 
-1.033340561813569 
0.7984017426283114 
0.3645016822837097 
-0.5011816270038573 
0.4030878623351288 
-0.6079134731501474 
-0.1450242961602484 
0.02158817337632998 
-0.4103182477680747 
-0.2108206965919864 
-0.4272845365245178 
-0.6643589018872825 
-0.03520309568239711 
-0.1135779865711756 
-0.4166146583215571 
-0.1710469887937237 
0.07667474595164532 
0.2459359496905177 
0.7311801056934154 
0.008238418912574656 
-0.7429884412062041 
-0.2411619514730894 
-0.9013916834158956 
-0.4661848436973309 
-0.1926381405137254 
-0.6904332315316666 
0.09232607786728046 
-0.08788213796365128 
1.104841871573303 
-0.9744887245412768 
0.2417360312159353 
-1.562293403369964 
-0.3154936584247187 
-0.8712000757155023 
-0.8780744725560881 
0.2687979548300643 
0.1634238001474461 
0.7441132995334468 
0.1674314675102951 
0.9154384001549786 
-0.8667150242208835 
0.4506825717001409 
-0.5730681059980168 
0.2383147467633887 
0.1237622796239473 
-0.2085393290401243 
-0.2863672189950231 
-0.1207682432422995 
-0.506780644332676 
-0.2389227388224348 
-0.1581958224833439 
0.1282093481300716 
0.08823069575696742 
-0.4698095444705154 
0.2494026234033045 
-0.107396969566642 
0.09448023857729757 
-0.3252630456414984 
-0.1238592026540205 
-0.088619056501327 
0.007904096999867031 
-0.1888467973180384 
-0.9832798489109441 
0.345328646782108 
-0.3653337588821637 
-0.7440326222891467 
0.2040060682571437 
-0.3625877730815708 
0.1750845527014935 
-0.1361385007135392 
0.1923997445406047 
0.1980936182513926 
-0.005410099871479388 
-0.3328895912053664 
0.2768217953181943 
-0.5454413895738162 
-0.3245692778725606 
-0.1098106441390474 
-0.1767594910871798 
-0.1284612113806008 
-0.3619904736427874 
0.5067390665243191 
-0.2886613818332069 
0.2976956188841179 
-0.2960315000346656 
0.1605873705893845 
-0.2657307066133777 
0.3514161913139426 
-0.349219951412669 
-0.4583278496457883 
-0.01881871900886729 
0.3522216211762192 
-0.3297505141021585 
-0.6986043556125899 
-0.4279928978373871 
0.245664963611586 
0.9466459948981923 
-0.3857616189766233 
0.6671483936688782 
-0.02648028960842409 
0.3467766858721366 
0.8083175445248248 
-0.1982173988231611 
-0.1693242718299892 
0.02158894661706113 
-0.1308727717494869 
-0.4055123780133016 
0.2548705248261297 
0.02690031642037773 
0.08538256718208165 
-0.1319294989907485 
-0.04766541776454774 
-0.585665975701044 
-0.0544894611842473 
-0.007781001741173084 
0.07310259260205951 
0.879091190975972 
-0.1932097043746372 
-0.111366380846327 
-0.1335761998532307 
-0.6847571144592433 
-0.257057563424627 
0.01990197008886277 
-0.2669597690333005 
-0.2709233381422462 
-0.147491731234223 
0.2938756320914327 
0.563151110730962 
-0.3200651142761357 
-0.4920338769197795 
-0.4487078592850292 
-0.4519863186411992 
-0.8003074493803285 
0.2586249293850552 
-0.197466877187375 
-0.03004478708713905 
0.9594405885179188 
0.1468825466041994 
0.0834210643018765 
0.7615878075169843 
-0.5548547956688484 
0.1128641489987022 
-0.1881611286302783 
-0.3121464866800809 
-0.6876391909372205 
-0.1359349822096104 
-0.04644876168277934 
0.04078161324600386 
-0.1931086326986771 
-0.301405753950917 
-0.5733560088425445 
0.1246986386193586 
-0.01337368134270404 
-0.6076338254606162 
0.05764777238419543 
0.6880033503918231 
0.4127307097723411 
-0.3608163426815388 
-0.08643857014385789 
-0.215798759520677 
1.622069628991067 
-0.1263031287780309 
0.9266605133710595 
-1.626486129210241 
0.03274199391188221 
0.1364095722644332 
-0.2944827469730775 
-0.6041323929547379 
0.6001347550629529 
-0.4610767870025864 
-0.6543803085250929 
-0.1117111126935456 
1.14333910957349 
-0.4208587734260015 
-0.2580527380395374 
-0.6304930745339589 
0.3178887485454937 
-0.1185117200836969 
0.1520291333556512 
0.02347415975292732 
-0.2081628718823275 
1.374502384375834 
-0.3234807554082868 
-0.6405741401388378 
0.6720369395304371 
-0.647980784737568 
0.5892762367113995 
-0.34023389664702 
-0.3253441283641137 
-0.2407902610886759 
-0.565902052859922 
-0.4931676364468098 
0.07013034801585064 
-0.3667773584406601 
-0.3189428860741096 
-0.6323985619143273 
-0.1176791433482005 
0.01633475868130775 
-0.295175688958803 
-0.9368379013795467 
0.04806754267099411 
0.3800328735289294 
-0.7876656326610343 
1.16500572269936 
0.1834648775734896 
-0.1954985782200399 
0.1966421925669283 
0.1330502844102964 
-0.3062068681414891 
-0.73527818663512 
-0.2071105255791453 
0.1066278941502823 
-0.3605845715534859 
-0.855788002763475 
0.2089475347871894 
0.9261040477131137 
-0.285345223827898 
-0.2680264625234468 
0.6904518884761955 
0.6575023704126254 
-0.1939775816825544 
-0.2360857845368685 
0.05061452999964049 
-0.4620613057236975 
-0.3442019113121466 
-0.3837050751431011 
-0.1523252686565212 
-0.05540493224310219 
-0.2123513351636367 
-0.1173026906094066 
1.128284414609857 
0.4561262906606283 
-1.163569296180854 
-0.1545092614344073 
0.1154517922579734 
-0.190954016981122 
0.6356742696771697 
-0.09863764839510125 
-0.2280301034799364 
-0.2083439759220223 
-0.3654499537812533 
-0.04074293544826795 
0.1722070076329485 
0.006955157497453244 
-0.3470872749589818 
0.08283560266139678 
-0.3216346896913345 
0.103196123174039 
-0.08058650675945801 
-0.01616586146790141 
-0.4493132939073184 
-0.9420260169338686 
-0.382961453006776 
-0.08968784922603618 
-0.2208904048646928 
-0.01438884320258531 
-0.6197008502552633 
-0.08591418935225859 
-0.2405105006495044 
-0.1526725529353395 
0.6782914591675839 
-0.1905191999743465 
-0.2373085847035263 
0.05127031491748341 
0.5270556078023795 
-0.08422214445295537 
-0.872639652304176 
-0.0283907538765033 
-0.4657734006019031 
-0.5638612136350785 
0.0448141605553538 
-0.3114478487873074 
-0.2733627137539709 
0.356135574022553 
-0.4820572048485882 
-0.2104881937167894 
0.129702416610898 
1.083191986670053 
-0.1794102526544387 
-0.06499065370999278 
0.1997151867644064 
-0.0335154275103673 
-0.06625098166362546 
-0.2346666772711095 
0.6219204536613245 
-0.5880404063334701 
-0.3592100954239955 
-0.04792327407744278 
0.3819217601025359 
-0.4324504305687329 
0.7938084885994449 
-0.2614779575414694 
-0.223979548483291 
0.2570448672440134 
0.1533522439511425 
0.02165026927844507 
0.4377723281425817 
-0.3234600866362403 
-1.111581361091869 
0.9782198947992066 
-0.2004849399504212 
-0.7157955549517399 
0.05351564762968264 
-0.3607810237151274 
-0.4432985278561465 
-0.04068783997117556 
-0.07566647556419867 
-0.2733912054652517 
0.5069165345058956 
0.06230424987239137 
0.1573098223003121 
-0.8056095373991525 
0.9242645396700929 
-0.4710708795677681 
0.2178834579391212 
-0.4642524962282875 
-0.1749379877964981 
0.3330160309061898 
-0.06852046829297155 
-0.3916268374390451 
-0.4811636881326001 
-0.1496612135104204 
-0.6956047786111433 
-0.8974063614952447 
0.03470896125924298 
0.2042631172157788 
0.02760556416906106 
0.6214773267006136 
-0.7236621873130411 
-0.06670565297802954 
0.8223675629588534 
-0.3011324871277939 
-0.3143545569830021 
0.8327537294921514 
0.1056072263683674 
-0.3962775570259925 
-0.5962088547540326 
1.30277587950405 
0.3854497463900636 
0.7956952340055307 
-0.0263350182462409 
-0.6522224659287253 
-0.2056834235575269 
-0.3568001207820501 
-0.177820298044209 
0.1198047604947478 
0.3692994838064947 
