solver_type L2R_L2LOSS_SVC
nr_class 2
label 1 -1
nr_feature 512
bias -1
w
0.6744191150212243 
-1.244348887443021 
-0.7127817868226098 
-0.3557796242100191 
1.16021342926869 
0.08629182079386172 
0.9779066552149296 
-0.2716359858957871 
-0.1919327735670704 
0.03024450066929062 
-0.6392357885008627 
0.2315791761801013 
0.4239779361279774 
0.0686419250116139 
0.5221412412717442 
-0.6821277763836824 
-1.059755563042174 
0.8190954175518724 
-0.7612259710206406 
-0.02121463062982733 
0.5441942449123423 
-0.1340913010935801 
0.3332796942493283 
0.06906411396536744 
-0.410747656141952 
0.03155279451215331 
0.2179520592049232 
0.215737321768167 
-0.4449138701117215 
0.02451146041749153 
-1.219385803554383 
-0.3644692260665978 
1.635600045249293 
-0.8031025910187235 
0.3670800965882582 
-0.5515575536125209 
0.3622091174843344 
-0.6372611397025457 
-1.304070510806662 
-0.222765730493762 
0.1125156202721788 
-0.04996892056294769 
-0.6871427492284847 
0.3527786387242364 
0.363815980357473 
-0.6982579459607651 
0.1584248752585837 
-0.7556189666727606 
0.2095258119232034 
-0.1412997192794176 
-0.5200578621454902 
-0.02079597567064048 
-0.1503672940284317 
-0.159203127016905 
-0.006285337272750414 
-0.1659923237118007 
-0.5464821361474504 
-0.0109857706138943 
0.6521062498353539 
0.1384774126436944 
-0.2396926092666058 
-0.2192339803881922 
-0.1487173681625693 
-0.01725708358455089 
0.2008770676747519 
-0.06731135089444244 
0.09821572676803281 
0.2733901875381954 
-1.279554285866977 
0.3883934724257914 
-0.4738637230116624 
-0.2829662295581812 
0.1682130230317693 
0.08745247695068663 
-0.4961446814886254 
-0.3102108286848111 
-0.06071689679031636 
-0.2276712722727434 
0.875291770635327 
0.8530022045393932 
-0.8438519034881257 
0.008990397577728411 
-0.8605396978189424 
-0.7774202943654246 
-0.6974251669264513 
-0.184316761710351 
0.08876150648981694 
-0.5065742265963654 
-0.6594587618809549 
-0.3331196382930613 
-0.6800634524464242 
-0.4591121319975959 
0.0635111256280342 
0.166735104258374 
-0.5593020700278184 
0.07101428237792258 
0.3230335998621161 
-0.2877829359582246 
-0.03569507632497077 
-0.03666600058339916 
-0.1159434617937361 
1.124366969215983 
0.3923309229088652 
-0.06969017500342614 
-0.8720785348425714 
-0.3591678616734599 
0.1578432128629378 
1.148191244671023 
0.5053632509872592 
-0.3187992024309249 
-0.04104089178667371 
0.6285412815414573 
-0.3200934633346284 
0.0725861466277964 
0.6389597656645676 
-0.4399563666242569 
0.01435066567275944 
-0.8719356473592753 
1.445287144613601 
-0.1688938681420994 
-0.9381625173847419 
-0.2536150504812423 
1.283093335791858 
0.2724283202043238 
0.1973412657630818 
-0.2040637119846862 
0.5559854596841823 
0.1491139104812088 
-0.1855331509140001 
-1.288718058605267 
-0.141275505266736 
0.115553871409321 
-0.2911270229335967 
-0.1554642351836705 
-0.7546956133561585 
0.3547057817334842 
0.4802465715721816 
0.4147173606718176 
1.821483152215098 
0.5438976951404408 
-0.379654165865475 
-0.4800705460099238 
0.4107734595036119 
-0.4882594991897876 
-0.0185853481403924 
-0.2480672292948533 
0.02805477715692923 
-0.1754396603529314 
-0.1143156520786788 
-0.4323608486207122 
-0.989360565711587 
0.6874128033302164 
-0.3608926927542705 
-0.2865008089480533 
1.06275718831088 
0.005480020857171789 
0.8367388576995217 
-0.9609642756583779 
-0.1944497347654598 
-0.04092663670802992 
0.3206165608691557 
-0.7001759569827882 
0.1201837307515847 
0.0413776766620732 
-0.2418718692554373 
0.02127421701755821 
-0.185227786858225 
-0.6551741679249868 
-0.6516145466003825 
0.0200106436383986 
-0.08529994857018289 
-0.3870992576765452 
0.1784299270483958 
-0.795153083397484 
-0.5602812867732944 
-0.2490266135998899 
0.6929826460550245 
1.269724646477802 
1.092574613278518 
-0.4369950303342078 
0.1551723537036344 
-0.6259353542375906 
-0.5147398302902534 
0.7731331628135528 
-0.009814412059158145 
-1.089980776030198 
0.08177024916260363 
0.2004803817425004 
0.06962775004776026 
-0.1513065676202869 
1.023396456603705 
0.04152371836149224 
0.3478861451109106 
-0.1709455580885136 
0.5148946706703895 
0.1485764413609415 
-1.674218504325718 
-0.002308968510030388 
0.4717365598209875 
0.07158947878799163 
-0.1093208492653925 
-0.2053880616144579 
0.0244095781955479 
0.1482728287933315 
-0.14824614710812 
-0.2689519332689411 
0.4281380291517252 
-0.05457692609244839 
2.011204003394707 
-0.4825701016148046 
0.6583364893028766 
-0.9604477212318691 
0.07958927116792529 
0.09201027885891733 
-0.2011000482839743 
-0.1766143775014975 
-0.06504676302063603 
-0.5381722617892307 
-0.6616473352734428 
0.04461284110927035 
0.564941701649362 
0.3380811026855318 
-0.6920931851117448 
-0.1828410907810496 
0.2090305747314397 
0.04880975072182928 
0.2293410103764185 
-0.7537214845982487 
-0.134635796610427 
-0.3228747058706459 
-1.200458300824686 
-0.4265698412655964 
-0.4978078618926226 
0.4348469419449749 
-0.04841925761349054 
0.1254292739242251 
0.976415451659975 
-0.09635912751495296 
0.02068725980688369 
-0.1943199387305452 
-0.7622304341008125 
0.3383647233290337 
-0.4426162850852681 
-0.1119314739312428 
-0.3970457783501153 
-0.3852496561528664 
0.4321339125461049 
0.3124406563341373 
-0.4910742737249617 
-0.6114889883451118 
-0.152781605551383 
-0.5307624173167573 
-0.5403212592014107 
0.2774508315948678 
-0.7008645004966102 
0.1407252194279296 
-0.4108747291976834 
-0.2158508032621548 
0.02447660076884776 
0.8077573556045733 
0.0670663085107099 
0.4582037106332058 
-0.3022372722495019 
0.6493419832524007 
-0.389881188129404 
-0.2507769483285363 
-0.5986612462235463 
-0.3130337765683841 
-0.2607080565614837 
-0.8585451662953764 
-0.8764843548250008 
-0.7893157324379748 
0.4204220939000313 
0.3182864727935058 
-0.477236023795399 
0.479456613081329 
-0.5071948560403762 
0.05515473831535683 
0.1328566670972564 
0.6631732369742425 
-0.4569629193801201 
0.1824226998096082 
0.1183984987648146 
-0.5830451884299345 
-0.5260810875313493 
0.7623217273615063 
-0.1979244251252991 
0.1228112535060245 
-0.4112224074217842 
0.2714293702051906 
0.01958374814005211 
0.2115209879592942 
0.4601416208616034 
1.62143454321497 
0.2828418468661444 
0.7273070785488396 
1.042699797565255 
0.3851440356380135 
0.2757438559864842 
0.25738342094924 
-0.192395234565265 
-0.3159467578113772 
-0.6983291185757909 
-0.1952208272845527 
0.4674543738699279 
-0.3620909523328065 
-0.292393125040847 
1.449958456035171 
0.07652131647388483 
0.03073418217602012 
-0.4922568575415451 
0.4451644733335074 
0.09611180492536917 
-0.40937701301135 
0.09888338064246732 
-0.150390609126208 
0.2327173338414127 
-0.7123133789066781 
-0.710320853229473 
-0.8458218071454571 
0.3516048231534356 
-0.5091296132928488 
-0.3142105308579957 
0.2540874604831083 
-0.05555538186461468 
0.0783980064787651 
-0.9609447142326124 
-0.6202724285807175 
0.5715905525856385 
-0.5537819474741784 
-0.07500227018968372 
-0.4982504847573442 
0.6764251584621904 
0.07005563030361045 
-0.206864724776689 
0.1381530613932807 
0.3531906925294415 
1.78920146070016 
-0.379683200870617 
1.451251301611506 
-0.2089767087917725 
-0.1771443956263616 
-0.2385702270306402 
0.4421017571993839 
0.2698257730906199 
0.02929101266868331 
0.1170500024316089 
-1.390766433143669 
-0.7145613252865041 
-0.5190421822276446 
0.3814272156742706 
0.5911969474853382 
0.4372961296947784 
-0.1552611330438032 
-0.7854316513895832 
-0.2594872851893824 
-0.9643961883758944 
-0.3258878753864917 
-0.5620003568368247 
-0.3172257646356761 
-0.0745119234028418 
0.1453617603613001 
-0.158775124827633 
-0.325991562319604 
-1.503808725750627 
0.7767678039621735 
0.2037397305414324 
-0.4094915479162104 
0.7471933991155878 
0.02280471682255319 
-0.03734144223130743 
-0.9203057624418904 
-0.6323656994816307 
0.02031540619221479 
-1.037547398324289 
-0.1049060694694628 
0.4246946704168769 
-0.9428972407737137 
-0.04884354011095276 
-0.2814111451402349 
-0.05111300496555291 
-0.4722568643813836 
0.1950846219581867 
0.1643159488259014 
0.9146324472493923 
-0.2537858100499105 
0.3853640235500191 
-0.1297414793306226 
-0.4407476569806194 
-0.1902935235575529 
-0.1761771850305956 
-0.3592718860886543 
-0.1290597626271623 
-0.7495333730231307 
1.00142903534874 
-0.4377579425389389 
0.6991820367653002 
-0.5226606993611115 
0.5051528267026767 
0.5643569439312232 
-0.8631073161536752 
-0.3591848645971545 
-0.3305740108217557 
0.4980086856525388 
-0.1107788979543426 
-0.2716888509613228 
-0.5954917856502454 
-0.3565058636111446 
-0.1976216461963255 
0.2353673123065996 
-0.2887051374643266 
0.7245819821692148 
-0.4111088093020439 
0.04210530008951272 
-0.6972900757123808 
-0.3392805230265384 
-0.3726073768195463 
-0.1070640370976127 
0.3498541616126829 
-0.1721914670179656 
-0.4196311693662989 
0.1054312346952565 
-0.5678694978454059 
-0.5433487355462253 
-0.9108395123520687 
-0.3983505976042402 
-0.3646398582491223 
-0.08416930019594628 
-0.203460703768701 
-0.09220930348951849 
-0.1111194207799646 
0.5282475131155183 
-0.01723937399376962 
-0.3506968040998056 
-0.2383125601846718 
0.5551954637843898 
0.06893864402810827 
-1.333789020033401 
-0.2590928562026384 
0.1481856148074247 
-0.3053339087396271 
-0.241336238216587 
-0.0191704803259387 
0.3427820308560495 
0.776667391777264 
0.4272041268309137 
0.1652156831393056 
-0.2859866559203588 
0.1517545602779321 
-0.3497760580334585 
-0.7023499778372519 
-0.1021374395966569 
-0.1391161539970834 
0.161630668247517 
0.7415507469131462 
-0.4866228437441678 
-0.2892077867789826 
-0.04109666493504496 
0.2263411375474461 
0.2451914314461668 
0.3451643223904279 
-0.02283815891618092 
0.05494985085949923 
-0.4749519286080984 
-0.9674174998469929 
0.2833586561094197 
-0.6663785209498585 
-0.05553695690307735 
-0.5515637864662862 
-0.3728354241537682 
0.6215683375826896 
-0.3178862057895957 
-0.2092723613219482 
0.5707409325481707 
-0.4967343548728043 
-0.7256282171522603 
0.2153792331513708 
-0.07327522521359144 
-0.2832401888086615 
0.1394042020150787 
-0.1569546224148844 
0.1462040086701158 
-0.8934588493936118 
-0.4364996506547201 
0.587356851579671 
-0.1015876773349232 
0.4786308197301362 
-0.9205072278226261 
-0.9262183217189148 
-0.3272361421951469 
-0.991642594674744 
-0.284483955750262 
0.1145195776195255 
-1.109696852262112 
-0.06857051595500124 
-0.1981475373600087 
0.07763736142081219 
0.09636766256232848 
0.1552930609374663 
0.8134120042021681 
-0.6003264360897789 
1.049498856490706 
2.002493735241853 
0.8205666967420978 
-0.2133322035146089 
0.3749400338293134 
-1.211437575616128 
0.7711556677085102 
-1.480379126353343 
-0.8853585027495232 
0.7458960622193797 
-0.1372808490084923 
