solver_type L2R_L2LOSS_SVC
nr_class 2
label 1 -1
nr_feature 512
bias -1
w
0.5780685519072499 
-0.0807762335977646 
-0.9639115751304247 
-0.1994767060115524 
-0.8560085321677244 
1.943194914254283 
1.280996666785267 
-1.125610708853261 
-0.3917780139881913 
-0.05645616311637278 
-0.9486829167394498 
-0.56422644025869 
1.59735508510244 
-0.1103423537312866 
0.04962041307929062 
0.2433646134648941 
-0.5296023159913916 
0.265250501056647 
-0.1846676712401914 
0.2165296054499019 
0.4459122192271461 
-0.6901567748036072 
0.2019980558993015 
-0.2442760850211346 
-0.02631524415718279 
-0.253447012013083 
0.4335725458004543 
-0.5208506160822519 
-0.7277675833248696 
0.08890144553210869 
0.8292644699818086 
-0.762796784847333 
-0.4766900467171704 
-0.2632492444100679 
-0.1841326508171446 
-0.4062801454959454 
-0.3049539068327359 
-0.01785365001971726 
-0.5857372906444142 
0.2105160445996923 
-0.1268638960219827 
0.2624608476376525 
0.1781612741164312 
-0.001978965076294628 
-0.3097032751489888 
-0.7151666739327533 
0.6122205243883337 
-0.2003150123733176 
-0.03654206360949464 
0.5393172466089335 
-0.935155671582549 
-0.1398445837227643 
-0.5424883041917805 
-0.09167134669934823 
0.4374560537929985 
0.02470577824086614 
1.087330479434815 
-0.2125524027625281 
0.6282602977641124 
0.03393999207821197 
0.00244622280986637 
0.6405775877778326 
-0.0849157279617075 
-0.160419397339682 
-0.9758611187001898 
0.08276480736252473 
-0.3799955607829075 
1.02980562942694 
-0.9982365547765844 
0.2150009673657999 
-0.527375452230925 
-0.344282570843239 
-0.3783917154641386 
-0.1710832031474361 
0.09228786588052425 
-0.1855405877932545 
-0.5735631939309949 
0.3515673456108566 
0.3303619561971735 
-0.04260987912792464 
-0.4786760606541259 
-0.138914171952858 
-0.9009198354111724 
0.1175279729081207 
-0.7362537700179113 
-0.6093127469953598 
0.03426336070840349 
0.7882648603426163 
-0.06542103345695768 
-0.3322163495925085 
-0.7416148506339416 
-0.4907372066712863 
-0.4172749778755629 
-0.3442143036346189 
-0.06128947536130698 
-0.3891937209644609 
-0.6053382566759177 
-0.3613990552561943 
0.461594515498933 
-0.4525880625164898 
0.2507933911274053 
-0.1910919439407877 
-0.2159586938377224 
0.6480916230557989 
-1.294029165263731 
0.4647821701558994 
-0.003933578711294982 
-0.3106293196853419 
-0.8328897245524086 
-0.2147365860399295 
-0.2981809196229771 
-0.4868691709751348 
0.04751081352960389 
0.3187160857109296 
-0.4498408116755923 
-0.6235420996169455 
-0.6035322796627042 
-1.021812353092312 
-0.1697586194230853 
0.0147035711107204 
0.04582924230673897 
0.2577213601517281 
0.3330233262510853 
0.1856425384069889 
-0.02072880643372056 
-0.4201037715973172 
-1.018367913320247 
-0.08392820210586213 
0.2644761041986453 
-0.5214748318372725 
0.00491251685665463 
-0.283026728173201 
-0.194469612697917 
-0.176327083821412 
-0.512796757000292 
-0.3928297454756672 
-0.04873832318845218 
-0.03977145499616057 
-0.7835372073077648 
-0.3006265036684096 
-0.3429919729856034 
0.03192098628639337 
-0.05984221855445178 
0.7702029451718155 
-0.4793410083060702 
-0.3060694333184399 
-0.1333550608808682 
-0.277540633457546 
-0.1476119689784242 
-0.2252456258277029 
-0.8195980485825944 
-0.8749384474846453 
-0.4015347538373142 
0.1356410230571181 
-0.2343059798293105 
0.2629809644624224 
0.3681898461057461 
0.5564421132334778 
-0.5722729729936231 
0.161049866987119 
-0.4419094733259039 
-0.04502890758542665 
-0.2596980521288652 
0.04436995010235392 
1.012056444423786 
-0.4166651752351058 
0.1454144587525223 
-0.3524912985377159 
-0.3732227100234201 
-0.4269542917809054 
-0.4437088125699593 
-0.04952948447575443 
1.41516883307816 
1.393254983617295 
0.5836699390841362 
-0.5370839722128273 
-0.1000564094498973 
-0.6381680870035645 
-0.3887166519224367 
-1.000049246017962 
-0.08330961375322579 
-0.1885237697165422 
-0.8512035167930915 
0.4234873096764479 
0.3952521024408209 
-0.2745526218391089 
0.3970271639690799 
-0.5683254697743009 
0.0639071325255028 
0.4693595499558546 
0.1612515841410528 
-0.4038637659117609 
2.025161962468407 
0.3833678412939781 
-0.7224166597785641 
-0.7053374364662786 
0.8734550155017369 
-0.4793802615514242 
0.2460486884863842 
-0.6533742518265344 
-0.0322847343403325 
-0.477815978364878 
0.278870604529719 
-0.1563252741288033 
0.1778726750314611 
-0.04310318523440198 
-0.1487729183478378 
-0.7640056611720811 
-0.780745269545112 
0.2172586718974626 
0.3119198576147261 
-0.3425850985265975 
-0.321996331160681 
-0.05813622980564612 
-0.2011250007155491 
0.3381621546860535 
0.6337425866778621 
-0.7214546760211478 
-0.5026062916513373 
-0.1713055487976634 
-0.09215282710006244 
-0.1399443120100662 
-0.7013034099160713 
-0.0943870376200598 
-0.6606737509759819 
-0.1799095223545918 
-0.07161807401504582 
0.8714870217048847 
0.3119545017088241 
0.09893982583542127 
0.09466786057023654 
0.6486990622341183 
0.01009607878878188 
-0.06362266961627029 
-0.104849435084258 
0.6158457398217428 
0.3697737849905152 
0.0001282574063824968 
0.3412149256259025 
-0.005619448326271301 
0.9604160957888056 
-0.0701212426059493 
-0.5544642057467145 
-0.352557249275312 
0.08923674632294712 
-0.647436396224579 
-0.7285272083125474 
1.218901049397834 
-0.6396480678302719 
-1.016817475384865 
-0.4626544036448271 
-0.2857746668765869 
0.1132179379333718 
-0.3820191231049214 
-0.4359781929407696 
-0.5187881632433871 
-0.3553453382521677 
-0.2932210165561593 
-0.5769672438271631 
-0.4187154952779085 
-0.1753123974496374 
0.6738686852841995 
1.115399109417209 
-0.120640945006948 
-0.3049975627870617 
0.04039609313565044 
-0.7355636935874182 
-0.3667681472124382 
-0.1341267726521926 
1.207036574795269 
-0.1741283805857153 
0.2694010743528742 
-0.3325805103492985 
0.1232986543781509 
-0.4248541045740129 
0.1912096216084732 
-0.4675525608828103 
0.1071552754279935 
-0.3600060417929317 
-0.08331102704254847 
-0.3332755779332274 
0.2720959346306795 
-0.2429767029939635 
0.7463727679540306 
-0.8160027948392837 
0.2293059511723597 
-0.1238665095733725 
-0.2464972867562743 
0.2817568627785664 
1.742881227960262 
-0.03394264837912302 
1.213518962829913 
0.1849345272325212 
-0.4347575748139085 
-0.4342133495331044 
0.6795138991788617 
0.8223532972529484 
-1.161812858265526 
-0.4807099798593416 
-0.3943584993676321 
-1.189793091385482 
-0.6838077506551545 
-0.1188728052220474 
-0.3946012756689516 
-0.3586573577262217 
0.1938257577873897 
-0.3158758315241229 
-0.5586508012507302 
-0.3557032511987043 
0.1267460195986884 
-0.7192087499660035 
0.2950719951863286 
-0.2865430921689904 
0.8065009139426592 
-0.5425756857039914 
0.1318427850915657 
0.5039371296280548 
0.08452902953051804 
-0.05458939147352614 
-0.7878525825080926 
-0.6780851675064908 
-0.02198119895440668 
-0.306405029387531 
0.4293414398469776 
-0.4712720940247207 
-0.5284698190615009 
-0.2656023414364151 
-0.4937527883842816 
0.5504657228131908 
0.04756559607190373 
-0.4314765872428797 
-0.3615817940606075 
0.2965465542624234 
-0.3125421296594167 
-0.3876865229351519 
-0.5681302541804927 
0.2068711538228436 
0.5186232997494785 
0.003814923393711943 
0.326943120124448 
-0.06159439870876198 
0.1429382710435163 
2.026146807601034 
1.003595771324347 
0.8968136159051071 
0.0003852695121675338 
-0.003556625880556892 
-0.8028789730706449 
-1.01096409088325 
-0.7400504446500445 
-0.1506618652645481 
0.1311579901069453 
-0.0646164970695489 
-0.2978798351381517 
-1.070731814782493 
-0.3728650398825147 
-0.1069210237198855 
-0.14377177452151 
-0.6004486177319025 
-0.01091267938525399 
0.2956518732313768 
-0.1905050975110374 
-0.3587895040420883 
-0.3574353614618733 
0.0943093817563794 
-0.3204788283483344 
-0.5172036772261744 
-0.5329926756581264 
-1.242344111249907 
0.199923955156912 
1.033636531169707 
1.155679706187687 
0.05865446180061869 
-0.2466692114453729 
-0.1715105113948564 
0.2090019620704264 
0.07152142383198445 
-0.05694432738028697 
-0.5792908517521279 
0.5749031042680556 
-0.1079594737905622 
0.457478719633329 
-0.9508581717420423 
1.22963589014515 
0.4872981154907025 
0.4257902912476698 
0.1760643984696601 
0.3007427824653258 
-0.00680849969800591 
-0.3806510455939616 
-0.5489399038778123 
0.6579774412864077 
-0.1466966031176411 
0.4309604252181695 
-0.7898374741249367 
0.3705868335140341 
-0.1273665080734884 
-0.1611778128248106 
-0.09432870842060885 
-0.1050163875276743 
-0.9392608645290074 
-0.1026501391132599 
-0.8985779851409842 
0.8365949475208299 
-0.770334381725145 
-0.7820699385699371 
-0.1517820684151983 
2.748473928148293 
-1.511347014036358 
-0.2357741047239037 
-0.3735455938552659 
-0.06750640906565412 
-0.1855807367798308 
-0.3568935823900132 
0.06770388527088944 
-0.7485263399767518 
-0.6398807890034185 
-0.648343806130224 
0.02273277023212481 
-0.4437963099937421 
-0.703896215787143 
-0.296024482953989 
-0.06571497980449709 
-0.06817739343850179 
-0.8911520475530158 
-0.4629897373372518 
-0.02621753664243122 
0.1792626957212041 
0.1445589763394342 
0.01863985812059629 
-0.3649299649375272 
-1.090059853785896 
0.849210307121589 
-0.3718636294554066 
-0.09925017581526518 
-0.09021295679360811 
-0.107499020486137 
-0.8067457589039153 
0.9252562322572664 
-0.4811472179163936 
-0.5412739462293517 
-0.23956331492383 
1.010535373044807 
0.193070393985963 
0.9023218022656857 
0.2038088846065158 
-0.004428246497923579 
-0.2096166003609249 
0.1800574686779012 
0.04339613751237155 
-0.3419233007879983 
0.4791431104157282 
-0.2252131862219017 
0.3590951004344659 
0.5483572610836083 
0.09939163494719552 
-0.03252856125540429 
1.532536511444307 
0.1070991393753227 
-0.4602475982607377 
-0.1609974611651344 
-0.1511641305145587 
-0.1712014486249138 
1.880385477238879 
-0.3067250167498544 
0.6331311719908197 
0.5041751694684583 
-0.7999306537200225 
-0.4042637101360263 
-0.4779689790518989 
0.2390263212235897 
0.6625156311201653 
0.1173132078882127 
-0.2407849686184853 
-0.2110734276199585 
0.5471232293793039 
-0.6704401379560611 
0.3736439979773401 
0.3061953236232102 
0.01502475221802602 
-0.1046534032377114 
-0.6517735049056325 
-0.6855881845632559 
0.08871847634950361 
-0.5113874671085714 
0.5413413701542473 
-0.2099837818266883 
-0.2610536400153309 
0.3150135179284544 
-0.04236781788978933 
-0.8785423412215417 
-0.2455128497605298 
-0.898175812242521 
-0.261624650093418 
-0.1515942135013639 
-0.8917909646559026 
-0.4873718092514351 
0.643169452612029 
-0.3882034476974022 
0.04811447826812223 
0.6194194467976838 
-1.029117697213717 
-0.1615544920319019 
-0.009367005119040237 
-0.4934707329216896 
-0.01434972383303859 
0.6076112722340837 
-0.3102243800488342 
-1.145855796803494 
-0.7722954753015574 
0.3897364725678501 
0.0733149258615628 
