solver_type L2R_L2LOSS_SVC
nr_class 2
label 1 -1
nr_feature 512
bias -1
w
0.09313346217739128 
-0.5707252425594452 
-0.7366420005463278 
-0.3140714486934246 
1.037832084887025 
0.05157890059023638 
-0.103236926379658 
-0.1244964898249844 
0.1398936792356138 
0.1268579727434824 
0.9565079393509822 
-0.1933180201262844 
0.9499647681086973 
0.1314793380807257 
-0.05264624308442861 
-0.09389424150313064 
1.043335330924392 
0.2656830218176444 
0.7296727431488883 
-0.1001295499836599 
-0.1800843258911655 
0.2835861823698855 
0.4639389934442869 
-0.7099697465118957 
-0.2909974695864256 
-0.2254395780374155 
0.5245404905168105 
-0.2328541382735616 
-0.4043062191537384 
0.6968247111094077 
-0.228444290184504 
0.1845853067136698 
-0.9640992856459273 
0.2865391681918115 
0.1342266565326225 
-0.7169598298091061 
0.7588297178081119 
-0.1602956053494817 
-0.5471136182476788 
-0.01230508326475518 
-0.09617453882666478 
-0.6332243649176292 
-0.388105494875594 
0.03115273818648039 
-0.1638618381914465 
0.2313981731178025 
-0.02191147258836109 
-0.1583171518242215 
1.331162651542024 
-0.7732514713418437 
0.01815675651096597 
0.2347395169053439 
-0.4470864164898483 
0.2690029877965582 
-0.2037919223431017 
-0.4320479687741893 
-0.557884014689484 
-0.4216869516096162 
-0.2535477571573452 
-0.4817028986291172 
-1.126630415780381 
-0.2345421199795848 
-0.2808626586486565 
-0.3916123212263999 
0.3810673170389248 
-0.3834679897923329 
0.1676843376269435 
-0.09854330115714684 
0.6112168670822538 
0.09614334367389356 
0.03128961755814447 
0.1449830854960107 
-0.3914700517142425 
0.6446027801222812 
-0.8507770935666685 
-0.5238110311595322 
0.721481649609558 
0.02347856133560263 
0.1114363376143504 
0.3281572849030251 
-0.7009604488189248 
-0.28024409767346 
-0.07935759458351115 
-0.1084672299153516 
0.8261193643691327 
0.4211343407876927 
0.1938119026375563 
0.4890606221389198 
-0.2970194754538013 
-0.6962156548714196 
-0.6586482492270163 
-0.4818417283244341 
0.02310487537610773 
-0.3764806363036821 
-0.3347504574301392 
0.5669146551738292 
0.5460122331388912 
0.129165895665139 
0.04688928015949716 
0.9468064649009076 
-0.3321138394749 
-0.3339039688912802 
0.698113513673307 
-0.08060656475265056 
-0.6648164398976393 
0.1716970859235102 
-0.6318780148664876 
0.3696913055102473 
-0.1139209507176821 
-0.1712306991398082 
0.6579578861651324 
-0.3575386010200272 
-0.1176048986231003 
1.200204799162709 
0.7768438522108857 
-0.4890415591498787 
0.1924098589480254 
-0.8886776115139383 
0.05335524196118584 
-0.2057073743062541 
-0.2840293583575992 
-0.3104557113575913 
0.808436144932722 
-0.1349193595579899 
-0.3871988564278786 
0.2225922416376682 
-0.6046457691759072 
-0.4525911270169256 
-0.1247061301622706 
-0.3124712146739032 
0.6003724433286394 
0.4139374107387558 
-0.002493939301791826 
-0.4997841873369991 
-0.3096453531953952 
-0.3744999932729643 
-0.24275851512126 
0.2084163560251238 
-0.2558594820855291 
-0.5385715168007438 
0.09941141190688281 
0.4078772010711545 
0.09652541147891805 
0.5326300134026047 
-0.3735229984442618 
0.08686219105625619 
-0.2650260562077535 
-0.09727791020380459 
0.3437319949058665 
-0.3057055817128254 
-0.9999963348469036 
-0.04990256905840813 
0.5808855409501514 
-0.4068228816059131 
-0.1047055687366441 
0.3215771096811715 
-0.1622117889605575 
-0.4918711579287574 
-0.3701324162729154 
0.05352958718577508 
-0.3476401112742605 
-0.6263293428683586 
-0.07137828337330596 
0.3935875186495422 
-0.2259396226803123 
-0.7897374933772077 
-1.061354757016737 
-0.1741133920481507 
-0.0770464067981788 
-0.05899434227224305 
-0.517499250986641 
-0.08583365601696007 
0.4491587716293593 
-0.1341751481762535 
-0.2856821913963322 
0.1152451198253221 
-0.6831683787730324 
-0.4364093206069781 
0.3562669524429515 
-0.05671328019465965 
-0.1626618510119859 
-0.1451112629993103 
-0.09317634492223457 
1.618346781291619 
0.8110341921575027 
-0.03553712463267693 
0.1009145816526532 
0.1234064062383405 
-0.2835027483523791 
0.8970439125448596 
0.07851600324881966 
-0.07581249736207074 
-0.3205788840836524 
-0.1765076762174361 
-0.4150485804653976 
-0.4181641358051644 
-0.529443342076054 
-0.161368624409936 
-0.299597525415835 
0.1489290630083502 
-0.7464582089563077 
-0.1479689367973665 
-0.03429893856118505 
0.03570127814046303 
0.5462540624781794 
0.9452083748919177 
0.6178002977466852 
-0.05006288172543304 
-0.6625595048350446 
-0.3743288322986358 
1.399519887225675 
-0.2200097896370947 
-0.511098105487097 
0.1929198696757564 
0.3019938117764389 
0.2622557532754475 
-0.8383654813313566 
1.245205817923856 
-0.9144967541406132 
-0.1615565999792239 
0.9378409392177044 
0.03649714281161652 
-0.3491494683584167 
1.259931111446055 
-0.2348730218031028 
0.9725864714537042 
-0.1312763260550479 
-0.3100944628535335 
-0.3214033340315455 
0.5920169052332652 
-0.5970229508340446 
0.6235918503301561 
-0.1788037173595081 
-0.1202000433973687 
-0.2272893374335949 
0.3642461307873799 
1.312535524205956 
0.1082769089454597 
-0.2317498240691423 
-0.4498293684154984 
-0.5569614584431605 
0.1127051336498662 
-0.181363931365212 
0.1156731780866161 
-0.2802254700918606 
-0.6833388393330079 
-0.4936982365307289 
1.036643874200676 
-0.6509322183992331 
0.3996738961317658 
1.591733229766842 
-0.1397481935546614 
-0.3894528867562948 
0.007587424279296116 
-0.5378956709018193 
-0.9102122068826541 
-0.2139907741333576 
-0.217147968641353 
-0.2893055592669291 
0.2375073960507366 
0.2491637468468232 
-0.828991733733623 
-0.8149336776245444 
0.8856342598247617 
-0.4629617338389856 
-0.105411697711141 
-0.5528562182630932 
-0.1298612903351871 
0.03505257488129256 
-0.9061428036482823 
-0.06554988134376179 
-0.5866954093784437 
-0.216169450816615 
-0.06128220053948534 
-0.2156120527386849 
0.5060767010153705 
-0.3826951292822424 
-0.3638519254014184 
-0.08876733847333818 
0.1250369576592849 
-0.3708160648510174 
0.9099855314444723 
-0.06214368394943991 
-0.4097482894041106 
-0.7024777133603208 
-0.2202893779677793 
-0.4859194280817855 
0.3475089183104499 
-0.5809277881017628 
-0.01913933420743083 
-0.134889228889743 
0.4813251233182243 
0.5504127332447861 
-0.2059389730320824 
-0.2083142698621875 
-0.3406174259338074 
-0.1826346499710503 
-0.8466348503712887 
-0.2926996994378664 
0.05510703910508721 
-0.1290350203835074 
-0.1069011955507519 
0.3552398464682797 
-0.2204090581215791 
-0.436070271493773 
-0.3735855232820993 
0.1134370349921635 
-0.3329743768068313 
-0.2693257212989366 
-0.4396411359331908 
-0.4889102791442271 
-0.4636831872965571 
-0.1901800174543022 
0.250294086397269 
0.02916252328670818 
-0.2630842645064749 
-0.1046507199263065 
1.005534201143879 
-0.1674115385549152 
-0.3378989038033937 
-0.3289141371925396 
-0.2599229119957716 
-0.2015812197324208 
0.003232909858731162 
0.002277511363704891 
0.03086895987941844 
-0.2982288634303508 
-0.2967018291983251 
-0.3442861093332266 
-0.4164133941591512 
-0.08149207453056848 
-0.7798719779277149 
0.3452157143770931 
-0.1711092783138338 
1.2824730362381 
0.1053512539192968 
-0.007401197383407459 
0.04156355799199852 
0.2834903672505616 
0.07804651933976599 
-0.9127215558034073 
-0.513927144082279 
1.079682552329134 
-0.3426858860174787 
0.3564166540206002 
-0.343130221454906 
0.09800314567912374 
-1.005877641720854 
-0.971423684016718 
-0.1468736546274434 
0.3372517057135805 
0.01155637964131026 
-0.9391522847323898 
-0.4480165534701978 
0.3008061361101321 
-0.3947384710537583 
-0.1592172880974452 
0.04369876196749246 
-0.08509568779090025 
-0.2814227267290802 
-0.3918325529034836 
-0.2199521048922647 
0.01423609785625872 
0.04597940744037149 
-0.5130114104781247 
-0.337963194099772 
-0.3836819552309628 
-0.4750215485676875 
0.5075083515264323 
0.2230790241027105 
0.2086997788898873 
-0.3637643764378322 
-0.06911328141517331 
-0.2509286408825218 
0.3259994656270875 
-0.3965964422093839 
-0.03480524564036035 
-0.1380132344410787 
-0.4780457278239458 
0.6192734617352197 
-0.01932763697249611 
0.2979511119797583 
0.3130073807150007 
0.127000154752392 
-0.1114973507814522 
-0.353600051239811 
-0.1566835093389238 
-0.2567061467824932 
-0.5139923525198941 
0.4336222013447427 
-0.2024253964408567 
-0.6535129946506122 
-0.08702234833654045 
0.2687600861467551 
0.2409306183683239 
-0.2461676898254082 
-0.3446389723276648 
-1.819339345886377 
0.5615791175405948 
-0.2499356258271393 
-0.8674022976224182 
-0.1142155763139429 
-0.5015928698178488 
0.3562398115319884 
-0.4367870371011027 
-0.3151929567104654 
-0.2675422748499929 
-0.0210916097745861 
-1.002863283666499 
-0.3622168287788689 
-0.2927787053482477 
0.3847419916493392 
0.2322411735019138 
-0.2967598638987713 
0.2774347028136802 
0.399166779374331 
-0.7263059454711724 
-0.6346727232859362 
0.4208844926003514 
-0.3973080909608478 
0.05455272705041316 
-0.9168815513743916 
-0.6707452175214511 
0.04541194022991752 
-0.8108122902097886 
-0.1855789872710433 
-0.2690081567414278 
-0.3464686271894368 
-0.05528532117100384 
0.09429891316079839 
0.124249265081768 
-0.132581284477999 
0.05072787739457527 
-0.2484151663286124 
-0.5056042516657009 
-0.1260807011135684 
-0.4176062613124685 
-0.07160993143423704 
-0.1041633498695946 
-0.2998104518441071 
0.009361696373382543 
0.273973559420744 
-0.07675617227414977 
-0.0812239523519864 
-0.2272666858928748 
-0.3900342195583826 
0.003887119901655768 
0.4073570109836494 
0.02816707765832278 
-0.3243942794687217 
-0.1954592074812499 
-0.4390216831551268 
-0.3317977538246641 
-0.2366779835075351 
-0.6240356691608688 
0.1549259662239123 
0.2674279102790615 
-0.4497894300095432 
0.3317491454749164 
-0.3905010789138602 
-0.4603213731416234 
0.3516912815095899 
-0.317316568294074 
-1.157045076047231 
-0.2135890923941114 
-0.5126980839894387 
0.4439768744467791 
0.07651203000596404 
-0.2260259603600823 
0.09217602618581759 
0.1391209178863024 
-0.07891515229745399 
0.4869219921762456 
0.1683916641357161 
0.06623002398614219 
-0.4443360370423575 
-0.5435952886041497 
0.1475629100132445 
-0.2193890504757072 
0.3628646037833876 
-0.2714298812750104 
0.4868107753744504 
-0.9600367227419164 
-0.1182136516296897 
-0.1930862715046478 
0.09356201660495925 
0.8329565132553646 
0.8366721591480906 
-0.4686753155028453 
-0.180567811421941 
1.284807197046701 
-0.199034304212877 
0.7888608941610908 
-0.9897450846251238 
0.02897066984221201 
-0.301219786507078 
-0.1515836494167768 
0.1845771649144748 
0.7149600708844102 
0.2524239985716951 
2.287551154871212 
0.4874513210770657 
0.2778908644336875 
0.3363428830976036 
-0.1784986988732066 
-0.1729616901025453 
-0.2513248983199312 
0.9579447986345178 
-0.5646113972560409 
0.1554423040380227 
-0.5503127865608665 
0.3809844147386984 
