solver_type L2R_L2LOSS_SVC
nr_class 2
label 1 -1
nr_feature 512
bias -1
w
-0.05440231891613762 
-1.567039569889066 
-0.6553487553144475 
-0.2838262228133815 
-0.4969265946091067 
-0.5106332684316419 
1.675853802835225 
-0.4009622371493241 
-0.5063363403400021 
0.2579866967183118 
0.5478059659949779 
-0.2599894471662737 
-0.2196391142886436 
-0.144587473763567 
0.3401355336168546 
-0.3335991305586705 
-0.3749368561398833 
0.1974824035088509 
0.2969229085451535 
-0.3259443265664158 
0.8819056940373646 
-0.02640220427888195 
-0.1572658723769837 
-0.4233522693286111 
0.2090337062211886 
-0.1346680941614815 
-0.1719220889981356 
0.0944643895916806 
0.9938652018743425 
0.5579916488748754 
-0.3056714215962085 
0.1007000099959209 
-0.557198421531312 
-0.3456707418022056 
0.5004934858387473 
-0.5979957100786721 
-0.2102176189666747 
-0.7295657402388146 
0.02944621422560645 
-0.09521618647501057 
-0.2983002215353406 
-0.4349962417077345 
0.5097984736090015 
0.2972573472912909 
-0.1310358180519398 
-0.4354411703926106 
0.4255987755088314 
-0.6587251882548389 
0.88048962383721 
-0.1697240871225065 
-0.3699539162254006 
-0.2603539036790958 
-0.3918062812548422 
0.01145009846986644 
0.00517992997971223 
-0.4001900906269692 
0.457298031508288 
0.2688948481753028 
-0.3511255175652006 
-0.392963938249812 
-0.3172941348015956 
0.316704603568738 
-0.3132966544421035 
-0.07117136272035958 
0.2798579670619112 
-0.4417835632451474 
-0.6272640274082389 
0.1695959158784205 
-0.9719125894234549 
-0.8788494917670742 
-0.2463718414855295 
0.1096413671510515 
-0.2844502514167498 
-0.008591554827939888 
-0.5055962436012479 
-0.26085973556951 
-0.4382420185603944 
-0.2826950874678986 
-0.05189012255720454 
0.0412292025351858 
-0.4669045656653244 
-0.005357952075000689 
-0.1003021721844652 
-0.3669037733537901 
-0.6119296832472324 
-0.2240275238436461 
-0.3347040526152726 
-0.4861175586693018 
-0.2843690546551488 
0.07296616633959274 
-0.5326925049299224 
0.0868975432216999 
-0.1324579696042666 
1.263362643866312 
-0.2077429701576184 
0.07855547137262402 
-0.3131769139588172 
-0.1095618559363444 
0.1270065320603349 
-0.3173124277274998 
0.1985153158942543 
-0.1311304725224737 
-0.3301532844578537 
-0.1200494853000242 
-0.7351283169927265 
0.7567853938712966 
-0.4896700390466373 
0.3892665261568416 
-0.1294045043462454 
-0.2006024546160929 
0.06885425028475407 
0.096430537474786 
-0.4308882263055929 
-0.1588072844748266 
-0.08174774205735907 
-0.1866630939529104 
-0.3622075605172866 
-0.6956717463648343 
0.1742643329484964 
-0.3197459037969303 
-0.5090580598439777 
-0.2295921677199339 
-0.2397237191842972 
-0.1281142031539221 
-0.1307389335777916 
-0.1411665656558592 
-1.029307781768272 
-0.241516243228459 
-0.015656784524261 
1.444585751083755 
0.3552251336891958 
0.04540623757598103 
-0.2958735108065546 
0.7542632279778534 
-0.4079724918552415 
-0.1580049425696679 
-0.2110463976142847 
0.1470920596843563 
0.01802700949743294 
-0.0212604593941024 
0.1023367849805515 
-0.6138807903576896 
0.1103818999328109 
0.04642278071449488 
-0.1008769133947257 
-0.2355033369385164 
-0.2602718955303638 
0.1700911739808148 
0.2168116850823831 
-0.4571503663105079 
-1.166799902728062 
-0.2355098372409956 
-0.2096828936869065 
-0.09702887809830682 
0.3499275075046023 
-0.2332843324474076 
-0.01040404141715658 
0.1863226808708774 
0.4315038185590866 
0.8762199098513264 
-0.6064107258750437 
-0.1991859507857752 
-0.1769003456640868 
-0.08357016673952719 
-0.05255295379218712 
-0.3026540058774922 
-0.1076694796279139 
-0.7804987889318178 
-0.212944081439328 
-0.24951619547192 
-0.3116371297946627 
0.08325510783259371 
0.06396757407420064 
-0.05969439244166563 
0.3665837957320648 
-0.3090728758457993 
-1.063988845030109 
0.5030866547093765 
-0.4070503381251916 
-0.2929724322625781 
0.4893456033098712 
1.695195315584098 
-0.05016841392246569 
-0.2070934852521695 
-0.1468129801302392 
-0.7492637328107951 
0.2582071752088814 
-0.3316446828888899 
-0.3554469707333533 
-0.1774472294186898 
1.07979729983776 
0.260657175361152 
0.8491290854959423 
0.2784782187488638 
-0.3772073316654841 
-0.4852222195590966 
-1.121509849758386 
-0.2480662135475092 
0.3819157483798947 
-0.6723112042187332 
-0.07350331230913386 
-0.2410071107955468 
-0.06126108887016815 
-0.1242474627135132 
-0.1354714260095129 
-0.2210250103177765 
0.01946586119849086 
-0.3298511355816801 
-0.4552195948104145 
-0.5466558683023656 
0.4440389962021783 
-0.07010089969320821 
-0.2227710023057377 
0.09607950306478234 
-0.2811099972364431 
0.3289454692243891 
0.006594262310131377 
-0.1872922295712347 
0.4125934365845483 
-0.2765928683058676 
0.03551069916000001 
0.0911348273651654 
0.3463547667951395 
-0.03588368938513176 
-0.3685177690692539 
0.2293725119959483 
0.1313710065469305 
-0.6813186598197428 
0.08179939835637373 
0.697420289357682 
-0.6129976000860003 
0.09265296949541758 
-0.2870972552815612 
0.2130196141782859 
0.3460885754621548 
-0.2138012878114717 
1.400907152741045 
0.412416852441225 
-0.3168479398910447 
-0.3852580752086957 
-0.6498173057768672 
0.791777923348322 
-0.3083186256149156 
-0.1983379596314971 
-0.1361579559978418 
-0.4871444085674503 
0.3491370823401148 
1.009518376981843 
-0.8465943492713514 
-0.3691631230415284 
0.4241606915539298 
-0.310388320139393 
0.1711617965288859 
-0.3258143190817411 
-0.4753604757092251 
-0.03510158632595148 
-0.342507826860654 
0.163124374562989 
0.02942844735456076 
-0.1690828018692442 
0.01193065425138626 
-0.205248851640796 
-0.8843282192108891 
2.096243099348406 
-0.3515546390275742 
-0.1185866145509503 
-0.4303945040572683 
-0.2772817069541234 
-0.1234309300902118 
0.07202269522176058 
-0.1464665903711433 
-0.6001005559920569 
-0.1066716878105913 
-0.5523767007768989 
-0.4003234913328582 
0.3619505129361439 
-0.2885942371512996 
0.2257400133886557 
0.3707743441911564 
-0.3099542665665736 
0.1601404256780846 
0.1992080111240307 
-0.11618799458107 
-0.3537095591471338 
-0.4662614904704227 
-0.1346397547575882 
0.5440645602885328 
-0.1005179125994606 
-0.1537426298273521 
-0.1343562622152271 
-0.1041413655092784 
-0.1049209386908021 
0.2425870140418605 
-0.04864220823096873 
-0.3152245967522013 
0.08162900380180368 
0.03470517484167725 
0.9271894434638822 
-0.308722064894262 
0.7682401624946404 
0.6958715406990122 
0.6102919660417611 
-0.0776637931742015 
-0.3175912143615989 
0.2224424103703412 
0.2019181101309755 
-0.318664968843505 
1.926521660866939 
-0.07970986853683193 
-0.1320691970927552 
-0.4854864081561483 
-0.06767379817966876 
0.8014894599818546 
0.1381085616250916 
-0.7076826112684282 
0.177423126615862 
-0.03123163601338477 
-0.4208680323398711 
-0.4447304347473059 
-0.006702136605699608 
-0.3315462770013431 
-0.232900516998202 
-0.383271755859003 
0.0005535883586813561 
-0.2096188152743366 
-0.4965960934650913 
-0.3652000790702787 
-0.1570088940965536 
-0.4255157001950004 
-0.3989465117814083 
-0.2038253158291632 
-0.1673334169137901 
0.01090704078611909 
-0.250400360997893 
0.3226876348643118 
0.07124219997939685 
-0.2939768563401562 
-0.3784615620215347 
1.274373548509366 
-0.4268545815264497 
-0.08113037635038391 
-0.2909199028816909 
0.7782881846189913 
-0.09500533451221013 
0.8201649669213362 
-0.4216218238824297 
0.4067868844420363 
-1.086207350473291 
-1.034637159461617 
-0.4813472070131228 
-0.6994347097907685 
0.4759929759566896 
-0.2416929973547905 
0.2667176310988523 
-0.7156865191389413 
-0.02563593695911992 
-0.1419030672697194 
-0.2019077134541182 
-0.356543531388212 
-0.4199729377940487 
-0.478714493992666 
-0.2682482037489554 
0.02408117425190471 
1.11183609271301 
-0.0005278556009865147 
-0.1492072655392537 
-0.04238041171621887 
-0.2109489287598022 
-0.5857118919357094 
-0.07768424564338439 
-0.3052417135714513 
-0.5605927156127295 
-0.4061256710875696 
1.216997615120939 
-0.3504534266429198 
-0.433799141603065 
0.9553609284093115 
-0.8627644572766479 
-0.8007762741953341 
-0.4388272677313462 
-0.2203647133441948 
-0.3551285907899481 
-0.2806078714267438 
-0.1802999719850209 
0.5820532242738489 
0.2272555436679912 
0.02881430982002892 
0.2647026190259534 
-0.4082140732691958 
0.1358767749388011 
-0.06073835767821131 
-0.5595534506936906 
-0.217325796289802 
-0.3554097513002836 
-0.3572959111745708 
-0.1731427387933438 
0.03467199875587343 
-0.3969297763383422 
0.1222949465047428 
0.1323691385129288 
-0.7051730406117271 
-0.2678873300163055 
-0.2804654344586239 
-0.1586920849978961 
-0.16918279411989 
-0.1002342080188455 
-0.3339359193022691 
0.3314383449500317 
-0.6612133347479655 
-0.1876320864922774 
-0.1131609693352134 
-0.1173709864172444 
0.4051835728766242 
-0.3975641019557967 
-0.3279724795096392 
-0.6467047440299948 
-0.833503920489275 
-0.6714324519601634 
-0.06392509864108062 
0.04391045364326151 
-0.1199129644399682 
0.2569873554286433 
-0.1609035870763818 
0.1440515423746104 
0.1473417987124011 
0.5237172006945198 
-0.03978348863155619 
-0.1769296947753787 
0.7721783342680406 
-0.09555950046216857 
-0.3755482372949978 
-0.3622695300273188 
-0.1513848090776771 
-0.2784906652312694 
-0.7327626967469573 
-0.5232867560803111 
0.1643578409270377 
-0.07125473492695732 
-0.2576951985955558 
-0.2275538719035711 
-0.3760950625292395 
0.4079374819724499 
-0.3572410238083037 
-0.2419165584372731 
-0.2332058328869197 
-0.346955594351856 
0.5473084296063778 
-0.2487827789870605 
-0.2312311511676212 
-0.3435909866794002 
-0.7482158330585595 
-0.1962294257220015 
-0.06677461989946794 
-0.7906706329125268 
-0.323502273835528 
0.6412660127132452 
0.1402130384685388 
-0.1002225285695172 
-0.2000476613937992 
-0.3828896295113889 
-0.4073334641418375 
-0.1496664122018822 
-0.2701023948427326 
-0.4331018462836148 
-0.1129673333158359 
-0.3261863516562233 
-0.6633947721249053 
-0.1226050054410594 
0.3029083867914773 
0.1683479423111828 
-0.1394620453261438 
-0.3473539128186229 
0.224351709732494 
-0.0577479423310745 
-0.150163428631795 
-0.3179424514202559 
-0.6179722191284851 
-0.1749417276483387 
-0.3229808090608192 
0.02136441432765267 
0.5035668944395699 
0.2118707976424957 
-0.3168122682637971 
0.1767956008358099 
-0.3373243510355122 
-0.1829027276391669 
-0.2219108242604548 
0.3945828551630494 
-0.4894269356042371 
0.003473343210067386 
0.7104586566735437 
-0.07690797931707989 
0.7522614728462443 
-0.1588354995562335 
-0.2131104900337897 
-0.3499206390582226 
0.2585286114287038 
-0.1933157312395348 
-0.3073471445067379 
-0.3453339374538332 
-0.5383204223721224 
0.1209929588665424 
0.6095992038832837 
1.219613007930224 
-0.06270986796354432 
-0.1011101398380989 
-1.12173207198146 
-0.5598153155420356 
-0.4058085194448359 
-0.1018705138342317 
0.4325370834580787 
0.2270522942399556 
