solver_type L2R_L2LOSS_SVC
nr_class 2
label 1 -1
nr_feature 512
bias -1
w
-0.008315344908585133 
0.358861039958642 
-0.3948507753071167 
0.0648127321760783 
-0.7334809855636583 
0.3749567254509344 
0.7413231196116741 
-0.4715232470201876 
-0.5202784969447221 
0.4716082966725805 
-0.1645341187967364 
0.108143065467756 
0.3458555210262355 
-0.1635691885286892 
-0.1721113796635887 
-1.077814476241187 
0.0787564201070128 
0.0808292733615415 
-0.568190282239772 
-0.08988391318987569 
0.1531886971784737 
0.5959807951379916 
0.3556912229118863 
-0.4072021552543014 
0.08763366231511827 
0.7740755251661205 
0.3933737404492166 
-0.4320893703780456 
-0.8974800273132267 
0.2223119624920845 
1.076490468126806 
0.5765987549904986 
-0.0981166387770263 
-1.083326013245091 
0.6672417448731235 
0.6387031129493749 
-0.4398024269593138 
-0.7660748771017486 
0.09752547501209526 
0.3021500404950161 
-0.5294662915420995 
0.08565198312356759 
-0.4037305357243834 
0.119338196352125 
0.0602572153336718 
-0.3651096075463459 
-0.01359653097852043 
-0.3123215428478086 
1.521147902871301 
-0.6641504752316416 
-0.4559080271137614 
-0.1771939157003815 
-0.7982533372932018 
-0.4038114810076504 
-0.229219566786016 
-0.3933028631104818 
-0.619958329503873 
0.09494640673229759 
-0.7431720023356452 
0.436405387812251 
0.739994480965837 
-0.296109421042852 
0.4253486693704709 
-0.01215720324520565 
-0.4431583022570222 
-0.3742300909620519 
2.573774630284314 
2.164036073024378 
-0.2377138719190693 
-0.2428391142882671 
1.027736440453353 
0.971613123723255 
-0.07159086523484408 
0.03869655209201792 
-0.5626555224625901 
0.2168337608539086 
0.2191410293593687 
-0.5813628746279504 
0.3080739546840778 
0.8889529399936554 
-0.7045374186274616 
-0.1903747565231336 
-0.1294110406724962 
-0.03463206608315698 
-0.5984910588333696 
-0.1541581115814467 
0.461551218701264 
0.7933702653353222 
0.7569073867826939 
-1.061278051806133 
-0.4832602398206132 
0.9565942095567758 
-0.0327927016478568 
0.238132171891322 
0.5563360905466623 
-0.1211099040708536 
-0.05261195965814987 
-0.6540576868323843 
0.2305558602434503 
-0.4021310694595051 
-0.2892185415388816 
-0.9739701645231438 
0.4305825601507275 
-0.126407744020001 
-0.3998752926695656 
-0.252926410573009 
0.1957249779792796 
0.1548684610682857 
0.2567153024471007 
0.135043486085891 
-0.343643307990264 
-0.2093729525821635 
-0.1293047012264215 
0.3726409537439345 
0.780252305195386 
-0.004858613006996842 
0.429512419686155 
0.03720295862575398 
-0.07997754502724624 
0.4465486485989417 
-0.6974681816856463 
0.2072305434414447 
-0.1619529166595481 
-0.5115893418420492 
0.3364719363473375 
0.5307856479947082 
-0.008889345762571487 
1.660531145245686 
0.2799624250668078 
0.05888695497870187 
-0.6804077393421688 
-0.07739047388177302 
0.118855012633931 
1.806205223070472 
-0.3930572990286892 
0.153487868782 
-0.440476873269381 
1.313386412644001 
0.3052371967659325 
-0.7973323132704444 
0.6860740164119937 
0.1337876251701536 
0.08534981110045257 
-0.1666155994258678 
0.4027810215182142 
0.673706220595077 
0.6403505294907531 
-0.06806756337678252 
0.9327116068801422 
-0.1357560205525698 
-0.9738209502700189 
-0.004105423289468665 
-0.12038235774713 
-0.3133062501178597 
0.01664754593961147 
0.01267514047788402 
-0.1026877541800317 
-0.9998229398929704 
0.3816009448720992 
0.6249088780041941 
-0.1539844592903137 
0.1680175513544689 
-0.135034868160732 
0.2603312924877575 
-0.2603056734841555 
1.041608772813952 
-0.01113096918950193 
0.7203106505537892 
0.7955459914724983 
-0.2103922923956122 
-0.400843011571504 
0.4720335098982734 
-0.03573528297142149 
0.230931014167293 
-0.1411940492128221 
0.4375913796121002 
0.1483960686018893 
0.1792011410996567 
1.440889969836245 
0.1266186503816198 
0.1349330164412015 
-0.4371579193737042 
-0.3615787836133324 
-0.4293088486067327 
0.4531869624433841 
-0.2537403047053344 
-0.2025665264017105 
0.02634784098767178 
0.5809150587458043 
-0.1129782177816214 
0.2800701453153835 
0.3406206478627217 
-0.5186562030784425 
-0.4530222870218148 
-0.7351033519353497 
-0.01924451050249569 
-0.8231080121509067 
0.6559349658680758 
-0.3408225085796772 
0.8339005116223532 
-0.9793003854065401 
0.08486310331206996 
-0.9670716457750198 
0.0147295498170859 
-0.3584438306574795 
-1.156034921909739 
0.337625653367086 
-0.2633845738534506 
-0.08528547344979039 
0.4558844469954202 
0.0008737824218936537 
-0.04788137469726855 
-0.2603704093277507 
-0.2616920571679411 
-0.2640975175328527 
-0.7232171167810788 
-0.8262445383572762 
0.4029359729590932 
0.4268181773427318 
-0.2284111596319982 
-0.6053173445334045 
-0.1207928360941369 
-0.4669244131465534 
0.1152579621074813 
-0.3788012740911381 
-0.04075841448604667 
-0.2740573015499261 
0.9891543772691902 
-0.36265515613985 
-1.142872880919557 
0.2706873437517904 
0.4142448974476636 
-0.54442729875519 
0.280007752061017 
0.8424333831189649 
-0.2458735360758567 
-0.3360512120192928 
-0.2270462962494641 
-0.4169430013018235 
-0.4508606121814392 
0.7448195079287139 
0.3365730754309436 
0.3595747977556084 
-0.08478448986632024 
-0.08317592701160499 
0.2919450897427825 
-0.3141886677737016 
0.4945554877217709 
0.6756753648143193 
1.192450601505065 
0.8425534710826431 
-0.1493031508248091 
-0.02624886627245557 
0.1167275877421196 
0.1148808822960312 
0.9766032903356304 
0.4223841010335346 
0.7239317544392257 
-0.2090666577557319 
-0.01619898595300662 
0.6749243107813009 
0.2086864952705949 
-0.3404604046495311 
0.07498806882865779 
-0.544164467031286 
-0.06230020916187661 
-0.5048309639738729 
0.08412589794970106 
-0.07950096498299788 
-0.2778086961558852 
0.1877267996389105 
-0.238105897179131 
-0.1239968366087242 
0.5874577967693689 
-0.2549926194755441 
-0.4323592586084247 
-0.4151976683516817 
0.09389634839251432 
0.01320830538602188 
-0.6482984089189764 
-0.5867450747416071 
-0.1183791382876976 
-0.107826271489144 
-0.2361354693224667 
0.01614945659406481 
-0.546929565122884 
-0.04398331045916069 
0.1233803171819061 
-0.1197846255319569 
-0.2123854857248056 
0.3203062489077328 
-0.4753157568149967 
-0.05793587416247174 
-0.2206799413655761 
-0.03804421111476508 
-1.0574896230057 
-0.7726401847859016 
-1.118910935376626 
-0.7321738608288647 
-0.1661326630577437 
-1.463186020853601 
0.284629035890782 
-0.1775032924186474 
-0.0600091752845968 
0.6676831659041325 
-0.7179269087699457 
-0.3273785382273778 
-0.8086317134942241 
0.5205008821304475 
-0.8611328754683389 
0.8592213580536155 
0.6529712715336449 
-0.1781744920354848 
-0.09948460109288132 
0.06042759868357693 
-0.1510995384347059 
-0.2875013974165685 
-1.01655989441542 
0.3626891554758711 
-0.2129749995915148 
0.4206443402733482 
-0.2209626668059314 
0.3749758545831335 
0.9272044003421437 
-0.1405535873989671 
0.1690493214971021 
-0.3500544142056398 
-0.5689242347334539 
-1.128336123966573 
0.04517083704107504 
-0.2313367804829419 
-0.2372809168872506 
-0.2572301001565557 
1.001820099091438 
0.01068603989390221 
-0.5988145118049887 
0.3499700090017626 
-0.6996369279202768 
-0.3520138274082943 
0.1966163258321632 
-1.337648100305945 
-0.6642595542950178 
-0.3162537116603645 
-0.2659199213740701 
0.430334329282166 
0.1643534223593021 
-1.147014114181953 
-1.020647497652459 
-1.466004326116129 
-0.2861039277982264 
-0.05816132751237276 
-0.2958883164550143 
0.29940594868224 
-0.1165580405578075 
-0.363054561044974 
-0.3793584957663347 
0.4419957792586178 
-0.1171688111898972 
0.5587755559662723 
-0.5494238961305685 
-1.139129144309016 
0.1906434973259818 
-0.2783052437273433 
-0.2499866011079161 
0.4269662831922378 
0.1235550981144626 
-0.420736404082987 
-0.5549717765481333 
-0.4546033675550105 
-0.1421750948902258 
-0.2523169959863728 
-0.6862791256209739 
0.1231172485479613 
0.08145377255168251 
-0.6395394031315879 
-0.02608231535178228 
-0.3976426033920976 
-0.5149221917278877 
-1.366761568953382 
-0.3246163357267157 
-0.4089512919652822 
0.2218299863196608 
-0.09398075302728832 
-0.09160220082835484 
-0.1039072104158996 
-0.4912961343043281 
-0.2578461598262373 
-0.1307597264385308 
-0.2187070205647526 
-0.5763013260785039 
-0.3969600733322173 
-0.4868853644094157 
-0.09153189427036373 
0.2538630005693024 
0.129370984296797 
0.4503146572867546 
-0.5402712877499795 
0.299987009262178 
-0.1590273767249236 
-0.2334139415884196 
-0.1152281395383715 
-0.02877093574779323 
-0.7887229535636932 
0.2867186861511309 
0.1284928315597195 
-0.438753130777966 
-0.1427176388167391 
-0.182303254090301 
0.6071066924211634 
0.2948786635156906 
0.1115948951142217 
-0.1738548668896885 
0.2448936750669168 
0.1355542574083551 
1.016849773623414 
0.4228275583435379 
-0.5216171177307888 
1.864434080727824 
0.5288991447059858 
0.3891858046797424 
0.00156816801896369 
1.004859687939201 
-0.09753530165503184 
0.1676709272216836 
0.2003776283099896 
-0.8705787405639802 
0.8081910150433328 
0.3393184271447182 
-0.1012087848491189 
0.7796128977651037 
-0.08081736772842371 
0.3222681382771319 
1.101661593996712 
-0.6052078539288641 
-0.3219613991193662 
-0.9834424621125922 
-0.3147446235161929 
-0.5557347866740241 
0.004733670340819171 
-0.7302302012040015 
0.2325274924925813 
-0.3173331680824341 
0.08293097259315409 
-0.4103606035777203 
-0.2556566929106059 
0.4067968411229596 
0.09529169787391237 
0.2982816247723986 
-0.1414503811690541 
0.6488835331637044 
-1.2458595935694 
0.1662346069431671 
0.3866927195224536 
-0.4362259094971384 
0.6628771146481894 
0.769403098693537 
-0.6740030855708771 
0.3247536398374938 
0.124962379920442 
0.08998299664045364 
0.7142278845058578 
-0.2627322168472002 
-0.1921216283769011 
-0.925464576008478 
-2.112188489680352 
-0.6323883044682169 
-0.8392712059504327 
-0.4900374597741096 
0.1331779559449966 
0.02076817822522882 
-0.08191104022192487 
0.6453203446438422 
-0.3611598329069514 
-0.4810022118333559 
0.1727818159087134 
0.4163369845141767 
-0.6913871174993167 
0.6556098259754793 
-0.05537156093459893 
-0.230542233061904 
-0.1030463027907871 
0.4457356924663448 
-0.9105639232741156 
-0.2388493725013814 
-0.00474840874220797 
-0.3694825178087313 
-1.159472485999111 
-0.7374778405562302 
-0.86305423096127 
-0.1336551488330484 
0.2069326931155517 
-0.5791903994001169 
0.4064184722248258 
-0.491456752214288 
-0.1515235394240409 
-0.09603905931935822 
0.1037364115488936 
0.3148849112988595 
0.07652847241120177 
-0.7679227217076618 
0.2868097176360575 
-0.5877198246686792 
0.1132351230957238 
1.335226126457703 
-0.4651834156342642 
0.001749653749667419 
-0.2851377127088341 
0.6948772526835918 
-0.8353649910819833 
-0.2821307816928598 
-0.2860538824607856 
-0.07402040219137634 
