solver_type L2R_L2LOSS_SVC
nr_class 2
label 1 -1
nr_feature 512
bias -1
w
0.06633817001510281 
-1.436675792678116 
0.2423455205618883 
0.341690547070395 
0.539475894155537 
-0.05378404130542204 
-0.1549461956412202 
-0.8330327894860144 
-0.244271079497015 
0.04073056850679865 
-0.3277673055409235 
0.1988043107352047 
-0.8442712531210373 
-0.5493947469838317 
-0.09450526937817794 
0.07504252212554897 
-0.04666223573837543 
0.2224569620569596 
-0.3855749080258402 
0.2780016033201098 
0.1776916314184064 
0.5160048219747935 
-0.4286525295112098 
-0.8178090097118089 
0.2926508137897153 
-0.01692683171771883 
-0.1546432559814783 
-0.1962812224628041 
-0.5639086438331603 
0.06465609403096075 
-0.8486164492803987 
-0.2471616635295418 
0.5092552739175072 
0.5034473735117138 
-0.4105923951291421 
0.9526933504449893 
-0.1508755551522047 
0.2481760941479619 
0.09097327871867475 
0.020480889956767 
-0.2103939313655259 
-0.4190937287415592 
-0.4429666844288492 
0.04643193142203841 
-0.1618313515408099 
0.3740215374516185 
0.05426766489605749 
0.6079569905622113 
0.01664260739269624 
-0.2826905396109544 
-0.1634005310974427 
0.2243485025791039 
0.4236332737592167 
0.4483844931459288 
-0.1640192999118251 
-0.1497313167057948 
0.5265848476295483 
-0.2483827479633553 
0.8072069579717474 
-0.5185219424103364 
-0.2178136660737176 
-0.1876334296348962 
-0.2472797435814496 
-0.298870415307072 
-0.7643122681000125 
0.1610006142528579 
-0.2927672775996587 
-0.3228414358877053 
-0.5458288332380252 
-0.1950281896448148 
0.03935346293566363 
-0.05548211525220093 
0.1804431760935195 
-0.09852659286838092 
-0.001469868800673637 
0.4940476260903153 
-0.1346061610904968 
-0.03511078323610914 
-0.4151409475114076 
-0.02540022472644685 
0.02384395566518421 
0.2020408388317603 
-0.216324222575029 
-0.3773709034508503 
0.3730722857234239 
0.1775709007052853 
0.8751978268449681 
-0.04420397411333135 
-0.1252443606738104 
0.09223186446141526 
-0.8533907111260112 
-0.1265824567378612 
0.1838373080905848 
-0.1812176910614405 
-0.3141006330058507 
-0.1271432509990313 
-0.1803232481438574 
-0.472762095007195 
0.187753442938997 
0.6585359275225756 
-0.1489000499986614 
-0.03869251207750926 
0.2885673544120617 
-0.3176247200974271 
-0.1940483285457189 
0.4673628555612155 
-0.394073003445378 
-0.1869092956147237 
-0.3310020655653562 
-0.1834738692404479 
-0.6244170452753749 
-0.147978513311256 
-0.2472076185627762 
-0.05159631521504553 
0.308637055968739 
-0.3205807443626661 
0.03521378805502301 
-0.1314360484136458 
0.0006452494690105106 
0.1107420279572094 
-0.4022566047346949 
-0.03421664291624987 
-0.2928939162005085 
-0.05989320898824156 
-0.5727696659775721 
0.02905775683206377 
-0.4452023524197041 
-0.3128308876725506 
-0.007592571279931628 
-0.326460212473526 
0.08871537716151756 
0.1106897682771182 
-0.1523494290871558 
-0.816346524179389 
-0.08295101365756553 
-0.5618560715279154 
0.1624868423620099 
-0.176129079260618 
-0.5250381448415158 
0.1357528420896462 
-0.1188990349133806 
-0.1983626192740849 
-0.05315959101455639 
-0.00660139370478577 
-0.4269571402475133 
-0.1477906509249705 
-0.1254919754661365 
0.6882478821232964 
-0.2208948824891664 
0.225284798720334 
-0.1186153277036046 
0.2846748529667243 
-0.1645481998527853 
0.3751108519150897 
-0.3296120096697132 
1.420096937104215 
-0.353133119676684 
-0.6161600692103909 
0.6024005177901769 
0.650446130847364 
-0.3396794572140538 
-0.05853629998923426 
0.0421726155036339 
-0.1262371459077999 
-0.04572908680650664 
-1.08565681394383 
-0.09196055233340912 
0.1438626331508283 
0.2979223420024468 
0.01413922574206021 
-0.5000175311173852 
-0.3460835745642553 
0.2706956370408912 
0.08438200599629594 
-0.1246932434295957 
-0.4235045192644221 
-0.8068870205331845 
-0.2339906337355455 
-0.1354298959438905 
-1.415249259943808 
0.1017456984398506 
-0.1545642578054555 
-0.6883090859137894 
-0.7909760353966367 
0.2543550099502732 
-0.9772369718336549 
0.7562542555324183 
-0.7573695182431753 
-0.2381669606633685 
0.2122336832448861 
-0.5119238928086181 
0.5772836254025764 
-0.1143616244575541 
-0.3832597954681262 
-0.3397056940210099 
0.3592727308058229 
-0.7138811938867364 
-0.3211018471359148 
-0.5935789333811359 
-0.4843776062496846 
-0.4839468044926267 
0.2571938210668415 
-0.394029852085271 
0.2890450311322103 
-0.5423182143651426 
0.06517401451309443 
-0.2265706549818945 
-0.3317680491076692 
-0.2839244298608443 
0.6019281135129111 
0.06145853932646926 
-0.1242796007805083 
1.149496963511232 
0.1652149919101804 
-0.06788850432817171 
0.04235374531510997 
-0.3013403236340687 
0.09033475442462581 
-0.6275081996513555 
-0.1137634924952888 
0.427549154746209 
-0.03139527794070225 
-0.3684361080465205 
0.06297747153117994 
-0.2549336150704108 
-0.07649718396212292 
-0.1430117522244714 
-0.2786382487857162 
0.1404824389162327 
-0.3576455423982965 
-0.1588651200226308 
0.1274770508412114 
0.4959366917136401 
-0.1761083047286168 
0.1723739465793125 
-0.1789324731864134 
-0.7677142769701206 
0.124389511042716 
-0.2320501758421672 
0.7641064525445451 
-1.475698003647104 
-0.1056763005728717 
0.7561757874152075 
0.1813296696677255 
5.912020372909887e-05 
0.02805940731255653 
-0.3208302967831981 
0.02704791796039757 
0.2494022756219719 
-0.4928715792496274 
0.08233685873239451 
-0.2633976442598748 
0.02249207957643699 
0.2441728849515542 
0.5245374535324935 
-0.4223788898938714 
0.4369196008236712 
-0.1546612681637931 
0.1517032393721197 
-0.2240775869476749 
-0.1050948856836016 
-0.8519497632857291 
1.161759017037842 
0.2106579920661915 
0.1228333918069156 
-0.1487720349227981 
-0.2327427874787669 
0.1776093228663189 
-0.0397450874210739 
0.5422561376023943 
0.4359262231509421 
1.076690354296418 
-0.1621616834568194 
-0.2344214457366907 
-0.01793205918235504 
0.7086310678858456 
-0.1263800761071599 
-0.6092528475724017 
-0.1410245896957357 
-0.3659984328362859 
-0.02759075746833857 
-0.3098537765555578 
-0.3425078557994622 
-0.3722839068851678 
-0.184579364252798 
0.6956704609428068 
0.3827226650518584 
0.8727998258127956 
-0.3898963692807703 
-0.2055841064387676 
-0.05463469755754091 
0.407983371152539 
-0.04304340998359784 
-0.3574546142978713 
-0.02513909009868547 
0.1815954749075767 
-0.4408896331735463 
-0.4743947240873463 
-0.04397474054058925 
-0.1304892017991861 
-1.264237414259934 
-0.08000377958631581 
0.9377015703920749 
0.6197897640076377 
-0.216673289290908 
0.6763622365276534 
-0.3414094791854408 
0.2051962453777096 
0.208745422269393 
0.2069055824852224 
-0.4205614206902294 
-0.5102577830518288 
-0.03173066891738834 
0.02541132393088734 
-0.3685266706130153 
-0.6037831937153584 
0.2808546661344658 
0.8645211950181415 
-0.06744606916745867 
-0.4931489035538114 
-0.3616219974587268 
0.3004378642057712 
-0.2622498608283553 
-0.1422729350416171 
-0.03731617162659762 
-0.05430525458295819 
-0.2647868666937312 
0.06686364889357974 
-0.8543913138573048 
-0.1798537480857776 
-0.08861591422900181 
-0.1985115366771015 
-0.4973584748248761 
-0.3028128712469681 
0.1232218058235979 
-0.5099426282588462 
-0.1010989729543856 
-0.00322354229649465 
-0.3985162918431934 
0.1687204188904942 
-0.6253214567035993 
-0.8511101263586421 
0.4358265230383142 
-0.1340394395484062 
-0.3176891171377925 
0.2344329933625673 
-0.2132783725099004 
-1.303731116420718 
-0.1345720622108038 
-0.3489219189649958 
-0.610164535807959 
0.09581592815056458 
-0.1464917195595334 
-0.2021679248215536 
0.4836118531838478 
-0.2016020308262082 
-0.5714410863196486 
-0.04859195026966606 
0.06979405271819289 
-0.1973985731156445 
-0.2803122514387775 
-0.00435372161715728 
-0.1516429612790554 
-0.02603858650126014 
-0.4689927194627168 
-0.07877250648243284 
-0.6429978327022243 
-0.1847980104666354 
-0.04475977554985421 
0.269725795135368 
0.1259070697267601 
-0.3409380388648375 
0.07344636682333314 
-0.3357424501482372 
-0.3598493249010688 
0.3629708042376851 
-0.1067124053428483 
-0.4808236663720442 
-0.8402076273397805 
-0.1442602709018466 
-0.186510105320815 
0.6087198917438323 
-0.1641236690601944 
-0.1444196233385738 
-0.4256663371488074 
0.5469982894502193 
0.09225216998417021 
0.1867486220234115 
0.2482029689208218 
-0.02132750996713682 
-0.2611621867353404 
-0.2909543081073378 
0.2720034915716906 
-0.1107240457893737 
-0.1948730327185723 
-0.3720903338414223 
-0.07309011842432785 
-0.7035612797207477 
-0.05637948582565249 
0.0980166191622043 
-0.2909463028741923 
0.0574102884418997 
-0.4924230151874668 
-0.1703028780889446 
-0.4345910501629855 
-0.2557149193791916 
0.04421647252046573 
-0.05967640750034089 
-0.400616426456178 
-0.1707856952768337 
0.1168538471006005 
-0.06596857027923564 
-0.3604802841063231 
-0.1523764728124372 
-0.3048934237609746 
-0.2260821450116024 
-0.7487685084043719 
-0.3138700109997111 
0.4115833737892951 
-0.09977988500574202 
0.009277126373921113 
-0.4628952769991644 
0.5470649524716255 
-0.07933478582042913 
-0.4177221358195193 
-0.5410284328120691 
0.06158793109319537 
0.127983934684897 
-0.4427504165630728 
0.2533937926528559 
-0.2534161767473404 
-1.039246393966356 
0.8659842055086705 
0.190551885235309 
-0.4094265337672859 
0.5241413344985605 
-0.1715002617253993 
0.1934703698562402 
-0.3613508490871184 
-0.3248280429929057 
-0.3110088554314076 
-0.3491900978411385 
-0.3292530247070389 
1.118478622720781 
0.2489946764284132 
-0.5921178845544466 
0.08640871446056653 
0.4602381959366853 
0.1955346233313413 
0.143360438986588 
-0.302087384287649 
0.006696008559622151 
-0.1285815875263827 
-0.8052367432788196 
-0.001961098771825216 
-0.1056887154252842 
-0.5077150600488717 
-0.5636525131256647 
-0.4202085243277278 
0.4461030311369056 
0.5386314289008366 
0.1469467531861323 
0.07469981112441612 
-1.240343419026084 
-0.1267171033485996 
-0.1134841721644865 
-0.4706372001519441 
0.4245338348469399 
0.1553635074914516 
0.1573063786152309 
0.7310821891965078 
-0.4271410922527312 
0.09535319570851188 
-0.326979953201862 
0.0626854811059864 
-0.05390353605913868 
-0.06609683096436578 
-0.1738603237171252 
0.2510025848541997 
0.1290978896691632 
0.04746181270900045 
0.2478349231619891 
0.5935914130280684 
0.06084245462812973 
-0.2226709229332677 
-0.09007912678895127 
-0.08371150253398267 
-0.5224804507513896 
-0.8446472365827902 
0.1335970762408822 
0.3496500221853423 
-0.1752232342281151 
0.2397971216203685 
-1.253071347847845 
0.03962206578647653 
-0.06777081307769747 
-0.3718044874257251 
-0.3449086312574547 
-0.2889068565998452 
-0.2355599725139058 
0.1320722708081425 
-0.02006970248389235 
-0.27167898910571 
-0.1738502451135369 
0.6728150571971367 
-0.08694966762719646 
-1.185141868802657 
-0.2233859578956826 
-0.5223030651422815 
-0.2690585817571765 
-0.3593448903028076 
-0.06952651812477473 
