solver_type L2R_L2LOSS_SVC
nr_class 2
label 1 -1
nr_feature 512
bias -1
w
0.6360739910969054 
-1.702144395573453 
0.1135014137974395 
0.2100458809076128 
-0.1134754463750523 
0.4474982705557154 
-0.3248292425641946 
-0.4806988037376381 
-0.6987467593516602 
0.2653348255595382 
-0.4701239020012818 
0.8103079550223552 
-0.5486141518008956 
0.07637433222946217 
0.09910426593759576 
0.5511272815539882 
-0.5070103584719269 
0.1227577588239414 
0.5514890192126715 
0.4134515422871836 
-0.422313960399461 
-0.1370690320262391 
-0.3260626830640125 
-0.5011466745762909 
0.3632080330708668 
-0.0003472315165226414 
-0.4271032332556018 
-0.05256257637754524 
-0.2332037570550218 
-0.2796908903171482 
-0.1898124019011038 
0.001437446358745469 
-0.3656440724709701 
-0.07264594651052922 
0.3294364526525865 
-0.5706383694918643 
-0.1569239310885707 
-0.3512678802844467 
-0.2560329836989085 
-0.4168545092310713 
-0.7535529149666912 
-0.08106037574182746 
0.1919971855848344 
0.3283246754350911 
-0.1914671107865353 
0.5574634263630698 
0.1319951589651853 
-0.6444079236059901 
-0.5170756979790111 
-0.5468830945965184 
-0.09927723568277833 
-0.4349330254344727 
-0.5657851735309859 
0.4641219448795582 
-0.2259007688995252 
-0.2451209748238971 
-0.3233552408706287 
-0.02182571129329374 
0.01120623449766803 
-0.7708996846814384 
0.4386276307329457 
0.3606372285675964 
-0.1714667707179339 
0.06785484468709931 
-1.032478994493865 
-0.1926529996580734 
0.3831541784038203 
-0.5069840169761893 
-0.4339842765802133 
0.3358760442251583 
0.465708731143199 
-0.5707527344062578 
0.6458612151115349 
-0.04477712858602527 
-0.9407516140331079 
-0.3888085404289126 
-0.6943423770113351 
-0.6495669214224791 
0.5554836129544728 
-0.4674718430968816 
-0.4098024748767615 
0.7841366310036588 
-0.6038202443155691 
-0.02173179649163514 
-0.3247652545984074 
-0.3617691450178537 
-0.2001615451088385 
-0.7262644843494201 
-0.7128016018098492 
1.09740062324413 
-1.09494437241756 
-0.4602114365420524 
0.4803196647860558 
-0.1653560736146558 
-0.3893126785916893 
-0.07572947891510264 
0.904902294805462 
0.5525015706133877 
0.2297759106605673 
-0.1493546569927257 
0.1913629818415508 
-0.6185222057430192 
-0.1049893664880173 
0.06979469274729726 
0.02619338794613232 
-0.5074898752905502 
0.7615385918645434 
-0.4106737303346492 
0.62022747503607 
0.7967790312992262 
0.2308035604808713 
0.3683227156569031 
-0.02630220028626189 
1.051258324190926 
-0.01765149012983995 
0.4142862169035478 
-0.5209546350018339 
-0.8356175690148968 
-0.5488289032322269 
-0.5197030866324449 
-0.2639427507937778 
0.02692631823323415 
-0.4414574261391923 
0.3429032092861243 
-0.04700910324048498 
0.3975521996869351 
-1.512059139427066 
0.3408919434904659 
-0.2478205330788597 
-0.7474060332788449 
-0.4997304957917559 
0.02378753672874406 
-0.3684580247951481 
0.4831809177673654 
-0.1331324316074535 
0.7336822560785863 
-0.1688249831614679 
-0.2531919311017525 
-0.05237066797798305 
-0.4036995421510383 
1.848703376199492 
-0.6603113337020081 
-0.2227347283141966 
-0.4202284300212274 
-0.2666918270961013 
-0.1581326636865118 
0.3338841778778792 
-0.4403959369486418 
0.4586308220527174 
-0.5650241495145731 
0.5495718852856003 
-0.5769428478060628 
-0.5759758127295257 
-0.2675823424788542 
-0.4421102641209885 
-0.1509553479801953 
1.824533347634367 
0.06790026451778866 
0.3862277477727181 
0.7555703162890351 
-0.4371842607597646 
-0.2755000237403228 
0.05523626524822022 
-0.1653115319779859 
-0.08790248976646098 
-0.5197601432698619 
-0.6800645140150391 
-0.7833801369810353 
0.1144810428392676 
-0.3570502623814527 
0.1369092157731365 
-0.7513023293557256 
-0.04536842999593987 
-0.5333309352961565 
0.4393701922740343 
-0.245458517010967 
-0.8277745908496242 
-0.5221463481018053 
0.4572139447934226 
-1.843735688237843 
-0.2042780239578563 
0.07694947504918315 
-0.7783782514850891 
-0.5734722598389571 
0.6198435163499217 
-0.840522559329425 
-0.3203497173267502 
0.08099954314025409 
-0.3219365241704132 
-0.2712544257248146 
-0.1546998215864249 
0.04947915072843141 
-0.4028399818390616 
-0.1120457818931747 
-0.7007646438846238 
-1.071833447297126 
-0.7654038214693739 
1.041799792364405 
0.03533105373697745 
-0.6621653993682803 
-0.4654256667270804 
0.07464173761932189 
-0.752243220182566 
-0.0674856369099105 
0.8252131977257261 
-0.7446831256706604 
-0.2877440610299518 
-0.6270324579886571 
-0.06612646487629319 
0.03951812839382721 
0.4990754443870465 
-0.2976303791104681 
-0.3134463150021051 
0.1628345695011147 
-0.3641067889313072 
-0.4959885394974186 
-0.4125114430613538 
-0.911488784104556 
-0.6601427682474448 
0.6664341979508803 
0.6083908483069667 
-0.1834561191929848 
0.3890548123552645 
0.6099046467593274 
-0.4877438511690289 
-0.3606269049639981 
-0.29803466876746 
-0.5689681493900719 
-0.3186393694634778 
0.2450372403101355 
1.124471137043973 
-0.3392927627043458 
0.09093794087354967 
-0.114772035401891 
0.3019795083299258 
-0.0383532401781385 
0.6613007366140251 
-0.4087661742951504 
-0.4103956729361439 
-0.05156176226493014 
0.4786426954840567 
0.3157182614539664 
-0.1236137031644979 
0.3198458112784341 
-0.2973452558158778 
-0.3015015063922293 
-0.3072531068090619 
-0.1854886774228272 
-1.09377790594029 
-0.419932145280013 
-0.2906694805751265 
-0.6834988186413465 
-0.3025509085744783 
-1.164304813361122 
-0.6274680085417869 
-1.230441977166625 
0.3057719312519731 
0.09907647591836682 
-0.1769871135618072 
0.1340267158759822 
-0.2103181574882398 
-0.02391208953741061 
-0.8827402419959079 
1.753743043524805 
-0.3319668951052209 
-0.2029223279711114 
0.2256436896772498 
-0.7904805147537172 
-0.198031911158974 
0.3534256283082423 
-0.1526010845331344 
0.5505927309012638 
0.2223913140592217 
0.1734955207498382 
-0.04518214657632998 
-0.6437430528983636 
-0.6045226759060703 
-0.3745267632156458 
0.1182622429125991 
-0.1726462406534482 
0.2412059408090365 
-0.155218099867736 
0.2049108050663739 
-0.4384700389684382 
0.1229397579823876 
-1.12417877810697 
-0.5153119261746771 
-0.647727495018435 
-0.7472185767697429 
-0.3224164126888868 
-0.2316183120578488 
-0.2974233490772013 
0.1358152769822997 
-0.4688966528519818 
0.8311625534486281 
0.1616507419506412 
-0.4892338099200598 
1.373527949659942 
-0.2075215075143315 
0.3768819505142851 
0.8872699446503666 
-0.01089440309503295 
-0.7836887541299628 
0.4420947590677128 
-1.032350777527157 
0.5518220089675131 
-0.7410562110243585 
0.9766900948625387 
-0.4714555795472405 
-1.247266749680266 
-0.7862055849590057 
-0.163884404089794 
-0.4552613673761912 
-0.04295201410662014 
1.1455474124709 
0.2286744238240349 
-0.3026613343388894 
0.4320926320909793 
0.9313337492510109 
-0.832568787145577 
-0.4631051914978519 
-0.2624652782688029 
-0.08575392372222577 
-0.2818090136148477 
-0.6119298874746291 
-0.05318951873377721 
0.07312060001789875 
-0.9152793561834464 
-0.5194062470198099 
-0.04261974712545975 
1.110769844108943 
-0.7118070766073741 
0.2848195878018392 
1.000821277324668 
-0.1522514329453738 
0.04801774803444734 
-0.2953505452638532 
0.2287926547299039 
0.5361002949483092 
1.04782123076127 
-0.2978662918473705 
-0.6772278057727532 
-0.504711435529213 
-0.149041347819562 
-0.5312632542212788 
0.2506914461884679 
0.5442306833784862 
0.329760993789497 
0.3767338892569398 
-0.4412173786790946 
0.7171896408890912 
-0.3257072588134776 
-0.3851088671648286 
-0.2721875537634334 
-0.7434869538161627 
-0.1977642272220019 
-0.9062682653712539 
0.1174327610305131 
1.544707632063822 
0.04384886100893853 
-0.9543079110193224 
1.393975696812555 
-0.0564450115138503 
0.1623889360924205 
-0.08786943572900707 
-0.1401246814857816 
0.3406149435002538 
-0.398727104154808 
-0.2666462208997432 
0.2125381835301732 
0.1365254207947362 
-1.073710309374277 
-0.266505055489522 
-0.233410029910089 
-1.019071818182024 
0.02676424695626901 
-0.3969616669384346 
-0.8039156945033301 
0.2073224849556188 
0.2545278055271576 
-0.2105980250556727 
-0.3881017415921439 
-0.4500607090842442 
0.4321407636319796 
0.8485265176936789 
-0.1611986026681225 
0.2259879322260343 
0.2990526586647113 
-0.7057161626590194 
0.5392764360379313 
0.02027858027715097 
0.3806136457599144 
-0.3715140136146584 
0.1892810649983046 
-0.5986732769266524 
0.1880649843654479 
-0.4944186835150068 
-1.008069788527611 
-0.4382186569848358 
-0.2591231540865946 
-0.2526269355556654 
0.6249028129736923 
1.362918381874329 
0.2420507889167238 
-0.5566170148090005 
-0.4458429214324031 
0.07967425085428236 
-0.1607906615894968 
-1.183879790015618 
0.008231565437883639 
-0.4373309259232654 
-0.3543520937845127 
-0.405655166145128 
-0.2464551955789273 
-0.9871917577937208 
-0.4495283468261176 
0.03738755712831256 
-0.8131732817536038 
0.678500862832315 
0.1110343491735518 
-0.3092027757180618 
2.16473733225354 
-0.4991556972139582 
0.6066584316643272 
-1.075969465922656 
-0.1641989202733805 
-0.6373160904149172 
-0.3015977168332223 
0.06111874352667031 
-0.3469954563102254 
-0.01965645006400581 
-0.7630224043409356 
-0.2536001304914015 
-0.2988782906023181 
-0.4126187307439593 
-0.218205008566976 
0.03944137952508953 
1.119183983920288 
-0.3057835542789663 
-0.08280614394054804 
-0.007424686100329354 
0.1242127167305185 
0.6338889969244073 
-0.2875111834426135 
-0.0304522106988799 
0.5091568856959142 
0.1847103796537371 
0.5439068406374374 
0.2784707935238804 
-0.2086839705037187 
-0.2496051694521195 
-0.8640040450295314 
0.1599606847650124 
0.2161618226259364 
-0.06958488741469157 
0.2807949583374474 
-0.1404228860247233 
-0.06708320017563603 
1.476673556522558 
-0.7162441351149266 
0.941521751838241 
0.1616383989695605 
0.9232904026542165 
0.3144122733032714 
-0.5926674017692837 
-0.6224522116325308 
-0.2435622212878395 
-0.326790392050809 
1.05393237059097 
-0.03682173931375131 
-0.1652785819870252 
-0.4122658790026681 
0.1554103289612658 
-0.1390129676538143 
-0.4068606227892839 
-0.2803606622597352 
-1.176748776936596 
-0.5472725218470016 
-0.02213526841905718 
-0.5509828690471273 
1.074952508919632 
-0.3087837198309614 
-0.9202458379925836 
-0.1256315592434383 
0.4790007849967459 
-0.3259716705765708 
0.8910404980181275 
-0.6944669040576531 
-0.2512329718966823 
-0.1370415766419978 
-0.8686347583504979 
-0.3038991034037592 
1.017858684102364 
0.959115586713076 
0.5019801910304187 
0.1595730226088618 
-0.002657886952816746 
-0.2544972528641534 
0.4495808223913924 
-0.06399967894675868 
-0.6357070345242444 
-0.6814952885358456 
-0.3583742389504033 
0.1466250657065505 
-0.6292418400012578 
-0.3693512944160989 
-0.4638123812862134 
0.3464754111691945 
0.5063585522074047 
-0.7386039313651038 
-0.1438654024838023 
-0.3420062245245033 
