solver_type L2R_L2LOSS_SVC
nr_class 2
label 1 -1
nr_feature 512
bias -1
w
-0.5253392079015224 
-0.4585131928712817 
-0.402523020050951 
-0.5358991255748575 
-0.1426284941248085 
-0.555374552699352 
0.07262119189524713 
-0.7089152727251722 
0.03170477204715991 
0.2417813030269493 
-0.6819564829369749 
-0.271233495554017 
1.044837686324752 
0.9666418882511109 
-0.1137543710702366 
0.6935497788838177 
-0.4829839219404053 
0.4559326778403336 
0.1442785092680912 
1.993586387345967 
-0.4241295834542526 
-0.1706085509947153 
-0.03115076618615936 
-0.5711439268142844 
-0.463566317736515 
1.308149215932115 
-0.0730058520128469 
-0.006990797220459888 
-0.4826405775466899 
-0.1598719816490845 
-1.230195480466957 
-0.2994905890464044 
-0.494500428025509 
-1.228779563696831 
-0.02366291637905509 
-0.5927905874907928 
-0.535621128524129 
0.1932907402824006 
-0.45465083107129 
-0.4643230971157513 
-0.3405473030366895 
-0.3593375668744554 
0.4993638201833896 
-0.0428135457870174 
0.2941291250745491 
0.1959389783399605 
0.5989440639896977 
-0.6356872502196446 
0.3290475651435322 
-0.5192559030744343 
0.5779571131919545 
-0.03127749551703824 
-0.838467263285323 
0.0461211304027466 
-0.1171266050183153 
-0.3806524580181812 
0.0769124587546695 
-0.4487680861305913 
-0.526149774097273 
0.1363789664646358 
0.8303974681957361 
-0.3899388043123742 
-0.3049699066358481 
-0.2361427665621127 
-1.70334828054469 
-0.273303545972746 
0.154447927754291 
1.477762344348774 
1.399183027540148 
0.2753211472816117 
-0.06554006316983733 
-0.3290381160407191 
0.05882429038556469 
0.1361846589447205 
-0.9747285272576905 
-0.1686847684369853 
-0.5956419059206546 
0.2365619911126517 
1.792012253457107 
0.1179387608822109 
-0.7421045327016561 
0.3840749323360588 
-0.4618485614610657 
-0.2926806652414146 
-0.5418730411421274 
-0.1088467136922596 
-0.4499339859743318 
-0.906439561206307 
0.1423210109205646 
-0.4211411453261411 
-1.180885806463198 
-0.1773324921810669 
0.05248799587312854 
-0.4037022923494311 
0.08157815832310089 
-0.007749151851985835 
0.4681894167808619 
-0.5761426574085098 
-0.2476554889501799 
0.09671740029745915 
1.208951900513873 
-0.267724738980852 
-0.4819636668230985 
-0.154997304386118 
-0.230574290799002 
0.1547100847486647 
-0.1920073609322039 
-0.1676490547653968 
0.4032228120954148 
-0.3375559390516604 
-0.2581382777913543 
0.1427256579255189 
-0.5189425689418826 
0.1747059307706414 
-0.4056131590500164 
0.6257598197235983 
-0.06545074564552515 
0.7423882862228313 
-0.3356607769247925 
-0.001163322140766749 
0.05924090510261674 
1.028723198078701 
-0.2558871361443107 
-0.06172029816325714 
-0.5525371077050725 
-0.0260683058203835 
0.3355774237799672 
0.9185656351684314 
-0.4320713119594228 
-0.2814924927533128 
-0.2613496801274228 
-0.4049418686655656 
-0.3509955595960931 
-0.3637057573550777 
-0.4693954771868752 
-0.5432261035733689 
0.0486620471075798 
0.5277483602479585 
0.3371094759535085 
-0.1392371233308958 
0.5627990035698132 
0.23962755262523 
0.2122712014103831 
-0.5534535372493433 
0.03465469426092278 
-0.3822874155616933 
1.319510023715927 
-0.04376004437746144 
0.1431051690335721 
-0.1749057421404955 
-0.2039003118893049 
-0.1935716269576216 
-0.5957221560195769 
-0.2369330964447604 
0.1384644190379583 
-0.3086366489561681 
-0.8146360912762192 
-1.079526968934866 
0.9622657484173847 
-0.144060026103312 
1.065652974148559 
-0.1260939434950566 
0.02188728335279775 
1.326329707376792 
-0.4465533497992212 
0.7568199044334819 
0.2284619349322741 
-0.8401621857202362 
-0.0227990695309127 
-0.2702592587658527 
0.1397079544955827 
-0.2101209392511943 
0.1597549098704716 
0.2624617661021505 
0.5343650881699383 
0.6595262775191441 
0.05226178933783645 
0.6179527260709299 
-0.4067954177114376 
0.3595400137405084 
0.02727165255356602 
-0.1054886950568868 
-0.189797292832329 
-0.3785958811745786 
-0.5785801142964603 
-1.486855929745287 
0.2171084202403694 
-0.6096069973360557 
-0.3755691254577814 
-0.3248860677028856 
-0.3417678008183569 
0.39450577875534 
-0.204968736897159 
0.4185672011722002 
-0.6306204972413155 
-0.4800387818360841 
-2.066971883297512 
-0.07784893782192448 
2.223322678042065 
-0.9201326773577257 
-0.5924689369411047 
-0.05446648137396328 
-0.3155712785775754 
-0.06990202141299867 
0.4682823152068731 
-1.332482508216666 
0.1136385768478313 
-0.4260528617050166 
-0.3864211494279167 
-0.470635429912562 
-0.06905496464048255 
-0.3764737469118751 
-0.624350794150953 
1.369892482687526 
-0.4823945713875412 
0.1767565500962679 
-0.2548098188827036 
-0.6030256990761035 
-0.06275822355429714 
0.9929467496020778 
-0.3876649096197883 
-0.1298250405363394 
-0.6422144203817407 
-0.3247959014743949 
0.9436670325889972 
-0.2870916362645954 
-0.2936662442677185 
-1.771286835512659 
-0.1041800103765226 
-0.8528481276727911 
-0.1939514132985386 
0.0820208399684372 
-0.7360274911426021 
-0.2643878778789069 
0.1958135792903793 
0.326991818943599 
-0.3142568972002923 
0.11781929325977 
-0.5809245720614696 
0.111086725958309 
-0.03807444543110691 
0.1434251169850917 
-0.4285662021357846 
0.04992874950451706 
0.08137701958154908 
-0.3407310558523717 
-0.9750588477911198 
-0.2614493824206858 
1.237093683871434 
0.3999599301998925 
0.2771158946714524 
-0.3853767739717315 
-0.08371461718451177 
-0.100792044631166 
-0.564601869894882 
0.01587024639673881 
0.01013703437094188 
0.190444316803501 
0.06973790736926766 
-0.0130594503731108 
-0.1468949005419116 
0.1038802258929628 
-0.5274253705837585 
-0.1858905950238915 
-0.481459380736699 
0.04027655670275727 
-0.1770015553485188 
-0.5365164850708961 
-0.2594951178139884 
-0.6002664321387559 
-0.2587175608887631 
-0.5354012303144571 
0.07325433222305615 
-0.7138811217587373 
0.4471967769331894 
-0.1592021377158321 
-0.1007619750223057 
0.7967468533207654 
-0.1732248722275609 
0.1881871145349723 
-0.4364559649946414 
0.3700479845263024 
-0.6677978556528954 
-0.03594051644650074 
-0.8098622295750588 
-0.1961928015766327 
-0.1567559236489234 
-0.1006634381838307 
-0.8006489141546413 
0.08712706678595618 
0.009932978764454793 
-0.4535494245718144 
0.6757034542354209 
0.2119002863891193 
-0.03631333341625345 
0.1952029469980185 
0.4824500184249108 
-0.3713789378154644 
0.05872135386317445 
0.3368173164961088 
0.5482743016914268 
-0.4880480975890954 
-0.4003404562304484 
0.2291482021682833 
1.498045308289321 
-0.5410828835888993 
-0.1901195670355249 
0.7041713881599898 
-0.3279936277395643 
-0.1302699844456342 
-0.5263962402497618 
-0.5404324906454434 
-0.7156974435611398 
0.6217684081951417 
-0.1741245631501031 
-0.1535520064023247 
-0.347852072146201 
-0.1902301586007495 
0.005358187257239353 
-1.171491287924274 
0.3147287616926526 
0.1584538630429265 
-0.4778389151375337 
-0.2923604707968149 
-0.3918075852629432 
-0.1065726882189379 
-0.3774859649366363 
-0.5786899432467145 
0.2231918373594372 
0.001909365312949197 
-0.4868490574395826 
0.1372593643502522 
0.891757114111613 
-0.5713307884294007 
1.253339248169058 
-1.047811768475308 
-0.001108852591623104 
-0.5153173647602052 
-0.4550811536371059 
0.03327769278389054 
0.8718716041656221 
-0.5709772650183393 
-0.7017717193500493 
-0.2768017023507825 
0.1732697722344107 
0.229934822141449 
-1.004180251484851 
-0.2755985130502107 
0.5736656549131312 
-0.4553971924889618 
0.3145727950924881 
0.4020794396899486 
-0.4584856014740502 
0.1352843869037402 
0.2481869696645729 
-0.4251193750676219 
-0.7100728903759761 
0.1975224080513008 
0.2315254994221667 
-0.8251949510066646 
-1.476404824203968 
-0.4476323917412667 
-0.1650991018739368 
-0.04479271705431807 
0.05101491795686408 
-0.445156066679836 
-0.1408443070749419 
-0.6437481692368907 
1.191632383300826 
0.346702358176944 
-0.1892710274255207 
-0.08356540061029101 
-0.225593164176001 
-0.3427169776342509 
-1.069405451954352 
-0.4509299695271592 
-0.5187789937616774 
-0.1311510158685515 
0.2550719356806721 
1.137307415077514 
0.253489712424592 
-0.1000916628506532 
-0.2471682400316622 
-0.106902013964914 
0.6165445302402526 
0.7801396185775582 
-0.29967190412594 
-0.4812527424351809 
-0.8155800043635351 
-0.6376190142419259 
0.09657409519066258 
-0.4605920355415053 
-0.1748420522326469 
0.208980246443901 
-0.114109784051385 
-0.3669318336529265 
-0.09543744850231782 
0.03219568543075882 
-0.2857754841532057 
-0.240959740771133 
1.126292311973534 
-0.2475512776332931 
-0.3737396132554072 
-0.2196184558892338 
-0.2067419697404573 
-0.3008868946236723 
-0.4006225662887696 
-0.04327425140203837 
-0.3775908768235455 
-0.1728388645648043 
-0.3899559687349638 
0.01667946881921575 
-0.4262926074953104 
-0.1124085575844452 
-0.1957939620680255 
-0.9576807513459584 
-0.6495054075991029 
-0.5247851778455548 
-0.2822534975647839 
-0.318494569675118 
-0.338524938559223 
-1.360267205193888 
-0.5129346978568854 
-0.5798966928383229 
-0.7685369487646555 
-0.2797250358635109 
-0.6811058664036767 
-0.192683859338827 
-0.1040787524162684 
-0.3088146997617675 
-0.1662624368449298 
-0.4199752527716067 
-0.1004916074554042 
-0.5800508777245389 
-1.125976130095943 
0.1817656622181582 
-0.2959286024863485 
-0.8464955155925643 
0.3285163502447179 
-0.7294221519059312 
-0.3265479694787972 
-0.3490303904511299 
-0.07554061862165148 
-0.1662882921345735 
-0.2535589328879485 
0.2360813918793088 
-0.1461044587949313 
-0.5962660190082711 
0.4540137937491058 
-0.2939315212874938 
-0.512650744919832 
-0.6501665883126 
-0.005737583848796701 
0.8320153315203718 
0.04425677155172646 
-0.3089621532826802 
-0.8393458591867191 
0.3950435045311866 
-0.5874871197419351 
-0.5861941919527869 
0.1903919365834012 
0.2256914094612412 
-0.3242258036143097 
-0.3142511296320943 
-2.115259961760665 
-0.1707016542479698 
0.1505195569260053 
-0.1737021932595509 
-0.131438270241128 
0.4940268910684228 
0.06120823367695408 
-0.2711653592851233 
-0.496494133750032 
0.04246078897206884 
0.1393670361053655 
0.3174585369574436 
0.4509165920738281 
0.2218624662483983 
0.499502284269964 
-0.1475997272165256 
0.1936170680049409 
-0.08598637855370776 
-0.2243278660268075 
-0.120089888834975 
-0.07216698717208754 
-0.3065898110512007 
-1.269218494888292 
-1.033783702226274 
0.0644853657486836 
-0.1695498654619956 
-0.3943336284583874 
-0.03544007438216467 
0.4506853494884566 
1.234007154980572 
0.3425959054946539 
-0.3151570224341692 
-0.1173494968152783 
-0.4014479553567846 
-0.59834043639713 
-0.2261713049825284 
0.3648443488399882 
-0.5917660897038424 
-0.2949690953235825 
-0.01390331418505337 
0.3014558595730548 
-0.0504027205385112 
0.4906016421807627 
-0.2140655672996284 
0.2756315950432677 
-0.2149572678959114 
-0.6828246761085877 
0.8178575167408113 
