solver_type L2R_L2LOSS_SVC
nr_class 2
label 1 -1
nr_feature 512
bias -1
w
0.006477271932163761 
-0.9431710280134539 
-0.5091618080211878 
-0.1014391496484057 
-1.593170338757184 
-0.1439782145945459 
0.3289211400244936 
0.1374846529085411 
0.5471406657309884 
-0.1501959522259962 
0.03396387924354812 
0.1014893005320896 
-0.278805501068829 
0.06879466807007947 
0.3197791283082046 
-0.5999130902694022 
-0.3343584387344545 
-0.2186370869342498 
-0.2590664755375139 
0.1345289234866751 
-0.1565019445027598 
0.2195704364435017 
-0.06872198426987285 
-0.6824675644673687 
0.2686528517139467 
1.126588347760938 
0.429546630425544 
-0.2985152474255636 
-0.5752528928868098 
-0.03791229880284409 
0.5104542788490004 
-0.1734438104607299 
-0.1701344415919906 
-0.4087575752627353 
-0.3523884403500698 
-0.5815830060464808 
-0.2817717591655693 
-0.08060537442936384 
0.06256461326045619 
-0.1438331643683576 
0.1591362899528634 
-0.3590406322230873 
-0.2696414002105908 
-0.1451808654631217 
-0.003670863635635486 
-0.3680907378171771 
0.09944081907437696 
-0.09210240854994012 
-0.1009022256948553 
-0.4868368161622244 
-0.2770932043026292 
0.05958265785128819 
0.42216760355122 
-0.2470658833914144 
0.03699279097636789 
-0.5216295599651195 
-1.406476779544978 
-0.1642055053800839 
-0.1910843126271452 
0.2186824228269627 
-0.3612872257806134 
-0.09904937213729231 
-0.04833807945677965 
-0.112463655395915 
-0.3818956319621815 
-0.3466988662377999 
-0.2309749933142625 
-0.1833815427091875 
-0.190126675688596 
-0.55918912306472 
0.3048198915035255 
0.06478736550066479 
-0.1252978467251674 
0.3060493980840354 
-0.5745730378519571 
-0.07476576537083483 
0.2640932324591497 
-0.3883641757541761 
0.2987307641579281 
-0.105912505054976 
-0.3001484720264161 
-0.05639239695462327 
0.37276360615569 
-0.1976894934153668 
-0.3995111951664697 
-0.04454322845936137 
-0.06320157673777708 
-0.2842638962595415 
0.4873608160028663 
-0.6846000106895229 
-0.7940981749084112 
0.0363201872870474 
-0.005719003469581194 
-0.2099013226121477 
-0.2109884420617852 
0.259455058840917 
0.146511623988369 
-0.2164852114249635 
0.2795714278294351 
0.03073089156058441 
-0.08878752977591103 
-0.3023756856104993 
-0.08271842789624345 
-0.3345861442881348 
0.2730138319879939 
-0.01174863692239251 
-0.4003054031392059 
0.229212061495894 
-0.2226023150004545 
-0.1111444935357728 
-0.9455825923849017 
-0.1134460421651034 
-0.008241155868939302 
-0.2189444540110798 
-0.02707476007976257 
-0.4742986189171293 
0.0113445862623808 
-0.4087282206541016 
-0.2190158441305534 
0.001827230649605326 
1.044255705558299 
-0.07074122226394189 
-0.4355127736351441 
-0.248288030415158 
-0.3419101685490346 
-0.1578204714562645 
-0.5057106647976901 
0.6093194408859932 
0.2942409816139914 
-0.3293282724420017 
0.05494881640328575 
-0.07173848046451768 
-0.0757047876521539 
-0.4914547139581954 
-0.1440180843206654 
-0.1767291014554908 
-0.05295690212114781 
0.5433964293496506 
-0.4153603290788074 
-0.3950939789497718 
-0.1249863081655269 
-0.2973439889817504 
0.2313202503410584 
0.2430545319317388 
0.08232468434964699 
-0.3155016261802269 
-0.3361217944147296 
0.08076039619764633 
-0.02489781478422323 
-0.2736205558429101 
-0.1305342023498426 
-0.05362688134009245 
-0.1544056939202021 
-0.02418172987967249 
-0.06212636495418953 
0.1634760399704505 
-0.3099581413404571 
0.7171694299537553 
0.2823425623827865 
-0.1647465103023565 
-0.02504412034445685 
-0.0760288547139928 
-0.03608360817293713 
0.02320128704311223 
-0.03160150478989501 
-0.3600011874076303 
0.6670073091761189 
0.4160934589143258 
-0.1782204097523858 
0.4528560146087724 
-0.08158509962182048 
-0.517670013616727 
0.06075014625445431 
-0.1301731956077872 
0.118361113150116 
-0.4566254173826974 
-1.043893879279064 
0.3369988496729984 
0.01472196414410441 
-0.003298219334323775 
0.102867442590269 
0.2634314107530618 
-0.6357004193879682 
0.2038582092384421 
0.02378757287186083 
-0.1430879605038163 
-0.1531489650330333 
-0.3425326194653916 
-0.3105825852168105 
0.349333144442846 
-0.4612669716374762 
0.0686135149133147 
0.3290151897998099 
-0.1825627328319721 
-0.5232909748501374 
-0.006705142198637375 
-0.8107144928053501 
-0.369371002506344 
-0.3292055532083719 
-0.4345581877338243 
0.2223787544956199 
-0.004194510905918969 
0.06274836766296638 
0.135862443408818 
0.06251568361218333 
-0.5349334248538271 
0.6732725584507083 
-0.2168102974209716 
0.09047417588519537 
0.1658530423416458 
-0.1997263219567753 
-0.3234602907567472 
0.9279699073871385 
-0.3844348347330312 
0.2899729264915878 
0.0003523258834975639 
-0.3430373623816014 
-0.3339691344448407 
-0.4575822796825558 
-0.122608163383923 
0.04556092905405232 
-0.02843225111483834 
-0.1616997004272643 
-0.02505537163754779 
0.2194661738898879 
-0.3171127518347709 
0.05054513843629992 
-0.8783138629283824 
-0.04091395912626174 
-0.2617384183251288 
-0.4492189550068741 
-0.1082936673041862 
-0.2191196809540482 
-0.05331021253019666 
-0.08089913398507542 
0.09786627557919349 
-0.1351351152710626 
-0.1452317441282027 
-0.3378880317088702 
-0.1126706697632225 
0.1649828081815662 
-0.08992795323692745 
0.005850242092797261 
-0.1370345353310425 
-0.0354710408304879 
0.01056372129483023 
-0.3623328330726817 
0.1958831507756578 
0.1451797577592824 
-0.5371921320156728 
-0.005445822302936294 
0.6286074344447924 
-0.01658397057552566 
-0.3940912308180302 
0.3580436348620975 
-0.3182823552445263 
0.4051510029189733 
-0.07413885755082328 
-0.3945227369060923 
-0.3895267072588497 
-0.06410046831076519 
-0.5258433950110809 
-1.19437960994383 
0.2531728009985612 
-0.1296090031256049 
0.9657007649327721 
0.4899938878893366 
0.2235793015336313 
-0.1041236103638051 
-0.3843489193005369 
0.3068453698747022 
0.2367916374525882 
-0.1953826178195136 
-0.3508931344701187 
-0.5097827385542339 
0.07630859731393233 
-0.138578369395005 
-0.4130515307668655 
-0.1193269302377281 
0.3387283386804941 
-0.1328955876451251 
0.202303908354711 
0.3253707065845038 
-0.06962376742906899 
-0.360742294739304 
-0.1944475140151809 
0.7737061258460668 
0.1711769437286005 
-0.2492973168267443 
-0.2295869690095065 
-0.08985639887264649 
0.04917426194268709 
-0.1097113919079478 
-0.09364423132732363 
-0.2825682847177347 
-0.3931039923547182 
-0.6714352350431806 
-0.5140958599922351 
-0.231467204384935 
-0.03639099959731817 
0.02255403977182503 
-0.09423590233340148 
-0.1172899012299725 
-0.03760817471597871 
0.9537334389830052 
-0.4284011965327745 
-0.03824663563063416 
-0.4258954643271097 
-0.4533217528374539 
0.4808661316632302 
-0.09458164214571516 
-0.03615888833533629 
-0.03627647002702203 
-0.06922446020207408 
-0.5298352750350447 
-0.1649479439456273 
-0.2430085545994272 
-0.5235717966995349 
0.09876047466554004 
-0.6890831231679097 
0.2753115958830025 
0.3130003477060369 
0.3249146797234373 
0.35329913777208 
0.2433771723162648 
-0.02796268450215609 
0.2633549747846185 
0.8364080762267063 
-2.133922899938442 
-0.09618605183654769 
-0.08520252603126507 
-0.07289722794412702 
-0.3162924389613981 
-0.2832655065245682 
-0.6339367994599767 
-0.5214773632662131 
-0.02471448082253824 
-0.4335659061998841 
-0.2643048606028656 
0.08813530325585393 
-0.5178045990887955 
-0.7627123917399912 
-0.263713969868502 
0.2982512702417975 
0.1363330489323491 
-0.1320329581090469 
-0.8481752597783858 
-0.6567091118948215 
-1.093489925676364 
-0.1982000332629491 
-0.542054537930337 
-0.1410083108164731 
0.582969877601481 
-0.3103991980234851 
-0.1967264641104956 
0.009994613174379177 
-0.4278287752860391 
0.06850785534550019 
0.1038021578330744 
-0.35815745940394 
-0.4659065603410288 
-0.1922921738541176 
0.1816007788383495 
0.03462092498786516 
-1.194345042621734 
-0.1680079827677894 
0.8337367835964304 
-0.6042690842320393 
-0.3106760007009737 
0.2469697819419274 
0.6181601972152714 
0.4607049449772491 
0.2848609809881207 
0.138965332294802 
-0.2044424307526336 
-0.1176058690713771 
-0.1029032016440074 
-0.2762994652260418 
0.1655011864728395 
0.02713247281055367 
0.7144118507499644 
-0.2868763435297544 
-0.1565570763392116 
-0.1744222186637652 
1.00528677100683 
-0.1346001615191485 
-0.2327582989507459 
0.1051265875010175 
0.1985706692357444 
0.1767757019471367 
0.01920856127419321 
-0.2093945410219571 
0.1935447074979114 
0.7711469728668655 
0.2737813021263484 
0.5460260222683809 
0.1080514989640557 
-0.1736211235780229 
0.2245163184722759 
-0.1183011050124851 
0.2497667069832975 
-0.121934558907133 
-0.1900594498269596 
-0.3235616338696979 
-0.2298510250387316 
0.02728536357458455 
-0.2343417506005794 
0.4269264345942458 
-0.3403877868679634 
0.1070710625917952 
-0.09631128004092129 
-0.409397269337794 
-0.1658154314249906 
0.1320580855461589 
-0.2037871759583735 
-0.2739659144791335 
-0.4044172118957112 
1.508982219868279 
-0.1510288353936554 
-0.1643190904443952 
0.02163340520819136 
-0.6412870046754607 
-0.2636165586892835 
-0.2429279970797651 
0.09080869601965003 
0.1166049626450775 
0.06653486382658642 
-0.1141857850283624 
-0.1903637310418648 
1.778446141704407 
0.4222195624538605 
-0.7209565888015887 
1.521787652725641 
0.3978072592818093 
-0.905243749185637 
-0.2168840507319389 
-0.2276444852346159 
0.6823777823965814 
0.4194888449488424 
-0.2275988033313262 
0.1809148096208771 
-0.2896949458144694 
0.3544246465728106 
-0.09496585219278876 
0.2528713145528673 
0.1959836996104626 
-0.2142053206831822 
-0.127270782401409 
-0.1452455861315987 
0.6210984070563619 
-0.521938264735242 
0.5239281511129403 
0.1237415266023187 
-1.113423186798116 
-0.1178889424232815 
0.1837101649016649 
-0.3297259415324861 
-0.4511718402764853 
-0.1544571433226229 
-0.1075813792164428 
-0.1420997318925233 
-0.05771166932813388 
-0.2668963170972476 
-0.8768029445966545 
-0.1587631598071489 
-0.2987223798673005 
-0.560817732727765 
0.896091871417684 
-0.2411371865655615 
-0.3472689636714517 
0.3060056397434002 
0.3595152390086068 
-0.2584891738522387 
-0.1591341389118593 
0.2676441722571031 
0.3728648035970051 
-0.5548778171648331 
0.4881711062704114 
-0.2485838176793905 
-0.208421930243423 
-0.1458153888233848 
-0.04998205567216892 
-0.7701998334711083 
-0.1855823447569084 
-0.23837028412238 
-0.08684912780110381 
1.002220769499001 
-0.3672479985719821 
0.09316529487948411 
0.1476401084701693 
-0.5324079761217406 
-0.2151258820366614 
-0.2660662934949842 
-0.8318842145819662 
-0.01054117911381562 
-0.04488207343564563 
-0.2403222673718803 
-0.3744107213460747 
-0.0003828083318498346 
-0.2948276611103802 
0.6088826906204687 
-0.1263802811846128 
-0.05445638190563676 
-0.05115513244887806 
-0.1496513076347921 
-0.04784467459932956 
-0.9389658781782999 
0.1194576250123075 
-0.7121859088192305 
-0.01693131523487932 
0.1008628362380845 
0.556849037892526 
