solver_type L2R_L2LOSS_SVC
nr_class 2
label 1 -1
nr_feature 512
bias -1
w
0.1307113590391022 
0.2007741151752767 
0.5010213822610553 
0.2184288620335349 
-0.0957838062697918 
-0.3176391805476124 
-0.3667523001441549 
-0.1676383503037702 
-0.2733969764821347 
-0.044063819149224 
-0.3656441808810499 
-0.2174160673504076 
-0.2289049344548452 
-0.03945093972426417 
0.0729201076840615 
-0.5618037817007939 
-0.322539033180649 
-0.006666550093774029 
-0.5750916252017342 
0.03689180553368218 
-0.04504158663407177 
-0.2282897160579372 
0.1022257571744415 
-0.437070717870968 
-0.6619113776500165 
0.3928759545860485 
-0.2293667547255183 
-0.3729178806271021 
-0.6870377297244127 
-0.2119120559111966 
-0.8168804624637045 
0.5902156825053977 
0.5818026258083873 
-0.2841904333590831 
-0.1706034145256449 
-0.5231207337090155 
0.2159049293811846 
-0.4651981232123986 
0.1406211739873519 
-0.2044660168741643 
0.2156197897513125 
-0.4267038436671226 
-0.2792340939659704 
-0.1843457173008125 
0.005662878442539274 
-0.2372858420622433 
-0.07957233124421952 
-0.3537284586697504 
0.05874614768946199 
-0.4025871445943295 
-0.6567327924789875 
-0.09591219502495725 
0.8128122085521742 
0.9890071263873438 
-0.05941809362580616 
-0.3973682602523758 
-0.5950460249292548 
-0.3374664406477734 
-0.02523270213317928 
-0.0008449942370693563 
-1.132528228164338 
-0.094215703840472 
-0.1302531938778487 
-0.1468672918531073 
-0.5580671100535763 
-0.359398333783251 
0.674709159637607 
0.2013622307065439 
-0.1108014084484416 
-0.3599200433991521 
-0.249342346814889 
0.04515569872499307 
-0.45113820970649 
-0.2036144014385937 
0.6828949263099308 
-0.1227525349457785 
-0.06569258704839645 
0.3048569830278891 
-0.05159939770927646 
-0.05848136057977106 
-0.3951974067522363 
0.4429518952871073 
-0.5047856952234121 
-0.3291637666398133 
-0.4373926117906753 
0.06228992877222115 
-0.2922056484949307 
-0.1276044074798276 
0.341203859418993 
-0.6015974202704562 
-0.7297117575153739 
0.1357682922849772 
-0.1335460161337296 
-0.4474785953531135 
-0.2002791931684685 
0.1854861477443485 
0.1805634229005238 
-0.1657578190264585 
-0.119305998214931 
-0.105258531475737 
-0.08580349716496678 
-0.3166860796671104 
0.2521167822955582 
-0.2148169489429196 
0.008533646110714258 
-0.2435275067964396 
-0.8794110430255664 
-0.02315325495186127 
-0.1753146449198199 
-0.06646394224733183 
-0.2893039431434334 
-0.2863351157147586 
-0.1163670948175876 
-0.08755718794637135 
-0.03402626853540665 
-0.3206117480675074 
-0.4044644817212897 
0.2340671904528964 
-0.4324498124676097 
-0.2689899623695068 
0.1348691486604665 
-0.1448359032574169 
-0.3856586114402955 
-0.2171285121595538 
-0.1963507110321774 
0.1068421896112277 
-0.6739613992041934 
-0.1452101396707909 
-0.1101902301974762 
-0.169792176049119 
0.09024691934875388 
-0.2963482639947794 
0.1076564910954406 
-0.4202000828494188 
-0.2949106278893223 
0.0915407971510802 
-0.1971022624439046 
-0.03268022888990354 
-0.1412616791282205 
-0.3616451798551121 
-0.2619764816180893 
-0.09530171147456654 
-0.1029899751248 
-0.1853864907379215 
0.09013862658422547 
-0.3208917979377099 
-0.3677892278381443 
0.06699264235307296 
-0.06083886403124857 
-0.01552458672673486 
-0.1542582391205409 
-0.1244351806556914 
-0.3536205186644588 
0.2288946739349901 
-0.1091347471620608 
-0.2882808044821281 
-0.2754324543151332 
0.00511114953044176 
-0.2238858869203933 
0.09767848436221786 
-0.2627661272696015 
0.3857414739837768 
0.425620138851436 
-0.07695508938244504 
-0.1580638149381513 
-0.8651089516188725 
-0.2954873145149937 
1.086414924703741 
-0.2579720191954202 
0.008824578481021297 
-0.3821651581634466 
-0.6204484030715485 
-0.04009349966174389 
-0.07910001384465867 
-0.0492934381722026 
-0.04967563790772375 
-0.5406191714959828 
-0.1022435776359362 
0.3995166075602163 
-0.6414182817683339 
-0.07462079744729636 
-0.1549364300770403 
0.7781945657924921 
0.8377939540049693 
0.3169154353954249 
0.7264870546525379 
-0.07576292826979611 
-0.1106915929755703 
0.317515360832151 
-0.1182095069234139 
-0.4250984611611568 
0.3993331696213762 
-0.0655698294405998 
-0.3440579949705773 
-0.3942360116110675 
-0.07590197810376037 
-1.328162253520812 
-0.1643259625765129 
-0.1260838309789505 
0.04703991086440635 
-0.6683319557845757 
0.2761821845289832 
0.1841803045540392 
-0.068347681611234 
-0.2782334553981234 
-0.3873105656412505 
-0.1922876651130031 
0.4859402873437936 
-0.08089865433531773 
-0.2503412419945332 
-0.2751336025890524 
0.9997567913701777 
0.4230977190047491 
-0.4296784576052882 
-0.1751720970176901 
0.01289604111007677 
-0.4975823052873173 
0.9202461570686561 
-0.7928948007703858 
-0.1037911581623585 
-0.03941013040881999 
-0.1192477734361197 
-0.2038833857194897 
0.1564249731612502 
-0.1942626947814575 
-0.2765868149846245 
-0.1140624381904722 
-0.8007788422299229 
1.184590795682585 
-0.4361019383095897 
-0.5551169668938627 
-0.2319834269258995 
-0.1072731875095402 
0.1680783647716981 
-0.02839626450654394 
0.8290713671242076 
0.4466052421948981 
-0.123341479536111 
0.1899595944885492 
-0.2988195003845436 
-0.02022366226133546 
0.4739933943231073 
0.4465375851984525 
-0.09816459605828881 
-0.155035805963721 
-0.1463743130016823 
-0.3903954734536788 
-0.07272216610334661 
-0.4418362653260773 
-0.3121699648363739 
1.120222772550151 
0.5597839831519492 
-0.33691941350585 
0.05809341484801372 
0.4549786933498996 
-0.6067317986602935 
0.538449210714754 
-0.3129677875279765 
-0.165379345523991 
1.137254786327552 
-0.2359815894684563 
-0.2833707142505983 
-0.9058332702330475 
-0.3250406763850831 
-0.3974897521068999 
-0.09092530093750636 
-0.03191788542680071 
1.403675068051891 
0.1907072053927358 
1.012753611789722 
-0.1683912358041375 
-0.7915025550700083 
-0.1123703647757235 
-0.2763733864340679 
-0.0998527731648312 
-0.2419391623887516 
-0.2776806686473688 
-0.3678879549940917 
-0.07594028836988061 
0.0202350649218733 
-0.3962474830706881 
0.2351622750755037 
1.113291313368524 
0.166183850393536 
0.06649667516851056 
-0.05396320164138869 
0.4593006957709731 
-0.1088414124212589 
0.3698678068229082 
-0.3042861895799446 
0.08190685895044861 
0.2780367949529889 
-0.07581469799834921 
-0.1546543084560737 
0.07113244653311508 
-0.2656335447600823 
-0.396499407847313 
0.8038607086804351 
-0.2155098405009694 
-0.1526162359148716 
-0.5827333101538622 
-0.30538573744792 
-0.272936170479374 
1.218455742405273 
0.02772414554571696 
-0.3124596697277769 
-0.01916045692185101 
-0.6454525510535825 
-0.3909437100490872 
-0.2943799741405742 
0.5458152333662962 
-0.4714251654225612 
-0.2359003438069718 
-0.0187052087348841 
-0.03686512332119597 
-0.3329741222694739 
0.4159338902940673 
-0.3942817146565312 
0.2256988530046516 
0.4406889180798267 
-0.1491382718736282 
-0.174565947001864 
-0.06631606266902614 
-0.08358659500975731 
-0.1015254734324206 
-0.205113022038307 
-0.3097683505132718 
-0.5976496556601067 
-1.007185830120205 
-0.1853125873523592 
-0.07182771096822343 
-0.1043081541720024 
0.1118749737520608 
0.5195085589981803 
-0.4460911756968224 
-0.1587266819510547 
-0.008278736492378834 
1.129516432120413 
-0.3314355499103945 
-0.1623265011421881 
-0.4091766423704308 
-0.9323811726637883 
0.2105163312055945 
-0.26974519182546 
-0.1302884035090135 
0.6671483055550838 
-0.1553580778495872 
-1.161372217847878 
-1.201999916447869 
0.9965142756696961 
-0.5321215539264219 
0.1654534727154261 
-0.4228540446723392 
-0.3229674811167741 
-0.885841004278945 
-0.3405823899113698 
0.59953925742525 
0.3277098139158813 
0.1288244666852523 
-0.3228845810331519 
0.2344907323632221 
0.1659089041344004 
-0.1547386676487605 
0.1900565054912337 
-1.178901505489742 
-0.2882103651454314 
-0.5116608455075872 
-0.3353845380678923 
-0.3224679111614568 
0.07446466875335304 
0.01993432199144172 
-0.3959896289069624 
0.1925743327611075 
-0.03880244888586616 
0.6049988573449099 
0.3049541816562761 
-0.2602091371315751 
0.1182247068866735 
-0.8133168155819237 
0.2954013391987717 
-0.08220114773806543 
0.3050522180944262 
-0.003187943091257426 
0.3919943016241841 
-0.2687665238669198 
0.4164434380556516 
-0.1235893437422265 
0.6028444591895901 
-0.2864278551404197 
-0.1894511452990241 
0.01705910082125919 
-0.4321613475604583 
-0.08161788055010083 
0.01285431129560049 
-0.211927081072823 
-0.0615939850037452 
-0.2551168083029378 
-1.183107822054315 
-0.1317084563659169 
-0.2268009433846628 
-0.3499721308230396 
0.08244445069869633 
0.2405471499416598 
0.1461077907518784 
-0.09097542913561678 
-0.2880442651980671 
-0.0218127881217491 
-0.1559425508862584 
-0.4238764253365617 
-0.3459932006163845 
0.05904317744125087 
-0.4943384269344131 
-0.2313971572467254 
0.0719940919163439 
-0.4462057276372955 
0.006187233231814149 
-0.7234814151918229 
-0.3906502169446847 
0.5867183013960978 
-0.1823200305263992 
-0.3145615325319284 
-0.5805266685932636 
0.1407130646841397 
0.9086079163207522 
-0.1251419377730764 
-0.3157050743503925 
0.005494127093876148 
-0.1448646819824216 
0.262426795466449 
-0.04648172587340534 
0.06734095489027685 
-0.6848019497022328 
-0.3378540872053024 
0.0752041415809345 
0.8509512912869271 
-0.01102348456219276 
-0.06231178583923375 
-0.5493432273398922 
-0.2356390052437161 
0.5709766535477631 
0.3650618506406178 
-0.1621483160315905 
1.198566468459616 
-0.02594985583939746 
0.1182578576782616 
0.3261658316685265 
-0.2015945865780248 
2.456413696354025 
0.0479256145792818 
0.1356260513732978 
-0.4714912105781514 
-0.3033864175813502 
0.1895853720020059 
-0.1032343299220144 
-0.3900826219818019 
0.4744107723256384 
-0.203863578282756 
-0.3832657598892116 
-0.07747312703133574 
0.09487745386957892 
-0.5294236410996578 
0.3661158298482504 
-0.4080190538809555 
-0.9137573042366581 
-0.7629650386110594 
-0.3286072123759852 
-0.1275985491857723 
-0.4137807716632018 
-0.01274688361121334 
-0.1218073567252598 
-0.07063218936278336 
0.05488080718013547 
-0.1758318343932368 
-0.1503910206463236 
0.1424768944955438 
-0.1993267694894592 
0.020092142198934 
-0.1728412135713863 
-0.07693269786600469 
-0.349091493568813 
-0.3685009290681598 
-0.1345067478542189 
-0.8644593548490218 
-0.2248965699551487 
0.1161317078671283 
-0.2258986637637239 
-0.3111208541797439 
-0.3690502121745136 
-0.6538748425433043 
-0.1004769273135657 
0.03974257241074414 
-0.07081802158587418 
1.06963280213505 
-0.9247089298891851 
0.2232610754491352 
0.1961704042002591 
-0.2355210911920726 
-0.4096511446735476 
-0.2742140346570365 
-0.2911551247839658 
0.5890963355138864 
-0.8927927570139327 
0.1673440243508325 
-0.1120758591184157 
-0.04425427580105501 
0.04079085238920372 
0.5256563519975079 
-0.3800895594032576 
-0.8511061321594227 
-0.1627297471615394 
-0.4829203731464193 
-0.139909607722904 
