solver_type L2R_L2LOSS_SVC
nr_class 2
label 1 -1
nr_feature 512
bias -1
w
-0.1337401008392203 
-0.05648485825521034 
-0.5427423939921285 
-0.1507892326125841 
-1.753699305562064 
-0.3653468853631922 
0.02701229990713964 
-0.7399471594406528 
-0.3842601150827326 
-0.03386290637913721 
-0.1419497664098599 
-0.2376437903512321 
-0.4974159922256973 
-0.09945980093389786 
0.03173869550061669 
0.3325734946990637 
-0.4952138396236227 
0.1345593113887046 
-0.5101360901273692 
-0.393464196096441 
0.01651548000551419 
0.1666422079345337 
-0.4793836846526179 
-1.206382994527885 
0.002035657697391039 
-0.1756143383610623 
-0.1804564686118368 
-0.306998180384788 
-0.3292288274916378 
-0.1188943469779595 
-0.7769618219390777 
-0.04328261449304389 
0.2163857281934279 
-0.3970201463084674 
0.5712490693003218 
-0.1725743350409757 
-0.3275267939730192 
0.1501344529410433 
-0.08011244451726901 
0.1790162446423011 
-0.4249048701979667 
-0.2833772212946975 
-0.3524841326258886 
-0.11942729761251 
0.3651018242853218 
-0.3418321566318133 
0.01390872902201138 
-0.09459823885549103 
0.1207308600549997 
-0.4202592738757938 
-0.6067397501889965 
-0.004040125983037471 
-0.6290130988688446 
-0.2391940483486734 
0.06194024543578987 
0.05712827123717749 
-0.9512057997279123 
-0.3196044669778288 
0.71224593939077 
0.7065308523278206 
0.04839867905673529 
0.03037169453898584 
-0.1666848962288526 
-0.2095497853396076 
0.4179485937246247 
-0.4645218316419675 
-0.2599047244098449 
-0.1628493287490643 
-1.004109907914727 
-0.8034335168297745 
0.2766969862261153 
-0.1408196371886807 
-0.2080561817059212 
0.6102575754126738 
0.09731747341791799 
0.01994212097471676 
-0.1383077778895875 
-0.3748916628168134 
-0.1607093484981387 
-0.2241563586085062 
-0.1672453603120761 
-0.09533604813274119 
-0.4183040058468988 
-0.3239260612985773 
-0.3666822127977288 
-0.1362189692741966 
-0.1273919508505607 
-0.1620728599661576 
-0.1194100581778352 
-0.8826281692492584 
-0.6157879318747923 
-0.2603449844709031 
-0.1762965945588515 
-0.3158977426887812 
-0.2059366518891955 
-0.2195828683630522 
-0.2457058698912524 
-0.3202384351313737 
0.5322624126224207 
-0.04965486825634959 
-0.2380151972811487 
-0.2814230594582954 
-0.2139920631186146 
0.175319294122893 
-0.4834049106224063 
0.2981490189332541 
1.709871497999091 
-0.2089676493920359 
-0.1713970997319514 
-0.1278174747674578 
-1.0290583060648 
-0.005330824776771499 
-0.1465393583982611 
-0.3288725175604275 
0.007546230136708854 
-0.2861613498178175 
-0.305110302084075 
0.4234238555360536 
-0.4185039533222787 
-0.03786901382966049 
0.2342494584442492 
-0.1365600350473486 
-0.0831373556868755 
-0.1660984557864255 
-0.281295586097024 
-0.08855896110085644 
-0.9175030008441141 
0.06120405217850629 
0.2890851072955343 
-0.3285046799653358 
-0.2219943753427519 
-0.320657542963822 
1.190991251037222 
-0.5216620763705742 
-0.247775828607209 
-0.3349434029325473 
-0.07405402329129168 
-0.001840102231339284 
-0.3553335053174719 
-0.2056573820091977 
-0.2087685918880089 
-0.05498549346035062 
-0.1474465311883474 
0.1320562321633951 
-0.1337257166944283 
-0.1356946055155005 
-0.1029096964144141 
0.0330687297691347 
-0.1179265712707786 
-0.2584018855693941 
0.4368275889488589 
-0.2361647872299016 
-0.1523029566190418 
-0.4281160139279701 
0.04442833967627529 
-0.2331564153313193 
0.396106172748579 
0.3539628963133774 
-0.2040133246279641 
0.1056453923370311 
-0.3730859403154478 
-0.1380815472190216 
-0.1384871715715185 
-0.08761981923861331 
-0.163671545162863 
-0.4262719360077641 
-0.1740038163481572 
-0.1703248718833264 
-0.2484893907607411 
0.1122599920481733 
-0.3170478558507329 
-0.3292762332219711 
0.1852580218939504 
-0.03490412774481642 
-0.09945204410332353 
2.526393077128679 
1.277952782376172 
0.06986145754469802 
-0.1715446696837085 
0.5393712817446392 
-0.07908180108962515 
-0.2441518700826105 
-0.4557218171491116 
-0.5615499352419822 
-0.03398863830518961 
-0.3854928837535394 
-0.1690477312362856 
0.4183545707914816 
-0.5585952699881978 
-0.0547375162017871 
-0.0568347588562588 
-0.2721320094865811 
-0.2089751934195321 
-0.2565063902586884 
0.05243485335177644 
0.3758438969963235 
-1.401388091947707 
-0.2829209434319445 
-0.7848586582244409 
-0.152433463636808 
0.1597800916391577 
-0.1365994613042086 
0.1938783562753099 
-0.01009816793055934 
0.6017222842110614 
-0.5856246583017691 
0.208692414935145 
0.1141225858125965 
-0.2325262328367151 
-0.213322724477357 
-0.3373289137845584 
-0.08488497715478278 
-0.1458317028209443 
-0.1509654056097546 
-0.2264759160680954 
-0.3731481130702941 
-0.3593532944792405 
-0.03632712067628365 
0.1509871022818293 
0.05583890715478204 
-0.2047625734502024 
0.05781688871805792 
-0.183469206622266 
0.009035454925103827 
-0.2293065380467248 
0.03672792440305121 
-0.2312876330059098 
-1.172194197710556 
0.04349179959123566 
-0.263124098319635 
-0.1672366593091787 
0.2550574747237545 
-0.22064761989283 
-0.103576992470508 
-0.005551277820645257 
0.378015816078432 
0.08568239113949376 
0.03772740222154739 
-0.4025388805184012 
-0.2204132852206653 
-0.6203366817732153 
-0.2727009657345966 
-0.1700065252387231 
0.07965098489959237 
0.5139953545094021 
-0.07928658374234904 
-0.554681153127765 
0.04151346651404775 
-0.05543207567563446 
1.050742449158954 
0.3843266563420696 
-0.199231078066878 
-0.4058560334990348 
0.09854652618102808 
-0.5548689263606136 
-0.784800768862449 
0.02363344390405439 
-0.06959589107495263 
0.1060388077695743 
0.1024131778518308 
-0.04535419340351975 
0.9412707807043357 
-1.20174018483798 
-0.07730454920892151 
-0.3354793165437726 
-0.2391373163593802 
-0.3102671084998516 
-0.04041095526213363 
-0.07116241282631243 
-0.7378692152832798 
-0.1712505639888228 
-0.7144619411267119 
-0.1856438764533327 
-0.325273157801035 
-0.4399837639588896 
-0.298992424239919 
-0.2756959390903537 
-0.3858786208808928 
0.003122302380054576 
-0.07917365711472771 
-0.2597248131429377 
0.1096306072427755 
0.2062212280782414 
0.186010380378274 
-0.5225455169100035 
-0.3155141486408209 
-0.1191888242504478 
0.003640526505731271 
-0.4071530891405894 
-0.1042084877125374 
0.03070072838707549 
0.01200064495117824 
-0.06432634953022826 
0.2809613826072505 
-0.2391488604322585 
-0.5390941256345503 
-0.1682318481246036 
-0.6109425202444732 
-0.1191443101146567 
-0.1602436207114352 
-0.2854396190682425 
-0.2866650151624722 
-0.2179019927294723 
0.1299457230939027 
-0.1297133171721919 
-0.3904162990012763 
-0.1553938672981656 
-0.6736341303461627 
-0.19626692553958 
0.6332480569830357 
-0.2503294613990119 
-0.003658042923547601 
-0.2765701122292686 
-0.1115200441527324 
-0.5681393683974668 
-0.2600399826094787 
-0.1377354522118817 
-0.3627064886254703 
-0.296624770466676 
-0.3152739792191339 
-0.1372313650561571 
-0.06832844533807612 
-0.1724340760396314 
-0.1041434871327745 
-0.2302583251755188 
-0.08342541150921835 
-0.26520994234447 
0.004489118519004956 
-2.071034123542328 
-0.089634118520905 
-0.174019447755538 
-0.1763298780668805 
-0.1556672940530147 
-0.2753371816038973 
0.2424431182533601 
-0.4469778522229378 
0.1004245205063313 
-0.390608056274178 
-0.2853881067247644 
-0.1984923078800909 
-0.4263914635091075 
-0.6731067810434115 
0.2872103038989136 
-0.2795255816415466 
0.4028098715323558 
0.4533072209346217 
0.6813467304060994 
-0.1841348940161038 
0.1573342093103272 
0.1073778553884727 
-0.241510493973053 
0.2749965997543403 
-0.1782826487362502 
-0.1218991449231186 
0.9891556366066919 
-0.3189126714489027 
-0.4815408856718734 
-0.06238011237479358 
0.2378507882631808 
-0.2631319695551049 
-0.09891357088934447 
-0.1567666425395107 
-0.03485349223983256 
-0.2935201905803694 
-0.3245479057021437 
-0.04396600013865601 
-0.02982218468336288 
-0.1917266808401252 
0.4891063799709868 
-0.04360416169227803 
-0.1095553936170267 
0.08462626737191706 
-0.3165756030699852 
-0.2304006156698663 
-0.3205574262758076 
0.5895215844982103 
0.3792342234377116 
-0.1062242207957035 
-0.1232188253396339 
0.8579622041165496 
-0.1742131226873665 
-0.01703084615147802 
-0.2364040176244975 
-0.1135757688717554 
0.08454909930323386 
0.3842352123872784 
-0.2009800169337866 
-0.1783557000913664 
-0.1968045708880507 
-0.07907677716028584 
-0.4038104970984323 
-0.4265820779395748 
-0.07656677244991968 
0.01153365725681211 
-0.07925928213113322 
-0.08742130694755164 
-0.2742160111305393 
-0.9169302550981894 
-0.05381928134910457 
-0.1361594731936452 
0.9618288837062543 
-0.0964047385156155 
-0.04337664159694599 
-0.3155704054693134 
-0.3717732320089178 
-0.506091833965758 
-0.340616179939447 
-0.06607678064715522 
-0.5996894402937561 
-0.2038317298830879 
-0.1412074923698124 
-0.1506560522458962 
-0.2583002263130703 
-0.1955204838282072 
-0.8624031969205284 
-0.2404718850543682 
-0.4248696679944884 
-0.3957327222153386 
0.3098546391998591 
-0.03372649194217855 
0.05123898514943338 
-0.9860483330200405 
0.1963084313398895 
-0.1137713289549993 
0.4214437566101888 
-0.3597262419362525 
-0.2974612177203911 
0.1839795448023766 
0.002541913283378184 
-0.09306094115673029 
-0.001913836565210296 
-0.8138978753123256 
-0.270563678874241 
-0.1906011063436119 
0.6264126138366563 
0.02956019559056151 
-0.2529987748857546 
-0.5803923322073572 
-0.05685537854831212 
-0.280619105043921 
-0.09143125134563411 
-0.1991931147058504 
0.1546972982780891 
-0.1032935733829151 
-0.2120734897040806 
-0.5726440654138178 
-0.2476682804828775 
-0.02507350327525467 
-0.02891047607526455 
0.04390932103692001 
-0.5504572089136255 
-0.4066544307064615 
-0.2696732033958914 
-0.5860219670000317 
-0.3457602464369409 
-0.1087766751554149 
-0.3636574278365839 
-0.5352789930271779 
0.1546705840300648 
-0.1327718973242096 
-0.5810834112479049 
0.325527609422295 
-0.1921814633816285 
-1.083532805609147 
0.9350101682401437 
-0.3927277273045992 
-0.2342262000733223 
-0.1907654091107079 
0.05057190221271582 
-0.2791222703325322 
-0.1591517176443719 
-0.03370531779142836 
-0.4851961660754066 
-0.2616161485968729 
-0.1067030397187152 
-0.1527325685495761 
-0.520592909203027 
0.3216641295227471 
-0.198692660161956 
-0.1883475339991186 
0.4188225423012277 
-0.1107665266180138 
-0.9878319255262652 
-0.1155780278329035 
-0.02087377047162028 
-0.2538500029113814 
-0.7614719595384387 
-0.4956741457245806 
-0.5462911071105218 
-0.08557445523247278 
-0.4105800994587056 
-0.1920610087542858 
-0.3526719069379506 
-0.7972909059047365 
0.05484136284143428 
-0.2605364916903866 
-0.2571175423224587 
-0.3856665894486411 
-0.2301094305615487 
-0.2715920863862134 
1.464421177522337 
-0.5518855043648919 
-0.1123957665697005 
0.3443020547096132 
0.07019122661390706 
0.08123066188445842 
-0.1981959794591107 
-0.2324728749610818 
0.6785061697363267 
-0.1424510592446917 
0.343335985811575 
-0.04513114531938481 
