solver_type L2R_L2LOSS_SVC
nr_class 2
label 1 -1
nr_feature 512
bias -1
w
0.05564607118150328 
-0.6314882451434001 
-0.5258029490504499 
-0.2079987460657711 
-0.0665168761192199 
-0.560757242763363 
-0.4058855930786379 
-0.6306233334266336 
0.3306108878456989 
-0.239909462042886 
-0.213244116202918 
-0.02289591424881801 
0.06424057371926055 
-0.09229548225488521 
-0.278135171023135 
-0.6319224250981668 
-0.05709042854216863 
-0.1146823348279371 
-0.3796127710836129 
-0.1125491838748179 
-0.2419590804672573 
-0.3076694006688241 
-0.01236366088254745 
-0.1708459323141285 
0.4843402941221314 
-0.1613253740341774 
0.5294900935490386 
0.5342297640055277 
-0.1408667585984923 
-0.2602887685988806 
-0.2468318710443557 
0.07716407750047942 
0.02218216206456145 
-0.471009901626687 
0.4358027008953584 
0.1269733888057561 
0.1331878747713469 
0.02273399896246307 
-0.04337081262916383 
-0.1875830437101423 
-0.4265344784082289 
-0.3698382807365423 
0.338044943154755 
1.100654770859791 
-0.3335269094876732 
0.876915725718075 
-0.03564601533726615 
-0.5946758212741488 
0.05091625956186162 
-0.313379833946217 
0.5689269459824438 
-0.2493113811689324 
-0.5376152530651193 
-0.1772029375958655 
-0.2833371096694562 
-0.2468787014007662 
-0.3918394592394639 
0.5421366884641325 
-0.6233270132524753 
-0.5471110271337947 
-0.01217687335752725 
-0.2186236482685571 
-0.3793784610050929 
0.2107449963954407 
1.63914165402112 
-0.5155593933939255 
-0.3391481577923129 
0.01237325085640741 
-1.020874929163402 
-0.5692551654700099 
-0.344648367691552 
0.6787582714887787 
0.8703218961445527 
-0.4030170018904891 
-0.5787237672585887 
-0.3549906521393266 
-0.3744265797808635 
-0.1317854534321273 
0.416006453188234 
0.6019910369431395 
-0.7573508493955429 
0.6835977230487276 
1.599389143668276 
-0.2992557512083285 
0.07707130888825379 
0.5483126793077825 
-0.5206089347410574 
-0.2429832561961098 
-0.5933157639177794 
0.2647342072083023 
-0.00227334244548975 
-0.5251564432358499 
-0.548438878622727 
0.8265859317764493 
-0.1607780547529821 
-0.04616394102082107 
0.142565546039365 
0.2359102211442763 
-0.3825294637480267 
-0.4411506514440677 
-0.1722992767717388 
0.1703130636745666 
0.08487536031584243 
-0.1598638333838711 
-0.8713509308625086 
-0.152961234462707 
-0.6409225823000887 
-0.2943270610544889 
0.2743406258087874 
0.365847062407522 
1.620764540493641 
0.1286940413513107 
-0.1222195768603683 
-0.06318835975467188 
-0.1752714906298506 
0.1809086989674487 
0.5470616269609592 
-0.8357469019919888 
-0.7335723285501115 
-0.22283616817382 
-0.005806670758307716 
0.4704687542373757 
0.01482734193919876 
-0.08706075387342381 
-0.1555414488742398 
0.06306549054862874 
-1.378838868904433 
-0.1003933126053407 
-0.4047944646275681 
-0.7191824805133149 
0.9705656789776185 
-0.3651196579859001 
-0.2898119658336424 
-0.2712355987992288 
-0.330145853482739 
0.05991737721462954 
-0.08710852399830601 
-0.1852791645014271 
0.833675047681442 
-0.183181017377577 
1.060598508806285 
-0.4140073188125504 
0.2984785882526802 
-0.1198753821673143 
-0.3627125264663618 
-0.3468268931827458 
-0.1335588788405173 
-0.3699314513016044 
-0.4458889358599477 
-0.4889826940828933 
-1.400222988353907 
-0.02342827814633305 
-0.1632503272874899 
-0.2996824662493109 
-0.5002805263937241 
0.2043473512282523 
-0.5559375838976257 
0.4732775577743316 
0.5982285742802621 
0.8562556237033945 
-0.2311632529888245 
-0.441171539861457 
0.07456325937411887 
-0.202049868156285 
0.1729447996366772 
-0.6971401566003281 
-0.3740049906801232 
-0.7488488026199244 
0.8287390163079666 
-0.3370012170939826 
-0.3867915232307369 
-0.2798122453284951 
-0.034904899905295 
-0.3842580946591609 
-0.2272300945362292 
0.1548895371324319 
-1.690086860957169 
-0.4801496113959545 
-0.01653407706920057 
-1.315128228206345 
-0.1737332536538479 
-0.04556940695188175 
-0.4527505983668625 
-0.06336468690433014 
0.008361783863673845 
0.3112109573087433 
-0.2123609608052923 
-0.9322755837316768 
-0.487161904169675 
-0.3535429288727396 
-0.03067655861650732 
-0.1078488541051115 
-0.8858462400300573 
-0.4388339836553573 
-0.6065913105184318 
-0.9027085212879897 
1.367014076169145 
-0.2343224719958677 
-0.7998755643757307 
-0.6842169823052481 
0.1184259228377459 
-0.08820180158623303 
0.3087670112205165 
0.02451610047915331 
-0.5025451600217695 
-0.443253786402038 
-0.3181802332579827 
-0.1934602004496427 
0.2492779007614924 
-0.3206679491123492 
-0.09098577190170455 
-0.3097890730856176 
0.05014964662256637 
0.005435299653760986 
-0.2085322685101723 
-0.1701088295182605 
-0.6458035405809038 
-0.4231086391553832 
0.1287540920125712 
0.3800693386447599 
0.030346264400793 
0.0403748549173327 
-0.5089138693086109 
0.1016435668382119 
0.2763629805072297 
-0.02342157880127928 
0.379610192920278 
-0.5704057619359524 
-0.3173845432727094 
-0.1115914440899315 
0.6196705057050231 
-0.09597427800509721 
0.8045672744002903 
0.0673908916690735 
0.4384520101499494 
-0.2072003310352552 
0.2670311857452521 
-0.05919694297799988 
0.7955731270979158 
-0.2049465663453768 
-0.9572467183095414 
0.5797237113928642 
-0.1456628522511121 
-0.2315776981013043 
-0.1945553276746652 
-0.5283002731640173 
-0.1256320976467587 
-0.2381112316405436 
0.02074744478404426 
-0.1777183045715093 
-0.4506151170455442 
-0.2377892737133127 
-0.003749229839455122 
-0.38083761079074 
-0.4938115245985716 
-0.9215236382913869 
-0.06140694730082802 
-0.1031779567960547 
-0.2515204310593125 
-0.6279543310608618 
-0.01647506906408388 
0.04166188401080911 
-0.8383028276259075 
0.06019213461708735 
-0.4841039168939366 
1.260895291124485 
-0.2451317321002908 
-0.2245109319720239 
-0.1244165761730264 
-0.2694780053448791 
-0.225589204142533 
-0.5984185093724577 
-0.2161185356127071 
-0.5292842017964897 
0.934116534627335 
0.6549863335076775 
-0.5764581309367947 
-0.1095407354590431 
0.5433828260485245 
-0.711156573309192 
0.0431066787396116 
0.09562985348784979 
0.4929413300642097 
-0.3611218512416678 
-0.54200739082243 
1.294559427734499 
-0.3049018266666484 
0.334500044524199 
-0.3390206572901426 
-0.2546267754918675 
0.06145907691695967 
0.3637556035729728 
0.03945200477775302 
-0.09062745331580221 
0.4725330013819076 
0.2896371669520313 
0.2678361357000207 
0.8198101305424579 
0.4266543417804395 
-0.02891195063893379 
-0.8964719049277113 
0.01286413055046622 
-0.1554296024992429 
-0.5203515628281032 
0.4664816937538983 
-0.1696011911239428 
-0.3743300303855067 
0.7628683405873611 
-0.4728027929861003 
-0.6304784900310937 
-0.4800140183205585 
0.3354419839669311 
-0.6456614429337062 
-0.2515186947752259 
-0.1401970881458173 
-0.5935802248765844 
0.001482721781710318 
0.5367267163524017 
0.3059373069184209 
-0.3842065105263958 
0.6226343566581862 
-0.2959658331245108 
-0.1719090583092627 
-0.316394041207892 
-0.3562204719200018 
-0.5125780514524194 
-0.4011952472859743 
-0.6933801769949686 
-0.4847990948824967 
-0.4194485537873116 
0.08663528142841835 
0.05241814735796101 
0.06285855681350973 
0.0904443406010533 
-0.5401954489010257 
0.5692502822404569 
-0.1610207146200656 
-0.5530134817565656 
-0.1428085180961076 
0.1192731920784689 
-0.9499413757462927 
-0.1583561104963593 
-0.2425473606916478 
-0.08382073099608114 
0.2647564554572706 
-0.4251051957065426 
-0.258665156422256 
-1.312300019963466 
-1.020028948349668 
-0.1645740773526441 
1.049754935120703 
0.1889108109221281 
-0.111892136494101 
-0.5976430908578659 
-0.3959996706972715 
-0.2300244403348758 
-0.4599952834784389 
1.397239727631934 
0.2753923606429705 
-0.4864645319639278 
-0.7779344272936318 
0.1106239064709633 
-0.1502274427558217 
-0.1782447659138625 
1.147729272946569 
-0.5301710335441513 
0.4475801000445718 
-0.2696043356255576 
-0.1461601506894219 
0.4534571460492879 
-0.1463665489780914 
-0.4484568346399672 
-0.2740826342951962 
-0.7348148506126405 
0.2205143720016626 
1.077510309854009 
-0.5822068172243553 
-1.142320703515411 
-0.5670138834467722 
-0.08906081630452363 
-0.123766825288148 
-0.3499384162649987 
-0.2332542588966204 
0.4350276409564374 
-0.3178185617372377 
-0.4105471802690286 
0.003268210230291497 
-0.363792881840084 
0.02204704171490602 
0.0633475025405435 
-0.2915846618210715 
0.07398487632660775 
-0.139521157637947 
-0.2336384978161061 
1.00956679212661 
0.2692376080734733 
-0.1722764242222771 
-1.016851004587199 
0.3574811346101517 
-0.1237801351084938 
-0.155624522851059 
-0.1298148856669791 
-0.03959768846196794 
-0.5634895002689719 
0.3503827434996217 
-0.750898588976785 
-0.2112797452964619 
-0.2954390107595758 
0.2921961404286785 
0.06659558290485258 
0.3598477943834056 
-0.189824433044619 
-0.1712301358763111 
-0.2866816233549505 
-0.84974718431916 
-0.4992288716805815 
-0.8891952145980933 
-0.5979130949586677 
0.7339997861792492 
-0.009886527726235866 
-0.9272872115102894 
0.8164634941567679 
-0.8431529384931782 
0.5327259796859107 
-0.4634868128697646 
-0.4618152550136789 
-0.2269232458705183 
0.1560595497765704 
0.6885768147132189 
-0.1058319372788466 
0.566010131410849 
-0.2977559603947956 
-0.3440942969337187 
-0.3583263729591634 
0.393025973949636 
-0.0146301820476926 
-0.2279904779234045 
0.5119449240115982 
0.1430123139586727 
-0.1368662559080185 
-0.3361976371547069 
-0.02430889887605696 
-0.5583396822844782 
0.0247370586253497 
-0.1941276775992026 
-0.4176775953621885 
1.301774759377406 
0.2277004126919257 
-0.1316736429863757 
-0.6776732504436348 
-0.7413428268278899 
-0.1399612164574113 
-0.2561253083395244 
-0.3818538279490504 
-0.3047477464981577 
0.009216889947310873 
0.1015098545451851 
-0.5436622305908368 
-0.5808012579390495 
0.1682665762113295 
-0.3180181739915318 
0.2685069536212082 
0.00965310473268358 
-0.6132244460238335 
-0.2870026873778825 
-0.5338207804461788 
0.07853820562077568 
-0.1894607709144993 
0.1650700169069087 
-0.05457781384281823 
-0.01563446618651834 
-0.4388346844226967 
0.3431146009971925 
-0.05701417819704697 
-0.2336143387557559 
-0.3839839946715002 
-0.2176265277017174 
-0.2410166876471222 
0.1008437104851109 
-0.5928073015848496 
-0.3282195731952737 
0.4533203727234347 
0.1652152563501899 
-0.05040281030152106 
0.8008678207952608 
0.08006024640171414 
0.7050590241119871 
-0.6707047227656475 
-0.4865737604822339 
-0.2969750555788895 
-0.9324112448863503 
0.1329037602359893 
-0.3280210772938557 
0.2575723548617735 
0.3481988791909605 
-0.7940967110520298 
-0.01617810169652652 
-0.002422988231536666 
0.4039302360223107 
0.3366311769003401 
-0.1951050514454856 
1.028495218601157 
-0.1877676800638212 
0.05022126581958374 
0.1403486436616561 
-0.04952751251981941 
2.284619437881355 
0.1394447146679403 
0.06133184583059782 
0.1819132226964986 
-0.126544163796015 
-0.121064547671894 
