solver_type L2R_L2LOSS_SVC
nr_class 2
label 1 -1
nr_feature 512
bias -1
w
-0.2324138130502055 
-1.235207626069047 
-0.9267981073195398 
0.4525375882588812 
-1.324507356635322 
0.1168822996371121 
0.4620112018602775 
-0.9822100336494998 
-0.2353491085086791 
-0.2518900019822655 
0.8634459831144031 
0.7072799460987367 
-0.5810900857048104 
-0.3391392683814988 
0.6659852430026429 
-0.1232136664108598 
-0.4235642733391524 
-0.3381401160828553 
-0.04140750940528818 
0.2032694652091653 
-0.3217157266410275 
-0.09855556368510419 
-0.3998623979565125 
0.1549651880479269 
-0.354310375657243 
0.5990794333347762 
0.3830162578620602 
0.7569513265508636 
0.1840580259300356 
0.01076798973611073 
0.1205198942691434 
0.1500300975897712 
-0.2381856408529578 
-0.5549362941678371 
0.05471537568022058 
0.4051467740495699 
-0.3031684968502739 
-0.1228785926053654 
0.0568598515210804 
-0.08762003064625749 
0.5282185163593165 
-0.4665451905653956 
-0.4778227069702958 
0.884180468494538 
0.8508012052171786 
-0.4116605852168459 
-0.0816627287007511 
0.1720638816980097 
0.3343045019593147 
-0.6087051896399133 
0.4692288817325798 
0.002187786251862462 
-1.147883034788253 
0.1189397395194953 
-0.3031614225962356 
-0.395073686173986 
-1.321888839798124 
-0.3915501467370985 
0.3404596482948105 
0.4631430203796693 
-0.3521625364816011 
-0.1289419258002755 
0.5751517520584875 
0.4376937492292799 
-1.400858436340889 
0.377029666054655 
0.2576792919119396 
-0.9729843154293107 
-0.6245616770641113 
0.06910873971253277 
0.0477220205158856 
-0.05893603036802274 
1.634508358133776 
-0.2730520469758069 
-1.011964706044441 
-0.07721541051387865 
0.3530902907130143 
0.6310783606644707 
0.4231108816628918 
0.1014475221636245 
0.1312325324125508 
0.2017794567956007 
1.613218691482475 
-0.3176438041993224 
-0.500838297107255 
0.1417435919317817 
-0.6606973654802457 
-0.2100822644561699 
-0.2078505035415645 
0.06230275665965531 
-0.885438643236127 
1.275205527434186 
-0.6118630769541235 
-0.53700988932561 
-0.6996136243586012 
-0.2712811682348978 
-0.1608660452077568 
0.4154611386898002 
0.5142106019272623 
-0.006675835673149716 
0.170088026601014 
-0.0613787864155783 
0.5259952714522212 
0.4011960778569717 
0.0873528103689942 
-0.04764719543733993 
0.1686166222063359 
0.1361128716440907 
-0.01765191227178157 
-0.1778637434470451 
0.7023460865299355 
0.4142275133808716 
-0.4761375324202909 
0.3588542988167663 
-0.5472790108016299 
-0.5958083415246788 
0.1492918061405963 
0.3459935012277485 
-0.5147298425723027 
0.6308462258247139 
0.2196554006187055 
0.5127201368109362 
0.2062551886815404 
0.0443324844596128 
-0.3234286373655324 
0.2962787951173038 
-0.7687313398029794 
-0.2265100362279052 
0.2175827590945414 
-0.04020899258717015 
-0.5974735846404592 
-0.1001407298074291 
0.06731589388162111 
0.3024064833468925 
0.1211034150911776 
-0.006395794542600187 
0.03871379131784874 
0.1900959209477702 
-0.655581978803493 
0.4999329145870127 
-0.49911691943675 
0.1186948587045154 
0.4274380315917756 
0.0190486365857805 
-0.1874137775546345 
0.6603997147973494 
-0.1252941742730527 
0.8554968999616708 
0.02684894114280392 
-0.0388037212245028 
-0.9152431465549854 
0.5810790996226147 
-0.5857950115413619 
0.7481348621846495 
-0.1057464400453321 
0.2925287380199854 
0.07347757414725443 
-0.03439320710952456 
-0.436310039218992 
0.1758829867217607 
-0.04219742711140421 
0.7471040215995429 
-0.2626726646015345 
0.3087832215373545 
-0.1849491111088704 
-0.4317733091317879 
0.5232801774858997 
0.3887919839463762 
0.1811611088898407 
0.3804589598064533 
-0.02531090866301417 
0.3666974031381092 
-0.04996902937753698 
0.05754759735770341 
0.4296693757148887 
0.06590736251246393 
0.00597966858953335 
0.342251551537206 
0.03843901217880664 
0.1040458361661373 
-0.1007815864543721 
0.694247731721655 
0.7999431550053995 
-0.2448703384079389 
-0.2531118759987497 
-1.001873495420253 
0.0003116871071029032 
-0.5141029761330215 
0.177152568086082 
0.5572433118431014 
-0.6879806292748543 
-0.126895584751904 
-0.0371097741411365 
-0.4136732243164136 
-0.5501741773341521 
0.1325757511917876 
-1.159928599172086 
0.2278600514872132 
-0.01311564939058467 
0.0692894548973893 
-0.1878970767906383 
0.2489077395966449 
-0.5357177383657254 
0.3912279392285815 
0.5647004025531189 
0.1034264076009746 
-0.2066942747544327 
-0.1832904684637547 
-0.3451950439280771 
0.001240017966458121 
0.5397301795706901 
-0.2431943061003585 
0.4198642582978507 
-0.4170486705445124 
0.4411242178195191 
-0.3917976208845858 
0.5049056427163786 
-0.5628836829475278 
-0.8774845508571792 
0.48694749251265 
-0.1877867366707167 
0.28143975513507 
-0.2817486275290528 
0.9918862881688306 
0.2007773766494388 
-0.421303106326292 
-0.4587950031109099 
-0.542497890990689 
0.2701515837174971 
1.255035857507078 
0.7978117929396239 
-0.00433324714191612 
-0.3223731651995812 
-0.08482368528116907 
0.6662794687096404 
0.2877841290177034 
-0.2462446412861752 
0.01872362729049502 
0.6278577562222815 
-0.7851976907431775 
-0.08202550269864284 
0.1561987420829135 
0.1802192104846058 
-0.04311951034103918 
-0.1701035404754209 
-0.2697137161404421 
-0.2751291924770758 
0.7951054145157683 
0.6001315156062648 
-0.05640806541532634 
0.5239850043015923 
-0.05728289309456013 
-0.2543360062092585 
0.3420386856429948 
0.178400654195102 
-0.8675119801521782 
-0.1672302707231998 
-0.6193496073581369 
-0.4751316145101432 
-0.4068489903209378 
-0.3357616384545091 
0.5871280934670684 
-0.1371335245719087 
0.3735833423572227 
0.5172076797981268 
0.6689359612369127 
0.7106348697560139 
0.2340760617402534 
0.1052957025624821 
0.2334494646354082 
0.1350361258624911 
0.07389441321512465 
0.3248059633585025 
0.2623703550321564 
0.1864538246452177 
0.3627077638179903 
-0.7371873666358377 
0.09049560430766486 
0.6898422383871734 
-0.2683909358482595 
-0.6587056420116795 
-0.2112447040996344 
-0.2001554734107246 
-0.07055597971223675 
-0.848472463580812 
-0.159591281218609 
-0.3732991618156262 
0.4656670671883691 
-0.1119909967633973 
-0.3726479853677865 
0.2260646723165566 
-0.1309363173968678 
0.243509377826208 
-0.02433561415010393 
0.05592229916429707 
-0.7283410025140461 
-0.4704382155878011 
-0.4397448926445257 
0.5049641284641889 
-0.1946510119196816 
0.1151535345237748 
-0.04794844686551109 
0.351220205919451 
0.5842909906394604 
0.2737086024467129 
-0.2562903387224896 
-0.279070218545047 
0.3755390024714227 
-0.008445856678097718 
-0.2339337556505282 
-0.2061941433522026 
-0.6019725000033155 
0.3701861130950398 
-0.3391629251960745 
-0.6285241334315725 
-0.7703994172052628 
0.05051339121357482 
-0.8823193784027545 
0.2799351461004834 
-0.5391980784064394 
-0.2991702570589476 
0.1790976769597619 
-0.3944172058162466 
-0.426419419154529 
-0.3950458519351173 
0.3499965389426801 
-0.16815192605862 
-0.3645533669490321 
-0.4194039275945851 
0.2955657379966892 
0.1547143065440913 
0.5897926668789354 
0.1355942277742296 
-0.2942672101662917 
-0.6344466972859392 
-0.3515543167922791 
0.00467641458735599 
0.9363304661815109 
-0.4155141124522029 
0.5888780408473749 
-0.4539603715045134 
-1.422026883744731 
-0.6517445972639307 
0.3091473782884477 
0.6912740061924352 
0.06274252043436357 
0.02801059628620075 
-1.371433557781143 
0.2278556225010756 
0.2370839702437072 
0.2703608254241844 
0.5674197797280116 
-0.344729144108173 
-0.3883554910214447 
-0.8845307416243759 
-0.4449752419949768 
-0.585620159632647 
-0.1076818529734951 
-0.1138676101502459 
0.1903126547043545 
-0.9609731616337331 
0.04623131873686418 
0.1859562934929088 
-0.2204865005397902 
-0.843411525495072 
0.1585120881408722 
-0.6314118052497549 
1.131047349288273 
0.06387759643639722 
0.8672187165284105 
0.9784682367780356 
-0.8104299259034305 
0.3272736996429471 
-0.2621268758471211 
-0.8564863058953954 
-0.3801080660184599 
0.1474292576135397 
-0.5167332240635085 
-0.5690304373415537 
0.05539150183846385 
0.1482103461016604 
-0.1423154951558794 
0.0595231861380752 
0.07068378449089452 
0.6772264864938247 
-0.2103858994951069 
-0.06951406832744593 
-0.2143381341562034 
-0.01013288063851735 
-0.03518606310646503 
0.7272681117787032 
-0.07240809376124058 
-0.2559745555197499 
1.98324991016879 
0.5760319203914871 
0.2283257739471733 
1.395610470423787 
-0.1094834462105517 
-0.2348771089378884 
0.1289519087092998 
-0.005558127054010048 
0.6101485210791099 
0.8038562392392924 
0.4641416900530141 
-0.1147713240750632 
-0.6436467593683407 
0.7740101034884371 
-0.1206380792048498 
0.06777941638255292 
-0.1303155536315905 
0.8761378127823484 
0.5258230203166889 
-0.1817026456928225 
-0.290300129639557 
-0.7305351650799689 
-0.2831856028411479 
-0.7569663883587925 
0.8839337442179498 
-0.01419943655666034 
-0.04801527433316163 
-0.2574231325623331 
-1.334095881319754 
-0.5274730717868131 
-0.2555959223789582 
-0.7319380313564763 
-0.1340637620206394 
-0.7165559621131899 
-0.2388657189808586 
-0.3133993308978021 
0.1162638621942854 
0.5624176742934144 
0.311009039116009 
0.3655581195418756 
0.5338594903925984 
-1.247722758960691 
-0.2107616675554613 
-0.6369955848694331 
-0.03894200784806955 
0.08206204570597513 
-0.1894028240777112 
-0.2975630190101647 
-0.3107345223890097 
-0.1275913381306521 
-0.2803747571948041 
0.1039206134404857 
0.2814933964193782 
-0.2640949844545039 
-0.8469494442524211 
0.6817110065677254 
0.08470636464141602 
-1.0208471721695 
-0.6409879063611841 
0.1528522886150265 
0.0667458201019079 
-0.1325835532201715 
1.110802705181652 
-0.7536858740282102 
-0.0489976545125274 
0.3343038356367813 
-0.5347088721869229 
0.08366040060977005 
0.2732880037129383 
-0.4784679336235411 
-0.02058346872612912 
-1.219341643182563 
0.720941300653734 
-1.025930307877906 
0.4539192167301557 
0.8637975919016737 
0.5258364585390063 
-0.3965813926393973 
-0.2685089827659977 
0.4165475265985219 
-0.424643469573051 
0.3473018268501942 
-0.03650520438495718 
0.1203647276614321 
0.07093207124921785 
-0.5713472655915872 
0.04767420720181422 
-0.03082041380554758 
-0.4346766862898295 
0.1588573056194684 
-0.3512662693147283 
-0.6276778288763145 
-0.2819363867215838 
0.651728653392244 
-0.4315378537005142 
-0.1174721846542587 
-0.0293894564845828 
0.5076408083545654 
-0.1365635463223384 
0.105595949153569 
-1.867654765283024 
0.08056268931468914 
0.2386648176418226 
-0.4126701899002495 
0.08661952009252806 
-0.3848859330173202 
0.4276609688563306 
0.1600992386003035 
-0.1488860248284175 
0.1719387869249288 
-0.05054549766764366 
-0.2115108304527183 
-0.1317422345403492 
0.2853245998144538 
0.1055898995415405 
1.00436542159359 
-0.6326857555872843 
-0.8824883500595695 
0.6052227581318069 
