solver_type L2R_L2LOSS_SVC
nr_class 2
label 1 -1
nr_feature 512
bias -1
w
0.0357449179837776 
-1.229081005935331 
-0.3118620449121611 
0.5080416033942127 
-0.635464795051103 
-0.534858209084163 
-0.01950602568252176 
-0.8711704712709334 
0.0396782589775124 
0.9083772522574052 
-0.2483188149732956 
-0.38399100745334 
0.1605918806055813 
0.1329871504038562 
-0.1671104098573071 
0.2082084634319792 
0.1428784239593474 
0.3536456533495295 
-0.2077645775529023 
0.1101739375539371 
-0.004021867450956393 
0.3406257081502774 
-0.5497913963255805 
-1.218324244602638 
0.3882212651868479 
0.0007901172804762279 
-0.05177291819747475 
-0.5258415081617063 
-0.315176787086656 
-0.1596677731323645 
-0.0273503338787819 
-0.2892635821140359 
0.2590332229021495 
0.5801848113992262 
0.3196224627067355 
0.5178372132161608 
-0.4776744501981276 
0.5988010765104895 
-0.02539247065475761 
0.1253929303822533 
-0.1394328032122601 
0.2625315395651266 
0.2502187629112307 
-0.1256819089866311 
0.005045984451694817 
-0.1078238729601187 
-0.1519359206369412 
0.0627492811361676 
-0.07518703478124827 
-0.473471455442856 
0.5310962297666418 
-0.09976692281420688 
-0.5980328421942105 
-0.02862087600431512 
-0.09583626234388558 
0.1517734858492759 
-0.5799473272288715 
-0.3170939958314272 
-0.2747287792617489 
0.6188287094964765 
-0.9126525336493664 
0.1913177787229215 
0.1384478909120275 
-0.2499609243587685 
-0.1885586290292429 
-0.2628049132636128 
-0.005665933503045406 
1.304031976724387 
-0.8337027277340461 
-0.5618196213684503 
0.3331903875107632 
0.2408037551029489 
-0.2035572522991649 
0.5019701235262932 
-0.2547301784106198 
0.410060152957172 
-0.2336758711612132 
-0.3286808608361078 
-0.3045618929424502 
0.5855822150220693 
-0.7604565829458936 
-0.01260272749165779 
-0.2614814981782203 
-0.03749571542479376 
-0.2859312658211327 
-0.1843115825088374 
0.6517186956689655 
-0.2509243100070273 
0.3515321058352497 
0.02097502464073613 
-0.802954518462983 
-0.1409305848656225 
-0.1225684041134215 
-0.1864111364783062 
0.07160673844048242 
-0.1288174192617043 
-0.2496869580605557 
-0.320176736963816 
-0.1060560595725964 
0.09179862565740587 
0.1057627060275042 
-0.2639549091370594 
-0.3762812433244259 
0.271950962113614 
-0.1056629269277077 
0.08479072359866723 
-0.6752445435450635 
-0.2619440953500597 
-0.2484491743117713 
0.01100037320358671 
-1.279510708195324 
-0.07445916323893495 
-0.5936191105086904 
-0.1473664554002428 
1.45958179852048 
0.158435193899012 
0.5879770650090262 
0.5532849822574776 
0.6294322217159418 
0.004696773612436022 
-0.0219937893283027 
-0.2010421376529914 
-0.3763222847246811 
-0.2524310571497777 
0.2641148523088191 
-0.1793426843243986 
-1.043072624699807 
1.191788005480829 
0.01212686436625442 
-0.317823661398156 
0.2734655182065852 
0.0003617325150936514 
-0.3886323134089765 
-0.3014653061096291 
-0.245118309167451 
-0.3961749256598131 
-0.1556345887504126 
-0.1907254684789637 
-0.1923152543360713 
-0.269809513558123 
-0.2722907231395017 
0.1484706217020882 
-0.1860259552938875 
-0.02167677017973532 
0.183605049472868 
-0.58252945466616 
0.6484313186123707 
0.3504769265244158 
0.1969449412225814 
-0.2214891827269459 
-0.2317538497228464 
-0.1312790062358756 
-0.3003061660640982 
-0.2740833617198051 
-0.01971683337689072 
-0.05472724406632026 
-0.09663633668198826 
-0.5815140068950208 
0.7572056854716394 
0.1127618091891895 
-0.286390175985466 
0.1645588670515965 
1.354201395440749 
-0.2138095068958135 
-0.2921303918603405 
-0.6744111638820142 
0.1609747954447 
0.2959554738451536 
-0.1344803177980795 
0.161647996806585 
-0.4592838195472974 
-0.2208939172221056 
-0.3756894679243347 
0.6868800958445405 
0.1321770859968247 
-0.4009106093610202 
-1.126595266973853 
0.6545514342963885 
-0.1686557440990161 
0.1194882647311184 
-0.07603884778208868 
-0.3599195751950519 
0.2494126057470681 
-0.5871848173692713 
-0.1594495712643913 
-0.7088193448023468 
-0.01083413945195121 
-0.48989173884855 
-0.2780897858866603 
-0.03386163264551782 
0.6226593485881976 
-0.34940423965439 
0.09996317413941543 
-0.4045969389083709 
-0.4635491760076996 
0.2103367624094705 
-1.755907102891188 
-0.2441903102851583 
0.3431729240272637 
0.05424144585208811 
0.03071199075751666 
0.7546977940578965 
0.03743832913803983 
-0.04163850335475387 
-0.492833945785331 
-0.6159183878463823 
0.129501281016561 
-0.3402095895372445 
0.3406626109639719 
-0.1719380513655834 
0.01373144819758867 
-0.3410466849014843 
-0.4688797176929945 
-0.2170127758485276 
0.3125535783785756 
-0.5062899004593568 
-0.4372712676227763 
1.31481649381433 
-0.5921038330968137 
-0.2288093588295892 
0.05794316534409748 
-0.05294128946438988 
0.3949856061681513 
-0.2292244075206721 
-0.01155995130491766 
-0.1095869831476249 
0.1864167000335824 
-0.9480749317903043 
-0.1572257652727985 
-0.3089839943292933 
-0.01901509585418015 
-0.1135829186534643 
-0.04160902413543216 
0.4600808547533576 
0.5791692889597675 
-0.04672183747569991 
0.5065875400462507 
-0.3035944924223702 
-0.3759967361010818 
-0.08686748916759009 
1.692220250802504 
-0.102043929027407 
-0.2355924142980991 
0.09967907706790553 
0.2874882285884198 
0.7330489162666698 
-0.4529834722573124 
-0.09837666112478935 
0.9076242005676264 
-0.08313316545791641 
0.4027882858046738 
-0.001111271704071806 
-0.3698736657560089 
-0.3169241218597855 
-0.5136452629880914 
-0.2529228813547081 
0.04273273361539889 
0.1632305398281062 
-0.05023491623359509 
0.9749929598828407 
0.4192383847809527 
0.0111314451882411 
-0.6143124220911877 
-0.222403497830542 
-0.2072998791221279 
-0.03962339465836081 
-0.3709176399893559 
-0.07212299493142178 
-0.12460233805022 
-0.3946542050425 
-0.2433824800487839 
-0.2449273621981422 
-0.1770605100328664 
-0.3170342884384349 
0.2147226510472119 
0.2467557555783245 
-0.5567249958541102 
-0.5153834756779173 
-0.2162134616804747 
-0.2060873915340371 
0.8029020183828349 
-0.1648900015179987 
0.03171961104250363 
0.00760734007121576 
0.2023811214634881 
-0.4149059317848635 
0.5179792346644121 
0.08473400285740265 
-0.1494501097697343 
-0.3597941410528904 
0.7126411701511848 
0.07228668495808868 
0.1688700848975323 
0.01046674186582738 
-0.2913244645989357 
0.02600873043401662 
-0.6091345612214574 
-0.5074333574289793 
-0.4504010713696455 
0.4321097133411318 
-1.042104479535887 
0.4363424110426147 
-0.009638970887760492 
-0.3068177290961502 
-0.1775528369604653 
-0.3941183778921019 
-0.3077905415500802 
0.003012929490355647 
-0.2803899421249026 
-0.6280059373392656 
-0.05186773814400816 
0.1234462936052604 
0.2764242590920986 
-0.1588316036290128 
-0.3015651039393138 
0.2439700410037136 
-0.3011558447696688 
-0.4740587257880221 
-0.4099275900440719 
0.2184837938415688 
-0.1525678484836263 
-0.2342773386146597 
-0.06199534133053224 
-0.01944417680088398 
-0.2622243751523368 
-0.05532479351455799 
-0.1453460117268063 
-0.2354331770861696 
-1.506397708299928 
0.07903781023102645 
0.02345724094531805 
0.2409754208811013 
-0.06695816801312528 
0.1052946825447217 
-0.7903520529590768 
-0.3794545886018954 
0.256660196463727 
-0.6722011689381358 
0.1493019113504376 
0.7806611903326631 
-0.7596979777797336 
-0.7478861828036282 
0.2013153680280685 
-0.1753778356546276 
0.07803374944635556 
-0.1636174343520848 
-0.9649673024127874 
-0.8730208448973484 
-0.1817794536988903 
-0.2692974845815624 
-0.488056669641779 
-0.1132887549461449 
-0.849696757051295 
0.02800716446818708 
0.05962719781177778 
0.05760323670626192 
0.02398230556305259 
-0.01242037267856577 
-0.32903469919323 
0.02755293284730257 
-0.4616364142091643 
0.006055350576575671 
-0.2214831503746781 
0.7681927200741404 
0.3119547096352045 
0.102546477645021 
0.1269462911436102 
-0.8286670919247617 
-0.09941891881064724 
-0.1064670172260231 
-0.09177261440464814 
-0.3098506098386868 
-0.3276371504982318 
-0.264768897146625 
0.1442666122118513 
-0.2483817478361756 
0.108514275210573 
-0.2934478489148595 
0.4437115851925016 
-0.3088177009169157 
-0.1198656260903831 
0.06208774038467213 
-0.2826541575535692 
-0.1171927702619137 
-0.3625227794587348 
-0.2014366451892936 
-0.3052321694937904 
-0.1359566746932323 
0.2294367135137511 
0.5597885118216985 
-0.3222457475378235 
-0.3931491123755852 
0.04447758543713302 
-0.008903939907654396 
-0.0008384043768678443 
0.1969116698205713 
0.3772943608186421 
-0.3152531041927394 
0.1671199359503926 
-0.04931924125945 
-0.7432160653198372 
-0.1895806778231603 
-0.4367049355611564 
-0.454318885700168 
-0.28833384428131 
-0.4111556820543055 
-0.2597416612345215 
0.3109134973076328 
-0.5439932072834215 
0.1836112594571348 
0.4512689079406534 
0.3503590768052398 
0.2479076966195224 
-0.320131031701313 
-0.7585425247882642 
-0.3584055197197967 
0.07773669935679663 
0.0820343097686566 
0.01655938427605413 
-0.09245000802745032 
-0.4142516601334298 
0.1231705508181952 
0.2503141924331216 
0.3873565988974392 
0.6785534256322924 
-0.4987631205460439 
0.2629212094556742 
0.7676396757262101 
0.03914899515998711 
0.07785594990853414 
-0.2422191974679885 
0.4372202818563704 
0.2162029645344571 
0.2119699988396982 
-0.5501411634930494 
0.7823310162401895 
0.2192827538116413 
0.05460320381558887 
0.0532933275955872 
-0.1167650919170098 
-0.07781640766807053 
0.7555751278480042 
0.3964061922849964 
-0.1261866848879745 
-0.3627512885316549 
-0.4146996565483553 
-0.04053879985193293 
-0.09789501349940807 
-0.1553415735504621 
-0.07481347004279347 
-0.5277271057576869 
-0.4214335758308405 
0.1588278231524946 
0.7080471521014211 
0.1767127766770448 
-0.2539346099899341 
-0.1948806093085224 
-0.1729757066261229 
-0.3376538539887234 
-0.1731230659350879 
-0.7843688198596229 
0.0876280302952295 
-0.2813537248873432 
-0.942601165345856 
-0.8841447410843922 
-0.5927850488927046 
0.01425668886614345 
0.1365764925061005 
0.1226371888755884 
-0.2971014049976234 
0.01398331351731584 
-0.03192369862193143 
0.4248701959147705 
-0.1878864020854021 
-0.186795775574738 
-0.1199972664486867 
-0.2653657506432092 
0.07724425330246779 
0.1616268188264467 
-0.2906272853916241 
0.09740904166770113 
0.1204643819913059 
-1.15067651923489 
0.1426930316927266 
-0.05197160271890403 
-0.1142343613778609 
-0.2380370400488245 
-0.3262985580975947 
-0.610182353907322 
0.05751392916296847 
-0.1424842313802983 
0.4058674260964754 
0.1196534011394236 
-0.746619025537716 
0.1061642164069637 
-0.4031740370029335 
-0.1867243519594398 
-0.1493600878766422 
-0.116250935122078 
-0.2776269374570413 
0.08347076214000546 
0.04188873561998001 
-0.06380053081887364 
0.1655783852303047 
-0.1592096183061108 
0.2368325005868265 
0.2613062174522439 
-0.4599867437843712 
-0.7739216037001955 
-0.3001515015989237 
-0.06619194146087723 
-0.03129804141878894 
