solver_type L2R_L2LOSS_SVC
nr_class 2
label 1 -1
nr_feature 512
bias -1
w
-0.02274612265471242 
-0.9027707538734543 
-0.6017081797536526 
-0.1666925040643659 
-1.043002628204813 
-0.6165825145880666 
0.04164705461436236 
2.497870560983747 
0.6110454023201543 
-0.2792133351717089 
-0.2153582621089345 
-0.3097162180437587 
-0.2456615885125946 
-0.0999709362119779 
0.2576103248195517 
-0.6961137206040059 
-0.05539119105706336 
-0.2230120195403154 
-0.2418530673936427 
0.2034714891551519 
-0.0989629537416027 
-0.2474618604675155 
-0.07308037471636802 
-0.9720785688400306 
-0.3873655555655926 
-0.2106637813909265 
0.09432040668797662 
-0.4151250286885473 
-0.5865559025246939 
-0.2191066488340893 
0.08560771215926832 
-0.1822376879222853 
-0.7183693355764461 
-0.1741333676743846 
-0.1134122885485143 
-0.6161470338037798 
-0.1945720536944756 
-0.3165245700654697 
-0.4214571244078565 
-0.1664335836546584 
1.147576230641375 
-0.3274062785455042 
0.8653151231583712 
0.07060981066739598 
-0.1408264896473375 
-0.1887955827293961 
-0.1130993574982051 
-0.07881524184630272 
-0.1740568605070152 
0.3233089662227543 
0.04582380018905711 
-0.1076296536634369 
-0.3301908423720246 
0.0002315408692049651 
-0.08826403404159427 
-0.1308943021800228 
-1.085194067360352 
-0.1509585942208284 
1.093934352942117 
0.09957163164878037 
-0.8739703079437373 
-0.3249972619558416 
-0.2149591886660563 
0.2194270041944114 
-0.26239254540009 
-0.5409954822364796 
-0.008721615930407616 
-0.03746333563874548 
-0.3121181879057531 
-0.1656933696017685 
-0.1776164026034597 
0.07261733778849745 
-0.4021322067667715 
-0.08158902674085197 
-0.1634953593570855 
-0.306731413033382 
-0.2021937140323224 
-0.05237797122044154 
-0.3080896775765504 
-0.06244316380384642 
-0.5866051534318414 
-0.1520783966208507 
0.06133642712366984 
-0.3971253875149141 
0.4152899692604075 
-0.1671844229948343 
-0.06082907531017658 
-0.3129469816481595 
-0.1330410435133981 
-0.0001383588796720699 
-0.8256700010063407 
0.0007658198323885736 
-0.2203507610711542 
-0.3261156643629496 
-0.06141193061822522 
-0.242183926520653 
-0.2003933261125115 
-0.4471318304677611 
-0.2948349778657303 
-0.2815645740990066 
-0.1826436905970522 
0.6619514606333727 
0.6592350063370812 
1.322985558363152 
-0.2454282689749372 
-0.05515862777361228 
-0.667401539827032 
-0.06070677140826092 
-0.1969498475587902 
-0.2381776478809853 
-0.778674658338946 
-0.1738129095680115 
-0.4100161518446735 
0.06373571220469613 
0.0641627938331123 
-0.5916956584037706 
-0.2464878808850248 
-0.4833621973313221 
-0.4888289012638424 
-0.2077898718986964 
0.4373411607485225 
-0.2436603167887195 
-0.2822666267942958 
-0.1647505505057685 
0.7906414034196557 
-0.193938843304162 
-0.3924394247939738 
-0.1741811224800131 
-0.1729453430121942 
-0.5617198752959577 
1.180757980327549 
-0.415327608853119 
-0.04394156256312105 
-0.6407108201756213 
-0.3540069961758646 
-0.2886891127592957 
-0.1594349011422944 
-0.1283688142918505 
-0.3062842730747188 
-0.3192209382335177 
-0.1188372498535714 
-0.4223160288682217 
-0.1401995797692175 
-0.1570900849678066 
-0.1625891602259991 
-0.1942496301951352 
-0.07132884036567058 
1.156533785774027 
-0.09993447383481766 
-0.2542868426995106 
0.2833564977587353 
-0.3268369024166302 
0.1370290546728758 
-0.09419724242373073 
-0.08018345531128052 
-0.1797186188958343 
-0.1733868607358094 
0.05320039998602654 
-0.3797022902470297 
-0.3286186028388159 
-0.1125663211217012 
0.1042716369607501 
0.5504629475099169 
0.03410633245579963 
-0.2857775070558388 
-0.7746747316701713 
-0.1722142080921539 
1.775152068458415 
-0.04513042798278113 
-0.3269754679743929 
-0.1219678056093677 
0.4009134640099042 
-0.2701966931128535 
-0.2143925251527633 
-0.2194136156655051 
-0.3611851176740424 
0.40912503531359 
-0.05781603423486868 
-0.4253845157550877 
-1.26752807250263 
-0.0912444159885105 
-0.4643226928912563 
-0.233525935050684 
-0.6236184735634605 
-0.3470324832515991 
-0.8882515419180503 
0.01343427061992967 
-0.3139893627740153 
0.4449543819317642 
-0.1491455704752429 
0.4349885459915394 
0.08613559207965336 
-0.3025090403845801 
-0.2367850225063973 
0.03763730740039475 
-0.1623124456095773 
-0.6134732460715406 
-0.2257679680039124 
1.13883142785211 
0.9114126674715266 
-0.4848702415058601 
0.06936193017533125 
-0.4149089407774225 
-0.1533359357643655 
-0.2483797462506901 
-0.372603581504616 
-0.1250690075304564 
0.3876406550357561 
-0.283871250273991 
-0.3180651981562574 
-0.2541356820196952 
-0.273017135451848 
-0.1782682410338599 
-0.2807024370124526 
-0.2804533160414407 
0.1726122923684581 
-0.7838028487950289 
-0.09058646038285431 
-0.6533396707749936 
-0.2845898460946374 
-0.01345442723703945 
-0.08442689646193346 
-0.08371565011158671 
-0.1647620394807925 
0.009125923840964589 
-0.3096589147184536 
-0.286639578705896 
1.277816536728166 
-0.277542717043715 
0.5501007841020183 
-0.1929825599556107 
-0.2483359435685211 
-0.103050497216894 
0.1051844039141369 
0.07866631057429704 
-0.1428076436751377 
-0.2404108406514096 
-0.08257954610796088 
-0.1327564258552814 
-0.3810155801177829 
1.397630386069937 
-0.2513360369356271 
-0.2316404616625679 
-0.2097235847950922 
-0.09744495887858882 
-0.237529657144263 
-0.4432524494909458 
-0.2093154181127357 
-0.7816799256016547 
-0.8831372000228512 
0.04953132189793061 
-0.2925570007320214 
-0.2450483789882431 
-0.07500412555974863 
-0.2364985981418481 
-0.7127589229130913 
0.1989001220495226 
0.06857862964088998 
-0.370918494339131 
0.06431124662766811 
0.1526344377424861 
-0.6836144584135174 
-1.023539891868058 
0.4896114996329314 
-0.3847170558129736 
-0.2116504096352514 
-0.286786622159012 
-0.358371067065442 
-0.1158654703150033 
-0.72634665863669 
-0.3071413062763023 
-1.303287461512943 
-0.2079256263812591 
-0.3473384592393134 
-0.4187516383192536 
-0.136724107187242 
-0.4017924886363331 
-0.2097776970348473 
0.1259541369267962 
-0.2540107492095552 
0.1042135907304251 
-0.1827221633952384 
0.03408555670277914 
-0.3103997977990778 
-0.2683864373748124 
-0.3547060335236694 
0.2239072146770759 
-0.06433047995832056 
-0.4805013148709326 
-0.1178233484944538 
-0.03380469974020826 
-0.1394547214870246 
-0.09597371782926574 
-0.1804430110589809 
-0.1910431988554019 
-0.2383040504624106 
-0.594109215101521 
0.02231510641157589 
0.3878187056316496 
-0.243560067754593 
-0.6628840740666343 
0.7247674882237414 
-0.1452136319379202 
-0.2522983252449081 
0.1104416117911921 
-0.2398540633256944 
0.02084188608509642 
-0.0995915783414146 
0.1733915340768433 
-0.4399105813237601 
-0.3148274236294007 
-0.2536643969418373 
0.01562982835293503 
-0.2671264396293179 
-0.333592543613606 
-0.4768225084873824 
0.4310837749831491 
-0.5619328055369975 
-0.4263824440752796 
-0.4074794533290164 
-0.2147245111509316 
-0.1742414569266855 
-0.1979162954724412 
-0.2168874732827393 
-0.2306383225258628 
-0.3625015514857281 
-0.149222551504252 
-0.05144104289649771 
-0.4587797008704635 
-0.1236169612514089 
-0.2676264422227335 
-0.2767918869170028 
-0.3468981308765127 
-0.1320051153552163 
-0.4998240719337023 
-0.4393172482743936 
-0.2497960436210434 
-0.4116453542750623 
0.1434372947812362 
-0.3614000010990105 
-0.3948839755798986 
-0.3947009838382267 
-0.2627805166941542 
-0.2194216793195849 
0.3461464549185344 
-0.4841269147324118 
-0.07771573081924966 
-0.9246960698745034 
-0.2699601403438536 
0.006020052257800331 
-0.7805581389003436 
-0.1951344291934763 
-0.4805491636725822 
-0.2007595152734618 
-0.2242257266140625 
-0.3781555694619372 
2.652298082575227 
-0.08151053253631012 
-0.2085858239122161 
-0.1649073890466978 
-0.06005106526181911 
-0.2964029244286867 
-0.1846532567064383 
0.2834003117909699 
-0.2241179315481552 
-0.1871632082601269 
-0.05529944891859857 
-0.5602858078077279 
-0.5876139824867731 
-0.1058552311236315 
-0.2242292692001365 
-0.17526803571852 
-0.07749552679169244 
-0.4351492171071785 
1.338703378568157 
-0.1997017230716934 
-0.1129449161874145 
-0.8102186197325277 
-0.1378441989066543 
-0.2474128683757219 
-0.1875043273522503 
0.8406292970039529 
-0.4072137364982156 
-0.2865199710077387 
-0.1614305094435493 
-0.07126509048395192 
-0.2242971864435797 
-0.001855011241298162 
-0.08746047060812361 
-0.2729321862522924 
-0.3543033755996722 
0.2004732547248641 
-0.1603823987054163 
-0.1761809455284679 
-0.1192127931604309 
-0.3050771011614005 
-0.2510447352068962 
-0.7164986846630933 
-0.1079587911536542 
-0.1770083331027823 
1.061180064558603 
-0.1637570298054303 
-0.4003681786254111 
-0.163401641191236 
-0.3095452019284824 
-0.6469048365475675 
0.1765584920790483 
-0.07019171939032678 
-0.08035439165867805 
0.2804756996749479 
-0.1426674551241 
-0.4150671708242737 
0.367738535099057 
-0.4112571785617464 
0.3213065230226001 
-0.3781317528189139 
-0.009948855417731738 
-0.5506092634401599 
-0.1695096048618133 
-0.2293602845791172 
0.1366394617525103 
-0.7777591961098949 
-0.413091220220749 
-0.2270113680833682 
-0.2385954896590752 
0.1711808616263814 
-0.1957790861559152 
-0.3147932052339187 
-0.1612241276549859 
-0.04707569210552554 
-0.1405114068526469 
0.2346737940936 
0.03058154632563869 
-0.4533929146943652 
-0.09585511205927877 
0.05758300822560515 
0.1951152488501857 
0.8530256050690088 
-0.1286195492258358 
-0.3288549632892426 
-0.1607160785840503 
-0.2893078544909106 
-0.2156360319437408 
-0.005913839547481956 
-0.2574753468068548 
-0.4899609612362119 
-0.05958235653953135 
-0.408858482312403 
-0.1513279278137853 
-0.1315683979391581 
0.2673483241894289 
-0.637919168740808 
0.297621331692603 
0.702549719454332 
-0.2542731867473599 
-0.2780991096110064 
-0.3021443420582727 
-0.21043678252805 
-0.2048636850593754 
-0.1014237263266277 
-0.5662386394611889 
0.3521914541036146 
-0.4420240756153543 
-1.041903763984872 
0.05013106311033482 
-0.370679640992702 
-0.2993605125221417 
-0.404190955818607 
0.04579885141188191 
-0.2491439250023238 
-0.04030114401819145 
-0.1694526469819841 
-0.1230737231769898 
-0.1639273980318232 
0.08814538443608932 
0.291605843102145 
-0.5393434805896477 
-0.08710859447587757 
-0.3026239327684317 
-0.2442800523857556 
1.732216797092436 
-0.1670139822694181 
-0.8442761544684336 
-0.3093358419564323 
0.01671190377594794 
-0.2924974867942257 
-0.5586097489724693 
-0.398841652044031 
-0.3371348550274794 
-0.01974991498426594 
1.441524506737123 
-0.163266578522186 
-0.1644434113828921 
0.1135713334542731 
-0.1126576043958624 
-0.3233125188147639 
0.01939324010393532 
0.1366201361127275 
-0.3637164620568009 
-0.3262327799565295 
0.4311079399172945 
-0.5973397190981022 
-0.1379821296817927 
-0.113013266233166 
-0.07089829746070439 
-0.116211106832855 
1.042554101445683 
-0.4661375595042174 
0.2109355501282731 
0.009193745591344444 
-0.07632143744455522 
-0.1042300205712746 
