solver_type L2R_L2LOSS_SVC
nr_class 2
label 1 -1
nr_feature 512
bias -1
w
0.06845505766785509 
-1.012228736808684 
-0.2800858530802352 
-0.07976517527936096 
0.8300860941826198 
-0.543228356466534 
0.1417290638711674 
-0.4703502393305299 
0.3617734955315478 
0.09386691681381595 
-1.059362858676142 
-0.3906297352955765 
0.3014437526557111 
-0.1675243883508649 
0.07117417133723705 
-0.4724437670472066 
-0.3792544225746485 
0.7724076971901375 
-0.4859951695437079 
-0.02856079871012042 
0.8518314285196774 
-0.1688024250323942 
-0.04501427449831943 
-0.2711437806675899 
-0.4887969167884365 
-0.1183411568277644 
-0.06641502685305387 
-0.1397253230825749 
-0.8013749607663392 
-0.09619828254620456 
1.449171497601112 
-0.1082531372035089 
-0.7148682387504701 
-0.2626393686075916 
-0.1386675988323512 
-0.3040365490318901 
-0.1515771457646122 
-0.4708945748863427 
-0.03189284184288438 
-0.03404206385941434 
-0.2547189316529448 
-0.258199970174308 
0.5893507916914476 
-0.1124165120678998 
0.09863404662824346 
-0.3178542072828378 
-0.1766423708430185 
-0.3602177063042907 
-0.1746092095970568 
-0.08880948890976373 
0.04892687776388786 
-0.1719116280745112 
-0.5174713022297724 
-0.2444925366679625 
-0.05610860837585051 
-0.2353433943829858 
0.7693717824973771 
-0.3217692157589467 
-0.1116817474778787 
-0.3361928246780796 
-0.9172198597777135 
-0.06457465315194819 
0.1304546283879907 
-0.355772069290852 
-0.0204246265784255 
-0.4098882432354833 
-0.6032831182389832 
0.7582442038215371 
-1.102090278631892 
-0.6691144096293733 
-0.3434416368844507 
0.5159195126590123 
0.5765505215248427 
-0.1627556472722697 
0.254394129255578 
-0.1008646440398651 
-0.2513049026680234 
-0.1079935176875515 
-0.143184799225303 
-0.3176227534922376 
0.5310557593502792 
-0.2626790386441532 
-0.3639175899030717 
-0.4021560213751201 
-0.4138945708706021 
-0.04282161727631609 
-0.344154353046476 
-0.6125151540895246 
-0.04914563995061652 
-0.1432181122466848 
-0.402008799042477 
0.391269405176673 
-0.13993327360069 
-0.1175090941158458 
-0.3228591044208668 
-0.2755718908667655 
-0.09084445339006884 
-0.4948368854825587 
-0.1190664204219813 
0.06910823368528132 
-0.1785453123790388 
-0.3438537098383694 
-0.2813998721753657 
-0.2486666867517645 
0.3458025929674473 
0.2565145619100567 
0.3763506947271976 
-0.3534062433693199 
-0.1231277585168993 
-0.1593644724337072 
-0.8557145854050635 
-0.0638815623813217 
-0.3319705416370867 
-0.3077805816976291 
0.2065995766253355 
-0.3375420021047036 
-0.3996692373960112 
0.0417127768431733 
-0.4952858323401148 
-0.3058285831129275 
-0.4288321009837502 
-0.1487043265513218 
-0.1337981568755994 
0.1415766177180819 
-0.1788655701548348 
-0.2658423639332085 
-1.087688473086903 
-0.2525577959201442 
0.5960321073438044 
-0.06312332783173602 
0.03184285598777339 
-0.1724787632453131 
0.2458183918812241 
-0.515403738765208 
0.6334858183581047 
-0.4963196397459956 
0.3141877352375994 
0.2547740751766036 
-0.5436790828814049 
-0.2069172536965234 
0.3270584304413426 
-0.2528650837187853 
-0.2009498968675496 
-0.1344661632769183 
-0.02315157168072826 
-0.1115315877634332 
-0.2983386813478004 
-0.230397101339339 
0.2089826916194686 
-0.01668974008339017 
-0.1737594983194726 
-0.5339696485811931 
-0.06452115460329455 
0.4915129759155631 
-0.3254348684284536 
-0.2164823919794465 
-0.3550650231302139 
0.5214882912228456 
0.06182028010602559 
0.1232433055286033 
0.02394710665434368 
-0.3166813470307501 
0.001447575710300485 
-0.1638276937663707 
-0.1440527062728542 
0.1249020402217946 
-0.5032190340293626 
0.5089157007558787 
-0.01717792166533305 
-0.1998389452069173 
-0.2926981460519198 
-0.4121819912206701 
-0.2587004323931962 
0.3822877808401997 
-0.2158896986269629 
-0.4095378045697516 
-1.174370687000404 
-0.2060772570322061 
-0.3104831404370501 
-0.6664501529106768 
-0.1005771000852135 
-0.1536357050370691 
-0.2108615648002077 
0.005424387382811495 
-0.1981318564398886 
0.4894319333886676 
0.5215998784245259 
0.3407941060302053 
-0.3156872087294384 
-0.1459010797777029 
-0.08502688816115411 
-0.2100352894948399 
-0.4078881525782401 
-0.2693056427896611 
0.1741310752940022 
-0.1125988718696568 
-0.5555673375996731 
-0.2179641264105914 
-0.7314242258214836 
0.8568318976441461 
-0.06811857458140461 
-0.2081967235813767 
-0.4198856303262213 
0.747969094976121 
-0.3391806869680879 
-0.2608909935618468 
-0.5237646153954192 
-0.4177038520891481 
-0.1811408611320367 
-0.3167381152449064 
-0.1364036232520018 
-0.01070401331059281 
-0.3214587806516024 
-0.1369440560178768 
-0.2338520804553847 
-0.4751658087598062 
-0.3062907744135677 
-0.07919513565758293 
-0.620154553101653 
0.1986005736534627 
-0.1705600483753918 
-0.08514808727620062 
-0.270555658676707 
0.02510286679108684 
1.313971849932472 
-0.2662946789480919 
-0.1830159058042311 
-0.1707674524968094 
-0.2171746206838062 
-0.2649553597270395 
-0.6936725597605207 
-0.137862940822946 
-0.2656804612115514 
0.2947554834087759 
-0.1986323351324079 
0.1420746453508279 
0.6078283330391648 
-0.1796955087593445 
-0.07854711416561709 
-0.3945954629868848 
-0.9235940849422056 
-0.1886892088017094 
-0.3923416699605231 
0.03278331786874206 
-0.1683540614503796 
-0.112644301470941 
-0.3944163849677943 
-0.2424025143526249 
0.4537980696754603 
-0.08638024355345081 
0.655467135634183 
-0.1213030436803721 
0.9562354655490187 
2.780353945370855 
-0.5920993238443176 
0.4354031040650207 
0.07971431672978711 
-0.03476411114548895 
-0.07785824865183144 
0.1554070103918269 
0.4237524668272956 
-0.6697591723019527 
1.567247132372343 
-0.5323444997654229 
-0.3794131318458263 
-0.1331061147909944 
-0.3162420753479157 
-0.09529323239530366 
-0.1056813520200245 
-0.7590093420772441 
0.05833606022727643 
-0.8228029363370255 
-0.206037153423134 
0.7776000892027088 
0.1293752777914597 
-0.2434717818832401 
-0.07235701272676759 
-0.127252854710847 
-0.1640924934800602 
-0.3075967278486219 
-0.3198202438161784 
-0.07737414082906853 
-0.1679357636632625 
-0.4097857101719814 
-0.4219818264248106 
-0.4121447349831825 
-0.2413582873656913 
-0.1018387332207299 
-0.03182502897311806 
-0.1489046830500203 
-0.04885213792002818 
-0.1718274549939019 
-0.1634594027173769 
1.226096496128375 
0.5272297394904041 
-0.5085374936898595 
-0.4941185646886269 
-0.8326698862293703 
-0.2581152528451526 
0.0835967917983262 
-0.8898547017569403 
-0.2696310422948648 
-0.02855914509020817 
-0.2640497087619225 
-0.4300357819150915 
-0.2621644542267744 
0.3442563869718915 
-0.4950757626080786 
-0.2825838285320328 
-0.03481592624689471 
-0.4302605394261256 
0.6798398814569343 
0.10767248948134 
-0.1950598854803192 
-0.6074628052979201 
0.444770799677065 
-0.2721899164222247 
0.09189424537142477 
-0.09406461346814658 
-0.6252533563149784 
0.08965612895834542 
-0.1057404021398993 
0.1802001235180671 
0.2868971983709268 
-0.1920580648942033 
-0.1284453668777077 
-0.1607840028970248 
-0.2802273136468604 
0.1412664170799972 
-0.009292866823694868 
-0.2140082857483846 
-0.5294853049134172 
-0.3015462109529073 
-0.1259496697559828 
0.1881954030492463 
-0.2369133083787569 
0.836748508965735 
-0.4462024100296287 
-0.0551878905956377 
-0.3523403984905747 
-0.6559760347928204 
-1.040174463457147 
-0.2672356465277337 
-0.1544720357026198 
-0.2303736769930924 
-0.3551262737224433 
-0.5314438533392983 
-0.2382949217748012 
-0.9649704601073908 
-0.220040463794309 
-0.7144883165562085 
-0.01288924088653839 
-0.7497827815287269 
-0.3984290026138423 
-1.33731249031838 
0.6533154302187051 
-0.3866566614051373 
0.01698202320868035 
0.007354476556826383 
-0.4598461428188245 
-0.323879726474688 
-0.355198705436848 
-0.1653803157566396 
-0.1477904317335672 
0.6160261268602431 
-0.2051930444601867 
-0.08361372848440365 
0.4719706371934252 
0.3499454509912767 
0.004949619961447563 
-0.1743727581241589 
-0.1730001960107859 
0.3271140750531654 
-0.3252803395341841 
0.8743382780644995 
-0.3020477761319357 
-0.2564605090699352 
-0.8189812707638294 
0.5398227971100771 
-0.345087349738308 
-0.1817473678508612 
-0.2086959917271638 
-0.3800316657193573 
-0.3232009872281609 
-0.1993876950634316 
-0.155120811287237 
-0.2649593876481426 
-0.3636280129100022 
-0.3394318986643836 
-0.2352626693674278 
-0.3330464679038754 
-0.2937185258780863 
-0.1930603508562196 
-0.3439366114382914 
-0.2833493449289824 
-0.4455987256287307 
-0.2558037298078116 
-1.128484081462175 
-0.1869232168090993 
-0.211890203135957 
-0.4210043735032544 
-0.3078461754651784 
-0.524447331724778 
-0.411242572908279 
0.1268850287609645 
-0.3504843751925895 
-0.3079675805553763 
-0.02477576641740984 
-0.1249418125008878 
0.01147621164867087 
0.0630222469683737 
-0.04110740401331194 
0.1313190462819426 
-0.4707250240033461 
-0.6264736985328143 
-0.5804735165040107 
-0.4816669146261664 
-0.1748020284321526 
-0.08220689414154317 
-0.1309522611493734 
-0.4607870531288023 
-0.1197992565540006 
-0.2191347536059109 
0.01655144518073114 
-0.4496491834449732 
1.207639577482777 
1.204434066451571 
-0.180398257542933 
-0.3613213796852548 
0.5384340416318368 
-0.1519953536745264 
0.1829684122017854 
-0.03081257080422521 
-0.2701898487337878 
0.06796209894122529 
-0.3112435751707803 
0.04139847585638686 
1.168665908339966 
-0.02314453383575404 
0.3582311233053301 
1.054460337703479 
0.02934895974301309 
-0.3463842848173656 
-0.2490746019550094 
-0.2356956706705333 
-0.6600971228526451 
-0.2119979201562797 
-0.2856319858577884 
-0.1898879195378725 
0.5035201179968194 
0.1528327043754072 
-0.4626824000765061 
0.2997336320167223 
-0.03978050901387353 
0.2342442122291593 
-0.315236333411859 
0.4207098809037508 
0.1590933406845753 
0.4418307312646919 
-0.08077771154843964 
-0.6977069504560034 
0.2881035266528658 
-0.5736160129158933 
-1.043767825754403 
-0.5873537617639738 
-0.3807364435759125 
-0.4291135942503908 
0.1335969748901344 
-0.1424492310507633 
-0.4252736636872321 
-0.06779148727281051 
-0.1298259817873507 
-0.3757665681422907 
0.9340962692052244 
0.4164841581832013 
-0.2782964968100224 
-0.5749099449539434 
-0.01631359684094169 
-0.1573887271196138 
-0.2629690270942213 
-0.1312701893469339 
-0.2596204545489972 
-0.7109977481345489 
-0.397097751936197 
0.9303251203545764 
-0.3032387786723919 
-0.1910938176582508 
0.00961688007579424 
0.6346405650420869 
-0.1383259121035925 
-0.1567940556858143 
-0.05622466768678208 
-0.2702106065154152 
-0.9758790896559824 
-0.07892404515110982 
0.6195600856645336 
-0.2968449673075378 
-0.3629011793750146 
-0.33809710262528 
-0.2574821799831031 
0.6544870830796446 
-0.7432670004797142 
-0.2505318349398845 
0.223596911907916 
0.1456765974789047 
-0.2744462124528222 
0.06712893926089733 
-0.2000847757758525 
-0.5658432207896404 
-0.2756352471318608 
-0.4168774874890269 
-0.02933565991346084 
