solver_type L2R_L2LOSS_SVC
nr_class 2
label 1 -1
nr_feature 512
bias -1
w
0.9723995005122886 
-0.1776288496123414 
-0.6680838760136572 
0.05706023943647842 
-0.5446683011182601 
-0.4712136689588188 
-0.3925667223025043 
-0.5094555498635738 
-0.3919441813262871 
0.0325364838664198 
0.0549260075172238 
0.3096913598511798 
0.7712905968751173 
-0.0236749764799688 
-0.02902382017319725 
-1.115432664576775 
-0.2013469959486921 
-0.3164354581112035 
1.06575865695049 
0.3617919112934212 
-0.2004315562175914 
-0.327126074057682 
-0.1902544881168617 
-0.3492875387529969 
-0.2565825811735636 
-0.1096152079353814 
-0.2347496393366134 
-0.3979983279148145 
0.102438301771142 
0.4156274145056795 
-0.4943199569090606 
-0.3788614619594877 
-0.05784498077870011 
-0.0009766689985149166 
-0.3436507802487836 
-0.8015844878045416 
-0.2042869468495283 
-0.4630908904284676 
-0.04285682813430757 
-0.1327657651960887 
-0.5352982107703259 
-0.3374675675470262 
-0.1737313079834111 
0.364627700241911 
-0.2497416397573065 
-0.4413399207915587 
-0.09357216099217759 
-0.4130301039366023 
0.01850114790891689 
-0.6515018338548241 
-0.5594224419407465 
-0.1927947291022913 
0.175256518644852 
-0.2716007360922775 
-0.1280601842877621 
-0.4748125837455595 
-0.006802231331463301 
0.07798938783073549 
-0.32899818528138 
0.1873685442953795 
-0.320084327475723 
-0.16870794896637 
-0.09896551903615659 
0.2448358171291012 
-1.091185456866183 
-0.2892011472130407 
-0.3215310097051515 
0.06677125264679495 
-0.8073056827553312 
-0.8114098112064332 
0.02253131931169754 
-0.2182120997345738 
-0.2626643611875456 
0.2496744702845615 
-0.7899773492436398 
0.07464967669480314 
-0.01403409908977202 
-0.1440599142920855 
-0.3560882920380713 
0.05931144076483725 
-0.7672157991122196 
0.4990198033192846 
-0.4187142868919579 
-0.5007921957741249 
-0.4992160447786307 
-0.008104048484141344 
0.1797163582740542 
0.0941590658193424 
-0.2587969142100033 
-0.4418277506229372 
-0.9366442418442452 
-0.2695825489252492 
-0.1585905539810615 
0.5450138010375957 
-0.294360908295594 
-0.1800741489371281 
0.09014208901012292 
-0.221844737443512 
-0.2062014127325749 
-0.1276033074012518 
0.1617711794215372 
-0.153101253582121 
-0.1436139077006744 
0.09521810689813059 
-0.808664854885644 
0.02699158843416364 
-0.7897290942377168 
0.6984886318462656 
0.5185470943239937 
-0.1056734426716013 
0.330487431426258 
0.3610498950338488 
2.062263184735443 
-0.09939433913915362 
-0.2179016832639525 
-0.5951120319493497 
-0.3212844691953666 
-0.5547103642099468 
-0.5416720593702878 
-0.134417923616721 
-0.152025735794257 
0.003700466274091728 
0.01808815039459516 
-0.1141127549012073 
-0.4774959662821694 
-0.160367281165414 
1.68406266820569 
-0.1216092445464271 
-0.2107495241043488 
-0.5485779798083882 
-0.09656478580103006 
0.05924943457701907 
-0.1220130712623513 
0.8736569843020269 
-0.4310133743227217 
-0.1188218058690466 
-0.2223811538584182 
-0.1787119210112891 
0.4953131051147522 
-0.1815980221649001 
-0.1319991712161546 
-0.6546956191758624 
-0.1316182555543608 
-0.288248338573481 
-0.3402885748481799 
-0.3634080340114576 
-0.2700207063948917 
-0.152964535863257 
-0.4077711754582621 
-0.3167340942675361 
-0.2503422146563203 
0.2122017671202912 
-0.2047863106223921 
-0.259658427814731 
-0.5161423106777079 
0.3996166700513002 
-0.256969552062457 
0.1132838629411769 
-0.09332034337908574 
0.7910344796142693 
-0.3391352382823585 
-0.2494347348509534 
1.0483855556411 
-0.0519581636432775 
-0.2969710375415238 
-0.4949145254433435 
-0.1726396755479331 
-0.785413866963612 
-0.3325630206694805 
-0.3282388527912348 
-0.4438079550732201 
0.4833058455374851 
0.3203231744398461 
-0.319115855876338 
-0.2247713749235423 
-0.4862174609820553 
-0.7567714514358621 
-0.1629558662489824 
0.1056793361324917 
-0.7223846836957655 
0.3688768893511158 
-0.3469580438715209 
-0.5914030494150665 
-0.7312153865079056 
-0.396136513771547 
0.9344999674749446 
0.1209849000123576 
-0.4507199687321476 
0.224127990069342 
0.6921592502645015 
-0.003880697800112409 
-0.1259379015010712 
-0.2374285332119607 
-0.261606510904053 
-0.5091864618381046 
-0.4567830318424168 
-0.1740604033271653 
-0.1318803683478027 
-0.307084566976476 
-0.5038842530208514 
0.2481995535736236 
-0.2689425516426431 
0.05504845945608899 
0.4809641501916103 
0.5593442217895724 
-0.3524991514292585 
0.2039277967940254 
-0.3929565609702758 
-0.3792307524841723 
0.3542209828844158 
-0.5449298533696973 
-0.4394472567794513 
-0.3995896897920726 
-0.4833422984551973 
-0.1319885807454425 
0.6661982179707997 
-0.7037662133932169 
-0.6919608595203753 
-0.3573146267280528 
-0.268992279807028 
-0.2129029178719422 
0.1263794812273937 
-0.4698347874061789 
-0.06965341035404091 
-0.3890800943183822 
-0.1127167398723568 
0.7461292847493705 
0.04658577991779352 
0.2753416225078473 
-0.199666276627907 
-0.3818300937799717 
-0.3340921606111543 
0.2156946925660094 
-0.09781463060416355 
0.4975667207742819 
-0.2015819275117902 
0.1424716105168546 
0.4625902419111426 
1.70531827403859 
0.1400378789124144 
1.15814506447576 
0.2114729026915401 
0.2663107284808715 
-0.07899793522479497 
-0.2596198411562035 
-0.170311572024184 
-0.4484976076696504 
-0.01505226529758437 
-0.4139363738376786 
-0.5126595350137202 
-0.2361228558971701 
-0.1488812714440267 
0.6846531457156301 
-0.3967163505022475 
-0.5747617493277869 
-0.7044215228923196 
0.1350062261021603 
-0.01760234091726294 
-0.1629366499342353 
-0.08949572398602487 
-0.09499237902955854 
-0.4434049965306156 
-1.242466794545118 
-0.5282551407229088 
-0.3810821005392551 
1.341983746584885 
0.6960408201017685 
-0.3750986700303395 
0.1500287806180574 
-0.4242040520126876 
-0.2667633202586398 
-0.4361009349577734 
-0.09293596622073766 
-0.2709801229614578 
0.612209784530046 
-0.3720897364416396 
0.411710488160159 
0.6266591529183659 
-0.2093521269632394 
-0.1599680582507078 
-0.1907637589389218 
0.01344409918904803 
-0.116157325789234 
-0.4738777626369835 
-0.8284651785440673 
0.1853521247302124 
-0.03541130848273132 
0.5917433279567305 
-0.5609970665850569 
0.5720442015959126 
0.01200252932818081 
0.06210468307707369 
0.2232346940017984 
0.1104971633878691 
-0.05799731754446333 
-0.2887165649871298 
-0.2935138231239323 
0.01338859323288498 
-0.432823695724122 
-0.1483517011364598 
1.539826354857659 
-0.2273246392793132 
-0.1274267458553165 
-0.1782875905615814 
0.1125131681888479 
-0.04366228420237223 
-0.2642366712202232 
-0.04519493386816169 
-0.2167281506751578 
-0.339281767930283 
-0.5185112090743537 
-0.3578354681275239 
-0.405532837011192 
-0.01685905229940513 
1.351022282122851 
-0.3564502192267555 
-0.0966657362190769 
1.602355504708686 
-0.2905914292601588 
-0.5240025846754003 
0.06469566592688165 
-0.2061526848440173 
-0.2517271056303024 
-0.3905275634927645 
-0.2124774112200329 
-0.2901834196201873 
-0.3007614436306346 
-0.5143371157364753 
-1.230589255307338 
0.1154936977398448 
-0.187054463068668 
-0.01589846080968305 
-0.1456373533395554 
-0.5180371078254019 
0.2953382042836244 
-0.5104712421431542 
-0.2091502089669423 
-0.1002378583058931 
-0.4539483406807513 
-0.4216329285383444 
-0.5574381430886592 
-0.5366365592594365 
-0.2731617722316992 
-0.2987000927484278 
-0.2474456409889602 
0.1192480544021137 
-0.5780088900286384 
-0.8700285645590086 
-0.4379366436381623 
-0.4148939266277844 
-0.7871638037211236 
0.4998262710580013 
0.4954284226896909 
0.3787897436322328 
-0.6175815906402586 
-0.3508600631884635 
0.103458007920644 
-0.0574102558395196 
-0.04296575249037884 
0.5065568010285981 
-0.8135532448377183 
-0.04152279879288862 
1.277804525130628 
0.0006904247832434443 
-0.3421639450609482 
-0.1592266758036691 
-0.4252272697277346 
-0.5737975232703757 
-0.5782052485649966 
-0.1524736776555221 
0.06652970871161208 
-0.4981381055623589 
-0.3551805884030648 
-0.07495257112512918 
-0.8220397758559375 
-0.05607122431395187 
0.0143856948926094 
-0.1188586099123503 
-0.623448178929454 
0.5194464050887655 
0.6711554179043314 
-0.09496397203528543 
-0.6787514262728683 
-0.1332531437334745 
0.3897342868416518 
0.3520860396822408 
-0.009066692585268588 
0.8453405728048681 
0.6031624138716417 
2.111852857541087 
0.7224800856650159 
-0.5390051736116931 
0.50388021548585 
-0.3230517571336707 
-0.35245230369642 
0.369100881602239 
-0.4896336047911651 
-0.7747104005008602 
-0.09137921039219382 
-0.2806375894315268 
-0.01524669339197756 
-0.2268318156857659 
-0.0576222081650842 
0.09665592167132198 
0.211965235705091 
-0.7001420112360841 
-0.2201765947808363 
-0.1276938729388362 
0.4604705342342119 
0.2242619690610495 
0.03692663150152174 
0.3823204654965817 
-0.2363585805566363 
-0.147730705312474 
1.074138910334774 
-0.0473106904672434 
-0.2237823325237353 
-0.3727219448700119 
-0.09116649656225426 
-0.2612554635688094 
-0.3122950174119941 
-0.1740429642941699 
-0.2371904351165696 
-0.3546611763459416 
-0.5747718016668231 
-0.2282394938171186 
-0.2748975502008568 
-0.1415018257534795 
-0.2825022783891079 
-0.1257021114642674 
-0.1141503104193737 
-0.9378001899292139 
0.6756003026765471 
0.752807789923466 
-0.8222416224369609 
-0.2860392933033326 
-0.2288050094070428 
0.9016041714373725 
-0.1182005537451089 
-0.1075829932023989 
-0.1736878509976365 
-0.2402084434297984 
-0.2896301390294997 
0.1106074037858328 
0.2686368066941874 
-0.6119613845952385 
1.144197839767341 
-0.2072024057815725 
-0.2274046346690801 
-0.2691170855402887 
-0.5374532861236735 
0.1281130489701134 
-0.349651284076771 
-0.8873757538583918 
-0.2943402107572228 
-0.1297012664535641 
-0.3520784456771723 
0.4020607133000478 
-0.4941641671372441 
0.6402210176465934 
0.06332495238579569 
0.2345452499991474 
-0.02335547051959382 
-0.4463542283242725 
-0.6046374333972238 
0.6664166706360015 
-0.4455286726645565 
-0.3737761262753579 
-0.2081724588411042 
0.4375482820756745 
0.007847281672338582 
-0.3678267110601546 
1.204813668140969 
0.5100001263691955 
-0.1385261574209308 
0.4127151867332191 
0.761364051181929 
0.7371372543552304 
0.129658768343909 
0.4461872307771617 
0.187030465917295 
-0.18196730687196 
-0.6948666613062242 
-0.227533521671379 
-0.4098189771119578 
-0.5165228377287666 
0.7145727965498644 
-0.4482455884105474 
-0.4918718375937992 
0.08374119937027202 
-0.6247003907814344 
-0.2257939889076496 
-0.02323675641327689 
0.7162551765424603 
-0.1156228220780408 
-0.5797026644351754 
-0.3158166497428046 
-0.3965936981788118 
-0.2437506016183004 
0.2024259713374399 
0.09042261150339898 
-0.7663368941036383 
-0.2802218321959499 
-0.2182661850670931 
-0.0186538277629572 
0.1854113676714019 
-0.5937163691956954 
-0.3018786171404551 
-0.5795037807749077 
-0.4192628811640355 
-0.5396628305621111 
0.03378109559639805 
