solver_type L2R_L2LOSS_SVC
nr_class 2
label 1 -1
nr_feature 512
bias -1
w
-0.2107644310400377 
-0.5584348002282444 
-0.5591285127346036 
-0.3935305926267629 
1.155189859285023 
-0.7280568974534327 
0.636002287789256 
-0.2494749595460863 
-0.543793998617509 
-0.1112071952972813 
0.4953550952225353 
0.122024751804975 
0.7451631552285923 
0.5534895609433894 
0.4349531896663794 
0.5091403911304582 
0.4061020223052746 
0.8820695038989499 
1.14269830523739 
-0.5500270499185357 
0.1650955769939574 
-0.05038830352522844 
-0.4342489018738375 
-1.550191818519769 
1.296828970716384 
0.473881559427309 
-0.348166579576621 
-0.206606642550514 
-1.085313132388093 
-0.3124947698942314 
-0.6818040042133697 
-0.295344229573753 
-1.082054043244147 
1.485560501401093 
0.1939655118665847 
-0.6553535987047449 
0.2648669263613858 
-0.06053773949215252 
-0.6795292158048929 
-0.1988132416904981 
0.08407771462451517 
-0.201468195835388 
1.213232756629028 
0.8117333682264981 
-0.5158349696582509 
-0.2646250109697113 
0.5358442231920485 
-0.4927360288115871 
0.3078452393563234 
0.5395525289349703 
0.9404109804585392 
0.1154323395954139 
0.3824120318345393 
0.1271804290042885 
0.02853275631603526 
0.7088912592504942 
-0.4515425561745181 
-0.1001335243761775 
-0.566708799891236 
-0.3557975610749735 
0.03831310471907871 
-0.1239279008713824 
0.3054270437007847 
0.2841386326450696 
-0.2431037858433592 
-0.42477691368 
-0.3269181504470801 
0.01774399734143648 
-0.2273422839708018 
-0.8811602024181603 
-0.8444709338287307 
0.06840142624553602 
-0.02481528185717428 
0.1499786512605092 
-0.75368247381906 
-0.3431660801372661 
0.0841454309761874 
-0.352326592177744 
-0.3945180445693553 
-0.8176007484834122 
-0.8724747578689394 
-0.113795252553491 
-0.6178467558048153 
-0.0133938002134779 
-0.5135177323465462 
0.2998514474951592 
-0.2487245924243089 
0.3322247730175798 
0.4974583666948322 
-0.9908431626073887 
-0.7630137425593262 
-0.1930207491554948 
0.2970388559265666 
-0.492683039171153 
-0.4194866613589419 
0.3628813949420053 
0.02767025781282906 
-0.1858787630118041 
0.6764947475289202 
-0.1612851467452499 
-0.1796695805479436 
-0.434016294896901 
-0.2397163451645823 
-0.06929907428070484 
-0.4214577037792544 
0.3643062913351013 
0.1748472966310209 
-0.1759915204145192 
-0.3480493452790805 
-0.3670405131278607 
0.5702648323897384 
-0.06024924626044362 
-0.5633868070916142 
0.1825502752434035 
0.1432442449971727 
-0.1596437054527548 
-0.6301291096155025 
-0.6674008614176653 
-0.6573348012301951 
0.01695920386615835 
-0.08352688184709611 
0.4153119425189364 
0.2068143017878508 
0.3647199243194502 
-0.2447978714834394 
0.4343630948079365 
-1.317386892032965 
0.534135359982448 
0.4613645296535006 
-0.8618969176152743 
0.5332186142508377 
1.009412593791921 
-0.1914633401874543 
-0.2201477384283552 
-0.2223125256678961 
-0.5667100864360574 
0.4194264661276462 
-0.2426602214914333 
-0.931145010778865 
-0.2105624360570178 
-0.2333455795007162 
-0.1968093333836474 
0.6449186272819399 
-0.0212277531523764 
-0.1350218032871076 
-0.6227857896580359 
0.3313537950443436 
0.1780286500119715 
1.185475686437061 
-0.4375302873637419 
-0.23152621741801 
-0.5776959782421722 
0.01787239455215198 
-0.1071375819624778 
0.255102542646728 
0.775406145870301 
0.9092774391632329 
0.4857673184586624 
0.02078311982019172 
-0.2683187317652615 
-0.4261105098033533 
0.1279121881835235 
-0.3187791813398583 
0.385361454340185 
-0.2392314246687257 
-0.9650617342278981 
-0.5388289201924861 
-0.7603752579785276 
0.1324490823961118 
0.03570890026541758 
-0.03273520514448257 
0.1005870464241497 
1.027105614718505 
-0.03661751774831497 
-0.4009777747593405 
-0.3451337570679803 
-0.7631631679210662 
0.1697082132791711 
0.208326484475141 
-0.109563342960116 
0.2050014021690645 
-0.2920461128647782 
-0.01120911004966399 
-0.3257049000916659 
0.6062059798155237 
-0.3612207832610993 
0.08714100284536616 
-0.4240446715118023 
-0.02659478564023417 
-0.02374276984420068 
-0.02519624758865532 
0.1390716972760829 
-0.4708934261120745 
-0.4611985071353041 
0.06480279487071512 
-0.5470624027995061 
0.06213307658967802 
-0.541889365769073 
-0.3670640882317793 
-0.7249383611173813 
0.6005756908553601 
0.2411840763515227 
-0.06988951745627763 
-0.1390241809045399 
0.1617170209252539 
0.1246155738593283 
0.6997793982904368 
-0.09043924484123225 
-0.04099623206094356 
-0.4397715525964961 
0.8938247774584099 
-0.1341568439333905 
-1.056294138077062 
0.8448224107912624 
0.278993796808388 
-0.07508945755510446 
-0.296624600734052 
-0.3145956434979428 
-0.002278044081635212 
0.05180955993192431 
0.3899392588091227 
0.3597599976843389 
-0.2753702495819942 
0.3685161011902741 
-0.5368518405010447 
-0.7060021155411657 
-0.2122848032720371 
-0.6579626466015772 
0.450363895659723 
0.5339757768260471 
-0.4060540289871223 
-0.1089158833394804 
-0.3730224586519406 
0.5248432546268894 
0.02867403085036483 
-0.03260138449444136 
0.4628495445128453 
0.2310355138702477 
0.2001922468718201 
-0.5005324969063273 
-0.6556273730340433 
0.218451338923354 
-0.4866674640432408 
-0.06258038356117211 
-0.1813919003841615 
-0.2332055495698862 
-0.3940606753297657 
1.622082998221014 
0.3517532020072369 
0.1649698699853031 
-0.1335802327906671 
-0.658802515025449 
0.4006110854537839 
-0.06000276261112765 
0.2627711509245287 
-0.4530935434725147 
0.1920876890745025 
0.5079295242109819 
0.2526391700508192 
-0.5737313125162484 
0.190250558614846 
-1.571979826197719 
-0.9665716917545475 
0.5447693590417495 
-0.4021089843390853 
-0.2260802860267752 
-0.1106369315215043 
-0.5873968185255974 
0.1835148828729244 
-0.1745166407775792 
-0.691105719342988 
-0.9989119440939447 
-0.3632033567701262 
-0.5045057210986452 
0.861267013968856 
0.1114054326513163 
0.03598884023003257 
0.5837440331771032 
-0.1480975526970465 
0.1675112428568327 
0.1229026728219024 
-0.09304481834883532 
-0.1902560439159096 
0.1429797729735077 
0.09625179794216052 
0.1180142626334802 
-0.2845952348464555 
-0.4924876562062694 
-0.7755218021297667 
0.3528773791462858 
-0.1057326795200819 
0.6167010199491606 
0.6958468382770405 
-0.001339626350246554 
0.06426197123875264 
0.7265201715534333 
1.521277946877385 
0.1530289739321681 
-0.4553397096359887 
0.5398078781210695 
0.003858384387965832 
1.367721555413174 
0.3587212402860579 
0.02041252706659348 
0.02282863936863071 
-0.3202445835414695 
0.04477572023527172 
0.0920425943019632 
-0.7614840133140668 
0.1469956669501498 
-0.6370968626949111 
-0.4673081462948106 
1.038718518501524 
-0.5589603639804946 
-1.000041495181443 
-0.4378627862296342 
-0.03388079276641575 
-0.4579476173866012 
-0.1823594723225537 
0.9088496168478916 
-0.4115385942384409 
-0.2208749755995603 
-0.5317403478954162 
-0.0113966752273591 
-0.007798914449404274 
0.02420854399958916 
-0.3561633320175472 
-0.537771626513687 
-0.910330198915871 
-0.1208568710983047 
-0.3003475760728188 
-0.3571952857579986 
0.6309552259610899 
-0.3419363772400938 
1.202150698532494 
-0.6605224801588535 
-0.3992167366216187 
-0.7392326030477124 
-0.4817089483713013 
-0.08079488714587582 
-0.5023524289633923 
-0.5832199850950268 
1.635764422334506 
-0.08440861816402435 
1.157003671104953 
0.1219678944774478 
0.221050353907869 
-0.9783134186887519 
-0.1349358456937444 
-0.05897666672753987 
-1.162893674818647 
0.2463355557224826 
-1.309029443502649 
-0.1098466180122314 
0.06628104378014127 
-0.2787662254012695 
-0.5623720503379329 
0.06446328915845337 
0.216486908050113 
-0.3262034167919811 
-0.2110708353561767 
-0.3770654634748297 
-0.1083191979286618 
-0.00190587198705609 
-1.395690029902972 
0.1413953586134416 
-0.5372479642037468 
0.4773296026926062 
0.6662349672535541 
0.2407715802551982 
-0.09726928643089547 
0.04428757248606226 
0.342792383312442 
-0.2060827071698246 
0.1891392648501273 
0.2087320382816573 
-0.7520012308819842 
-1.069775307988622 
-0.6542865309561672 
0.0677695354284565 
0.2846869437693129 
-0.2476943107691167 
-0.3551066149946471 
0.2678860274520748 
0.06268994207184009 
0.1136405068040812 
0.2821592494947704 
-0.1816533531465098 
0.5100488559314914 
-0.5264812952574902 
0.4737482497768776 
-0.2697809985604447 
0.4400950328510122 
-0.2649815427884754 
-0.2510213009933167 
-0.7767892642992609 
-0.3758571408198134 
-0.08445311494144281 
-0.374224022893851 
-0.4705769854016037 
-0.6187392344776723 
0.07547672702696435 
0.1381130235045668 
-0.3266552528542666 
-0.552618445447656 
0.7053761412109667 
0.2861150760695 
1.235747763737958 
-1.246014581356893 
0.1144520157046355 
-0.2867389141474923 
-0.1191998732158296 
-0.1120409321215427 
0.09779752434080956 
-0.01288358110013307 
0.03248613966685903 
-0.9961748207443269 
0.5505233039314005 
-0.1493236119473023 
-0.3011588522616533 
-0.1808446634289697 
-0.5457276820459153 
0.1471186715700614 
1.047576152553613 
-0.6986318500876617 
0.5733006015839902 
0.5125947614936281 
-0.3513873384782583 
0.1165227617149159 
-0.3267059299267296 
-0.2348934049302475 
0.1961266752138228 
0.8869155188762713 
-0.01245452795023456 
0.5902683856850995 
-0.5330922584909382 
0.113075443312915 
0.2935077161272134 
0.6568740487820958 
0.2154294701969751 
-0.3689118573283172 
0.4803270362440762 
0.1395114512314819 
0.4545836634044569 
0.4799164353547291 
0.3908081914455195 
1.180509791672145 
0.1420804594383251 
0.1716241472101225 
-0.09460594493390366 
-0.9609430499950453 
0.6934082986588714 
-0.1737765354943118 
1.538849563191868 
1.052828962577528 
-0.6141778350101555 
-0.3688780875581996 
-0.3372689538017088 
-0.4418720603729264 
-0.4822331736582721 
0.6299197682065241 
0.2440269450168106 
-0.36817486122694 
-0.5188581186279195 
-0.1729362512959112 
0.04148214380525955 
0.02785169271388867 
0.3534249024584696 
-0.2006088322482937 
-0.630351261854845 
0.3671602999706658 
0.08258498196773675 
0.1614896408782775 
0.1191421625470386 
0.4970167627421208 
0.2475752732786362 
-0.8287437696721414 
-0.3288242664006861 
-0.4135390590507944 
0.2271583219665184 
0.72831895459757 
-0.07130803456957238 
-0.7479557456795979 
0.301654169556788 
-0.6327916079684459 
-0.2427164763674491 
-0.1602092122474484 
-0.05135731075788887 
-0.8671027454705843 
-0.192675486590031 
0.03636159030642432 
0.6413041563535677 
-0.2510702135666729 
0.1892265917910543 
0.1722855504019167 
-0.9860069592910018 
-0.08587036686023025 
0.3187429553998427 
-0.6384186626527445 
-0.5967471272892804 
1.034778877806187 
0.2627804127940908 
-0.2356761260428778 
0.4347424775683825 
-0.1878729742120343 
-0.07668445710986149 
-1.161638905873685 
-0.4723209603131832 
-0.8805296245504439 
0.08182954490598823 
0.191140685260322 
0.7688352615967857 
