solver_type L2R_L2LOSS_SVC
nr_class 2
label 1 -1
nr_feature 512
bias -1
w
-0.0694336110910158 
-1.032841840238789 
0.6199300980773668 
0.4760924759440409 
-0.9018022126361038 
-0.4282490224272544 
-0.2218035397738597 
-0.2457903876692202 
-0.0747339397884165 
-0.1371536303696787 
-0.4944200082212133 
-0.2088561012465703 
-0.4879673816559256 
-0.01041298624711386 
-0.07238542114128027 
-0.590854919216084 
0.3132638277052631 
-0.1896522980240171 
-0.3552668986392022 
-0.3229268634289911 
0.007659356435281896 
0.2310249308018108 
-0.3092836300011741 
-0.80136813715949 
0.05471899336063333 
-0.09268018998158219 
-0.08483622822146666 
-0.2673627083105878 
-0.4226368818555343 
-0.03466958967032126 
-0.7726127044208279 
-0.144907495928607 
-0.1356195958199505 
-0.1672000631131652 
0.03954804380281029 
0.2887593723222248 
-0.0992192279943874 
-0.228236681742257 
-0.1845795291680735 
-0.06396192206758146 
0.01989812312255725 
0.07357758500477554 
-0.5687652554957919 
0.4853163388816447 
-0.1145988813256906 
-0.1717679951899034 
-0.035256905675912 
-0.08319937964186699 
0.1542992424295601 
-0.2599824878625421 
-0.3006956657818413 
0.5705597309611901 
-0.4699634690695292 
-0.2121645278916319 
-0.04411033652335508 
0.1116519116856395 
-1.333752178288693 
-0.1121017609582837 
0.241895738611795 
0.3063886047708822 
-1.009137364260776 
0.1488602279182303 
0.0196357437570457 
-0.09160029229150647 
-0.6869435855768429 
0.009927967569816743 
-0.05078329967848785 
0.6691910453438191 
-0.7403949091193333 
-0.6804452859411679 
0.1748641065806803 
0.152087658200462 
-0.2215006799748123 
-0.1589619976645338 
-0.5216339455184091 
0.0105012987178473 
-0.1135163804729586 
-0.3911475668684744 
0.4352263382108759 
0.4809974092762703 
-0.5254320799477762 
-0.1380412113482368 
-0.2355945262288936 
-0.2999240299085227 
-0.1789480656022815 
0.1797972157248198 
-0.1586991743241785 
-0.3726629808422911 
-0.09710156809496798 
0.5231017995100575 
-0.5210015001066893 
-0.1890642206815849 
-0.1863950918661797 
-0.1240589735528862 
0.5397610741891341 
-0.1970571409792677 
-0.1290316519617585 
0.02895127202482501 
-0.05232248060371208 
0.778973688106934 
0.3604929979872205 
-0.06778732422344297 
-0.1558467083908606 
0.149032753436099 
-0.4387210787535238 
0.1204597865232275 
-0.5820371656151135 
-0.1100021856603821 
-0.08760759247711157 
0.06008386192719202 
-0.8472272537368085 
0.06078974553466703 
-0.3456714638168292 
-0.2663117082905805 
0.2306228066242393 
-0.3791115723281703 
-0.02664925570066224 
-0.4595945935851415 
-0.4101297391851066 
-0.2019567869404257 
-0.4042917983374291 
0.478250563733327 
-0.116889102118289 
-0.1127516052015993 
-0.3513216860827715 
-0.1984247916167458 
-0.8178851435693424 
0.3482821163362042 
0.3045938970733038 
0.07020194226429316 
-0.1844424233462019 
-0.3243519704788413 
-0.1373043048783908 
-0.05280500716484477 
-0.07231664074672424 
-0.3165390700613559 
0.1120697777375687 
-0.0660328898472053 
-0.009965735115503848 
-0.4144943777857393 
-0.1689295826551768 
-0.2248731220125844 
0.2445405201391559 
-0.05312037797055868 
-0.07739567359511336 
-0.3192871335120726 
0.7126549368677249 
-0.1188215518522156 
0.2911714612460907 
-0.3041625545319448 
-0.7014953160347065 
-0.1713591638252903 
-0.1553063582374819 
-0.2494808523046064 
-0.2673248123136924 
-0.2493531078158993 
-0.3348776308849499 
-0.6479188588233076 
0.3730233042956403 
-0.059913941081261 
-0.2456157492295563 
0.06314098467170416 
0.5295393218274642 
-0.1331080153003533 
-0.1281171181820922 
0.2929960212218053 
-0.2636328477005804 
-0.5354012073294266 
0.23779034656372 
-0.1862019865797047 
-0.1827769602235578 
-0.4048970063097312 
0.1553329763986392 
0.307222416129969 
-0.02445473599349391 
-0.3742401712532144 
-1.040079999253898 
-0.07659409642136933 
1.039825535323698 
-0.3704641149907273 
0.02180878989958288 
-0.303995408703198 
-0.4789729182749336 
-0.3881018703368547 
-0.2687926121179513 
-0.2228428379769121 
0.4711099499676885 
-0.5052124611464182 
0.03112393496628521 
0.0249858752853008 
0.454773170752088 
0.1091685829242151 
0.1039464102761523 
-0.1563445354976227 
-0.08733653846667364 
0.06627755166056824 
-1.38500412549504 
-0.299995405865066 
-0.2417338940210343 
-0.005399334088227577 
0.7194379600072116 
-0.1317377261974037 
-0.3971634164848181 
-0.04187928060191998 
-0.2801896827037372 
-0.6115105212747317 
-0.02565402695939248 
0.08350979116058907 
-0.155891198395466 
-0.04714360807903092 
-0.2673259581332024 
-0.1585206433991291 
-0.2267339943294415 
-0.261515165394772 
-0.1129357255583919 
0.03763489058938164 
-0.4345787605364287 
0.1919987183104399 
0.4548886406810267 
-0.1195041881367629 
-0.2078468515706366 
-0.0623637611896868 
0.03083566919825014 
0.01978418154963247 
-0.2180717107189585 
-0.08710985542373471 
0.1501406509598567 
-0.7300215801302471 
-0.1192215258628941 
-0.3193804546574906 
-0.1957658395281855 
-0.1423398103256226 
-0.1785613518342151 
0.0186198792211394 
-0.01015803024884565 
-0.06117604306532311 
0.2334757423000598 
-0.09585627010051007 
0.6320255046770478 
-0.1621506217112383 
0.01540064681011516 
-0.05796267805213614 
0.3674585183959752 
0.04352358985075402 
-0.07090447467541929 
0.08418747663490815 
-0.4143035873827583 
0.1100129478561514 
0.8628991628591285 
-0.6904269256774055 
-0.1555753654498271 
-0.1632428264194228 
-0.3124109981165694 
-0.08312050348747982 
-0.4486472663257408 
-0.6048723963132482 
-0.1781595536908641 
0.3557886972283207 
-0.1581699235118202 
-0.3689073360964041 
-0.118571827206825 
-0.5852523633942279 
-0.9217394922837232 
-0.6669090847515796 
-0.286625701447301 
-0.1065503182826364 
-0.181781831703261 
-0.2403902571576539 
-0.1160919086258868 
-0.1549925975828662 
-0.145261082160774 
-0.9707386793660261 
-0.1410042407544519 
-0.3303120879902945 
-0.4346293444254916 
0.1612735233127873 
-0.3047639339241729 
-0.3791138503743757 
-0.08300634745884732 
-0.1014310621432605 
-0.2398242130016554 
-0.1754289967555173 
0.05938496559825827 
-0.1483312793826672 
-0.3682576804299437 
-0.11416826930341 
0.09025800458194339 
0.1560862892868302 
-0.1702343529899637 
0.1571964170872721 
0.1120442244715756 
-0.08693207206186955 
-0.05654370332408402 
0.2870802597663795 
-0.1754622899666475 
-0.2529845689999545 
-0.08711058867313495 
0.08246677538987923 
-0.4486524772205536 
0.08752290863237662 
-0.2100334526073632 
0.2498262939533188 
-0.2325017460841983 
-0.3295094740736025 
-0.2441110062720431 
-0.3883354831105698 
-0.005753729698481355 
-0.4803460265431498 
-0.2524253311321717 
-0.4404877997620928 
-0.01489230742023067 
-0.1175604545917347 
-0.190976452777625 
0.08829870212474313 
-0.1153440853116856 
-0.1785808330048878 
-0.05214015956632718 
0.2700476521959361 
-0.2984484379154426 
-0.2086616953927163 
0.1126495042839216 
-0.0613765017471558 
-0.04431696447159247 
0.5157391045120328 
-0.1697416314645071 
0.1016438383051352 
0.6522137469800632 
-0.2854683591786352 
0.1895277541648801 
-0.01445982837385057 
-0.120730137762006 
0.6383312944797681 
-0.191508547189098 
-0.05427039413761622 
-0.4048707339566359 
-0.3848459590477505 
-0.2210383003314935 
-0.3485086470549607 
0.3751675132194279 
-0.2021822565447375 
-0.2931687553811035 
-0.6881011476618195 
0.1287103114693843 
-0.09937099545615961 
-0.07194009667462291 
-0.2775724381732678 
-0.6002581685505328 
-0.2061837427142726 
0.1355784956208606 
-0.3705737155487955 
0.2754276653870422 
-0.1424630043502898 
-0.3584879603192721 
-0.03848484273198474 
-0.6484465898936582 
-0.05411063549396784 
0.02949769191984288 
0.3433551973518622 
-0.2902337418295903 
-0.243860550177865 
-0.3744220716707455 
-0.01726544168187228 
-0.1159916049716071 
-0.1694752639290963 
-0.833184052498473 
-0.2402465028200091 
0.4137643216803703 
-0.5920674057438965 
-0.1656750030819144 
-0.1051296592985651 
-0.1096725858955506 
0.3369526787597241 
-0.2276911140686803 
-0.2832399717869975 
-0.6171656566296915 
-0.2407876445040219 
0.2261038676130312 
-0.3641429865097903 
-0.2048730625982915 
-0.3138756908405781 
-0.07503215443234452 
-0.2012570734629567 
-0.3513482307005448 
-0.1379467710405001 
-0.1298298028997695 
0.2209711989789167 
-0.1791068994639533 
-0.2210925947534332 
-0.4158176969573685 
0.003041711484423181 
0.2837427115060641 
-0.1750707119568322 
-0.05162547595160979 
-0.1664926903698655 
0.1338604864562671 
-0.241539585868553 
-0.08756507587801177 
-0.8311293739205546 
0.08850087173539005 
-0.06952616613152759 
-0.5040200075096849 
-0.1041495107517909 
-0.2385073569412636 
-0.1672106629792434 
-0.19003229622316 
-0.4072874563635551 
-0.01704998750667825 
-0.1067337160307157 
-0.263720885060254 
0.2707212043937616 
0.6275667905741961 
-0.2055051739424205 
0.5026359540613839 
0.2753163722331635 
-0.3274247966444483 
-0.209840688384255 
-0.1306220822427244 
-0.05870231591748604 
0.1630777633162769 
-0.1574369814364451 
-0.2371992474664502 
-0.1669412768041632 
-0.3052057677732656 
0.05886633285880579 
-0.3255370695750937 
-0.2745690984974783 
-0.04417346061133895 
0.8627448732302744 
-0.03110360369421262 
-0.147522526747739 
-0.1296122749885054 
-0.4079518506558928 
-0.1705537111594763 
0.02218970429613585 
-0.6489592932037236 
0.2412400661639305 
-0.2441747028293995 
-0.1868922187959835 
-0.0881056599935084 
-0.2951058548714559 
0.04655254175717031 
-0.1621836523884585 
-0.09090362225488348 
-0.05613290304841439 
-0.2050201676820262 
-0.5156308680711106 
0.1254700847045612 
-0.3874535553612944 
-0.233087668066966 
-0.02186308950897181 
0.5483281806431232 
0.9623949759761058 
-0.1087725152120457 
-0.3570349298348147 
-0.2735181026176364 
0.4320335080899531 
-0.284242061812328 
-0.03049104173016545 
0.1877478446446142 
-0.06797895415564065 
-0.1516588377051137 
-0.08837304865928211 
-0.1987288216003884 
-0.9712626530612007 
-0.8318948483802284 
-0.2516106915945308 
-0.5683664318819758 
-0.2478596273572311 
-0.1512923276347241 
-0.1585403877413394 
-0.06587216982245414 
-0.1216028758500805 
1.106029134842397 
-0.09945252652078396 
-0.07132980834184413 
-0.2183134207535386 
-0.4995503755123324 
0.4635792631411627 
0.04534942199828712 
-0.2063950031358808 
-0.3061712094612771 
0.3426258887027814 
-0.5007442207190526 
-0.007805166744477166 
-0.113167393302554 
0.006663028946622269 
-0.5903781644728071 
-0.1403309470215991 
-0.3827652200327666 
-0.07333986057470868 
-0.4024292674566732 
-0.2228061494332388 
0.4808252361382818 
-1.088670418523218 
-0.02926027687317663 
-0.456255963345817 
0.2475610681660431 
-0.3499945990667704 
-0.143520289523385 
0.1840116153341215 
-0.2425194088879524 
-0.2872839169620379 
-0.0808759397024974 
0.1853329436978082 
-0.1770463767163954 
-0.06606629549676479 
-0.9066730909924077 
-0.2993658464913029 
-0.7608338421031544 
-0.007908473488731301 
-0.002384228279402003 
-0.06328104784845162 
