solver_type L2R_L2LOSS_SVC
nr_class 2
label 1 -1
nr_feature 512
bias -1
w
-0.2495822183555554 
0.3830797587545524 
-1.424036170852707 
-0.1839896092994612 
0.8463171137049756 
-0.1586521341391234 
-0.1963240236942904 
-0.7687755667592688 
-0.343445671667873 
0.5037727261836126 
-0.4334947604516026 
-0.6105642763456106 
-0.2475780861791191 
0.210273721582371 
-0.3338387927073332 
-0.4609033302506579 
-0.3630174035210897 
-0.3377299245850033 
-0.3996326492770819 
0.2093975381955113 
-0.7367157558157378 
-0.2488918022102792 
0.01679913302356557 
0.02353136686421252 
-0.1047212336034471 
-0.2713287882704621 
-0.2095820999579885 
-0.2198752097900809 
-0.4591503903166335 
-0.4670662076385 
0.4723781940869237 
0.2428368098774241 
0.04117599172930676 
-0.07391125869412585 
1.3645093168866 
-0.4346721096647786 
0.09521039794849456 
-0.3537333433214626 
-1.396183579227788 
0.07930349548077432 
-0.2155357758280865 
-0.6553398778792017 
0.5691071295394021 
-0.03465768558825229 
0.4443742109858461 
-0.5944884541082022 
-0.1652816701788329 
-0.2781558187701376 
0.5299050892496376 
-0.3248279468580766 
-0.1796106467456016 
-0.3003673014739539 
-0.2081433786638378 
-0.2825915257859971 
-0.1857805571720667 
-0.2596369148117843 
-0.4681074669833836 
-0.4280606332041612 
0.1564278415710588 
0.5567382666467932 
-0.35059969220385 
-0.4673932832465998 
-0.408066711676866 
0.2764227801473155 
-0.9206561145029779 
0.02892039406658702 
0.06926255162747325 
0.2696768528371885 
0.2916542135237993 
-1.132880924273253 
0.6556192383130255 
0.738241416648074 
-0.3657368620162667 
-0.6057568546016014 
0.7264315031444641 
-0.5375118012967782 
-0.5982540699652354 
-0.3566037717693044 
-0.483611311966691 
0.6551288593889925 
-0.3091906872518417 
-0.2078758903762076 
-0.7470291094589482 
-0.3006404568209596 
0.2273346023425164 
-0.2188811503448624 
-0.301181278572247 
0.9094439404500222 
2.039226348456072 
-0.4933236053556094 
-0.4070389097114452 
-0.03987169533718264 
-0.6101552065390451 
-0.7981568881133086 
0.3653974527249567 
-0.4465184513004337 
-0.4694411990445346 
-0.5683102991771998 
0.08137982224662288 
-0.4831652477315972 
0.1488502433204305 
-0.501199825437295 
-0.3989148455255271 
-0.3223592487545537 
-0.5347051440271975 
-0.2592453907976274 
-0.4306666386431969 
-0.1512671108535217 
-0.1143694216231362 
-0.4363740978646825 
-0.1218010225670594 
-0.07829165620040153 
-0.6964117444966046 
-0.02955213439660905 
0.5784423670207229 
-0.5928851498278583 
-0.3339979865848064 
-0.4971311216779036 
-0.6830505616445338 
-0.07362395419144396 
0.2382462650777304 
-0.1387777176749823 
0.1860949603387501 
-0.32426302821196 
0.1461068623669789 
0.1948477714254091 
-0.2681705251448994 
-0.1680511278960094 
0.3121307390177688 
-0.4381324377960867 
0.3099481881392094 
-0.5135728991420102 
0.035960368572618 
-0.3656659496503062 
-0.5360085386910961 
-0.4646151585623625 
0.169108836419206 
-0.02619138379487281 
-0.5951923693051123 
0.09734200028573196 
-0.0012263982318523 
-0.2404680076094324 
-0.05785862897930697 
0.2260354526183095 
0.2942242703893528 
-0.1554743425201017 
0.3431148276175097 
0.5104511081236099 
1.621397400397202 
-0.005646253332609022 
0.6163008855800874 
-0.1121055153025179 
-0.4645273660279957 
-0.1694082260603487 
0.5312896060152266 
-0.2664219099211491 
-0.5763884224812252 
0.1789761246880846 
-0.5172118357013962 
-0.2316219433595436 
-0.2254235000715998 
-0.9464645237778853 
0.5688001884140423 
-0.093462019090711 
-0.335934883068387 
0.6194745218443294 
-0.6730709316818173 
0.1513247720722075 
0.2194240723840259 
-0.3950359965488097 
-0.3834877839780441 
0.3577830693524528 
0.1293481785350482 
0.6460852806235131 
0.01244530033547294 
0.6744586631698214 
-0.4344449017868808 
0.02946899362710787 
-0.406736775855653 
0.7470884384016211 
-0.1191995415324792 
-0.6319034863416597 
-0.5394829373955107 
1.543745994037045 
-0.1088881629341279 
-0.8381269158484058 
0.2094607246831398 
-0.8063087415292476 
-0.3945075224379828 
-0.1257972058630842 
1.420023914780123 
-0.5184508313937335 
-1.177706171080162 
0.1933871575198083 
0.3854469206265666 
0.2076368948060356 
-0.7738576010437911 
0.5550108178999066 
0.3112911440816297 
-0.08901466371394427 
0.325917777153044 
-0.1398320434349181 
-0.9505232398503323 
0.02082822018310082 
-0.6554277086661406 
0.3178140772164734 
1.445204411308503 
0.6524392742288677 
-0.2215103090198423 
-0.6801421506360422 
0.4337730445499252 
-0.4482000093315364 
-0.6260732702199207 
0.3152809337862119 
-0.5616461979760242 
-0.3687480800428222 
0.7199542416097257 
-0.392169942701809 
0.8504580199342295 
-0.183766419802103 
0.1359314842850086 
-0.1374399124189504 
0.426448091247732 
-0.1985342063615815 
-0.1113650013623418 
0.3781958693835312 
-0.4538703307935673 
1.481782024075928 
-0.2231006188256447 
0.3505425224360171 
0.8492444651551575 
-0.04136108921136375 
-0.1819837308586761 
0.5823563587296853 
-0.01163883547345906 
-0.1640815960820715 
0.9118194861264546 
-0.4726634605593044 
-0.00962042309483805 
0.2124041351270905 
-1.047691428582045 
0.87128519956143 
-0.5552625285194838 
-0.2696004087309334 
-0.195414303295945 
0.7749354698647788 
-0.4390784123087482 
0.1682520333934599 
-0.2245651548470391 
-0.4592049861953696 
0.6213220203551019 
0.2247970407760643 
-0.4259934430175432 
0.171358758696839 
-0.3407267849710886 
-0.3641742269483177 
0.2761146157534583 
-0.3595485519950527 
0.3633868654690647 
0.09310695676921178 
0.1511772109328569 
0.01672276344258113 
-0.8003370017185645 
-1.205877811553928 
-0.2594022944949955 
-0.255452463031312 
-0.4870866222199392 
-0.6764980979078339 
0.08522941670811199 
-1.482009778080402 
-0.3318769117394472 
-1.385917550876567 
-0.2267006974445873 
-0.1606470279073442 
0.1772105956690788 
0.6458670618621409 
-0.5700951689349311 
-0.45993496567062 
0.08994974247535296 
-0.3684853476145912 
-0.2843798230982194 
-0.4169377944642373 
-0.5343772520897651 
1.171615111368473 
-0.7083814812983686 
-0.7597205056807365 
-0.3796011854483126 
0.4525415735608139 
-0.028003530427697 
0.4534366282104408 
-0.06203931494449295 
0.3467187733943078 
-0.2220070386264529 
0.2594182308925717 
-0.266946150078099 
-0.3162968580208815 
-0.6688601577452141 
0.05588089837111929 
-0.6362879108767916 
-0.1936489202836913 
-1.291523834683402 
0.03345862222012251 
-0.2597120355732371 
0.1603504562149546 
-0.8426465642374473 
1.264278132955086 
-0.07093473085728658 
0.0760971779664881 
-0.6347216543477373 
-0.05857201311227195 
-0.4355523821383001 
-0.1203703388984118 
-0.8533407969315042 
0.6045666517354416 
-1.239387635645187 
-0.3060743103275047 
0.04826577378699688 
-0.5131674850086809 
0.1875865086628573 
-0.4101681672346986 
-0.6676911198876379 
0.5543404911256835 
-0.3441342760749287 
0.2494141455012062 
-0.275745958340279 
-0.6610315806335155 
0.5956621076859235 
-0.3532536807556172 
0.6083947535588025 
-0.408245180408915 
-0.2273693987044501 
-0.1201632782864946 
0.8148832640320027 
-0.1278342878552776 
-0.005744807558076663 
0.2381602299571442 
-0.007175100065869279 
-0.3045059650582761 
0.4345727792388027 
-0.4739652443799806 
0.1926528866849012 
-0.8923708246310639 
0.1331445333012265 
0.006453755147831528 
0.1807086415183648 
-0.4483093702720876 
-0.4152066763257138 
-0.06269753121963537 
-0.8067426531400981 
-0.6744007366584971 
-0.01523746651747738 
0.07261561650749579 
-1.04532290651231 
-0.3178043787227667 
-0.05759764037956716 
-0.8092180628160448 
0.2675385207092799 
-0.1989305811471146 
0.6292931563453148 
-0.6583379913471964 
0.5719718855386137 
0.7337037124816843 
-0.3295526911655954 
0.2128327741898944 
0.5696075786416358 
-0.07286023004959746 
0.3832938355366466 
0.4726724685860702 
-0.6034879808124347 
-0.1593232473854573 
-0.3958785823547273 
-0.2058920137810392 
0.08563581014500389 
-0.4473977231080407 
-0.5957166246100555 
-0.3140826837671274 
-0.3012158846518349 
-0.556027202564471 
-0.9707087734702511 
-0.8614389200259992 
-0.3289051973836178 
0.1040663518891969 
-0.6277500061753863 
-0.4894394604596954 
-0.3889140384782911 
0.960028933626085 
-0.3989058823493324 
-0.4530598677591353 
0.389919280614987 
0.1929736475361528 
-0.1678620989439775 
-0.782780559978727 
0.01637253679610812 
-0.1124936946050796 
0.4711128614133825 
-0.6413384216565265 
-0.6355057233189759 
-1.477155908632619 
-0.3539688469922146 
-0.02356219199201627 
-0.1910981227632542 
-0.2840576975863124 
-0.2620412602999563 
-0.7328751717608281 
0.1885824510778357 
0.4071958262916799 
-0.1245397256062655 
0.8048993465678833 
-0.675307802094363 
0.08130674353473197 
-0.3438965995434168 
0.183943729235124 
0.5073418737868258 
-0.4118038455585128 
0.485282744068366 
-0.3965553135433 
0.0278124045541468 
1.171273521454841 
-0.3635543256466853 
0.3011191386675348 
1.041588336692117 
0.2155493638666036 
-0.0513167770403837 
-0.03160179067942855 
-0.1649534576707787 
-0.1224637955013756 
-0.474902643374834 
0.866258451780032 
-0.3325252691886571 
0.03622485989211627 
-0.004528435069269401 
-1.382482804219077 
-0.5188488461831989 
0.8971607260029419 
0.08863697939214207 
0.3110138933100621 
0.5303872360808355 
-0.5188168231881116 
0.3103894327656277 
-0.2986069435787359 
-0.04628727110084036 
-0.5152602862491493 
-0.1072328170837627 
0.3904018341153737 
-0.1926639680939653 
-0.3467262539265721 
-0.3003186038821202 
0.007374130690524495 
-0.2202259111766412 
0.4526229778350923 
-0.6187398452208116 
-0.8019229991450619 
-0.2539045166318193 
0.1506444459893077 
-0.4157749983142509 
-0.1085132166214406 
0.08196730571046391 
0.5726637391364082 
0.4285465760092719 
0.3392614673332243 
0.06878633613827623 
0.2366312624194926 
-0.2438870062705507 
-0.211627158647913 
-1.361461170622076 
-0.5760974712538263 
0.01525143777315993 
0.2723202211363497 
1.232738927521936 
0.06694837785722962 
0.002861335140249586 
0.9182265298810933 
0.04707076308210879 
-0.4841235717380743 
0.3443625813036717 
-0.5808642597714195 
0.5196642374710578 
-0.1177799542633096 
0.0177601650931915 
-0.7557906318949379 
0.5385296083990803 
0.07382637821548767 
-1.009027342657839 
-0.460028994943836 
-0.3801824190998503 
0.1302399050959382 
2.367264147657631 
-0.2534719534427522 
-0.3535882728026865 
-0.0005852291472242714 
0.7358672231240413 
0.05956897542026194 
-1.019469698290969 
-0.5683799322528795 
0.3142983736971989 
-0.1166963048988914 
0.05770291899112262 
-0.03394159357532624 
-0.528773373241923 
-0.5450751803488334 
-0.3217847430993769 
-1.356770694023975 
0.1731188527039889 
-0.08245666774704626 
-0.109114693052077 
-0.3789736724775538 
-0.3912552066380893 
0.07332752601022022 
-0.03116404605615954 
-0.3780943894399879 
0.4089058154794541 
-0.3914421269948485 
