solver_type L2R_L2LOSS_SVC
nr_class 2
label 1 -1
nr_feature 512
bias -1
w
-0.1037621421300047 
-0.8059789971971018 
0.9354449553457983 
0.3453988771539464 
0.3324020665478038 
-0.6280063118205007 
-0.1246381638555698 
-0.5318904172688708 
-0.1015327152411473 
-0.04738037944249048 
-0.1281123087768498 
0.476266568978312 
-0.4111085258901 
0.1187650611863702 
0.8328859443959404 
-0.3230611177758247 
-0.2279529216527777 
-0.2392469322023133 
-0.5232793107939392 
0.2528548391278168 
-0.2241290804132715 
-0.06614301043833476 
-0.1744989042808511 
0.1089066917685792 
-0.3395237732126326 
-0.1596114553624003 
0.2911769352560932 
-0.1150526434771395 
-0.2906705727226859 
-0.02585710478653806 
-0.2191770308293506 
-0.1780355716076692 
-0.2238813617059842 
0.8424557108043045 
-0.2649570132384028 
-0.2859619224660717 
-0.3443171958966903 
0.009173418855398099 
0.04372174727555829 
0.1422269380401569 
-0.2516005464270429 
-0.3944114556411749 
-0.2131922617913045 
0.7000801081013115 
-0.08322510894980335 
-0.1896436030843588 
0.03945611888692909 
-0.2280396946740652 
-0.00940435157559617 
-0.5501081391114403 
0.06233221549817099 
-0.06572226573341479 
0.05639596780008933 
-0.335826881684791 
0.004449425357008881 
-0.4280678312284513 
-0.009047857033558347 
-0.1096008762116702 
-0.3433101448281187 
-0.3555046120634633 
-0.04547622258282126 
-0.07199519593560341 
-0.1794331934115485 
-0.09461740879510774 
-0.7014003278177966 
-0.4500887673578292 
0.03555465583308946 
-0.4221323983012524 
-0.9225091667680738 
-0.8951334712533159 
-0.07824539885344378 
-0.1410399579525499 
-0.4809896321523647 
-0.05171032312531855 
-0.6681178004425381 
-0.06466754172740288 
1.100651769181747 
-0.4512512257589666 
-0.02144852877295634 
-0.1802811833609629 
-0.5076685220997282 
-0.1049510405126138 
0.1785051896898118 
-0.2513503602461638 
-0.3219554464505146 
0.5276395484216944 
0.6783006702520806 
-0.2885165620537111 
0.001315939260813098 
-0.4669773859914344 
-0.9399418655318245 
-0.19137854917649 
0.2967912209028599 
-0.1980276934728913 
-0.2581393587616234 
-0.1820072875681589 
-0.1124697618647845 
-0.3668117065147673 
-0.07566166649418464 
0.04894187249849927 
-0.2262114741403731 
-0.2899632714336498 
0.0897355795815188 
-0.3388482698492176 
-0.2024719617708496 
-0.0478104047199539 
-0.5304942478931145 
-0.2258261193871927 
1.223794313194064 
-0.1007458272827161 
-0.3193349528085476 
0.176199323759487 
-0.1341616513607779 
-0.1489583957845111 
-0.224279883809237 
-0.4804667506143028 
-0.1210855396136856 
-0.426023177683943 
-0.5051334053826623 
-0.09288842415293784 
0.5864199405376653 
0.1124186247633447 
-0.08016463147613076 
0.2547948032217684 
-0.5279641770581567 
-0.1432971708152675 
-0.5789453200702698 
-0.05742486523898607 
-0.1082426706440954 
-0.476709617179471 
-0.194345900340993 
-0.09536372300018291 
-0.2142114681089085 
-0.6118032411399518 
-0.3353593110804531 
-0.01851353840835276 
-0.00305048605733011 
-0.1379631757510734 
-0.4154440850228032 
-0.2465650443487771 
-0.1478288928189656 
0.3549894718406446 
-0.1523669696088581 
0.3661983399173201 
-0.1299769635904797 
-0.2466753244379167 
-0.3119532128802796 
-0.07989249445087269 
0.06714380247281694 
-0.1404079349390396 
-0.7544344359438007 
-0.2396823947170073 
-0.0597525009038673 
-0.1839989021109628 
0.2379004763681893 
-0.02577363855243348 
-0.5302083543610506 
0.1527841306090827 
0.5533248913818741 
0.4905962680553198 
-0.5240219822395584 
-0.2238224964990084 
0.3418191933403928 
-0.1564711432478885 
-0.07321850114702075 
-0.5186462916083987 
1.077970944409842 
0.9419775134226268 
-0.2030531995619989 
0.2415999825293422 
-0.2588210922400143 
-0.003735591618565341 
1.09223534137586 
-0.2444933537120146 
0.2108722634294484 
-0.50220034616091 
-0.5049654716127123 
-0.09405548784347881 
0.1911084915648243 
-0.7152184665596291 
-0.09285117555609081 
0.04933334941509789 
-0.4275974302250129 
-0.2556543295859737 
-0.04363625430640442 
-1.045865041347179 
-0.1674930145680315 
-0.6166630308233131 
0.3089675858648724 
0.03978246436471878 
-0.5097540154688722 
-0.2256864989929079 
-0.190175348325396 
-0.1400722164707628 
-0.5914667158898835 
-0.3902650288759106 
-0.7322593893599161 
-0.5245234286957162 
0.1403593559249823 
-0.5825129767191549 
0.927540933036328 
-0.03944889729276949 
-0.4035662972063079 
0.08969778169098051 
0.9265357483552089 
-0.3510568683280569 
1.533025899638196 
-0.3104471576570265 
-0.3734837051947083 
-0.0005082263861877958 
-0.09331550279812829 
-0.1908463300181978 
-0.3455571197220568 
-0.3800784733056372 
-0.3014185597185418 
0.02640842709208209 
-0.3704115281002248 
-0.3383094441663781 
-0.3250983183335792 
-0.09715288627991088 
-0.2522444198737825 
0.06935824332468322 
-0.238611932005507 
-0.1645182196466775 
0.6064780736290478 
0.1553622078581088 
0.120393056477895 
-1.054981154625066 
0.1518683040363744 
-0.3102174849297979 
0.2478380580127896 
-0.2537371742217054 
-0.04349879957264463 
-0.151603956035325 
-0.02091836134683301 
0.00721446560700531 
-0.1332141041789693 
-0.08280328556331805 
-0.3283133528734927 
-0.1766738848115791 
-0.01502755715952329 
0.7447927479358807 
0.1715243327273576 
0.0006791092771256607 
0.08378174073113044 
-0.1425637503434503 
0.3746108625274097 
0.3930456078433934 
0.7085191467088444 
-0.04154556046382399 
-0.1539304514166428 
-0.06944627843328714 
0.1551352794740027 
-0.3825758718810208 
-0.002085605113198095 
0.3269392595207226 
-0.2288978748527168 
0.4366002212059735 
-0.3961557081637482 
0.1660535410114149 
-0.2158661921049493 
-0.6151890596692248 
-0.6375552096378644 
0.3109170882368134 
0.2646963378416862 
1.035149109705702 
1.786555507540506 
-0.1361487726406526 
-0.1419487158361001 
-0.099282161782593 
0.1818000076430636 
-0.9644341787335221 
0.01695901498489705 
-0.4843769250628878 
0.6991356860839941 
-0.2267180250378447 
-0.4786504495389701 
-0.3139911756048216 
0.002695587879790593 
0.7152747694871952 
-0.05420616879229333 
0.3936665600517549 
-0.3670800851180938 
-0.1175407392714695 
-0.3934022205625243 
-0.3453788213669892 
-0.1539795798752254 
0.1015662858987291 
-0.2127508151159822 
-0.2558869578992665 
0.2570227876583302 
0.2637174422337218 
0.5973720974759135 
-0.1228892880426473 
-0.02351257994884842 
-0.5626108884998688 
-0.4962506576699322 
0.4147527700570464 
-0.1217866569712223 
-0.1443290693086144 
1.057574500233559 
0.01308612447679484 
0.0811918186336934 
-0.05944890700541675 
-0.3200309240161748 
-0.2633108364889712 
-0.1737495330346307 
-0.2462124746750713 
-0.3068871115534091 
1.333402401642078 
-0.2312121925163902 
-0.05281622234445543 
-0.1653252596648435 
0.4196829590767531 
-0.4058158825212258 
-0.3585160023648754 
-0.04050871458598036 
-0.5184257203151572 
-0.2976969620841877 
-0.4649252083325916 
-0.2556984457590303 
-0.06814036906612057 
-0.1789345396654721 
-0.03249092005863304 
-0.05409875862367364 
0.2846846777824584 
0.04192043020757576 
-0.01899382653105446 
-2.579331973219881 
-0.05388015525226454 
-0.06364493445864397 
0.03740229748356243 
-0.3372411644394376 
0.9174889997668123 
-0.2988888196949059 
-0.5489772684038664 
-0.1560582610687026 
-0.5013600355716907 
-0.01615573167050928 
-0.05005371089809815 
-0.8479258174689337 
-0.6081805597876861 
0.2718013158270788 
0.7198818562920508 
-0.09065058303498325 
-0.5305853039261202 
-0.7647977649752701 
-1.202557841516491 
-1.194419359746979 
0.3525711641108576 
-0.5443626305201373 
-0.1247872901909953 
-0.05672199498179262 
-0.3321903284943598 
-0.5611181577286267 
-0.1989926524593854 
-0.200220628934948 
0.2731601857034758 
-0.2778139135156734 
-0.2554561642825223 
-0.4905597949559185 
-0.3427995617874013 
0.2355864431001004 
-0.1747327911697585 
-0.9553057340873595 
0.04080006458840087 
0.4005360826745452 
-0.5301726872697128 
-0.4146576144104124 
0.0278421024395033 
-0.2156675602375439 
-0.2402097056112359 
-0.1993626125474063 
-0.5179817838459494 
-0.06500146058146071 
0.1935895967383729 
-0.2816561749999823 
-0.6121893079095285 
-0.5436928139405566 
-0.2996662195090576 
-0.0532654467495999 
-0.3057064043162455 
-0.4150404290370184 
0.6274485744652235 
-0.1633579736100516 
-0.1800550347775548 
1.133746928161342 
0.03295957248332469 
-0.3893648010476068 
-0.06640003695483764 
-0.107741408833573 
-0.3797819183714016 
-0.1296742424389873 
-0.2152658260814972 
-0.1535890665971963 
0.01429498307634671 
0.566573312531105 
0.1919584218932153 
0.009992876146927952 
-0.09773096499499986 
0.1471472357434943 
0.2138953466682201 
-0.3535563063961829 
-0.4270677755462293 
-0.2608974740154028 
-0.6259075661526562 
-0.278337722515271 
-0.1470436874025735 
-0.7295253780574419 
-0.2533149975117773 
-0.1672877390528882 
0.1816212709488526 
0.08224440379470624 
-0.1169570316537321 
-0.2396196897880707 
-0.4764503182827704 
-0.9433297769415131 
-0.3125530919446171 
-0.07098137433924333 
-0.04782084799391145 
-0.2543730455072443 
-0.3682426762661283 
1.550276186158756 
-0.1641482132970493 
0.2308878737371632 
-0.4421662745613973 
-0.08198782326264101 
-0.0857571474783009 
-0.2429173868215231 
0.5588729143533597 
-0.1495572666004217 
-0.5137819468255865 
0.5604073671459439 
-0.2317225132175861 
-0.5808740103119988 
-0.0605180656486196 
-0.1839592590962855 
-0.3212867459031381 
-0.2366610834389082 
-0.4878443904528945 
-0.1605266374680567 
-0.2874970518574811 
-0.06066024685717079 
-0.1261510719213946 
0.8641284403512817 
-0.1573258662399433 
0.2261634822550784 
-0.4365596290925688 
-0.219131998158354 
-0.1476932277258067 
-0.1545947350916974 
0.6828611980718911 
-0.1135477667591522 
-1.297786842614658 
0.02422789885924261 
0.07027798717880034 
-0.07009544416268773 
0.270725297687009 
-0.1747671865949507 
-0.1596023870466475 
0.05263087556928425 
0.7931120896167929 
0.03447696861259613 
-1.147702548216748 
-0.9259267206573533 
-0.2054440856235382 
-0.5377878928557683 
-0.3524007837385275 
-0.03948284118954855 
-0.2997952463099686 
-0.1465295789516529 
-0.2177522724829511 
-0.3343637277927979 
-0.2760270015655138 
-0.02322705013318112 
0.09967364843680172 
-0.1536226170157323 
0.2690168291534746 
-0.3038823744287441 
-0.2254076390613003 
-0.3410931169571455 
0.1595584316916958 
-0.7083308465721884 
-0.1616345943418491 
-0.3012637138725562 
-0.2003050546756116 
-0.2040262870806279 
-0.736320874050252 
-0.4023519073851702 
-0.02082954114843995 
0.09519576324406395 
0.05181231236478515 
0.8338108661705799 
-1.177008977664013 
0.224129313329386 
0.5654256882198077 
-0.1412042613644253 
-0.2295649470371325 
0.04092802413027639 
-0.0519338135504582 
-0.2302393494368668 
0.04172633943640681 
0.465275662727503 
0.03625197748119735 
-0.2449102573712301 
0.04186434881722743 
0.5643582655359449 
-0.2501010005424819 
-0.7381840707577183 
0.2345425778322465 
-0.319766406596812 
-0.0002229707597927258 
