solver_type L2R_L2LOSS_SVC
nr_class 2
label 1 -1
nr_feature 512
bias -1
w
-0.08313123015609217 
0.1158202744445302 
0.3782668492999722 
0.02033895693803636 
0.3095745593113541 
-0.09463099310128111 
-0.2801044077595444 
0.2334688650554599 
-0.2243871693382996 
0.2349640160040035 
-1.158632287574599 
-0.443538888612103 
1.530006595069463 
-0.4588829353511499 
0.2738156452009414 
0.493084621773926 
-0.624762926829649 
0.4959050068068915 
-0.3641416853223912 
-0.4811812737433979 
0.4550776491040593 
-0.4720480538664085 
0.1057469863732174 
-0.0288995758365875 
1.32048179593463 
-0.5075445608816493 
0.6180213196893155 
-0.5183963143253112 
-0.6135070881950561 
-0.3569445110048649 
-0.4261978170762546 
-0.4233406577610831 
-0.1536820122020301 
0.234699087298231 
-0.1446060506617753 
-0.3068189165959096 
-0.3796458462950533 
-0.511477061316719 
-0.2341444870758649 
0.1137084158055746 
-0.3372461824204905 
-0.01311394062257433 
-0.04455760541966687 
-0.1372506095919661 
0.1056167450748221 
-0.1760702155247461 
-0.163121119506474 
-0.1777489022813245 
-0.4919984370889091 
0.2677600265804546 
0.01417246998866659 
-0.323705963592622 
-0.0563697620771175 
0.5021056453474413 
-0.04109452772518045 
-0.8206759308919856 
-0.52397771144817 
-0.03253641495617509 
-0.2025653597960833 
-0.06198888094705945 
-1.394149143157213 
0.4479516545145423 
0.2077716044656258 
0.2241596612666452 
-0.6044600138764001 
-0.6564515589898495 
-0.5550167227046061 
-0.5167649344056711 
-1.223759351955882 
-0.1725624227093266 
-0.09342384569089757 
0.9431175411727298 
-0.08764208236415734 
-0.01251792021818067 
-0.04564556481396242 
0.5218884641608412 
-0.386143740418042 
0.9205029878086097 
-0.0006599752449400567 
0.2285247169199745 
1.631544516297081 
0.3770531620080189 
-0.3923124974347877 
-0.4594024696179014 
0.5148522441636884 
0.3224405947566714 
-0.510731968448227 
-0.1246362558146705 
-0.4862069813558307 
-0.3175274718698732 
-1.057812614521751 
-0.1598747428716755 
0.0711493494052491 
-0.4224227403414128 
-0.4372989167561669 
-0.03691359010183826 
-0.337800501803214 
-0.07348629955342392 
-0.09171956480904357 
0.1971217742551703 
0.128657713104002 
-0.01274918270496677 
-0.06161638335875649 
0.04932518212406768 
-0.3659812560956591 
-0.05523498409292463 
-0.2677945140356195 
-0.1308795487522983 
-0.07892923503388269 
0.7020047734271201 
-0.6410588518708052 
0.5800798000688114 
-0.7680588217940112 
-0.1455981189121924 
-0.3499453071188349 
-0.5785503977837757 
0.2694305721566842 
1.134730812259049 
-0.5534706877054584 
-0.1926102766047386 
1.39507701705966 
0.1682209475470546 
0.810515925780086 
0.1229389776139255 
-0.5972453513592276 
-0.09353595940514009 
-0.6924187485475085 
0.2328618174133637 
0.1570400347428958 
-0.5132134076325485 
-0.4423513681466026 
-0.3055005690907349 
0.6541612024898037 
-0.6231050756453536 
-0.203439578924314 
-0.323437194436988 
-0.3320372439481675 
-0.3331219164424568 
-0.2589552985447651 
0.4905394539926582 
-0.3892648538749136 
0.7184572791927503 
-0.07385203165467306 
-0.08570931373109497 
0.134009798608294 
-0.3645956958369952 
0.2540639560983379 
-0.04219605135156546 
-0.1432600022841722 
0.145091573761252 
-0.9132924353132758 
-0.2785582920551821 
0.2867287272809838 
0.6888282981890338 
0.03060094713000724 
-0.2492303433243785 
0.4064736866339648 
0.01893704201207747 
-0.5178441234630166 
-0.5043009405603343 
-0.5006677939699298 
0.1090773075916977 
-0.4418845742157515 
0.947935057057666 
-0.1873397287562024 
-1.018836439199642 
0.3413498450645356 
0.427582800427586 
0.6282345663170397 
0.2482995492474721 
-0.0489455729295493 
-0.459033000959834 
-0.4273241707114174 
-0.274719713041501 
-0.1749354820647148 
0.3948318117308491 
-0.4317661355599542 
0.4354785922511428 
-0.1940080306283502 
-1.102115341097557 
-0.1744151946290989 
-0.4019409300757394 
0.08780723798856205 
-0.7796034946250266 
0.2011217763014436 
-0.9960604673629623 
-0.2963220044651297 
-0.8041813734027896 
-0.09960385708272033 
-0.1604933682876876 
-0.3312005579518708 
-0.1790440005854838 
-0.2242964088487948 
0.9411434028999237 
0.06650769160092607 
-0.2431912609112687 
-0.1476931960781896 
0.6043523394758326 
-0.9614866554239961 
-0.3978168513129593 
-0.1996877572869294 
0.8017345560921134 
-0.5668607510776422 
0.03233561143343863 
-0.4614316954277998 
-0.002588287363708364 
-0.5330272747651945 
-0.2080597904095111 
-0.2056579725780197 
-0.5030258914669352 
-0.06145286446839626 
-0.220929530653689 
-0.5656731082512957 
-0.4002563524562181 
0.1527308149774072 
0.4501292464116693 
-0.1349813169228004 
-0.3371518387281017 
-0.361459082418101 
-0.4453245554938929 
-0.2781851315829634 
0.07669665708898031 
-0.7522489957019057 
-0.2437228766518428 
-0.1584373311252412 
-0.394931642638815 
0.8793954538820632 
-0.6400375950542289 
0.2793985606142521 
0.05830208751401294 
0.152668840828003 
0.7198881058964781 
-0.3076701886323095 
-0.009495141866932993 
0.05195934590485405 
0.3673379554263482 
-0.3071866773659546 
0.2863032888121561 
-0.1724676591607453 
-0.3251919813286862 
-0.1617923192702208 
-0.2568548789637368 
0.1704233338913732 
-0.4875610757604435 
0.4458584186165731 
-0.2377307437482994 
0.2140670679856658 
-0.2030271250516923 
-0.8277006879476237 
0.4641970060288697 
-0.3637345406303847 
0.6201608511061928 
-0.5135673315103774 
-0.4482574887477614 
-0.4930096851784267 
0.6805545445829809 
-0.4189093362060152 
0.271069319440523 
-0.9295298591605741 
-0.1751721546320097 
0.5571995424551691 
0.1813048407494688 
-0.8003550502968287 
-0.4335024566187113 
-0.4622969787844748 
-0.3950068860348399 
0.02056767394076725 
0.1463523526547277 
0.02892905713656261 
0.1070255862235982 
0.2152524783329637 
-0.7982391971711458 
0.8335556456422576 
0.7963811953817911 
0.9035353163629305 
0.1281364285839995 
-0.6051681664468348 
-0.3501769542492761 
-0.1386515691702831 
-0.222388040902042 
0.8511358773254498 
-0.02616527590041822 
0.6158484741933854 
-0.4502651566683987 
0.7248059745310493 
-0.5350158171973958 
0.09686266290356649 
-0.1307214501364375 
-0.4678902329088467 
-0.2070068410453055 
-0.0009309510781836264 
0.9842744618674268 
-0.3017286926271567 
-0.2821032683076388 
-0.510401104985047 
-0.1403512014934993 
-0.1056352347333955 
-0.9182658933113591 
-0.3187259059371671 
-0.4062042854745623 
-0.6123903976908707 
-0.272161015712765 
-0.1714976333292608 
-0.09211394366402105 
-0.3071870215546064 
0.2443510811093689 
-0.04875338630745928 
-0.06184829689966251 
-0.08045575811432473 
-0.5337555119078703 
-0.4004158901266092 
-0.2396572753316703 
-0.3699651472429771 
0.003667073273014173 
-0.4445455058022333 
0.2170902193940428 
0.7176548334424363 
-0.2415773280648144 
-0.4852592546483576 
0.3229741638695226 
1.65290637759042 
0.1984665341251538 
0.04513626659606601 
-0.3892378379954223 
-0.4444611181247 
-0.4079985961631308 
-0.1282868530604774 
-0.03618800854690383 
-1.457674177103319 
-0.08333031765163317 
0.4195320191398185 
-0.1591562850867481 
0.2449835762910131 
-0.2059895914652014 
-0.8382232841933434 
-0.8612480867492737 
1.052429102072576 
0.3867540042457308 
0.6323323241226729 
0.5026119534794071 
-0.111516627917907 
-0.9002558566725972 
0.09698616705984396 
-0.4113839175101187 
0.3199778298984512 
-1.056204153063311 
0.1445903246248932 
-0.1726001799895738 
0.3420950663672191 
-0.3018649370128321 
-0.962501767204146 
0.5580906206364805 
0.3448294044136442 
-0.2491618343139008 
-0.8119546535362993 
0.3070769008374186 
-0.3044591969972883 
0.007807378836166034 
0.0381166970094273 
1.235953583321101 
1.118849546611266 
0.1185325718258301 
0.5283104439823929 
0.04926030606007956 
-0.4108766399185805 
0.645064403509588 
-0.01509050992991815 
-0.0369215427659663 
-0.5059965039855246 
1.222711255910208 
0.09928091795005188 
-0.5837362795812829 
-0.30869949989897 
-0.5038311276468284 
0.3982154334914604 
-0.4575012120742058 
0.1645810954733755 
-0.3000212866179101 
-0.7587636281013305 
0.1063020251521403 
0.7471405217158794 
0.6898581466424805 
-0.03502753146221283 
-0.3745056008208222 
-0.3414186313714481 
-0.02302713979518941 
1.328856706911933 
1.419132173470904 
-0.2599350290944037 
0.0998525855507405 
-0.3454471539340948 
0.6036815136283294 
0.8279323062751266 
0.3537655742360948 
0.2743850447406149 
-0.2626128139341789 
-0.5404464718846091 
-0.007414225921920491 
0.2700064314875978 
-0.1176169389947816 
-0.4193981410884791 
-0.05544135616595468 
-0.3970655532422883 
1.114632064730626 
-0.5314918930561255 
0.8950973304342327 
-0.2646354105025442 
0.1877932718087748 
0.4792472240932049 
0.03592579112538144 
0.08811440275875536 
-0.4480262819925894 
-0.6689704037951332 
-0.3403023286902998 
0.02094147429533044 
-0.532479625017152 
-0.04744953065927018 
-0.4694108113489162 
-0.1850292059716351 
0.09227256740408864 
-0.5329769023690873 
-0.5822644980129675 
0.7247866920959608 
0.5828053477103504 
-0.3033620702040942 
0.0656938234721513 
-0.4632903497887395 
0.2724694757235398 
-0.1661380035963763 
0.2662041172923014 
0.621584316140173 
1.02332123766552 
-0.2522875074521903 
0.4918578314085879 
0.785278493210862 
0.4322620461881365 
-0.2202154044492944 
-0.5296603869623088 
0.4810476655561273 
-0.2912834707641352 
0.105492600045786 
0.8350264238700299 
0.1699681297399629 
1.094368660449083 
0.2757839639407257 
0.1201392449638125 
-0.3256478328266946 
-0.1272586477892368 
-0.2113780456440182 
0.8391981874135381 
-1.040917864003281 
-0.3991595435906378 
0.1559747678285346 
-0.2796338771990898 
0.5327029503045547 
-0.2533902345707086 
0.6171182866498811 
-0.3428557519270576 
-0.0831766398953861 
-0.002262056154324764 
0.2144873352383447 
0.158683795375776 
-0.1533331048436306 
-0.3653357934197823 
-1.002654436023251 
-0.03432395192970109 
-0.4194177742016169 
-0.6479044624941719 
-0.132808067252276 
-0.1650271327272441 
-0.1843028552435731 
-0.02825758934147032 
-0.3856383322552324 
-0.1714918125903957 
0.3760768197261642 
-0.1184428809697723 
0.02673228376613866 
0.07167459836824105 
0.9630658925114229 
-0.392673011951188 
-0.105894148864154 
-0.1592245658757287 
-0.2343036567981392 
-0.3373078962064015 
-0.2059213207813279 
-0.5105590295534673 
0.2677975164194724 
-0.7626482473250624 
-0.423010178155402 
0.1937671197269736 
-0.3194056246304556 
-0.3795536811746066 
0.28290148940423 
-1.218895173751141 
-0.1395587306178123 
1.251860320374336 
0.001038644502801444 
0.08035103900614778 
0.07711098066955026 
-0.457605651675026 
-0.6108675700803338 
-0.9665507913484763 
-0.09164130644981984 
0.2663414908034775 
-0.1521804827180178 
-0.1855370248215039 
1.447862179912397 
0.604761817354351 
0.08768626655122209 
-0.06191217595222486 
-0.3416858631972405 
0.5103434432719353 
