solver_type L2R_L2LOSS_SVC
nr_class 2
label 1 -1
nr_feature 512
bias -1
w
-0.104390172642497 
-0.9753408082896355 
-0.3153596002338811 
-0.2735655352167106 
1.534804994291988 
0.1905013462373548 
-0.2303087547968864 
-0.160176196884831 
0.1013625267504566 
-0.147927594609169 
-0.629545560219097 
-0.1208233184265602 
-0.5694881390878923 
0.1796022996446472 
0.1587647144222929 
-0.771745949912101 
-0.0612345082721585 
0.2068778178758788 
-0.3788949922825797 
-0.252393402728084 
-0.05817939475724346 
-0.05787765366561907 
-0.2223424753474521 
0.9475282183525635 
-0.7496159302762055 
0.05155483754989185 
0.1076561996878956 
-0.2963001483764053 
-0.7731799657560562 
-0.1112086638670367 
-0.3355721589572427 
0.278943940490922 
-0.1214357220743864 
0.7511495290593834 
-0.331819346636384 
-0.7712398177934606 
-0.1428336101128815 
-0.3874944062643339 
-0.5257726654609578 
-0.1018210046144739 
-0.3512351654722977 
-0.4235220752761383 
-0.6432629750623723 
-0.1003578727749916 
-0.2100345182546332 
0.2153658264004014 
0.2721838577964774 
-0.2772582900565399 
-0.2878395456599758 
-0.1303010656707888 
0.9279922708224363 
0.01887377587474432 
-0.5389147531053563 
-0.6061967821330146 
-0.08501832057863312 
-0.3888386653438053 
1.279714339421342 
-0.3268108607492798 
0.04775602390072223 
-0.09339710634469191 
1.536820637140509 
-0.06267794461504519 
-0.3023204528016928 
-0.1429180368200363 
-0.9389447244241131 
-0.3252187635715809 
-0.3153119366809899 
-0.1683716689998922 
0.02726987520555542 
-0.90657592366416 
-0.1009673557088832 
0.09888311558291624 
0.6508341546866493 
-0.188282909233029 
-0.4678918644846918 
-0.2066771351729064 
0.3584788558243305 
-0.1938135717021736 
-0.2414766938617391 
0.03224871782956244 
-0.407880931141562 
-0.01701503719897913 
0.5036067018007899 
-0.02486865941495396 
0.05955500615423645 
0.1942622702096823 
-0.1372573022869755 
-0.4506243061963927 
0.9335788747671512 
-0.3205006704791121 
-0.05407622375470771 
-0.08321742765628033 
-0.09717929364925114 
-0.3706546823192093 
-0.3115777173326766 
0.9315042426038107 
-0.159696064185131 
-0.1698263258578515 
-0.05343300305977909 
-0.091202628341225 
0.6193822683352009 
-0.3093188570027763 
-0.4267589652283488 
0.1377759383729361 
-0.6131431175827269 
0.9704593381770976 
-0.7190518466769542 
-0.1887584582117791 
-0.3162868581717552 
0.3964849184393807 
-1.033081821905875 
-0.2420808432843866 
0.09179677945615626 
-0.2289727367177503 
0.08408096630158415 
0.1409630716719321 
-0.1370117112824073 
0.02489450146959541 
-0.1816237685615255 
-0.2725946793865924 
0.2409470560007657 
0.1041680300418081 
-0.2751632112021664 
0.6877053374960528 
-0.6307683788423201 
-0.03908550762723615 
-1.037021653452146 
-0.1619317829942205 
-0.1863878455454214 
-0.6393898060741688 
-0.08578880103687936 
-0.3502974053757953 
0.3034504150399217 
-0.1960173777384979 
0.5034451264379077 
0.4139130831321221 
-0.182378665073255 
-0.1342761260623822 
-0.3659226876262591 
-0.5037738562799826 
0.4519414752298815 
-0.3273808729779673 
-0.07169166311572654 
0.3522979906838423 
0.6038026356038032 
-0.4225573502449518 
-0.1896399638594622 
-0.2530310175517603 
0.3641173237357321 
-0.06315352925244035 
-0.7945200625550978 
-0.03997902481121797 
-0.02252765016220139 
-0.4016393440382884 
-0.2639875432414636 
-0.2040861328251078 
-0.5902701917753755 
-0.1504788762529655 
0.1423892908216571 
0.2285851038163092 
-0.66391056580454 
0.165135470134833 
0.1175827096460217 
-0.1793096317378262 
0.1358659699679371 
-0.6309305274748533 
-0.2862622768099377 
-0.3198579607749988 
-0.2044485708445991 
0.02316735204913444 
0.1156109986011523 
-0.5773122548267396 
0.135517880666903 
0.08808465858939986 
0.1302070029832708 
-0.02130171112652925 
-1.298740976444015 
0.4984625437337172 
-0.1448183009245782 
-0.7160135787132964 
0.2838351928045593 
0.08333684951299322 
-0.4744092149370021 
-0.09061074573268357 
0.2989511757774759 
-0.1832449324523139 
0.03912353843556371 
-0.0764605659661894 
-0.4851365018538973 
0.4633867620616997 
0.2520168436112127 
-0.2218607684006162 
0.451885307946598 
0.05180681909145649 
-0.5425005966995633 
0.1637003702327949 
-1.547130697232992 
-0.0335253147290183 
-0.1609521148097323 
-0.4830416457053173 
-0.5480191166752878 
-0.1230905353369915 
-0.4294941891629974 
0.1265614946122829 
-0.3768046757661633 
-0.8962844124958302 
-0.5709774835243274 
-0.2447365942623193 
-0.03636288377099339 
-0.2324531684258131 
-0.3197396380415559 
-0.09430440515289062 
-0.07173797080241576 
-0.3194132191815368 
-0.1806504070030156 
-0.150693689480519 
-0.5665426148922875 
-0.1445322368006579 
-0.9272530800391705 
0.2488732533472034 
-0.2053279682736441 
0.06613746190512908 
-0.3093967863744257 
-0.2767510899012858 
0.1037041815056082 
-0.3546443328006926 
-0.1254838079413345 
-1.16301133978243 
0.03613459920095306 
-0.6179347663545731 
-0.3267367481662399 
-0.1894357541998024 
-0.3116584916916875 
0.01206131540795375 
-0.07962610086204223 
-0.2487755637372373 
-0.09535819799704598 
-0.1657101015591514 
-0.2586493680519376 
-0.1556153407498142 
-0.996992736214333 
-0.3175408925182459 
0.2413449765263533 
-0.2403956227515816 
-0.1329239423735844 
-0.3238952506607043 
-0.2039153355835802 
0.1626366561472224 
-0.2779345522062114 
-0.602274838183802 
-0.256841015393087 
-0.3197108219735074 
-0.28510706537046 
-0.2775251971412652 
-0.5813035733034876 
0.08596518417544309 
-0.2669361619658606 
0.2485222946021115 
-0.3125709040889712 
-0.08739908017532444 
-0.2202750663060593 
0.3816122769390592 
-1.000652421754955 
1.072112061088841 
-0.03435087375189332 
-0.13224858234316 
-0.2438988107810581 
-0.04472345716910511 
0.6539786001201509 
-0.2580256991385586 
1.909126792259547 
0.137261110479856 
-0.2112880177410021 
-0.2373779317843847 
-0.7167825482767358 
-0.2331402563098746 
-0.1449795360509362 
-0.2892134732224612 
-0.04076480668542542 
0.1750297247052875 
-0.3018325061021898 
-0.01158514984576069 
-0.1806829801916347 
-0.4072592544790501 
-0.06128229830123597 
-0.3874076140694833 
-0.1315808300414404 
0.3472888955382981 
-0.0491284364832945 
0.1365256955617316 
-0.1474133228225618 
-0.1388098235085915 
0.7125247229009182 
-0.2169063041772933 
-0.1160704969904121 
-0.3087706686469139 
0.7999825223053554 
-0.3368345108285126 
-0.2059743851965453 
-0.142380154401789 
0.01084665201220753 
-0.3188293296240348 
-0.2288778848385498 
0.1339352011380725 
-0.3682536588626329 
-0.4487014835379137 
-0.110787419365038 
-0.5326236403971419 
-0.4779436959151994 
1.361074664417834 
-0.06186603354385851 
-0.7576573835959652 
-0.4635768255178966 
-0.04878540456255135 
-0.4918325639383466 
0.5088952770985775 
0.3849725901157288 
-0.02118158984599417 
-0.02799081016475557 
-0.2051754703987955 
0.1799791290963997 
0.09465959397996437 
-0.1390378736189302 
-0.02631246738004417 
0.07911976799729285 
0.7716354327672371 
-0.284179825830517 
-0.4233643219121072 
-1.454229523055963 
0.4085904771259415 
-0.2930454703021531 
-0.1763124097417004 
0.05950159463386567 
0.5343225411593843 
-0.2838883227587838 
-0.1976145764674312 
-0.03436050362009763 
-0.1003866712641395 
0.2685357816403371 
0.0346439896669833 
-0.9526090292467313 
-0.972580005754747 
-0.3086516950365726 
-0.1080968784443826 
-0.01825134295187396 
-0.3163085097965666 
-1.039274569416784 
-0.7115751781719317 
-0.8531851265597457 
-0.311991262892464 
-0.582454557402051 
0.2064363993078334 
-0.422988459009238 
0.3983263269808386 
0.140924987258555 
-0.3208022499248905 
-0.2636180238188915 
0.07979296519437051 
0.7218243909918716 
-0.05073676038873371 
-0.6521036128814753 
-0.2063397110856554 
0.03337994934228226 
0.4879426383291655 
-1.384621883371334 
-0.1618494457879613 
-0.6268583931968055 
-0.7572093231897454 
0.2666767771906374 
0.5655594258038216 
0.7563945429553277 
0.0505818703201788 
-0.3165067646466059 
-0.1249521481028364 
-0.1821430579915115 
-0.1115499331047686 
0.2761138992566992 
-0.6387922965779014 
-0.7637844009299116 
0.1635066336649828 
-0.07218667791836181 
-0.01974764711777892 
-0.1386449419159529 
0.04796892693022434 
-0.1123506867028945 
-0.1282970587124124 
-0.1518233938153578 
-0.3523531316656728 
-0.4069015627516857 
-0.229557130417144 
-0.4174209589139318 
-0.5163464129385829 
0.3120538539044524 
0.3559237744877284 
-0.1427857542845211 
-0.4572237799208249 
-0.2266107856995716 
-0.7697663158233071 
-0.09285623737584112 
-0.1916791449230677 
-0.6745876025610957 
0.1743814064438964 
-0.4732671531750787 
-0.315806813911452 
-0.3259927520187939 
-0.3921202126166847 
-0.3263369370791371 
0.6116764903024394 
0.4981182860520026 
-0.3230697922286895 
-0.03518411026405984 
0.422027946306714 
-0.2703552332763353 
0.394561727378904 
-0.5814364437472698 
-0.53757092187733 
-0.8982123364861565 
-0.4934155706455739 
-0.193862472567722 
-0.0259110161080909 
-0.09832677478396479 
0.00688424435674454 
-0.3279335206772617 
0.1012225998293554 
-0.5943974279200658 
-0.3314243904782446 
-0.4318814096264221 
0.3695835856742551 
-0.03540441141122746 
-0.04238959768981542 
0.4411754636367703 
-0.2013179254205793 
-0.04773310368294222 
-0.2678005144366639 
-0.5114314026799557 
-0.03545199653186529 
-0.3173754371213493 
-0.7856209135476738 
-0.2803500391360763 
-0.08633710949447776 
-0.2157874137150586 
-0.1933544991757415 
-0.3352990762221069 
0.3326949203447985 
-0.2477885635315296 
1.104510741640469 
-0.2863564117707402 
-0.2102446896717565 
0.08645425158135224 
0.1319006873170815 
0.5307168737898761 
-0.2943046239474574 
0.251724539756772 
0.3510015507599018 
0.497838528930213 
0.5328279707097924 
-0.3544781446117221 
0.2103719156076876 
-0.1098961386184811 
-0.06343466117129469 
-0.2800451797451638 
0.009491926097465424 
-0.4570368150833112 
-1.052486380209303 
-1.511572206382739 
-0.1701586131340267 
-0.6194432463933033 
-0.263007234752701 
-0.3525229018938069 
-0.4287224240456171 
0.04532274454704877 
-0.1424524140823906 
-0.4083063221600002 
-0.4105225940943362 
0.356807879661301 
-0.185407413846154 
-0.7939089802070022 
0.411664133337911 
0.2252646035221126 
-0.1723597630050606 
0.2587586369792641 
-0.1467788359670906 
-0.474045125982706 
-0.3269633711607455 
-0.3569809626579987 
0.2011653563491084 
0.006108260960227185 
-0.5813853391600314 
-0.1737646170049545 
0.1471520472713508 
-0.05415664092913644 
0.4938933279268412 
-0.2021420070426018 
-0.9612870262281401 
-0.07127434872090006 
-0.2238031133727839 
-0.3846200841314484 
0.7444333167406421 
-0.301888682302536 
-0.4140896686833156 
0.3562765290737042 
-0.5422394157154925 
-0.1795562997640041 
-0.0847267067442799 
-0.1467984726104506 
-0.1403372620471244 
0.02051414844181801 
-0.4234918994455941 
0.7347080644789801 
-0.3607292695386635 
-0.1126958691391657 
0.2188289808764986 
