solver_type L2R_L2LOSS_SVC
nr_class 2
label 1 -1
nr_feature 512
bias -1
w
-0.3276993086749254 
-0.5115215346235542 
1.172653969082687 
0.1782085338740429 
1.310898109082856 
0.4408009744397288 
1.195404556035208 
-0.4507923705110629 
-0.7106123626054303 
-0.1669596687952804 
-1.658426914920599 
0.05522698679246991 
0.06231431124671578 
-0.2191595531199337 
-0.2281905063963335 
-0.8429101635255464 
-0.3638348135288563 
-0.3751264306155977 
-0.2169191841173508 
-0.1622609042862869 
-0.4421310574272987 
0.05882308390787502 
0.1488483565859466 
0.1041571494249518 
-0.7062638768382407 
0.2741435532380697 
0.0964672453631574 
-0.3766554208819781 
-0.7843426079047296 
-0.1683790020623752 
0.04446203301756409 
-0.4060939582467101 
-0.06246958911868766 
-0.3813173611157157 
0.5858056381959097 
0.05608568843740462 
-0.1274008846137706 
-0.547671829451978 
-0.2562179992282677 
-0.02169703243936408 
-0.1598760115595884 
0.2120981343191004 
0.04261184846864338 
-0.04725601044933897 
0.2721152034279017 
-0.174821690589807 
-0.005277141385419494 
-0.450318373132261 
0.341960137202392 
-0.5866873258755764 
-0.6420917896206114 
-0.1792483431594779 
-0.2617776093024388 
-0.207153499165082 
0.0153761355827931 
-0.2809710088837814 
0.3726955258479255 
-0.07831387956214017 
-0.4679169742663963 
-0.4520608153294213 
-0.4203245388693446 
-0.2747253146468099 
-0.2099084593961581 
0.1116105122221741 
-0.6923127890145984 
-0.456904395147345 
1.246046754954463 
0.136300542611672 
-0.8117614685339447 
1.164137919461401 
-0.09176828050292823 
-0.2110270277567845 
-0.3219349178619325 
0.1830533213490979 
-0.6883499006814774 
-0.2879252063746998 
-0.5441370740880592 
0.1537926894838707 
0.3813816197276303 
0.9984549450983139 
-0.6689940687335071 
0.7140374991356196 
-0.271290833836606 
-0.1805955159526623 
0.3894188301377852 
-0.1529491792195089 
0.02470668423903134 
-0.6087863403501752 
-0.4016682441687321 
-1.142444451808121 
-0.6530608215778632 
-0.3934497299117019 
0.2802690163939853 
-0.2999211780527301 
-0.8831730680833306 
0.07524919124407781 
-0.1558597978719584 
-0.2450807541423421 
0.116578662565527 
0.0567959232524677 
0.2737183135358179 
-0.311921698899122 
-0.1327668664186126 
-0.09202424058776543 
0.006231321567577993 
-0.09363054299890176 
-0.04472734870017379 
-0.3114333793399389 
-0.2464497542275415 
-0.420691475927524 
0.5101005327917819 
-0.2039633119036087 
0.3319286890504433 
1.275491235385465 
-0.1472848631659358 
-0.8863033302175886 
-0.2514410201812295 
0.5779368282111871 
-0.2164460530122359 
-0.1537637646753284 
-0.2900503562735333 
0.253194928599305 
-0.214038657527264 
-0.1752994882013729 
-0.349666225900875 
-0.1717604739377768 
0.3794347456788435 
-0.0638957512847922 
0.1915263685041222 
-0.9545190582215879 
0.672811498790026 
-0.1901886176353936 
0.04020764815459109 
0.0413771846087537 
-0.2754224580108994 
0.1280494998583175 
-0.1250057655220717 
-0.03026540987270341 
-0.2657206836053259 
-0.3056643097939272 
-0.1008847449904546 
-0.5258353131971127 
-0.1711213207968047 
-0.209607491627409 
-0.3894820105571093 
0.1068369866685799 
0.2497894595193723 
0.0653458631043121 
0.365888576273304 
-0.5442449157054099 
0.07429683311803324 
-0.06926992862565322 
-0.4459086810965543 
-0.328639444683531 
0.4722857445796752 
0.1173774573028434 
0.0821814452301594 
-0.7672591715105848 
-0.2977530478828999 
-0.299435202534614 
0.3079079330784896 
-0.1571452141198744 
-0.3099876108613891 
0.05571213407124408 
-0.2940436151450526 
-0.1357461990824131 
0.1698258103847582 
0.6653656523846563 
-0.2905188275807274 
0.1191542498603893 
-0.130750474919209 
-0.1073039452958361 
-0.3664409863741623 
-0.2573939908945693 
0.1364580206905625 
-0.3701195368868926 
-1.768428344392503 
-0.16156085566138 
0.3411676436236826 
-0.8304787584561296 
0.1052459407687029 
-0.1394573478970203 
-0.1587077288414914 
0.2971876042032003 
-0.7015315310509334 
-0.7013085710503587 
-0.1559278037064979 
0.7437131604834768 
-0.2476264901867068 
-0.0971627661947834 
0.1070097502715045 
-0.2254718379504497 
0.1991682221620108 
0.1854626529544949 
0.2266943497668273 
0.7530994769623222 
-0.2751379977629471 
-0.2552588463707687 
-0.1572119127248325 
0.6110676445622103 
-0.6653174827998385 
-0.2843038441789907 
-0.7118078380583684 
0.3102844402522024 
0.05805253907369405 
-0.5752414534645904 
-0.2738766712646911 
-0.4268941820439045 
0.9886840574054568 
1.01955725081384 
-0.2412901161278563 
-0.4391098892013555 
0.1361390181852104 
-0.5286769868055721 
0.1008141040192783 
-0.2608015138215557 
-0.4989711406756532 
-0.475471808568331 
-0.8597364906712397 
-0.3134172527234212 
-0.02716795675645953 
-0.1266360249899128 
-0.04250375159402686 
-0.06177236048747166 
0.2184050538922073 
-0.2915548052711055 
-0.3077410169082992 
-0.006274405433706078 
-0.2327228293242285 
0.1230875728970788 
0.915149702749372 
-0.1663988102270559 
-0.145552951291292 
0.4897673666031533 
0.0829510150242757 
-0.2051425504071215 
-0.4578181223709919 
-0.07145246391283853 
-0.1546491063471496 
-0.186408247509249 
-0.4124784047175025 
0.1189481886817498 
-0.05983417328001951 
-0.3638171148652655 
0.7225813243746902 
-0.1669420569984193 
-0.1702053994768186 
-0.2035865842926195 
-1.247503351441954 
-0.4168685017466406 
-0.1689081264387251 
0.162205294627338 
-0.2517154999851087 
-0.7019726277737648 
-0.02551973213932352 
-0.3109586137168494 
-0.1937149707313158 
-0.0308622640059175 
-0.08137389909060339 
1.163372632435181 
0.315753048477358 
-0.3693428179853551 
0.7145646797215485 
-0.4610759773852135 
-0.2667627893566553 
-0.05168443133790478 
-0.1958088980599524 
-0.471581793422609 
-0.07177500175330495 
0.2953223395237956 
0.1660855703047399 
-0.381481128911551 
-0.2690454958225846 
-0.575450106576281 
-0.3544303370679904 
0.296928460011926 
-0.4650929430698876 
0.9903069702699152 
-0.1179481213865596 
-0.2114374143462486 
-0.3578858930662188 
-0.1439387122089283 
-0.06252695702874454 
-0.5578493860590842 
-0.7359884098485147 
0.1252604729921202 
-0.1794554581100387 
-0.0761590350916527 
-0.5177977702139587 
-0.147502678521414 
0.2351563977776872 
-0.04033357235142196 
0.508787826954476 
-0.08917682868819776 
-0.02706422066778834 
-0.539743052003952 
-0.7574041421500992 
-0.9730913009483783 
0.5762702898394811 
-0.08306102210541223 
-0.4153438973435911 
-0.1160148237069913 
-0.4259777616189311 
-0.3043931686262296 
-0.5103683106234799 
0.3351256445407657 
-0.3179807724152098 
0.8314318888280698 
0.07523917774480446 
0.5673886040955798 
-0.01550360681563386 
-0.2985091925942245 
-0.04445638414545952 
-0.04006621387110593 
-0.9893026204560033 
-0.1395754081305485 
-0.4624970940391329 
-0.4287167044949582 
-0.00566304106591256 
0.5047065106308801 
-0.2764129134021148 
0.07322050804960087 
0.384078119173702 
0.5694833433414777 
0.03370774012065327 
1.189954363206904 
0.2950131788653073 
0.5715370642055121 
-0.2835374244788351 
-0.287297361305717 
0.8804201264242645 
2.111811214311785 
-0.0474899091148292 
0.6046547733687008 
-0.1108782925203856 
0.5622170789789959 
-0.2493541853964873 
-0.02129677431715573 
0.278425383727385 
-0.5224798078745387 
-0.2965351417372222 
-1.362843819489313 
-0.1131260477341116 
0.8876432222745878 
-0.399983678776994 
0.2499976100944258 
0.2453895929384316 
-0.0424562142833121 
-1.095699353605849 
-0.4485011592390368 
-0.4626363305350269 
-0.1507131886876578 
-0.8331095726413653 
-0.5223885222655473 
-1.764655576453709 
0.3036268039148518 
-0.2232746560314483 
0.07822278214410124 
-0.4969333324886682 
0.02613861446041984 
-0.4441467112329798 
0.5127681165412674 
0.2608076003745619 
-0.2196367869946932 
-0.6728268678964144 
0.0715461126330818 
-0.7406122523146172 
-0.513224652582251 
-0.08892549056272167 
-0.1107245452668373 
-0.2333904278377382 
0.1648710733404486 
0.199091929097838 
-0.2166416589426545 
-0.7197824228082517 
-0.08723692120934118 
-0.4556983891098222 
0.18068347210814 
-0.7129776755288414 
0.1985194527633497 
-0.07766242245877848 
-0.1929024455733978 
-0.5864044532072338 
-0.2871277859665419 
-0.05736095109715152 
1.112497913747776 
0.2163058810547104 
0.2700090489761319 
-0.08320179596139939 
-0.2352805539219751 
0.1544791260989369 
-0.6196480871112041 
0.3087283493880289 
-0.1126688489223238 
0.0897901535022714 
0.1197573453400048 
0.225086795614458 
-1.147671708498534 
0.03025613401379943 
0.01339704576564879 
-0.2558890687736426 
0.3821433119030068 
0.3368884803824343 
-0.3709035955703754 
0.05208797216158567 
-0.2955430344169349 
-0.2240980112819393 
1.182947843458872 
0.1648019708554487 
0.1195778851011114 
-0.3733169754960803 
-0.3575365517554258 
-0.5032875863608193 
-0.3347298336811334 
-0.02438500731571215 
-0.7442685158172825 
-1.140577794318128 
0.7460280975585513 
-0.2700675624155895 
-0.2775274219859598 
-0.6109793941084839 
-0.5154637481572264 
-0.04379839369137849 
-0.06128003198967673 
0.5313556704907658 
0.1644054645687797 
-0.607046326659033 
-0.09453108955735372 
-0.1052721998779994 
0.41795562960311 
-0.2444964771751257 
-0.261971579334378 
0.6429291385241944 
-0.0533006285227759 
-0.1386588098088497 
-0.9788539907417482 
1.111182630929008 
-0.6631930003707684 
-0.02959335009997214 
0.1895742045202361 
-0.2549346051430276 
0.4008088909392743 
-0.09742124228367 
-0.0005353151512307794 
1.393811162821108 
0.4920016240857868 
0.3525892572967567 
0.1517915520166385 
0.2457506820087698 
0.4766590795365951 
-1.390689270019704 
-0.4384741362795608 
0.1091322809978282 
-0.2677056866146766 
-0.0271420136381121 
-0.2797160108199573 
0.3471568212636468 
-1.035651911854503 
0.1242191009309249 
-0.2121884195081257 
0.1970395607479191 
-0.06889794808541494 
-0.1778082706653269 
-0.2150825662232221 
-0.9142589754038334 
-0.1874531044422075 
-0.4327794510199428 
0.4629909538083163 
2.967206806873722 
-0.3257622033617027 
-0.1071434995472789 
0.4925434064779678 
-0.750430381145231 
0.04694743765399586 
-0.316008646292976 
-0.1589160720572844 
-0.5170371046981973 
-0.1233855593261286 
-0.2548956987406391 
-0.2128441022023268 
0.1756976901930537 
-0.1861217068572461 
-0.9525808957244758 
0.1448948198149762 
0.2691789151533262 
-0.4652468146716162 
0.1413707751428538 
-0.451418716825556 
-0.6394270677277356 
0.06509346247387776 
-0.2422534706607087 
-0.01839193174760791 
0.4773939326073499 
-0.7952584306246361 
0.1446715294205672 
0.1183794161642813 
0.02703227683829298 
0.1456777904566689 
-0.4547657782869013 
-0.01190136771971785 
-0.3130943754229177 
0.3661808397284427 
0.179341582681081 
-0.08176450479121702 
0.3113004177216279 
-0.3528779930975766 
-0.7556839234839072 
-0.3199831628859916 
-0.7725103429901338 
-0.3533203265603626 
1.324940702702508 
-0.2861337712704822 
