solver_type L2R_L2LOSS_SVC
nr_class 2
label 1 -1
nr_feature 512
bias -1
w
-0.1882441650632742 
0.5448687229138351 
-0.3913572826509735 
0.008533123956474752 
-0.2087101495011114 
-0.6179485468018615 
-0.06602947137372681 
-0.0729499228831999 
-0.3253675529972654 
-0.07916165157537799 
0.1677332109510622 
-0.3052541160394487 
0.1423999086204314 
0.3569193936692814 
-0.108345653771339 
-0.09265157778841507 
0.1153907975708568 
-0.1288713286444595 
0.5044420150301144 
0.2999833638456715 
0.2173032065983952 
0.3859416684556111 
-0.6595633041559791 
-1.131090068431979 
0.03286957306420059 
-0.2072392466688543 
-0.1627569442618009 
-0.2952538909880276 
-0.5712921590495985 
0.03505895022578872 
-0.9426001354318562 
1.351343612005681 
0.6176308914219532 
-0.454596064063126 
-0.1164808583361106 
0.1385946498512487 
0.1539792424671831 
-0.281245217946158 
0.5666105198342251 
-0.08609619134386133 
-0.109512469360274 
-0.4020209927448585 
-0.5944908853452378 
0.09076513663861926 
-0.2087551104648389 
-0.4412223042595925 
0.05641506213783698 
0.2943722078345366 
0.5744521041708329 
0.01116845875486319 
0.6627853781370107 
0.1353713309959284 
-0.9098398131885653 
-0.2836264076613794 
0.1925784894642002 
-0.2912242964408994 
-1.687856628563236 
-0.08587682673654203 
-0.5354642870091987 
-0.2406064900595209 
-1.275303201009728 
0.1432981872636036 
0.8764339122260217 
-0.06966350167138849 
-0.3764422260619905 
0.4489977952094446 
-0.4225569391577153 
0.402949428281162 
-0.9146056667291621 
-0.07504816430951407 
-0.1407427227023298 
0.2281652455225172 
-0.110741353098002 
-0.4141869479535342 
1.069128287700621 
0.3072147837495018 
-0.1825562232262506 
0.2344266656682728 
0.5713017118856063 
-0.1031044226753517 
-0.6378352581239204 
-0.2221297363842265 
-0.1335714506215016 
-0.3652605368726364 
-0.2534164652429312 
0.4125630186064784 
-0.2161267714090545 
-0.04277663543875831 
0.1768272475554972 
-0.01364064657039027 
-1.001235172770173 
-0.2756698298548798 
-0.2389974629712359 
-0.4627590321599914 
-0.09298801678748819 
0.007684265761788282 
-0.1434661018764241 
-0.04135584399555848 
0.003736222240235471 
0.003739800622495362 
0.2384381957439848 
-0.1087662983469383 
0.02597437044318465 
-0.1221808987547613 
-0.7433972391381103 
-0.2587335155816149 
0.007796676986394645 
0.116053168500632 
-0.008604363011954275 
0.393641486297601 
-0.2961451030778369 
0.3972249677624459 
-0.2492441886958009 
-0.07445700177113269 
0.6137391932296214 
-0.1659972176828931 
-0.09279614936437053 
-0.3069595465712469 
1.149611642817524 
-0.2686036424255346 
-0.1629054165155953 
-0.04765575929545795 
0.3932540919380675 
1.502360912655982 
-0.0127032664402453 
-0.139871570969106 
-0.9805166879492386 
0.004476800851987617 
-0.1460440625699145 
-0.3690159905995343 
0.1021492530377555 
-0.2644932330071609 
-0.2494418742168661 
0.2467237492378005 
-0.08533280653052934 
-0.3846982237547532 
0.4307059771312156 
-0.1531055880953246 
-0.01235097728397498 
0.07859308631207727 
0.5658781385178209 
-0.1888461220788982 
-0.2403155105485043 
-0.1667378234731997 
-0.2978281567544037 
0.2708836970818682 
0.04993798003195685 
-0.1589859026224524 
-0.1207688401587961 
-0.2251384299718887 
-0.9907321739470059 
-0.2699582425144694 
-0.06252914023180944 
0.06600334566404251 
-0.3723214441699297 
0.4209039797411288 
-0.5822675695077627 
-0.2910586516694803 
-0.2586553172686697 
0.05591932816967948 
0.2152756133525206 
0.1046881260405332 
0.1344418323852612 
-0.02717448805370209 
0.1993283109992772 
1.473600236005248 
-0.08306889126275088 
-0.1773704363258299 
-0.3493934548670702 
-0.06630836229093044 
-0.3639724575699005 
0.2103938182960136 
-0.2512059581950316 
-0.1568308163049595 
-0.1723084269253839 
-0.4099607370283877 
0.02920151444127958 
-0.06177672467222794 
-0.1224039693091296 
-0.002270959130065663 
-0.1710644804609573 
-0.2424332937704196 
-0.4829354979790386 
-0.5471887704775864 
0.01906968763581425 
-0.1957277580498579 
-0.02703706047674732 
-0.6842910340971849 
-0.004636579751167524 
-0.1287612972308556 
-0.4222383967864122 
-0.3093707559175399 
-0.2937484208440227 
-0.3682421500304382 
-0.5773058202687122 
-0.1190381725316693 
-0.8589887589583139 
0.009678350552788715 
-1.023335629225537 
-0.5687823953971907 
0.4639170712787179 
0.06143396532685155 
-0.1444128561572005 
-0.03026130771590087 
-0.2971456875197276 
-0.4277679056713507 
0.274654613868078 
-0.4124224049255222 
-0.4003988541323599 
0.0649754796986553 
0.9779693859263314 
-0.08640101397957008 
0.1955814524092859 
0.2308496305191049 
-0.08830508217641378 
0.2724100711447658 
0.8139741923771834 
-0.1327717418129498 
-0.2720301718324538 
-0.2235195368520128 
-0.152879900118146 
-0.005917106210782042 
-0.04119299226039973 
-0.1784996360669891 
-0.2449812802849742 
-0.3189493728961645 
0.1776366907329756 
-0.392040220079418 
0.6586602968569683 
0.5192831187736681 
-0.5253658122259354 
0.02434736498412339 
0.008617789727026764 
0.09258114415938566 
-0.1039522598447801 
-0.0776637275984525 
0.2980099233176138 
-0.07562606130575965 
-0.03235261231211205 
0.06967469018426009 
-0.4449499514960246 
0.1053953256194604 
-0.1261413823042393 
0.2071288117050767 
0.8170949682172561 
-0.2453913454867542 
-0.4565455757121311 
-0.175536403271354 
-0.3160963911112567 
-0.3023714555272943 
0.8290049929865251 
-0.2989330099294243 
0.06056798934573529 
-0.2421634689579449 
0.04100574818869555 
-0.1799646927424354 
0.9430470182452456 
-0.3241163837797087 
-0.3649118485506631 
-0.6650435788610277 
-0.2174700075698346 
-0.06649608300768219 
-0.8079530270754761 
-0.1114350408862743 
-0.2313961961511479 
-0.01802055811984203 
-0.2944733709358656 
-0.1368950447283052 
-0.1557430782634862 
-0.1933676098066258 
0.7733611786227391 
-0.1501563473088662 
-0.2235208702069272 
1.005813421161164 
-0.1424379598275855 
-0.1809497809847811 
-0.2027334940787232 
-0.5405966717083225 
1.253295224391329 
0.5807692159930159 
-0.2425762284543228 
-0.287671405422753 
-0.2643660522220142 
-0.3112412683378475 
-0.5379110822970424 
-0.2826629159843408 
1.224078320134119 
-0.1458925038296245 
0.02732677827637642 
-0.1537947762548884 
0.4385603843754504 
-0.3250623270348378 
0.07316105957711473 
-0.190751963240309 
-0.129901034373212 
-0.2327028458831409 
-0.01287465374668778 
0.08537993646854586 
-0.3553505150515261 
-0.1459148353166254 
-0.5128925861968098 
1.102186411413538 
-0.1460709914869667 
-0.09805510672368838 
-0.3911101739517023 
-0.3299551534343966 
-0.2122017134786225 
-0.472720589670784 
-0.3321523234690927 
-0.1557072292135682 
-0.1399018292965453 
-0.4850427908828052 
0.132977873430768 
-0.1926858287283639 
-0.5124316132905874 
-0.3233897495821211 
1.218644032267993 
-0.1022592585989018 
0.2757043726936078 
-0.5571311331071905 
-0.1197901552413604 
-0.1595325683267576 
0.7724383970285549 
0.04702266083075083 
-0.2986963725742139 
-0.3174418423651044 
-0.1251687727841208 
-0.5449819099169573 
-1.361044195091828 
0.03790922841469329 
0.5902540850396852 
-0.2092616235837677 
-0.241997622589962 
-0.3335519819113065 
-0.154806050014202 
-0.534631019099199 
-0.05558940945981028 
0.4489512810787429 
0.2177307697332231 
0.4242007765627793 
-0.6504557797295294 
-0.2912149694910161 
-0.09617634055394474 
-0.105662030623974 
0.02880708576617737 
-0.3485457191829763 
0.7991773437020856 
-1.088636610798196 
-1.337841664780996 
-0.5543091967531767 
-0.2647706578342479 
-0.1965688293163853 
0.07634498330101065 
0.00362275609895846 
-0.7618852545147855 
-0.3026849601891184 
0.1601827901934657 
-0.06552062488926866 
-0.1018719802725608 
0.1347060965439694 
-0.09581954075495877 
0.7826428174132019 
-0.15641522306801 
1.685984357325661 
-0.9352350233399565 
0.007197607491367823 
-0.6962682986047776 
0.02760245138071521 
-0.4382238086304511 
-0.180529061117219 
-0.1777299884091887 
0.6900197469861749 
-0.4108521546847162 
-0.01961244408650378 
-0.6359163273808911 
0.0562971534345582 
-0.3143715194477398 
-0.6430078999703414 
-0.4506124684904709 
1.793371223425843 
-0.3099339653364627 
-0.2230616948028754 
-0.1633756184307998 
0.0581633437493255 
-0.3180481390743326 
0.04578088690606727 
-0.153630643763162 
-0.1731053740428201 
0.2408936024994111 
0.9902260835237344 
-0.288036413400888 
-0.4867231758402024 
-0.1392935901385362 
-0.2179115139763811 
0.2909866281452534 
-0.2560920364446906 
-0.2586948881708124 
-1.185507562202226 
-0.09924229966374477 
0.2292217155127043 
-0.3311338780654371 
-0.1802640754639503 
-0.5048956934340482 
0.3737154190308447 
-0.4267451509781737 
0.2290009818321209 
-0.3293142270865702 
0.1376576245118943 
-0.698449667842458 
-0.2886212977383174 
0.7580053757862972 
-0.365295714997412 
-0.02183160838335332 
0.0388513365097604 
-0.7254968984847762 
0.2711470858302957 
-0.8576400007871527 
-0.3789443034859868 
0.2729846580285747 
-0.2696972456739917 
-0.04227396954598346 
-1.198423540420227 
-0.2503214357095868 
0.4765594292124419 
-0.4861173060809295 
-0.4402398062195926 
-0.2172079708517385 
0.1092569322816254 
-0.2729901478032505 
0.2397943961676883 
-0.2217689791495383 
-0.9315263999806859 
0.2616111802131554 
0.1648768083980036 
-0.4725305984103922 
1.095593439058814 
-0.2510349556267331 
-0.8377853797728234 
0.3512248736103676 
-0.3316295937730458 
-0.1703712620042294 
0.001659967338541687 
-0.2201469500676198 
0.3832426406402156 
1.763399026735356 
-0.4694274087383057 
0.1129997102996513 
-0.1873538405125234 
-0.2937042973396961 
-0.1665409538378084 
-0.5125607480011137 
0.05160050704776221 
-0.3039237817024597 
0.4726202218510003 
0.1373158130886578 
0.5290339449413408 
-0.3492889036784161 
0.1878924366317025 
-0.3139839753699439 
0.2660052796099762 
0.199000152691036 
0.6637487503499155 
-0.1460156026711776 
-1.407480791911339 
0.3590710427091164 
-0.5695462004148955 
0.008104297593430393 
0.1037392884449325 
-0.1340508385006578 
0.2886333406128282 
0.06254334895504035 
0.2047480262233433 
-0.1690062358575748 
-0.02010173233752761 
-0.03999462269198521 
-0.1571528799217129 
-0.2461789313083829 
0.05402253927480129 
-0.302201214692507 
0.3135943928058829 
0.849674573701423 
-0.0992764561390149 
-0.9248100095309701 
-0.1708847780697216 
-0.09567005882527421 
-0.1151935716275122 
-0.7964850607852622 
0.6056379495007613 
-0.3396593473264559 
-0.1022968710322983 
-0.2654399901435381 
0.6497806272337712 
0.04452124996209231 
-0.3890018703396309 
0.1436042047642705 
-0.3842657025656627 
-0.195851944985914 
-0.4020247868626037 
0.1136369625504422 
-0.2093954061959626 
1.527364650720172 
-1.087460802557072 
-0.1879806949226426 
-0.09317258932696272 
-0.2220275398913763 
0.05915438745482291 
-0.2514688488801512 
-0.09050686075501822 
-0.9968102550646954 
0.5580689119845738 
-0.3891436638768425 
-0.09559568867381187 
