solver_type L2R_L2LOSS_SVC
nr_class 2
label 1 -1
nr_feature 512
bias -1
w
-0.1963929615783851 
-0.4848474121059076 
-0.4458905388893104 
0.2827744708586757 
0.405367108413859 
-0.5256214810518801 
-0.2688721404590268 
-0.5298574729977675 
-0.3451012216173698 
0.2681365687377865 
-0.08885031731446866 
-0.0749412854266947 
-0.4088891086661252 
-0.4852336151284875 
0.2199382927668298 
-1.026165254808871 
-0.213783904016642 
0.01967683238388283 
-0.4177430880595001 
-0.4306497617004661 
-0.1366187317251116 
0.2306166730119078 
-0.1579218466642482 
-0.2349612787080502 
0.2128153376779443 
-0.1416989437826284 
0.005839411753874474 
-0.09494120968974622 
0.102279296342709 
-0.114629548563656 
-1.100925408731687 
-0.3077324476718487 
-0.07253403281146036 
-0.4240074310052147 
-0.2176414365667566 
-0.3355868584766166 
0.368056669935053 
-0.2174017798693269 
-0.02453197819633031 
-0.04379182914115127 
-0.09152364500039588 
-0.2801833360413474 
-0.257299611823494 
-0.103735400769877 
-0.02413564435554212 
-0.239487209354425 
-0.02671901096733031 
-0.1804523486799292 
-0.1482254294143844 
-0.5476977751281126 
-0.3125303831778292 
0.1538374695116963 
1.077590109308948 
-0.1954465564068545 
-0.0862646901978724 
0.1782541840977189 
-0.978582662859263 
-0.3034705883031339 
-0.15372382064278 
0.06302196532444584 
-1.592498057719617 
-0.177447704799203 
-0.1089726646946199 
0.02840420183256017 
-0.4713754988825317 
0.1644088885681282 
0.1264177708888228 
0.6416943675826813 
-0.9189556856423873 
-0.1900781667354373 
-0.06686594018115423 
-0.06296904690708083 
-0.4978125785566371 
-0.1911215104238195 
-0.3172167766862664 
-0.1157870493468038 
-0.2127713207607264 
-0.3348045787466467 
0.06792792943651031 
-0.05758766839832773 
-0.2435369687271478 
-0.05555109723409056 
-0.141510532901488 
-0.02968594657627923 
-0.08805318612099161 
0.1852727086873249 
-0.2001655331768372 
0.1460283654444886 
-0.1215227763417698 
0.3152119270623344 
-0.4099337129331609 
-0.244301188343211 
0.128563698947084 
-0.2643603950461084 
0.569104931121452 
-0.3031905938299615 
-0.1695870339941671 
0.2520305295613706 
0.02756617974441114 
0.6104963419088661 
0.03979271364200161 
-0.132441148940402 
-0.1934810607948844 
-0.1656585834459445 
-0.1450707432572702 
0.06980857990354092 
-0.6760697235224635 
0.2831057433350246 
-0.1061056236788113 
0.01293542555737958 
-0.2188034773881938 
0.2484257278692492 
-0.1664918702854511 
-0.4354834452773129 
1.209217883972638 
0.2715069461580925 
0.1904794468741348 
-0.5310396074828949 
-0.3188068037329903 
-0.1282278208815309 
-0.4949993593487457 
-0.1534952176993749 
-0.08942115534854714 
0.001963211022017429 
0.5526264312514692 
-0.1789482326272691 
-0.531514258382013 
-0.1641827309450854 
-0.1251300939982714 
-0.03603922476039149 
-0.3072618862860442 
-0.4134887636436861 
-0.2048511356669144 
-0.2324806022930771 
-0.01786900173562699 
-0.3694053926910679 
-0.00975939448251955 
-0.03497610221757243 
-0.0723544615749651 
0.379904913157964 
0.02494850671570801 
-0.2696367467929929 
0.0015358587465754 
-0.2223084296935678 
-0.2044772946756235 
-0.2944288871384743 
0.04659106230875473 
-0.1356674255902404 
-0.1112406606830924 
-0.3623768042171279 
-0.5332028684966826 
-0.1976607427993472 
-0.2786864357545009 
-0.1220367780414303 
-0.215270343709318 
-0.1605578662608238 
0.07003137630536466 
-0.8309547347808186 
-0.2947859284916268 
0.2630730071918004 
0.2577235141934496 
-0.2162345075505609 
0.1154301698826506 
0.1033014018001872 
-0.1896648180861747 
-0.5398685555602841 
-0.4116253710095658 
-0.2477954687405188 
-0.01214905465397825 
-0.174248921419167 
-0.2278637403843417 
-0.3704240790451515 
0.02870313846005484 
0.08022237238172335 
-0.148156221949928 
-0.3667799587990227 
-1.299036743617937 
0.4981601344262804 
-0.1703829967376967 
-0.489729402330815 
-0.08635460328785033 
-0.2013593257648386 
-0.5807847066760023 
-0.3382290163586165 
0.6714025622371502 
-0.3760950864714976 
-0.04618934618747689 
-0.1482500187843344 
-0.07199068791105287 
0.2062409114714795 
0.409912014154609 
0.1064938278609543 
-0.2897924592001108 
-0.2662951074450918 
0.2858176382431225 
1.67971762930534 
-1.761436698564644 
-0.2564016812981136 
-0.6386377565771297 
-0.4268334667490596 
2.135750303513485 
0.1722813617530146 
-0.5510827481781441 
-0.07675084403708958 
-0.08235130881544996 
-0.4015744941956619 
1.448138315014296 
0.2854368758853023 
-0.3165516706537007 
-0.3643553102878037 
-0.2289602597428365 
-0.1552029029658597 
-0.1737312142724481 
-0.4301421875317131 
-0.006513980308522653 
-0.166241180245797 
-0.03113394128419004 
-0.314231872689814 
0.2152258452336122 
0.2539205824606294 
0.1358782650116853 
-0.04692206307767547 
-0.3831201903427428 
-0.3113687083507828 
-0.08479444419279278 
0.009652504433890961 
0.07876150085124334 
-0.4529237279959976 
-0.1748842725871671 
-0.3877566023304746 
-0.08136475135422169 
-0.07236222379978516 
-0.2371617058162724 
0.1940021732030326 
-0.0327264286754603 
0.02967191579484344 
0.1978725998749417 
0.2136608577587051 
-0.1061827988727578 
-0.3575215686970594 
-0.5893394976430214 
-0.04413522995968803 
0.4344074447604696 
0.4138989844480679 
-0.06092679002242972 
-0.1138563084550217 
-0.07057817506201081 
-0.09055188429844295 
-0.6540289879954835 
-0.5813761512077439 
-0.097186885384098 
-0.2194486039712295 
-0.4458512660177688 
-0.3385967158100231 
1.074393359580536 
-0.4650970995218809 
-0.3041907244932336 
0.1598720466280776 
-0.1932507551434164 
-0.32457962931323 
-0.1124327339226222 
-0.1039206031061127 
-0.1809828364584748 
0.7197769971576814 
-0.04101539652803242 
0.9071737131136721 
-0.2568518216443983 
-0.2611564449766022 
-0.02310381566446998 
-0.1469269413061568 
0.2214372338461578 
-0.8461215653807304 
-0.01916547134814823 
0.4352643256002518 
0.3988889822268933 
-0.2671515664945881 
-0.241915717802906 
-0.5132631148411922 
-0.07867085322668144 
-0.2566098427350157 
-0.1880000641928584 
-0.1463131291837575 
0.6636224704846965 
-0.4285540283429866 
-0.3165518306377421 
0.2951191087658837 
0.08896282592713582 
-0.0680493710813318 
-0.3727340564973928 
-0.1109761765110241 
0.06244543709385898 
-0.4404701570959365 
0.05700856282016781 
0.3080089553803952 
-0.1364444648514304 
0.008448471076504805 
0.3858378594880323 
-0.7217806733735667 
0.1021907698557515 
-0.1748484670415758 
-0.7580426025669112 
-0.1140147720319346 
-0.3409867509418387 
-0.2555083781947783 
0.3291035948306232 
-0.5519056035270601 
0.01328829167847136 
-0.5640062865981385 
-0.3691669789438984 
-0.6692785794471365 
-0.1074684731598263 
0.9609376934625524 
-0.3552308583807612 
-0.06821885610745182 
-0.3011655168792694 
-0.4404905430643131 
-0.01647886523333253 
0.3244925491311457 
-0.3557471902372774 
0.2084549210857712 
0.01089824566937641 
-0.1811854625223105 
0.1596830228715893 
-0.2811287240192777 
-0.2514194501966814 
-0.2512253432835662 
-0.2581536432148402 
-0.318692015312949 
-0.198667646356153 
-0.2759504749190951 
-0.3078657209993234 
-0.1238295117259456 
-0.2577336051140368 
-0.2621750424471384 
1.079184311551734 
-0.4136245263180663 
0.612902520603839 
-0.2937195220418446 
-0.2122724443493679 
0.3768114482212401 
-0.3588844042713039 
0.2045303712143601 
-0.2604025880414266 
-0.2076597348064327 
-0.1814709108327076 
-0.1394093242127021 
-0.4132624408349295 
-1.306041914107108 
-0.3896958519072515 
-0.08751906911162864 
-0.9602200668471899 
-0.2041943849163166 
0.501780015348735 
-0.2089621920736816 
-0.5814418187336056 
0.4252700323818164 
0.01055027649452912 
0.1536386907460359 
-0.007774163328801018 
-0.3321511619907193 
-0.2149756348613348 
-0.1462790462752901 
-0.168113810403582 
-0.1635554965454007 
-1.581502547471602 
0.04415463085731391 
0.2954938287236262 
-0.3858406367415586 
0.3526798878670467 
-0.1222159985060485 
0.05510490958293175 
-0.5059742099795033 
-0.06023764966579923 
-0.2808753592646007 
-0.2489763934762652 
-0.2179362435902287 
-0.280844860908759 
-0.3031885865470746 
-0.4158005164896961 
-0.42222032871412 
-0.1852240998732377 
-0.3098932954718696 
-0.0920834483353191 
0.1897045638739544 
0.2017114820091731 
0.02786894555352924 
0.3068187858169444 
-0.2641040440891913 
-0.2045685399252929 
0.2400271127518034 
-0.2691161448670489 
-0.4884407991814128 
-0.1129891753243225 
0.006366030957051771 
-0.2906946560476354 
-0.3321755949968597 
0.03730992430119521 
-1.193028910139036 
-0.06037352488224835 
0.0138069680945035 
-0.8278248148288289 
-0.1763581284584312 
0.1445645003705513 
-0.2340016943557137 
-0.08752766967452669 
-0.2844931612350128 
-0.23966997536838 
-0.199328332946117 
0.06015284378773633 
-0.05696183658882674 
0.01240197672811137 
-0.2966138454501472 
0.07857640357324969 
-0.2106036606307967 
-0.5670096807459456 
0.1046964797779877 
0.4293149466887201 
-0.138542577113773 
0.1639903434002984 
-0.09827444510177302 
-0.3349553660580766 
-0.8397849660042629 
-0.2671257449025619 
0.3231171464545925 
-0.3197113382649746 
-0.03108501666675891 
-0.3381297054781047 
-0.1121934550222649 
-0.2152757510458818 
-0.1276931309586287 
-0.1877958068173907 
-0.4585962990453097 
0.4182418946128246 
-0.1567303944126963 
-0.03631244716912598 
-0.3920239701027836 
-0.4371094731164805 
-0.3866494785582364 
0.4795401149230185 
0.3114520008330501 
-0.186780199403169 
-0.1017082198422077 
-0.2094304312208404 
0.1843475732672984 
0.2011247545722301 
-0.1904471968690091 
-0.177580495515858 
0.1094430017139476 
-0.2575044465050713 
0.5065202079560549 
0.3849259433226095 
-0.4489989505423433 
-0.2213298295415252 
0.35792115233863 
-0.4263487652701081 
0.01354276484735233 
-0.3694910081695912 
-0.3007388854443161 
-0.2259965486600095 
-0.1246076506897937 
-0.2979000269856167 
0.1575788517142932 
-0.1236412504041705 
0.3612079282261637 
-0.6499229330312255 
0.2377208104127816 
0.009942791114534416 
-0.06660275292488513 
0.2548289015305924 
-0.01832096074379514 
0.1215972551887323 
-0.1991655067382413 
0.08414754699574468 
0.01775486528102056 
-0.1474144305366461 
0.00179284677109718 
0.03393716403299128 
0.1350431121468665 
-0.1655010277390692 
0.4828012585506568 
-0.1502759871404056 
0.9338753521236571 
0.4136722498206268 
-0.2457582035964313 
-0.3470436714763456 
-0.2266784654854282 
-0.09188001422570441 
-0.3804917579768528 
-0.294016650909526 
-0.1320374587261031 
-0.4796539427748383 
-0.1463708982003096 
0.7403333950965511 
-0.4647266816158154 
0.008269842053301408 
0.144658935467348 
-0.3347116981193624 
-0.2466609021058384 
0.1066352448337566 
-0.08963847861363525 
-0.3014070901760628 
-0.5934069079426315 
0.07799673944566075 
-0.110274799256471 
0.6025423504782161 
0.5800744812463121 
0.1949431606846394 
-0.438441185114378 
-0.7474767359973827 
0.3187616727472311 
-0.4056254659966574 
0.01596201620388147 
