solver_type L2R_L2LOSS_SVC
nr_class 2
label 1 -1
nr_feature 512
bias -1
w
0.2618907059339394 
-0.6396938715046272 
1.517790227249409 
0.6805087403542317 
-0.6878608587016595 
-0.5719894904529663 
-0.08277820969141203 
1.358230415638329 
0.3222872821830869 
-0.2245370071332504 
-0.3851534408535158 
0.3033303658877018 
-0.05976102461082725 
-0.6006885851623996 
0.3901194777888343 
0.2666619757367075 
-0.143208591176667 
-0.4827552355508191 
-0.5448203202162343 
-0.5491810033001826 
-0.5276468174969112 
0.05890425634677712 
0.7830031940265948 
-0.552859139887344 
0.910866908245319 
0.2732392298589181 
0.8284503362259712 
-0.6428918147012398 
0.7957740753082347 
-0.5176417127992096 
-0.055503287313231 
-0.2627230926207305 
-0.562865115570275 
-0.6022374469207254 
0.3425949239530977 
-0.1322368560684337 
-0.550261632271156 
0.7494732047113636 
0.1542265446957313 
-0.3495079798618434 
-0.4941899486324011 
-0.2861393704048044 
-1.269862593648736 
0.4811528703487023 
-0.4823510524139161 
-0.2025040703476401 
0.245102527929334 
0.3005065251074186 
0.1764911319637668 
-0.1506175079020012 
0.3013185706756025 
-0.09636147150214637 
-0.09355595566142577 
-0.5447582411079184 
0.098030342983548 
-0.7221813556728902 
-0.1844443396691727 
-0.2196138248691431 
1.054788194758829 
0.6183599405785061 
0.8100123891384535 
-0.613121944990317 
-1.210158049132015 
1.366141424738078 
-0.8667211960090525 
-0.1419784541743564 
-0.2703100338724682 
-0.7643836606497895 
-0.1641211547571911 
0.1380929026857105 
-0.2422879121018743 
-0.5524877428637026 
-1.363828360321488 
0.2165070659966291 
-0.7762227267128579 
-0.6682954703907069 
-0.7859092873991907 
0.05485517615082713 
0.810621810051092 
0.3446069291788931 
-0.6372231515498251 
-0.5837240140743436 
0.7781269470414293 
-0.9940358700334444 
-0.1321627635480545 
-0.008231178297345687 
1.405792721043739 
-0.8837912742976531 
-0.7663583710933322 
-0.2100036586269597 
-0.3137106319688694 
-0.2305829073740279 
-0.2853499247694504 
-1.039261428570706 
-0.1088031190883046 
0.07201891549758556 
1.223104033006592 
0.5765032233208875 
-0.08561529846415281 
-0.01256726681243231 
-0.3934594701322418 
0.3701569064111409 
-0.1680122945297916 
-1.229132306556442 
1.180414601318386 
0.05272183926703761 
-0.04649676653134378 
-0.1606936499481876 
-0.2068755601382195 
-0.2520600902038209 
-0.8223059472795912 
-0.2533672100442886 
-0.03950409223694559 
0.5294918098465557 
0.04219200565107694 
0.9788551445540404 
-0.1726108659076379 
-0.03183977827291376 
-0.5985509052227289 
-0.465838523270643 
0.4691744966275858 
-0.8102016007182902 
-0.3645767794923221 
0.5786289512103152 
0.1338112880996524 
-0.2427386986167275 
-0.3136595255928909 
0.02958201825396608 
-0.1032918717366167 
-0.4720828722728153 
-0.5082358233418149 
-0.9707136678740398 
-0.2070200640210263 
-0.8792982329836482 
-1.221306208656016 
0.7725186594258563 
-0.74492934126171 
0.3901488827823936 
-0.03859035467030711 
-0.2268903409776239 
-0.7644295625815318 
1.172534280121656 
0.01750277383905951 
-0.2571053311455982 
-0.6931538581006048 
-0.214656591425887 
-1.045426350010212 
-0.2499097655906801 
1.010863173018761 
0.0366804939390567 
0.7692234788171008 
0.2340361278170026 
0.1709229877896315 
-0.8282318581364736 
0.5108926543822084 
-0.3606179794900938 
0.02405550024373689 
1.246820433501143 
-1.48712419353563 
-0.2005043766626898 
0.2759393320039149 
-0.1781795407536067 
0.1361629992549921 
0.1059800297613702 
-0.7073884051583555 
-0.6610269069530874 
2.967238695747227 
0.7746702300787091 
1.168524594607843 
0.1008917848829902 
0.362149033995362 
-0.2546392216832567 
0.3995098850188004 
-0.4301316826812664 
0.05397047164677851 
-0.7117403597466738 
-1.259053532207842 
0.5668890036911686 
-0.1288357987970991 
-0.4387045351757393 
0.4581471356787016 
0.09408207811617487 
-0.5980845749408732 
-0.2263857044381447 
-0.8466405389756384 
-2.450983192811288 
-0.6575214808821392 
-0.7814262329591446 
-0.2166308184862101 
-0.4996515493080486 
-0.4542464445652355 
0.1472492953796032 
-0.09003163259121452 
1.135709607223115 
0.1416522076195113 
0.559434002421771 
-0.05084471624888481 
-0.09019668485974222 
-0.2850862227319107 
-0.7651295956018374 
-0.240612807228456 
-0.8563448975584753 
-0.316411836539618 
1.004306378246201 
-0.007008324885615935 
-0.6797045608193178 
-0.4701178541113115 
-0.6977282417191196 
-0.3182635750560125 
1.426460335247816 
-0.1938383553663046 
-0.9455424437451126 
0.06840189539716088 
0.6630225080297935 
-0.7377286250643217 
0.2856440696282102 
0.4298696426458464 
1.200409934135321 
-0.3049051802894665 
-0.5616065165523205 
-0.1471945074506124 
0.002763028314389907 
1.245787783609061 
-0.2637497524215952 
1.987621200696929 
-0.8321198026236083 
0.2964918749350648 
0.3009420225038799 
0.512942311500841 
-1.060699993360097 
0.8061353175076007 
-0.4224089770295983 
0.7058693255747144 
-0.07757678244404945 
-0.238823628701188 
0.8296627584801983 
0.2247075027519401 
1.20965977244461 
-0.723178077295454 
0.07185804187286692 
-0.612890426263822 
-0.4321515621658474 
-0.1745981081533822 
0.1638799617676395 
-0.5142944686152294 
-0.01795593819368158 
-0.3463628058522206 
-0.3369693216024594 
-0.6770166312884637 
0.09715820241919915 
0.09091814217149784 
-0.2231671107107617 
-0.4255332687884579 
-0.6594478753902562 
-0.7381354552693296 
0.4849072296583193 
0.6219408420918754 
-0.6125541206969927 
0.03813436826469085 
-0.6783324965939838 
0.2585980646050565 
1.309377742579186 
0.6491370252583972 
-0.9122117636910425 
-0.01681947630965528 
-0.2023709386873997 
0.4968892118013959 
0.03496395417570551 
-0.236439025223615 
-0.3103172619966036 
0.2882263185147908 
0.06702262690619291 
-0.2662205450380975 
-0.4144680380359727 
0.2375013843411123 
0.3227885824576972 
-1.390743665456189 
1.552670480069692 
-0.2454758128951174 
-0.1442468927672393 
-0.3232763612862719 
0.9792556857121982 
0.1785506612097803 
0.02383420638459981 
-1.429901399222643 
0.09648589291232139 
-0.3969358422571245 
0.03440735432651879 
-0.04907391715887243 
-0.499736245243922 
0.4662501918377811 
1.239126941142181 
0.6868530448005048 
-0.8589795548160166 
-0.5863429922409388 
-0.3792421593097202 
-1.184486647003145 
0.9458806334306524 
0.7875566626016571 
1.099622408245664 
-0.3953162400919127 
-0.2428377484842414 
0.2111894159877351 
-0.6619941879907475 
0.7124187935337888 
-1.195597888412975 
-0.41197777052801 
-0.4034048508949185 
-0.8888954909377573 
0.4461512578490521 
-0.5305210736766499 
1.056832270128292 
-0.6828520802193953 
-0.05976249000248834 
0.06516050478350227 
0.7352318339368072 
0.2705466688733615 
0.3382333725466678 
0.7624109710165071 
0.5384403025376735 
-0.2630530939444657 
-0.9100079240233869 
-0.3809799957385065 
1.231403448668503 
0.8154551221822631 
-0.4071053977061506 
-0.0130836507611699 
-0.5200542775774448 
-0.8281565458306258 
-0.02878532269691743 
-0.4060506569038493 
-0.5757162447521231 
0.03365885136242496 
0.7971768519251653 
-0.9816179734770084 
-1.073046247152715 
0.06192345744933209 
-0.339963828161724 
-0.6099701587036462 
0.3426801548074916 
-1.09426361964912 
1.438810806281384 
-0.534778225117047 
1.376480076736758 
-0.3752454539194888 
-0.7520659012488592 
-1.44335859107601 
1.069793631873632 
0.5653383678138802 
0.1726568373834539 
-0.3414945501263489 
0.983087081904662 
-1.211356265588439 
0.03739800062436834 
0.2368822062465373 
0.9375216337185741 
-1.095774447196117 
-0.4526651884668583 
-0.2832025242389899 
-0.4045993220997327 
0.6012398266052136 
0.2501912379796277 
0.7949270054283852 
-0.1513953451642024 
0.1271518750597056 
-0.3173045480329182 
-0.3533515349702916 
-0.7226625458758902 
0.9433343424805984 
-0.01755992278462595 
0.6011384943415315 
0.5887791230358537 
-0.2158259286825523 
-0.8524834354450097 
0.3338753333909985 
-0.09568963122934074 
1.350846059338044 
-1.452020726813341 
-0.4946997735513143 
-0.1396691988143334 
1.292813598390052 
-0.6196522631688174 
-1.184178982325358 
-0.4530672123685117 
0.04182069636775566 
-0.6613620745763892 
-0.4210778901434235 
0.03110360837580627 
0.3678612674571436 
0.4053824613735315 
-0.4607100552865881 
0.3276054335022272 
0.6560874943018488 
0.7348232958426516 
-0.01583221971587296 
-0.826154873788 
0.417244662836375 
-0.5466767579761203 
0.3082850738801559 
0.9470000355576976 
-0.2604705432175159 
-0.3239304558408511 
0.2561848497053332 
-0.2399025892412334 
0.4788331944240293 
0.1616681023634297 
0.6370905756483721 
0.3486158637829058 
-0.1313246916056675 
-0.2470197766109968 
0.3775139407012558 
-0.3924718950776334 
0.007971031778964771 
-0.6125999673960758 
-0.9356936625822333 
-0.5551996446952153 
-0.8599300918124201 
0.0841850658354918 
-0.2890477184601801 
-0.1028183977155015 
-0.2339849897562307 
-0.3447089338729668 
-0.6824640356642132 
-0.6726774042511813 
0.5361433657135017 
-0.2862212841058645 
-0.2682355716644428 
-0.4063320525808808 
-0.8293640162737635 
1.665203784071199 
-0.2249920883698217 
0.5452393842811464 
0.7549847686307087 
-0.1306811520501593 
0.1632139147100028 
0.4380149563899343 
-0.08589302032799076 
-0.4668462241468899 
-0.03959973222430475 
-0.8064788172762741 
-0.245432078816005 
-0.2460739186851511 
-0.3232678486197842 
-0.1344832472111122 
0.840872530934205 
-0.02814319216755609 
-0.3288322669163933 
0.1964810848934346 
0.3475278622978141 
-0.8930331564572664 
-0.2867550409756175 
0.06194969790772292 
1.625430082767779 
-0.7674748970115919 
0.6322492050395426 
-0.4174577931598922 
-0.9051422269737003 
1.265289759027281 
0.4372143454409836 
-0.5444859625996116 
0.1973130317618005 
0.3586632690249214 
0.05904769145144354 
-0.3342935064640892 
-0.5566703465669761 
0.6483198972566414 
-0.6577638266411653 
-0.7383418400838002 
-0.6972842170836612 
-0.1078537462192022 
-0.2160509880662962 
-0.2088430679673616 
-0.1829584991254613 
-0.3947676849370717 
-0.3075328287674342 
-1.067987904442173 
-0.432944336746149 
-0.189323849844373 
-0.7045175895635981 
-0.3358024916880432 
0.5696385443913968 
-0.1280762312661318 
0.2087567822204049 
-0.4746182311073506 
0.08570566851197568 
-0.9280374385236837 
1.279665513438614 
-1.115234969394213 
-0.268109701486428 
0.3056393544760451 
-1.300212920861144 
-0.3527122373518893 
1.208106231375111 
-0.6027147886126595 
-0.5439553408596755 
-0.8953115281529342 
0.1974664437476837 
-0.1886620041158734 
-0.7448779378880299 
-0.0208134868148759 
-0.6359007487094493 
0.2945095520883201 
-0.249150861389184 
-0.1597367279195977 
-0.7392045339444433 
0.1518693731855676 
-0.6082276709876038 
0.3672255124246712 
1.227561137163157 
-0.9715488220646018 
1.559218150264502 
0.02946568371828071 
