solver_type L2R_L2LOSS_SVC
nr_class 2
label 1 -1
nr_feature 512
bias -1
w
0.2714389251136701 
-1.001408612927707 
-1.007348332234395 
-0.3720561596486461 
-0.8210660181613071 
-1.164262852729445 
0.1074216132602025 
-0.450958841315681 
-0.3204662699200441 
0.1337896533954368 
-0.3095696390734887 
0.1953285537690416 
0.08991981405118514 
1.049316549430642 
-0.01303162552860193 
0.5732646297010946 
-0.4276758410466265 
0.4958738609069422 
0.1066557732545274 
0.1447484152085876 
0.3113245972884522 
-0.3242221953514413 
-0.0844557958195494 
-0.6951601516170647 
-0.04077879840994385 
0.1638389857300141 
0.8309684409313073 
-0.5507265979156134 
0.6917644305388047 
0.7996858326774052 
-0.1483169247791913 
-0.61755192149436 
1.485878982640934 
-0.525620965007213 
-0.08213697574064734 
-0.5120462538270756 
-0.4426992768314126 
0.001716085120308628 
-0.930265622020248 
-0.1112611280600595 
-0.5688657793097009 
0.01980451566842772 
0.02240581954478987 
0.4307983563225911 
-0.2514139260605687 
-0.08641646630307678 
0.3442597765409667 
-0.431372561085626 
-0.1437615037264614 
0.09345143042852112 
0.1356984641595744 
0.2021305901762471 
-1.051933210332119 
0.2358788001259683 
-0.03868065856924498 
0.0625097871656109 
-0.565683068180618 
-0.4145053502786133 
0.5796784383757104 
0.3960183203446869 
-0.5795478154587139 
-0.3840019206842227 
-0.05521267928710034 
0.5311464588801039 
-0.9379514499552578 
-0.09267226517751337 
0.2314458253232271 
1.634887238149165 
-0.796962653549667 
-0.04730753355692982 
-0.1092528429799226 
-0.6356239183450214 
0.2402734790262318 
0.4104085809685428 
-0.1463683504371565 
0.2561887317825291 
-0.6923546895584628 
-0.1894756567966946 
0.8215141659871432 
0.3546073222576153 
-0.3261297026815231 
0.3892591971956464 
-0.294145957506934 
0.4355048881186596 
-0.08106863576095423 
-0.2374891195424984 
0.1981965118904197 
-0.7236046796931985 
0.06699317091609551 
-0.2660737895571389 
-0.05426947776768122 
-0.1855792595070723 
0.5489383866628375 
0.1156370979940458 
-0.5310760807732406 
1.027197006672357 
-0.7622794698990542 
-0.1926819099845762 
0.2337394634320726 
-0.4820713016421752 
0.07336128245328868 
-0.4449032452985225 
-0.4184885371305365 
0.01179328417710719 
-1.04974714206282 
-0.1732209877773752 
-0.8219746197201893 
-0.1868905546529714 
0.1826574498766587 
1.149491883259398 
-0.6433808379492392 
-0.04169147511295865 
-0.5206607828374773 
0.1813722461101785 
1.44893988956883 
0.1118679959554058 
0.7034037557621987 
-0.9906525492822744 
0.8456377983196492 
0.2729133918636772 
-0.1454309726419099 
1.377464856465434 
-0.5054011964855277 
-0.06551256705208863 
-0.07479687314455574 
-0.08631826987181444 
0.9493445124892979 
0.01321663902882253 
-0.2673318783410746 
-0.4791560925277328 
0.25659024934071 
0.164560076302119 
-0.6207352152339152 
-0.7404584778244047 
0.1008230219561835 
-0.264213497763135 
-0.06857713230758009 
-0.1985387182592268 
0.04147444568615613 
-0.3390282661471652 
0.03480745430599153 
0.3969748678302021 
0.9769169223443241 
-0.2999112686814684 
-0.1036055931426852 
-0.1163082689662564 
0.5460650350225077 
-0.3171725108165734 
-0.2756269615736784 
0.1385004425240266 
-1.835252681122699 
0.1133973784314356 
0.04506103428465536 
-0.08159680177350981 
-0.4811559605648061 
0.4604761409644743 
-0.4398712342595076 
0.01413665581815397 
1.001121123845357 
1.731933650461306 
1.161663215143429 
-0.01851406517981909 
0.09406195977753973 
-0.332795849412518 
0.597872669495614 
0.7233859494899325 
0.06101658650062197 
-0.6919736468525332 
0.9761007830757585 
-0.4111332724730656 
-0.3374739482418772 
-0.998517586823691 
-0.6256449684727804 
0.4580498235414779 
-0.0502448866552865 
-0.3037667197480992 
-0.05905813530492823 
0.9680199563672564 
-0.1638564019899515 
0.06989517211177293 
0.1611146056448507 
0.05208402854009724 
-0.7724385760046748 
-0.1696530301038735 
-0.4989693452307292 
-0.5176700552162938 
0.5705450413181808 
0.4506589807496024 
-0.4738129610154093 
0.01358835577300041 
0.9161348092285319 
0.4917698002276004 
0.4306878482252993 
-0.2227542321601773 
-0.1122687621932168 
0.121705926875613 
-1.584724869448153 
-0.15332671975474 
-0.5224594007739312 
0.3910522919799161 
0.6946069982255435 
0.4042708211591955 
-0.6128186347267816 
-0.369289477892323 
-0.9312430390389891 
-1.421685061267306 
-0.04323461043807957 
0.1010331259817961 
0.2464613272445813 
0.7259769113838513 
-0.3628196384940363 
-0.8174450613260558 
-1.022396336383307 
-0.1592535415453613 
0.2890895910949917 
0.08666461756590078 
0.50039947012147 
-0.7664966102646662 
0.1411730564196318 
0.299669229075349 
-0.2709837735200567 
-0.1167552463241274 
-0.3091707912285445 
-0.4380457807147427 
-0.117137897196878 
-0.5870509082130722 
1.205821438604924 
-0.4449431654681489 
-0.03407554879504655 
-0.8990474553442627 
-0.05895803916819399 
-0.1715249361724447 
0.08450248069239059 
0.04330789371390707 
0.9981456013135138 
-0.252376757104558 
-1.073969363032916 
0.4225224790003712 
-0.3108402113885412 
-0.273222555291858 
-1.248573568058661 
-0.6868607894643619 
0.4598305975081596 
0.2175347445503669 
0.2840991107047197 
1.0565019121428 
-0.6504899744798867 
-0.1260359289386382 
-0.7346733773555818 
1.146849256441326 
-0.1201181538916735 
-0.1422760185461618 
-0.605768648062764 
-0.7051609203529092 
-0.8973464332535787 
1.141149595676493 
-0.5129963162897915 
1.501376549263874 
0.01516157232105707 
-0.7385669314540921 
-0.2889868322291499 
0.3209007309240584 
-0.3361797010747051 
-0.3456666862994637 
0.2574081812954861 
-0.3059834477470397 
0.2487734371798223 
-0.2894693348913766 
0.1450619297773759 
-0.1421407252626727 
-0.6425485131329133 
-2.022003716334242 
0.02594345197965927 
-0.5049904666221021 
-0.6847572393606521 
-0.2409556801525619 
-0.6632633189964326 
-0.3558299967439617 
-0.2163195072750443 
0.1880140561853048 
-0.800765957769461 
-0.5114511050608194 
0.10617738703239 
0.2161731192980281 
-0.6005849637357022 
0.219437640139835 
0.0791341664119638 
0.2572107006090496 
-0.8364709051269265 
-0.03369501719468019 
-0.02338836842979616 
-0.4647120635111306 
-0.1028212227173556 
-0.3181748776505393 
-0.3779091793482368 
0.5474486081439277 
0.299207818982804 
-0.4640973544777579 
-0.05102505152416298 
0.08580873672428449 
0.7329106138112371 
1.018055918330785 
-0.1719523637763316 
1.016280875417681 
1.306503689251473 
-0.2744825825114665 
-0.1156530225808221 
-0.6102259228057001 
-0.5592188247775868 
-0.6911131687332737 
-0.2771205245053707 
0.4854774374631079 
0.4849674483672435 
0.4531664529083512 
-0.2350351434060789 
0.7405783309842032 
-0.2260087460496609 
0.6193859846223185 
-0.08388485533742232 
0.1087887546641425 
0.9214892638676501 
-0.0619807512810464 
0.02132562624530159 
0.08432055016073559 
-0.5853202137760639 
0.0694951571353796 
-0.4119016607738873 
-0.4790813996043469 
-0.5814468079508024 
-0.4287784159493889 
0.4211978713897313 
0.1632572872950502 
-0.4246906592640439 
0.8583574325022737 
0.4306196050433024 
-0.84118740754114 
0.8772330813376884 
-0.09387286063153316 
-0.3481784906530593 
1.271791700761574 
-0.02754754210399746 
-0.147661955405877 
-0.4397329539548747 
-0.1818303169047586 
0.9607814759904156 
-0.2615868022803295 
-1.431989795409154 
-1.060571315533846 
-0.8860765742886717 
0.04172058348662176 
-0.2055338850260678 
0.004660982971699275 
-0.3316879494178334 
-0.3510489716467832 
-0.3492640063982573 
-0.09810076544359424 
-0.5799107774158048 
0.7714518604862229 
0.5356789073869365 
-0.2936712175890944 
-1.165763603611063 
0.3724573252064504 
-0.4168931620926991 
-0.3875765561348822 
-1.349444134086905 
-0.09176505875457293 
0.8372036528408046 
-0.5764050755807305 
0.4291329299492269 
-0.1070971356259352 
0.6101745418948148 
-0.3756521286490579 
0.4277456383649622 
-0.5998050571148138 
1.214010595178459 
0.2273107975975005 
-0.7597764970460573 
-0.9786077103326196 
-0.1221105784952219 
-0.5812948402556496 
0.297867757382763 
-0.06410266906376563 
-0.002564255750171332 
0.06583592839393437 
0.1021097597562287 
0.8483975274607112 
-0.1333295626194146 
-0.08909627020561951 
-0.3849727027847851 
0.2263949587015679 
0.5727453918451928 
0.1228493354592596 
-0.1879855591753793 
0.0521097573204993 
0.5792887910417398 
0.09283274822231394 
0.3671207733391567 
-1.929561460062518 
0.5527787516336516 
1.361786790405575 
-0.2617349268774882 
0.3083427258855258 
-0.4020525017966829 
0.09327685896081694 
-0.3936670307124857 
-0.5797679758196012 
-0.08534501012145897 
-0.01233590522307469 
-0.1683772294940993 
0.008810342497990609 
0.3984061789311849 
1.287617840477971 
0.519832201431157 
-0.2714505936388223 
-0.3535215269209341 
0.8624949775497379 
-0.6114701922065885 
-0.2566874773209849 
1.014306252402623 
-0.3549722969666346 
-0.2983422012924055 
-1.071755685040776 
-0.5136959168021832 
0.07787297158923326 
-0.3296571397619042 
0.115282768950316 
0.1754865231492433 
-0.430831826552352 
-0.6908305613873578 
-0.3341025278360919 
-0.1461012504771771 
0.6672260330419771 
-0.003476502331399838 
0.06551345899776917 
0.6154189897437855 
0.4831397179654832 
0.6636955149593182 
-0.1568490452788963 
0.8273425792607159 
-0.4515177712149548 
-0.4604564199040517 
0.1094132162090524 
-0.3735549090641432 
-0.08965242863590711 
-0.2175628695626433 
0.05135275714949754 
0.30681028920611 
0.1462773779650884 
-0.5047691422281724 
1.141821672873503 
-0.08278682801424612 
-1.153757190276506 
0.6921672700676611 
0.9950927857304965 
0.5744805316787995 
-0.7218231282960125 
-0.450844128941688 
0.3792582594980375 
0.1030701951630949 
0.04571655220631172 
-0.08690174533705414 
0.4766642133163223 
-0.08811524283208251 
-0.6364544807266909 
-0.7550784145449101 
0.3696375291486517 
-0.6923179250317789 
-0.4350244596423013 
1.154842307182367 
-0.2313498550395535 
0.8408614020931512 
-0.5006977106305401 
0.6000674631116507 
-0.04496143607323122 
-0.1957034388529042 
0.3638570961192254 
-0.4746356190708871 
-0.1816357641235419 
0.4408694804851785 
0.5451393773189458 
0.177469902178388 
-0.06800463775998501 
-0.166996940177905 
0.3060294760281196 
-0.04261947576819488 
-0.2493948393860502 
0.3475743520865347 
-0.5108588774120064 
0.1075006530098536 
0.1727611978921776 
-0.5619533430358559 
0.4190694667193992 
-0.02825223023715125 
-0.2542315443107024 
-0.1748292101350665 
-0.4223547146291481 
-0.4065234010574805 
0.712190721884152 
-0.1793408472664043 
0.02647496592962234 
-0.3444491872863128 
0.6096266028286343 
-0.5382356345782537 
0.1781005154372134 
1.892909529929423 
-0.3478410230210355 
-0.8077563455968872 
-0.3909667982112007 
0.4573186475988615 
-0.6208839939268472 
-0.7178718414547522 
-0.2459096176033338 
