solver_type L2R_L2LOSS_SVC
nr_class 2
label 1 -1
nr_feature 512
bias -1
w
-0.2825721669570245 
1.648685938173648 
-0.1068875935398804 
0.130987180866443 
-0.229982676699213 
-0.2981456415048614 
-0.46785756351738 
-1.042665514437601 
-0.3618642420904142 
0.1141437288151866 
1.284981560221581 
-0.08365665280668858 
-0.3641477654139192 
-0.2736039394125507 
0.2322511283742127 
0.1023489614110951 
0.5601621874817569 
-0.07628151427460163 
-0.4291005408677196 
-0.6119384665786356 
-0.2084445784080733 
-0.3571965873567606 
-0.3996699303436725 
-0.3113527912430741 
-0.02301440273990186 
-0.08366821294058689 
0.426981885306669 
-0.3220515299037476 
0.1998390962003415 
-0.2768379693574416 
-0.8503014731359094 
-0.01902412152064681 
0.08910549907999624 
-0.06811457095611147 
-0.07506374652749383 
0.7972022187311705 
-0.3566636343108577 
-0.6589153576245035 
-0.821715999415378 
-0.2054807451116743 
0.2603817245130349 
-0.2995686643802295 
-0.04725798297473387 
-0.2209899739542251 
-0.007598151969142613 
-0.07841447767751025 
-0.009427244064828245 
0.2100546118415834 
-0.3277570018293696 
-0.3741918469824302 
-0.5024777632326186 
0.1591024764687939 
-0.159734930198424 
0.3414956566478183 
-0.1647107570221543 
-0.5908013395616687 
-0.4216672480810799 
-0.1881971232449361 
-0.3199521309687343 
1.295742731276838 
-1.090614935741946 
-0.2935533136087453 
0.01962276830643397 
-0.004842789332402489 
0.6107491623449178 
-0.1945605786897514 
-0.0700852270415863 
-0.6297677182401565 
-0.2764775174731876 
-0.7212674933095674 
-0.2146223120632054 
-0.2994313782395452 
-0.3343906985560476 
0.5210547425970958 
0.2362073553323767 
-0.2800886104636854 
0.8815829266596644 
-0.6391351878494369 
-0.3516221028383977 
-0.09750992620205018 
-0.1517067622334358 
0.1117845248142738 
0.02079758986314626 
-0.4378860458405028 
-0.2425737275478147 
-0.1207169943416781 
-0.3813042754003482 
0.3056242085932422 
-0.2380643286424025 
0.5507881976092835 
-0.4836227767675466 
0.2235794096007743 
-0.1818410736781939 
-0.4677803246759745 
0.09539010583030433 
-0.09279010549983331 
0.02429674629001618 
-0.3641642394544523 
-0.02277300572690455 
0.005526454203057465 
0.3516679155479693 
0.08809475560030863 
0.07301503583717892 
-0.4552525844220883 
0.1488536044032069 
-0.1378440247428492 
-0.7621745325943552 
-0.2686934432937731 
-0.4830958450281521 
-0.1148415285132793 
0.03801323837361582 
-0.2577959398951988 
-0.1381811005333279 
-0.4381094044619806 
-0.2875941878685933 
0.3067115389052109 
-0.2941646423153177 
0.2341771242337365 
-0.7607244217608231 
-0.2300892090002604 
-0.335588417200784 
0.1966433088806108 
-0.3816308997169915 
0.2076554983562798 
-0.4821927158885715 
-0.2948621239624817 
0.5421444333031505 
0.07066121205072293 
0.4840460719590722 
-0.1884341122153426 
-0.04219702033879071 
-0.2215531555844917 
0.4306572250272691 
-0.7815245274797041 
-0.3683284327394453 
0.03005610246298112 
-0.2476019879593096 
-0.06164727561180162 
-0.1365774078735915 
-0.2707348128761415 
-0.4718789497957022 
0.007165800026830036 
-0.06598147141540567 
0.7578356621671816 
-0.1144913177562228 
-0.5526955352611838 
-0.340217933358507 
0.2788127639714224 
0.4296138363665534 
-0.313022640533908 
0.1758237228993741 
-0.4055520332995452 
-0.06296023186805016 
-0.1560005115329557 
-0.2369867045472949 
-0.1182164595220862 
-0.1198213185579409 
1.341463755141625 
-0.5169365219185604 
1.146672381987884 
-0.8370289259927624 
0.3188615317750573 
-0.09675291802467698 
0.7170750617068585 
-0.2336308316908255 
-0.9769195402844888 
0.3685743475774412 
0.7438823243404442 
0.0468977952920659 
0.8995229162630273 
-0.2299983819260361 
-0.8784797920367473 
-0.3380299806113244 
0.2193781904349592 
-0.2220972485478852 
-0.614832147986182 
-0.3992616101318797 
-0.2478003877143215 
-0.2177979226182602 
-0.3529476107198066 
-0.139763479193201 
-0.1455764833549683 
0.8528078831143145 
0.5422332965741873 
0.2177858431073151 
-0.9389947308100582 
-0.04609260606729421 
-0.5223693755262431 
-0.04123801928562239 
0.09249241695183004 
-0.822106974593663 
-0.02735599021322667 
0.02069392437858648 
0.3171213981791083 
-0.5147312188788828 
-0.2296944320866479 
-1.492945141025889 
-0.08864213734356285 
-0.4572005624074253 
-0.1468807956596004 
-0.09636727336436597 
-0.2182527365037226 
-0.2428119104575361 
0.130803989875973 
-0.06080608438147134 
-0.9229270670189023 
-0.1669314441373101 
-0.3190467038121585 
-0.03019739646219155 
-0.04994096376009181 
-0.3016510147387786 
0.9551744801931893 
1.039883255461042 
-0.6718318900664058 
-0.1220959932013734 
0.5050734833408299 
-0.8279815372209214 
0.03902212151573777 
-0.722912757836931 
0.1797340394572955 
-0.3272714329531578 
0.005118432076639377 
-0.5198897145602883 
0.317994076206037 
-0.3366223660570493 
0.04524040732569705 
-0.3625861971042627 
-1.209907027541977 
0.2382815129667527 
-0.181912070264767 
0.07178536498507133 
-0.2780684680830792 
-0.1341184658556685 
-0.2946126187190352 
-0.0335499482684871 
0.008795701143808683 
1.09017985131185 
-0.04309828538473414 
-0.3714752954334734 
-0.5493134853165438 
-0.5558314055917013 
-0.4595810060581627 
0.6916079344704947 
-0.2691387436144175 
-0.1693413310196568 
-0.4154975509724336 
-0.456802181174487 
-0.1576893038321785 
-0.4136424433339969 
0.1146180844417199 
0.1852083013130295 
-0.2045338864352292 
0.5684213197763611 
-0.1020399540561838 
0.2050356640911746 
-0.1173947025870281 
0.05814112734488082 
-0.4477791759638948 
-0.2544294105545512 
-0.4870794364105434 
-0.002581011157606409 
-1.31449293090296 
0.07747232732038081 
1.063431510388652 
-0.4935924960524524 
-0.2091360620992118 
0.4627861276355035 
0.1034856146014968 
0.6793675268907112 
-0.8191236688695782 
-0.255398861914736 
-1.19812219970955 
0.3871769620647292 
-0.0618233353898239 
0.2902445228639455 
0.06015866402815093 
-0.2843515821296857 
-0.713825580103818 
-0.2213632687462033 
-0.4746260564222273 
-0.2246796527889981 
0.4103511242721089 
-0.1045191920580589 
-0.7414621221575578 
0.1134802853946408 
-0.3035654311808141 
-0.1650097649441039 
-0.1562069956199143 
-0.1196305366060937 
0.1717198260597876 
-0.01790756303236871 
0.3041331903187961 
-0.2477492045280641 
-0.5160737785432327 
-0.3421982520440143 
-0.5864954171691185 
0.6835752610559295 
0.4369014576704343 
1.402082432669448 
0.2090419176513771 
-0.7926575256803343 
-0.04460600160935766 
-0.3223956167472788 
-0.4716693016540888 
-0.3476533187501887 
-0.4797790365873189 
-0.08779543891347685 
-0.2603708461743289 
0.2611754404660777 
-0.2207740172753925 
-0.2999735891929975 
-0.6584525320125632 
0.4301860365232808 
-0.2757923098125874 
-0.9710129156140572 
-0.5819793241892829 
0.05741866817379612 
1.547459725179092 
-0.775286909920228 
-0.3749731481079918 
0.05659412787351216 
-0.09175040290041064 
-0.3447621254944473 
-0.1208323034727167 
0.1833196168496866 
0.1824924519897211 
-0.2222242356253342 
-0.1981494972226986 
-1.151927403883364 
-0.0756146464246784 
-0.1802400407506522 
-0.1035889880950412 
-0.2991410125946599 
0.02714061544881633 
-0.302719714828566 
-0.3363168249702116 
-0.1661135736773563 
0.2281142756290068 
-0.3576595381639434 
-0.5660692710571646 
-0.7661588746493996 
0.3541516431615588 
0.7047862765019473 
-0.5259439364833901 
0.5014453653075279 
-0.7099497301848255 
0.4047218951241642 
-0.2035030921367921 
-1.255314534933 
0.05563264178680451 
0.3685816527613159 
0.157914973995869 
0.9045303518690583 
-0.4153791663945531 
0.004690057993287219 
-0.6279833090085994 
-0.5720324605831952 
-0.1404554948204281 
-0.3858349003473244 
-0.329082067722157 
0.6759998077521301 
0.01932869471378316 
0.4168997782419341 
-0.1593829891338278 
-0.1311550450988124 
0.03024781803318667 
0.01728675520665467 
-0.7930659724789434 
0.1881962616504389 
0.3793099605957559 
-0.1567465469326909 
-0.742781456854619 
-0.1062211532728409 
-0.4493493254204546 
0.5512735055198515 
-0.4051446295228331 
0.75763609378519 
0.006320720277970715 
-0.6826064542449923 
0.6482765430133413 
0.8315921974130139 
0.2451799175947789 
0.1829410296820322 
-0.1888232007813168 
-0.44537757595929 
0.0405870927058776 
0.02817446232922877 
-0.0803817109086402 
-0.08583452464660583 
0.01697339456552341 
-0.5786083857977153 
0.1203592535910781 
0.09302379384418615 
0.1841489545476769 
-0.4520581985852608 
-0.5138332181215305 
-0.2686317838663124 
-0.3422991620882468 
-0.07833620615108274 
-0.2086406943368224 
-0.6094762132560965 
-0.1015604767154497 
-0.1254587099376841 
-0.1953510767856933 
-0.4087996065177277 
-0.3869143144565548 
-0.3161443106091274 
-0.09158124047842343 
-0.09067025067374318 
-0.1480883236801026 
-0.03099264236185523 
-0.3741684310312853 
-0.4022559157324578 
-0.3125319820566345 
-0.7004567113861989 
-0.1581372540886597 
0.3949984081675726 
-0.5726270803102526 
0.03132434447691181 
-0.1137303318496097 
0.2146107005057006 
-0.6696021611305654 
0.0993476808985225 
-0.193668634730159 
-0.4643555973246089 
-0.4096507567219014 
-0.1815215669678307 
-0.3948496636915219 
-0.3180546587553389 
-0.125616429359846 
0.8307300196230237 
-0.4347242950268844 
-0.06978949898450809 
1.852503049788566 
-0.5729329253933652 
-0.3411982112014609 
-0.1862562075221294 
0.6863301265604123 
-0.05494744088427828 
-0.1538785148242458 
1.079938833624236 
-0.573369021992964 
1.474160290792249 
-0.2633635857706637 
0.2363010056023791 
0.5531523850924339 
-0.247729815671837 
-0.02467297761228526 
0.1779234709070785 
-0.06859646064308247 
-0.6453315505946347 
-0.3411643633224751 
0.1556715562528346 
-0.5508920460078258 
-0.0372330705116045 
0.1660603308160253 
-0.03054652167640963 
0.1794413381511419 
0.003714056714484699 
-0.1815479521407452 
-0.9472772504650339 
-0.1536870793529812 
-0.1833501915532949 
-0.9207902022470006 
0.1210694466930254 
-0.00738235763479217 
0.3401610712302957 
0.09770398345270498 
-0.2838041438278909 
0.1411399453000987 
-0.09340996567844435 
0.3046415556473859 
-0.2838852018302667 
0.2721621098230168 
0.8885779776349513 
-0.3740431866475291 
-1.039821189042029 
0.1928363491442923 
-0.4796949377480787 
-0.2952084758154909 
-0.1349255627642301 
-0.1116829526132631 
-0.07193154746428662 
-0.006155081128352681 
-0.4454314707848677 
-0.1210550731536624 
0.2195720709848611 
-0.7759586302184033 
-1.277064702592125 
0.09919123322121431 
0.2047662128914145 
-0.2277887881738145 
0.1351623375783614 
0.6030931366527198 
-0.2280714423365367 
0.4428398719298925 
0.0456365943379556 
-0.01190952001286263 
-0.1108812360734476 
0.6846127193410082 
-0.2264777592311843 
-1.542842215482971 
0.688271798032762 
-0.02687899902325771 
-0.1246509697842514 
-0.4022704440009221 
-0.9793593677776816 
-0.4886006070402089 
-1.217727705059654 
0.09528389542641 
-0.6911293712327073 
0.6859493245003921 
