solver_type L2R_L2LOSS_SVC
nr_class 2
label 1 -1
nr_feature 512
bias -1
w
0.007967624873250173 
-0.9293960408596296 
0.3611487511617438 
0.5276534735912766 
-1.456109886962875 
-0.454563653626046 
-0.2194254769006512 
-0.3829974596263123 
0.2548814549612579 
0.02958262655309047 
0.2547727366580556 
-0.0869977264815546 
-0.4296511510453262 
-0.230670579366159 
0.07640211015627607 
-0.3955985977940586 
-0.297732665160559 
0.06814353164674571 
0.08602280305335087 
-0.1564059188521135 
0.3145786328506568 
-0.1027236621303839 
0.1810787778910435 
-0.527145544572307 
-0.1133312702873139 
-0.003129890937455785 
-0.1169390730376893 
-0.2638478107835529 
-0.9797380540950168 
-0.129496869374191 
-0.4350999466386281 
-0.09188647797770826 
0.3934174071440205 
-0.0235866176834508 
0.04827227969920955 
-0.1339261068161358 
-0.08722120900732244 
0.02716214301457327 
-0.07619372282785918 
0.03252166718252796 
0.1900495606386297 
-0.07100835631229371 
0.06422294014150801 
0.1439454487058784 
0.1291056479178891 
-0.3278321226564017 
0.2725359812363025 
-0.2766665861156878 
-0.203439641738556 
-0.3131554467062496 
-0.4199428437411288 
-0.1646828601613085 
-0.2603924296859383 
-0.05674552865095506 
0.04490225519929521 
-0.4897767995099534 
-1.138204025894879 
0.06003753774284446 
-0.07344691859963864 
-0.1804384953825922 
-1.300526596931351 
0.1643563485457913 
0.1223257467948183 
0.1721099635029414 
-0.8686138591044882 
-0.04305089563889872 
-0.2210019541705949 
0.04126622751712123 
-1.069945641024652 
-0.1403409505776234 
0.5856224464112091 
0.01059740891512112 
0.09567302152975325 
-0.005379311190806954 
-0.4167803133349836 
0.3206198980339443 
0.0506898037441003 
-0.1387642405880542 
-0.05362583785734645 
0.3828197719608378 
-0.2523459650231618 
0.287795987734808 
-0.1162944293000426 
0.004225019828501183 
-0.1356080627817333 
-0.04197658065196284 
0.1447568086870825 
-0.4677307245838805 
-0.1495416072187521 
-0.2118550451831134 
-0.8457198475447597 
1.094945123969875 
0.1288869635114134 
-0.002837027774954124 
0.1571954768899105 
0.04580913889318511 
-0.1959858549582902 
-0.06234374587698671 
0.3582526324334885 
0.08818173599513768 
0.2592517462180676 
0.5234124784093682 
0.06422519257577161 
0.1362519714498275 
0.09179968832172884 
0.007857627499568283 
-0.6051449194301163 
-0.2042943259412567 
0.189030137296568 
-0.1864274184184969 
-0.8100871028290411 
0.1476939596079383 
-0.3460306828239067 
-0.04501029491218692 
0.3281231861741041 
-0.4023922126734019 
0.0752234804680241 
0.3713654780540187 
-0.290248320935406 
-0.1468473456693719 
0.2850096336032559 
-0.1280111024315299 
-0.2312613849713994 
-0.007984379125930719 
-0.3448494522961336 
-0.008221189465245112 
-0.07080470272523716 
0.5121369761520336 
-0.08465359134502959 
-0.1417260802179999 
0.1128991598124592 
-0.210060580696059 
-0.02490243298940202 
-0.6083633353868062 
-0.07746492949751901 
-0.4054642303666044 
0.01141831434363647 
-0.06253815469246446 
-0.2236431351892271 
-0.3750067190989312 
-0.03419874824282991 
-0.3658485179912146 
-0.02133066922038304 
0.1224012173486576 
0.2508369659085026 
-0.2225448962486306 
0.1330068827906373 
0.5550959980890392 
-0.1645844088632179 
-0.179314323636685 
-0.5374167871435918 
0.1983545634630799 
-0.2106245228041271 
-0.06780720114404085 
-0.0956273807619617 
-0.1706139360625836 
-0.2311258679374559 
-0.7366734456084405 
-0.2879452829102652 
-0.001440766617145368 
-0.3406386155083556 
0.3887115783458341 
0.3850064389827615 
-0.1443491158159902 
0.7660371803955136 
0.7298574357314501 
-0.02198381797879043 
0.4152501818711667 
0.3783308095969367 
0.1537860703507749 
0.08982896729530358 
-0.3714253055406173 
0.09100366415082013 
0.1384946321298304 
0.05584287796848271 
-0.2364977267568584 
-0.8152906902693637 
0.05916856099151216 
-0.1564653553691086 
-0.7713243351718371 
-0.01104074362499578 
0.3024013991554299 
-0.3145182567961939 
-0.3636692756987241 
-0.1251781014169553 
-0.6917105659734887 
0.85243856986463 
-0.5346751150518875 
-0.2116745589350952 
-0.07284984740966852 
0.06505353856741566 
0.03620927606835083 
0.00303395682630113 
0.2807470600642295 
-0.621160904252964 
-0.08948079364028841 
-0.1008932651190513 
-0.01632316423163204 
-0.3122432504832652 
-0.6845517561012388 
-0.5884674091609429 
0.4024888315877996 
-0.1484963760275355 
0.243973953195837 
-0.06992677255729576 
-0.4507609860811835 
0.09084166376533506 
-0.238281782257022 
0.01043232859562202 
0.1602844297902895 
-0.2417059887805501 
0.2388284293215793 
-0.03825479032171456 
0.01246144732414632 
0.1668913161682997 
-0.01158518243093204 
-0.2985967677633015 
0.1520081869402791 
-0.6421271301715541 
0.04798754109028051 
0.175985820779937 
-0.02883365987285663 
-0.007935712897104869 
0.04191837663957405 
-0.1095860077791014 
-0.1373947539853241 
-0.1204055608579584 
0.09541017394508468 
-0.1191134254978704 
-0.1282914976499401 
-0.1032173494597131 
-0.03423392247425191 
0.0031233556639618 
0.06706841919495067 
0.1513901850927688 
0.1035094534907995 
0.04368165376129356 
-0.00133233344965612 
-0.2353423435052997 
0.1672156286789075 
0.2423336016053059 
0.2615108727200059 
0.3164685779743439 
-0.06549720706633413 
0.01911506318044057 
0.3042895406823139 
0.1158793738793362 
-0.07805322155236076 
-0.5500693437708444 
-0.4404321606939465 
-0.02034203156728542 
-0.1253571041368251 
-0.1821619833054444 
-0.007072220354972795 
-0.4423891617572687 
-0.3765318463867655 
-0.1296219313586207 
-0.1432361178656109 
-0.1873770023758464 
0.001868221557739769 
-0.09780450738112748 
-0.6617416394346153 
0.2777191583543414 
-0.05620428745143824 
0.3772744028542339 
-0.05010838468952759 
0.1773057881315213 
0.2443507680835335 
-0.0607321309755075 
-0.4828625150840231 
0.2837681894786214 
-0.7826482186579032 
-0.1202146716391543 
-0.1152487372185416 
-0.2083437292521513 
-0.2636316209609101 
-0.1475475187643699 
-0.3670793270727738 
0.3409514373474664 
0.43585305363194 
-0.2776195384906502 
0.1407919308297048 
0.03443129926524912 
-0.2335742244855271 
0.3231488374250808 
-0.1456399639087731 
0.2851616702577409 
0.02395486100306784 
-0.3333982779120153 
-0.226304376313358 
0.07731602949586378 
-0.28298374208606 
0.1516584068395685 
0.01821919141200695 
-0.1148060752614785 
-0.1320277281314043 
-0.5574636113982054 
-0.4594144848080112 
-0.2955522329220755 
0.3181931040288498 
-0.5920029051561818 
-0.1118530522074051 
-0.06389080434922477 
0.08223297344161686 
-0.2261082822041533 
-0.19327385247197 
-0.05111591964239927 
-0.1968944026442383 
-0.134724408067067 
-0.1763021397005237 
0.02416341695088485 
-0.1020859885149009 
0.1527393704349755 
0.6822801958433994 
-0.2204995181354779 
-0.1607755647376389 
0.326965288915359 
-0.6706493891510924 
-0.2335323925975844 
-0.6311949898896707 
-0.01360264126680539 
0.2588136957053492 
0.3370375336630693 
0.1607963334690442 
-0.1881560420904844 
0.06716844377893209 
0.05727435036582284 
-0.2754002869716199 
-1.887171703323618 
0.03984791034512253 
-0.1388008111996487 
-0.084795643521592 
-0.2627344301643315 
-0.05140045313116154 
-0.4547947243576876 
-0.290272870915754 
-0.1257594535797931 
0.1880224261275895 
0.5466020034347497 
0.9001855563725214 
0.1667311327737225 
-0.7373774089643964 
0.0111780035165864 
-0.09619135340266642 
0.2147235527978499 
-0.1939353966806544 
-0.4476271582316604 
-0.920982149063553 
-1.247397111364969 
0.385356528269852 
-0.140379156429949 
-0.08486362087887758 
-0.6577130587889596 
-0.2201300332041268 
-0.713606754788713 
0.1640103884966238 
-0.4040104473722476 
-0.1069258951088378 
-0.1743440039463948 
-0.03177232246400662 
-0.2817103940744053 
-0.2245662689404459 
-0.1273592326078688 
-0.05721639884389321 
-0.6017103108143957 
-0.175505278191378 
-0.3456485106752161 
0.1801683466205797 
-0.4041924401478892 
0.08109654455608625 
0.401188725846829 
-0.1013063701152516 
-0.2667999917339138 
-0.06166915708588267 
0.01055159572366786 
-0.2184640884668688 
-0.07048092647137537 
-0.6278297944429734 
-0.2066290230570621 
0.7787577332160974 
0.3731937282794391 
-0.06370678410457717 
-0.07529924939056279 
-0.1546480394935213 
-0.009799730591009199 
0.2154687104507328 
0.1180743622703177 
-0.1670778017240494 
0.1149423757426452 
0.3119629405641108 
-0.3614632260469743 
-0.3448344888030124 
-0.0189599321439216 
0.2059468949584088 
-0.118231038206813 
0.5789041453475858 
0.2288203086066335 
-0.3683180698102904 
-0.003311257524825759 
0.8123448874520662 
0.3564792523332451 
-0.1838578071340601 
-0.3650500071148274 
-0.2466763610134115 
-0.1700482021326222 
-0.5161196183550202 
-0.1748969345549328 
0.3157767024709157 
-0.2425041693186073 
-0.001241501087084546 
0.2802802249704558 
-0.1007848159539635 
-0.09490265187885637 
-0.03746674802680348 
-0.1924872513242573 
-0.2566111701693252 
-0.3142034565295204 
-0.3813698302373574 
-0.04163299286561008 
0.1574185325646295 
0.4666291882176075 
-0.850984812861808 
-0.2133930211976036 
-0.1510994283507174 
-0.2557892186916536 
-0.001860984495984057 
-0.3675654190220664 
0.1103489913808135 
-0.05350483070142417 
0.1020644856689505 
0.4643166078672025 
-0.02491106505000118 
-0.06148893461502068 
-0.2268411067352822 
-0.5845309995156451 
0.141516609193448 
-0.2120489314614972 
-0.06775078844619298 
0.1554878904554566 
-0.03520336835281369 
-0.1029029143938066 
-0.2675728967939442 
0.5438439095668935 
-0.02393806048147215 
-0.2140814349360364 
-0.1697599144285225 
-0.1275776933982783 
0.06741959925227962 
-0.09217286517237866 
0.1470557763638376 
0.3238228863897696 
-0.4472476868143755 
-0.08405914602052408 
-0.5113005038946162 
0.08308675238106943 
0.3242451975505832 
0.9386709668027123 
0.03489373072587483 
0.1792118827138269 
0.09033909734881032 
0.1511597342082204 
0.2286737119210814 
0.00360330760529963 
-1.010874308893474 
-0.6489660252494688 
-0.2809999144953778 
-0.6162246354282637 
-0.2512723331525969 
-0.08447212177838628 
0.2205356924492651 
0.1009780275101983 
-0.2151469753470597 
-0.3780138166815933 
0.02060599223590574 
0.04384023247933565 
-0.3017752360756888 
-0.4223254710278196 
-0.06803308253965049 
0.5416377850955933 
-0.1981376723886438 
-0.4015609316908473 
0.2389686981901785 
-0.8491557760300088 
-0.03029952274869415 
-0.07562732730591915 
0.01601083782598885 
0.2940331721332431 
-0.494523777680562 
-0.6431495930508172 
0.3698294918849489 
-0.329800215901298 
0.06050925200834411 
-0.2440366141895103 
-1.133571141283148 
-0.02715742728090154 
0.2405171854089586 
0.07647548228980892 
-0.1040449679659545 
-0.1186690006444227 
-0.2512888997913715 
0.262432035892458 
0.6882386861277293 
-0.01868412910448608 
0.1612826571622064 
0.09314520576021144 
0.09585309302061959 
-0.7429380423630937 
-0.1191425443544681 
-0.3373571709715081 
0.265067694167401 
-0.2605819898464484 
0.01949538374705668 
