solver_type L2R_L2LOSS_SVC
nr_class 2
label 1 -1
nr_feature 512
bias -1
w
0.83419456950546 
-0.2699747574319578 
-1.485614594284468 
-0.2125470176558219 
-1.012712908329607 
-0.4333514171659485 
0.9303390538656029 
-0.954873923323712 
-0.08125869790683664 
-0.5630774501851489 
0.2743383447449023 
-0.631806985457495 
0.27998934139024 
0.1120933083878647 
0.1558798799134255 
-0.4506431597912273 
-0.4457250032960597 
-0.7081373411043738 
0.1102443288857727 
0.004969549443147912 
-0.3668181671138706 
-0.1855949688446387 
-0.359556852839915 
-0.1658518714708418 
0.3327757909625398 
0.6465991361308389 
-0.2234207585107445 
-0.9032266242377973 
0.2856041175555006 
-0.3761031800053763 
-0.3483652820005996 
-0.00681018559788386 
0.3938500679780338 
-0.4620103000405195 
0.03630547825225917 
0.06960930893948374 
-0.3439127484834762 
-0.9721854715994568 
-1.798606164611638 
-0.4813410849900084 
-0.9597911959317141 
0.6730159818103902 
-0.01459296421555779 
-0.7784324605722658 
0.4804850766939343 
-0.1876229076092792 
0.9737233911370403 
1.159459387898162 
0.3543841620646779 
-0.9813226202593472 
0.4304815345155915 
0.7356131544045017 
-0.295601022946779 
0.1071692841077641 
0.5019506027212756 
-0.4492605466582489 
-0.842739882684419 
-0.891136017974486 
1.690988598604098 
-0.8839956800871885 
-0.7559114079435822 
0.3899354750591656 
-1.29080040800341 
0.6506493599686411 
-1.329958814998009 
-0.8939573351088563 
0.4750601856064471 
-0.06387300058513631 
0.8610363736966309 
-0.321638506681853 
0.6399032517066028 
0.06792983756068319 
-0.2226007543780679 
1.429752145467047 
-0.5033332069233962 
-0.1940019654267254 
0.125426520209518 
1.071199205885263 
-0.5218999909532988 
0.2935125606459316 
-0.9696910587566833 
0.1806809819287955 
-0.6488581307022858 
-0.6119563453057792 
-0.1356175798896351 
0.3361075035269869 
0.9751345876574499 
1.261414473218358 
0.9668189801158226 
0.2630970967786073 
-0.6072900106736628 
0.2594092435600638 
0.1358670190821481 
-0.8813663618178694 
-0.02106799729802938 
-0.38700642660301 
-0.05262784991482473 
-1.413595349229449 
0.8556511143798919 
-0.09499337581511692 
-0.3503244204978266 
-0.4889602781036924 
-0.7257355363664727 
-0.299590187002873 
-0.1965392044273579 
1.183621921031588 
-0.3009408279249016 
0.1431254026897205 
0.1250628897590705 
-0.1341109595343465 
-0.02735013449041055 
-0.45546798192215 
-0.511089271303326 
-0.6504501536568769 
-0.2131215975953672 
1.183804346998135 
-0.240341278936971 
-0.3387977268832822 
-0.735301312167721 
-0.145482639204265 
-0.197928410322444 
0.8557159381816331 
-0.073077360152192 
0.3536589393897437 
-0.05627197383984852 
-0.5893866785449076 
0.2512689402587429 
0.2256991463778861 
0.08629126462419019 
-1.479133720799046 
0.1363100138529678 
-0.8539559836462184 
0.8440157492141396 
-1.73095358156358 
-0.8675476242979243 
-0.3149699731017165 
0.3885254191936373 
-0.570207500466043 
-0.2184768214856181 
0.03541417251996058 
-0.6587332555510033 
1.184604616533225 
-0.5932340913983029 
-0.3884655100908102 
-0.3089775567764252 
-0.6553980338325516 
-0.5322206549667879 
1.00354667251955 
0.06294151128590753 
-0.1554377014564404 
-0.6767160476939852 
0.5276142417236056 
-0.880270079972539 
-0.0489638370712055 
0.7459298654716092 
0.3537059205609277 
0.820128390714159 
-0.3153529751974838 
0.4738232644952136 
0.4204613338484 
-0.6482039699929986 
0.1814110392853909 
0.847698354976324 
0.1806554904273391 
-0.3512013094907139 
-0.2592524856169874 
0.03854231270961118 
-0.02543988587140533 
0.02608074267876198 
-0.2600840343132514 
-0.8986898352423804 
0.3580745586767171 
-0.115575634183543 
1.006482341137942 
0.3902328833783302 
-0.1786627200140091 
0.4000565470431215 
1.971388301964512 
0.3295774696549526 
0.1795038072163043 
0.6933671239247434 
0.3492392424269627 
-0.4269729745955309 
0.6869440495131836 
0.307091608932672 
-0.5462508857426036 
0.589561510811286 
0.0267865787788584 
-1.557164404922978 
0.05496785698934297 
-0.02418134539597341 
-0.08125804410554342 
-0.24520308154022 
-0.9561894366066274 
-0.1042415654478035 
0.8809662435184987 
0.2036133598574308 
0.2050604313780246 
-0.09184439154540316 
0.1581122706025739 
-0.2228539904020087 
-0.1135865705121907 
-0.5623430879396022 
0.2524389107819333 
-0.2493895084611387 
-0.3919161626034308 
-0.4423100283248851 
-0.5184749265283902 
-1.380025212844388 
-1.278768203686134 
0.1773091903640568 
-0.8084782100058154 
-0.6551874907913136 
0.3236280040113285 
0.155233101431926 
0.04578668016993271 
-0.7146904497412215 
0.8546107754683154 
-0.3243214085113373 
0.5573556450453371 
-0.5269438071936144 
-0.0696377060328412 
-0.5444736133938335 
-0.9323633715934605 
-0.9995642753135199 
-0.739526736566126 
0.1479825932645322 
0.5625542225067407 
-0.1389647787991209 
-1.792679942935995 
0.2720036251957434 
0.5478093543784113 
0.2751242684275769 
-0.2560260873234364 
0.2195940593229312 
-0.07659850332270927 
-0.08081577278890326 
0.4064723792983497 
0.1075944114872495 
0.4017411767267647 
0.09406822075352253 
0.4527030699396534 
0.6447021672703267 
-0.2344484477768422 
1.321241258527889 
-1.530555963010269 
-0.2152119557720558 
0.3602011297438404 
0.5156478699660517 
-0.4838855573648282 
0.07371486793802182 
-0.3268393141954434 
0.1155405663293126 
0.1192258701804326 
0.5408327577090024 
0.8174602789547967 
0.3843805683123611 
-0.003451727407099495 
0.3669011250253206 
-0.2012581786743931 
-0.4017737883589485 
0.1663706530192354 
-0.4495042335693493 
-0.162185821708046 
-0.1858774663071144 
0.5981013196840634 
-0.5011196507908994 
-0.3094479654377876 
0.2169005410503795 
0.1978700577632656 
-0.4678611379021737 
-0.1865493470633382 
-0.09784343949388022 
0.2984836479424593 
1.160651567542007 
0.9923147405555287 
-1.010397548077127 
-1.219196957493568 
-0.41064955829595 
0.1644243216111107 
-0.4969426476056061 
-0.5729857278296705 
-0.793372689591873 
1.167537443776608 
-0.9254129930043994 
-0.1720480480242259 
0.1761866837761711 
1.232102972206347 
-1.246040268878698 
-0.2462222970699757 
0.6936591055962229 
1.56304597133481 
-0.2029021267632103 
-0.8140386504807129 
-0.4768840292899906 
1.02582151533964 
0.3971753506323478 
-0.8063738520112733 
-0.3006693016555976 
-0.2294006349734394 
-1.564762342858053 
-0.5291992444953467 
-0.5783786591277396 
-1.143269305611966 
-0.9578033221471236 
1.45197327875701 
-0.2850522621343875 
-1.026063428379425 
-0.2324993361653119 
1.414610693687103 
-0.001014121575484218 
-0.8234315817901684 
0.2390117755480637 
0.9845254294832437 
-0.577570963284475 
0.4835952902919849 
-0.1732014377063699 
-0.2362362043210435 
0.09406144234834379 
-0.05263765059582097 
0.09359125208325526 
1.070650306498578 
0.1172735008228411 
0.6990754380797083 
-0.7521823106873823 
0.3001427337251418 
1.173754334302069 
0.3750430701924758 
0.7481035497460652 
-0.1057002622063046 
0.2251549565677439 
0.1597679894110239 
1.228165941467352 
0.2780584069684695 
-0.9834389660582941 
-1.231888794108008 
0.7373294633003181 
-0.1849652099388875 
-0.161894591569799 
-0.262771306350605 
0.04608338938804007 
-0.3197474337203813 
0.08319742448428592 
-0.7264787633879516 
-0.41731502326286 
0.7670398204903865 
-0.07965988922355843 
0.496719915705057 
-0.3677041630611337 
-0.6101259207654512 
-0.4556092354184892 
0.8000317345588579 
-0.2671441189183436 
1.079583034975554 
0.7222088249360614 
-0.838219353664006 
0.3294737337321033 
-0.05935637524958486 
0.4120189171819773 
-0.8334829785755912 
0.3887055376546469 
-0.09455740078385567 
-0.6133908673109544 
1.368096958408159 
-0.1908583416395208 
-0.4389378498934566 
0.5365845751599894 
-0.2326554975606075 
0.03697861389048482 
0.1569285410553143 
-0.195283083368038 
0.1004880186986005 
-0.2384064874184038 
0.3824890678954168 
-0.2034648668183602 
-0.61007977209612 
-0.3975668624337907 
-0.2223139840644147 
-0.8128087529937722 
0.1148257354887185 
0.821063182525536 
0.09904351664474147 
-1.13813450012768 
0.569884324324568 
-0.3170895116347671 
0.9293846704917832 
-0.224232018455244 
0.4307647974166633 
0.2044254277581757 
0.7478075076528989 
-0.4752308450656556 
-0.8517293316753287 
0.7867203730373368 
0.4198072643389766 
-0.5313309893849394 
-0.5045352306847986 
0.5655137779222724 
-0.7709464217484502 
-0.2418635699987197 
0.115883309179182 
-1.699873071258856 
-0.3532361002622499 
-1.069409729734842 
1.539391498806927 
0.1843811314862746 
0.4546164870356386 
0.1048785924046873 
0.417581548471777 
-1.346851721350214 
0.04915895098950237 
-0.7484282868643172 
0.349340759975726 
-0.2133999130208097 
-0.07338559316236712 
-0.112080024179528 
-0.4164459656063843 
-0.3414211227105781 
-0.3788178063230216 
-0.1903610906385903 
0.0372901720707383 
-0.2944263865827179 
0.04873814803075753 
-0.2881770762746724 
0.6548356389888745 
-0.8613780902047675 
-0.4293957614577074 
-0.3124576375035246 
0.07614255241591525 
0.6544170446632308 
0.824262603764978 
-0.174116879590576 
-0.507936292844744 
0.5818808386487749 
1.701042248032635 
0.3099195193779403 
-0.132363691092253 
-0.8284388039836966 
-0.3405017695317444 
-0.5551290869494502 
-0.3352628010764802 
-0.442495628152655 
-1.008005357093089 
0.520585431198351 
2.227849349044681 
-0.2327881556637351 
-0.9624361525601103 
0.1613000078873912 
-0.5453392750673337 
-0.02013596044239639 
0.2783791442942667 
-0.4815293295583206 
-0.6151470210850734 
0.9481011255003392 
0.4364203436101212 
-0.5893700200267331 
0.04848393744648957 
-0.510777885239725 
-0.427212784653126 
-0.02309731849161284 
0.02896808307151178 
-0.06153494542907077 
0.2365377722794572 
-0.8026969435332634 
0.1544120715108203 
-0.2909820021436597 
0.2329535877658742 
-0.6463002515296272 
-0.9977588039256582 
-0.77734620113902 
-0.8963214735821454 
0.1011624768090329 
0.6560405824708041 
1.062428968332183 
-0.6583089461737945 
-0.06377880127509343 
-0.5032806601215245 
0.4507925466279414 
0.1133064394627423 
0.03678138773822386 
-0.3446844358307216 
1.237296329987441 
-0.6179433578856046 
-1.484296772934834 
0.1930440851768843 
-1.378126738897409 
-1.092822049418604 
-0.4919708563892396 
-0.7097521894847559 
0.6166841721705397 
0.09556992100246027 
0.4392210929720027 
0.2960002074923744 
0.1133325085216747 
0.6915259016892916 
0.5824839196500788 
0.01070826739210506 
-0.4417214008651544 
0.3725212425265991 
-0.6383719604776259 
-0.2324088054150193 
0.081940101388074 
0.2501776674532292 
-0.120894467918907 
-0.0963363032597606 
0.1665514180356942 
0.4517144682797338 
0.6939587884904274 
0.3200433320931264 
1.466914119181368 
0.8505185034487481 
-0.5804676766234305 
-0.1208755978869186 
