solver_type L2R_L2LOSS_SVC
nr_class 2
label 1 -1
nr_feature 512
bias -1
w
-0.005431558899013684 
-0.9019717904232151 
-0.6636767016500231 
-0.09699919930847749 
0.3341426804637912 
-0.4259531998909973 
0.4348255527454514 
-0.6979020102091203 
-0.4708736168563141 
-0.07127793850221334 
-0.5335545251856082 
-0.1909644089280728 
-0.791144217801182 
0.02121229095324507 
0.04390632924587316 
-0.8590118244274882 
1.292461609651412 
0.2572706509349139 
-0.3642317716959661 
-0.1270081239953814 
0.01730737468489013 
0.01547635184020622 
0.3134090530334687 
0.680277856692508 
1.246630238792273 
-0.1416679351494713 
-0.13065371827959 
-0.2840412455476948 
-0.8237551491432638 
-0.08007229346346616 
-0.2666602898957782 
-0.1376303462734841 
-0.2777363793117016 
-0.2683637475357389 
0.7784293326646935 
-0.546819766068126 
-0.353861871279595 
0.06778803773018179 
-0.5803516171980628 
-0.1069981900532445 
-0.257880943306686 
-0.329488997010621 
-0.394349345760277 
-0.02280225766225157 
-0.1645127275846615 
-0.2775103248770462 
-0.007008458951445527 
-0.2954834543502076 
0.3632174862240526 
-0.4918708137310113 
0.3357816377284826 
-0.1203098747917491 
0.003000232814609507 
0.09243446553043289 
-0.05866608018100491 
-0.3855890822804753 
-0.4887962241344687 
-0.3264265573328081 
-0.3252509595223149 
0.4711087552993729 
-0.8893476428623563 
-0.1194792734453243 
-0.1257816338337225 
-0.177074281747325 
-0.7703727044180028 
-0.12010601380566 
-0.2517961537193853 
0.1210412746124357 
-0.0829713049527941 
-0.7760562830195451 
-0.1818933230708071 
0.02527219431595052 
-0.4132809554250562 
0.2269522533827666 
-0.5707164881743433 
0.03217331751556811 
-0.1672750646411222 
-0.3380959561522086 
0.6330756701666415 
0.9121716920332955 
-0.1407337044221163 
-0.1047831084958978 
0.6561310478393327 
-0.1874133004222521 
-0.04764573366153734 
0.06401349701248429 
-0.1411903086728793 
-0.2001781384061798 
0.3745998660068672 
1.569467469448596 
-0.3053901451536317 
-0.3018002852346734 
-0.217881022415483 
-0.3522107482015211 
-0.2630311137502915 
-0.1537005460743294 
-0.1823230765304603 
-0.2966895016717046 
-0.09100782732583432 
0.6562373211766571 
-0.2715743581267929 
-0.26720640661231 
-0.1986349457648801 
-0.3102933924467631 
0.06594715611375318 
-0.09714861763130693 
-0.7520489213372573 
0.2497140915305844 
-0.1128059568189565 
-0.1500897809501842 
-0.9848140065199285 
-0.1445030890586592 
-0.1628834041584592 
-0.3627032733760482 
-0.09614687692474438 
-0.4504036649177309 
-0.2821881443382955 
-0.7151023071009812 
-0.5161718978288841 
-0.1664332695402884 
-0.401973714720206 
-0.007421325136278445 
-0.2823312132055641 
-0.1550389523307991 
1.50593548436235 
-0.2593003023090344 
-0.2135997555297336 
-0.2158700489248104 
0.01340051667215897 
-0.3514469963801919 
0.3543093013286432 
1.162003901447557 
0.06895747232606755 
-0.5333004228501655 
-0.08922173351120223 
-0.2079299124939061 
-0.1265786033324008 
-0.1305247821066708 
-0.01467108335733595 
0.4335968253874933 
0.2524454049764859 
-0.2991744633943071 
-0.1587350030357221 
-0.06927964655272002 
-0.1652218002471883 
-0.3803443000936588 
-0.1930664894411598 
-0.07484943227234418 
0.2210088490864225 
-0.2258737418372633 
-0.2581523517400378 
-0.1966302158847887 
-0.2836130058753941 
-0.2673415063240995 
0.0616686348753446 
-0.1709768719222715 
-0.3488317680594777 
-0.5384836120662317 
-0.3754790546828219 
0.01587365473364165 
-0.3456462456242959 
0.8217943359771291 
0.3589294623661014 
-0.1386817163599813 
0.26449040260197 
-0.6625204083226761 
-0.07387355290520461 
-0.5844177579730292 
0.1152909126376669 
-0.1532004339525368 
-0.2616152001876453 
0.1271910944525092 
0.2577569012833555 
-0.05436800003019258 
-0.02697362410909841 
-0.3074031884000429 
-0.7645357158040815 
-0.1955898842323934 
0.7598916732969105 
-0.2123098626939037 
-0.09013466365701775 
-0.2195926152492353 
-0.5774022843625904 
-0.2442300903882325 
-0.3360975717856637 
-0.3999209092263355 
0.07657541639112059 
0.3988067764494332 
-0.4306233840973213 
0.04417750576538182 
-0.5937538945011352 
0.2808975910109794 
0.3316919752971531 
0.04935391002448195 
-0.5409558949271654 
-0.1913700077082452 
-1.035340078477202 
-0.3117218061894893 
0.6973297199237229 
-0.2248766878430636 
-0.3301894268049466 
-0.05404594875458647 
-0.4228254451135606 
0.06743236654850554 
-0.2803165048158413 
-0.886912447355568 
0.5829701700935457 
-0.1740289761278856 
-0.2488885206953163 
0.1085379263092578 
-0.1951124739427599 
0.1241121091764552 
-0.1395514653238548 
-0.2616348667252557 
-0.1688740060700324 
-0.1579603346604055 
-0.5580006394065479 
0.1970672233587974 
0.6644998694633922 
0.4249587691722913 
0.360931983040208 
0.1276374708406939 
-0.3700710214363893 
-0.1438282868739301 
-0.1862710112437059 
-0.2226369556921018 
0.06636963648106357 
-0.3030752127741971 
-0.1754565782801356 
0.04247002400803358 
-0.5247751335255363 
0.2151956857112248 
0.234954550042854 
0.08308633889152973 
0.0708640500638175 
-0.1605858045591892 
-0.6054062692493855 
-0.1403593307753088 
-0.008220711511844428 
-0.2492594702830631 
-0.3394865107598454 
-0.279068777210871 
-0.1777810482290546 
0.02656964323816272 
0.09365539372138079 
-0.1294341129097413 
-0.3525937858022435 
-0.228361693676807 
-0.335881219084421 
-0.8482836942800835 
-0.2703506825486871 
-0.2433147973131308 
-0.4429715121619585 
-0.2944990704469235 
0.3103769916415096 
-0.3938654863698586 
-0.199221429682349 
-0.3420392755005956 
-0.3988213868479379 
-0.01698162034767259 
-0.1670815437686408 
-0.2667533175594521 
-0.07026827138516714 
-0.5672774033797523 
-0.3201422683765292 
-0.09330057543491466 
-0.235245401915795 
0.2996936258144113 
0.08677866028953191 
-0.6602045005826607 
0.08277101009933441 
-1.100627420673125 
-0.1448857436943366 
1.466633741175283 
-0.2778255691651151 
-0.1324338333777984 
0.0690586451608091 
-0.2936847157952944 
-0.1417189676806558 
-0.01948784692903975 
-0.2041383799773636 
-0.1492832246003475 
-0.03257760843606691 
0.08491601662365628 
-0.4212678343129599 
-0.04356098044622252 
0.143174071790089 
0.2329230785976822 
-0.00177467772580797 
-0.1843641593135442 
-0.09444012200077 
-0.1667570459891824 
0.5173131070542779 
-0.0318454921976711 
0.1325939452843568 
-0.5914978269182931 
-0.1656742205323227 
-0.2528572387092499 
0.2796107667479121 
-0.1585668686826983 
-0.6364380907367122 
-0.2943704475742457 
-0.1994733205837329 
0.2585223635085401 
0.1230057088219249 
-0.3841573495886959 
0.1519869739909112 
-0.4846206402908064 
-0.1859761989884172 
-0.5534493373990964 
0.01752623786166517 
-0.6138769422613044 
-0.08338932007303515 
-0.1021145486195208 
0.07669911240692361 
0.009797957058272659 
0.09508095397640216 
-0.6949452023706172 
-0.3142323914210562 
-0.3926640069325005 
-0.3279009713831842 
0.05651384781971804 
-0.1393169559106331 
-0.08907404838446777 
-0.1387274976010043 
-0.2153760063969957 
-0.1205715197972991 
-0.3378711275930327 
0.6616067033277033 
0.191389428076807 
-0.1061636300313346 
-0.02307768678714863 
-0.3223034944912758 
-0.2847142390095325 
0.2447670861575313 
-0.1189457719100993 
-0.1802401136928255 
-0.3202800933809583 
-0.350275079303153 
-0.1408308704645186 
-0.4456109672110256 
-0.7951946867408648 
1.587013877665839 
0.1291196897459162 
0.01326567993254946 
-0.1843122356117331 
-0.6627716551044616 
-1.117685162191822 
-1.306171554368636 
-0.1906127534869322 
-0.5693600179789948 
-0.05013300631746029 
-0.2976685473283665 
-0.2423353443851758 
0.647396939063587 
0.3193119216887766 
-0.2102498012327548 
0.07633196820065856 
-0.1044624097015707 
0.1952457916538684 
-0.6471548280871051 
-0.2956544482601532 
-0.1239495599275544 
0.4104952210468066 
-1.175272565220168 
0.3518090201964977 
0.4252003469588888 
-0.6548179480792902 
-0.3783420026426898 
-0.06584622773748811 
-0.08703571173328097 
-0.0898129775221191 
-0.1404595797339773 
-0.4797698752945589 
0.8293513105217878 
-0.3378467650843676 
-0.2986400127091772 
-0.1878952684029586 
-0.7035456097071193 
-0.4099445391977429 
-0.1422386780232824 
-0.193062817317835 
-0.3351511963372492 
-0.1230726049249421 
-0.2495011950594969 
-0.002324964313461707 
0.06232442041370079 
0.6413083151225496 
-0.4625463179411967 
-0.1639949922778189 
-0.3049886911911281 
-0.335620323349578 
-0.0963668603831867 
-0.2934880139583468 
-0.04629353113923629 
-0.161249448062658 
-0.1164300314710201 
-0.983084650270906 
-0.1033648616448919 
-0.1626602681259531 
0.527230193455547 
-0.1453750017181717 
0.00859225635232462 
-0.2702570496855219 
0.2820446857889193 
-0.4828170085649597 
-0.2982679148096047 
-0.09665116058194206 
0.2371759402538867 
-0.2583475185363724 
-0.1874735448526429 
-0.3371853312377265 
-0.2666249167117511 
0.203175118435358 
-0.1152638939766016 
0.3001936364022486 
-0.8610891295348855 
-0.1997443284914948 
-0.03256137653132318 
-0.06106160103819146 
-0.1354155354230762 
-1.050480731888303 
-0.4521136378406563 
-0.2295774672449881 
-0.4980813929352451 
-0.3901876015450612 
0.05412229657866992 
-0.03544301413828269 
-0.1729446347697432 
-0.09582285156129315 
-0.01029390827323826 
-0.9054774129171901 
-0.09033724576155847 
-0.2134599619671255 
-0.03018033606111109 
-0.3623580703702479 
-0.2218558965918283 
-0.7949977240940798 
-0.2547751921586732 
0.1275297724740726 
-0.1495812734864339 
-0.2059606005305069 
0.4384617468259329 
-0.1207138189769254 
-0.1253270863043815 
-0.1269254087203496 
0.1222982392736418 
-0.01410587064695261 
-0.08021402092832736 
-0.06975657351406345 
-0.2461004119589271 
-0.3636208815257274 
-0.2475742978737882 
-0.4168259364124072 
0.5417689283094084 
-0.1827708629454445 
-0.1428855837708481 
-0.5270680711162178 
-0.1115083125515921 
-0.07101021461238442 
0.06099946478215652 
0.1541657874394001 
0.2198320086353963 
-1.17222337701215 
-1.257047864080928 
-0.3041046394137164 
-0.5905663885096806 
-0.3539729152255213 
-0.1222597680203386 
-0.3639484296638351 
0.02473545937995374 
-0.2239087129306425 
-0.2321421746927494 
-0.3898861929560601 
0.1535649802992285 
-0.2227726199916221 
0.3745884450514107 
-0.1174116233246997 
-0.2403802646184071 
-0.2237213233185019 
-0.4038760638497775 
-0.1196305737699992 
-0.1751972277859953 
-0.1954543377159681 
0.6486747445831227 
-0.04028440263140345 
-0.7157262911139225 
-0.67697616672917 
0.08192841397271 
-0.1212339732071308 
-0.4595217838751362 
-0.0337666343718575 
-0.1929102024742271 
-0.966459753975169 
-0.1168160981503806 
-0.3651666480688587 
-0.3012777946775609 
0.7534544010325719 
-0.2298897025311059 
-0.2992102458773124 
0.4046683342955008 
-0.8359483708228459 
-0.04748831619844027 
-0.06614279833078605 
-0.1323833164834743 
-0.08657450331017216 
-0.213991725388277 
-0.3361721289430536 
0.4316739052250661 
-0.189085355038682 
-0.4570680789359685 
-0.1250336562752783 
