solver_type L2R_L2LOSS_SVC
nr_class 2
label 1 -1
nr_feature 512
bias -1
w
-0.09060139990367867 
-0.01933186532186203 
0.3146679375169977 
-0.1465004336495537 
1.262071051391114 
-0.8077144030560254 
-0.3981612873667926 
-0.05660117470634329 
-0.1822306159084008 
-0.1603922101769442 
-0.3800365270257668 
-0.2831265749511856 
-0.3903254971316896 
-0.6283092091812066 
-0.173339252989415 
-1.063635903208971 
-0.5857612466111887 
-0.2095192489558344 
-0.6590113506710489 
0.4177789216316207 
0.8153780109887023 
0.0509263649510254 
1.219011806003247 
-1.390435983226892 
0.06273832086849002 
0.229397294913273 
-0.1853083465518425 
-0.2380284305621101 
-1.181027546877143 
0.1033143080265511 
-0.4217027501760315 
0.9793951167917851 
0.009330263073595439 
-0.05852412899795242 
-0.2591659169253441 
-0.3721080507862586 
-0.3252705981084795 
-0.205920212768425 
-0.02500557015806789 
-0.1146783646322725 
-0.3822977347728896 
-0.4950019688790008 
-0.3671982620249172 
0.1460477618663559 
-0.2170562926720199 
-0.1750809480674231 
-0.215259743315876 
0.1794572356309771 
0.1583052070235327 
-0.4281779245808559 
-0.3929720303242575 
0.1594044608973332 
-0.6164950577346373 
0.02318378735475794 
0.00392781311875327 
-0.1938657605922166 
-0.3657365540701789 
0.07111248852371994 
-0.1967684248767899 
-0.2634747541530378 
-1.229071800073491 
-0.2020019111997612 
-0.1344517048865391 
-0.3398728260792963 
0.7974124726791751 
0.07782674829845572 
0.6975838721749869 
1.551642800196645 
-0.9307826766302294 
-0.2778599535539446 
0.06811408609456207 
0.4209571250035443 
0.8676017620392701 
-0.339521714085938 
1.127376455888743 
0.0007207826401788731 
0.02021663960466777 
0.1979162362356026 
-0.3090588715930978 
0.3336261229597399 
-0.3232334799186948 
-0.04658314946420297 
-0.1348170913262655 
-0.3237448028565535 
0.2888460562745131 
0.516603555567822 
-0.1103990188804274 
-0.5290870075538491 
0.5760491425191357 
-1.150868083199156 
-0.3814634041714778 
-0.2704529121075296 
-0.1933964904358812 
-0.2607758228671839 
-0.2903514103392713 
0.1775843652024437 
-0.05309479392941248 
-0.3362966149335749 
-0.002919895131850031 
0.378731625222049 
0.01912682855953928 
-0.3056076444353873 
-0.3216487818330306 
-0.06856853888816966 
0.3739340840303379 
-0.1755699855382008 
-0.6350763485826015 
-0.07060247120355297 
-0.2906690106866047 
-0.1933316414406646 
0.3076584947425837 
-0.2019497667093978 
-0.07377080550693056 
-0.4766809891963559 
1.605453290372516 
0.5437645639964691 
0.2478012772577445 
-0.2026104785060592 
0.001414717897726726 
-0.2618692136281988 
-0.5593199608671687 
-0.003750539828087623 
-0.2596478852811905 
-0.1318899500550684 
-0.3682027666125349 
-0.2038721567049824 
-0.2419090349837801 
-0.2416502383354587 
-0.1097528059458612 
-0.6768483647012126 
-0.1602694972204277 
-0.2794376665924173 
-0.1910966836119513 
-0.7481731835556319 
0.1007259621359185 
0.144128777756415 
0.2895593822360997 
0.09730951915058272 
-0.4014503791486707 
-0.09355130954593657 
0.2993486159101335 
-0.2404922570142874 
-0.08534451608215408 
-0.1442890245720438 
-0.106513563448774 
-0.007442149467660329 
-0.06135191330753768 
-0.08200747185465385 
-0.08740418400785326 
-0.3716509938600108 
-0.8258634600221371 
-0.2559546081963723 
-0.3095915943188242 
-0.249664487991659 
0.01123606272701483 
0.4850518681888528 
-0.43961565995167 
-0.5083000920971955 
0.5764068416080612 
0.9147739991470756 
-0.2942671529394143 
0.01118919665805465 
-0.167849450955371 
-0.1095442325150208 
0.4855735769821725 
-0.5842420845987001 
-0.01070410065530209 
0.2514576440610129 
0.04162588932437948 
0.2444796683437148 
-0.2381956031183428 
-0.5806782543803428 
-0.2300735452404393 
-0.08122179998631468 
-0.1895153206324691 
-0.4586645002015489 
-0.5304178556009653 
-0.1998141808728181 
0.9441767436218342 
-0.2905998305232949 
-0.1584578133863142 
-0.2323786395977754 
-0.7175946496248689 
-0.6266634408468744 
0.2292811846794431 
-0.7987740022523389 
0.02022859153443167 
-0.07024169128907592 
-0.1588323912570513 
0.02690471473770189 
0.2434362231607504 
-0.1294665338972854 
-0.2974443872358578 
-0.03990291692670643 
0.1834601645437211 
-0.1000610410498937 
-1.685979421925987 
-0.3283653114097724 
-1.177219687563211 
-0.8768523819042605 
2.78812692254227 
0.5836201641043697 
-0.4955004525244344 
-0.110289203720912 
0.1702673036674396 
-0.8512892599989105 
0.4293240161603615 
-0.2695623560797886 
-0.3588787041248811 
-0.4949132322135371 
0.2307570759050291 
-0.2517335017489117 
0.04913183424826575 
-0.4204151184722603 
-0.1225003871461607 
-0.4392522790790483 
-0.5407442076378827 
-0.2517595530324276 
-0.2167796643662409 
-0.0499548161741941 
-0.2217426605942543 
-0.01230444644400938 
-0.1227906836203405 
-0.338889049034758 
-0.3299160944556176 
-0.0078470611705088 
-0.09882259591039927 
-0.3253362480511747 
-0.1838788275656849 
-0.5773172497788585 
-0.1823547965461201 
-0.07164800900223785 
-0.2575048152761265 
0.223803743203406 
0.2433720221822039 
-0.08815560601869224 
-0.9005198454803733 
-0.1959292449319616 
-0.5133351976325919 
0.1989951693693634 
-0.3739266536760937 
-0.3909211345450213 
-0.1033713818578197 
-0.1906935702899963 
0.2361249782131765 
-0.2033673346172058 
-0.10171316867048 
-0.1561851893390646 
-0.3898392376658606 
-0.4365870086203281 
-0.2852666737740785 
-0.318619970963757 
-0.4442457589474779 
0.1381617124479883 
0.007381338669100881 
0.4108768556740753 
-0.005633936561081171 
0.1886531882563691 
0.3482776606854422 
-0.1897160749585545 
0.08538809259362777 
-0.3284934422353646 
0.9144317402731783 
2.158234840931469 
-0.1637482532721869 
-0.02522531292538625 
-0.2899685932149715 
-0.3157133967725811 
0.1357049811879705 
-0.2344086161474339 
0.009878264953674411 
-0.7454885005981122 
-0.1281762673738238 
-0.1083744712940558 
0.2252277997638141 
0.1897570836477643 
-0.461469361983162 
-0.6312316127703654 
-0.2375339100533944 
-0.3132738417167534 
-0.3384976176112626 
-0.1136476735453785 
-0.131661574138593 
-0.4919582608155631 
-0.5590402304300083 
0.1849958981326047 
0.3948945959990425 
0.2346272260303106 
-0.4346767123259497 
-0.1756903967940049 
0.04198788451929881 
0.1715037434998249 
0.05960591026508127 
-0.2590239368695834 
-0.3284126562349776 
0.1210445562181575 
-0.6190416755991042 
-0.9598986810507962 
-0.366624590493681 
-0.2198975208538126 
-0.9760955766816278 
0.1671145090859301 
-0.2376282770187363 
-0.3695889032847651 
0.7950854215082558 
-0.04556362496883594 
-0.2494274408659137 
-0.8169984214332329 
-0.1779157116919873 
-0.5600229440131981 
-0.2247571445737553 
1.427258641138888 
-0.5277400020015601 
-0.1989809422477526 
-0.2935813133236777 
-0.3695981710402076 
0.296496930138352 
-0.2696721207658149 
-0.4120721183303033 
0.1507934150672181 
0.2754280905195594 
-0.0924475254285074 
0.2299342686618937 
-0.1514601885724965 
-0.260648417220753 
-0.3514394438965479 
-0.2105141204384569 
-0.2464148139031668 
-0.05456552255881728 
0.2404042610501826 
0.3853122256042505 
-0.3787377796363167 
-0.3827601002037332 
0.06305203154614535 
-0.757601796110307 
-0.8239875174824891 
-0.1260620719940929 
0.5263096216490392 
0.2311010878625564 
-0.1054740355367993 
-0.08692338882908429 
-0.8938541745729072 
-0.4299009534858641 
-0.2951776591701923 
-0.2562670552255608 
-0.4677942410280967 
-0.775812726402956 
-0.6627562495373486 
-1.183473621149125 
-0.5188870559782318 
-0.9038734293020375 
-0.2537177880036335 
-0.1267491774998581 
0.1319310565483472 
-0.02056794307018428 
-0.3053554945416547 
-0.163076824428989 
-0.09410075230939813 
-0.2747482013196278 
-0.4836148230235856 
-0.1567885860083494 
0.5048429334341414 
-0.1792167098389056 
-0.2292694023087112 
0.06267831842513724 
-0.2496236583217524 
0.8048735471217119 
-0.1961101377768542 
-0.04299729043004971 
-0.07954951942889145 
-0.1902747234396995 
-0.3247836016957538 
-0.1206143486812277 
-0.0721221759942669 
-0.3494258765516701 
-0.02182609023138126 
0.05747932501356222 
-0.3128505064134832 
-0.4567101121788035 
-0.3780864462963205 
-0.2272062093444605 
-0.130139368982463 
-0.3494074061033862 
-0.2153017751404653 
-0.2999967895361528 
-0.243449632419398 
-0.2541325119935823 
-0.1249193990524655 
-0.4152530862116013 
-0.06852340191476668 
-0.06530516049397399 
-0.6148355789230541 
0.03323492262585551 
0.06987245053837828 
0.4638799576250802 
0.2026426143710653 
0.3850172214530097 
-0.7839591773162808 
-0.1068543933777294 
0.00746867773688777 
-0.9050103461025996 
-0.227284156649541 
1.075434599993199 
1.121641178485663 
-0.1203484996911712 
-0.3991853704407592 
-0.3867423456646205 
-0.2891686996482372 
-0.6134381754722463 
-0.3013323972726171 
-0.02025660337347096 
0.3529075100393976 
-0.1922538190131061 
-0.3213579576106552 
-0.6634688734495413 
-0.1861178863430118 
0.6014961516286838 
-0.2661836821311066 
-0.2069176554815011 
-0.1491260492636711 
-0.4095656295778371 
-1.062569347152226 
-0.2835524238088142 
-0.3240644199333554 
-0.3213349205036405 
-0.2196526882292462 
-0.1939850293988837 
0.06184275432176385 
-0.4061203220706477 
0.6180108015204313 
-0.1733590774470626 
-0.6086876677613774 
0.4402950729229358 
0.7720716214411815 
-0.4493557542951993 
0.2149347161515169 
0.06719478487605995 
-0.9210624389470582 
-0.1562191783163276 
-0.001103688236212527 
-0.2183085226493701 
-0.1199691355908886 
0.3719588736582317 
0.1445648579911531 
-0.1305562174332312 
-0.5499239406572719 
-0.389986824459495 
0.1143447822351807 
-0.3586028088404593 
0.6288636608786488 
-0.3637381337886096 
-0.5163686335693505 
0.7121143709055469 
0.05234014996300757 
-0.4220970154677697 
-0.1798613222970407 
0.08535355214915444 
-0.7601991655763874 
0.7623754196351119 
-0.2535703164712681 
0.295285112882034 
0.06334785265003881 
0.7782275273168223 
-0.2839886522099548 
-0.3896083475636509 
-0.3636906193120595 
-0.05552684523437183 
-0.1237973615665393 
0.36646296427619 
-0.2994255863161372 
0.2505714427807433 
-0.2140810550790231 
0.02589255602415888 
-0.1454379916314469 
-0.2187509343715495 
-0.2886559439068447 
-0.7076118247596735 
-0.1381330915957076 
-0.1183171042875309 
-0.2870651690629104 
-0.3808736082939313 
0.5142329455287757 
-0.927359714380049 
-0.1138762021370748 
-0.4192437277091164 
-0.3752340748902417 
-0.7838864294498095 
-0.2359037419076256 
-0.529447988174615 
-0.1969841926291012 
-0.4984937878773217 
-0.1608419459305789 
0.324599822539591 
-0.8451486520216778 
-0.1353150638009822 
0.08627389713043492 
-0.3033283443661691 
-0.1395791587169428 
-0.04522959512883025 
-0.4074292580560608 
0.1512200693234026 
-1.133787945981771 
-0.2359811682823564 
-0.09705665592699329 
0.2334512692594223 
-0.09373402653767901 
0.5921694119172504 
0.03821855029412828 
-0.8312792285148211 
0.2942816792362692 
0.3292661943152381 
-0.1713409086600421 
