solver_type L2R_L2LOSS_SVC
nr_class 2
label 1 -1
nr_feature 512
bias -1
w
-0.2535404443152595 
-0.4648680657151167 
-1.057582825867005 
-0.1618620522138607 
-1.427873066337936 
0.1758078165804548 
1.058256710495503 
-0.4077753706473143 
0.3846359871498263 
-0.2416067062103394 
-0.248399219483987 
-0.6248833880639344 
0.1527017563942934 
0.6440035912790508 
0.2934355336324462 
0.2907603362400316 
0.2589174406294446 
0.314086530870272 
0.03573015105216366 
-0.5673032897502275 
0.8092129449404071 
0.4887744744249408 
-0.1957365061705129 
-0.6111401677371828 
0.5252543026875147 
0.2907936826646493 
0.1877935527869019 
-0.318889317893731 
0.2778558392929041 
0.1415360855943453 
-0.344263740420431 
0.3472204407418141 
-0.02012352210390844 
-0.4004521246338138 
0.1450894543498346 
0.288367082354422 
0.9592470910212531 
0.3932207408339685 
0.1289601911822478 
-0.1435728473537845 
0.1104025006916162 
-0.5160219873711492 
0.7045302249048201 
-0.1915209300653085 
-0.2758912935945169 
-0.2172587374370338 
0.8624179886205882 
-0.5637199745530255 
-0.4978900101188595 
-0.0078450424698892 
-0.09163416745037019 
-0.2953194030719307 
-0.2987853768871414 
0.1040222876707396 
0.8208731268580864 
-0.2058926116252867 
1.054999834772424 
0.1212536093031847 
-0.8914462790554146 
0.7343570053281104 
0.1544654506363858 
0.07555339932428766 
-0.3564869914100831 
0.02828401771192945 
-1.005997193401124 
0.4858861074344261 
-0.6934334074690648 
1.593717484549205 
-0.7532336773738367 
-0.4811287689578251 
0.9668663076053304 
-0.007805801362141916 
0.04987739474761121 
-0.3636328588904404 
0.02052695296759551 
0.1436677861410329 
-0.4255771718070955 
0.08123229759328071 
1.524907670399862 
-0.0914525326364458 
-0.2924665495356825 
-0.3366880473843333 
-0.3212964454227597 
0.2759575465216124 
-0.2197948599817871 
0.9877923234884971 
-0.4297222400770691 
0.6073130803333949 
-0.2841511689141283 
0.315957084469108 
-0.03907188852590391 
-0.3953717681112521 
-0.006395434206549403 
-0.6166262728056778 
0.5218842530280582 
-0.3710676040893928 
0.1444967578561572 
-0.450217954250137 
0.2914781871831286 
-0.01635632758642752 
-0.1614214667326991 
-0.1931272645782424 
-0.4169730174085998 
0.4190646443275365 
-0.5034623361615427 
0.08015094137361045 
-0.7706532244690543 
-0.1997316782339382 
-0.1935373682018719 
-0.4103399551624917 
-1.358646114644067 
-0.4562166705105624 
-0.5156544120799552 
-0.3461185336862006 
0.0800261106141238 
-0.09499879709073011 
-0.5071811613024365 
0.427687938202819 
-0.6336347058031481 
-0.5435623315609945 
-0.3925661042265802 
0.2950843205255537 
0.3588196287097032 
-0.04591600603966332 
-0.5574997007839771 
-0.25408747147584 
-0.4926492153927428 
0.4306441363946391 
-0.03054018554745168 
-0.2690490907360931 
-0.4786738738232917 
-0.5407385063139494 
0.3208731802110776 
-0.4360074872521936 
0.2102965996878704 
-0.4508676718889619 
-0.2912858009820574 
0.4331611932709701 
-0.4562983910297352 
1.018742758854085 
0.4295847113231094 
-0.7513080836697256 
0.4435805765999007 
0.2684333560505402 
0.5715570561033446 
-0.7181603532249808 
-0.3165773119500162 
-0.2394867148285975 
-0.2169259445007476 
0.2331426259615324 
-0.2926314550118496 
-0.1627362896959128 
-0.01985276890558143 
0.2548493464975913 
-0.2000436337369225 
-0.3189183617415561 
-0.676592878166547 
-0.2362611386568158 
0.05170170678950766 
0.2024312084689259 
-0.5994408768520475 
-0.06882133990332322 
0.2391218533488165 
-0.2033778330902616 
-0.2401638192352196 
-0.5741130052896788 
-0.5069354445163691 
0.09452916893026407 
0.2278342287456347 
-0.0813792638874683 
0.04511861722332897 
-0.04827047606022093 
-0.2553741484866716 
-0.2132449587014576 
0.134393511082614 
-0.5619286934840715 
0.725073505418617 
-0.06646544679317216 
-0.2145640487968749 
-1.420965004029924 
-0.1374727535999342 
-0.4011743732737259 
-0.4670357281876685 
-0.6768606864999684 
1.404533795471183 
-0.912979676114533 
0.2198519007294965 
-0.7310512128548121 
0.7149983946422289 
0.01204079798801189 
0.301595242562391 
-0.3071405779409688 
0.1753363740769727 
-0.3131648478998395 
-0.6273167528598217 
0.1387068823483793 
-0.8108661513282579 
-0.4154001677180414 
-0.8057135474180472 
-0.4663883000162353 
-0.5570388265121696 
0.05122051778085204 
-0.789925763464729 
0.4083288328344423 
0.4457060127630495 
-0.9065114234526676 
0.2699466134766595 
-0.09127574035896063 
-0.2579921250476297 
-0.1422522986745453 
-0.5104149518892808 
-0.1689483038175706 
0.6290859948755781 
-0.3950703283050833 
-0.3079547956201489 
0.7187536603118798 
0.2213607983285857 
-0.623737041439818 
0.2435053274423093 
0.7320497466010273 
0.2435957195360703 
-0.06319292942596455 
-0.5418792490373995 
0.08477253514926802 
-0.3979024832728741 
-0.3966691319857119 
-0.03742235339463895 
-1.436976646717989 
0.15173241348628 
-0.5123076404045042 
-0.3785491547205632 
0.2067337402672788 
-0.049944797359379 
-0.1949088968624866 
-0.2305383573428484 
0.1309576897818417 
0.3296314787816634 
0.03063391646375003 
0.7675648389942892 
-0.5505529877515676 
-0.6880825895839775 
-0.3621415960400713 
0.1878784056542191 
-0.1426781395033907 
-0.0813877511167449 
-0.0534101196337116 
0.618681883990757 
0.2832075987842976 
-0.7995565986264687 
-0.4667016707428547 
-0.0785608919354287 
-0.3808840995248846 
1.709799625278006 
0.02854617813299413 
-0.3827602192921756 
-1.141128095901778 
0.6495606716539557 
-0.2945449275609514 
0.1706385367898204 
-0.6102093746772697 
0.2387144785903115 
0.4701279576410038 
-0.1125395140540198 
1.243498771476113 
-0.01120330096426289 
0.04820443657521765 
-0.5580160782275027 
-0.448250897317628 
0.05236763574252209 
0.9895040297855201 
0.1720135580293243 
-1.004132516173965 
0.208297672919827 
-0.3862930168148306 
-0.6730295085679605 
-0.536936414506184 
-0.5836789513999545 
-0.8325268471433008 
0.7835192748435672 
0.1488811869624209 
-0.3956230292544695 
-0.2680395659929274 
-0.3839624839047018 
0.1430936578011516 
0.2868539251110046 
0.5489124548326064 
0.1694717647351413 
-0.3388781739444918 
-0.4857875418976503 
-0.2409425619105746 
0.07803070895207939 
0.6142067571447647 
0.4720758872804769 
-0.0462676162781003 
-0.3230103205122397 
-0.3084242981859281 
0.7167593201644282 
0.0902836950247603 
-0.7443722146432009 
-0.07153940090335145 
0.1614894187302724 
-0.04924630666210309 
-0.4018806627634393 
-0.3675162664516149 
0.5725008756417278 
0.1416884264829463 
-0.4000971536652004 
-0.7992528157794443 
-0.4544524935158317 
-0.3283020502760682 
-0.6031421305827925 
0.01629105725235323 
-0.06181498657339266 
-0.001780730333535567 
0.6649006229811268 
-0.2567644118722942 
0.1695777327092347 
0.6291465728869263 
-0.04281056369664706 
0.6932683154213546 
0.4960719600849605 
0.7090327822806507 
-0.1060930780329338 
-0.04802493367656928 
-0.06795159616512082 
-0.3054367426093658 
-0.38404061285555 
-0.6863119971576039 
-0.4958569991283447 
0.2966965964720768 
-0.06440044922365719 
-0.244592811990048 
-0.1943250090609295 
-0.1497346328781984 
0.4967980347041586 
0.1372570580049272 
0.2199990489023232 
0.3625486326713512 
0.1671294458207181 
-0.2181573734428527 
-1.256982251941516 
0.1906937341257203 
0.4672748808637137 
-0.0918525798620312 
0.2624884199799484 
-0.5632215598764758 
-0.07464698280572676 
-0.3435610072799468 
-0.766551065993918 
-0.2765576225459911 
-0.5014423824552197 
0.2534646423134874 
-0.8152200970050265 
-0.09028797087205401 
-1.119600736805741 
-0.4220235148148632 
0.0654654842978149 
-0.3137574941078671 
-0.2339491073051375 
-0.3102653448300955 
0.2067018155267505 
-0.5002527966845989 
0.1787002244957697 
-0.1909584349586261 
-0.7172270414385487 
0.5584470791162242 
0.1803933672412689 
-1.046137315617011 
-0.769510390051377 
-0.09366414448542414 
-0.09853296237972307 
-0.09939119085713125 
-0.4459513118777576 
-0.1545881794628808 
-0.4068078156536531 
-0.3106301203583104 
-0.6882402737269326 
-0.6634244782442623 
0.2797821921683216 
0.1533844422959333 
-0.1276570631475011 
-0.3144329887380978 
0.2494712030902388 
0.03006405857990791 
0.7058810546035442 
0.3620378917491582 
-0.003887376274086906 
-0.4705059668047635 
-0.0563959832042212 
-0.245189832729489 
-0.1687694198898443 
0.2790015482336521 
-0.1748833360627507 
0.5796517958282956 
-0.01791654780222848 
0.8476556206197938 
0.445447630705548 
-1.375291250257019 
-0.08692803577680311 
0.2904362341499933 
-0.729674809290329 
-0.3382589929429187 
-0.8250049798530175 
0.1255152908932005 
-0.0774503665594499 
0.5302777579233651 
-0.5552405201414886 
-0.146556558823098 
-0.2690506752123363 
-0.5825053209706484 
0.6239672480721056 
-0.370228332691876 
0.4473396307771697 
-0.01300965532327727 
-1.143507688041644 
-0.5852973627540278 
-0.6331089832415329 
-0.5089963148448667 
0.05927097831183016 
-0.06237140710885803 
0.4972908125924779 
0.4870467741414268 
-0.07329393428467629 
1.14832928163931 
-0.7836536412397378 
0.1475726339378341 
-0.6532439738273111 
0.1713137690960944 
-0.2978618941722549 
0.1235444432954064 
1.304065260309741 
-0.2389495772224978 
-0.01428399051772819 
0.08785019186002968 
-0.4416845622147232 
0.1948593936825063 
0.1457603584259531 
0.2696083496942873 
0.06201929036953459 
-0.6203970142876313 
-0.02081838812591823 
-0.1572015873567294 
-0.3853469434681771 
0.5138120965126588 
0.6357428429663421 
-0.5384725476808013 
-0.2045507022377956 
0.7777341311919044 
-0.3914764344377965 
0.01119169748738018 
0.5050239290505405 
-0.2348461202955121 
-0.1047808438861402 
0.085748755341711 
0.5995379742327241 
0.3565744353229929 
-0.1418965035011905 
-0.07546252891216813 
1.395787454827774 
0.6808287168618888 
-0.7121799907719607 
0.1940847889787745 
-0.5446180533964494 
-1.609030053466429 
-0.9508521476690029 
-0.1603844328794508 
-0.7986143796948247 
-0.5206396714205026 
0.03218938000036557 
0.244706312608104 
0.9180386390896486 
-0.1837420582941395 
-0.4746762150293333 
-0.2409066453247541 
-0.0344808787234069 
0.3441373454429681 
0.7823114522041227 
0.06742718285608075 
0.338448238188275 
-0.330505081343536 
0.1674281966914629 
-0.2654526901580928 
2.088494696942456 
-0.3493668194524985 
-0.2929835766309871 
0.4512936836755857 
-0.367903487233531 
-0.4967053353482324 
-0.6560887353878628 
-0.2225515663803861 
0.2837849104193345 
-0.3095389269706945 
-0.1556641525910647 
-0.2072249075078393 
-0.182506642733326 
-0.6596110162275588 
-0.3195575950559378 
-0.1388621138765322 
-0.4424013773235059 
-0.5245495480177532 
0.133297188363812 
-0.7466274683480479 
0.04012262043096629 
-0.1138400660625877 
0.4613870466545756 
-0.07187078533298362 
-0.6746876438398136 
-0.5087579569867876 
-0.729133390321662 
-0.6509762527907229 
-1.069128227461108 
0.1193662487454924 
