solver_type L2R_L2LOSS_SVC
nr_class 2
label 1 -1
nr_feature 512
bias -1
w
-0.1450530811856729 
-1.11454866544943 
-0.4772276961179476 
0.2190179191623527 
-0.06271405277109376 
-0.4645904480812086 
-0.2310929894954027 
-0.1263800141913366 
0.89247496143863 
0.1419842214641521 
-0.6736357597327587 
-0.1196118777864407 
0.4765434445107182 
-0.2331761463112074 
-0.09806485471136328 
-0.9152313162328941 
0.3276704141857993 
0.106379981529358 
0.8675942896628952 
-0.3578603105562917 
0.2565951732315619 
-0.1105849529192663 
-0.2552152006478401 
-0.9670410516222884 
-0.4154260209164829 
-0.1202190095747012 
-0.06182860751058281 
0.57656900425628 
-0.2503231357729469 
-0.04684386743117877 
-0.5387355818358374 
-0.1413993489350316 
-0.4034126898019021 
0.4422266305740778 
-0.2131829024314768 
-0.5758801022235809 
-0.2679027575847219 
0.4485741065343137 
0.0559312091823114 
-0.001454179143332118 
-0.2053806178638337 
-0.2413300980564362 
-0.4793296562934627 
-0.1458734813488527 
-0.003346244275434052 
-0.1763851640355769 
-0.06328561253782899 
-0.3107141893335331 
-0.1262830931507877 
-0.2565635405187803 
-0.1835811884453725 
0.1933107254635464 
-0.6075429605964564 
0.3592842592893335 
0.1921113207030906 
-0.4557154470966638 
-1.414220993057956 
-0.272218692753086 
-0.3965440386190928 
0.08702174830354559 
0.3102869239829119 
0.05434541479030194 
-0.138692790918235 
-0.2361224651901141 
-0.2731252490886426 
-0.1333651190822333 
0.09239931009944496 
0.04305375707827429 
-0.9994205890770596 
-0.006660974814984128 
0.02357830548860976 
-0.0649842007684699 
-0.283522667433703 
0.06634078305681418 
-0.2280664842565571 
-0.1555454513911814 
0.2075369848764207 
0.06903817486024191 
0.2573572552337029 
0.1564377718260467 
-0.1658814631448911 
-0.07623496745607972 
-0.4571110119591367 
-0.2985229704899597 
0.1639284110512112 
-0.1274920185577063 
-0.2279056954788994 
0.00515758631434266 
-0.1195172384991121 
-0.7556067676278901 
-0.2761395237005044 
1.042891215281643 
0.724638927305351 
-0.2035523208980449 
-0.3365209400832036 
0.1677738429041581 
-0.192762400431235 
-0.3463106924890342 
-0.0009337675984098483 
0.584690005059376 
0.2935263536674557 
-0.1047869962917652 
0.2406650002349092 
-0.2368244139930668 
0.6994981512454332 
-0.1253070067773083 
-0.5772103420782344 
-0.07002704643347121 
0.1396845248260471 
-0.1623406859603321 
-0.9669069652706729 
0.4066457699475275 
-0.1987143423237218 
-0.1290340639268733 
0.6683830707023924 
-0.1724615575338521 
0.3000268566934958 
-0.513495453386177 
-0.2190266199918273 
-0.2529324401252932 
-0.3901922181938995 
-0.05262555222448304 
-0.1969436637349266 
-0.02710281906859653 
-0.4690065430877504 
0.02815094663714074 
0.5129721967451908 
0.3219987110444817 
-0.09505871695259367 
-0.5110296320768032 
0.5175990085813271 
-0.3381612461317978 
-0.1052922259202352 
-0.2078371620401278 
0.4336645254496524 
-0.07749435892207469 
-0.1050326195209862 
-0.1150387994226341 
-0.06951433432724784 
-0.2248092931956408 
-0.1892049793010464 
0.1416779696412114 
-0.155884438884379 
-0.06199362241339678 
0.2180954340812208 
-0.2663336640971884 
0.1498670139681559 
0.2654813195632598 
-0.20271853534666 
-0.3105204192826418 
0.003536633621432216 
0.2227456399848201 
-0.2512815923680629 
-0.1706444859986269 
-0.3008866893904896 
-0.2123488388351431 
-0.4162651826490498 
-0.8697429167924287 
1.189966651159308 
0.06366916044862651 
0.2109460160161535 
0.1177740660353655 
-0.1738367679866921 
-0.1260651005958895 
0.5240512954693484 
-0.9539359099824912 
-0.3872407201333685 
-0.4533346811462303 
0.07414555231612793 
-0.08953045520244038 
-0.2204252164738372 
-0.5354241526135792 
-0.01223347278044469 
-0.01298546310953355 
-0.1342869570996541 
-0.4753916571232842 
-1.517961352670472 
0.003145112830170929 
-0.1374069878664974 
0.2515356492647402 
-0.1157884389045671 
-0.08434371862081569 
-0.4376513751494058 
-0.3772324178788989 
-0.1696215748003041 
-0.6512355724715412 
0.4847983370444107 
-0.3158374244676555 
-0.2153742063855134 
-0.1118861684131211 
0.2648778646409594 
0.2843705930240174 
0.2895245703275973 
0.03622153652118558 
-0.5624228379758932 
-0.3010250900692092 
-1.553003241735267 
-0.2824241789621504 
-0.1316444723092036 
-0.2028825976378795 
0.7410494658581186 
-0.1235127414873234 
0.5275837621180213 
-0.08657829484971261 
0.05591287606593934 
-0.4303991555901641 
-0.3321370496614926 
-0.3452747992242416 
-0.06562687112666137 
0.07055224155021242 
-0.3607127122849951 
-0.2513788116369858 
-0.002130684500162633 
-0.01587752369729222 
-0.1995566810737538 
-0.2906684884642293 
-0.4208482664556605 
-0.1494718410264156 
-0.4754884824814985 
-0.1487152067310034 
-0.2310544941802924 
-0.02999513844708646 
0.2019502009336417 
0.1573212680276919 
-0.1703557813492033 
0.2478799510796867 
-0.2094175156607448 
-0.1548980894090541 
0.131230215823309 
-0.287434259995926 
-0.5721739359839096 
0.03165597356919791 
0.2350011714140867 
0.1752889771306534 
-0.1151590267347632 
-0.134383850569128 
-0.2170402491840004 
-0.1470702967476885 
-0.365411963107739 
0.003644562322484069 
-0.2048148611625172 
-0.227874559795206 
-0.08259206401998404 
-0.1081539750361121 
-0.08195752920850427 
-0.1236603304175136 
-0.4160580872630589 
0.09031543779724606 
0.5633858044156548 
-0.3133695551804568 
-0.007798930370443075 
-0.2238298024384862 
-0.4160508430034236 
-0.05251553398388546 
-0.4102480673797856 
0.3565045692024538 
-0.2005233235556761 
-0.2493461695644262 
-0.07651882617670837 
-0.4832116757007172 
-0.1153359866981125 
-0.6461262946842864 
0.1757428777139971 
0.4819676982139865 
0.1961394555301712 
-0.1375194519798582 
-0.07565116924225299 
0.1787924121866918 
-0.07496951043365702 
-0.1950640391005278 
-0.1777656963032279 
-0.6998957863589375 
-0.05183778499230599 
-0.2019412732909724 
-0.04126122243222192 
0.2104335179913243 
-0.3636747303010118 
-0.2904588428741938 
-0.1170312823376888 
0.0310438859152841 
-0.1983296550394669 
-0.2079109829007816 
-0.07367773674065728 
0.03735534728576168 
-0.1123920040394463 
0.206454809416986 
0.4822358247502592 
-0.1519150950584976 
0.02334303252266729 
-0.09089083734050699 
0.02284183941170989 
-0.06313528621117384 
-0.1546869875912511 
0.204970679839216 
-0.2397127487626784 
-0.4600904062461852 
-0.5255808189937232 
-0.6290506460490127 
-0.4049550077012253 
0.1242059635224231 
-0.4786611462739642 
0.05148094704328234 
-0.1400227689021958 
-0.4482103185161582 
-0.01630513447617601 
-0.2013759382623021 
-0.07814560067895353 
-0.1792125933097302 
-0.1471499776940842 
-0.1647367048549663 
-0.1820280439495393 
-0.3510441706032885 
-0.02748863039187992 
-0.006999768872485232 
-0.3929219047070057 
0.3664047813391684 
-0.1208679262709561 
-0.4571388297574532 
-0.112568656358765 
-0.4814772142267598 
0.1864627837207892 
-0.02209383789061801 
0.1946794331052961 
-0.1249156456572968 
-0.1527279020565145 
0.09839094728105777 
-0.06615204675084405 
-0.3515264477146213 
-0.2161557163570434 
-0.05578901042273866 
-0.1764319654413774 
-0.2675440518227389 
0.00733044377661636 
-0.1649013074103292 
-0.5657624377687375 
-0.6276010938778521 
-0.06003542214659005 
-0.2608963913924492 
0.002174802307519278 
0.1057898963626742 
-0.3285374031999417 
-0.4375553223902899 
-0.2270198895351656 
-0.1689770079135603 
0.07554745082819095 
-0.4176397721211919 
-0.3243290460591005 
0.2208658649741716 
-0.4113010580094941 
-0.429365981277834 
-0.1944159309992665 
-0.1324458351679507 
-0.4544380215113061 
-0.2565477184884848 
-0.5242652448938431 
-0.08875516863707476 
-0.40484084277645 
0.4633142219454234 
-0.3118649564611469 
0.4038235583147013 
-0.4430063594922206 
0.06378857444386826 
-0.138080574907468 
-0.03366089734011804 
-1.271735584534483 
-0.03783274850496041 
0.3612056434692159 
-0.4698105495577108 
0.8428716193318149 
-0.0567012457640718 
-0.1339346066494505 
-0.02915321365275537 
-0.3129884901264084 
-0.2498608281649431 
-0.193181845862392 
-0.008548445870317554 
0.8507380166043526 
-0.3291187455111372 
-0.2263083593427783 
-0.07489936051231687 
-0.008332329322885017 
-0.1116451923140996 
0.3472016053168717 
-0.1418291184765589 
-0.1594854687839011 
-0.009885183928905911 
-0.1137165180297629 
-0.2649900602600794 
-0.3961175685218402 
0.06307017686929191 
-0.2557057348500259 
-0.359076978537491 
0.1366667877941854 
-0.08012127319425034 
0.01895660356375617 
0.6017017444437137 
0.1701553779699259 
-0.9447082462770484 
0.02386885012986173 
-0.06201433513111252 
-0.1540397986022569 
-0.04425212721892768 
-0.3169230059526305 
-0.1190728380944998 
-0.07288304637745721 
-0.157348182589276 
-0.2637677203168238 
0.4501020476769063 
-0.4305817601790171 
-0.1012930218745287 
-0.02027194499430156 
-0.22181789673476 
-0.05510671062135541 
0.02404597296669054 
0.02242249355322412 
-0.354993151166718 
-0.1613363175245601 
-0.3849273516927989 
-0.131759324323701 
-0.1023346470121607 
-0.1183446293812836 
-0.9005284184188476 
-0.1915758379721698 
0.2674311405848673 
-0.1995549817693455 
-0.238282378663247 
-0.10863676572416 
0.06063427566663995 
-0.1174323964341705 
0.3131507079728093 
-0.1268657280051219 
-0.4867884548177562 
-0.224260483402334 
0.143159489313115 
-0.4161957712005682 
-0.01583147240919627 
-0.2272279433617157 
-0.5823078617673968 
-0.06528777424088912 
-0.3418625277030754 
0.7239074170633777 
-0.08363548932661037 
0.4506899333810752 
-0.0226120968071708 
0.08535159979691764 
-0.4068970406254181 
-0.1748450169651496 
-0.03655816535318938 
-0.03759663813466035 
-0.1007278088446518 
-0.132932344664957 
0.1805300138128057 
-0.2054354972873277 
-0.8221092167792823 
0.08542778710216392 
-0.06675937420252767 
0.938221688157085 
0.04365612806958913 
0.2956170426527844 
-0.07312591244851173 
-0.6150275954121752 
-0.1241956091254842 
-0.2053846666028744 
-0.4523133882357431 
-1.15188160664465 
-0.1326428916458318 
-0.4176052642920963 
0.09778769507637292 
0.1908436398584538 
-0.2493786965323455 
-0.09821413606435722 
-0.09301522987271825 
-0.2978211039835087 
0.1460004135426602 
0.1420106005461107 
-0.2015162979594327 
-0.4595729604118464 
0.1707154533075559 
0.04935231848505239 
-0.1888550237186796 
-0.3903752862865743 
-0.01879603333304465 
-0.2576645306518642 
-0.05114632267276668 
-0.2192955839770528 
0.05495065073157678 
0.3365748899506327 
-0.3887268526667538 
-0.2930017088554409 
0.04523981690481427 
-0.1569502249338074 
-0.2298699502626035 
-0.2931063725953876 
-1.17223156145511 
-0.0200653535451518 
-0.4809492648292447 
0.01636957968020546 
-0.2367886451288198 
-0.2154889372690966 
-0.08114470982486281 
-0.2341409170946462 
-0.5639337318643308 
0.06595053150146261 
0.08247601267517063 
0.08890214591217467 
-0.05567913683836185 
-1.006868570462321 
-0.2918554338360871 
-0.7929551009193578 
-0.08316726169038194 
-0.5418577384329161 
0.2390820867960353 
