solver_type L2R_L2LOSS_SVC
nr_class 2
label 1 -1
nr_feature 512
bias -1
w
0.03662834533720438 
1.058820141117562 
-0.3792697279129051 
-0.1343594687507445 
0.6604809029045959 
-0.5782586034507655 
0.7527607325549184 
-0.6712627034295131 
-0.333269233746115 
-0.006736295357775327 
-0.665381149304878 
-0.2653016293913954 
-0.09524134777783026 
-0.1478667893906753 
0.01003198398077765 
-0.9271446330411005 
-0.1576838805955364 
0.3331525623876767 
0.7268571956114708 
-0.44120286910275 
-0.3335928606324504 
-0.132030159720365 
-0.5517539914578842 
-1.009683212568463 
-0.1899044827436728 
-0.03217662935888708 
-0.07473773104684943 
0.1953326401896027 
-0.9478620300013681 
-0.09223394579728042 
-0.151859926633415 
0.1009957769328107 
0.04751147833061456 
-0.2528929989328406 
-0.2421069233866857 
0.820835774563473 
-0.3285021189173868 
-0.2402872069845663 
-0.4462462703254547 
-0.09468501948932188 
-0.4510059112775165 
0.05693533393415485 
0.3694821115433271 
-0.1736844798940065 
-0.1284478981281581 
-0.09008053458282125 
-0.07201994623310004 
-0.2462301691800635 
-0.2354796718974584 
-0.5835648425064897 
0.7193898278849012 
-0.01188396865860213 
-0.67691770127975 
-0.04652642107678731 
0.06322396875336213 
-0.4772852523003336 
-1.152801033123224 
-0.02442657597164705 
-0.2226248397238196 
-0.1722533234980287 
0.376217832611723 
-0.1775197744428963 
-0.1972598213576945 
-0.008965759252078155 
-0.6044834882235705 
-0.4439680373118962 
-0.3688194981760758 
-0.3281403035776563 
1.3018779735999 
0.4663236145389153 
-0.1549288188172408 
0.342582675384537 
-0.06998328724885049 
0.925882695693546 
0.01749693186787207 
-0.2118028550089926 
-0.2278803851129681 
-0.2485313103745468 
0.9035924728804366 
0.2503506836896615 
-0.4065773277548191 
-0.07119084926314015 
-0.6124426764895636 
-0.3921081925991029 
-0.1566975595039062 
0.02634883893287141 
0.7589873838930385 
-0.2112843798968199 
-0.2068081794757453 
-1.009026668792356 
-0.7146608441057234 
-0.03224409144262621 
0.05393966810107831 
-0.2806121427511272 
-0.1823190722995031 
1.282809949512334 
1.306774393433333 
-0.2328549745248333 
-0.1070064240290818 
-0.1012414120177856 
0.01516038241842276 
-0.334207708634934 
-0.2635650473391499 
-0.3562438943016679 
0.08761353547876022 
-0.04962189321722411 
-0.7382496195606127 
-0.3563375611887486 
-0.2952123243310301 
-0.2065132420465899 
-0.9351302283720281 
-0.2353226136443598 
-0.1712706507922655 
-0.1352045696004331 
0.007690517001167949 
-0.3567698685047339 
-0.2393930942889312 
-0.1556698711183534 
0.5909778104754805 
0.01061080408874351 
-0.4255113386555786 
-0.1153907010068728 
-0.2971458299691463 
-0.2250871573513398 
-0.3813024014436462 
-0.1403438500336479 
1.914688100893216 
-0.2429524315676084 
-0.2571864736094926 
-0.2790897652603131 
-0.3753388318159354 
0.01153710959654513 
-0.1461889183964757 
0.2425837306337262 
-0.4409714320369118 
0.3933595130148351 
-0.04141983526370322 
-0.2049811866414407 
-0.293362953046475 
-0.5547472973446933 
0.1505233773643685 
-0.4240433070531813 
0.01027337567766175 
0.201071208223056 
0.3362280825767966 
0.1637966569713049 
0.3217208818925257 
-0.002178047854985037 
-0.3754837507469372 
-0.489458226064354 
0.416554069724316 
-0.1865374826555707 
-0.2027362105021467 
0.6890325747394604 
-0.3629923342645064 
-0.24614492389108 
-0.3874378347836134 
1.104509131996302 
0.1096023159478338 
-0.2779169121013718 
-0.4214789550695662 
0.1422132428308859 
-0.03672689404438576 
0.2724193157621826 
0.009655742691352673 
-0.8629812731439911 
-0.2536620013350007 
0.4856907696305887 
0.9960228816263904 
0.02870656290667067 
-0.3359090211347374 
0.05187070802364162 
-0.2685334588157695 
0.2667694483698239 
-0.1157337262191955 
-0.7024536706310122 
-0.4150601370765876 
0.4275724197046155 
-0.04760200919352636 
-0.3292682227177189 
-0.04855037390452427 
-0.1581218479322691 
-0.8729635437049844 
-0.2268982138064703 
-0.06937565195646937 
-1.009116791376822 
0.1425541656406425 
0.7776399646698008 
-0.3623758098475492 
-0.1241287292363906 
0.5935634983514438 
-0.1211159382980722 
-0.3221160973210588 
0.3431125617424773 
-0.7184330777922491 
0.5618048785638842 
-0.1918001331886068 
-0.3642078945937395 
-0.4767273819133657 
-0.2097094395166623 
-0.5530116595521772 
-0.1761623752899814 
-0.441379406343788 
-0.02207121289443583 
-0.2483117532509042 
0.1140777573566862 
-0.301716179581946 
-0.4397057423350651 
-0.3374547009667923 
-0.2911533723592801 
-0.2364073464246315 
-0.3210992360172297 
-0.3822458455606734 
-0.2992785742084233 
-0.2457139011310867 
-0.1305251771768062 
1.679489216853668 
-0.2527369480176522 
-0.1836106219717206 
0.7882823057636633 
-0.2265741345241658 
0.05658473019518027 
-0.06673616759600519 
-0.2871677093491187 
0.8598290750900378 
0.1712672001963665 
0.01821153341763259 
-0.6967116480055481 
-0.140255643023064 
-0.2605900659017047 
-0.4484348318674561 
0.06376977443794649 
-0.3013302507123519 
-0.212078076739509 
-0.140824591966679 
-0.2483706276011779 
-0.6897533579442461 
-0.2555624741487025 
-0.1986773023533591 
-0.09922816480004018 
-0.659113923741913 
0.09480931086032518 
-0.1961217836279066 
-0.05914044368848834 
0.5870803737480944 
-0.198564580557478 
-0.5684096552731748 
-0.1809566298379771 
-0.6816330571018236 
-0.1352985819567984 
0.3104880179878445 
-0.2838391218583641 
-0.3663445962406303 
-0.3495218134483822 
-0.7283227015321545 
-0.2216549157788651 
-0.289693065103508 
-0.3876369684795448 
-0.2789848222046007 
-0.5623919588181637 
-0.1973020496241311 
0.1834753729167528 
0.9674820010358613 
-0.8024450390934135 
-0.2823970530704569 
-0.1067617305229897 
-0.2009254888138206 
-0.106429903093162 
-0.1628177762989532 
-0.6252213562692615 
0.1810598703030979 
0.05844793500894774 
-0.07047153862294231 
-0.2153639882031894 
-0.7610572002472961 
0.0408181559644922 
-0.4360361279023492 
-0.5166046478680414 
-0.173409207614759 
-0.1116307915716884 
-0.3230486902177648 
-0.06377720132956215 
-0.3081978180231162 
-0.2717398103973304 
-0.6397846205317873 
-0.4397015033409366 
-0.1688179901151687 
-0.09435647701739867 
1.06340785890061 
-0.1986045136732369 
0.01848817486478559 
-0.1407539880070504 
-0.2388428025619394 
-0.1860917413622954 
-0.05667367292020511 
-0.4237685163525177 
-0.9206913233360092 
0.6537409600956737 
-0.5855261708401124 
-0.135141129234389 
-1.14650982723889 
-0.2799350236974988 
-0.03580198399563053 
-0.3672935226521522 
0.696336066841576 
-0.4774183571565156 
-0.1842534634090737 
-0.09634350549792593 
-0.1584537529094187 
-0.1908755820819823 
-0.3031288456042449 
-0.4017011877534793 
0.1940379453910636 
0.2000508474630015 
-0.1897318140272116 
-0.3951806191277661 
-0.2812860510981319 
0.8559519327370483 
-0.5287026506387725 
0.05302182983147565 
-0.220992019902234 
-0.2324455400503729 
-0.1625143145301094 
-0.1595362711494659 
-0.007166728217289369 
0.3293523705529375 
-0.4014448923097297 
-0.3299457186525787 
-0.6780763544269306 
0.1247359886872637 
0.220524186276228 
-0.3703691620217742 
0.13646958250799 
-0.2210914640865923 
-0.3261831173364368 
-0.55872626152233 
0.2792833879592628 
-0.3771954000391772 
-0.1974105259830458 
0.1714350434065798 
-0.9908207934674709 
0.4660577761451727 
-0.3945617066945595 
-0.2771952648390771 
0.2523867353963133 
-0.1814010600490611 
-0.5163302050698269 
-0.4242512024990726 
-0.9392615980948248 
-0.3153918607742768 
-0.2113566317185164 
0.2969931785243757 
-0.2637913210796725 
-0.4019195481909705 
-1.362086018592116 
-0.2066141934274614 
-0.5589676269228766 
-0.1648183962491414 
-0.264828001917309 
0.05576577113530977 
-0.329422722365 
0.2421392350645581 
0.4401262118355558 
0.01702639894127193 
-1.253244253554446 
-0.297371972945666 
-0.3980408244996281 
-0.6865373975298031 
-0.6903210771562598 
0.1661789844641511 
-0.1830522044586878 
-0.2748202076980237 
-0.4119236916757626 
0.06654906203666576 
-0.1580994049417898 
-0.2588430179887727 
-0.2851368871435085 
-0.6798420041236772 
0.1971899406407763 
-0.4767493480034175 
-0.2769688119664864 
-0.1403324904919637 
-0.4237865466643351 
1.211801827619038 
-0.1583835492046152 
-0.2006811278857075 
-0.06737730825294615 
-0.4110144706785389 
-0.4574332733633185 
0.1775613459462806 
-0.3719290224387501 
-0.3449356112305428 
-0.1481316132670893 
0.8308949008849577 
0.06245628215491091 
-0.1288879512963052 
-0.2775980693783839 
-1.08845798218443 
-0.03277620609540779 
0.4500551609581385 
-0.7422418019346316 
-0.2107829624825072 
0.6258802206767992 
-0.5812465912548797 
-0.16240840499213 
1.332798867752962 
-0.4123934306172156 
0.3572918840537096 
-0.3067831711780274 
-0.3134664457968799 
-0.2064308551178638 
0.555358170871209 
-0.3933894875582281 
-0.2217677112558237 
-0.6850919656436101 
-0.4608711909765025 
-0.7825975072652014 
-0.466010238152881 
0.02910396956104365 
-0.1355786630548498 
-0.2876116235525015 
-0.4571998406296936 
0.3694782688737426 
-0.1665386204055483 
-0.3908314917301128 
-0.4795446276893785 
0.2809935059007703 
-0.269582918150278 
-0.29297157178937 
-0.05869898867163048 
-0.2113009156912065 
0.6364668553178301 
0.5695448365087158 
-0.2281879286499493 
-0.4829968735536466 
-0.2809208700555961 
-0.2478216772677751 
-0.4639739979053685 
0.02442531820199461 
-0.237579614067454 
-0.1177023395504534 
-0.2659362771030003 
0.02180246134781564 
-0.0004362126249674025 
-0.2385371670599086 
-0.07404228178731159 
-0.3353759656155117 
-0.5483200897413123 
-0.1625251862499595 
0.3617492058422141 
-0.3417131539154075 
0.03144758038276234 
-0.3444233913898954 
-0.2571426972559895 
0.06954633032805715 
-0.1306355155243462 
-0.1015563190260444 
-0.439583577646317 
-0.3644563097482056 
-0.1150616772354998 
0.4532613552611852 
-0.1534147214877042 
-0.3715645406098299 
-1.081702445892867 
-0.8487477217578995 
-0.3634027093959776 
-0.7482113004429107 
0.09143899319280081 
-0.3725501282801468 
-0.1467002707454146 
0.05292024746891123 
-0.2397651105510582 
-0.2867537981544181 
-0.3946294659791146 
0.07233113299966891 
-0.009806404532404066 
-0.6551412429859953 
-0.1534926423710882 
-0.2586088131603679 
-0.1042395743288174 
-0.6239251993679193 
-0.1916555684228264 
0.4793471427889522 
-0.1236197963639712 
-0.5078722810763909 
-0.334063952978381 
-0.01523115330147613 
-0.6830309813037815 
-0.1403955624403798 
-0.09158142907304949 
0.02304052043350013 
-0.2197241250335306 
-0.5633540726472704 
-1.20420300511994 
0.2655407725094143 
0.3903813673102128 
-0.2641975218868247 
1.251373489766804 
-0.2681264624097904 
-0.2723601396310763 
-0.06161328634471763 
-1.230893350426867 
0.3384331992806784 
-0.04252167403209311 
-0.242196526158913 
0.2032206288563366 
-0.6953907458410196 
-0.5159185796548036 
-0.001912299841320816 
-0.2146270433348982 
-0.5642187261668785 
-0.1340279598292985 
