solver_type L2R_L2LOSS_SVC
nr_class 2
label 1 -1
nr_feature 512
bias -1
w
1.219421341645083 
-0.1072375901215688 
0.7998158578589456 
-0.2415866725577664 
-1.531438994887949 
-0.3038192081695293 
0.04050625499176382 
1.1767028593288 
-0.4480463996589901 
0.1262404810528759 
-0.1074477015696853 
0.3592594697112256 
-0.6951385338644595 
0.3661134807505694 
0.5227629597840453 
0.4985269811012573 
-0.4259348354682457 
0.194967318583679 
-0.591546146916523 
-0.3399319331112894 
0.9575931417296083 
-0.3043206488461161 
0.02146027556048059 
1.21442678541351 
0.9530843973296315 
-0.4028162808121288 
-0.01555417547733796 
-0.3938224567163599 
0.5161428305640463 
-0.2433803545880448 
0.7486596254652041 
0.4348835649663086 
-0.3692864785002715 
-0.9157172756310618 
-0.4053487669538705 
-0.6116160770624414 
-0.3406574262340143 
-0.3740449412472184 
-0.6492262919758903 
-0.2282959758553298 
-0.4515717172472469 
-0.2160658806172447 
0.3860009636650625 
-0.03491707336396061 
-0.07532989185355346 
0.02235041197239902 
0.2001670739381675 
-0.18002738416537 
-0.3225869236255909 
-0.04789597958659234 
0.1101641392871777 
-0.222493846583748 
1.199375978254983 
1.505983209089139 
0.4335617641724679 
0.1789228831916786 
-2.299139158143579 
0.3936574808120791 
0.9873760657565186 
-0.2010841012423534 
-0.1406175100819916 
-0.04604426273647808 
0.05037518244415173 
-0.4731571776205266 
-0.9032452254472568 
-0.6680294987959483 
-0.3286206210402127 
0.2089317956578055 
-0.6230363196033536 
-0.2944186531202395 
0.7165542457201088 
-0.1651799597329873 
-0.3042791877627538 
-0.7236419396795208 
0.1190676124372003 
0.07915439793136982 
0.4068486373271715 
-0.616944245131096 
0.4890141301214629 
-0.1982905582498659 
-0.5492444022905433 
0.03690152612476545 
-0.1461204535301985 
-0.3683241700116063 
-0.526768531867886 
0.2816250461314522 
0.3775117491199605 
0.09818005958873224 
0.1644869398113703 
0.4252544665504471 
-0.6888028410233781 
-0.3267455090580847 
-0.1341119712512859 
-0.4462541305631743 
-0.3387098417067377 
-0.2091734873656196 
1.075736605817973 
-0.4720473329276517 
0.3574237790256077 
0.1919253306093076 
0.09069078958902316 
-0.2248291141119814 
0.1979719878645544 
0.2359204319704311 
0.1249198928990444 
-0.1445722334393939 
-0.5334155716298349 
-0.08916141118636473 
0.4314983191451426 
-0.28834545364985 
-0.2450157799268623 
-0.3012309823778305 
-0.5389315650917837 
-0.2057533418914755 
-0.002156898960847514 
-0.05057839531970255 
0.1198236757449673 
0.1634535551541003 
-0.2869543529351084 
-0.1072586954567465 
-0.2436515322334893 
-0.1665594787147028 
-0.4327956791364278 
0.3739006776549854 
0.01447560134716836 
-0.4465713739572333 
0.7369709986007928 
-0.3529587830402885 
0.08089243687963044 
-0.7297194797349077 
0.2017774004539013 
-0.2594195237815702 
1.610596748976659 
-0.8323498922003334 
-0.2968767062680976 
0.1138576961741632 
0.2808296081710097 
0.03976037054489449 
0.116675030404606 
-0.5341182339739944 
0.3716310874256884 
0.1467356486327793 
-0.1472456815780295 
0.1777208866503311 
0.2531323203062509 
-0.08193979306312053 
-0.06971310556084631 
-0.2457516191988579 
0.1888729593231601 
-0.3231536744855111 
-0.2255333559483668 
-0.5292100204479866 
-0.5415009376634973 
-0.09076867197220612 
-0.1988021317812243 
-0.09232741993519339 
-0.36999945715167 
-0.1055471803637036 
-0.220244381958522 
0.9211766247957096 
0.1401322201788274 
-0.1151407434835686 
0.7930161983769624 
-0.2823028574341148 
-0.1196380835021169 
-1.188008066423102 
0.1496215105837312 
-0.8249954957337596 
-0.2680850518965572 
0.3455599335415511 
-0.5280289518786001 
-0.5470173471641002 
-0.2493569051155572 
-0.3160895322091593 
0.6108390053954322 
-0.191412552738293 
0.3785955594303332 
-0.3106405947322998 
0.243767641924763 
-1.327715393992843 
-0.1361601614185925 
-0.4374489253748479 
-0.07250707686297085 
-0.1806426975386061 
0.3380472250400058 
-1.090582031329575 
-0.185578440627866 
0.08877113275411105 
-0.4764524034398798 
-0.175487353529457 
-0.298497075359736 
0.1039795837999464 
0.05835925925993846 
-0.5352751631429005 
0.09230951720779905 
-0.05301637737383363 
-0.9875941832774532 
-0.5189670775928752 
2.117481309811577 
0.8155150559434763 
-0.8861370232440691 
0.35958590106271 
-0.06684418385826849 
0.03689580114973266 
-0.3907445244405398 
-0.5769137669960406 
-0.661932027812124 
-0.3335757067153911 
-0.4370790583631374 
-0.1012056366826934 
1.491560834314259 
-0.5925584870219284 
0.2289946216114569 
-0.4113726790406266 
-0.2912674342591807 
0.2513219462092723 
-0.8493935701470037 
-0.3172605838278109 
0.5206204313703476 
0.9086333020131133 
0.05757394854036872 
-0.09270301208604602 
-0.5374354071654169 
-0.3157127810931306 
0.3042579037703192 
-0.3640304569778438 
0.3420789124928363 
-0.4704217217908893 
0.1119578582439688 
0.1093909006083219 
-0.4719589382888711 
-0.2292144858299595 
0.1016928965853941 
-0.2102453009518827 
-0.2667092426814726 
0.346190839135193 
-0.570547994132694 
0.9359652586225427 
0.3391766543922934 
-0.4338816182457308 
-0.7012491736770591 
-0.01337271869606198 
-0.09789163149792826 
-0.1468350110217391 
0.2812731915389876 
-0.06231792554484215 
-0.7524858687558158 
-0.1773541693313431 
-0.5030289810070994 
-0.5957415740893847 
-0.5140996974234731 
-0.2880863216497795 
-0.1044275342513165 
0.3458932539494853 
0.1784462876592219 
-0.6492285561023716 
1.026164257654847 
-0.2546015219787353 
-0.302007754473415 
-0.2922469764420486 
-0.3771232600878931 
0.05284285578087887 
-0.9608820783111411 
-0.6433608476920646 
-0.2881509042499714 
0.003272744585787832 
0.3710561278175448 
0.9371056358370665 
-0.2714606620295457 
0.7107264910982024 
-0.498367495477094 
-0.8861243434965302 
-0.1859166212669398 
-0.4085779542692015 
-0.7295605249707035 
0.3787809647162574 
-0.3395880087765726 
-0.6564725032224584 
0.03252141254396191 
1.04298231145928 
0.2189336433464489 
-0.1986370394980353 
0.4541415383367386 
-0.08211080623993507 
-0.5115648777692017 
0.4877555200670509 
-0.2611926508176879 
0.1315129253765157 
-0.7780347811513431 
-0.2779917479549932 
0.3630723995509451 
-0.002228062033227226 
-0.1931733202305564 
-0.445767014933918 
-0.312250287906348 
-0.3596391058107197 
-0.9539501618310946 
-0.2110697380584957 
-0.1079154446416339 
-0.2615258033449331 
-0.8663256138284564 
-0.3257779795752043 
-0.2925485841590759 
-0.5233946272087144 
0.4910675253054227 
0.1378264327472145 
-0.3123470552406394 
-0.5007272012353995 
-0.2330661601945549 
-0.1310211543825738 
-0.525106619231372 
-0.1802836074757331 
-0.3601331794557646 
0.1581841383564308 
-0.743769248488667 
-0.7033019951590617 
0.9409424252096468 
0.8284794286199908 
-0.7998951344566387 
1.164835113168579 
1.326154158831366 
-0.329198961411298 
0.02995594848520063 
-0.4721820306937726 
0.1584599463157184 
-0.1525075220670862 
-0.5353131687234078 
-0.1582849216924007 
0.2442999086225375 
-0.3376204773752206 
-0.2528688424158703 
-0.4461389042587785 
0.3035002461106385 
-0.7792051883753057 
-0.02637091142982502 
-0.5125637144370894 
-0.1124512463005382 
-0.3166234689029088 
0.1643797518949378 
-0.1902668069693861 
-0.6303673760323896 
-0.9270819348629773 
-0.5236841580016732 
-0.5820981270749046 
-0.02825205737357438 
-0.9268745663685581 
0.2228094249579548 
1.430918095214811 
-0.009500093606923681 
-0.3670992553935039 
-0.1372301978624855 
-0.07595711216064141 
1.357959664361136 
0.6928947992759407 
0.07021614781626898 
0.7986852453053704 
-0.2994220591913979 
-0.2065175022589997 
-0.009764257311986647 
-0.2676556883306292 
-0.7108490856549685 
-0.5356565210656131 
0.5332742961494354 
0.5646546029091307 
0.351462627035239 
-0.4208596684605585 
-1.117779139346069 
-0.8008108373226802 
-0.8882944639695639 
0.792274521964952 
-0.2992220847523798 
-0.02877785088112363 
-0.30053491222511 
-0.2930805388393328 
-0.2253205803837969 
-0.08672948496361718 
0.01532532224029653 
0.4275991941523246 
-0.2837727018749007 
1.171334733464083 
0.02114378585972221 
0.9154007940121864 
0.8210774471960792 
-0.3330566181612034 
-0.259482668366372 
-0.09776755870171612 
-0.1655485062910857 
0.2304499265624123 
-0.8686732618174078 
-0.12028414543409 
-0.1906222167365677 
0.5427057196068298 
-0.03606010555861421 
0.2267274300002647 
-0.4142797244441381 
-0.5354571444493437 
-0.1123003693233805 
-1.134933065820114 
-0.0120084531691021 
-0.2045116697340958 
-0.5431992277715598 
-0.2840403575397704 
0.746144907587084 
-0.03635510082970843 
0.1381916658442871 
0.8039498072897817 
0.4319301687221336 
-0.0651358095502217 
-0.6181277863827406 
-0.4128857904577561 
0.05940510706797907 
-0.6314493007247099 
-0.5168319787385603 
-0.4487803921057857 
-0.6812961062321391 
-0.5139562471775178 
-0.1076607801150635 
-0.4291451569059878 
0.1154073946101783 
-0.05848713734895483 
-0.3117392290474742 
-0.9371952434714245 
-0.2452063792430306 
0.5726263489265075 
-0.7979855999704973 
-0.2461582707466841 
-0.5579913156735206 
-0.07697207798570233 
-0.3719211595884971 
-0.2199028433512419 
-0.01221417636535731 
0.3459862417421316 
-0.1622739105153842 
0.2689475810927643 
-0.5614392216833309 
0.4199412074854223 
0.1852084682321373 
1.603650132476081 
0.02765529943371623 
-0.1011231554373445 
-0.2801191515077673 
-0.2579625489367965 
0.1511819257989098 
0.2065907006222689 
0.8396208548015074 
-0.8830396712112871 
-0.05754050691223414 
1.228153617651771 
-0.2666487870202773 
-0.2566324744934658 
-0.04124105156186929 
-0.5541147531602588 
0.2496076149831767 
-0.810333853670516 
-0.2729839445123457 
-0.2406775203202048 
-0.4681617554735604 
-0.868343285266706 
0.0401149130481602 
-0.01731345959654144 
-0.8566393289330372 
0.1493334482561851 
-0.6632413133886452 
-0.9117595011346303 
-0.4372812499544513 
-0.574551992659264 
0.3027523867784689 
-0.09674585249310401 
-0.3137451798063912 
-0.1192788138359136 
0.8412698256365453 
0.005083282126773386 
-0.2118262070757729 
-0.45942899337669 
0.2716996457181458 
0.17188248352373 
0.6205983833253945 
-0.1290859833009599 
0.2875321330438561 
0.1581277771686648 
0.1555577113226807 
-0.3155667042266779 
-0.9020298855631312 
0.3045798142368648 
-0.1439229389198298 
-0.4716459187854723 
0.9365462785988465 
-0.7010909698081214 
-0.2692991685934219 
-0.223589493688768 
0.398700402735047 
0.08126578155316648 
0.3201531892264352 
-1.466706265856192 
0.1311365336837307 
-0.7071522269693601 
-0.1265045106289896 
0.1388523576384545 
0.3002701249546412 
0.7977203187404477 
0.3426275909429549 
-0.3983947700391705 
-0.4053775639263954 
-0.1603423389778721 
-0.4839889955629322 
-0.2246507598766316 
0.6599426147227699 
0.3899020818798292 
-0.6121184561836406 
-0.4967659590114636 
-0.5500870201671227 
-0.2269173209764171 
