solver_type L2R_L2LOSS_SVC
nr_class 2
label 1 -1
nr_feature 512
bias -1
w
0.5550679212549177 
-1.035938128173652 
-0.3313861540452267 
0.1917556781223835 
0.7530152914934974 
-1.429281602839898 
-0.5451345145898381 
-0.6470881136146364 
-0.4170685764216451 
0.07297711067673891 
-1.284514349465705 
-0.3471346447964274 
-0.210419172775887 
-0.5943830216273869 
0.3031848950609349 
0.4077708720340129 
-0.6411776859649416 
-0.3522067780117528 
-0.7912657744886018 
-0.3947805772111538 
0.1889125945489091 
-0.647991477218002 
0.4963442096428563 
-1.011347209170844 
-0.233116949840591 
0.4452475354835791 
-0.1222446069472353 
-0.08075732890531521 
0.03557610620951626 
-0.08441540628968594 
0.9215474927649397 
0.7667599683934456 
-0.4515017916066739 
-0.09503954972619991 
-0.1790934329304751 
0.2288146791358026 
-0.5815823225123743 
-0.2044431687412556 
1.101568042015205 
-0.0653633151740113 
-0.6840768278419511 
-0.9738676077030142 
-0.5805298159243348 
-0.7039817036399648 
0.4139101502543701 
0.08861382512639951 
-0.4155788704821526 
-0.2276071771064999 
0.1462952588922801 
-0.3364344959350656 
-1.123994262884456 
-0.35414415244355 
-0.1395084484655312 
0.4437373352377534 
-0.06980738917963107 
-0.07826396820605717 
0.1005206103034677 
0.3875065663796157 
0.2790113522469628 
0.1233843743740748 
0.404600996865307 
-0.4685311247559207 
-0.07320244864062876 
-0.6541764501748961 
-0.7782797100754503 
-0.2610428141769671 
0.75153772331807 
1.293658183988893 
-1.173509989625278 
-0.3002038738156458 
0.2243435294965073 
-0.324374453227646 
0.3969247101216637 
-0.4832073440953606 
1.437226892298358 
0.2390450021489824 
0.3788863642047864 
0.2103507783329056 
-0.01680450218437035 
0.1368732089602542 
0.6390428961134221 
-0.1559130074544414 
-1.20840957924507 
0.06097877742049512 
0.8845915208892027 
-0.03119379150190806 
0.6921237857911768 
-0.3725807238738142 
0.8181317259065835 
-0.8927671202201055 
-0.01725934631736438 
0.9949397064301748 
0.1246379606857439 
-0.3935950645605502 
-0.7908972598514088 
-0.252645599808545 
-0.4563226788133553 
-0.5036446906693266 
-0.2959701229228629 
1.253394257252204 
-0.1682297686586203 
-0.2578649697929121 
0.7628594869917826 
-0.2362628394613477 
-0.005464296829661002 
0.01114801985952592 
-0.4192025493544821 
0.5473435994425574 
0.9774158687274506 
-0.638999945107789 
-0.6769696139458024 
0.2423078979082153 
0.2974671964773646 
-0.285419103140956 
0.01441372168966037 
0.2692255478403084 
1.851811573179463 
-0.1401228721702309 
-0.370468326623423 
0.8101213611877607 
0.491771068718335 
-0.1343459031171209 
-0.6055312729016816 
0.2916242292437013 
-0.9649923906481608 
-0.8121779724862201 
0.6599010261093485 
-0.4571795240291583 
-0.2913066427552964 
-1.325019244507639 
1.712018604601386 
0.06549516315780421 
-0.6671888525963581 
-0.02210914053202322 
-0.5570677895846522 
-0.5453609609951631 
0.4696755336096098 
0.1235549612102654 
-0.4748420291200778 
0.2137645838510334 
-0.06057560817496366 
0.3034031889653914 
-0.4152337522180989 
-0.1677368862175018 
-0.3488936975215026 
-0.4225954233031837 
0.2259382998681144 
0.6486507992572591 
0.1709290408452735 
-0.6454077846979275 
-0.6779627764208916 
-0.3787481618816999 
0.1711757578551124 
-0.3505071660429285 
-0.4451368860997656 
0.1727742560723593 
-0.6701315222514067 
-1.22873534326183 
-0.1141432858902283 
-0.2667586721856041 
0.5113724972206978 
-0.7635179717597008 
0.7958694162493349 
0.1001737087619944 
-0.719024053482059 
-1.318182548877421 
-0.2811586446867146 
0.4656911671434507 
1.045858293238723 
-0.2985918187154179 
-0.6635425731141694 
0.5242545576046094 
0.5569476561794491 
-0.5112912531012849 
-0.3664017913563087 
-0.57930560151594 
0.8483793170427173 
-0.1361829050368493 
-0.1492715553051122 
-0.7069231321542363 
-0.1501409258337152 
-0.5809248542968399 
-0.978729029350042 
-0.4726279338025405 
-0.2551286373889343 
-1.650818359285081 
0.1948944984046577 
1.349566013537087 
1.554584020583287 
-0.3401248583768379 
-0.3646926487979743 
1.350736912864782 
-0.5031393387206907 
0.1455101257521045 
2.666338209558968 
0.6843024568350874 
-1.748783043291717 
0.5128397190524384 
0.6273673169977424 
0.9729003666065752 
1.392967038699269 
-0.3326086672269671 
-0.441476172477113 
0.0992081516120632 
-0.04090202730923616 
-0.1538083787705105 
-0.6513415714806683 
-0.5209820828767209 
-0.6195701841544 
-0.7476725609676972 
0.1243863916587701 
0.3201864242181023 
-0.4861225436554532 
-0.3914947605349201 
-0.02479853902126269 
-0.1766103826382365 
-0.7863338248276855 
0.152003189518989 
0.7368038018598392 
-0.4652160007361203 
0.3299280031654547 
-0.0389438080484726 
-0.3797624870772361 
-0.3523977427949651 
-0.001835366748200461 
0.2323149026762102 
-0.3430055244121092 
0.3535892094660614 
-0.1207045689327024 
-0.2678441582173459 
0.7737052403085813 
-0.219383478309916 
-0.1362395834365137 
0.6905850740697556 
0.05581138171190172 
0.2601105590895579 
-0.4705227679060361 
-0.2072204259733834 
-0.8911592148467041 
0.1817366728645088 
0.8050493685642902 
1.745083543566265 
0.4946136684504211 
-0.1204373745229103 
-0.3409714596218761 
-0.2681810077705697 
-0.6535062728031479 
0.4759921960012742 
-1.689109628798009 
0.7894753989081187 
-0.2823067900616613 
0.5616557490892353 
1.251298062494307 
0.1866037598228728 
-0.05268074985743108 
0.7743832392212255 
-0.4929132143954902 
0.7025922830459695 
-0.1494276393230227 
-0.6230370486443354 
0.2315765596298833 
-1.102118880161449 
-0.5611871885242412 
-0.7961566789899235 
0.658472301249719 
-0.1190747487450328 
-0.212570772903518 
-0.3892672911513479 
0.7429042052789006 
-0.5172716736081646 
-0.2130158548946111 
-0.5643614035093786 
-0.2890667278258431 
-0.834458409719734 
-0.2290156568651402 
0.3889345848478015 
-0.8224386563235275 
-0.4222872992995448 
0.1724755983726489 
-0.3623230641335689 
-0.03175839467136809 
0.01254734841158367 
0.4139246155423649 
0.04629855804154073 
-0.9566303406182961 
0.5063193782783247 
-0.3099571412045559 
0.4483161828734941 
0.001064511045202831 
-0.1795024892794464 
0.1434503514458874 
-0.5596568919597958 
0.324701529795266 
-0.3270099051359432 
-0.4185159101482835 
-0.51183359342174 
-1.270098496478009 
-0.4685006639056821 
-0.4801120298305587 
-0.133241496080637 
-0.9282711651884088 
0.1513744809449968 
0.05796714569160377 
0.1636550500238603 
1.38573015733822 
-0.2843503636531027 
-0.2289540960631533 
0.1968157653994734 
1.21563572568613 
-1.431029474515889 
-0.5242582345686863 
1.451287401569282 
-0.1890379154202559 
0.02659851603159306 
-0.3147292828371728 
0.8253640967333991 
-0.3019055250079785 
-0.4385396238730562 
-0.5450064749176311 
-0.8146820923288892 
-0.7193428281967436 
-0.3263199784204754 
-0.124681698167633 
0.4084499419842516 
-0.161652648205989 
-0.07000425673405662 
-0.05329066063389131 
-0.614257313047973 
-0.3933084707494073 
-0.310773806781464 
-0.6447891904830004 
-0.7466647100573833 
-0.09775106727502936 
-0.4026838074386118 
-0.8805548882027414 
-0.4964321597184091 
0.4767696124558261 
0.580470600822617 
0.8605249758581128 
-0.2747534881722233 
-0.4616935964174813 
-0.2993426274011105 
-0.3628289090659158 
0.9948480465767154 
0.01849685801794299 
0.3177666853417788 
-0.9081320838053615 
0.02087450058528913 
-0.1021544189206027 
-0.42399954560224 
-0.9013682188582276 
0.5724893922325686 
-0.6431588277731997 
-0.680944141320727 
-0.1627838134684436 
0.06104539469626946 
0.3641805447122645 
-0.0149676698827665 
0.6226702357168881 
-0.6967784426708821 
-1.170206678823746 
1.474982139840684 
-0.065650771180223 
-0.6776714517724868 
-1.304678904613195 
-0.6971091596980572 
-0.4428313275300338 
-0.5140207779893037 
-0.3768352760477598 
0.8717253790021476 
-0.06472084476940841 
-0.9000003910245588 
-0.3760070238876825 
-0.04214969952134259 
0.8289487772363997 
-0.4834564507716046 
-0.1465888048136477 
-1.304214236379222 
-0.3030333670751711 
0.4397141758937551 
0.1956572653568529 
-0.1412322870535116 
-0.7031321690392278 
-0.4777536157644334 
-0.2108082719084835 
-0.5356394502468257 
-0.2686045447426446 
0.3147440205863362 
-0.4483902366053135 
-0.01228137985479679 
-0.9473402494974207 
-0.2946859394314912 
0.1780626819039892 
0.09255795416888918 
0.1918375882275832 
1.057366467147541 
0.04517293893463537 
-0.5339519958441766 
-0.2743795132624178 
0.05017337340857178 
0.7739302477856466 
-0.4311282367113843 
-0.1350725203443885 
-0.9530335046457755 
0.03139330472809471 
-0.591424829522778 
0.3561853667232919 
-0.1777209160626616 
-0.2262881616659977 
1.160447260060416 
0.7664973881689938 
-0.8664924586757955 
0.162878474270063 
-0.472599162951496 
0.6539035656208346 
0.03686227166304007 
0.201018843666359 
0.919336445834021 
0.09065372642951244 
-0.1074406331764165 
-0.6660901582009049 
-0.06006025829091926 
0.03101192214846503 
-0.2500300562664906 
-0.5480649895651323 
0.1379882495069752 
1.358947874224069 
-0.4575863336050666 
-0.396099622490493 
0.1209439248701531 
0.3352707407916002 
0.4981357160198202 
0.05321765630280301 
-0.2326844163945162 
0.3324674191452931 
0.1111015847477917 
-0.3228151643499263 
-0.6251089321765093 
-0.4549258651170236 
0.768822885606931 
-0.1871316405773754 
0.161575294643751 
0.240380858418808 
0.01630032961799037 
0.4264212956413522 
-1.187220145432239 
0.5120717120530506 
0.8460475012829041 
0.4193301506288049 
0.2843614023062947 
0.007973712303891645 
-0.4955168596438317 
0.4920382040379041 
-1.222863936181922 
0.02574537746336436 
-0.4414562508714995 
-0.04657556900017737 
-0.5078124242015761 
-0.1461846176314817 
0.02301890028059393 
0.07364180296161431 
0.05315253432401723 
0.4840682796976994 
-0.9312585261149461 
-0.4389525589243229 
0.5214215248931484 
0.637672787216515 
-0.4987330597791439 
0.3896919172930777 
0.2717856175076907 
-0.1509202704687227 
0.02171896018837661 
0.5431429829007124 
0.2929139124315873 
-0.04531069312556096 
0.07904099213689122 
0.3400810485326307 
-0.4609037237189468 
-0.05339126474642594 
-0.8072006526828792 
-0.3740621042899514 
0.4523149598476298 
-0.6802993757943778 
-0.3207235031900463 
-0.3185622659711949 
-0.3566697727051227 
0.1286952191918955 
-0.6797394153919399 
-0.6118723283952027 
0.06792188638153956 
0.4537954080933871 
0.9353599900516009 
-0.5104583948869579 
-1.920820223227456 
-0.2279991060806495 
0.5547841752816757 
0.3179287677489127 
-0.3556940243133919 
-0.1006720617221438 
-0.01981400805288438 
-0.1885142744371233 
-0.6701024432074216 
-0.8766073069319745 
-0.1673852984736448 
-0.2425922122346952 
-0.09345531886395556 
0.6498548602640632 
0.1269990441187489 
-0.9181113409372905 
0.1764087051268995 
-0.7172177866876179 
0.006749483594345944 
