solver_type L2R_L2LOSS_SVC
nr_class 2
label 1 -1
nr_feature 512
bias -1
w
-0.3435443141994277 
-1.01371411610087 
0.6462335876994639 
-0.3970580553009906 
-0.9620389273186815 
0.3316701613594324 
-0.2295864942242412 
-0.4130757424857405 
-0.5582856107578638 
-0.189959060920216 
-0.5656584681023026 
-0.1651591811237642 
-0.787632314637176 
-0.1588068059276785 
-0.06514861706723421 
-0.8838507424502778 
-0.1461511827985924 
-0.3439375011103278 
-0.521323386836814 
-0.4789195365159623 
-0.2041289490720146 
-0.3008129124252403 
0.4562753531703979 
-1.376871641941037 
0.8808257602998992 
-0.541532315632175 
-0.1863955761664791 
-0.485863636543224 
1.172819239095518 
0.142724843789098 
-0.6468094735971713 
-0.58163464838781 
-0.4184830470911582 
-0.7315724858420409 
-0.3336621919630848 
-0.02640689401232144 
0.2292504285015972 
-0.7671010251494944 
-0.4277567462635009 
0.02716469382567018 
-0.5231075730349326 
-0.05013355355824536 
0.06499055005430594 
1.553739658460992e-05 
-0.03463164358125045 
0.5062367619727194 
0.1817108460961707 
-0.4447088045478653 
0.3727904470994678 
0.2192477540100713 
-0.5701784998720618 
-0.2026477245707739 
-0.6057684832059653 
-0.1999859612094068 
-0.09998845200588051 
0.3592988323969866 
0.1286468705898586 
-0.418805516868373 
0.05863614876563315 
0.06977129832813023 
0.4648148625417044 
-0.04726754096174272 
0.06550676711847603 
-0.2339952563519696 
-0.9982090168425323 
1.165264996446977 
0.672905063823432 
-0.5600865724566572 
-0.2605600160066577 
2.895568930863174 
0.0341972602427258 
0.01950056203390462 
-0.1738831012799942 
-0.4231087382860737 
-0.6635022894434185 
-0.5411499432849525 
-0.08534666459540252 
0.05424009774939523 
0.2745931298545174 
0.2606349839646908 
-0.005018606800425497 
-0.3177393722443547 
0.8411683352425062 
-0.3304496827804732 
-0.2018168416981953 
-0.2351373478696669 
-0.4089292217674772 
-0.4158399115248007 
-0.2042382635878777 
-0.8702227049952538 
-0.49074261856908 
-0.2251381340387294 
0.3891751257111212 
-0.2991611435139102 
-0.1230723008252118 
0.04561388903050012 
-0.1651516410452874 
-0.2005544902636729 
0.113610956165128 
-0.128784399060507 
0.225338282692205 
-0.2923332035298315 
-0.4262690476963274 
-0.2736352457073569 
-0.569994088249607 
-0.3362526168756782 
-0.6338366440897985 
-0.4648020192312841 
-0.4141323946486622 
0.1554251707858238 
0.4847854315145259 
0.01687460383920359 
-0.6569466823059349 
0.7119253578259482 
-0.2085380122818243 
-0.8874707567798147 
-0.3176427720281533 
-0.8333569609637699 
-0.2041269429077129 
-0.2927435235347849 
-0.1114441650990178 
-0.362709344554752 
-0.3604950930741888 
0.1200886641655617 
0.6747224105410148 
0.04442709825263676 
0.4794179881468655 
-0.227161629069976 
-0.2204109233460025 
-0.1592249743801794 
-0.04905440444668499 
-0.4029573975714 
-0.069208663608868 
0.07241519326705487 
-0.3630461036506417 
-0.2661276231837382 
-0.3245450357742701 
0.2650334168896262 
-0.2692197891343382 
-0.5145444823761752 
-0.3168859110867969 
0.3961842179915633 
-0.08204249779984561 
-0.1293614333850215 
-0.2065204366551727 
-0.4822895878564118 
0.6074495899899445 
-0.26675294558981 
0.06231299762971573 
-0.08601335082018613 
-0.1215144125235568 
0.6243807016258177 
-0.2951533836371267 
-0.0273608493372219 
0.3442549049582359 
-0.02565161748489227 
0.6514450794944148 
-0.2641847318945591 
-0.3898757858617238 
-0.4677548443592195 
-0.595376670307537 
-0.1668092446997731 
-0.2260901682535058 
0.03354506501338979 
-0.1224921982529239 
-0.2697407737450884 
0.0543985659487501 
-0.9665291881705441 
-0.2222599679576266 
0.6402711846990289 
-0.4712715738620622 
-0.1706529586884454 
-0.4068319480999537 
-0.06686198031225822 
-0.209874130291531 
-0.1297011613833578 
-0.151797429457698 
-0.2615026381397382 
-0.1973924691637621 
-0.5442853838823299 
-0.1476501272370455 
0.2011104715528516 
-0.5811284992935549 
0.3649416813582746 
-0.4778586181187557 
0.0773895592798781 
-0.1536057244469369 
-0.169747646400269 
-0.6798950681763204 
0.09136572141865086 
1.846378401319421 
0.2579899225498601 
-0.08113474348726278 
-0.4251152369149136 
-0.5333011786165966 
-0.3378804829813115 
-1.063952390446412 
-0.1430175565337104 
1.193277730979041 
-0.8321284893007412 
1.023338054382991 
-0.2347603328020381 
0.08204495942226325 
-0.2492308031688318 
-0.3305006584236843 
0.001607839084312441 
-0.6022167245488238 
0.3405611840771651 
0.1445844559351724 
-0.2310336911247125 
-0.3659939794703446 
-0.2450699886384498 
-0.06618673478134916 
0.5028019617953775 
-0.1938866674434356 
0.6885769614082075 
1.248297001566765 
-0.3039322448928813 
-0.0411101458799458 
-0.2573099636877587 
-0.05524123578286227 
-0.03733921504898726 
-0.3608843180123342 
0.114376585331855 
-0.2311190330749179 
-0.02792261639502528 
-0.1716991708569064 
-0.06962194801504215 
-0.4554036216455566 
-0.2335947926816879 
-0.6836885246731457 
-0.1393585884291866 
-0.3496969584451374 
-0.1398776771012528 
0.3798573870662555 
-0.2010514424661375 
-0.1734811418354308 
-0.6026382583917708 
-0.3510887836349544 
-0.5003060531756967 
-0.9734513254903512 
-0.4109860988126233 
-0.4522490338594906 
0.2487373386172002 
0.09046955234396699 
0.1380745468136439 
-0.2662940691433304 
0.2393557338757966 
-0.8557412998752603 
-0.5546296474965329 
-0.01962920354004412 
-0.2313388392156524 
-0.6135196975461785 
-0.641246175669159 
0.1512885937520848 
-0.1906458646779191 
-0.4387602697046178 
0.2231467861299848 
-0.2042295977349728 
0.2598715664504763 
-0.00686820868872551 
-0.6556222629117165 
0.415355935027892 
-0.1958215460635917 
-0.4031721920744388 
-0.3667613069286849 
-0.2964529997303137 
-0.09990253005630274 
0.101371160571429 
0.4344833787161959 
0.06916345427784934 
-1.230550237084856 
-0.3447463085653114 
-0.6924382476559646 
0.3308259666338885 
0.8246959136768168 
-0.4924207982792754 
-0.6178652882272103 
-0.1961823499543701 
-0.07013675950148726 
-0.3646884108042962 
-0.1474933511162788 
-0.3196291801480807 
-0.5556154733834764 
0.05887807080031733 
-0.2916426097329247 
-0.1078998586240521 
-0.1131474590640479 
-0.2863220210788414 
-0.191687868354435 
-0.1277467402391839 
-0.2100884495217654 
0.004597029392986613 
0.02647407405391048 
-0.3822250172257123 
-0.3601197530123604 
-0.8972774013486077 
-0.3064539576795722 
-0.3655476262892055 
-0.1102114083389032 
0.6862593603680626 
-0.6568366094069437 
0.2756646082671099 
0.465987199466991 
-0.03057962089319968 
-0.3499546000867155 
-0.04780908977782065 
0.293564071297424 
-0.4922847775562936 
-0.5486483423961127 
-0.5282440727978753 
-0.3015902940007506 
-0.2164787162818207 
-0.1775508489829487 
-0.160649654306961 
0.532963983131535 
-0.3326813324357303 
0.469515032705347 
0.1047224382153339 
0.4540949634998567 
0.9273071225108325 
0.9066969537624774 
-0.5475870128923479 
0.8546154835267583 
0.2815743152302342 
0.5951147863335917 
0.3021762478452803 
-0.6092482035652342 
-0.8577318830953248 
0.5915100443856094 
-0.06288445245242887 
-0.4527435740807687 
-0.04890740299430868 
-0.4333363536280327 
-0.1460563581104894 
-0.7931408386309308 
-0.1454783100304347 
-0.2352237886751222 
0.02884644954369942 
0.09204740127898914 
-0.5110206686987456 
-0.337058814893694 
0.2970676320966175 
-0.1890642701027705 
0.1845011214385496 
-0.1797472449086041 
-0.4677020667456112 
-0.0102387182201563 
-0.2878418214566265 
-0.384039273768765 
1.811287285691149 
-0.2979575511078033 
1.490272516485172 
-0.3532447181038902 
0.3712704395858336 
-0.1513748691473644 
0.08158247926818976 
0.0562940785402589 
0.007022879743591591 
-0.5175351235807305 
-0.6209341144835245 
0.7854644588391766 
-0.1445502248879119 
0.2361178102886035 
-0.6830698270832167 
-0.5283158778991063 
-0.3608245616383683 
0.01379221262502709 
1.341714630126362 
-0.03883211541096621 
-0.3934392527834363 
-0.5296221884380695 
-0.2038787519049488 
-0.05064078702904026 
-0.1485919491989513 
-0.1075565258201833 
-0.2765453763852848 
-0.1625879102264358 
-0.4736547400645524 
-0.3554330111322226 
-0.3484762354371606 
0.6606258328492635 
0.4804596830484038 
-0.1835154638370217 
-0.2044525298865695 
0.02290047347630949 
-0.2671114189243461 
-0.5525790061515553 
-0.2451202434859032 
-0.3060014369468457 
-0.4943027111613991 
0.09199607679597349 
-0.1118916398815621 
-0.3484666306367071 
-0.4265144095516086 
-0.480555439408253 
0.1048693279996022 
-1.218517131436526 
-0.135627274044172 
-0.2576502812003721 
0.164218651965735 
-0.2488052692080222 
-0.3846465338539271 
0.8434773635232817 
-0.5482072601248793 
-0.1429611528020658 
-0.3582747588340866 
-0.05450222265605538 
-1.013537556138005 
-0.2249817258271992 
-0.03208334605644485 
-0.005400295430055141 
-0.4143410366429678 
0.2809877830971703 
2.00837232791494 
-0.420790106260173 
-0.2617805206270492 
-0.5054240875637735 
0.1484238264619894 
-0.0357007849565096 
-0.6966621021786451 
-0.5407313889664317 
-0.7168702198985188 
0.2454122856415035 
0.1386670475119048 
0.07622565266273708 
-0.1606410868046124 
0.2135714952442546 
-0.3271631559231644 
0.1038773476475408 
-0.2439708413357237 
-0.4199600773820276 
-0.4361029130195656 
0.1546930258525052 
-0.4998108693837033 
-0.495088363528077 
-0.3475519012781414 
-0.6721832341419355 
-0.5012886840142343 
-0.2584783536759302 
-0.2448832751737302 
-0.2737777418309847 
0.3626852501603063 
-0.007428768827342755 
0.3340297921119029 
-0.1960044002510564 
-0.2796999839708346 
-0.2210876371384757 
0.1005320663924541 
-0.1262229352900262 
-1.137069034757673 
-0.8470595084785951 
-0.04437110151453648 
0.8321405743724513 
-0.1732710438095414 
0.7545834676102834 
0.1725414608839055 
0.1937526773908603 
-0.4125130736467812 
0.6978752416038708 
0.2212505717137487 
-0.02736624568591573 
-0.4663933449921552 
-1.060868869656912 
0.3729789982207517 
-0.7072203230262945 
-0.04668223450572231 
0.2181849203603439 
-0.5022624685867817 
0.5747913495480977 
-0.005057596527867017 
-0.08572194388180029 
-0.3788214606629427 
0.5034445896324976 
0.2283562513108519 
-0.2058336218381394 
-0.6394502131903703 
-0.1743534319811832 
1.245854180669226 
-0.0345324807101275 
-0.1657497791707589 
-0.1171682715154385 
-0.6893635318808115 
-0.08538195913286321 
-0.3302471925641187 
0.7782675248574262 
0.1383360026988544 
-0.1239314741765838 
-0.05927626085909105 
0.1643511872436919 
0.722895879082322 
-0.06678866174161047 
0.4790869511734705 
-1.059814971819595 
-0.1313988696236601 
-0.3490014123189477 
0.538386697052462 
0.1521925580851734 
-0.3274577930480498 
-0.169277493193204 
-0.3543602954211018 
-0.5698662878274341 
0.2557661799032636 
0.04583242673815082 
-0.336489333250625 
0.02290297583687726 
-0.5584397795785144 
0.8023359765524289 
-0.1513454253454423 
0.0548674690185208 
-0.3750903624583962 
0.3553915437047862 
