solver_type L2R_L2LOSS_SVC
nr_class 2
label 1 -1
nr_feature 512
bias -1
w
0.132406262828201 
-0.2839650471219477 
1.005227529160967 
-0.2695407435894701 
1.145278519749377 
-1.595097797639054 
-0.7102451531956655 
-0.3791192445574393 
-0.2148372247407942 
0.003888371059265202 
-1.180595958656848 
-0.5327131615201586 
-0.3635879749606993 
0.3371521376859572 
0.05403857939395808 
0.3494337082140941 
-0.7155950596868788 
-0.2612169104714162 
0.0770599432538714 
-0.2518919780743766 
0.03680006339397721 
-0.4881303006369712 
-0.07368562873426888 
-0.8504787304750324 
-0.3400257940534807 
-0.139083781489726 
-0.06839336622458474 
-0.4281626937393112 
0.3862769858719046 
-0.5187748085087021 
0.2164471022926077 
-0.7544927974866522 
-0.5563578246701482 
-0.2963412904739974 
0.08934679678457409 
-0.1987128831488243 
-0.1366704056147033 
-0.8678167232931654 
0.7165701457498787 
0.249329357650088 
-0.4252995781207844 
-0.4910554789838733 
0.06305128325015877 
1.081814877153602 
-0.3945121409146805 
-0.3881921381837675 
-0.6038946753482535 
-0.7205704007805649 
0.7728348417227728 
0.8298884694185916 
-0.3440578532805117 
-0.1902531781905682 
1.040779705546895 
0.79506609504995 
-0.1474275903150178 
0.6664195418976346 
1.066908575603319 
0.01529059193917314 
-0.09565560174833455 
0.7133444194788413 
-0.846854243786879 
0.1775534506864358 
0.3873286300428319 
-0.2582385171580768 
-0.702435389595071 
0.4778923149395334 
-0.7499407250575878 
0.9011860507832614 
-1.061303182573558 
-0.9662585476153265 
-0.2234437771682567 
0.6302010117658108 
-0.6755812195832452 
0.7354608175850924 
-0.02427620604408433 
-0.3400766214432755 
-1.42748781957211 
-0.4270787598608828 
0.3991281843057961 
-0.2243171943695759 
-0.3311840821357385 
0.2092943413111102 
0.1209067428479016 
-0.1794994254348997 
0.7838751709304476 
-0.6639652516617638 
-0.368577734710439 
0.08514606240106606 
0.1157123373681865 
-0.4019127656127534 
-0.9152623345279958 
-0.1650305605892738 
0.5211826266961859 
0.1948212255481666 
-0.5535521568406506 
-0.3747005444618947 
-0.2096952183198444 
-0.03408909543192315 
-0.4257387017003019 
-0.3231791407559652 
-0.7324386839060488 
0.7072246322303943 
-0.0197103999620821 
0.4489588273362529 
0.178391754056268 
-0.6076010971187318 
-0.2671555327695188 
1.288109481770124 
-0.4126902636555667 
-0.009176880149522755 
0.711510246462605 
0.2208378960037731 
0.3297086987419842 
-0.6110140420032836 
0.4357029776802348 
0.108860293599058 
0.04803125876893645 
0.9972358099654788 
-0.3700431862340139 
-0.3136711962758436 
-0.4972964158477903 
0.3302507852220014 
0.0002650336680660725 
0.6227439099579276 
-0.9224200027627789 
0.6723460487113599 
-1.090869033046071 
1.407781752111032 
-0.181492887060381 
-0.914272441709667 
-0.4194177979294931 
0.1287788887882966 
0.1495323195971537 
-1.260131346965086 
0.8912125275492834 
0.1683397626894156 
0.3221166515814981 
0.03793002192021976 
0.200695034340414 
0.7079596174766788 
-0.1018160456526063 
-0.3221475418375195 
-0.4394179931573673 
-0.2190297741088479 
-0.2395216451635158 
-0.3889023908379153 
-0.5247226783568731 
-0.4006671089356105 
-0.3591481603192769 
-0.8861138630114381 
-1.316869943178545 
-0.317925179526873 
-0.3389688815402565 
-0.05900618058959659 
-0.6610285490190214 
0.04153433613246885 
1.702688684947369 
-0.2614246949654289 
0.3248532161886118 
1.590758775016685 
0.3672235554416386 
-0.4791350537163707 
0.6709573078470097 
0.3983643167138287 
0.2777140160377043 
0.2346805122750824 
-0.9615494428335808 
-0.450255932372133 
0.07422024494810009 
-0.5021652939208353 
0.07953617525083334 
-0.5502229614653211 
-0.1926905933204442 
-0.829943629010775 
-0.3895629287953932 
0.2823541681263914 
-1.60789522773522 
0.5719040461478871 
0.3524123846298501 
-0.7116125832952243 
-0.1031327056268481 
-0.1760926413894844 
0.1034399953771167 
0.3910757441130503 
-0.03421469412275095 
1.100094255439177 
0.2978856253600209 
-0.1843794387618669 
-0.7509927880723686 
0.4113909723518338 
-0.2764431796364364 
-0.3177096140689812 
-0.4770531595921387 
-0.03666360819444058 
-0.02896769567587906 
0.7916568774113592 
-0.5875943680619399 
-0.1008180879027242 
0.2645236225100601 
-0.8481526939005054 
-0.5514205635985876 
0.3099303893957612 
0.28747016362625 
0.6113556700356598 
-0.3503374343286181 
-0.4068124956034357 
0.6208711175986095 
-0.8779480278523756 
-0.7502585075366295 
-0.8674242343208307 
-0.4836185027750068 
-0.6274275097830165 
0.1659672463112193 
0.2302913074406829 
-0.27479712829465 
0.2280603800631844 
-0.4899294725226804 
-0.9130823705837693 
-0.2929134608517386 
-0.1479751890148261 
-0.01841814718949179 
-0.2795770034514519 
-0.8258174924054512 
0.002900294664368065 
0.2570695479146249 
-0.02741850213580131 
0.3012893193028047 
0.2557324664132468 
0.02513854918593166 
-0.4848862445950839 
0.1496440760517654 
0.2320753784493232 
0.9110787199594529 
1.018913157463981 
1.676078091651901 
0.09867797224551708 
-0.4643558439404406 
0.2774344390714537 
-0.1203766104210563 
-1.042170507576718 
0.329295791734488 
-0.1705915134343189 
0.5088895508162568 
0.8014544150193531 
0.02297952026346372 
-0.4443890946127131 
-0.1739656603062903 
0.8929852103208888 
-1.111110455657622 
-0.7245925585909219 
0.3205819584458743 
0.1712335597147945 
0.08432134531095058 
-0.7151926983051757 
-0.9578018289444847 
0.6922904221488884 
0.02973157040774284 
-0.5638646256180635 
-0.3970035973931817 
-0.3893865412658434 
-0.08045903657283447 
-1.571753127320464 
-1.992866220848456 
-0.1352389398953723 
-0.6206153973557059 
-0.03109398495516178 
0.05655622540406215 
-0.08307271936940994 
-0.2008590709049145 
-0.7165639021965925 
-0.45881455954602 
0.5267835247760085 
0.61074304219093 
0.341358180225091 
0.3280499668662048 
-0.7593280290309018 
-0.5618954619604067 
0.1570027395967539 
0.02066006164889363 
-0.2021075729654804 
-0.2550546088536427 
0.05768473866341597 
0.2390306215214213 
0.5235060914649857 
-0.4959451106632744 
0.4815254201004793 
0.06092967682593579 
-0.3827425180876962 
0.8379099952783242 
0.08425106995283772 
-0.4394454385412075 
0.889825167131688 
0.665964412055662 
1.009051856848863 
-0.2157994944679951 
-0.7441464355458202 
0.4958617022604361 
0.352218113315466 
-0.6594126958685264 
-0.09938818415780407 
0.5418720167433997 
0.164723060315355 
0.303170653890583 
0.3724848267238232 
-0.01290831953919963 
-0.3393013744706122 
-0.5887000996101929 
0.6951206634040428 
0.9863197589081812 
-0.5026919530448907 
-0.1733286675181371 
-0.3859661954911044 
-0.6005658630198542 
0.4370471622386854 
-0.4439046542168925 
-0.2663966656180344 
0.7719813226856047 
-0.4650778303799862 
0.7617803715307128 
0.6498494830004805 
0.7411980652778365 
-0.4685182554223685 
-0.2612216132968911 
0.4066945936269396 
-0.2476235427515371 
0.3457669276641465 
-0.1948068394986633 
-0.6482734196086963 
-0.006721692862020932 
0.0002384474549125548 
-0.5275013164949262 
1.108857545612919 
0.4989088590042798 
0.1096911745268402 
0.4981960118538137 
0.7522885735358626 
-0.2847047865223625 
-0.7062878119588329 
0.006057538660991374 
-0.2935111706455837 
-0.04939784986649702 
-0.5373550277106988 
0.007044535323414982 
0.1111763878764303 
0.5929162419377608 
-0.1606400890608608 
-0.02812732538371471 
-0.5684665611601263 
0.01610916091319175 
-0.5354942259858131 
-1.332812665915369 
0.2601130442817851 
-0.5455276243887802 
-0.6152856303041752 
-0.8115606048358617 
0.08452906225229423 
0.08008118109631486 
-0.3449356853348681 
-0.4388767717819032 
-0.5027867564632568 
-0.06941331896065972 
-0.2766482106340878 
-0.2679359374869146 
-0.3235283896284132 
0.5719172834331054 
-0.0008231691823285883 
-0.6694207287198943 
0.2809174758677123 
-0.3571929717081045 
0.08960450960735022 
0.381907773691844 
-0.02804603418990963 
-0.7031686741405124 
0.3762050412519117 
0.6512602539130042 
-0.08455408673700658 
-0.4220023791605131 
-1.179646016689469 
-1.080040078465195 
-0.3877558035790793 
0.4435710588401519 
-0.1252486218533233 
-0.9642441681849816 
0.2519832802715232 
-0.1749135990355115 
-0.1479338530600751 
0.6657087115513667 
-0.1698678742241243 
0.5681923440867431 
-0.0896870793489386 
-0.2023695643231375 
-0.05387765254129952 
0.4319695349796227 
-0.5437514958259889 
0.5759126343451586 
-0.04254591646669747 
-0.2311752494382064 
-0.9977278980790865 
-0.1181132214265988 
0.007736097495559951 
-0.2395191530716925 
-0.6857028548333349 
-0.7721835239161315 
-0.1029539802166165 
0.4565954830638481 
-0.8010090680058599 
0.01085833514160182 
-0.6595190307864656 
-0.08318584389735252 
-0.2170959324249781 
0.1287104624106951 
-0.6725141454167319 
-0.225084085516137 
-0.3537792232798171 
-0.6939849865327765 
-0.3195480234290002 
0.8654114417551292 
-0.3255350749478944 
-0.6719964540090745 
0.03407086436682003 
0.6981319466107306 
-0.6514800930266049 
0.4247418603882457 
0.08018274571121201 
0.4889349560673209 
-0.5353571543277887 
-0.5647048598769762 
-0.4076554535673826 
-0.01235734585355466 
-0.5037187305099063 
-0.3785909685893132 
-0.7011744887796599 
0.09897740918400555 
-0.3947342647399977 
0.05347473574004716 
-0.3983533026793211 
-0.5868768004088453 
-0.9969788312453532 
-0.002846724949744016 
0.4143099777942915 
-0.7803032576084348 
-0.4399936507485634 
-0.6962947645392317 
0.07938889063599412 
0.1263821223308684 
0.6237863663279276 
-1.033869143133715 
-0.5998966539230802 
-0.0650787344976677 
1.412220789014931 
0.5854152071384525 
-0.3898546432666879 
-0.1170872695495465 
-1.102136567931362 
0.8625646275285268 
0.5382060508771129 
1.136613361129122 
-0.176720505327401 
1.416485931243334 
0.01438497765274966 
1.341462661208973 
0.2266803373048614 
0.1982344350822943 
-1.417524414262803 
1.080055935321106 
-0.470056902476093 
0.4549029889223033 
-0.3425088080748036 
-0.0733644842144363 
-0.6019843674169099 
-0.08275612968320276 
-0.04948776421649284 
-0.2449339505049677 
0.07516523141885696 
-0.1985020887517149 
-0.5037338704402007 
-0.02280435663527214 
0.08683133290538317 
0.1050954905104792 
0.126815434415058 
-0.05947649337913957 
0.9947498739885222 
0.4758168040957945 
-0.4602508869277762 
-0.8061066769954544 
-0.340864236460289 
-0.4458796359787203 
0.2776854112045155 
-1.147291472530874 
0.1703146291591998 
-1.204917907446526 
-0.1605094540373054 
0.6686066931474729 
-0.2570170501032973 
-0.2334494067509375 
-0.3377709738810485 
-0.1291364446058581 
0.1971519971461362 
-0.4443097671736396 
0.169957118323074 
-0.0629633825861117 
-0.4366767335059612 
0.09841470040503714 
0.9386520861321251 
-0.07553475225661183 
0.2904746384836738 
-0.1047038878221333 
0.07707662965556389 
-1.68261218362685 
-0.4898304127840943 
0.6370810926115482 
0.4337743539067007 
