solver_type L2R_L2LOSS_SVC
nr_class 2
label 1 -1
nr_feature 512
bias -1
w
-0.03021574333528917 
1.558723931310192 
-0.5607622937733294 
-0.1659016130384751 
-1.473788867100684 
-0.694274198503921 
-0.3923647975384155 
-0.4623614101703434 
-0.4849459657228554 
-0.1194577912214593 
-0.6959150864674453 
0.7270199044715977 
-0.4013912138413597 
-0.4034594952912089 
0.427295633250366 
-0.1409826564569455 
-0.5583853939497686 
-0.3054788979393397 
-0.7142065178793529 
-0.1883855318623536 
-0.01145161702529728 
-0.01356742684418443 
-0.5147803073693621 
1.721228452697376 
-0.360800393174554 
-0.1439422666283928 
0.1701508244132095 
0.00843455224648137 
-0.1445534484033179 
-0.0856931673238447 
-0.2318004209301807 
-0.07294333195554262 
0.3650280668498851 
-0.507779976293054 
-0.1524645204443986 
-0.2857801808538501 
0.04929753354090766 
-0.4895153729270574 
-0.0768047752674528 
-0.100902569841958 
-0.2204835752365382 
-0.3043725429278162 
-0.4363882880736564 
-0.09042335990577491 
-0.1320758465457755 
-0.1750706286043764 
-0.05839362497014314 
-0.1126501542267057 
-0.3692751808704227 
-0.4845984783581989 
-0.2285090398929285 
0.2639198226258179 
-0.9234765197605312 
0.04599413598147997 
-0.08040368974207236 
-0.2544802027394916 
-1.560016629345101 
-0.2697368483468976 
-0.4383741601630487 
-0.1303955500495327 
-0.1826175812235635 
-0.1719502998743599 
-0.0999792100693534 
-0.1857436656259017 
-0.6965597467924816 
-0.1458492305547994 
-0.2643082800392357 
-0.3529222673505137 
-0.862098340350634 
-0.8756620500132941 
0.1822975280204415 
-0.2717951420687134 
-0.1596835742825057 
0.2880262521226175 
0.2276195211100018 
0.1353302373808897 
-0.1851093402264763 
-0.5728338671285598 
-0.08335334126588284 
0.5115314673426669 
-0.7845134170803461 
-0.1739418510554228 
0.4827803578984091 
-0.420563149512292 
-0.3932861632902703 
0.1731911814447006 
0.16398434413872 
0.2034312101011172 
-0.1455704811703536 
-0.05131745291942541 
0.5002710255612655 
-0.2990117201048983 
-0.2835280054250823 
-0.01485639358482202 
-0.1573910971471917 
-0.2282573610255214 
-0.1644283178730867 
0.08158141156587249 
0.651246074146494 
-0.08281212548784769 
-0.1888883647568328 
-0.2320728421242655 
-0.2642763610560042 
-0.08365143561264608 
0.07013125275681031 
-0.06906727573464627 
-0.6501978583023272 
-0.1318191384522365 
0.2192846711131345 
0.1200131795646187 
-0.5438966675239708 
-0.1919457471962481 
-0.6004258897615234 
1.160520210495745 
0.07549905267070571 
-0.07998913530713693 
-0.3428060742996083 
-0.4946757622042004 
0.03611161780033553 
-0.2113689034988488 
0.7509505304997248 
-0.213305862816794 
-0.2580954621122739 
-0.2066681681446648 
-0.03674690914662899 
-0.2988607011062038 
-0.8304970721383357 
0.2079532966650646 
-0.112105138259931 
-0.08885539591988795 
-0.3077302047567103 
-0.3859503377057339 
-0.09039831227685596 
0.03450271489648415 
-0.3700363956224138 
-0.5165504494519223 
-0.2486374414216233 
0.08847891725864411 
0.4697428669836114 
-0.5915154700364438 
-0.2596564392900292 
-0.01962158735940754 
0.1284598947210839 
0.02050445347959946 
-0.2080542736586023 
-0.04174282058506035 
-0.1406846853263194 
0.3393130338804736 
-0.2133174846371376 
-0.3386733168282022 
-0.231652855365885 
-0.247581092154664 
0.02775384928813751 
-0.1021155164383571 
0.2979196480810344 
0.2361665208394718 
-0.4021978706086352 
0.3489214388769131 
1.594416463568614 
-0.3152189534055727 
-0.3709986371107843 
0.6714436538587223 
-0.1920552122717873 
-0.009443051010431585 
0.06205018035795744 
-0.02883594243729582 
0.7611676989799787 
-0.6131422446922417 
0.06057250656426687 
-0.1636844655405276 
-0.2483617740018118 
-0.1608578403258153 
-0.07316180477475902 
0.4727914254915313 
0.2858172674226592 
-0.5768438520651329 
-0.01862379334564709 
-0.2007113309717434 
-0.04745297575069203 
-0.6784893471634276 
0.4950839044510277 
0.2914756014267321 
-0.1330298781942821 
-0.4611219961904752 
-0.2538842388696634 
-0.8796230051383452 
0.06111824560197796 
-0.4378429170758598 
0.3785978862236314 
-0.2246996391514862 
0.02707253219700921 
-0.2031098605487403 
-0.2703062341452671 
-0.2841850374461154 
-0.8890365814476121 
-0.2391013735704798 
-0.005587408613478364 
-0.3456823737696189 
-0.730338044441161 
-0.2292008896523275 
-0.7946046612155728 
0.1066407777329499 
0.01899681921141525 
-0.007816598323209198 
0.1870636199068724 
-0.293035295493947 
-0.04445571330662117 
-0.2845080473779958 
-0.3077981064781228 
0.2558732391887658 
-0.3938909314834357 
-0.3546707985278271 
-0.1464075640104964 
-0.4087363541538032 
0.2554522914899131 
-0.1329018208322525 
0.002299375135037389 
-0.1126791231430183 
-0.6626749970739323 
0.587107073381229 
0.28431197320382 
0.07302685576929681 
0.1408352411876949 
-0.1800598107709134 
-0.002370700309300036 
-0.1090073504276782 
-0.1673227467311598 
-1.052020875215481 
-0.3040028634519902 
-0.5070513116281005 
-0.4845105159849097 
-0.05032981403052034 
-0.305618572717699 
-0.1686495892988126 
-0.006409355926658675 
-0.1679761453618133 
-0.08580888681453654 
0.09666660511836088 
-0.4259625348446879 
-0.3574584399659039 
0.3881026097978596 
0.6281243591508104 
-0.1801443874357737 
-0.1676015331826125 
0.7279764699159739 
-0.04992270590570728 
-0.2170071228539139 
0.04280678564862097 
-0.513123029822339 
0.772503914708641 
-0.4242821342176465 
0.1231674163160349 
-0.08048817515860505 
0.003427761128378665 
-0.5994372875869203 
-0.5384724134772002 
-0.2595650792604771 
-0.360312798446478 
-0.3639259515356499 
-0.1519308558406008 
-0.0967747851217601 
-0.02723624922627956 
-0.6072322918591221 
-0.6439460167481614 
-0.4135902619494097 
-0.1868078165531933 
-0.2695100911916732 
0.1371781237512328 
0.4030053612014118 
-0.3236345429336515 
0.08441273544685597 
-0.759804173028286 
-0.1916154830032012 
-0.4455073241588644 
-0.6237174611390941 
0.150161609068722 
-0.3505134197234804 
-0.4323808666953293 
0.1243852192011231 
0.5485625021794582 
-0.3727666739025599 
0.4911396904205002 
-0.3613779784791954 
-0.1012714488962782 
0.110673139766119 
-0.2726987322370346 
0.002599703020106667 
0.05050923263839414 
-0.4397410755288536 
-0.1694880573785257 
0.3174502034038383 
-0.3383208397980789 
0.1214801076440684 
-0.2427469192193341 
-0.2530755867814106 
-0.7190529369237515 
-0.9547796745863869 
0.2176661609177664 
-0.2007164563421932 
-0.3025095767947887 
0.1509593112280826 
-0.182339151608406 
-0.04977843540163105 
-0.6155654453883848 
0.5820519347831172 
-0.1328531611120427 
-0.2019101395525786 
-0.559750190991524 
0.1184429522099423 
0.524738754659457 
-0.04930383803875558 
-0.4243861087754068 
0.04306280639358422 
-0.1335817886142997 
-0.4349275453849784 
-0.480041121331009 
0.3788031639546091 
0.04877192599380149 
-0.4189718528743167 
-0.3488406916541526 
1.025146104121839 
-0.03836617969558322 
0.0775381350767677 
-0.2944860530465442 
-0.2379369723174561 
-0.2494176180392328 
-0.3427177800011418 
-0.3498145997137235 
-0.5492842016811426 
0.2398006759617704 
-0.2331487684728634 
-0.1715860388536001 
-0.2953747980441597 
-0.3373907893845804 
-0.6147561901343238 
-0.6404934553986656 
-0.293327744630782 
-0.4810245727778908 
0.2821094971474325 
-0.2958632527462115 
-0.6179367548929633 
-0.8844998971342199 
-0.1070931930802965 
0.01148783023744041 
1.463133369768698 
-0.02129022085712328 
-0.3509338790631512 
-0.3161124579896074 
0.3738649158330171 
-0.619431891702297 
-0.4684484401008207 
-0.1959330454319913 
0.8944919714939473 
0.2861487336765705 
-0.3756135356997471 
-0.3747970331058076 
-0.239532553283611 
0.08077390018208512 
-0.06888931698730937 
-0.311776559115616 
-0.6972201923233958 
-0.1241993236284785 
-0.007843675248253317 
-0.0005582371804343228 
2.102842621073276 
-0.360636520382814 
-0.5853426408929899 
0.1833272262538646 
1.529663786857849 
-0.161322534689249 
-0.2271572161732927 
-0.2862886105300042 
0.9793513647052784 
0.03934297798858786 
0.4730955437440845 
-0.2892107584731727 
0.005479024457146925 
-0.6626261765310304 
-0.3737782762320956 
0.03215444690536593 
0.09720850142487394 
-0.01354288141013005 
-0.6693061863779775 
-0.2391650575219827 
-0.3196542457579026 
-0.1838409055471313 
-0.3212035581748268 
-0.00551242507070327 
0.02085740050691432 
-0.1700816988062019 
0.51098748194901 
-0.2761889993355752 
0.0003685204369347513 
-0.01099820703990859 
0.1556848403200674 
-0.2913985435381645 
-0.248200547369636 
-0.5301847394953179 
-0.07887591819181405 
0.2334119649494655 
0.238146705412314 
-0.2634854705985669 
-0.4750494579956829 
-0.627381263777111 
-0.1671002877548295 
0.4765773804239432 
-0.1127075953225482 
-0.1826514645472999 
0.7799540888117336 
-0.04415978321661997 
-0.2358258087252525 
-0.4944358998391999 
0.1424800591048643 
-0.1787359429865275 
-0.7374385936510072 
-0.3034819028309624 
0.3515665010183984 
0.08186914382280665 
-0.019878695734268 
-0.06401541134403683 
1.889662913285394 
-0.561354775263568 
-0.4867183857921543 
-0.1533432798854611 
-0.3754080932277828 
-0.3174055281136197 
-0.2863409922674133 
-0.1642529481336515 
-0.3157494795546321 
-0.192089096221566 
-0.1295391587172666 
-0.1403749032334252 
-0.2286362107355845 
-0.2539165241845416 
-0.3998394064046504 
-0.2504040540115636 
-0.08441822098934994 
-0.307145368300566 
-0.07333281114102447 
-0.2785528821482539 
-0.1430602764009981 
-0.004332260172489637 
-0.1335164830114312 
0.1823266192848984 
-0.2566789629749465 
1.305595774538184 
-0.3119234307205407 
-0.4235453780847268 
-0.2120305060581454 
-0.09171480271815158 
-0.8654702768869115 
-0.008056135330338852 
-0.2835507501784032 
-1.003947988841211 
-0.1738787785711034 
0.2114346570086739 
-0.2752456419407655 
-0.4415167689412127 
-0.1303928804283939 
-0.1388682487054302 
-0.6025616279458882 
-0.1946904528667256 
-0.2825548754976051 
-0.3791704077070516 
-1.343695440706413 
0.2759240072755516 
-0.7656647581426108 
-0.3250796865462223 
-0.3478074323733704 
0.5622357902378117 
0.01312389443165155 
-0.1536886764910569 
0.6769231028328013 
-0.01835408665632021 
0.1007090105141452 
-0.1728170006542392 
1.123444007806454 
0.02879735301077627 
0.184963527107539 
-0.2734601608823535 
1.352699468637434 
0.1562897004041662 
-0.7771571720089019 
-0.1147616040305217 
-0.1345393352303134 
-0.2306596845534058 
-0.4723284353758934 
-0.8116315356968575 
0.1282907588957134 
-0.03235469438736432 
-0.4455388386378704 
-0.06635892481537498 
-0.4529673147399497 
-0.4534813473133079 
-0.1468973189243216 
-0.409942177311534 
0.8276323272482767 
-0.1939304630442807 
-0.3153901864079154 
0.02407783780877924 
0.5779090525061944 
-0.67366003139301 
-0.2847936342068585 
0.05984740457851206 
-0.1452391708432871 
-0.1886106268886535 
-0.212164390624553 
-0.004025576352663441 
0.6421143390982491 
-0.3875344712285528 
-0.4418949066838628 
0.2306731102172429 
