solver_type L2R_L2LOSS_SVC
nr_class 2
label 1 -1
nr_feature 512
bias -1
w
-0.1238829913611138 
0.3110656386877508 
-0.2770898321433917 
-1.207821343129613 
-1.109530350921235 
-0.8036705126580351 
0.4784976603837569 
0.7694145157854226 
-1.14727615935391 
-0.4529475401984373 
0.7517242686217388 
-0.8292794564748023 
-0.6537885284214212 
1.189570832280552 
0.01742169666373207 
-0.7031301286861197 
0.6753618930155494 
0.5654365822505445 
-0.3064244546771461 
-0.3198896078974453 
0.7328453026142979 
-0.2551150625759473 
-0.790701251283366 
0.2011998510966644 
1.102178450696477 
0.06704152558086229 
-0.6996988410580884 
-0.3352145935062408 
0.2744626380679482 
0.01400375535507717 
-1.566798973481468 
0.6420109039046886 
-0.4031622753175717 
-0.5512042464096855 
-0.4858635453805862 
0.06723543956708164 
0.1362626545977665 
-0.2824604605367952 
0.9787632579419573 
0.580880873055602 
-0.8875584340809812 
-0.7110253228901831 
0.313442479622347 
-0.7226603126532709 
0.2330614017887603 
0.5408788600555418 
0.2554678269642414 
-0.1657352929078673 
0.7939683384985483 
0.1009980754185924 
0.2358751228508365 
1.407506798480956 
-1.757974172958349 
0.5479962864538103 
-0.4744039370075424 
-0.8656005417190935 
0.2402352401305417 
-0.2940142326349785 
0.2103026979856395 
1.54783535765782 
0.5171759245677294 
0.8703709489583739 
-0.01086823345659969 
-0.6298113198008386 
-0.7388572557593774 
0.19571802390268 
1.262181959186122 
0.3280399123849422 
1.445812745541537 
-0.06922392073132246 
1.047251906007723 
-0.2751824337261272 
2.044922464363585 
-0.6804976947814165 
-0.3137855924837408 
0.1248282212364577 
-0.8436424460740638 
-0.1367463458989779 
0.1588857208184287 
0.2057781584923643 
0.1293385784769906 
0.2254846819562051 
1.210369116677823 
-1.162373233640395 
0.9750085518339937 
0.3489782211256253 
0.6040027290705752 
-0.5921144854751457 
-0.03776429496250731 
1.083838684644026 
1.419242548303023 
-0.9411749016462854 
-1.131727851315732 
-0.5750236091572078 
0.2230672599551986 
0.06919158916221635 
0.3441434037816802 
-0.1891308510470396 
-0.1502343954820514 
0.40442387730938 
-0.2799710687025538 
-0.4920002893317489 
0.2460173529824433 
1.077598538175621 
-0.27688490876186 
0.6089134214729858 
0.7121174127602469 
0.1601704377002749 
0.6383165537487381 
0.340916049632537 
-1.194161817907721 
-0.6254526944880793 
-0.5250618006878953 
-0.188919107418995 
0.5865832356219363 
-1.431444939222039 
-0.3695142161621474 
0.08670269960723036 
-0.1763180115364113 
-0.3704353995514423 
-1.026913026200566 
0.4822877463996496 
0.4193640130873183 
0.2929623881328 
1.129987923469739 
-0.7131229136226022 
-0.1791156976435024 
-0.0547359198345795 
-0.4547626381000701 
-0.95135495233666 
0.02027875577772573 
0.5284763300007577 
0.3944684081368592 
0.5443931113532723 
-0.05067096933566332 
-0.3247121643417338 
0.6358566470338164 
0.001249258308228192 
-0.3810742064975037 
-1.391571533847821 
0.5790563572757238 
0.4499728803738609 
-0.5129677347634506 
-0.225175749782851 
-0.8254633413394111 
-0.7251503307424166 
0.08771385496212541 
0.6116748147912303 
-0.3216366098725889 
-0.1180792336960335 
-0.08190549528343763 
0.2676522688778696 
-0.091428288600706 
-0.9642123386129408 
-1.004656700893716 
-0.2795748366254245 
-1.060285543223038 
-0.9715251284786913 
0.9737092166374163 
1.029403224024818 
-0.6812973519589576 
0.5527791149830886 
-0.272221152883814 
0.235183195022424 
0.06269139880682005 
0.4380507248422169 
0.1818443285756139 
-0.1280452621249086 
0.1216669944482672 
0.4314273141267125 
-0.3346382700539147 
-0.201458521357911 
0.1676127662381409 
-0.3697915089483632 
-0.341349266142324 
0.3822134390838824 
1.190130321470165 
0.01263845780716259 
-0.2186200260957175 
0.4348134180645082 
-0.3345631394780788 
0.1770860432624697 
-0.4761023276136411 
0.142440668512412 
0.5446748349582637 
-1.144775788545032 
0.09724002022566465 
-0.8691379266677156 
-0.736013766003952 
-0.5511050291016804 
1.133302046972567 
-0.08412011193688453 
-0.9307205823270693 
-1.326101019677959 
-1.562969548452537 
-0.7486712588843504 
0.9056200705752198 
-0.1012507999779668 
-0.02836176653216115 
1.485927519989021 
-0.6659033474241701 
0.1554197114341864 
-0.7389073238462416 
-0.1726401959842219 
0.2733561524482424 
-0.1176569588384453 
-0.8145415625168413 
-1.357129100771884 
-0.9295401267046074 
0.009210935182772341 
0.8184127873708724 
0.386597874158859 
0.4452781935773389 
-0.006504498599973798 
0.339272453709872 
-0.1030200499729245 
0.8566319589331464 
0.35133966699259 
-0.003237569351380866 
0.7641993621913383 
0.617205223519055 
0.08763800797469892 
1.912304760300815 
-0.4297808394555586 
-1.123434949822921 
-0.4935184611468726 
-0.3120378463056991 
1.129110150068199 
0.3549688279527209 
0.1999135809993353 
0.6275508686124278 
0.4726958099796691 
-0.1184483425339187 
-0.04237102868988877 
0.6024561116543683 
0.009693307111952171 
-0.2309005352190723 
0.5613326597905375 
-1.221433418043706 
-0.2719036709326453 
1.508527261982741 
-0.04630889010089506 
0.5304882495333034 
0.2024368125205896 
1.597402362830376 
0.984396348446431 
-1.749294236085314 
0.4021209447441094 
-0.4966280536507288 
-0.4406173578179483 
0.1729437344451044 
-0.2488772408582949 
-0.3874362192738178 
0.4937069774466497 
-0.2856898463951982 
0.3645637013334412 
-0.6043206614621129 
-0.6669717454980666 
0.2555502532556005 
-0.8256615473244672 
-0.4566638876123172 
0.9270399424575313 
0.22310265548923 
-1.41556113991254 
-0.1985026340396109 
0.5345057858683975 
-0.01749888702932341 
0.06635594762391135 
0.2049104772014239 
-0.2447835944459651 
-0.6411836214130993 
-0.6099314091066924 
0.3388880489619915 
1.130148504493351 
0.6258468034804169 
-0.468677426213659 
-0.1710027098912467 
-0.3217782418206867 
0.345063663728791 
-0.1422463100880183 
-0.2614729031589913 
1.25323846909962 
-0.6623324371398114 
0.4735893232891238 
-0.3010635426429942 
0.5882336363811436 
0.6880513880624162 
0.3877246109785702 
-0.9341615208982447 
-0.5465836902546365 
-0.2628475961813571 
-0.7003863099133942 
0.166909921012135 
-1.005189340685085 
-0.5505956164812317 
-0.6632055943494963 
-1.49202709030527 
-1.52598216475733 
-0.01346615152240956 
-0.4693812995724658 
-0.71632347103837 
0.2349202336808106 
-0.7927360176366511 
-0.04850232833149443 
0.1148152146127127 
0.1639901233714058 
-0.625307178508868 
-1.302687856129323 
0.2467343526518629 
1.948586972593475 
-0.8670491829275252 
-0.8285230274104043 
0.436221595584236 
0.1958987050929819 
0.6672105550882264 
0.5451959667708144 
0.4251447871623834 
1.269493034797025 
0.09736342194477943 
-0.05561410476501401 
0.8007656362216463 
0.231220673899295 
0.03061664252304982 
-0.4742522044051715 
-0.8293113563385082 
0.2264376816736104 
-0.7327820953449897 
0.1187661620342256 
-0.2147908773667494 
0.5086671679204519 
0.2231840309092781 
-0.5845589725475877 
-0.917979793050814 
-0.4487060301578792 
0.7147810619752708 
-1.253471615900943 
-0.2361270648346807 
-0.09212331660660557 
-0.1923939163991173 
0.2905094828551234 
-1.988086410746833 
0.08604678228585222 
0.5546011129812624 
-0.1081592258199503 
-0.01633754816686205 
-0.4599858090118307 
1.03306261570347 
0.5019111386678029 
-0.1469658523097152 
-1.065748953535507 
-0.4898482823194504 
-0.4011878359909249 
-0.3279331077752598 
1.124901892761277 
0.477786650540399 
-0.3636689192353144 
0.6148322971855834 
0.59701787873968 
-0.5814931075078187 
-0.2545270080248641 
0.4732169672557554 
-0.8391578550528898 
0.5072269150047058 
-0.1152872237603111 
0.2288669909535276 
-1.196712527058791 
-0.2106908716885564 
-0.3935050483877448 
-0.3878581883458851 
0.05493113364760054 
-0.6104729240491701 
1.059292734278451 
0.105763578682876 
-0.4123228662337479 
-1.354628499874405 
0.5043370406402397 
-0.8598646936949824 
0.1062326132110349 
-0.1324900798027266 
0.7305504149858927 
0.05943687051565082 
-0.4973089894324123 
-0.7359110951437083 
-0.5217295140664632 
0.1960133503244546 
0.02204006106028242 
-0.3016963795931787 
0.8548549697887258 
-1.550466510443599 
1.464184559266185 
0.6631518894279045 
-0.4398354390502116 
0.09379205967480968 
0.4878994544574532 
0.3050744089094884 
-1.54560290843245 
-0.3269944055753931 
0.9568690696323655 
-0.1127055688377464 
0.1287904682137274 
1.357488955286381 
-0.4890483811993658 
-0.6371191033210716 
-0.3148686600925478 
-0.7735221415212893 
-0.129487272361721 
-0.5059827512069232 
0.04609647410000165 
0.6172217359046727 
-1.677363233421896 
-0.3995003124954161 
-0.116918374490079 
-0.2717111109809081 
0.01966254429678463 
0.1195138335087814 
-0.08032464932502245 
0.3310473815186161 
0.008735353846089399 
0.2776290547374327 
-0.1087856328731132 
1.061362503021735 
-1.377456937834582 
0.4914176212701253 
-0.2175188347003284 
-0.4455996686226208 
-0.1445672284811765 
-0.2374715870902777 
1.106300319751813 
0.1779108519031843 
-0.2920047989953283 
0.4118227433265476 
-0.6935993385212794 
0.8418545647917004 
0.9043367704499597 
0.1725158479366754 
0.2070099296187961 
0.3260135103940222 
-0.460747511248366 
0.4443878281197471 
-0.2972464039296517 
0.3865207424054749 
0.6833363762425178 
-0.3952742854653992 
0.5516488649301832 
0.8807168088577836 
-0.6773341249307406 
-0.7701016556630351 
0.8568457584574889 
0.0600452997609927 
0.2931529125111371 
-0.312311786933768 
-0.6821831475232952 
-0.4614745478671289 
0.3187145097276781 
-0.9139557624734405 
0.8634640359731228 
0.3219532839775395 
-1.147978274566666 
-0.5473099855618863 
-0.3251219284912562 
-0.9246400926693531 
0.0513805801281063 
0.1675274004380505 
-0.3984179194212507 
0.5356858796865969 
-1.345815404904645 
-1.450833116657931 
-0.1041840710460206 
-0.05764290116386204 
0.1628123815666845 
-0.9871844250977957 
0.7530355619700243 
-1.041985266555012 
-0.2110897435890767 
0.009900901238895077 
0.1556505595117103 
0.849904795402459 
0.6595018088636595 
0.1006839748095073 
-0.7600049514169276 
0.7250793907376967 
0.5004786008292795 
-1.179632427774093 
-0.5273057577355612 
0.343744605769095 
-0.8315092286903117 
-0.2736122990995055 
0.05920084743085807 
0.2133999877489603 
-0.6460224053709258 
0.2079806522206926 
-0.6008981807565411 
0.8757913993610654 
-1.098632293909476 
-0.1695289457637691 
-0.729159510602936 
-0.1146971583183405 
-0.05532237607079163 
0.06461804538327727 
-0.5806225137013045 
1.507135205607708 
-0.4720624822928172 
-0.3933058062948456 
0.01704106918268618 
0.6817273646863726 
0.4524043653902723 
-0.1179349246053962 
0.8834350827990456 
-0.8778112446913975 
0.4552057367561565 
-1.139648051466063 
-0.1808704531373278 
