solver_type L2R_L2LOSS_SVC
nr_class 2
label 1 -1
nr_feature 512
bias -1
w
-0.09348323832813642 
-1.088491362956207 
-0.6785573593033831 
-0.1030930527082196 
-1.172841570543977 
-0.6146213484918204 
0.05779377671379696 
-0.4027817979442628 
0.9809751414915174 
0.5200044308117502 
-0.3938768156288238 
-0.4028057580090602 
-0.8846384592329728 
-0.3123109406142012 
-0.1327379705906004 
1.18868535445126 
-0.6046694334505474 
-0.1575231531953937 
-0.298202233801775 
0.1812435425144117 
-0.4829947627476327 
-0.01051816060344347 
-0.6394652403576905 
-0.9101012837776472 
-0.07626553847352911 
-0.2399247218823746 
-0.132594842525037 
-0.4497971143505886 
-0.03982191698116327 
-0.2078221274374553 
-0.519934484054714 
-0.1746468016211835 
-0.4399645635150658 
-0.003037585397527793 
0.2088156729704194 
-0.3362486099378752 
-0.4148408966198682 
0.7242749573260095 
-0.838654503971587 
-0.2982936467377806 
0.1009693782317246 
-0.5630585709910186 
-0.1093788938515961 
-0.1276671541689243 
-0.1140402982574247 
0.4293740421629593 
-0.04819459191841885 
0.1748918276422487 
0.7046002784377549 
0.05323930270630189 
0.4597966211276838 
0.03128910846374718 
-0.7105747058049693 
0.2743791255591673 
-0.1643456040541731 
0.4451766840441472 
-1.783865843794129 
0.07047252898709112 
0.04395730246633443 
1.614479171648568 
-0.5607985421556089 
0.1412673739772755 
-0.1750183782606448 
0.3500876476371948 
-0.2166916735579939 
-0.6334424393553774 
-0.1715433984295762 
0.1294091245660748 
-0.6598163618031504 
-0.4480095184590395 
0.4741413514754551 
-0.01220462449481403 
-0.298753371935199 
0.5669357070943348 
-0.09418845602979713 
0.07042962049628494 
-0.1377625903766186 
-0.08223692592045266 
-0.3357803667504337 
-0.1772179355759511 
-0.5267935555493379 
-0.1466318903335493 
0.05799091842703457 
-0.5338592175322934 
0.306099634599525 
-0.300642740466744 
0.1896655223543147 
-0.3218279412114535 
-0.04779669489901734 
-0.7783453825704288 
-0.9370324776215118 
0.2138025578467883 
0.4678056183883869 
-0.5407314443078004 
-0.2102975443851042 
-0.3093385791385055 
-0.159043170122931 
-0.5109908341954785 
-0.07226986862482986 
0.2977928571640462 
-0.09928067466715981 
-0.1351680708486869 
0.3490170873067161 
-0.1579066983861148 
1.583417180154763 
0.08463485051143768 
-0.8436079089673252 
-0.03572751055128238 
0.1986327442535111 
-0.02239297711316881 
-1.255479165528848 
-0.3201077744598152 
-0.3303368985254228 
-0.4398867295693636 
-0.2221370528704042 
-0.1642932833617966 
-0.3027329771613423 
-0.5304484651752663 
-0.5229739475230953 
0.3795893921598846 
0.08702422630850212 
-0.1378682501439087 
-0.1252630072466782 
0.04421740347682767 
0.2639763811303101 
-0.2948844961460266 
-1.231634527826603 
0.1639019053596879 
-0.303008413460484 
-0.6467067883431062 
0.4020006516805574 
-0.06539394720419375 
-0.2731600085827955 
-0.07187814118796428 
-0.1694945754108236 
-0.1300676593867419 
0.04677054247007817 
-0.153934679922784 
0.6773827886221863 
-0.4446342425742421 
-0.06966176202812782 
-0.3169531808569805 
0.008679360054395176 
-0.1863634515035964 
-0.2972702750678411 
-0.6890190915283431 
-0.05572031543775431 
0.5444697264102542 
-0.01672959178082406 
0.1683237282685946 
0.1812740543744119 
-0.2916036902417514 
-0.02922806019772227 
0.2138920173931226 
-0.1406477488734961 
-0.1127045570420952 
-0.5627167528057367 
-0.03956869047202103 
0.03829547696831142 
0.771984580594769 
-0.02469171042542091 
0.1768624557364381 
1.456315733720102 
-0.2193324943920968 
0.0852254119210762 
-0.4065812857443381 
-0.1517755077215648 
0.005493222706198977 
0.4818366252352676 
-0.2210068586792482 
0.2841621681224729 
-0.4782553776673083 
-0.2638028567102104 
0.09108794919318051 
-0.1588324609573439 
-0.484366141882638 
0.4099304022341926 
-0.1565489805122344 
-0.2557402261483788 
-1.180911480795187 
-0.130739743327724 
-0.3787102583545376 
-0.7379918424651741 
-0.4982578593633325 
-0.3774652598113972 
0.1455366251391107 
0.3325077383268767 
0.1389862562460203 
0.2279847614952442 
0.2318042065763578 
-0.06219980943128955 
0.03798785123100232 
0.1004038919634787 
-0.4680489218329879 
-0.4247384324243484 
1.001415511761587 
-1.787226956748015 
0.2763468786427606 
-0.3095719482980708 
0.5281556044455429 
-0.1445965122753296 
0.02216145212182488 
-0.1700649554422681 
-0.03631579456918586 
-0.5375142436054545 
0.1094947029116309 
-0.3088320730235639 
-0.232283237392743 
0.3036156849039018 
-0.1610833857205276 
-0.5293535015229532 
-0.07419101125122611 
-0.2184792458477623 
1.059772950251932 
-0.2303293402969095 
-0.3887931271741776 
-0.3623249406207307 
1.479891702026725 
-0.5177545296259667 
0.2166484333321365 
-0.2129977115132262 
-0.1111936044017275 
0.4071762704821948 
-0.3403771608753802 
-0.4059701808551043 
-0.3237981474587437 
-0.3178170178483614 
-1.056260355712485 
-0.1364087975111039 
-0.1321629429910427 
0.7471043174492764 
0.0342221447378111 
-0.3046324389629873 
0.06746060901568732 
0.3509147206841261 
-0.1973130401217172 
-0.5712894848602632 
-0.07775076881307742 
0.1888712523327426 
-0.0148516577832574 
1.098898179063235 
-0.4178031446901248 
-0.09389927516537847 
-0.0476718967105878 
0.4962623486912753 
-0.07769019094841953 
-0.02745024770102519 
0.08184688178849463 
-0.6200208518331054 
-0.2313696315376318 
-0.1828017412329498 
-0.3410929666487041 
0.06996627762650029 
-0.3714951872818853 
-0.2273602108448445 
0.7544349325094065 
-0.2173239804099299 
-0.195990826220345 
0.2976827676823592 
-0.2705145430719583 
0.06513379329432449 
-0.7576736781744815 
-0.8977084622206943 
0.0989848820256069 
-0.3542497737555686 
-0.314148261763997 
-0.2865748999381433 
0.01389363339505742 
0.05535704055792471 
-0.9108802788804469 
-0.2571318620060775 
0.4104412133952934 
-0.2499004374872346 
-0.01905094754567361 
-0.306631469261379 
-0.07792323341360172 
-0.1524315952430108 
-0.4514413156257256 
0.1512544034756586 
-0.3142030054318404 
-0.1337094055055014 
-0.3060762998081965 
-0.3375295667648334 
0.02476155857533559 
-0.6811076589200467 
-0.04286862148632438 
-0.1820591801897256 
0.4767529083847761 
-0.2423475120864333 
-0.04902607884593992 
0.0846721614268974 
0.06940149116254647 
0.1055070667457705 
-0.3868381206513837 
-0.271459315482862 
-0.4244528913396756 
-0.3823677918563551 
-0.796605554605255 
-0.2182136160113717 
-0.09393983891971494 
-1.013749268236225 
0.09157122791590519 
-0.4462165917878479 
0.954250215909165 
0.4755345962381201 
-0.3933198580500312 
-0.04966304629205057 
-0.8131912986821481 
0.5703436060832833 
-0.003300532213260378 
-0.4167077929237354 
0.1795176965914108 
0.1699970872158617 
-0.03075607326530762 
-0.3144901787348204 
-0.5992670071458324 
-0.2608198435172416 
-0.6584631494646224 
-0.4588556658745143 
-0.7913870096063678 
-0.299644509903758 
0.3696682923293245 
-0.1646717799570468 
-0.2561203898166839 
-0.224847744745414 
1.023342496315038 
0.05582661499010931 
-0.3605161178946736 
-0.2338798296438724 
-0.2877500704091489 
-0.1900335149123831 
-0.3639002408980393 
-0.3549454930580116 
-0.3770974533375838 
-0.5349819097832414 
-0.7636829967963298 
-0.06188519232412876 
-0.5176287017885028 
0.07270932936231178 
-0.318899834583829 
-0.6632028527855878 
-0.456778277752 
-0.01893804164613532 
-0.4763108032009179 
-0.1891046118315798 
-0.03829468929311592 
0.6634780171521372 
-0.5268414972497485 
-0.1084312304180597 
-0.6159418868233393 
-0.5006927206127527 
-0.3236347186337954 
-0.8506624245870212 
0.09582902571702231 
0.5568295438308188 
0.3376455194170859 
0.2281183862073912 
0.1205614650837787 
0.2824031010698015 
0.03804057270286438 
-0.8329122908028964 
-0.185961062494604 
-0.194047797335239 
0.02712938972009442 
0.7369800475137879 
-0.4485536603912659 
-0.2706701926851725 
-0.3925554339465019 
-0.4073631254556976 
0.5798196269639763 
-0.2061458292560844 
0.1068958019142856 
0.2595848499283355 
-0.4455499407173706 
-0.3303410351609071 
-0.2516327066167305 
-0.4657565865264719 
0.9078766694900331 
0.3666356707143512 
-0.4330927469933512 
0.006967144591480731 
0.5362849782250585 
-0.5111839710516464 
-0.2795162828681331 
-0.2240350149499991 
0.05909951529007589 
-0.2571648097062241 
1.377908018929286 
0.2417510421917137 
0.8550767447705854 
-0.2878223109470981 
-0.4461229994826363 
-0.08718779497921259 
-0.2423301684777923 
0.3190189153810339 
0.2985687752269133 
-0.07524101489560618 
0.1296592309260227 
0.03481787576533918 
-0.01515679944870873 
0.3821458219318936 
-0.2104097540730513 
-0.2577727178632913 
0.3297863536352934 
-0.4689865716713711 
-0.5496057900251168 
-0.2549275682550035 
0.03216627540314747 
0.4881841789128654 
0.2807851461029189 
0.01867284341705262 
-0.3362481989087021 
-0.1680509819869268 
-0.1644718030486833 
-0.133569808562137 
-0.2847790084096694 
-0.6399598517664445 
-0.2863673059751616 
-0.1981546314926781 
-0.1208827430583697 
1.309102431686475 
0.7330930508693924 
-0.4105732814407121 
0.3054110298205456 
0.0422252307265619 
0.4566559839748283 
-0.3836409238847101 
-0.05445524069098283 
-0.03285306937111598 
-0.1367727099369971 
-0.1561260232599301 
-0.3203399815033374 
-0.4161115250075321 
-0.18361951739973 
-0.980071874530434 
-0.4006755309514825 
-0.5216279374383075 
0.3337507467617794 
-0.3505676920802016 
-0.5541350307274898 
-0.2849115601148673 
-0.1656490969560984 
-0.2640239575924656 
-0.1416242459082819 
-0.135861031997454 
-0.5276309292442025 
1.252414011764325 
-0.1344025912452039 
-0.1461726379878402 
-0.2019057810023642 
-0.4486313399611583 
-0.6326281944508614 
0.4365984034428202 
-0.225836121929902 
-0.08260332171646292 
0.3128986880717612 
-0.0800747086215723 
-0.2434080915528225 
-0.2369728812744439 
0.3303341890120954 
-0.02368423346130199 
0.3207868413566656 
-0.3423899221947242 
-0.9949059169078074 
-0.6464818123686047 
1.882777916890894 
-0.2608282145230695 
0.1054894127117196 
0.1101969300834938 
-0.4578305009168343 
-0.2014098727622359 
-0.2647156235139432 
-0.6029361648328546 
-0.2210785726563138 
0.643422725703077 
0.004301649121796301 
-0.1467839022530239 
-0.1990189001911963 
-0.1783970157662006 
0.0498912333507869 
0.2338531666811813 
0.1503091877895635 
-0.5648145852919559 
-0.3816119823449632 
0.3940288836896607 
-0.3594409300034191 
-0.8327972271408242 
-0.6422828828785487 
-0.411350854186507 
0.2786418621122774 
0.1778656915275067 
-0.1279519843875008 
0.5787519431638519 
-0.5099967301397971 
-0.07110375850134744 
-0.4539092884064256 
0.7281825317285997 
-0.4012182139536665 
-0.2501188723450735 
-0.1311539334919502 
0.4066451321603979 
-0.1632290295834011 
-0.3404807530266528 
-0.04537793120540042 
-0.2052635628687698 
-0.1343553911495615 
0.7511521675189615 
-0.3643280960777087 
-0.8126742587694741 
0.3813581499395018 
0.1248562691819267 
0.3165737161567222 
