solver_type L2R_L2LOSS_SVC
nr_class 2
label 1 -1
nr_feature 512
bias -1
w
-0.2291730013904593 
0.2327981922308721 
-0.2400990157211016 
0.1860601817283851 
-1.004088763934021 
-0.05689883069710644 
0.09136180649926876 
-0.1498780146514352 
-0.3604262074478876 
-0.194654760219046 
-0.6703602412655054 
-0.07962527354387247 
0.0155168372770674 
-0.4866328723958057 
-0.08948897942664837 
-0.1730704662975056 
-0.2940547771427174 
-0.3338566681493501 
0.03583163428363174 
0.1462690398093313 
-0.1466914171442174 
-0.2499592189668873 
-0.0006126477885077374 
-0.08806480138325816 
-0.5541537885123372 
-0.1785397430425878 
-0.2370490320902529 
0.5658218453492363 
2.136727659793244 
-0.2609952080643909 
-0.2838494119585109 
-0.2757992680380683 
0.3006767921933783 
-0.4980702304686866 
-0.4121282822724376 
-0.0751014867669091 
-0.2246184545667824 
0.3072549477344228 
-0.007038187651182875 
0.4350354315110249 
-0.2794887888453006 
-0.2750027105334319 
-0.7407963752213191 
-0.1911994283722301 
0.114724263814112 
0.6736982110294507 
-0.06028797016734962 
-0.1991653622149177 
0.2259697467878684 
-0.476533370518013 
-0.2718000372200586 
-0.03305213577855626 
-0.8155561831101494 
-0.3888407847807828 
0.3616306532512976 
-0.4849012005090267 
-0.6596079536265256 
-0.2448258395254699 
-0.2945720339297244 
-0.3717584393830129 
0.9160904547925832 
-0.09292009788676632 
0.139668311722338 
-0.2259121127021683 
-0.7624258707493041 
-0.5396339753691355 
0.6436511843093691 
-0.009122498794211256 
-0.5707652118301204 
-0.2571766720179133 
-0.132466595501699 
-0.02193888694648851 
0.3741077094764512 
0.6000387719646303 
-0.6583550836209088 
0.05616537901130675 
0.09728793768515868 
0.1766560112682468 
0.0247506741304713 
0.3348853111011035 
-0.577868985296327 
-0.04603880476617463 
-0.2633980868813841 
-0.4397137686372375 
-0.4144421097646334 
0.4336647796071879 
-0.1891941386151494 
-0.138404743125866 
-0.1447959384098536 
-0.8607930487686789 
-0.8175288872373685 
-0.2187240076652897 
0.180348367774078 
-0.2685701907112784 
-0.1924644417276444 
0.05473226293100974 
0.3730737962061517 
-0.1795459715555439 
-0.1712360627930938 
-0.1610668821270746 
0.2684116374966493 
-0.2952725496499309 
0.1586615213721985 
0.2342200370961052 
-0.3122232440524808 
-0.3053714608616867 
-0.2146997570580213 
-0.008680739237546444 
0.6991338439817404 
-0.254558129581209 
-0.1633873030048799 
-0.09254002148036986 
0.05583513821031541 
0.01979538109885594 
-0.1839992668654009 
-0.5936482935605499 
-0.1450235296937485 
-0.5719637544116137 
-0.03996790242413167 
0.02070017851868327 
-0.5273774018806535 
0.1114050537411526 
-0.3453345074872443 
-0.01673449859666883 
-0.2035373796729071 
-0.3022240127321273 
-0.3283174931382013 
0.001307894928277062 
-0.06609900412252258 
-0.2583021767100743 
-0.3521923027561475 
-0.2323865981606073 
-0.2760158765456337 
-2.27642080055609e-05 
0.2336194822305132 
0.3709740174616156 
-0.1146583360333312 
0.01093917104044595 
0.3149632569347148 
-0.4180259020018989 
0.4620670793076204 
-0.2115828624914548 
0.4676039895018917 
-0.1676509273097056 
-0.1539843250226168 
-0.3718206791488477 
-0.009433703998175502 
-0.2251218336178548 
-0.2490511286292874 
-0.2596511413159575 
-0.8892109670992915 
-0.03087675651441592 
-0.2352450567691682 
-0.2217883105435724 
-0.351919332632992 
-0.2367905058183092 
-0.1466532974224368 
0.4916229391657047 
0.05331268632376859 
-0.08749024648139903 
-0.2990211036563776 
0.2302672868135605 
0.3402873317169366 
-0.001882149623314073 
-0.164934875019755 
-0.8429383950905174 
-0.1712937510513932 
-0.01815621917778172 
-0.2055432018059961 
-0.1650002457611455 
-0.3143032198128378 
-0.3847786169709455 
-0.2239645977282822 
-0.2744979048805787 
-0.07902223548714923 
-0.6219065788650525 
-0.5389448525890496 
-0.1505944985606146 
0.06320464548429044 
-0.8120472789611701 
-0.06873514690338924 
-0.01378206768758365 
-0.5966404225924371 
-0.3442278761373528 
-0.04077997081089474 
-0.8245952154427229 
0.01475749158903605 
0.5255777865365502 
1.44427448019475 
-0.09330178051576477 
-0.3622146004201147 
-0.2194147583876054 
-0.1704847520578112 
-0.2013352716343121 
-0.4412595955767163 
0.03562307354961396 
-0.5485436281338131 
-0.2085905588756736 
-0.1064197335116795 
0.9322215270674122 
-0.5972257297925764 
0.9197617363568196 
-0.5789249968814509 
0.4382489779909721 
-0.3638605196490273 
-0.3325816479860222 
-0.5529738210521419 
-0.4033037208162596 
-0.3000723029474586 
-0.2805510285422521 
0.3971310970690091 
-0.2667895902568247 
0.1105963644598221 
-0.3666488224999514 
-0.1679111791654088 
-0.2791658943945861 
-0.7505296020311217 
-0.36165785589197 
-0.1630889487619968 
0.182264432350847 
-0.1241475376003373 
-0.07246873517834101 
-0.07510073095449542 
-0.3737789589757864 
0.1140503070703178 
-0.1078477596714225 
-0.1939795383863815 
-1.237540694953005 
-0.005610926359734378 
-0.1064008420337129 
-0.6309504140075387 
0.193376397823505 
-0.3004505184031424 
-0.1751980661629286 
-0.1743735613115744 
-0.07974221468914039 
-0.4542801439060124 
1.053871218652482 
-0.3581217470811069 
-0.07555986193149079 
-0.01777402448485011 
1.091440031956568 
0.006567233845023788 
0.7346150337895309 
0.04287239120497428 
-0.1558499095282868 
0.03724652763532393 
-0.148850706164125 
0.07102864919540271 
-0.3153874796781341 
0.5282595410582047 
-0.2992188570454953 
0.08751685405705069 
-0.4039861592080858 
-0.5078843713876905 
-0.5558292268974099 
0.02723582660264959 
-0.2367689722793296 
-0.1870571342162429 
-0.710781346130241 
-0.187589370830248 
-0.8756682824473013 
1.075635031921437 
-0.7122688386341306 
-0.3035197196591341 
0.09261777764854649 
0.03827151549573624 
-0.2242575512256955 
0.221558316954457 
0.1666672525383947 
-0.1587151671484971 
0.9979650297937608 
-0.1519516478375832 
0.05613420163681317 
0.1907236688677882 
-0.1408041767243674 
-0.2183575959341233 
-0.06865067803235832 
-0.007949629570248876 
-0.253320614218746 
-0.3188223173838611 
0.1817516853253611 
-0.0912311546325487 
-0.1450074685416554 
-0.4654527206245303 
0.2811185327816514 
0.1685764564699297 
-0.06618364840157141 
-0.4374634738171029 
-0.04050741002020824 
0.1498279545350864 
-0.3686762565022079 
0.6751528131895024 
-0.1960344680466337 
-0.2784333374965107 
-0.09696774964814614 
-0.4217490796824046 
-0.3407456049530805 
-0.04873369307220204 
-0.1703879267113287 
-0.1270752757345202 
-0.3072401329720654 
-0.2743318195173822 
-0.2809466968721274 
0.5094143979007784 
-0.3596793905315124 
-0.2577324464510539 
0.3235420338209868 
-0.3947983108640834 
-0.55916019635892 
-0.1165482617458701 
0.05208632873699944 
-0.2728248882064296 
-0.1917008394234596 
0.02390467541297091 
-0.4573156046422703 
0.6590051977407151 
0.9833848531314274 
-0.2096020469647936 
-0.7322652057666554 
-0.3620008649712623 
-0.1133897740101996 
0.04429682326599588 
-0.1098917403769715 
0.4492082201606736 
-0.2470542967623891 
-0.312029429844501 
0.09155592935070558 
-1.762350232327512 
-0.161450420855461 
0.1566447121262247 
-0.2088323587440877 
-0.30817491228555 
-0.2859809033104597 
0.1916013910656564 
-0.7086229940061248 
-0.1128810547350629 
-0.4839435596150407 
-0.4120260666381019 
0.02885742500390143 
-0.7543157825460346 
-0.5407836449251048 
-0.3550913836928811 
-0.1329356703136689 
-0.2082536795384793 
0.4332774267526392 
0.1596248735729073 
0.2217909620574356 
-1.21335614051182 
-0.4501739216020083 
-0.09929100739599342 
-0.1839375572664204 
-0.3957409900733783 
-0.03730358076986103 
-0.3052323357605303 
-0.3284281094533377 
-0.2948408788944677 
0.1068105633952587 
0.1332661992819851 
-0.3878259012084019 
-0.642324265796434 
0.2448589663160894 
0.1431220709907243 
-0.1955641163223253 
-1.012849512109161 
-0.3417660142398766 
0.1083816375241412 
-0.4120924244413457 
-0.3974798846621627 
0.0277460734808513 
-0.2966426823087395 
0.07356107639656687 
-0.3216586367057553 
-0.1274515795767402 
0.1785974987940369 
0.06862858312117098 
-0.3388057872266088 
-0.4756705802594165 
-0.03762986820343992 
0.679226403126412 
0.5149024742148486 
-0.3068734277687593 
-0.3121722248042986 
0.2293882472090729 
-0.2584623903936064 
-0.1946976876721615 
-0.2582553814447462 
-0.3325274321732637 
-0.08100724795848202 
-0.02541787746939513 
0.007827339985870985 
-0.4936001132147704 
0.03164625866774351 
-0.07553459323762118 
-0.0434482208729951 
0.4787544958804811 
-0.1714482292214363 
-0.6565270465920735 
-0.04393970230796544 
-0.2099649623710101 
0.03799035545167571 
-0.06307265563712647 
0.6784269828135455 
0.3618372989041674 
-0.06742565117057986 
-0.5763327653118743 
-0.3380208176299339 
-0.005713418930173705 
-0.695998237108674 
-0.1612691306945831 
0.8241932284975584 
0.2040594660708681 
-0.1653703134648243 
0.02937231020121382 
-0.8895780700716051 
-0.3228858312264566 
-0.5359442125896474 
-0.4161929237905914 
-0.1578341984662122 
-0.1805909719729507 
-0.2963603617883599 
-0.3446507344449413 
-0.4862205408951534 
-0.3435488085563494 
0.05711313074490239 
0.1694328922141318 
0.0754331174110896 
-0.2309488495412252 
0.002573504827315704 
0.2044794078157173 
-0.1672268506356824 
0.4020671142454825 
0.06889695575694815 
-0.09915952812083778 
-0.8589219214737255 
-0.3454552796727438 
-0.108686137566235 
-0.5084130464687591 
-0.5040014083228707 
-0.4585480281185718 
-0.2086799397637891 
0.1724806225777782 
0.2262547614349044 
0.02414610936514131 
1.239329804476998 
0.2726342891638926 
-0.03511713414930782 
-0.6867154279755289 
-0.2992357400833992 
-0.1670520367017269 
-0.5830446196595834 
-0.2704390957163063 
-0.1502837249469675 
-1.171598328618806 
-0.07459409163239494 
-0.1908990020171863 
-0.4226696087861023 
-0.1545731787595721 
0.7388648469975143 
-0.3402811498612232 
-0.3870203521480238 
0.07059339660574772 
0.3883442271893314 
-0.5630079067632097 
-1.003646437265342 
-0.2650310510835172 
-0.6264929194477851 
-0.1267915951408304 
-0.2114518923209088 
-0.06417840700354553 
-0.03550142957266726 
-0.2807445737467396 
0.2391400983032206 
-0.08433899621528693 
-0.1770853189246571 
-0.323305928333739 
-0.2416688075191894 
0.1885137582533667 
0.08888909718245595 
-0.1455542127073285 
-0.5774559771662818 
0.07127841153424873 
1.084443982515731 
0.821013800531421 
0.5080816871450164 
-0.2249961414740003 
0.00235008797280434 
-0.3021137569554036 
0.6058308944161352 
-0.04500148336483391 
-0.1336911711880636 
-0.3366462531282668 
0.02815287105993735 
-1.198264203851351 
0.005748912181386645 
0.4219861750111588 
-0.3339015788501057 
-0.4097573475213629 
-0.4172864939589315 
-0.2671399972414353 
-0.1617765801471819 
-0.1837393050516486 
-0.04098987964540315 
-0.09173363962970299 
-1.49459946710436e-05 
0.3510817963340164 
-0.3053219053349377 
-0.3506718669120474 
-0.9162065854339569 
-0.4318223087113418 
-0.3488652631866868 
0.1391002128525556 
