solver_type L2R_L2LOSS_SVC
nr_class 2
label 1 -1
nr_feature 512
bias -1
w
-0.238330170944 
-0.8376257364304525 
-1.015737376665274 
-0.5462603756637419 
-0.5053153520677982 
-0.9156758336089809 
-0.5322298873224273 
-0.07588375915764306 
-0.2440836471600335 
-0.3590309738157649 
-0.7586596060965674 
0.05333627440889627 
-0.7794766580552202 
-0.740415773246255 
-0.09464828809565551 
0.283993807840747 
-0.381130058837509 
0.005249834137477556 
-0.4959449138671566 
-0.6223709895043963 
0.5210096090870698 
-0.1590722952166252 
1.043105370000489 
-0.2523349404697668 
-0.3999092960953858 
0.002534568924759707 
0.2689844250804786 
-0.1177360031011495 
0.6761065038776584 
-0.2134431170995023 
1.025308689972644 
0.8346971755215068 
0.6419632034104439 
-0.9276782068925786 
-0.1101687797084809 
0.9384012725394993 
-0.1798183754590768 
-0.1869532173150956 
0.3228013611999752 
-0.1712138717750756 
0.01181382523641366 
-0.03274098841582548 
-0.2541972733165442 
-0.2617737505454943 
-0.1879609583773585 
-0.1890781200395425 
-0.2799499885570824 
-0.5877888427342193 
0.167734072966101 
-0.2123157837407284 
-0.5392427150825694 
-0.2687905188096846 
-0.2406464983698305 
-0.1404891389047876 
-0.0004529971523325139 
-0.4818111975627367 
1.343461148737794 
-0.3417695033352927 
-0.7382013202337707 
-0.5030783359993052 
-0.512387115175451 
-0.4003328689602543 
-0.09223730853550567 
-0.146703725390619 
-1.052146530631336 
0.1664298029457943 
-0.9807483394868259 
0.1082260209950592 
-1.349449604427106 
0.8677202380346084 
0.9881111765632098 
-0.4291231125000672 
-0.3363102006379322 
0.7185338299548912 
-0.4022327825050981 
-0.3169503424890321 
-0.1886182899507665 
0.08329474326306445 
0.6086138660080883 
0.01601693582795804 
-0.7913525692876013 
-0.2839670577083591 
-0.6840738374699018 
-0.4069966299985004 
-0.7500805296343359 
-0.3033996826436875 
0.382352497115075 
-0.954478645175097 
-0.3801852593995014 
-0.8200901084045628 
-0.4920402282193892 
-0.5558750635926348 
1.336161833390866 
-0.02053256457472402 
-0.4238498893089856 
0.05786495167188523 
-0.3826350477854171 
0.01616142155993188 
0.1223790181860552 
-0.4087095156180828 
0.03681508697516897 
-0.3066923102841492 
0.1081307596348115 
0.01305463586165317 
-0.2976986857991955 
0.06270019297453679 
-0.2074093084575871 
-0.1132057670616818 
0.943703312377515 
-0.2114144476008704 
0.1354426478014063 
0.09982367479417015 
-0.621074051477764 
-0.2674205268789179 
-0.1117718241516863 
0.6908115595575363 
0.4934337107284921 
-0.3666212613944866 
-0.2573692791889026 
-0.6128804677538501 
0.6229145169888494 
-0.2233462380636549 
0.6184257551465968 
-0.1979502927658961 
0.08129190113025762 
-0.1086658992576291 
-0.05487553630150742 
0.4698060494043064 
-0.05920528645646267 
0.7801584919189141 
-0.4250497041153851 
-0.2177809830207997 
0.02119242199130065 
-0.368426572527594 
-0.6844753816333887 
-0.2118018355206449 
-0.2002525629600024 
0.0904616911213828 
-0.6152774529684969 
-0.6896064976979005 
-0.2391970283429098 
-0.6580445003304154 
-0.03062148180578501 
-0.1190627350534187 
0.5484758943652863 
-0.432137653830746 
0.1257001387162941 
-0.1162858261188364 
-0.6941379505019671 
-0.3623128819033241 
-0.3455514426329168 
-0.4507643981275991 
-0.617444415964712 
0.08839326776527039 
-0.6189128048216741 
-0.3777530689237677 
-0.2753776698372946 
0.04001100925850857 
-0.1462955243550605 
-0.2858421975196759 
0.563822437417234 
0.02699750300888556 
-0.7192285388384798 
-0.0334899475234351 
0.1706403648354538 
0.8576383720779172 
0.3480730582027662 
-0.2681525330126058 
-0.1800165890255812 
-0.1898791395620764 
-0.1845699188661537 
-0.2292715528446124 
0.3702040186328811 
-0.4549051467483557 
-0.2955259256400144 
0.2088220615074804 
-0.7853472767075612 
-0.0309149873093271 
-0.5172509421521694 
0.4075404727122572 
-0.1726854521799832 
0.430495589788622 
-0.3077297954814037 
0.1315186864158664 
0.05875735717886506 
-0.4340491105866632 
0.7933685867699554 
0.1131039012299236 
-0.4210379886489178 
0.1142830245416744 
-0.4096122429495442 
0.2983890039129615 
-0.07914423204841398 
-0.7445907245062658 
-0.6382099126900276 
0.6547720301651148 
-0.153735225859344 
-0.1894695750551479 
-0.3309320046175209 
-1.014173033429381 
-0.247152199490075 
1.013493345108273 
0.2990266392270639 
0.7069327761333848 
0.4270011858432022 
-0.3168057356717877 
-0.2000931133059531 
-0.4479918470099209 
-0.6129466528691332 
-0.6706904633306858 
0.246497095939898 
-0.2857233015298637 
-0.6729210662139689 
0.04308752369054654 
0.4147963130699483 
-0.0867918896386774 
-0.609922664595088 
0.1099194252181098 
-0.23727222183566 
0.440838916045043 
-0.08820955401646255 
-0.1574102073985536 
0.1203866104277887 
0.4413378497891134 
0.251500781679716 
0.6351621737148228 
-0.3762880051340925 
-0.2646801041592345 
0.009044329654418939 
-0.5888519209516095 
-0.4072188442440661 
-0.4190825427753486 
0.3265606404659155 
-0.1984769745104328 
-0.3473804399473152 
0.6490956377634892 
-0.7741710269113664 
-0.08593628683460722 
-0.5830405644058283 
-0.1494034682873108 
-0.4975220404143335 
0.4172515805069085 
0.1782949840585447 
-0.03028816487401454 
-0.0184853929061934 
-0.6109619958777672 
-0.03678040806283631 
-0.2328104358377651 
0.2115781745605725 
0.4020892248454991 
-0.05908833538177186 
0.04188980507523163 
0.3546440293752388 
-0.4800452192640295 
-0.1111879306587809 
1.274262029618643 
0.4037806190550827 
-0.4795085703435851 
-0.4139402875525757 
-0.7748553930251241 
0.1597930183325685 
0.5627555923825098 
2.381187848324154 
-0.2011437887739368 
0.1316927391426873 
0.3955855550420289 
0.3293988737009624 
0.2425957271074212 
-0.1467400519132712 
1.210778726084154 
-0.3435158394833112 
0.853846180447842 
-0.2438287967439164 
-0.5998631465301214 
1.187337762500916 
0.4698353239809492 
-0.5531287847168108 
0.2817753649306753 
-0.3609215789023036 
0.3279230977305693 
-0.3751191841936906 
0.02537503519202863 
0.105205432583135 
0.690875407527167 
-0.5025462354117004 
-0.2637904562520934 
-0.09970569235153136 
-0.1053511834642692 
-0.3141651283576064 
0.03725522846291297 
-0.09654706181044313 
0.6344146746441232 
-0.2167483112743381 
-0.07809387206030452 
-0.5954000675052452 
-0.2861658519473075 
-0.8900446104331701 
-1.387102637060242 
-0.3479171305010537 
-0.1884186922609351 
-0.1745379318030519 
-0.6743089197339923 
-0.1803956437699098 
-0.4122143220387222 
1.179661243170928 
0.2685784852802649 
0.2988780515536344 
-0.290153870422762 
-0.09674439856570752 
-0.8346853637561056 
-0.5088051551098394 
-0.1962792811703702 
-0.2286275932513193 
0.2133038423099349 
-0.7761047268998579 
-0.2189349823573458 
-0.419097082441316 
-0.3643349025499143 
-0.5838733911820926 
-0.7884698718895164 
0.5287431461126889 
0.08385704013610136 
0.370162148026016 
-0.2620425544146447 
-0.246877683944163 
-0.1033464433555173 
-0.35148881112546 
-0.528806360366959 
-0.9143144302318059 
-0.0266013374273149 
0.4072205106323777 
-0.1049333793128321 
-0.1927256251039589 
-0.5498820281258148 
-0.2648959248871394 
-0.3191553963263827 
-0.3648858832297177 
-0.190324978731274 
-0.5893939416873297 
-0.06948557441743938 
-0.7791048020778124 
-0.8386621200272405 
-0.534891557187094 
0.2486894615578389 
0.6001161574797367 
-0.5542637866665771 
1.37966076650314 
-0.8144814091393614 
-1.604313537071568 
-0.1310379060999744 
-0.6837945673434487 
0.5427330216353529 
0.2069076551166522 
-0.6723252111826783 
1.342691876672693 
-0.1509168686554225 
-0.6903494370573416 
1.065381050746951 
-0.5203886665821421 
-0.6665574879709966 
-0.5040098945589623 
-0.4575721053113938 
-0.189342265707449 
-0.0989848154732475 
-0.9828655037032619 
-0.5084622044977258 
-0.7638725716065334 
0.30575077179121 
0.688192064366061 
0.9391079223912677 
0.1993831246059006 
0.4160790510962383 
-0.1808243370801149 
-0.2965080384603875 
0.0007837023611847261 
-0.5557253443459026 
1.005905079341475 
-0.3324668524375205 
-0.9913866558515556 
-0.268655333987479 
1.521612233362914 
-0.1905837551585775 
0.1844409489209252 
-0.2578680238508034 
0.6235297871942117 
0.8927802836549323 
0.3804380116112273 
0.279565075167279 
-0.2504194301770418 
0.629761361531183 
-0.1858683372511175 
0.007115522176640886 
0.4838668945763456 
0.4264214212186897 
-0.6364242158826102 
0.4327269086491977 
0.06091742044844742 
-0.6910638511465185 
-0.04857813055214825 
-0.2354333267485151 
-0.4439526367826255 
-0.2475716508958941 
-0.8007099688888383 
-0.3383482281631139 
-0.6948668937123761 
-0.1385235494746058 
-0.530069065255833 
0.2845167950559148 
-0.7318295525886749 
0.5369598094207815 
0.1134437430503341 
0.2797857337016454 
0.4658660336630405 
-0.469618120609255 
0.9030276621064776 
-0.5317583325043563 
-0.4216983695272803 
-0.2240950713028666 
-0.4436797243515385 
-0.357648733245796 
-0.2413811231130348 
-1.227413864660299 
-0.1547278316248075 
-0.2651421983409532 
0.4006951972398169 
0.6726009074937846 
0.07470702645195472 
-0.5542450414713306 
0.01326071912019401 
0.7209635387208819 
-0.2607657370564368 
-0.2509626932623455 
-0.08680958492297983 
-0.6488390789515892 
0.09612200362340068 
-0.3356551177211008 
-0.2733185397549443 
0.6161550802795689 
0.3487704411528046 
-0.6261783513680583 
-0.5555509725290366 
-0.002461127884373086 
0.4800430059838495 
-0.5297243002798228 
-0.3987243036376452 
-0.2178091649338748 
0.09567854642035302 
-0.1062919265653852 
0.004118769688779408 
-0.1744395779516827 
-0.3246724587272884 
-0.3009326534908549 
-0.5066797163121659 
0.184519095111565 
-0.1134022995963625 
-0.3558971304218471 
0.6013317988275652 
-1.179622543401214 
0.2023195833270295 
-0.8340768874512829 
-0.6433652815668506 
-0.08033604034814283 
-0.201009298333845 
-0.5848556167102993 
-0.2083146338571221 
-0.4604127966651827 
0.2061178668885232 
0.2167771402686298 
-0.5924939972285915 
0.01686428308343525 
0.2909515814478466 
-0.2899478118482168 
-0.6037231679496955 
-0.1328450137068206 
0.0648464535381725 
-0.5016103316816869 
-0.1818767875430179 
0.1054608652122353 
1.18612526950166 
-0.09862092356375896 
-0.5615154126706645 
0.06388814918219057 
-1.024215278051539 
-0.2148337433613572 
-0.1579581138203507 
-0.6248428228422839 
0.4186410225863593 
0.6365178452728576 
-0.5082975703425711 
-0.1147273438200629 
0.2476890694805655 
-0.1384742389925629 
-0.628782627668774 
0.07126975303226131 
-0.2080110439213061 
-0.7009334149339775 
1.077018830932144 
0.252318485278154 
-0.6045648264283172 
0.4268992537030871 
0.3712198038580302 
-0.7648523687036574 
0.2325343325494608 
0.5689208721149768 
-0.003907189356895184 
-0.4685144974921484 
-0.3232206110766307 
-0.4493493698010897 
-0.7947048470974518 
-0.4548148748462691 
0.957608277098705 
-0.2069876543588448 
