solver_type L2R_L2LOSS_SVC
nr_class 2
label 1 -1
nr_feature 512
bias -1
w
0.1366444048821422 
-0.8225390543941181 
-0.5230391982223678 
-0.2577873609590532 
-0.3392607663210033 
-0.5929373464222383 
-0.3148159606534112 
-0.01646147062407076 
-0.1282071279379424 
0.1403569450120536 
-0.6739744805111865 
0.2278727683145688 
0.2018256349192502 
-0.4128473094039623 
-0.08929252866409715 
-0.5649603374851592 
-0.359939427530097 
0.06849480309773964 
-0.1762060768627524 
0.2017270535207275 
-0.2552737012659506 
-0.06898238589903949 
0.7397569411164958 
-0.646077538610607 
-0.08483099529766676 
-0.1085381931432034 
0.1099251905152272 
-0.1041698195866548 
0.6121813725026598 
-0.2444653874083777 
0.4311479792876944 
1.159181394784444 
-0.02379357334865667 
-0.3348991634996398 
-0.260051665164132 
-0.008877438267863792 
-0.07496931411355452 
-0.4796613893013991 
0.2089916512607865 
-0.140179508394538 
-0.4116194227444471 
-0.0645438523473517 
-0.433694767240108 
0.1714646944738359 
0.05322003911645409 
-0.4374550542793045 
-0.1538127203967125 
0.1088842791776719 
-0.1932851307055511 
-0.0331630781023549 
-0.4812488176519721 
-0.2118056346719615 
-0.390010548735266 
-0.2910226893463859 
0.02150490617691128 
-0.1686408854392864 
1.45457419337057 
-0.2381544421472148 
0.9405701054210869 
0.06209832877905192 
-0.6590818118382971 
-0.03675635938812816 
0.5663574437475383 
-0.3962415608158525 
-0.7224581076520181 
0.2534176073802166 
0.2603452467789045 
0.8689629281831328 
-0.780051100688991 
0.04680431569160405 
-0.3152440420769888 
0.316469513229417 
0.04727943696134698 
0.6247118322239573 
0.4326428290966083 
0.2115880547157822 
0.4301170763672536 
-0.3348745729253655 
0.2315435198678923 
0.257128749602851 
-0.6568511792333638 
0.1221124047091601 
-0.3983178251855217 
-0.4457012045608946 
-0.02306464489228184 
-0.1349875459466 
0.001199145171645282 
-0.4476951914164038 
0.03794913082760278 
-0.9626769899387679 
-0.3641680607695564 
0.1347386856541657 
0.2154457182738033 
-0.2760441400140016 
-0.2939459370297758 
-0.3851112155948347 
1.066567254088759 
0.142125935960842 
-0.0377990981599686 
0.1388407446122154 
-0.1703050888774801 
-0.2966649220548412 
-0.02401358160589977 
-0.1139095269702466 
-0.6496103000864931 
-0.2148553166834224 
-0.4814651878783829 
0.03445232077253402 
0.06101319997654128 
0.2279048754061349 
-0.5984709724830594 
-0.01132745640905237 
0.04970853912151809 
-0.1335145138975418 
-0.01837263248099464 
-0.1921979121964868 
0.5799292597935749 
-0.1845624041341918 
-0.1268592743951875 
-0.1934253228504095 
0.2818258136689951 
0.01813719480832183 
-0.2153102949648437 
-0.1126473449066988 
-0.2655026671794052 
-0.07275814995098681 
0.8874041137884076 
-0.005771067285926653 
-0.01834798240280954 
-0.3727188947108048 
-0.008436197984110381 
0.0238969809847392 
-0.1501592524142794 
0.1257615106111365 
0.04392387279441334 
0.2169204471307114 
0.2168460555639082 
0.1257815187820546 
-0.5891055997157166 
-0.4178587599261123 
0.02384451275715748 
0.06413668590391353 
-0.1645455342671874 
0.3787329270367419 
-0.06115950614921688 
0.2563292774497126 
0.8278129693312152 
-0.2356991627869975 
-0.3295616540566023 
-0.2134145633046992 
0.5172799171031708 
-0.3840035741731442 
0.03815652522247492 
0.0004440027192671032 
-0.4952500411040733 
0.06932302433850321 
0.2269729774831551 
-0.8103930609381376 
-0.219138152951417 
-0.06039308281700467 
-0.3621677152870353 
-0.02764008066435365 
3.313007175583135 
-0.1891595226071829 
-0.2480700709393991 
-0.4565203719118311 
0.6804896848144917 
-0.4042392585104024 
0.6009601643488817 
-0.300513376922963 
-0.3960693645086655 
-0.1929494155900225 
-0.268925231639347 
-0.3951090620975299 
-0.1925098794587235 
0.5967162894933363 
-1.597604941539604 
-0.2891307268265579 
-0.2504721335777628 
-0.7509926846745508 
-0.09565686185971363 
-0.2059971671039807 
-0.1309880198612755 
-0.5804475523593499 
-0.07835510797975791 
-0.3240051055956624 
0.5701720541290598 
0.7545101337471729 
-0.3274800897392678 
0.3925436339139018 
0.2856105186373095 
-0.199474966764732 
-0.4179125719425945 
-0.31415744103898 
0.2811103032169355 
0.2821535160108162 
-0.611492086339909 
-0.07992290668808738 
-0.1309882352152243 
0.3209705401718395 
-0.3978790626575206 
-0.02129941712197746 
-0.1400836029573825 
-0.115605746908084 
-0.4297857126207764 
-0.2515486425374626 
-0.2446328616119313 
-0.2868313020031333 
0.02653459912858205 
-0.3511479896055422 
-0.09013916787010888 
-0.1060231387269574 
-0.4107179479563126 
0.02320389982330025 
-0.2771634914643402 
-0.385984315795612 
-0.8614041061150717 
-0.5183162813072855 
1.439995945528691 
0.6702364953744698 
0.1746396283196621 
-0.09570879990542847 
-0.3963939553640004 
-0.1830227392066186 
-0.07241012668391335 
-0.000722818904181256 
-0.02381867732728659 
-1.146698479192462 
-0.2036475295724941 
-0.1790576482972329 
0.03342645874975028 
-0.3072986002766597 
-0.4003466141611502 
0.973202789952341 
0.05654465180000968 
-0.07236274577572016 
-0.3420413475381228 
0.3630740743618622 
-0.322847712299158 
-0.2482020193561762 
-0.3236172287633804 
0.4054601697415459 
0.1498606695900994 
-0.1525872532546752 
-0.02385582042955865 
-0.2542657834599442 
-0.07299378679290038 
-0.2385958643412905 
-0.4991320407799927 
-0.4620026399751079 
-0.2496171771713878 
-0.2423910438502235 
0.1890495747354639 
0.3143767355600015 
-0.2836624843567102 
-0.07874396023795179 
-0.2294334703321047 
0.4642004786416787 
-0.4241400821555097 
-0.3900457154750575 
-0.03913265529318165 
1.487552961390249 
-1.053834329181541 
-0.1183211334372791 
-0.3324107429554053 
-0.3390134181286695 
-0.1441185519219896 
0.2366735592211489 
-0.1918482937357335 
-0.7299379912014891 
0.1729225906923391 
-1.151130050687553 
-0.1911921628228822 
-0.3183508727496903 
-0.6308790161175429 
0.5972419658409441 
-0.1186138033532331 
0.2114877337344222 
-0.1345860876307291 
-0.4536983862711934 
0.8162662651942182 
-0.1201969008263709 
0.4669122008225105 
-0.1323318302949154 
-0.2800473774302478 
-0.09409665362901642 
-0.1438935784934264 
-0.1312299674069786 
-0.4047074971479486 
0.3483221859541509 
-0.03742783064365 
0.4068330450272337 
0.04967169139254746 
-0.1612313981624638 
-0.2052205590398811 
-0.1484846236795522 
-0.1912987126104416 
-0.6571214848302173 
-0.2836628321817463 
-0.06359314845719762 
-0.6596020651053959 
0.09639040413668372 
0.1427323092918872 
-0.2699246158082193 
0.5812314350651342 
-0.3104918090097176 
-0.1517363753300449 
-0.549539155590663 
0.7435295867570375 
0.5821196223866886 
-0.101790407886846 
0.004422397684346472 
-0.3598674657118422 
0.3025460370747078 
-0.6579457018948189 
-0.3669665035409131 
-0.3414463450061945 
0.1018264566044768 
0.1083974578085645 
-0.7017697357883549 
0.228749125320307 
0.1198453632173087 
0.04241618894832613 
0.04390014317472552 
-0.09919387969797468 
-0.1226126916748092 
-0.363872897601581 
0.155583976150809 
-1.238008126325125 
-0.3113897131154678 
0.2280323149128536 
-0.602706742291357 
-0.279609658359938 
0.6951404586479022 
-0.3434783835548286 
-0.6381098501550815 
0.2703412202912386 
-0.500648293490183 
-0.3454121457204922 
-0.2265636535804002 
-0.6127673436245813 
-0.7028890829413355 
-0.3305121273571784 
-0.1400579670509763 
-0.1485617914361462 
0.6625399528934461 
-0.3437564227411289 
-0.8249528020127381 
-0.9750202588145378 
-0.3280603289004073 
-0.51325673397111 
-0.1111268036950255 
-0.2678250224608617 
-0.2074495464688254 
0.1090829964656718 
0.598776987423957 
-0.161926829862332 
-0.1383931551355556 
0.07424945230125524 
-0.4007239601634789 
-0.2752219462943544 
-0.3552514879689487 
-0.1694108801964568 
-0.06374573960099392 
-0.4706433333024383 
-0.165148160951564 
-0.3116389143321932 
0.7385046938750904 
-0.1355875481853512 
0.3371340644098572 
-0.2112215940875644 
-0.4306192376567813 
-0.00636564876101782 
-0.5054889639711027 
-0.3663574289114853 
0.3171664976211733 
-0.3411239045829926 
-0.89243195543917 
0.3843282158152633 
0.6569434427213934 
0.2114862291507485 
0.08721779747487642 
0.4249236692813288 
0.04341592060301333 
-0.1517466346486293 
-0.1454073136834529 
0.1938217457490206 
0.1748730512833625 
-0.2085041000478569 
2.094733964684937 
-0.1248640600880729 
-0.5182668789922057 
0.3672357035616116 
-0.154485026850904 
-0.1309229794326866 
0.2194416892772486 
-0.1699599214285289 
-0.7398149047278301 
-0.12160919906639 
-0.2174918886335812 
0.2431731114453982 
0.0263254660931368 
-0.2087946928979104 
0.4019079505038743 
-0.2332931818685141 
-0.7275434486164577 
0.4524704584526548 
-0.2626828855875195 
-0.2839383604089362 
0.1536419249779162 
-0.1567113124473022 
-0.519466144891938 
-0.2352737700629463 
-0.4436107532173642 
-0.7129661174197571 
0.1052804340332463 
-0.3869601614578512 
-0.2874116505387149 
-0.2866988253774629 
-0.1470241822254341 
-0.2028838540379717 
-0.7910833682696693 
0.3394239681389643 
0.9551795626752113 
-0.182913480214305 
-0.1301025714293013 
-0.2441305079535563 
-0.001941848626208975 
-0.2117258507937554 
-0.01705266173572806 
-0.2416301845506255 
1.286888211924676 
0.1800021384885263 
-0.08835978498662804 
-0.5137757469543069 
-0.4415222594537767 
-0.2434190638994246 
-0.2780653771436539 
0.09988044963784044 
-0.3049584432287054 
-0.295048481455541 
0.04470263850249913 
0.001220770800865072 
0.3435517047959625 
0.306708291047573 
-0.2367436855144574 
-0.1696192573253783 
-0.667028024041537 
-0.1918916829074113 
0.9124619248694913 
-0.116337868263833 
-0.1452944222531067 
-0.06851564846736377 
-0.5386837834167538 
-0.3084800530252647 
-0.1283066832485842 
-0.3270939751070609 
0.9108051449475266 
0.1173971656559479 
-0.2100396299758691 
-0.4040901967541334 
-0.1130577075736544 
0.08869011986923392 
-1.024661593386 
-0.743475628281178 
-0.3721800581175047 
-0.4127369271813693 
-0.2659120456397389 
-0.2256126029866603 
-0.1795278781275544 
-0.1239663209290445 
0.03770520399556677 
-0.2144194894982481 
-0.13093438076478 
-0.08286694612322829 
-0.08722343739896049 
-0.7240705836047414 
-0.09879207308167842 
-0.02164671742532803 
0.1955902257767284 
-0.1058712248833742 
-0.125132353509593 
-0.8180368397841077 
0.2765505325507713 
0.350237002372392 
-0.2756149727302162 
-0.05356644878433665 
-0.3090912728761416 
-0.4129189458109633 
-0.05623576311795123 
0.715388690710133 
-0.2141067320959949 
-0.03281436691796896 
-0.8576930696162811 
-0.1637173062624742 
-0.6229661933247529 
-0.2956881386995333 
-0.01343108654432574 
-0.00876127288632151 
0.1251803686102758 
0.4147128245161237 
-0.4426271264462862 
-0.2387917800744703 
-0.03812461437177126 
0.02500357454833739 
0.08979902637840227 
-0.6146641494910834 
-0.4324446958738375 
0.5315273051712959 
0.375851733322172 
-0.3239599905319823 
0.02186415855327994 
