solver_type L2R_L2LOSS_SVC
nr_class 2
label 1 -1
nr_feature 512
bias -1
w
0.3828860101660889 
-0.6819737148175025 
-0.5978652141000268 
0.03260941682676025 
-0.509584142517276 
0.5612912367204544 
0.2060714143200438 
-0.3687220763007918 
-0.5429138659166658 
0.111938233965847 
-0.2913682916181287 
-0.3611385478194306 
0.1858329230283219 
-0.205394124033227 
1.46182918574066 
-0.2537340966865932 
-0.2196423733798551 
0.1956147995311598 
0.008565240883940384 
-0.3527633182769703 
-0.1918936508955489 
0.02517170085886034 
-0.2258636345486479 
-0.9442963251918637 
-0.05497507625324335 
-0.3002675299528835 
-0.01521259432406726 
-0.4519152115481087 
-1.121091816066464 
-0.09663917204975767 
-0.4156666428687408 
1.105302894528298 
0.4749082939241818 
0.0123703129109437 
-0.009015311705437776 
-0.2329907806971049 
-0.234846702864924 
-0.01052108033895633 
0.02773553252265489 
-0.3518376405948261 
0.1695990750647556 
-0.2461789298780405 
0.3213471269173634 
0.02095067154865962 
-0.007594045679006733 
-0.06376403735674419 
-0.03528768523089104 
0.3154803657798187 
0.2725863204926232 
-0.5641773629262636 
-0.2990999158505825 
0.5065166790996927 
-0.4706599148664314 
0.313378541126016 
-0.01049583818022363 
-0.642920860699963 
-1.158481433111608 
-0.3088265827774007 
1.201144913168932 
-0.1536976689885071 
-1.504866399027038 
-0.2059496436666348 
0.1759314962600181 
0.2495600478278689 
-0.3633934906327196 
-0.2434966566005445 
0.1517841420201151 
0.001504665812065457 
-0.3280084489571943 
-0.5606025026032557 
0.2680106514923104 
0.49245329986265 
-0.2497295714754987 
-0.006001587006977189 
-0.01668278046804839 
0.6273162493177517 
-0.12574586266818 
-0.4846303307939858 
0.002210728825050804 
0.4097163035446466 
0.009950220677749807 
0.06298222242144871 
0.2147444272470451 
0.1230586390689277 
0.1537404329686383 
-0.0113222143912518 
-0.002730163943202212 
-0.001770177541337601 
0.2358659624522356 
0.1496129387233534 
-0.4308390590631095 
1.103394423704078 
-0.04548745183059923 
-0.4890955413491148 
-0.1829369188321119 
0.5139833700138405 
0.3410844529712754 
0.07549430806450408 
0.3737451220773075 
0.2503727937255057 
-0.3462361306902621 
-0.08558835678128339 
0.4303942527311994 
-0.1230192683447005 
0.09700387765269508 
0.2176063394153464 
-0.1503329476542615 
-0.2352921040182609 
-0.320467598146823 
-0.1899899403061649 
-0.04373200757407328 
0.5649198155731304 
-0.3570754349980226 
0.03672994940451557 
0.3843933985721786 
-0.6536254363656475 
-0.278548537608565 
0.3995920492341836 
-0.2690694148566128 
0.2366369872232255 
0.04258236886325827 
-0.01180588358220964 
-0.3795269842684133 
0.1641266643265946 
-0.009301496002759016 
-0.05969000727314505 
-0.7210181105603191 
-0.1995313163421496 
0.1071668707215908 
-0.564942336361715 
-0.2715599256695682 
-0.148310518401301 
0.5770875612655133 
-0.3550947840629535 
0.1156390213004871 
-0.1156351771860159 
-0.1658456966318832 
-0.176184714456223 
-0.5941468712333078 
-0.4792339085804889 
0.07831625372351478 
-0.05521135036503843 
-0.1241588443278579 
-0.007805720119302767 
-0.1135169088479955 
0.06995917944691805 
0.1051203259281079 
0.2919329836836668 
0.07146629652044 
-0.1053573136041468 
-0.1972921008180873 
-0.2164994204758374 
0.1597254816511552 
0.3489850474107589 
-0.2243419932331263 
-0.1481786076820643 
-0.434981304916232 
0.3557980796024364 
-0.3165557701207687 
-0.1552030527905341 
-0.3907390641223341 
0.7759707081172004 
0.489908718707487 
-0.2579312355469641 
0.2005889160569742 
-0.2681390041511277 
0.4334908622769145 
-0.1030852824806701 
0.1965991867545921 
0.260931944102254 
-0.3577476356184009 
0.2531918790388935 
0.3584891558419228 
0.04143180589928907 
0.2076981590713902 
0.1589691249663315 
-0.6098087876770704 
0.1079119127235061 
0.4626887084505804 
0.1016758841425147 
0.133274930814985 
0.2285929965668679 
-0.5391333249446261 
-0.5542924309096887 
0.8137974190921767 
-1.100359996606989 
-0.2117692707655315 
-0.1527958977186314 
-0.09145308942136778 
0.5541207117592772 
0.03365477966977209 
-0.1820208938008749 
-0.1797279763792167 
-0.3830866321929158 
-0.5133639657217234 
0.09301849165212527 
-1.33103305915184 
-0.518407938496811 
0.6055012712431327 
0.7632350973649197 
0.3139320563698444 
0.4562305806397353 
0.0736933558886869 
0.0139339252931428 
0.4952596467072014 
-0.6241941233429508 
0.5344756265480733 
-0.1412088945764299 
-0.5226534897536821 
-0.313771154815059 
0.07834995863150981 
0.533092450507891 
0.5059978263688594 
-0.3122101683044704 
-0.2364337436205698 
0.2889017317898338 
-0.3181956177347015 
0.2169514444930165 
-0.4627774725954251 
-0.1178960410149301 
0.3476807492360076 
0.3765351409085784 
-0.5395186124517568 
0.3795144127223262 
-0.2415578542470992 
-0.1835478222933788 
0.03468635243889273 
-1.091137195839598 
-0.1163562472135399 
-0.02344786407812364 
-0.00804549751828902 
0.1947925458492417 
0.02864013151404885 
-0.116227206829421 
0.389645603091923 
-0.06194571089147701 
-0.2689805200132253 
-0.2381436121423394 
-0.2453377481730715 
0.4026633417916146 
-0.5951785496780863 
0.3289102942895733 
0.7773328346203866 
0.1250902537530432 
0.06496760716021525 
-0.1880088318212908 
-0.6681188815665222 
0.05926558387290022 
0.317027028774616 
0.05051097001534727 
0.1466446347688392 
-0.3462483998504104 
0.2030420226828927 
0.8085997070195038 
-0.0003103133125379014 
0.04653280831069131 
0.3337058069794516 
-0.1811150767425703 
0.3288445846638156 
-0.3162303768534895 
0.008687452425443049 
-0.4860996619934702 
-0.8287863850255183 
-0.04514476196238019 
-0.2149712331793167 
-0.2050520663715969 
-0.1418143660077592 
-0.07503336084454522 
0.4139127041806567 
-0.3401769252241284 
0.03188911173145804 
-0.3275952612767656 
-0.2301680670041976 
-0.3485697129547108 
-0.7797437731495732 
0.5295929146660168 
-0.06531617596545904 
-0.6034414975503342 
-0.09247045519535374 
-0.3051706627620166 
-0.1844391056147354 
-0.05122039448188621 
0.1341881367775601 
0.01550515673501499 
-0.5902447020415552 
-0.5189833939663342 
0.2295279759179981 
-0.1598210731043914 
0.09178242773114251 
0.0730741864454888 
0.1927377324638614 
0.161703157832452 
-0.1253839561477002 
0.4966709631454102 
-0.1890407259874672 
-0.03670079302346983 
-0.6195299111960677 
-0.7244082317191821 
-0.08180008097369292 
-0.2029873721601514 
-0.7597558167304574 
-0.1824490916233261 
0.1398304991541025 
-0.2369751052554152 
-0.06240842484818111 
-0.6322336930039927 
-0.09216303569488374 
-0.1055728352449069 
-0.3872916570073473 
-0.3499270356375319 
-0.3303578032086281 
-0.129045611512835 
0.02581644175838254 
-0.3141281012847996 
-0.7879563913015919 
-0.1575153657577774 
0.09353932176688662 
-0.2970124689697773 
-0.3852918460712831 
-0.3693151621479206 
-0.5068470892677938 
-0.157211342917297 
-0.2614915353583163 
-0.18783267347876 
-0.07484126847002377 
-0.2549863798176008 
-0.2893032502464174 
-0.4709061348484458 
-1.335545129138474 
0.07833025138727955 
-0.1790929143894708 
-0.1866028640141037 
-0.1482243846740486 
-0.257059276693533 
0.5734994141415553 
-0.3934295647847824 
0.2402136989143701 
0.1465050983133346 
0.5176022399417082 
0.04913384941452362 
-0.2641645862097731 
-0.9900795696234114 
1.539655122381462 
-0.3657413359649296 
-0.08465637597411749 
0.5727627131714192 
0.1539377769412303 
-0.9196597131780274 
-0.364469931366478 
0.3804009730298759 
0.3460663281030483 
0.2008287065003467 
-0.2881041397918335 
-0.4330170300102862 
0.47500073125797 
-0.2073852569655414 
-0.3527465174643899 
0.1347257187058096 
1.218743910016868 
-0.1487188655461212 
0.1911458026147336 
0.2331629776368896 
-0.1521486447700896 
-0.2420318823852394 
-0.344291262141712 
0.1762846047854112 
-0.5342700295478965 
-0.4582712742897322 
-0.07530837391321452 
0.2326950428522009 
0.1998862143229661 
-0.3829338721977408 
-0.3769135227737077 
-0.1135786402748667 
1.026546655272822 
0.05343781609679212 
0.3240661037165645 
-0.05630580676868698 
0.009996149612279452 
0.7270182873014935 
0.308847534460885 
-0.3529360309765046 
-0.3716098668527555 
0.6977908473626439 
0.1216462434818901 
0.2800756325210877 
-0.1390838654238746 
0.6811068470789716 
-0.121256685726357 
0.5321928427343009 
-0.1989106478980848 
-0.3022107665650681 
-0.01651350148047986 
0.2261935213046336 
-0.152489264356352 
-0.4902895591291264 
-0.3369471499485515 
-1.017084365793176 
0.157810845585804 
-0.09768924538272999 
-0.4052090224344547 
-0.1036105403037076 
0.7317116020537073 
0.451609889885892 
-0.05548188888114273 
-0.3494297496023246 
-0.03310925167147838 
0.5447881308284269 
-0.752839054075486 
-0.3258459775582696 
-0.2038027680534561 
-0.68165087299793 
-0.0840751436171773 
0.1112317835870199 
-0.7115481596797865 
-0.2798933102974762 
-0.1883256955313946 
0.01058322950102792 
0.06313110659358134 
0.04520966026480498 
0.8516155889324102 
-0.8193408571814321 
-0.4936987644673592 
0.600911178400608 
-0.6439091712790272 
-0.508308009151578 
-0.0856193678035546 
0.07087628065327661 
0.09827304593506907 
0.3118142433897428 
0.1121336109346043 
0.3975825134947976 
0.0850244631300998 
0.2026761771485297 
0.3553437399370771 
0.4315257884965904 
-0.2745685192027344 
0.6069437436095896 
0.3520131647476561 
0.2068582614113446 
0.02757825505042288 
-0.03263985613322638 
0.8781581618307951 
0.6784048272496359 
-0.1034255286436969 
-0.2789825027719143 
-0.3302597233091167 
-0.06868445745907543 
-0.1730298170469576 
0.9169622849568777 
-0.7477620737751479 
-0.5360161450013825 
0.04391070876011117 
-0.3707922537667787 
0.5619285373197951 
-0.2210200420851432 
-0.332153676267934 
-0.3511544049685357 
-0.2092615316896315 
-0.05821651429961078 
0.09193002468143499 
-0.132869686863229 
-0.2551832315241874 
-1.457934735456763 
-0.3061351006365262 
-0.02993943902802933 
-0.5539315832384802 
-0.4277522473706796 
-0.2025863105748622 
-0.1112097557579105 
0.1672762378217136 
-0.3333368904363117 
0.8645624892884113 
-0.3532236144081778 
-0.003599206449941584 
0.05132619252037249 
-0.5742058355548865 
-0.2049935566987953 
-0.04021752097431459 
0.2149613871064086 
0.3009112371625073 
-0.03744751425244609 
-0.5802656999933959 
-0.2219690246044095 
0.2474769530895542 
-0.329611342460066 
0.1185125969502168 
-0.5622764707669606 
-0.7408879975284455 
-0.1508863154341366 
0.3255215762416929 
0.0169918612780382 
-0.3466037193497445 
-0.9077761134403184 
0.1423655192171321 
-0.7272442047741907 
-0.307712866213711 
-0.1864578908402205 
0.1838914317272209 
-0.3014341973790491 
0.1439272620688164 
-0.1866423482566588 
-0.03133426957257954 
-0.08641709789990601 
0.07365947702836645 
0.4001296820622367 
0.2652986963661478 
-0.1618704033458747 
-0.5224107898229148 
-0.2413737551731417 
-0.2373676170967435 
-0.1278734454130299 
