solver_type L2R_L2LOSS_SVC
nr_class 2
label 1 -1
nr_feature 512
bias -1
w
-0.07766109699974709 
-0.1180350434255746 
0.122369438260586 
-0.05065688844573469 
-1.616031083371288 
-0.4253279604613894 
-0.2912086353737345 
-0.01692158463884211 
-0.3050931153010131 
-0.1991070231103048 
-0.07362050265925583 
0.1926830898385889 
-0.1582536400192363 
-0.4709113432657312 
1.789855188651956 
-0.1566602630955418 
-0.3609900370161205 
-0.2383955082294871 
-0.4057423642481817 
-0.1135249960858166 
-0.01468476525135725 
0.2502186503781818 
0.06558308482691934 
-0.8561525492100307 
1.048400151889084 
-0.3525830790760376 
-0.2039797963837353 
-0.2847027387498425 
1.603793322434527 
-0.229447195360161 
-0.4983925032526201 
-0.1609934578405684 
-0.4674413735419969 
-0.5164691166852442 
-0.2213167360504469 
0.9173566886858212 
-0.1244450801668388 
-0.6636211322230638 
-0.3250096374744214 
-0.1446824963414842 
-0.5902032812691682 
-0.1986702566331626 
-0.5166742634103807 
0.07553014034557756 
-0.2470607263209959 
0.02365371170035337 
-0.1007477654849964 
-0.1286074935360463 
-0.08258796202745686 
-0.5040037731727325 
-0.3313490691679601 
-0.2374091101077509 
0.3109999651642544 
-0.3142739283724656 
-0.2026388508651547 
-0.4806520847088137 
-0.09240319261716361 
-0.2295609650944094 
0.1731646252279701 
-0.3146347450883183 
-1.080769908601268 
-0.03082446394650296 
-0.2183810832720395 
-0.1693049703877846 
-0.7923402664770035 
-0.29076129819577 
-0.3334899423773021 
-0.4743604015593052 
-0.8401154075547798 
-0.6070108796280224 
-0.3794206585241601 
-0.2884102367288226 
-0.266604092870324 
-0.1534143126581181 
-0.4792875559902871 
-0.3646000278621301 
-0.4011085332663413 
-0.003813612969130865 
0.6898131148360223 
-0.4770133549883642 
-0.6615925782461276 
0.4918166884543836 
-0.4287507185070953 
0.1962422328952357 
0.0113374786427036 
-0.1421549231203177 
0.6075911414156137 
-0.5560437414578657 
-0.2439361144993248 
-0.6199706587831709 
-0.5826064416515555 
-0.3331222525083499 
-0.03864466376987216 
-0.2672047071982919 
0.1461904943080647 
-0.2663279169794286 
-0.1507563231264768 
-0.654993908379461 
-0.2056185422633056 
-0.1218647001668442 
-0.1800349506664957 
0.04183896634792738 
-0.2041602718274743 
-0.1965726860554065 
-0.412051740430033 
-0.2732992049558784 
-0.7510622774900505 
-0.2175415384307864 
-0.2111524069847084 
-0.3703669374931058 
-0.3998837721010885 
-0.221075063222893 
-0.4654873290358267 
-0.3266176782103911 
-0.2434207058200986 
-0.5168870528959694 
0.5330317283951128 
2.091644753352191 
-0.4273953457637835 
1.125564319276899 
0.9730609792851775 
0.1104948684841794 
-0.08759745394038479 
0.4391976781047055 
-0.3123546491201581 
-0.1212600239438374 
0.3226457200543487 
-0.2169102173056759 
-0.2012629169276087 
-0.4071525194354299 
-0.2546964644367329 
-0.2139328973619473 
-0.1655230891898987 
-0.6793074934420463 
-0.3656398492648365 
-0.4182584139219992 
-0.1606120536253131 
-0.009168535318180026 
-0.4004902736653149 
-0.5051572825831587 
-0.1365330406696061 
-0.4412757948226181 
-0.1737134368341564 
-0.03320357401702237 
-0.3754114096608345 
-0.4939227972222989 
-0.4348004891011571 
0.1755377065331454 
0.07316023289960673 
-0.3864913983165433 
-1.134514587580061 
-0.3914042895638774 
-0.3159360060166811 
-0.1121136870762416 
0.1770195515945911 
0.7061702746161556 
0.6132850806770619 
-0.2754945828590722 
1.15888785284979 
-0.3425550864633868 
-0.3786700227215433 
-0.0909579003392303 
-0.2023451277787855 
-0.07208222063085308 
-0.1640018462411965 
-0.7117212902878901 
-0.3865636380406301 
-0.1162123323191597 
-0.04521039928057027 
0.4346456284725573 
-0.3245018815450997 
-0.5827029316465031 
-0.1254496818153732 
-0.2892880083383844 
-0.2279071847457376 
-0.4030015695878138 
-0.8455716871688934 
-0.1558843261284452 
-0.3827780137158185 
0.9991650214901469 
-0.07318259506995611 
-0.3731692331511629 
-0.215585599760561 
-0.7498556779414822 
-0.2354592577575568 
-0.6687859268092079 
-0.2507264827389599 
0.2097210881036846 
-0.2232800795441214 
-0.1173174245993176 
-0.2109246296865411 
-0.237096216800996 
0.09621727727399083 
-0.2696191692432745 
-0.1811409573296844 
-0.05111826189888714 
2.404045614799162 
-0.2103968709431082 
0.6121729785942822 
-0.201656969983668 
0.4723490867607854 
-0.1096066533437115 
0.8533324553231174 
0.208565452367761 
-0.4012214190983667 
-0.2660547116242506 
-0.05685917125076217 
-0.2287804862229801 
-0.4259025448926619 
-0.1039168045671897 
-0.3140028463737961 
-0.2309320110169056 
-0.4723901761744081 
0.1099423517986001 
-0.2200861386095274 
0.6002499226897293 
-0.4723021450282058 
-0.1977879716548084 
-0.5956114565817282 
-0.2784686826781269 
-0.03016298932713529 
-0.1482191936714793 
-0.1016293880372921 
0.9740617145556064 
1.186648525695234 
-0.3738466494430893 
-0.2209282303014819 
-1.175988745910417 
-0.2221426360379184 
-0.1896221123333633 
-0.5186846854956167 
-0.2795727669074136 
-0.3176211925428301 
-0.2012131864019847 
0.05642332678305291 
-0.07387700563632472 
-0.3871301415614418 
-0.04933527283594139 
-0.3926231933383779 
0.3893133592176063 
-0.2375746778490074 
0.1276334468654989 
-0.3099381505238667 
-0.1598117136728543 
-0.1559274640619499 
-0.0748645109398966 
-0.6632576852913638 
-0.1568869076018996 
-0.1587172120770226 
-0.606078475240322 
-0.1833930421372212 
-0.2591611642423739 
0.6481414414487925 
-0.2626619682592004 
0.08810983006613769 
-0.820396982639093 
-0.1980196689985971 
-0.167899249496485 
-0.4273566037880215 
0.05476911476086537 
0.2532520071529384 
0.03410611285508763 
-0.9187753297026917 
-0.8604254009197395 
-0.182003769134901 
-0.1536296557342118 
0.5389705608090982 
1.675283311656573 
-0.2332251856600645 
-0.1691956192187895 
-0.3930220979769034 
0.4487063256714263 
-0.1770884195692629 
-0.5144775636796843 
-0.4587099363817222 
-0.4821855245829327 
-0.5083732800822314 
-0.3262049164958081 
-0.08190492543338664 
0.08862877489538618 
0.5922651906790694 
-0.2593158580519705 
-0.1366501214534054 
-0.4069085452381255 
-0.3396491015372106 
-0.414989208276229 
-0.01722727542352034 
-0.2038660384105018 
-0.1430820406371675 
-0.1908453739003883 
-0.01857695830031477 
0.09963064766005114 
-0.09117823139708821 
-0.1283117814993994 
-0.3689700726009098 
-0.1859591123591092 
-0.4820367335622553 
-0.2635126342331525 
1.206649728792522 
-0.2701572691953544 
-0.6203429656080781 
-0.1907162544582551 
-0.1549492827443669 
-0.4665542558888279 
0.287058429330775 
-0.4134556879059864 
-0.1302757068666147 
0.09685911812726483 
-0.4735896285820915 
0.1005357155789368 
-0.3119501099005011 
0.03667443876029679 
-0.2888698748946584 
-0.3596629224716094 
-0.5715167815032414 
0.2490159874629214 
0.04576739819054285 
-0.6481303158474825 
-0.1757212978505378 
-0.6612820904713919 
0.5261148159609537 
-0.1845531219464885 
0.0471645467036626 
-0.1775722712517075 
-0.100794715460396 
0.7732433921318163 
-0.297537850115401 
-0.2593187865092837 
-1.714509175532655 
-0.2833175984211655 
0.7732265956525706 
-0.1412760790872363 
-0.3809774467051725 
-0.5416306210518793 
-0.1804199340115037 
0.7650312244487979 
-0.2257871788655418 
-0.3683452910947025 
-0.3745147392006887 
-0.4263042348511934 
-0.01964882763645137 
-0.01572120119587357 
-0.2128246724660797 
0.2758116498869608 
0.3281608361086144 
-0.7067273378730592 
0.2817786037544127 
-1.121826222716595 
-0.7170160748075047 
-0.005466366552276571 
-0.6146623009633553 
-0.3123813302069173 
0.5888080993035855 
-0.385113869696367 
2.055979736684114 
-0.304501600852943 
-0.4567958390823868 
0.2648691003235711 
-0.02855336115052867 
-0.3721392725862864 
-0.4741649507924229 
-0.4474876006471849 
-0.05993658454597648 
-0.1692702419120991 
0.8312644299021962 
-0.2252366440436231 
-0.7544221337842016 
-0.394428714458216 
0.5174865201686135 
0.9239143513570223 
-0.3203614660226212 
-0.4207880791885681 
-0.3818650423501153 
-0.4812789888331613 
1.241466949341073 
0.2435948818043795 
0.5397407979469863 
-0.5500114071712906 
-0.02652013879351857 
0.4904519291785187 
0.4512056264338639 
-0.06533209009258104 
-0.4386526265366797 
-0.3358580251378388 
-0.33314638638751 
-0.2727257581308145 
-0.09976884139261284 
-0.2458126949416128 
0.0713778776200895 
-0.2420937963021605 
-0.1790127623555364 
0.8740658190062015 
0.2992925423670869 
-0.2831097810926088 
-0.2707941527772664 
-0.4298533139981618 
-0.1994695195143299 
-0.3361075495424355 
-0.2859206511704954 
-0.3059230119701255 
0.241422173370058 
-0.2458987224360896 
-0.6790630717986237 
-0.4835956082914974 
1.553676956592936 
-0.7576467320051232 
-0.1186329827087657 
0.1442880264929947 
-0.8906804760196801 
-0.2314150221270379 
0.1943428870979474 
-0.5048020629504375 
-0.2005082947943168 
-0.07498918549826743 
0.02158843919696521 
-0.4300027211947622 
-0.5182653017092267 
-0.3571240115224431 
-0.1843269083721894 
-0.1100403676419979 
-0.4372233171384355 
-0.8772183707687248 
0.5883658127411612 
-0.2525342980594076 
-0.3139341373840513 
-0.1586490451067311 
0.1390671434538605 
-0.2781990104515467 
-0.4071910215273489 
0.0520633215930343 
-0.2272470080949199 
-0.5240421288849212 
-0.2886128177864671 
0.09794405264128379 
-0.07287453328016598 
-0.4613112112945129 
-0.1650293410501348 
-0.7671016181646817 
-0.252623538515279 
-0.4365447756951667 
-0.2324890754744187 
0.4079587228505586 
0.09154962237520507 
-0.1965828318359311 
-0.0329686047911442 
0.1190829437857901 
0.5840835753612794 
-0.3769810164885449 
-0.1528092964601884 
-0.3460330027150252 
-0.6488421420565451 
0.8983969476872312 
0.5474591977310728 
-0.8798359622604813 
-0.3901498880650358 
-0.1835168654099415 
0.1250869133444375 
-0.2691985795512513 
-0.3708499707879406 
-0.1195135098823238 
0.1079548182724924 
-0.07334706159460433 
-0.3481708079318254 
-0.9460446577419271 
1.151232615476143 
-0.3183553828330052 
-0.4736012530179805 
-0.1702971362602229 
-0.1812142231735568 
-0.3711418776505722 
-0.08711191356994197 
-0.2279786376844913 
-0.3775009094990701 
-0.2388574512125481 
-0.07991155628843723 
-0.3543291605686006 
1.788410978565285 
-0.0532211418266588 
-0.2002727185378155 
-0.3442770821417345 
-0.1506324871626539 
0.02838705446387733 
-0.04645430122309165 
-0.2655508387951468 
-0.2525132496604082 
-0.3531101883952659 
0.6229652226510438 
-0.2171419792959506 
-0.7105413808630736 
0.02982991037816825 
-0.3099765875812269 
-0.09040106839855616 
-0.1312051605413179 
-1.348363578994633 
-0.03656989254736252 
-0.154751557168325 
-0.1806370438791523 
-0.06535839377163048 
-0.08500102641328701 
-0.1087835558738311 
0.7052847926152035 
-0.7316160634832364 
-0.3071896622683695 
-0.1565229611780528 
-0.1265458855332798 
0.003363452815182175 
-0.8286286086846227 
-0.2105648113492397 
-0.6565263309098318 
-0.1196966135854187 
-0.3140074274419448 
-0.1291851582036038 
