solver_type L2R_L2LOSS_SVC
nr_class 2
label 1 -1
nr_feature 512
bias -1
w
0.09268546002035054 
0.6341951772918997 
0.2103390709116691 
-0.005124226655374968 
-0.4582322388118179 
-0.855674011673264 
-0.4823352209036191 
0.7354951661108067 
-0.5441244983370499 
0.1517484954728145 
-1.104692837198754 
0.7332154032123536 
0.723659287422354 
-0.4454409092907859 
0.7650990488998237 
-0.1389593295148448 
0.05024460601204326 
-0.06415387011512029 
0.1368752823248466 
-0.222385316048797 
2.231751095831719 
-0.303933728058486 
1.733029073531717 
-1.149814814084678 
0.5441283115139065 
-0.776872280384704 
0.02319036672630866 
0.7721176443728398 
0.6282907176061926 
-0.1364746576025306 
-0.7381590915307881 
-0.476795819753152 
-0.04337220524805924 
-0.2671553654976834 
0.7596390626654842 
0.285071880991388 
0.4654666427948295 
-1.031480357729425 
0.7856765086873735 
-0.1866634717260618 
-0.4325303617067949 
-0.2090329899822859 
2.361352684355838 
1.648958051404097 
-0.1166721255314128 
-0.2775304424139816 
-0.1292529415068447 
-0.9345911024663088 
0.09465406406863346 
0.1468107373483149 
-0.6247221848780719 
-0.1155493992443728 
0.4332443962442006 
-0.4252835773026905 
-0.2439989702739122 
-0.1371838831748043 
0.9884505503397354 
-0.467188155749017 
-0.6727211066838104 
-0.3369570365985487 
-0.7790791677081411 
-0.6571300897357271 
0.08907843033675399 
-0.2825690247410119 
-0.8248572051686165 
-0.2776620237340992 
-0.5582208868224845 
0.3479064030299927 
-0.136105380469954 
0.1642716337432756 
-0.1891494815461506 
-0.3494976126529312 
0.7819912788647245 
0.3643061992292073 
-0.07727390807953827 
-0.7583304849467032 
-1.365505089819389 
0.4329981385641139 
1.918783210559554 
-0.7246850828721008 
-0.2003216307398359 
-0.3306529448015272 
-1.135404647552228 
-0.3324712427118276 
0.1725305296768652 
0.14602088855503 
0.1098887792675601 
0.3724651752647185 
-0.4472229392502987 
-0.5120760159478597 
-0.1201109932860663 
-0.137941409547296 
0.7221015721645684 
-0.4062300290606505 
-0.3265798626515786 
-0.1915254199716665 
-0.9472690580597752 
-0.2256846848757288 
0.1952231018903605 
-0.2515538250346409 
1.385764675883923 
-0.3116860480361611 
-1.004673409449815 
-0.2280427542216762 
-0.2492607971316456 
0.4000268215822217 
-1.212945444597607 
0.2316593147386533 
0.09900370588636367 
-0.2166778047877044 
-0.02708304858922227 
-0.2077806942845353 
-0.5366458828692261 
-0.5085926682393928 
-0.2637330817600618 
1.023600273772805 
0.00752593715499207 
-0.8058065798675655 
1.194495763781837 
0.01887478336796383 
-0.4026852204259315 
-0.327269527452565 
-0.1312890788154962 
0.1429727670750097 
-1.109980279244386 
0.2007213431576749 
-0.5738549113647932 
-0.315622701521965 
-0.2191432469882796 
-0.1596292557879543 
-0.2379920733432446 
-0.6199487673985298 
0.2634764335924691 
-0.3484322851342426 
0.2122372051101549 
-0.9403794300095722 
-0.2820945953902269 
0.286127251277302 
-0.501949192639302 
1.258515561643998 
-0.3180274413920715 
-1.031222406060949 
0.2869876187071946 
-0.3850713025586806 
-0.09433747540943713 
-0.1893971984716499 
0.7392654989819756 
0.821599152438839 
-0.06623794251831659 
0.07253595932998246 
-0.4396731689987214 
-0.3298936645071802 
-0.5127404193108869 
-0.0215212148809371 
-0.6940596435028559 
0.3530301346402424 
0.8200642050189284 
-0.04086763796484535 
-0.6286926617052311 
0.198188963312391 
0.05759579806000608 
-0.3604901007787782 
0.9107057585543782 
0.4701093336691491 
-0.8741680119582901 
-1.022545746826389 
-0.5846439171242669 
0.7620118741602429 
0.07207480647336428 
-0.1705730990417157 
0.04695733140158746 
-0.7982237255359009 
-0.1019862574813951 
-0.03695760467933462 
-0.6809118628895378 
0.1107981582756652 
-1.037585502580318 
0.1786544360237556 
-0.7076513444445803 
-1.159242434843819 
-0.07095542760805229 
0.8120272211308768 
0.2881723809307619 
0.2077162743499955 
0.03989167253775788 
-0.7532372862352492 
1.03580000771958 
-0.4271177783780015 
-0.5881937226906037 
-0.3039630927938603 
-0.5445509906125254 
0.3240459739118871 
-0.3104617091007931 
0.02266074555445288 
0.3247341238926446 
0.3079495864418217 
-0.2622708388186759 
0.05478044527976048 
0.1696729661208121 
0.2338465505334473 
1.206906798103533 
0.7305866840808231 
0.02727507149815233 
0.3134763145081536 
0.03955682973849693 
0.5680633770760352 
-0.3378254548841669 
-0.5133255778674076 
0.766498946471728 
-0.7796331182464844 
0.2734853127701883 
-0.5104917447712405 
0.412274669510907 
-0.4297730068745928 
-0.4745633228575791 
0.5895976020656518 
-1.285650704388429 
0.1732554663681812 
0.01885666829580572 
0.5273983254536467 
0.7884675465131185 
-0.2152130263583847 
-0.2875633322809804 
0.1370661505049302 
-0.03170897073081791 
0.5656269001417761 
0.1852745331742789 
-0.3510387623311155 
-0.415859265021626 
-0.6261459057091899 
0.1223811648785326 
0.2342164919571202 
0.5604861875938419 
-0.02366467656713534 
0.3188524604148409 
0.05621042215594465 
0.2764369529026795 
0.05998587957393083 
0.8518656464799096 
-0.1304795161490464 
-0.5510607221661563 
-1.11083335720225 
0.02047547965719667 
-0.2403978835666 
-0.1742551816929084 
-0.7654311766103148 
0.3524417968684809 
0.3614963475129853 
0.08143831215077996 
-0.6135833544846643 
0.9310090083666065 
-0.3833579886455629 
0.3393225305421316 
-0.5871490108393218 
0.01487594969719865 
0.07070713568828127 
0.7285742633541772 
0.005414871169026128 
-0.3358837697342513 
0.354332287645512 
0.3146246372877574 
-0.5838807585168887 
0.1800810531246827 
1.626041067352909 
-0.4697757234075695 
1.310708889066492 
-0.02480169024094371 
0.2043759698877665 
-0.5726955580548425 
0.7903896558725428 
0.3625244983787285 
0.4762356933026284 
0.2411716571932388 
-0.7809280013395805 
-0.397720277259604 
0.1208553499134316 
-0.7845562704489497 
0.9601479690116576 
0.06950883943105157 
0.1495687570434342 
-0.2415975120683762 
0.1202695538170089 
0.1120945943550851 
0.5611453187112216 
-0.1368023225586042 
-0.4511852715856727 
-0.559367134216627 
-0.5479117418838766 
-0.563014318017337 
0.1034366256002821 
-0.1143911428705591 
0.06033218015060237 
-0.5630023502921694 
-0.6985228216887587 
-0.3704899701618179 
0.482128046665475 
0.1775664650714801 
-0.9605333966149971 
0.3782712379548219 
0.03553723295223997 
-0.3058682809490064 
-0.1996356746283688 
-0.6577499140894627 
-0.4123818424292329 
1.552747781921942 
-0.2460460063724861 
-0.6530794079362736 
-0.02452241824259628 
0.2410365461243936 
-1.291294828128466 
-1.002807166784701 
1.083824865364033 
0.9369561607646671 
0.174863926779651 
0.7728223912815887 
0.01465757413567424 
-0.3986373067464859 
-0.8964878588106963 
-0.7392185511335175 
-0.3885193388851598 
-0.1429639482747501 
-0.7710340737151976 
-0.03874506566202354 
-0.6516624649011191 
-0.008610990688253717 
-0.01832951862212724 
-0.8348884066983381 
-0.6032620046117066 
-0.3167360742167146 
-0.03865744709410246 
0.2977633490717558 
-1.513181843635274 
-0.222554644215042 
-0.8069600899784392 
1.503965987412174 
-0.7609825193632124 
0.2530178457736608 
-0.02839374140172536 
0.7694459028707246 
0.6458270021906203 
-0.7803164835659416 
-0.904269200159787 
-0.004247124942975153 
0.246617629650528 
-0.3483390481065081 
-0.122793856946412 
0.5003585891734449 
0.1775600982139943 
-0.7400481683984913 
0.4675581182002969 
-0.02602955515216403 
0.5194259283153035 
-0.3592133573832465 
0.1875602132325133 
0.08745765440609307 
-0.1681165434454439 
-0.9735289906649658 
0.3817782489242183 
-0.5868527653836545 
-0.4294862635090611 
1.294463640189418 
0.9752875603021262 
-0.5648774608356696 
-0.3873934032103636 
-0.6228677673556428 
-0.3180706114524322 
0.06469708498054007 
-0.3413449856182569 
-0.4139113888620203 
0.7435117069342962 
0.4936827092981025 
-0.9235014484682522 
-0.2204710234046755 
-0.03984479577768762 
0.7224215447062083 
-0.3470651694518367 
-0.2932447088360403 
-0.92972682850591 
-0.6170983447833622 
0.08637240971668911 
-0.05666417922250136 
0.1399850014191902 
-0.465474999175606 
-0.4518602388591567 
0.04153479528886887 
0.3129274843730878 
0.7487642325066718 
0.6147000939378739 
0.04270823312681689 
0.248269961696894 
-0.598653172544337 
0.259014563323511 
-0.01192076496067963 
-0.07304998456942666 
-0.09177691951400957 
0.179702354549663 
-0.1361051853753927 
-0.9652249422040237 
-0.5529197907243407 
0.3026390319865599 
-0.2992625024125578 
-1.20722910447125 
-1.015713041385159 
-0.1300661651195721 
0.2913627284526114 
-1.573639530924909 
-0.1805838776245844 
-0.4264423273822047 
-0.8080104831794441 
0.6401877700180915 
0.1730155347233501 
0.2585202536337752 
-0.3599160495259859 
-0.2902953365615852 
-0.11363751480104 
-0.6343105188168301 
0.1492980949376036 
-0.8383401402242312 
0.03645339607587769 
-0.6581133968963002 
-0.6059462794419554 
1.637359427944948 
0.3079707424024961 
-0.3392954525196961 
-0.0809312180440053 
0.5006567126986332 
-0.3217604325919927 
-0.5734881962946424 
0.2605245282318616 
-0.09759667272838457 
-0.4452128647542988 
0.8148408045774863 
-0.2486262449733098 
-0.6761784095089103 
-0.3162201137887083 
0.2150353873621537 
1.15442343367641 
-0.02569539044823482 
0.3347976216456604 
0.3099673517687524 
1.359921893040063 
0.4305027361210658 
0.4780276762783954 
0.2139520818968345 
-0.2121322179967333 
-0.3778617123728485 
-0.2713819681142592 
-0.5120158433042601 
0.787812227914755 
-0.5414031920213134 
-0.7445436571083213 
-0.4814883851286562 
-0.02336413726969699 
-0.5884209338889682 
0.1039647363619622 
-0.07145269420698266 
0.2947455178350998 
-0.5168483697878486 
-0.3768431465401236 
-0.3742848667450912 
0.4857415877151282 
0.0309898423134446 
-0.06697748469077015 
-0.5902230111730299 
-0.1684903831627504 
0.5019879701935877 
-0.6750204627134077 
0.0819754357531324 
-0.1337854921001579 
-0.4248492507223688 
1.139235088905873 
-0.9810893793274722 
-0.01104494957274228 
-0.1630311905447405 
-0.2871437120907198 
-0.4170570770562047 
0.2986316158623364 
0.3292357520066563 
0.358283948208013 
0.9192567927697586 
0.3798483793436158 
0.1893172300177734 
-0.5124602893037363 
0.05829999661218513 
-0.7539796762084959 
-0.4621282573648383 
0.297440227748995 
-0.7743228512466542 
-1.312171934870443 
-0.01423062925120504 
-0.3080382039092422 
-0.008353382494791246 
1.191491428069251 
0.7359793493938335 
-0.02729842820873461 
-1.057915892035548 
0.3836951284035058 
-0.1317697597598937 
-0.05470346615912694 
0.3303401563981117 
0.1887423883250328 
-0.9485610949313031 
-0.01495863388881595 
-0.2479347951126906 
1.550760053788374 
-0.06486326003350981 
-0.05282168824453436 
0.04676853858342407 
-0.7201358884237526 
-0.07925658026749834 
0.8635825508023242 
0.4170675661027458 
