solver_type L2R_L2LOSS_SVC
nr_class 2
label 1 -1
nr_feature 512
bias -1
w
0.4371296636933367 
-0.7708218293369734 
0.1180625717638672 
-0.1048859112789945 
0.06610600872570642 
-0.2262091811192978 
0.5574361993268881 
0.4578118089678238 
-0.476470015443506 
0.2070662267377187 
0.4249769594821171 
-0.4738264273376466 
-0.7733504655831324 
-0.5352536848607417 
-0.28711307367145 
-1.35582347091226 
-0.6411504095546793 
-0.3499756313243212 
-0.3084990104528488 
1.107699707185559 
0.1231377431842452 
-0.1585323661199646 
0.8391979066434916 
-0.1660298934027273 
0.1198796454740752 
-0.3783929648456133 
0.3731281608316838 
-0.4614084981342147 
-0.4600823080848221 
-0.2495279195462377 
-1.390782532469798 
-0.2734109441669266 
-0.1772722775728128 
-0.10770761305811 
0.3891431288968555 
-0.2655096327453006 
-0.3709945305384805 
-0.6879651369240064 
-0.8092091515527176 
0.2875067006911233 
-0.6006106765801879 
-0.6379904205496263 
-0.2087271104354506 
-0.1904731665161668 
0.647377988193273 
-0.2927073931182992 
0.550582138268399 
-0.4018456037892069 
0.7029660778145983 
0.6501595757461482 
-0.2471875458301984 
-0.09859151438255108 
-1.115904170446589 
-0.5590612201299898 
0.09040049530528654 
-0.7078559815891098 
-0.00898710972554953 
-0.3647033999165016 
1.044068092651993 
0.4926942984934857 
-1.002757489904596 
0.3658602110011301 
-0.5014446861242396 
0.2105565963409313 
-1.424295321175228 
-0.1273847779069353 
0.07917463647885434 
-0.6082564699755731 
0.4405178700503973 
0.1930543215120181 
0.8555284802214765 
-0.04372898556495591 
-0.07915972060881443 
0.3177351939303715 
-0.626394760138392 
0.2402614426489682 
-0.01103812867401052 
0.1257879477973922 
-0.4347725097222567 
-0.008536254535337816 
-0.4712161583660981 
0.5860492937891187 
-0.2036386224883 
1.313452481897831 
1.035554442042159 
-0.1829746188216787 
0.458953961571429 
0.0141756846611682 
0.8055005037124595 
0.6430149390641459 
-0.502717434753052 
0.6245123838395787 
-0.4233896531980434 
-0.7414458519034948 
-0.03997932246748155 
0.553019627838978 
-0.06128953211489728 
0.1785643052831868 
-0.2007092208726443 
-0.1424555729838433 
-0.3497833289842468 
-0.3498873675894578 
-0.4644508609174221 
0.3317567899553749 
-0.188181741272636 
-0.3401437308315887 
-0.5457474044947778 
-0.2246588735355439 
-0.3744873897770454 
-0.07744229431476263 
-0.1854893201090336 
-0.3539448890336391 
0.2413279286228112 
0.3752064118817249 
-0.3359462164704311 
-0.6155272096615845 
-0.6720595204200008 
0.7403936236088988 
0.7393698906014049 
0.01620092329198318 
-0.6259763993735524 
0.0288430630510855 
-0.1184239814614869 
-0.02183316041878896 
-0.8612332307912396 
-0.1512807045419678 
0.7500994037241755 
-0.3172470773857711 
0.6792100221252617 
-0.4208768407001914 
0.6343550905543305 
1.394762324681533 
0.8429306558393966 
-0.1251064033718419 
-0.296113129965746 
0.5052576994520045 
0.02419466793418515 
-0.4669909738782329 
-0.7582203403356135 
-0.9963839813526619 
0.264144069161475 
-0.6780261994091558 
0.007824153990539776 
0.2154264820558012 
-0.1820090496867489 
-0.4675065102609376 
0.1938817967411541 
0.05113625552319588 
0.3450390990475653 
-0.1026170878602675 
-0.6232322954376115 
-0.3444398377501168 
-0.3084513827324866 
-0.1781655534833903 
0.1930407378140373 
-0.2525122339358054 
-0.3613365149162535 
-0.5638598218317717 
-0.4229730358574133 
0.1865751123602485 
-0.7849451703887723 
0.5275086512555788 
0.07123931386813065 
0.01270813744715939 
0.6675724818140568 
0.1986796513740343 
-0.07967643744039318 
0.3078096141635325 
0.7557164638255458 
-0.2738081720592957 
0.0653644510974635 
-0.2091218325394817 
-0.1441954447625366 
0.1027702428864725 
0.2150178251831135 
0.6374327955293285 
-0.405255027149772 
0.02993403328324197 
-0.586450298213 
0.2000409680481314 
-0.1044559142397884 
0.1611340916437487 
0.7624328098404429 
0.1533075162010003 
-0.3023752955651881 
-0.276797800820818 
-0.01749029814326232 
1.619383276321656 
0.03959057258738865 
-0.157085599476342 
-0.9740868560961233 
-0.1237085715946669 
0.03061911982730363 
0.6306020222593411 
-0.8624924978775825 
0.1598834596325023 
-1.443577946217073 
0.7349115275733983 
-1.017479095816894 
-0.2749455136828182 
-0.8286090118039648 
0.2801308780391597 
-0.5227023641806575 
0.03207572345068034 
-0.3694652122364351 
-0.0610466189997377 
-0.5621328506154113 
-0.3107393539746494 
-0.01780493580636181 
-0.4044650000302614 
-0.295970331589382 
-0.1923117224157718 
0.4088823767429104 
-0.3057930075056053 
-0.3360937450280499 
-0.3059760981412397 
-0.2942777839934888 
0.09685345570791819 
-0.3692007542512225 
-0.3334342829329445 
-0.01254779912893029 
-0.07428657629435884 
-0.4368193247963165 
0.2675238421746372 
-0.1303650394591627 
-0.09699408700577161 
-0.2302740638312056 
-1.271173469317185 
0.3307005412436986 
0.3037636437676074 
0.003269000216243028 
0.7761880831019389 
0.1846127718017464 
0.004515362805034634 
-0.3107240550440379 
-0.1810776892304979 
0.3166576037578573 
-0.3242587990187523 
0.560884051636967 
0.2434234415909233 
-0.6927549109609166 
-0.1258054197245173 
0.2570172119214843 
-0.02980992884146691 
0.02957691813389184 
0.1381022159266131 
-0.8363790507130692 
-0.4201446290563227 
-0.9493175030153992 
-0.1884625050709985 
0.6103489897771502 
-0.1498111648518587 
-0.3441384725602947 
0.2530805551639282 
0.4918994435753947 
0.03559978251153878 
0.02300506225749822 
-0.6935901300528945 
-0.4582751975381648 
-0.01631800402746504 
-0.121316626426807 
-1.251951523402291 
-0.3500904053788932 
-0.5964859057530817 
0.09439002406596224 
0.2248492496521959 
0.8400149698850126 
-0.1278629032132244 
-0.07774910382872002 
-0.04684164043984503 
2.456623438853606 
0.9436736259178833 
0.6641673568971802 
-0.3668464622837123 
0.1526093907962652 
1.817513307573979 
-0.2436780243166498 
-0.5158549402051893 
0.5935420840299296 
-0.2999709420578718 
0.8496761097240728 
0.08754081788152296 
-0.1938536622487367 
-0.1613768078237625 
0.1630886763310063 
-0.03802630665218012 
-0.03864773137746532 
-0.1858624384024491 
0.8690806392537831 
-0.2922496195037023 
-0.09094406697310838 
0.4260421461514511 
-0.2240499469416251 
-0.05436771009577772 
-0.08197502079794922 
-1.082929163412748 
-0.3833110730232043 
1.364085985738305 
-0.7596033208348444 
-0.5585196129052175 
-0.6096640110286491 
0.5082653685691949 
0.823571713856594 
-0.510506627651958 
-0.3428190915613354 
0.1718941639281354 
-0.213076264050472 
0.2895609800268322 
0.08938785610892475 
-0.3431629289162043 
-0.09698603154517133 
-0.7288532033174222 
-0.05579786985193139 
-0.01670435565188624 
0.1491354416273037 
-0.120337180535467 
0.4052720903205836 
-0.2785386639606162 
0.1099449096404544 
-0.2847156000331743 
0.318981624650712 
-0.2675475332582799 
-0.4669302113081532 
0.674264863739269 
-0.1405937617716947 
0.3121249008864695 
1.366140438789348 
0.08815050178751078 
-0.2152337038933388 
0.4086291043484997 
-0.06493146640754259 
-0.1363095051292522 
-0.1047436684624955 
-0.2184632807640751 
0.2989876490907219 
0.2956600090459877 
0.5755091893557105 
0.2248673144172116 
-0.3704103077210961 
-0.1494313721585942 
-0.3511891170024982 
-1.116945046977706 
0.2776799138391665 
-0.4221095142690374 
-0.08698516644661658 
1.051810563539709 
-1.922532804261076 
0.2984152848290182 
-0.8083093080649048 
0.466580644502756 
-0.5804595079162541 
0.2156766180072019 
0.6541294983006616 
-0.01716775566329911 
-0.6282084023998622 
-0.229346524497253 
-0.4039495625966396 
-0.1362400692839165 
0.1403913655981673 
0.09220805178883103 
0.7253047892185359 
0.00886993455322227 
0.7952127001932611 
0.5323296749542747 
0.2132389931847227 
-0.1144227799991091 
0.6997325706113489 
-0.8240876793784861 
-0.4215033385401096 
-0.1373320135417697 
0.1126695758493486 
-0.2978069495681944 
-0.3468594470804013 
-0.505678397378023 
-0.06667373613784409 
-0.1640060798870259 
0.6196213977246261 
0.02600523148395402 
-1.223136241117184 
-0.6811820747427384 
0.2179943372566782 
0.1811434426960681 
-0.9158976460229283 
0.2389580910350039 
-0.2378784989930788 
-0.237517362469272 
-0.1046388838888036 
0.4405381464949659 
0.180699977321914 
-0.1406735505521809 
-0.04140482423765898 
-0.3483407642406861 
0.2547782908240123 
-0.1267494269287333 
0.09102410379551983 
-0.3347902420311007 
-0.474645513165797 
0.92958524751537 
-0.1771101250972415 
-0.3859173619391599 
-0.9476206563214991 
0.5788420054266948 
0.02433189157917561 
-0.2238570411866748 
-0.2116837322275041 
-0.3737435990611739 
0.4296927879047528 
0.09375433603257592 
-0.7743375388022843 
-0.7055544788501835 
0.1899396596613551 
-0.2813408790972228 
0.6150554211927527 
0.3639355300348239 
1.030538714531504 
-0.4194361002535619 
-1.248528585087191 
-0.3099816248522479 
0.125916567569017 
-0.06099741488304539 
0.4823219500003166 
-0.7627285035728583 
-0.2340788833236745 
0.493930574658883 
-0.9857278404489423 
-0.5539008975827741 
-0.5133017855529282 
0.09569192958219838 
0.03696092899607335 
-0.07164003464804372 
-0.3568524100450981 
-0.2619935775602818 
0.4021095546231646 
0.3384215512794483 
-0.3314790421850697 
0.6028268155955429 
-0.2336212826229541 
-1.247241515194394 
-0.4392593832621841 
-0.4640109654812991 
-0.03956448852857196 
-0.2738896488394051 
0.07907415251038187 
0.7357086470657562 
0.2834364577545971 
0.5948112034264511 
-0.1202512970075127 
0.3717921329412922 
0.1378923491036466 
0.4541968369592282 
-0.3380177840502911 
-0.03030800561103004 
0.5418883565977453 
-0.1552228731000035 
0.3852638967531092 
0.08618686283122177 
-0.3074766302568464 
-0.07699905413269065 
0.4086233118153665 
0.2964634468772853 
-0.4190455784563691 
0.1186005938513736 
-0.09658939193440666 
-0.999043009798217 
-1.066934401262571 
-0.1219201078538419 
-0.07381102544328647 
-0.5324212624146272 
0.9037282452871073 
-0.7268320987984002 
-0.1381218885340066 
0.05021866968582341 
-0.2559655007017446 
0.2010245888680226 
0.7491585865702042 
0.2899540724075383 
-0.5597939913918852 
-0.02685935099936481 
0.1358146797768954 
0.2862730115457447 
-0.6624739267099796 
-0.05734479033772287 
-0.6476047388357246 
0.3966220897792294 
0.1143417560282294 
0.1120824407055929 
0.2664334381497456 
-0.6429731361838457 
-1.315801403783754 
0.3807529348917327 
-0.02506345745588111 
0.01475402247269458 
-0.3092923660453105 
-0.8036148834730322 
-0.3102817432144281 
0.6780108236534838 
0.3021855306122352 
0.7586087615857975 
0.02677651241503562 
-0.7738634278118813 
0.222645235813958 
-0.1880702258200208 
-0.2297682768955534 
-0.09758276334596069 
-0.3792729606550439 
0.02645021409196181 
-0.8410659076224237 
0.4508704668494544 
-0.9378424222560438 
0.9817667539067643 
0.6005263115414748 
0.4622045455771311 
