solver_type L2R_L2LOSS_SVC
nr_class 2
label 1 -1
nr_feature 512
bias -1
w
-0.2363775017389153 
0.6320540340371417 
-0.06533167347124047 
-0.07402248041452889 
-0.6918364107550844 
-0.5995586333335829 
-0.2412297385032022 
-0.6088748529585672 
-0.4779651845164505 
-0.1317353132822871 
0.1422039632676233 
-0.3134219863494623 
-0.7045602472080554 
0.8277062357902394 
0.7736101602907725 
-0.3989347795051063 
-0.3093551418102377 
-0.1546417394753912 
-0.1145206508048801 
0.3902168743167491 
-0.1373058415156726 
0.1498464123842977 
-0.2188596995761694 
-0.4429545806679462 
-0.6580112731321114 
0.2344707076737081 
0.1707481414004601 
-0.3924057853826179 
0.518049901481602 
-0.2527053426535803 
0.007447080874526645 
-0.03150060786637837 
0.2423116713560113 
-0.05448003555169346 
-0.3092907075135577 
1.279255710993418 
-0.5622156905762034 
0.0516735126993512 
-0.7112772254341474 
-0.1253562821879501 
-0.6180674420724867 
-0.5888091388358071 
0.9652669595117778 
-0.2542402352094752 
-0.2617462569103114 
0.04267359571754606 
-0.2714464983130546 
-0.1631007389629449 
-0.3373272347297398 
-0.7354552400126945 
1.417941629341528 
-0.2450256483715675 
-0.5857052362867788 
-0.210323318641581 
-0.2352085379718638 
-0.330256364972159 
-1.826582914054976 
-0.09646216703161324 
0.1239141480546911 
-0.2459580403394545 
-0.2146935086966048 
-0.1669797508555207 
0.2588075530938061 
0.1541054615032516 
-1.018332213347569 
0.4606982576873116 
-0.1979259072514236 
-0.1227826601356428 
0.3296529820178161 
0.2699647305286164 
-0.4113612041054084 
-0.267082543600712 
0.6464649038901641 
0.4482018704973619 
0.02317456143685016 
-0.4298224216767037 
0.2978792853803051 
-0.5162299156741482 
-0.4132211717318803 
0.91928450141123 
-0.6979607991590446 
-0.04864179212909112 
-0.1562152601777212 
-0.4014059201451737 
-0.4327089796471678 
0.3913025401218677 
0.1606364196497936 
-0.405412498711641 
0.127502978735464 
0.6935279768566796 
-0.3520919645952312 
-0.004136290697419925 
-0.2504940355890621 
-0.3293574804983508 
0.04158193595104959 
-0.05702622159487002 
1.18151634894596 
-0.5966247479192409 
-0.3324319059318491 
-0.01387812567425747 
-0.05682474028592523 
-0.2952398642750506 
0.0871805398562033 
-0.417736763501842 
1.38088474478388 
-0.3423508127624504 
-0.3567240513567256 
-0.1137395007481137 
0.2886280399360674 
-0.3972749340421697 
0.2861502061511061 
-0.001086191570729153 
0.52063188504721 
-0.3288210390089977 
0.1294200965164497 
-0.1499510970136282 
0.05926168569560257 
0.1503330872143493 
-0.05192177162337315 
0.122414270784586 
0.1755027966314956 
-0.1500273545291778 
-0.2002603007924919 
-0.1685107043877073 
0.008803657538342559 
-0.2803467925656962 
0.9527420438439527 
-0.1972324858366963 
-0.02860824914948651 
-0.4346644528901205 
0.5380325415818148 
-0.2103426777108165 
0.303487405181797 
-0.9331702057780908 
0.2738031422955257 
0.05804204676678089 
0.2757893105145618 
-0.1895841426113566 
-0.7684536946872073 
-0.03571861064567251 
0.1505834426110382 
-0.5767285800379287 
-0.111971603229096 
-0.09074490282671706 
-0.4224091731404919 
-0.342928921113519 
0.30255770240747 
-0.06794098695398734 
-0.269739702680201 
-0.2098613259680004 
0.2186217344036065 
-0.4625540157023325 
-0.2198691815505283 
0.3098490176180343 
-0.2579141792208006 
-0.2044576177874025 
-0.4808941989932194 
0.2961050191733455 
-0.217047851390806 
-0.02971719407933499 
-0.6221998798381146 
0.1264952899352006 
0.1013344116537735 
0.02576115343419109 
0.7912826615192055 
-0.4611846882339442 
0.9333845033872229 
0.2660845642470384 
0.1268244995672622 
0.07923665585508059 
-0.4247735755077477 
-0.4187920171567843 
0.03257048990303058 
-0.1692839680749145 
-0.3233048020462092 
-0.5384572884841908 
-0.5509025850283563 
0.1832383460137404 
-0.3526714750910004 
-1.450324261218793 
-0.1590735150831278 
-0.2805030102905183 
-0.8132596530595341 
-0.4135317105009068 
-0.0389241251601988 
-0.462036824585562 
0.3408763238257729 
-0.3889686725955615 
0.3031700645326929 
-0.08849331659190682 
0.2899900067704562 
-0.1583705556803532 
-0.189491141237762 
-0.05750585497423637 
-0.2062521174394222 
0.1877600597285381 
0.04785193109799909 
-0.154646291912592 
-0.6932437292750688 
0.0045466688908594 
0.4441705918518208 
-0.2296077627779392 
-0.3816608971666416 
0.1876274008718911 
-0.001832265677053031 
-0.8975770965809106 
-0.2905798089023558 
0.04563138071547171 
-0.04845034567886849 
-0.464174341591829 
0.1784343414257238 
-0.1454775253623512 
-0.2607872798383151 
-0.3817292457511192 
-0.1255777037036333 
0.7811398316320316 
-0.1686029745695406 
-0.2762991026299109 
-0.8756550946054856 
0.1153904197801852 
-0.2310626221292575 
0.01155767987748777 
0.03638598072496649 
-0.3251942415867482 
0.05726287882604612 
-0.4471581776281024 
-0.3192675843608577 
-1.095132452245853 
0.2809872676044735 
-0.4862608417243895 
0.4038150258250487 
0.1513617627390678 
-0.4287459706359931 
-0.1408774869084951 
0.03189979603913145 
-0.03179745947345003 
-0.02471858454226071 
-0.03472219641397244 
-0.4957386357448327 
-0.1887474578842543 
-0.5369842123942793 
0.1599251516273411 
-0.1356217705303314 
-0.1305261524148509 
0.8382752681690055 
-0.0955573713434419 
-0.503298852027501 
0.3220388416954473 
0.1494105586526232 
0.0488238357312878 
-0.3123455385248848 
-0.3613577933889699 
-0.1748399355564833 
-0.4312581027873382 
-0.5839898201019799 
-0.5888261570730281 
-0.3439192093829893 
-0.3193817936716571 
-0.5099354616142501 
-0.4117543135392323 
0.1623823682067497 
0.4784485415005674 
0.7090519113677868 
0.6731458719188883 
0.1743931113732772 
-0.198745221619333 
0.07181087400396309 
-0.1845502208637179 
-0.1097097587301527 
0.05393948828942224 
-0.03661307656199855 
-1.553324735838016 
-0.1343576411101222 
-0.1389125622862374 
-0.5042291278851467 
0.2704777058140024 
-0.2786792346958071 
-0.6276110967800295 
0.2539359201248683 
0.1852194161484833 
-0.2627262894248025 
-0.02100407228616719 
0.1736507988469614 
0.4870686701632282 
1.333236559247637 
-0.346717421976917 
-0.05995266417159039 
-0.1423851996835221 
0.07986226580066054 
-0.2413997534521046 
0.06074242823105019 
0.02410391824460827 
0.02899144794872023 
-0.03632562599404991 
-0.2092157286695046 
-0.4991331295737183 
-0.8537592732668348 
-0.6332416248352352 
0.339060966713382 
-0.3659437013370311 
-0.4908203217297085 
0.2041906773536506 
-0.3628990110444479 
-0.06374744851424313 
0.7921248170320085 
-0.7158601445763995 
-0.1653037903371215 
-0.1234699277698531 
0.07859655262434145 
-0.8811491114691917 
-0.3278557844114747 
-0.3238889001208152 
0.04103762267932537 
-0.1156461808305407 
-0.8028446503172018 
-0.4076242562392535 
-0.1278597803809535 
-0.5580629716000866 
-0.4854861999809023 
-0.1638721408025191 
0.2463643297532446 
-0.06986739471209688 
-0.3719889654347777 
-0.3034874411918307 
0.1528291062814148 
0.06194533005108651 
-0.2679478518530709 
0.09168557700466634 
-1.280571539613667 
-0.3489413420135331 
-0.1746600040664037 
-0.2057566709497203 
-0.3340379898336827 
-0.4542829911365386 
-0.3073618573249484 
0.416261053430045 
-0.1143016066460912 
-0.6825232872743011 
0.7240431857451864 
0.06260211480338196 
1.353539802352272 
-0.6961756137665276 
-0.2612217082861405 
-0.2555964083749949 
-0.1502433342235808 
-0.5818688573554724 
-0.7885367545887969 
-1.066654242889757 
0.0485831197605737 
-0.6985017749895981 
-1.030877118157234 
-0.1392866957818527 
0.5396423352729085 
-0.1743355984816162 
0.3703625588625161 
0.3060650627578029 
-0.07903398170642421 
-0.2063191163773652 
0.5909095394910795 
-0.2661313717262076 
-0.3678810559259058 
-0.3589592824543025 
-0.09261778929770979 
0.4303775938673292 
-0.2543866857060715 
-0.3571529221973638 
0.2018265491499909 
-0.7998137857251147 
-0.7943699292084504 
-0.1626360930664899 
-0.1393914672797976 
-0.3825601214301175 
-0.4631581386492453 
-0.2999796307238933 
1.069820374468951 
-0.2914055833426795 
-0.2374066414949308 
0.3966383427717389 
0.3677968028878458 
0.1842528276983971 
0.3687788372388528 
-0.2436225989810159 
0.5962852677026967 
0.09200852591936338 
-0.3304837490116103 
-0.02555191335599077 
-0.2156377197306066 
-0.02392336188624839 
-0.5140584711040747 
-0.2295291257238778 
0.0359773302887709 
-0.6546680084851507 
0.2570226195367844 
0.2170257865556223 
-0.3314976773085827 
-0.4513432438509576 
0.6377629769889441 
-0.4903537610796707 
-0.1639863269518095 
-0.2199027874451787 
0.07780080065960218 
0.02284755928235575 
0.5651073060439822 
1.418650908815456 
0.1887983302577566 
0.5700744540179543 
0.1164699679440078 
0.3026252036056583 
-0.5951479430124048 
-0.2639905835253195 
0.5957116707660198 
0.2068158987427778 
-0.4360483768903208 
-0.1127037281446933 
0.03853173333383374 
-0.4888422681605274 
0.04924823589467821 
-0.6995052506767688 
-0.4159669906433657 
-0.1716969429780048 
-0.2700818545525865 
-1.101171229128013 
0.3132401504747051 
0.2454521650238849 
-0.7972164233972985 
0.4487024798957824 
-0.2410523669796771 
-0.1411627311498559 
-0.5093546868606817 
0.2558427093893834 
0.2937034690156218 
0.3755086846347585 
0.3123367639492228 
-0.2804524837317158 
-0.05411489164886013 
0.2588964366697883 
0.03493945289657475 
-0.09216499174662159 
0.4869128114153621 
0.4287051114323342 
-0.2953637238879787 
0.3081509397855371 
-0.2042570683952076 
-0.1622519771834512 
0.3634701837069454 
-0.6683893946663807 
-0.3817116452740779 
0.1753726984322136 
-0.2636945804301989 
1.33659879363638 
-1.088743693491914 
-0.6633000157390171 
-0.127829266696155 
-0.07275110694242252 
-0.2294371344965612 
0.171455949191563 
0.2826663377817219 
0.1653343803422286 
-0.3938277373555495 
-0.2652064131980049 
0.3988503564745302 
0.3353364956373186 
0.06190497799260591 
-1.229850977271726 
-1.05875367696315 
-0.5522999482858605 
-0.01919125181628639 
-0.3310816145296017 
-0.3485360712382061 
-0.2309997051063593 
0.1412243654189491 
-0.2158184564230831 
-0.2201424561078216 
-0.1730756960016352 
0.0124745793962829 
0.07151863296473195 
-0.03578066830039153 
-0.2617445922723519 
-0.2249713075922182 
-0.1291822577223469 
0.1320930712901764 
-0.08378589091648035 
0.2016333790284085 
-0.1926980285737372 
-0.2896320025500411 
0.01144824624635499 
0.6304797789490644 
-0.3137113617815598 
-0.1175544424592593 
0.06189483940301858 
-0.00865921534364773 
0.2596970630795907 
-0.4386347635358202 
-1.294544227930732 
-0.2377055350181491 
-0.2539717249082578 
-0.2314499269969114 
-0.2244704668191792 
0.2673464192776874 
-0.3224896661595122 
0.2632195791521673 
-0.9896147896242319 
-0.3108542129887425 
0.07997193302304613 
-0.2246415364094395 
-0.112050457765403 
-0.1530282434838902 
-0.2461461741091923 
-0.7239971474343001 
0.4109846110492377 
-0.6261424273741433 
-0.2657083077345456 
