solver_type L2R_L2LOSS_SVC
nr_class 2
label 1 -1
nr_feature 512
bias -1
w
-0.1828965051823375 
0.6132339148066083 
-0.2099464305344937 
-0.04957663665262915 
0.1354928037390287 
-0.5665625963708206 
-0.3886520079679818 
-0.8358499251343424 
0.7803808329798269 
-0.08993703905291349 
-0.6425985821470079 
-0.06241293597775836 
-0.5462362941073933 
-0.2045739709333611 
-0.1915503609687076 
-0.6005481155461442 
-0.1148927747812971 
0.3379071701453996 
-0.7043916195005183 
-0.2725475338505794 
-0.1793039244311206 
-0.2035853838381829 
-0.4883180905979342 
-0.6656874895234517 
-0.9291823319229983 
-0.1369965299679166 
-0.1837784010247461 
-0.3770097453873629 
-1.280561356068003 
-0.2268030165932918 
-0.5451716012537005 
-0.1723684086878473 
-0.385739724678721 
-0.2170316838062943 
-0.3880049831524253 
-0.5863608972484405 
-0.05802050001677173 
-0.259605606377026 
-0.256171380704144 
-0.1595506662940891 
-0.4140429716883759 
-0.3482713209666112 
-0.8394672442221983 
-0.03240037433516089 
-0.3008938149887317 
-0.2956488102520785 
-0.1197883705352642 
-0.05598769125188829 
-0.2856856178688666 
0.096167035024717 
-0.2410495530080664 
-0.2012958369452547 
0.468614782628732 
-0.2497581036599242 
0.09168267032909287 
-0.4546677781370022 
-0.757461889256498 
0.9447544388539678 
-0.1145753407441831 
-0.429117684183423 
0.1378118336374281 
-0.208147267270606 
-0.2647216807393202 
-0.02838733153549605 
-0.7861439863381403 
-0.55911484965014 
-0.2150592201580167 
0.01409281868096343 
-0.4526014977060239 
-0.87782660064522 
-0.2280714889409388 
-0.1825873503640106 
-0.1284311514268048 
-0.1627896226615668 
-0.2061772608581182 
-0.1208375250727123 
0.2337775633963693 
-0.1088463198094051 
0.2830158248693125 
-0.2628545085205555 
-0.711178596712343 
-0.1232073400035626 
-0.4204065319829844 
-0.4230120582319087 
-0.2162366208987976 
0.1499176640980608 
0.236286987814803 
-0.6261516515334482 
0.03871282381528667 
-0.3604426102276461 
-0.9473757380851411 
0.08522228180559197 
0.4459457869080443 
-0.4065044232567704 
-0.2212172384025883 
-0.3293606680095698 
-0.1437853241201743 
-0.02166972411907165 
-0.2470882980034154 
-0.03686908661795806 
-0.2016845431575405 
-0.1723914481452882 
-0.3239263240877428 
-0.4017070690403181 
-0.4835947767860112 
-0.2313552937203688 
0.211944430507983 
-0.2751223532439234 
0.2393779048292963 
0.4512082373820671 
0.8611581295941403 
-0.2140485062715232 
-0.4494277263695264 
-0.4150551318524603 
-0.2714156581811312 
-0.1818130707762669 
-0.3025315413839313 
-0.3702587126815559 
-0.5609639898448597 
-0.2275897435038744 
-0.5553482401474835 
-0.1272006308027059 
-0.3610703791728573 
-0.07952174707313224 
-0.3372487887909866 
-0.1757711917686066 
-0.2626234380687194 
0.0270230846241257 
-0.1316113046583451 
-0.4519063221321817 
-0.2162459474494428 
-0.4033876505752558 
-0.1320364473538174 
-0.3632550495961831 
-0.05665766440640693 
-0.08573628479315965 
0.3423432290651144 
0.2700903149410598 
0.8296886492343373 
0.1370058754498198 
-0.03955686709694347 
-0.3848814090101101 
-0.1977822482368096 
-1.429761438701254e-05 
-0.009572042354662864 
0.3326992419341627 
-0.1448307711810964 
-0.2041208548142841 
-0.1952376745064154 
-0.2849706025539921 
-0.2034919744260827 
-0.2880858793913263 
-0.3163928929938287 
-0.1848873571031474 
-0.2286395341870548 
0.2780188397104452 
0.04482258012080829 
-1.14129236035445 
0.1364277495452499 
0.9106713212983859 
0.5779456271299415 
0.1833526361765139 
0.8432233913192193 
-0.147301234636212 
-0.2135262485901445 
-0.7410851052215917 
0.5264119056593359 
-0.5759534129577941 
-0.2667899919153702 
-0.1782168271782474 
-0.4164806328697224 
0.9907907563349934 
-0.1801691797440596 
0.2111784434994546 
0.01330846082023803 
-0.4119112870171041 
0.2959353055288224 
-0.220003292425435 
0.1110473732954501 
-0.625233856023673 
-0.07014739123882954 
-0.08376976858114218 
-0.09088241391852572 
-0.2699531838755332 
1.708271315140957 
-0.510843059795375 
0.318842462547076 
-0.6373040640857109 
0.7622414256242569 
0.311252555125996 
-0.2993621319600713 
0.4417070602430721 
-0.1992697753688657 
-0.1428568146441805 
-0.6214116792799788 
-0.2189412917434267 
0.06015731933208497 
-0.01481781019156673 
0.06661569077831947 
0.09734536919865464 
-0.8376588236060485 
-0.1752316101391957 
-0.665649694106763 
0.5714883661191736 
-0.2298189669308179 
-0.8050617066194052 
-0.542989343038048 
0.3941605672268518 
-0.07819352819826354 
-0.1283278745476719 
-0.4723715164495963 
-0.1818444002443159 
0.2793082854752378 
-0.3462723069296846 
-0.2724855843168861 
-0.5045734428747772 
-0.5709770751160718 
0.003163387535508831 
0.376880604938965 
0.3953236445345307 
0.1824222293563332 
-0.09095221196720911 
-0.2001249162900889 
-0.3145032212443816 
0.720234696383758 
-0.4534026509165865 
-0.1019117066032658 
-0.2422176082975138 
-0.09321595002293653 
-0.2373072764951444 
-0.2088584440438941 
-0.2861128968459699 
-0.3204229311930556 
-0.05493321641193032 
0.6408672647139129 
-0.1368650106501568 
-0.01797476182033483 
0.7812603018434429 
0.4637474295061154 
0.2898490776745774 
-0.3521137713861386 
0.2338212471270547 
-0.08271383989773193 
0.2681311672269035 
0.06307003777247361 
-0.1802962013408301 
0.3514007086911238 
0.09711395104974507 
-0.5779021173227383 
0.3240946409629036 
-0.3062207225069655 
0.540155315539487 
1.496763313185023 
-0.2143780338283748 
0.05537409104646171 
0.1688767613098258 
0.3282499626366524 
-0.3324005081844725 
-0.4527122134612191 
-0.4104117744845124 
-0.1457498062946262 
-0.5139391557514025 
-0.3520434534194362 
-0.5094178749748973 
-0.3580530989481495 
0.2801729882099857 
0.9013123244182673 
-0.3857740540889296 
-0.08698160838586197 
-0.6158419356122984 
0.2665705475099345 
0.5492700080523317 
-0.07416129446020137 
-0.5110846068574936 
-0.6610094268001167 
-0.3186629403624974 
0.01895897290241495 
-0.377950629770478 
0.5772321255268708 
0.02141818820118434 
-0.02292830282170059 
0.2825058481791289 
0.7019739873841276 
-0.5265559894446054 
-0.5415686703396345 
-0.3262919885398183 
-0.1519503089862149 
-0.1492943493466686 
-0.3710537164540952 
-0.3603258392618383 
-0.09626752337658524 
-0.3208704517806768 
-0.2241502649858039 
-0.1549658213138412 
-0.1674732504077517 
-0.5717851320158663 
0.1095222733987352 
1.263359645893988 
0.1081537198956494 
-0.25271333013092 
-0.9081648199235802 
-0.480747119648735 
-0.02740060168440344 
-0.401454160672177 
-0.2880351383482254 
-0.2219531291514044 
-0.2273006724955265 
-0.7801459491917759 
-0.3873878271330639 
0.1414826461918943 
-0.2265156241696578 
-0.1034748121541704 
-0.4789181259187916 
0.8949005225917877 
0.08203277488797575 
-0.377344142676664 
0.4993698675757678 
-0.4477427706107701 
-0.4485277234807691 
-0.5247567472704701 
-0.2163600491545827 
-0.07876342943666975 
-0.12847750855254 
-0.1339363503052879 
-0.3192562183045458 
0.02015415864647927 
-0.2742146560499641 
-0.273939740996749 
-0.861049980935269 
-0.3128169541457198 
-0.2064499085295388 
-0.2638430474208633 
-0.05161790026684243 
0.9466994472640243 
0.08165731365255066 
-0.1839775500047784 
-0.1612513075016001 
-0.5410149443741433 
-0.3949564705628423 
0.1037666516331906 
-0.7314917178368272 
-0.7824710209096412 
-0.4607616206355088 
0.09946850000203293 
-0.2106968249353716 
0.005563339430249715 
-0.4953660414844153 
0.1810111281854645 
-1.192337157110686 
0.2518201836189797 
-0.001279132972153561 
-0.2397533663313289 
-0.7124253962781127 
0.009731326142757568 
0.2168926967745695 
0.09864989473260223 
0.3471104503397299 
-0.09211605402800789 
-0.2300530088585207 
-0.487311412582677 
-0.7378249392825178 
-0.2053591847333072 
0.3436314144631233 
-0.2607977761209489 
-1.014408251645066 
-0.2245008904232739 
-0.3028052377769553 
-0.141553994821267 
-0.578380778870248 
0.223016983323005 
-0.3199791857997723 
-0.5176221297074481 
-0.3005875588744739 
0.1461716061163061 
-0.6044532844278214 
0.04090248853546688 
0.07087832497626832 
-0.4469734479464989 
-0.2931117353244375 
0.1633626755644553 
0.3071792312625062 
-0.2749508848264405 
-0.1780883518511834 
0.06480197371548525 
-0.3799585474530055 
-0.2729711663456957 
0.02422257279238567 
1.191437552182515 
-0.3507486470281747 
-0.3925301097314614 
-0.3971167486225097 
0.4326320084411763 
-0.1402462763519416 
-0.4147257307366731 
-0.2481363755525166 
0.7394205695231237 
-0.06369152772080718 
-0.7648704996692137 
-0.1375098965668634 
-0.004683504655368277 
1.032885634427739 
-0.2583097960694593 
-0.2372028046004441 
-0.3028664314840017 
1.554984984429084 
-0.5564052745235907 
-0.2670798869873235 
-0.1493318864475727 
-0.01648783268461826 
-0.2107195093818097 
0.2064663133830497 
-0.4802827939220873 
-0.3174031058962487 
-0.2856995360526617 
-0.2949071194315181 
-0.1669491618944526 
-0.9967812164212817 
-0.3258417516449311 
0.07667653475362105 
-0.1953205425214948 
0.1879329528089868 
-0.4779965677950552 
-0.3165830335371284 
-0.06068192566107366 
-0.6088329024407371 
-0.3355994871442869 
-0.3249852139617911 
-0.09990827853352294 
-0.3293561992578853 
0.03656724837969834 
0.2580503006143282 
-0.6310401153581434 
0.5299701618280799 
-0.2893434742840235 
-0.9197860807454191 
-0.501696530354645 
-0.2636442265000198 
-0.2978946248929595 
0.1229071627581332 
-0.5321345179133727 
-0.2100445159940538 
-0.2155856503232522 
-0.3195884761284375 
-0.1137402532235256 
0.6212513073045061 
-0.2241973321593651 
0.1357226227623479 
0.1629974859108934 
-0.02856917581303157 
0.4266979938825725 
0.566181199839165 
-0.03217951803133894 
-0.04178197902284868 
-0.4249849239346993 
-0.4191554554405759 
-0.1781004413334719 
-0.09897972771022949 
-0.603000971967103 
-0.319063716626967 
0.1168427516610381 
0.7217950645667646 
0.4384413310120027 
-0.4166832224631005 
-0.7785722759811066 
-1.443837281663919 
-0.06797113068941872 
-0.6140161525695118 
0.0789594145725173 
-0.02073305842349652 
-0.3814450833086904 
-0.04115627280007549 
-0.1291137600834895 
-0.3304944073780233 
-0.3187291613271526 
-0.0882974263646556 
0.4544576757999549 
-0.3619063694513671 
-0.1762891716815744 
-0.1809990527422836 
-0.1652161437764338 
0.511253462144855 
-0.07390149386098324 
-0.2057947704352822 
-0.2941538797703335 
0.2144766660645682 
0.08770098511582045 
0.9823490270327377 
-0.6466450253878714 
1.518307294472242 
-0.1132052088562595 
0.08322785293062017 
-0.2224155467889073 
0.0974860574230146 
-0.0125039984583942 
-0.1693512502942816 
0.848240240656262 
-0.3125839401440669 
-0.3648840029318326 
-0.3750647004259797 
-0.4004536329680937 
-0.05728052759001497 
-1.231188656570484 
-0.1164970183197715 
0.2629409684317459 
-0.120714919163273 
-0.06240714602123029 
-0.7684558501653647 
-0.5425866437039523 
-0.4609918001276408 
-0.2588002944799809 
-0.6845656713624062 
-0.01644137737915119 
