solver_type L2R_L2LOSS_SVC
nr_class 2
label 1 -1
nr_feature 512
bias -1
w
-0.3158359359351058 
0.6042716950041412 
-0.2095516099888411 
0.4299922314066834 
-0.556545364266969 
-0.1393108016186353 
-0.2153662737334499 
-0.3003674446327442 
-0.3388162827784491 
0.1016931539191383 
-0.9991410978661287 
0.4543116434181428 
0.6891759236541402 
-0.4324365052777517 
0.6028275439248466 
-0.5224728184546137 
-0.06446462230676796 
-0.2145189284762948 
-0.3748521315968797 
0.1716724673923489 
0.972632382849749 
0.1640178434445292 
0.03519006360699904 
-0.4554378262509757 
0.07817649773117682 
0.7151289327891296 
0.1725303905386858 
-0.2228489714688803 
-1.028423150448119 
0.3732257721924189 
-0.3535057156464161 
0.1215651772263519 
0.6962937266887607 
-0.6856584775620311 
0.3421342445145343 
-0.09047506686451054 
0.4599937187675744 
-0.961258678820578 
1.396226447836763 
0.4563265344752496 
-0.4974222304052891 
0.7597951869877032 
-0.4659162421349331 
0.2829926246049813 
0.3761809459576711 
-0.4660653488394983 
0.2458878634342853 
-0.07301264115339029 
-0.02872348926224694 
0.5790825681856535 
-0.6845780398040845 
0.1532623184074715 
-0.4852511047361363 
-0.2401883645521692 
-0.1531543470886071 
-0.4613929641571827 
0.1713628762620979 
-0.4107231877756513 
0.04397615623429947 
0.3086565091588525 
-1.946165871458549 
-0.2762554298316891 
0.7260530174009961 
0.9218022994349673 
0.1867915835652014 
0.1353138106126009 
0.6416237724956901 
0.4978127050446812 
-0.9372447246184041 
0.00246673536728571 
0.5282922856943245 
0.4663632844549667 
-0.4309565838346395 
-0.01997402229286693 
-0.7575876549511722 
0.1954152218561861 
-0.1728116598278227 
-0.3616189233059555 
-0.02136734127707361 
0.3520710009501343 
-0.4227334732588297 
-0.1357618502108848 
0.375236934670407 
0.1834843920488284 
0.1108541207578256 
-0.189565077721782 
0.4108743313446167 
-0.08934259985675437 
0.8463054714368234 
-0.6142313870304978 
-0.9019544583911967 
1.832633874693707 
-0.4820610367543253 
0.6876657221859044 
-0.02622295466990685 
0.1699446101662561 
0.2779567392084784 
0.08681085821768428 
-0.1534521595996622 
0.1398321088815885 
-0.1688344761914065 
-0.8370771099864942 
-0.4160121411224783 
-0.1551715090053052 
-0.900011041791736 
0.3599992919715129 
-0.3220791297691267 
0.4971347657468114 
0.6675518102396314 
0.3759748332663297 
0.08782651364312923 
-0.1218852409163626 
0.2886384778459544 
0.3256691298842834 
-0.2399378685250816 
0.7879562056611941 
0.4902445025665159 
-0.110221323652584 
0.01912259139562168 
-0.1648743971581877 
-0.4414004084503956 
-0.1719788032317799 
0.3635228211408891 
0.1120794559297934 
-0.1810844290607009 
0.1797747228423847 
-0.5722456230137679 
0.03414346540163842 
1.011205225338925 
-0.02858202354681859 
-0.3672291435338932 
0.6162003519539855 
0.263240582276468 
2.111781423945991 
0.5167970166264506 
0.7041326888605036 
-0.6026181619112433 
0.7159753711251473 
-0.115263785154547 
-0.8405966127983109 
-0.4287730748903596 
0.5307913608085549 
-0.2215503598379062 
0.1562730585662561 
-0.4287288907856668 
-0.4221588549968097 
0.1918044896060964 
0.0503716295655256 
0.1111147693631973 
0.6879503747447662 
-1.033943964906466 
0.8849053415996503 
-0.5614825318453796 
-0.4220143232588703 
0.04292006599653266 
-0.1545040692983788 
0.5247898182583857 
-0.8378652438371366 
0.329319497106537 
-0.235540628786133 
0.3630987161175808 
0.3557740997967968 
1.091271440814868 
-0.2722699587639503 
0.06827327311710939 
1.212837410515502 
1.085989698106453 
0.6618689688919038 
0.8392351830877051 
0.07041086421483815 
-0.2226080999393396 
-0.2861929847855001 
-0.03584722402282434 
0.08496255181691477 
0.2517514461047588 
-0.5488722085970016 
-1.752178340539437 
-0.3097840779501936 
1.269033779357293 
-1.097803631098133 
0.1154677268924953 
0.1405572004332343 
0.1472298384749666 
-0.2706371316100277 
0.01805904785958194 
-1.336456780727099 
0.2985318503919422 
-0.8440916185761155 
-0.2017696369787396 
0.504927035165484 
-0.2654733268915562 
0.02727909039408894 
0.6376005198195716 
-0.06987927859608919 
0.1153620281738736 
-0.3319741149584642 
-0.8421615190820312 
-0.08710815702833881 
-0.3607182536542449 
1.133597626578006 
-0.960322909539534 
0.2055541269150565 
-0.07026339891117211 
0.7105585274769869 
0.03124094103264139 
-0.7131060811772861 
0.3141476852956007 
0.237313026944907 
-0.2403404722743577 
0.322155756821064 
-0.2281113930415289 
-0.1421069584495274 
0.4281833804317519 
-0.1362604541355288 
-0.004753154771740017 
0.3868380291252202 
0.05207281763944133 
0.3602587156481927 
-0.4064761807599624 
0.06431424995918239 
0.5955179713184227 
-0.04511070017376327 
-0.2586781034865733 
0.01056053471882408 
0.2233331856041039 
0.4916738819319069 
0.3977302733035432 
-0.3473969222143178 
-0.2399680932436287 
-0.5667463839447802 
0.0124723688621365 
0.1546189337403129 
-0.142709289585393 
-0.1047891100806276 
0.5618064975132756 
0.2960825047356631 
0.04894407558283857 
0.000494723117801129 
0.1491089849788118 
-0.2380998250315784 
-1.555651532193121 
0.209039135012727 
0.2435441074276156 
-0.2557453390871156 
0.343748450345874 
-0.4854852135804067 
0.2102987892041821 
-0.52946406919744 
-0.5082517860931008 
-0.570042638555286 
-0.04712074071289294 
0.1287667012398049 
-0.8423114935707647 
0.1092147154843129 
0.005210454412059786 
0.1769579193856375 
-0.4394669416852329 
0.9073299716133835 
-0.5715498863949414 
0.523439892646251 
-0.09225589781522933 
-0.9435514800711012 
-1.316990659691363 
-0.1117713777805597 
-0.6011633672086035 
0.1667611112357121 
0.6128214339775071 
-0.3178712065625142 
0.06665990553056705 
-0.3355901261342849 
0.2564238519061023 
-0.6832629932543343 
0.317942950192546 
-0.6514546191198384 
-0.04828122902330469 
0.3548237345569322 
-0.09004954151169707 
-0.3069081364918221 
-0.2497856539203481 
-0.674006335489736 
-0.6123586087318058 
-0.1878894884749632 
-0.1988008614859651 
-0.2358820212059143 
-0.1205447472612194 
-0.02944239795144326 
0.2302383698420276 
0.3689602502221667 
0.1098446929772045 
0.4758436260527999 
-0.09905186957729729 
-0.1324907055558022 
-0.1176980362045562 
-0.3166275365517932 
0.2428800162439682 
-0.02753544499289774 
-0.9104701810603133 
0.0857443246160548 
-0.1282795730308733 
-0.2277131127650223 
-0.7830144177697248 
-0.3878707360050524 
-0.3871309999367255 
-0.7513219579054246 
1.503770940387669 
-0.4562512284801454 
-0.3698903046607195 
-0.1839370912753489 
0.1940498280693675 
-0.3854347134161167 
0.3432767149008191 
-0.2014230170764953 
1.013306463338105 
0.2458670260557131 
0.8014592566859711 
-0.5286920976264187 
-0.03697506546220743 
0.08193904406972902 
0.283743880383918 
-0.3793741140193442 
-0.04846523516715744 
0.1629383843364213 
0.3241138509221779 
0.8664109500371037 
-0.03101482067512066 
0.3906353266555782 
0.270723152160066 
-0.5015794599150164 
-0.7738554016051922 
-0.1936722251529866 
0.1817883988409966 
0.001132136287338145 
0.3812819539939112 
0.2727081090298994 
-0.0008921922188400502 
-0.9841977251555734 
0.1425116581813131 
-0.1010927524291316 
-0.1197542483468305 
-0.1730019858478801 
-0.2507724296356829 
-0.9717011904656954 
-0.3006426050346449 
-0.1406120208280507 
0.583627295195341 
-0.2796721006893348 
-0.4625972019079158 
-0.5325059027711494 
-1.604356781359788 
-0.4381756967433074 
0.02217225642206705 
-0.4448689605361368 
-0.5309319440636956 
-0.4442685529164423 
-0.7577865325236368 
0.1018158671805763 
0.3987630711308071 
-0.1328924532214627 
-0.3827970534042628 
-0.6491185956519274 
-1.368434812585243 
-0.2537134877670037 
0.6191145557615806 
-0.1448675105354356 
-0.7326367090614031 
0.1958386659145885 
-0.858609092054229 
0.02741021376695237 
-0.416073929286669 
0.0002210230659501896 
-0.2946620313416484 
-0.5346291643031651 
0.1684713425045218 
-0.4590587338416361 
-0.7253852368897663 
-0.009038580925597492 
0.4234004434310052 
0.4148741002094052 
-0.6720502472580302 
-0.1906928912725857 
-0.3336110626796374 
0.1579087539106303 
1.459477462411491 
-0.05335776243865575 
-0.1936310830498891 
-0.4146328271387024 
-0.0143416447250853 
-0.3198346919787208 
0.5657554355537803 
0.04554201551345317 
0.04584544636240664 
0.9237276937448985 
-0.1177258356831755 
0.4225710783103703 
0.787099794435312 
0.0006412438505722651 
0.2947827534226585 
0.4141701585623196 
-0.2459989259112839 
-0.1025303219628671 
-0.951450264899899 
-0.05763347916714703 
0.4308677729405519 
-0.1059154948681121 
-0.2269972546698554 
-0.5179711252130252 
0.2367549411556498 
0.5876183805826517 
-0.9369431337992484 
0.387469446108602 
0.1726175379649102 
-0.1913968573821052 
0.4510998493455828 
0.1774293490201946 
0.09314213281665348 
0.2039660856890411 
-0.4505409038121105 
1.04986711179255 
0.335175646188528 
-0.2182457649180691 
-0.05384688114551867 
1.256100675361203 
-0.2785024120582505 
0.399394257253891 
0.7484413025477388 
-0.1722896310106583 
-0.1453951350850579 
0.14359492830383 
0.1707928469998435 
-0.155061330981426 
-0.01721664528281632 
-0.0217389497632405 
-0.003612858032408992 
0.02843618333960308 
-0.7116461714687097 
0.1634607739645342 
-0.722739474507575 
-0.7371259780590707 
-0.3846326016245748 
-0.3813692846463076 
0.05799501271601849 
0.1114381180786782 
0.3485877007997455 
-0.09315869845133624 
-0.2662372356150678 
-0.7740127976541653 
0.5907961199309786 
-0.1334705779083617 
0.3020125331786185 
0.1343357654187595 
0.08974692646204233 
-0.1516946875436008 
0.1513632117022358 
-0.3320478785741787 
-0.1900645852125291 
0.1622278418980137 
-0.471480277110811 
0.7449357204447694 
1.15579526847623 
-0.1131281890516314 
-1.331779007126671 
-0.1636486188985664 
-0.3703086194767145 
-1.006283161802197 
-0.4556813927317592 
0.1259623119350785 
-0.261956645899165 
0.7312546744675753 
0.1471955236850309 
0.526783333084728 
-0.02370200216996038 
0.9431860609310576 
-0.332975213270183 
0.2879773197969983 
-0.00223606366387804 
-0.3833137954874123 
0.06285658364045346 
0.6180208655585927 
0.08953658926052525 
-0.4569366186029562 
-0.08531415891200921 
-0.1398793716154002 
-0.6523421125700217 
0.3555611259320708 
-0.3831332757504037 
0.003619453010120909 
-0.1622857683383263 
0.4236699042224825 
-0.4693750150878538 
-0.04447763284752206 
-0.6550247618755485 
-0.3655981732477115 
-0.6149556373775402 
-0.4789456088006417 
-0.5083078036787406 
-0.4645349909515125 
-0.6245888514562719 
0.04099898823886621 
0.2511049238592883 
0.6450288183151534 
0.05402223676058188 
0.2964362461891196 
0.1331726126376497 
1.249794764098472 
0.4233968188745256 
0.02896013326586836 
0.0836503288232805 
-0.1622036044090364 
-0.6263027072141787 
-0.2119199089357925 
-0.7060473048634802 
0.5691130087208218 
