solver_type L2R_L2LOSS_SVC
nr_class 2
label 1 -1
nr_feature 512
bias -1
w
-0.2565293040381976 
-1.168716762520162 
0.001104745370018817 
-0.241692142933549 
-0.4261365873674788 
-0.423132837837381 
-0.1206115367621716 
-0.780615923901422 
-0.1053468698348496 
-0.2833678387516947 
-1.039774679739306 
0.6152291108503334 
-0.03045448824615224 
0.664623698114833 
-0.2427464512824058 
0.442885353348711 
-0.5403165605720365 
-0.2966913191566377 
-0.7791143767687304 
-0.03278839247235048 
-0.2705197519948938 
-0.3650860591936154 
0.7183279174931365 
0.6338398674822733 
0.6062183249164996 
-0.193564965873936 
-0.2804718120350875 
0.4598080788645768 
0.1275392344453577 
-0.3070902948957127 
-0.343398970098078 
-0.3784939877427808 
1.673620524616466 
-0.04465990772099623 
0.2347942568069014 
-0.1863965989517556 
0.2661228015197558 
-0.608627002771537 
-0.05103121833382596 
0.2913846487706316 
0.1612712309219203 
0.531031542069849 
-0.3596879564007938 
0.06025135010111095 
0.2086738115468081 
-0.1816809140561769 
-0.1239882768674232 
-0.4541261238103405 
-0.3127525615907966 
-0.01808548050729692 
-0.6186467166468534 
-0.06005682376041077 
-0.4576089560869673 
-0.1525856726638136 
-0.1739375646348762 
0.9824017756701549 
0.2847829783123033 
-0.4618860926336848 
-0.4406495438701559 
-0.6060033534039467 
-0.1558495393469618 
-0.1102228157615099 
-0.3130885617135811 
-0.394742155107397 
-0.2277062844341642 
-0.5770279805778871 
-0.6543608025253912 
-0.3203356919736077 
0.1159544185282981 
-1.132860459656153 
-0.4224685898603199 
0.1977672305729077 
0.2761387943070933 
0.003509398055371545 
-0.6980063089239897 
-0.3197708966489395 
-0.484742690320494 
0.4203442490233917 
-0.0958596424205282 
-0.1236095850836068 
-0.6605928626763785 
-0.03970128572468299 
-0.4869563240726727 
-0.4658803110010871 
-0.5806750427539358 
-0.0411743123405969 
-0.09463416936706093 
-0.5453763534365269 
-0.3654223327151881 
0.1847603578494119 
-0.9648590846252717 
-0.2842493706232708 
-0.05377573697484576 
-0.3147203109650811 
-0.4635500884485489 
-0.4247276592765521 
-0.4179828859400487 
-0.6644013657392633 
0.02243911814041188 
1.204688115962454 
0.9214648464474215 
-0.1229047468882571 
0.03863836704669418 
0.05717580335914618 
-0.4876662719006269 
-0.4161829293762581 
-0.2150989002878784 
-0.1974781951844842 
0.1517266904604791 
0.1689070419424998 
-0.1090793580925765 
0.8717029836569411 
0.4093779258311949 
0.5279345717138704 
0.2758148153430039 
-0.7974227409409583 
-0.2040117058905755 
-0.06390153706679262 
-0.5317337851612237 
0.1236397905813299 
-0.4715910210138972 
0.2188554320255028 
-0.1512804515811682 
-0.2205507706283179 
-0.4357880803518913 
-0.3058831574410712 
-1.447049819125381 
-0.1191962051174109 
-0.3623182676633254 
-0.5365465456765268 
0.07399669302321274 
-0.3382838602804999 
-0.1824370782938923 
0.1087001426773579 
-0.3665216037322557 
-0.4892621542966799 
0.469505829606257 
-0.1223605737768621 
-0.3516615153023687 
0.5086499780348788 
0.3862896746685534 
-0.5800117612643253 
-0.1099624677885853 
-0.4403248109779951 
-0.2250297628142093 
-0.3231771242119595 
-0.07343890339646629 
0.3664428447024557 
-0.1098100415328214 
-0.3274384376342805 
-0.1221717366771323 
-0.4408726372873673 
-0.4892915670982531 
-0.1987007643656469 
-0.2025589526684902 
0.9270943915798947 
0.2389028245147376 
-0.7378035429631422 
-0.3052049130756238 
0.800289575669612 
0.1109358873896996 
-0.3578855901977444 
0.7160623718103808 
-0.07478729180254247 
-0.4352877295993357 
-0.4234896610091728 
-0.04263662030463349 
-0.03669763454663485 
0.09660046554340257 
-0.2587690053511197 
-0.2639853062229284 
-0.6007910958642724 
-0.2180978324742748 
-0.1298803070706205 
-0.3536559630693678 
-0.4352924058681928 
-0.6972921808860447 
-0.3052628074327697 
-0.3796090722836564 
-0.6156852684542485 
0.09244764435228726 
-0.1963351310465142 
-0.110435528372051 
-0.6038366539647424 
-0.2444395289093354 
-0.3806487968382096 
-0.08669572991832351 
-0.9755283891109711 
0.1926155837099154 
0.1786606311898717 
0.4442759474521801 
-0.170364909404506 
-0.02503128247588143 
-0.2944279274048428 
0.6059229668828715 
-0.6492127662048732 
0.2121292138249899 
-0.1191488533498532 
0.2037575950097276 
-0.4986579314942517 
0.1635878647055388 
-0.08299403455762243 
-0.1679191058690649 
-0.07316852877954362 
-0.7518996882847176 
-0.2439752833179115 
-0.8582315783796174 
-0.64560175257987 
-0.3673172512328095 
0.3379323106613667 
0.07642398305111897 
-0.2440879529612748 
-0.5914372440853969 
-0.2842110551366921 
-0.2810282842053879 
0.2877927803281297 
1.192910907418134 
-0.7617028738440015 
0.5353693128563478 
-0.2108987667254857 
-0.1426177137562936 
-0.08686672656531305 
0.1103765995130067 
0.2453687046568898 
-0.4037470614997744 
1.286683724802926 
0.1744655887649673 
-0.4719607544756066 
-0.451302972950297 
-0.3403447034254105 
0.1024397757791774 
-0.1929915850091172 
0.1463393530314668 
-0.01202203096862126 
0.2094518960078922 
-0.01321894032115056 
1.417000377464748 
-0.214100734399475 
0.1092669893274872 
-0.4004789321978464 
0.1562085631838531 
-0.2886044174900368 
-0.4065566219012915 
-0.2512939613181265 
-0.2806106260918561 
-0.1665816744204832 
0.8846980327418205 
0.01826722148660032 
-0.4266527754258355 
-0.5232553700306821 
-0.235022324316723 
-0.3096844857919998 
0.1415048828048006 
-0.3154014388559389 
-0.5750417517814403 
0.3038864797616602 
-0.03317483052383751 
0.2881455682672208 
-0.1587029510909519 
1.372216078234445 
-0.1186383364475737 
-0.2229545637740652 
-0.7565448011816716 
0.03767382377364804 
-0.3421361739347876 
-0.01926213649415183 
-0.1354912411351854 
-0.4489344364342377 
0.07909188133820547 
0.0432107274498933 
-0.08633881739769479 
0.2556296603914077 
-0.2461122062050115 
-0.6519383246690251 
-0.5157710416455303 
-0.381450885436132 
-0.7385874834353672 
-0.4941494273779264 
0.4507790447329824 
0.4254334219621941 
-0.2968107328616765 
0.7189655376623012 
-0.4707371461817967 
-0.7637825363518619 
-0.2338943265570138 
-0.4790412436481729 
-0.1184143604970164 
-0.313981616806141 
0.1731407480740412 
-0.339220178274715 
-0.1149943955932632 
0.6219948444066833 
-0.1325264849228407 
-0.5201964046780108 
-0.1311375592974229 
-0.1754585888856259 
-0.8465207688861071 
0.5221371731884952 
1.384298824238807 
0.1352779333869704 
0.4158325657894307 
-0.2369517254627218 
-0.3028847240278851 
-0.1497757128593752 
0.05785752513591052 
0.6696169649773495 
-0.2589934767069017 
-0.2882746138061034 
-0.3028820656217187 
-0.94030096340005 
-0.3653688496789712 
-0.1207282479133552 
-0.4550193566181846 
0.5886275255177968 
0.1012024298521268 
-0.4413391762024673 
0.0272959977167928 
1.560994989356961 
-0.3291115300559342 
-1.093792180660932 
-0.3163873162430129 
-0.1702870004507243 
0.6355833183605569 
-0.3710220905097062 
-0.3412051970907616 
-0.3952908351387671 
-0.3943531875919987 
-0.553249401779079 
0.6466013155987446 
-0.3475258128874975 
-0.4903262389550233 
-0.265956295933795 
-0.4712132778132939 
0.5445644254672678 
0.1311402737508825 
-0.4922323645965919 
-0.2688364741234752 
0.08714496930313773 
0.4049912483198332 
0.09845519557181606 
-0.8591464366139498 
-0.9621843197452621 
-0.5149576399961354 
0.2031944706604515 
-0.363181488216041 
-0.2830125834893563 
0.7113700204877865 
-0.5229956241786911 
-1.080046766153734 
-0.4039976967937798 
0.09196141608813316 
-0.3282993352653427 
-0.4922546401230578 
-0.5941292194385253 
-0.653031328325446 
-0.2931168370869432 
-0.4822130397571641 
-0.1550466774805722 
-0.2376781412042742 
-0.2554822206210551 
-0.5027017911507181 
0.0791343449764878 
-0.2750568690841347 
-0.2475998623539526 
1.589077795811106 
0.1070524423160339 
-0.6159156942309478 
0.01087711959689823 
-0.1702432406980963 
-0.04915226682905087 
-0.3955831319855991 
-0.7038886638340531 
-0.2895879974430158 
-0.1789035626960213 
-0.7707710410394878 
0.1916844134241796 
0.188479748096049 
-0.791111267617704 
0.1412786037782776 
-0.3572441970190455 
-0.36686125238105 
-0.2022817941809578 
-0.3930022561404677 
-0.3513046825057476 
-0.1558576431407682 
0.01271190802211778 
-0.2358589366602862 
0.5423525303906221 
-0.4065345893199871 
-0.4734351480551672 
-0.5251899207276192 
-0.6370381490281221 
0.02827028686511451 
-0.1173626554991575 
0.05399039558013626 
1.52821318862336 
-0.1775810726314757 
-0.195320902713594 
-0.2085193030208349 
-0.2647109836726357 
-0.1510894334350712 
-0.1634698727755059 
0.548773896677609 
-0.3735875554427407 
-0.5011276079718142 
-0.29436418738127 
-0.3979509150496215 
-0.3371326241226648 
-0.4193026458209972 
0.8357030035698572 
-0.08071061624404001 
-0.4833169090311936 
-0.03714644217800668 
-0.2912628300920588 
-0.8134269456640931 
-0.5451560410001379 
0.5576562845680813 
-0.3114808963173712 
-0.3630387738584253 
0.0006633379799991972 
-0.78585153848686 
0.5071429226877374 
0.1152126730919952 
-0.2132645129950051 
0.6391508375512411 
-0.2699288387955783 
-0.4237432120561092 
-0.08510566667715777 
-0.5254856578632159 
-0.04451127468042527 
0.2082651041472542 
-0.8416409859371916 
0.3100807726207687 
-0.1913553677311008 
-1.089675763391577 
-0.2395401756833775 
0.5971391020128799 
-0.1749843951120936 
0.03895156533302845 
0.4004052496975662 
-0.4473841967418185 
-0.1105441691105702 
-0.2200990635112049 
0.4710830714230094 
1.174156451229843 
-0.8917585142672952 
1.781569620535818 
0.05408648572856642 
0.01409044247975914 
-0.305318892867995 
-0.2257610149146971 
-0.4496168388795375 
-0.03477564168414389 
-0.8577935395372566 
-0.103180143083876 
0.2034248778652123 
-0.2611431881283717 
-0.6915205602103053 
0.7823915703825075 
-0.1673582993077222 
-0.4440601269439763 
-0.2504991750707009 
0.1640074390916436 
-0.1050124055556782 
-0.7993370046125854 
-0.471060802012318 
-0.4759991004449888 
-0.326159398321167 
1.461606175366533 
-0.144431745724882 
0.1588966934382613 
-0.1575951593599639 
-0.2754820641314958 
0.1872317993469049 
-0.2006762529379578 
-0.2805344721325593 
-0.2161795758056007 
-0.2761160957232865 
0.09897728301797556 
-0.05157454018750707 
0.5232536490671514 
-0.08354238906674141 
0.1522887090644478 
-0.1147289337611276 
-0.1468685101035758 
0.3981094621950921 
-0.2143321128991732 
-0.772838252440299 
-0.8517450759515828 
-0.2683444725397149 
-0.4340288357618378 
-0.2194896217913728 
0.1372577574919861 
-0.3405963501938886 
0.08287290039550499 
-0.2012257372668656 
-0.007470254644115315 
-0.1927576492172825 
-0.3912691551368868 
0.04069623503574078 
-0.3499980832875903 
-0.3539313172882663 
0.08872463826776586 
0.07703248722252298 
0.7708452945824269 
-0.1858266216267073 
-0.1429174044487376 
-0.4495762264700719 
-0.1147474200829816 
0.02725446846233181 
-0.3786527838614944 
-0.2035877941693836 
