solver_type L2R_L2LOSS_SVC
nr_class 2
label 1 -1
nr_feature 512
bias -1
w
0.3719647331439335 
-0.9150767275978323 
-0.1520348971626005 
0.01561690813562154 
-1.544236752220544 
0.3946139877490709 
-0.3552188628686607 
-0.3251116062476915 
-0.2785612781633412 
-0.1042914817837955 
0.3528210763750605 
-0.2282667982368544 
0.05895402014149764 
0.01593082214932939 
0.6258162684270433 
-0.383549658683396 
-0.02237830889791177 
-0.2744350500609722 
0.4649328166134906 
-0.3829596033447567 
0.01051983638970397 
-0.01229243931558889 
-0.07165754485773626 
0.4833942899428417 
0.2984362466194621 
0.3708842503643848 
-0.08356635762426681 
-0.4412825500217581 
-0.1361034043531106 
-0.1856663708977424 
-0.109949960759908 
0.06313539642088395 
-0.101537393344237 
0.3168679013712512 
-0.2649782295058385 
1.132370497436786 
-0.3871197340251901 
0.399629268089297 
-0.08404609241733249 
-0.1410358300088298 
-0.06194819509041806 
-0.3738325036988197 
-0.6792321490832515 
0.07910076286549467 
-0.2142373095123074 
0.5212757790000083 
-0.004527027269010825 
-0.07840256514760259 
0.06342059359544454 
-0.3921264717150628 
-0.3626855637912416 
-0.05847829449433064 
0.817383556460018 
-0.03530828650943997 
0.01572240909695824 
-0.4185134916639429 
-1.111030555680887 
-0.4240399747053664 
-0.4236102636839631 
-0.187317000071699 
-0.587368402007412 
-0.01930444545533079 
0.002532523204327692 
-0.01596276147220772 
-0.1369007879922935 
-0.2045480156283662 
-0.2535697513658155 
0.08311149528236193 
-0.5956322833449772 
-0.897407536955237 
0.6017243690320709 
0.0930582098264235 
-0.3183819706133341 
1.009083571952787 
-0.2997890129859084 
0.0776320905084682 
0.04926841754979633 
-0.09827895996789478 
1.120990939679779 
-0.08980651281529403 
-0.1271045931740174 
-0.1757745264176519 
0.3891308033590531 
-0.4950034418458379 
-0.4830840038381012 
-0.1583083399397767 
-0.288577559924617 
-0.432610755728018 
0.04583243939194469 
-0.3706881717760301 
-1.003051379935382 
-0.3109905952878315 
-0.2151680070965177 
-0.3798094906792553 
-0.01164749284211209 
-0.1016904348829195 
-0.3144639501036949 
-0.4842719144037416 
0.1683392251288138 
0.4312699991803788 
0.1324439552908901 
-0.4297292650364827 
-0.0130816205995161 
-0.4629883387349822 
-0.3699030592101496 
-0.1567470835966158 
-0.725049499402257 
0.03804619386500162 
-0.0978265277389108 
0.001568020143452693 
-0.7882733212299332 
-0.267391558774473 
-0.5221416468470276 
-0.2814398009893034 
-0.2966762337866007 
-0.6141230502517883 
-0.4881927295994717 
-0.807177161310883 
-0.07437108352946707 
-0.3260335603912659 
-0.07975453138326738 
-0.003188858649880898 
-0.1418834197145687 
-0.2378974708343975 
-0.6047815007344579 
0.7598317633088952 
0.2775157072527518 
0.04457886050543102 
0.2427217503521245 
-0.3701382988241088 
-0.1061464283193532 
-0.1703940762587284 
0.4279731162396904 
-0.5866377084148865 
-0.1096596607928038 
0.4563158669939276 
-0.0688008180485 
0.176487410484529 
-0.5285194571885408 
-0.3265991456160512 
-0.1687423997411914 
0.4023041592211826 
-0.1523407680428391 
0.82330960536822 
0.1298601899509199 
-0.2881513510485599 
0.9059527649722795 
0.3182543511039082 
0.2265452400104382 
-0.2401669901621803 
1.310226746631374 
-0.193036382505678 
-0.0786812350625125 
0.3630007798564853 
0.09169158946252796 
0.1785091943049084 
-0.3127583766036308 
0.2129405914013849 
0.3669927848389324 
0.002522446672239503 
-0.1499843301426706 
-0.05940567957695558 
-0.1089801849841361 
-0.07816471149304145 
-0.06428883414249971 
-0.8086786643320373 
0.3562673195518132 
0.696337287929533 
-0.3552567151557408 
0.01923888768465214 
-0.2732847841902638 
-0.1446041955047135 
0.5094274589841403 
-0.03648689250775456 
0.1930834847920547 
0.3562210029306703 
-1.29834525085585 
-0.1373919266635146 
-0.3932182380416538 
-0.9769524229235454 
-0.1304364022946259 
0.6857706226601169 
-0.1558502688593219 
0.1570262207573631 
0.7623334893132679 
-1.021035707431525 
-0.2447085065883642 
-0.3435703119009221 
0.01333226749616976 
-0.2001266525884069 
-0.6552493591362253 
0.7322604926696483 
0.6411267621570699 
-0.3791393516178863 
-0.7214055139019676 
-0.09800008210409326 
-1.141548369844324 
-0.517950487256393 
-0.5735926920788187 
-0.1759803225975979 
-0.292180454327429 
-0.02127081558722454 
0.01447904167119649 
0.343919592661842 
0.4171195045923593 
-0.5225432492083211 
-0.3564840752955107 
-0.09815941683803983 
-0.08171556267694118 
-0.1541950481576981 
0.329156077615828 
-0.03482007969218569 
-0.3986801837449073 
0.3960821527794093 
-0.1623542539447055 
-0.001860780671036284 
-0.3697412320751844 
-0.06174407274017463 
-0.3283591039384347 
-0.3869159666564448 
-0.3984590082682835 
0.02256319394760349 
-0.1328840855315871 
0.7232547387280801 
0.5418653036670794 
-0.101871518251147 
0.02849562709672014 
-0.8073070252071426 
0.5792984202617031 
-0.1738405680910582 
0.02350732313336953 
-0.261866801125069 
0.2539177239892921 
0.09205063464556441 
0.01399308195397244 
0.8886525493241461 
0.1826609780462761 
0.1576563718136141 
-0.1803870934154708 
-0.3723699189644523 
-0.8472699987078981 
-0.005977496572597708 
-0.3473454626201595 
0.2092610575183247 
0.01322666851124949 
0.1985802333332004 
-0.2665969843635918 
0.436347760642144 
-0.4515222201673574 
-0.387382703281656 
0.1562393295120942 
-0.3266066740808724 
1.657001397589514 
-0.3853847172757303 
0.917066489570674 
-0.3620761310795237 
0.3031121631870148 
0.1928603931607842 
-0.4254906295974011 
-0.1276435987109709 
0.5294547874471877 
0.4662835666774791 
-1.790406576840218 
0.9567900205371678 
-0.226490515321724 
0.673643709808189 
1.196309847319704 
0.1185766644315112 
-0.1135415181551121 
-0.3268469699900547 
0.03453055509703632 
0.9893985384780525 
-0.1061424265757204 
-0.2868881387355929 
-0.4924526936786638 
0.1092441164503003 
-0.1750773614701943 
-0.4315303017011873 
0.3291309501095888 
-0.1362756771168163 
0.04818384539856321 
1.230176853607218 
0.8150023349491058 
0.2819371156342987 
-0.7530300003953543 
-0.335107851786536 
0.01123889006700529 
0.3814610997723464 
0.4183761368195599 
-0.2979312987644667 
-0.04974257475270046 
-0.4226120866487089 
0.3367145640872354 
0.02141924869366128 
-0.4044020009044788 
0.06327358427254923 
-0.7327859676588919 
0.5048544738844484 
0.4291760852004323 
0.02891940611330986 
1.418981449179704 
0.2177382254725542 
0.07587878344222494 
-0.2255929501274848 
0.1675858323544102 
-0.1220362227103504 
-0.006315486073800529 
0.987442178378049 
0.2943418789595535 
-0.3312674783108796 
-0.3528454369627898 
-0.3461890477440698 
0.1396431400008578 
-0.2766296442932017 
-0.4376566718970139 
-0.5554957223913354 
-0.1018081364099779 
-0.7764539866656738 
0.5420411642926677 
-0.07251593404734329 
-0.06589954234695705 
-0.04413735804148595 
-0.1494171489895801 
0.7358291456407273 
1.046914756470352 
-0.1090998815637736 
-0.3127821882827932 
0.5541959481679818 
-1.563719238696627 
-0.2692016100353541 
0.08110703740270314 
-0.127705783599983 
-0.5299268910786687 
-0.02401431894766242 
-0.3668676764882911 
-0.8659457520781282 
0.1458581042235543 
-0.692597429214414 
-0.02664876530511712 
0.1279236595220048 
-0.9026529736693869 
-0.6947609317489587 
0.003247118186354966 
0.2044789863600992 
0.6422459233433471 
-0.2286673740216673 
-0.8185323038148907 
-0.2423540707359237 
-1.006611038517411 
1.630972471738392 
-0.8904623232326795 
0.04517414995161006 
1.682176588547674 
-0.4644194710606368 
-0.652826833990259 
0.04639815127766629 
-0.361737030782419 
0.1298709480624763 
-0.1591488735969641 
0.2686980320067031 
-0.723695753030791 
-0.4130877454285896 
0.4679503110155804 
-0.2007562068977043 
-0.9273008390027262 
-0.2966608581189682 
0.1166086232906343 
-0.4963832816086359 
0.8441614556817707 
0.250307497124555 
0.1170316316514405 
0.2187508499270312 
-0.1114178617609187 
-0.6713207899749393 
-0.2143541285864618 
0.3835795991987586 
1.407155383070993 
-0.5694654498340065 
-0.68633576269178 
-0.5545731999561228 
1.023005883539419 
-0.3535670078420535 
-0.5140970334745529 
0.104939756016316 
-0.2035045736454519 
-0.1319955723820835 
0.1537963232098155 
0.4302672991691929 
0.07328200007371215 
-0.04978797939488346 
0.126187097470028 
0.4920319871287755 
0.2127800266448097 
0.1555825063206592 
-0.3438342129089953 
0.7433612619659195 
0.05398043779419964 
0.9386759431030803 
0.1122857198252812 
-0.01979776061581822 
-0.1259035313116139 
-0.3687782026762614 
-0.2927252532847812 
0.1159443640619631 
0.5419694025006615 
0.8219963571567515 
0.7475294185708954 
0.5685149589642893 
-0.79732784203789 
-0.2612387364372835 
0.2530032052350964 
-0.7314166039432956 
-0.03914776983847651 
-0.02109792415310229 
-0.2614890649952991 
-0.6611788791764991 
-0.8331315101620915 
-0.4230938767453861 
-0.2268492410000929 
-0.07730020938724959 
0.07037826603492275 
-1.125325636854045 
0.4472281575592126 
0.01699340679007559 
-0.389701993128767 
-0.6595201101084817 
0.2903751802740699 
-0.1717087879637157 
-0.2891768043268823 
1.662361990688366 
0.8313812524050119 
-0.5046542042497901 
-0.03386998428432017 
0.08891913137029332 
-0.7527000488406226 
-0.4643022906364614 
-0.005236379652097622 
0.2164406084737517 
0.2181268994776391 
-0.6860546522742043 
-0.291508321804355 
-0.4470657784636569 
-0.006040655413179746 
-0.07283629244107385 
0.5000404610964196 
0.06087760933024369 
0.2939087269733253 
0.9353866510526261 
-0.1176821398226213 
-0.2072917237370797 
-1.053863181976681 
0.9306751310033694 
-0.1834439084641517 
-0.3849849670789571 
0.09509641087605819 
-0.2060702935962798 
-0.5796281278707052 
-0.726711222158306 
-0.3244810862131063 
0.3513289988243095 
-0.5922869925490961 
0.3269429263099694 
-0.6752605027748881 
-1.127221546979859 
-0.5656498977394854 
0.7644869597635375 
-0.7466425345642488 
-0.5432311663125523 
-0.2589266779565504 
-0.08413772144105229 
-0.09731364810512461 
0.1954739262916626 
-0.4378736608429404 
-0.2836024752187992 
0.1841235443931893 
0.9459524982132164 
0.2398408408069545 
0.2165759348630551 
-0.3890137391974227 
0.306149470909901 
0.2761108468778604 
-0.02693617084996886 
-0.5795588800923217 
-0.06851741740013609 
-0.07979176299754355 
0.003813427895892742 
-0.578735477232929 
-0.3806444768930852 
-0.6104019230877552 
-0.05922321451546368 
0.1435931129433105 
-0.4141495167980263 
0.01133829628300198 
-1.478029835525866 
0.03082007075091961 
0.8269533707140727 
0.0152272219497134 
-0.05851007118191422 
0.1874071723060333 
-0.2648982464787977 
0.2685937104639772 
0.1101540982797577 
-0.03257195512470633 
0.2548699714598607 
-0.2041159145452281 
-0.1970773706604491 
-0.4735921625172065 
-0.3339663257510103 
-0.1505754942903966 
-0.2142612497404492 
-0.6402427779291676 
0.2634866146168895 
