solver_type L2R_L2LOSS_SVC
nr_class 2
label 1 -1
nr_feature 512
bias -1
w
-0.2287566350041245 
-0.7287391510629353 
-0.3285845267666712 
0.1972996078707464 
1.41136998106807 
-0.5770024121138615 
-0.4416376306176308 
0.9404339624831638 
0.5005506856544228 
-0.1745620146798467 
-1.030593744506101 
-0.2180278940964734 
-0.5186149064891595 
-0.2293368197701598 
-0.3485469762361326 
0.1998669776516268 
-0.1814874486225928 
0.5000298342432449 
-0.418641095387385 
0.3160977693206398 
-0.5236705309604476 
-0.355050317012861 
0.03451768779246483 
-1.533183950290202 
-0.07217187702310399 
-0.3131793252021179 
-0.3685073525644185 
-0.3448828408745394 
-0.158296790861279 
-0.2101540251377692 
-0.2903201514422725 
-0.5686188550943123 
1.757517638800076 
-0.297598733020867 
0.8765565146393099 
-0.8745192472976898 
0.4251663478877393 
0.5748948283845242 
-0.3163978670212381 
0.01195350542007008 
-0.5777800259165934 
-0.05913756114822571 
0.7420451625936211 
0.440315102654695 
-0.2380242607258433 
0.3259634163042275 
0.04046361971591279 
-0.6210436883397553 
-0.1190738798733184 
-0.4230515643186831 
-0.3449030834402811 
-0.3016529662901251 
-0.8498552164229487 
-0.04015693334870689 
-0.0285122633381579 
-0.1655661489618571 
0.2565679559392327 
-0.1991972542343941 
-0.01577588440294394 
0.3721429248435925 
0.5736254977520989 
0.2270658940812073 
0.145910896564296 
0.2378923602703119 
-0.8932708026421293 
0.3790382000824439 
-0.6221896770065263 
-0.08586154430275096 
-0.3976456929643551 
0.3700110354326275 
0.1010252306208071 
-0.57008468766872 
0.6764711556995636 
0.2094831674018158 
-0.5823307103605369 
-0.3279153029994936 
0.08081832537476952 
0.2227614552257729 
-0.441995300878149 
1.488354966403292 
-0.2213582279494648 
0.5362286571177399 
-0.2521939257157276 
-0.4592760355233736 
-0.1670371562432175 
-0.2661092750119448 
0.2737869543802074 
-0.7494719955891671 
-0.3626475675963363 
-0.576785236403398 
-0.9411992033569281 
-0.03103542397314073 
-0.03173253426378139 
0.3059670850807137 
0.6405652682551495 
-0.1206319963183467 
-0.1536188554687295 
-0.1008303798619892 
0.04351597445814348 
0.1827760853328129 
0.7188470041125382 
0.8625231437675058 
-0.2632992079469075 
-0.123329690465558 
-0.3707190434431545 
-0.4758984653455275 
-0.5144296951397629 
1.753758678667096 
-0.06229702349692451 
0.2647657419427346 
-0.2312812310462167 
0.03315850533151572 
-0.5148424223040003 
-0.1947477557215325 
0.5633420212925108 
0.2162308674327271 
-0.1234676690048525 
-0.3493412027247492 
-0.4071825082582517 
-0.3022840267631888 
-0.4319938634444274 
0.05510990291409643 
-0.1579305305664135 
0.1278069710945661 
-0.08872901321983538 
0.130326436428689 
-0.582758343931683 
0.7419744280902316 
0.1956391002259042 
-0.8719529443220153 
-0.04491818673506837 
-0.515905286278652 
-0.5750490317777368 
0.6825457900220715 
-0.09316242616260945 
-0.6187162099088286 
0.0102841140424349 
-0.2527076137487629 
1.161335127323506 
-0.2429242948203852 
-0.2457385602709933 
-0.4288922066564956 
0.1124433585749078 
-0.5442694558158268 
-0.1805573097506898 
-0.5046384047102251 
-0.3469614809161732 
-0.3672948494657708 
0.2235414629597137 
-0.2535325369871838 
-1.046072010347565 
-0.2704739520045656 
-0.3966974311231283 
-0.2273901095519571 
-0.06530757334403101 
-0.1108920866780084 
-0.3945552303851503 
-0.1786216985917011 
0.1506879555659282 
-0.2600663308541476 
-0.1738268881550392 
-0.1897092844381728 
0.4712712826942296 
0.2419193608213859 
0.2893165240288983 
0.6003745938186228 
-0.4779846968421588 
-0.9891554873992171 
0.4195739920730739 
-0.3890241448963174 
-0.0708850668302085 
0.6399836903881462 
-0.3781410964995124 
-0.2215693834782202 
-0.2793540133180951 
-0.2726284123562743 
0.4396974972749475 
0.0004360997341296461 
1.017670695798468 
-1.013111981247164 
0.3081442373704452 
-0.3942109017200206 
0.4372918590221202 
-0.5823931118017924 
-0.04807254990507393 
-0.3660379597651683 
0.02188849066451039 
0.1551132162166304 
-0.7173264902237382 
-0.1373158789468749 
0.6813336791371215 
1.195581459632548 
-0.228195696096186 
0.9363229309035304 
1.471852598188047 
-0.1000225673514153 
-0.6713131812658841 
0.47246067744023 
0.0757013173239191 
-0.785345338229871 
0.7241717695344981 
-0.04318180965207878 
0.01491280869907031 
-0.2246117459119117 
-0.2767063287380873 
-0.5375680498089769 
-0.322235547741039 
-0.7164442348724342 
-0.4938287666493697 
-0.5345775335834784 
-0.1998836793915777 
-0.494996467772279 
-0.4985939653516721 
0.04085295413298693 
0.2055804603502911 
-0.4231461237135393 
-0.857197525008264 
0.20107673235249 
0.4536512759254717 
0.3230695740946189 
0.535623986413728 
0.7778187693714643 
-0.753366406058101 
-0.04482533237082906 
-0.4058561016098393 
-0.2962765500165874 
-0.07182617891610919 
0.008509728305120262 
-0.1306489584513304 
0.08673312299600011 
-0.08010895758021309 
0.165769780557528 
-0.2020288160431798 
0.04622251600230708 
-0.2310687527393188 
-0.2149226905760884 
0.04684856255283473 
0.4507267577992948 
-0.06463295682720027 
1.033577419597874 
-1.696960268234105 
-0.3031097932334283 
0.2521378405306917 
-0.3199175306176819 
-0.1981045572492833 
-0.255665341365696 
-0.3170452325104 
-0.090198181183506 
-0.3759754789579002 
1.194628247020132 
-0.2526007677689477 
0.1195940461150395 
-0.5322349707405974 
0.00800235418705458 
-0.45376404541645 
-0.9966900203411275 
0.0007158939403939708 
-0.08714018265218734 
-0.2716339003355031 
-0.1444053262483273 
0.1016220255476973 
0.0903650317576752 
0.7674119305014807 
-0.8164794646083626 
-0.3551210827853482 
-0.02392995377691756 
-0.301551752699019 
-0.5107996613672503 
-0.01635384404664516 
-0.6446097695906754 
-0.3162091677020467 
-1.413287904341044 
-0.002439061812916147 
-0.3421483233698636 
0.4761235133838747 
0.6993758265626112 
-0.5105133964577923 
0.3692076461931479 
-0.2440464814108018 
-0.3519007408335595 
-0.2793132238913195 
-0.2321916854554411 
0.6604803628673876 
0.4375892109371298 
-0.2126086846472191 
-0.3716954356179593 
-0.450419940055252 
0.3318767512565866 
-0.8961878514696842 
0.4979245400450564 
-0.1561566497497302 
0.9341012950014922 
-0.1971428541208713 
-0.09043084092611761 
-0.3442137063506572 
-0.1768050581242791 
-0.4272268995429508 
0.1859275802353259 
-0.4417574876800091 
-0.05130976662319679 
-1.288794746170851 
0.4265879527674993 
-0.3935342378024369 
0.3107661533912228 
0.6898265894384086 
-0.2886322329965252 
-0.2477556747612073 
-0.4040345349819248 
-0.7101617337001173 
-0.955273328314202 
-0.3671625700418782 
0.2125834741781721 
-0.4171621461003328 
-0.002497799711212854 
0.2562365870785511 
0.8903983218481708 
-0.183674267579685 
-0.9761611443644136 
-0.0414787433101832 
-0.6752934630536674 
0.6316098488268745 
0.137860212157866 
-0.1768401705305483 
-0.3099384865312454 
-0.4825770699539758 
0.2424269225063268 
-0.4763379449906953 
-0.4419391472955445 
-0.8938320178109539 
-0.3207922186388015 
0.002239732550571047 
-0.5218589934120844 
-0.2659518220747248 
-0.09477060768853943 
-0.792188587635375 
-0.1568161917096816 
0.06997803385291285 
0.3409481723164763 
-0.5528469284156612 
0.08437941375396552 
-0.1676511713259501 
0.2340870753758742 
-0.3635089414551671 
-0.1282253736288954 
0.4260939306631469 
0.5631288059913505 
-0.5104103804608634 
-0.3652844036487568 
0.7398155928588835 
-0.5191783408587977 
0.595088665357111 
0.5841260669307433 
-0.5056444385372784 
-0.1134382796667158 
0.8720764272367164 
0.3214316027229888 
-0.587072647038982 
0.02894270159966423 
-0.3039107938157555 
-0.1080329186314956 
-0.8532368649946834 
0.2669876268930613 
-0.2034198082778847 
0.3409404927150526 
-0.7073006432102507 
0.1551472156650255 
0.3476446231538694 
-0.6726632387763917 
-0.5386297881112301 
-0.1055062969207931 
-0.2694677486336458 
-0.4040636219673772 
-0.07389666122124898 
-0.4839606346060966 
0.461297307498217 
-0.5069071134355341 
-0.718720532491424 
-1.03696095064227 
1.1246790623895 
0.1294290543722148 
-0.09300160792221497 
-0.3044092832951838 
-0.7485916516631442 
-0.3687944819005377 
0.1483590906047235 
0.3775821462039325 
-0.01119435534285406 
-0.6031255008999405 
-0.2247129810674432 
-0.04569034287622883 
-0.6028668732736576 
0.3518089265903729 
-0.2096603544273774 
-0.5889171098875168 
-0.0476169811668725 
-0.3435505402504582 
-0.02776495382144946 
-1.798896095830073 
0.2739384661464518 
0.09807312080307179 
-0.9736038040373319 
0.05577982094933944 
-0.645293128688348 
0.2942655365336457 
-0.5740904175830801 
-0.3299693927956583 
-0.3334666079019764 
-0.5095585340583282 
-0.3171873957063176 
1.187073907035057 
0.07558909506570555 
-0.260826867736115 
0.04627854544046994 
0.03366123535846675 
-0.5543766029680988 
-0.5971969666063233 
-0.4176350700407911 
-0.6370798746034088 
0.3268124779554274 
-0.1995360094363944 
-0.3603575136478855 
0.1301229351859992 
-0.4811481793334496 
-0.08669450928454153 
-0.3427600097403328 
0.2354020714518718 
-0.2803032267322467 
-0.4360565113409097 
-0.2828624736242438 
-0.1678261831748619 
-0.1943326242846267 
0.7127665803026045 
-0.04813803308585436 
0.5032203703057909 
0.4705652464705973 
0.1084315542536146 
-0.2969563356201491 
-0.4638410699448392 
0.08451779735832603 
-0.6632092750680302 
-0.04540570226755387 
-0.07135313738176202 
0.0305600043255884 
0.03859801908004574 
-0.1382657781704487 
0.3331350782637653 
0.06894753426720042 
-0.1231580309200984 
0.06183433054965199 
-0.1392457728604388 
-0.6846986184507081 
-0.4456606318202083 
0.8819894253642222 
0.2113448260362591 
0.004285617688149085 
-0.391966306569397 
-0.830505547076822 
-0.005907363088523048 
0.09256465715893571 
-0.0490441004347754 
-0.469583881954395 
-0.1672298599302127 
0.2808368881037238 
-0.6897207035404198 
-1.460721023142404 
0.504217303020877 
-0.7946309325617034 
-0.335733075040381 
0.2429661510097574 
0.08317970772116925 
-0.03089742737392884 
-0.02372894440269119 
0.06788927719275292 
0.5673517441590402 
-0.3029295923815225 
-0.4892689634831378 
-0.7855287941194891 
-0.2360229987850911 
0.118691737067331 
0.01077022475940632 
-0.4437477177534001 
-0.001827124854359261 
0.1325359299200286 
-0.08121566541395293 
0.06434378379389442 
-0.05312973036310795 
-0.06953800242075792 
-0.6167483669253502 
-0.4626801797904347 
1.043844352285521 
-0.7049580162720384 
-0.1838236320318958 
0.1778594093084766 
-0.965931264695604 
0.1547386536215412 
0.8988274728029447 
-0.08671152941287272 
-0.3438627831056371 
-0.2345881339877216 
0.8860069431073082 
-0.2471188900708621 
-0.5845917049650902 
-0.04775067984884698 
1.198434286079064 
0.08367019394109536 
0.1900383184468789 
0.5984268496648054 
0.4445358557023256 
0.1374227670448429 
-0.7596135294524231 
0.1507383042368158 
-0.1262443899428618 
