solver_type L2R_L2LOSS_SVC
nr_class 2
label 1 -1
nr_feature 512
bias -1
w
-0.07054984872828245 
-0.4422351368126757 
-0.9077607688926251 
0.08829712358849988 
0.905154508714174 
-0.7240669720532653 
-0.1245276750391707 
-0.5221257460106521 
-0.06912093217300203 
0.05957178177275728 
-0.6867712074894184 
-0.4013229884745325 
-0.4973708775552269 
-0.6246373749377916 
0.4366008732291357 
-0.2060184075214205 
-0.8529284882101072 
-0.1921389716788948 
0.6119818220783826 
0.5764028266232528 
-0.0797829398250461 
0.2386397012815138 
-0.218566628575064 
-1.029402513396225 
-0.617520936443239 
0.1333019383276597 
-0.1279371848405758 
1.047384200781166 
0.5741989715668167 
-0.1907524910085388 
-0.3854423813334285 
-0.4349998561148589 
-0.02623910943551315 
0.02753043502134128 
-0.08965272173283852 
-0.1050093482863978 
0.1288032162060748 
0.2621590679909573 
-0.651228900181456 
0.2849466386184824 
-0.6257965695547902 
0.2097026020525202 
0.2733173734373663 
0.7327446396747781 
-0.02206695717150563 
-0.09709139034833551 
-0.1866117700041909 
-0.4252615389112548 
-0.1659717332504167 
0.2012089799088358 
-0.2645355494037462 
-0.08729812319101826 
0.184931927798271 
-0.2275482975839584 
-0.122758906130995 
-0.1393418734192967 
0.9317538308069407 
-0.1068854130745449 
-0.4267285726632478 
-0.172661737876999 
0.6434039259636711 
-0.05773302031769424 
-0.2349216185735468 
-0.4006927535597606 
-1.03170511281305 
-0.09353016618396445 
0.2702490217897792 
0.2739314727445577 
-0.6203970044260181 
-0.2771434536602165 
-0.2556892445846176 
-0.0883265203366024 
-0.05387972971574851 
0.3320067303630669 
-0.4825989864535373 
-0.1556272577563725 
-0.5522163492923449 
-0.01225365742193406 
0.2055796062078976 
0.1643163518101008 
-0.8115199433937995 
0.05115323780768084 
-0.6350901245218207 
-0.4760921435545695 
-0.02723991151963911 
0.04920967343135593 
0.007352034264778189 
-0.619148231935293 
0.258163738092424 
0.08016258788866404 
-0.4379559561008945 
-0.2313221262718508 
-0.2778926334175817 
-0.3700090797110001 
0.01851525672097106 
-0.1175829149924972 
-0.2190112155308974 
-0.5357881651327921 
-0.2669757226777851 
-0.1247727122554617 
0.06038893136329456 
0.01009614078309924 
-0.4043524759846764 
-0.03039464577100514 
-0.2060965731807265 
0.1735341746705818 
0.1727600758611145 
-0.3541714450774454 
-0.1158760062184192 
-0.2623094963396631 
-0.4425120175980325 
-0.2358210464259278 
-0.530400802925137 
-0.4957806877056607 
-0.4432512465800763 
0.257930429717992 
-0.3649396765711784 
-0.01477429799026483 
-0.1730734412298777 
0.3405194347001135 
0.3711481837614944 
0.81944378993647 
0.0369655011193025 
0.05771844247988665 
-0.5003829342231205 
0.5063162053837251 
-1.064492199145138 
0.4980765521623509 
0.2934668916920652 
-0.6655882910371792 
0.4846665522259327 
0.1288611947974141 
-0.2822508911141431 
0.1637638498181744 
-0.3085739959631085 
0.7530995988993183 
0.09441555924116973 
-0.02064601621407929 
-0.4811685610291201 
-0.395918906210841 
0.1717164216720494 
-0.2294245030888547 
-0.06820460752802202 
0.7725117361624189 
0.7213538530331398 
0.03927320140649103 
0.7689287294346252 
0.008545829686942027 
0.08317828978017297 
-0.4081207111324809 
-1.041898247895803 
-0.5821205206640876 
-0.3898091628677852 
-0.2624090900787937 
-0.4037661852657443 
0.05586795807765164 
-0.271111301290509 
-0.08769944623207608 
1.28162994700186 
0.01364002921504797 
0.8119250796363043 
-0.08225989635309411 
-0.01559231721373611 
-0.1078800615585323 
-0.2117793907196196 
-0.307665793320833 
-0.4345967392856232 
0.006335218139580266 
0.3870077047997786 
0.04604539478659016 
0.9225770870162386 
-0.3784965298701924 
-0.154965775240978 
-0.4583285875090446 
-0.4258687581040223 
-0.1287987921642537 
-0.1699236282149996 
-0.1788864158873088 
-0.2735509621507861 
-0.4738518957691342 
-0.05297283147910455 
-0.667738065946422 
-0.2811282524913506 
0.6362187743029489 
-0.2096015544681715 
-0.8473067512765727 
0.2357077207479151 
-0.03763226529360016 
-0.0004399141185990364 
-0.2306832497555465 
-0.2835797806610229 
-0.1723410647755126 
-0.306870080480758 
-0.2865522110315355 
0.2983904700449152 
0.1959608735317649 
1.795096429130411 
0.6096040943817373 
0.5664414899533174 
0.1602906460358184 
-0.633609299397622 
-0.3137801279940546 
-0.4843683454373056 
-0.148716834756085 
0.7113690894185098 
-0.09786675672411327 
-0.5737949997813605 
-0.2299181324986373 
-0.3428985988581416 
-0.626239749744355 
-0.1971508211319245 
-0.201492185134417 
-0.5945354086207524 
0.5616986748643309 
-0.378396663720048 
-0.6013122721540912 
-0.2848223118422724 
0.7115439113215241 
-0.02772456525125858 
0.371637979656326 
0.1897333998266224 
-0.03054710996342645 
0.2360637047919623 
0.06884551906722253 
-0.03172538724278701 
-0.2993264724365251 
-0.3032239779001196 
-1.099012519306761 
-0.03400368497389289 
0.2110561979336749 
0.5966763855107642 
0.06209593541736819 
-0.3485729133098883 
-0.1491121650563574 
-0.220599771054018 
-0.1417746125296127 
-0.1710573517164874 
-0.3526266100698729 
-0.3395204303304182 
-0.3575007942817626 
-1.28329672728876 
-0.4002970911768835 
-0.509030187138921 
-0.1666791337762819 
-0.2952022246160937 
0.1860472468814359 
-0.3186095321191238 
0.6359790752417315 
-0.399880426632143 
1.002821795746693 
0.1130068654986399 
-0.2184767782588803 
-0.4926958842014219 
0.1270173725481407 
-0.5451603572307396 
0.413167226312915 
0.1707140838351316 
-0.02935998008582894 
0.03149820402578277 
-0.6082577184891186 
0.3309858909708931 
-0.2180990794973 
-0.3247131016780681 
0.1076922030002075 
-0.02051333700912148 
-0.3146524532755647 
-0.2445279000675782 
-0.5018615947538874 
0.4824654740087697 
-0.04077445886172982 
-0.3805589306055391 
-0.44477891670821 
-0.1037373878661292 
-0.05072835850514315 
0.5270221909995966 
0.8302995614482871 
-0.7505387036250392 
0.8671559393611628 
-0.3027537720888139 
-0.04450381782143864 
-0.4921313473820967 
0.01483830055725411 
0.9503269141794932 
0.4540793480126452 
-0.3707275040021754 
-0.3774827862240175 
-0.3612377353442383 
-0.1427106344939129 
-0.5127468892022434 
-0.3200631895658804 
-0.2614356155531203 
-0.1727605749911533 
0.03601434857996062 
-0.01706324133350082 
-0.2993109845216952 
-0.1495325727494461 
-0.7546917130671593 
-0.5588126919217122 
-0.4088181618596379 
-0.2519032397183563 
-0.572207041404667 
-0.0287483705069171 
-0.2040064746284639 
-0.1016055004742535 
0.1572555350380763 
-0.02739502612903782 
0.05190737714274611 
0.4093887029048701 
-0.6103737301793821 
-0.84485876544373 
-0.5697428159866573 
0.1303953243747837 
-0.4925564205722616 
0.3229483032540093 
-0.5670438982404663 
-0.2631184191682873 
-0.09508660299187417 
-0.2763400450950737 
-0.2825928100162736 
-0.5878997633407855 
0.2168684741115836 
-0.1298382333273712 
0.3404748601018232 
-0.02826752413882262 
-0.2457598131018969 
0.6379712175468926 
0.5631404402598418 
-0.3076115579638237 
0.5736829648473333 
-0.2103792380544107 
1.361412509852745 
-0.2078977043512246 
0.2309638603606133 
-0.1739686459913344 
-0.3933179322786062 
0.09404373328213272 
-0.1884814022455632 
-0.3910867018925375 
-0.3433507880081672 
-0.5698429853819007 
-0.6751840221385311 
0.5003595933166101 
-0.2945423661433684 
-0.1971189030601847 
0.5739615212853459 
0.2193715641542737 
-0.8887507418174294 
0.9383181101026246 
1.134133975598341 
-0.5262723041290245 
-0.6495326756180634 
0.2314186973401003 
-0.913497075566912 
-0.4690815519176333 
-1.18515800874234 
0.338166341003143 
-0.6407608419934964 
0.7374536836308651 
-0.2729821725328692 
-0.5406023080251227 
-0.6881846023042278 
-0.2351688967846431 
-0.2470831703407641 
0.6379979148583208 
-1.344462996223274 
0.2577197770073681 
-0.234334704938849 
-0.5176087465837705 
-0.3808291372544434 
-0.1390275341152674 
-0.2225835000445286 
-0.7056021481645758 
0.3864836578142137 
-0.3280805330587898 
0.1743123392064543 
-0.4920857385285848 
0.06622508593892028 
-0.8241787303501404 
0.4668609949264246 
-0.0164473084485038 
0.1526335649629076 
-0.5117637501447642 
-0.5817408579688478 
-0.3503084106845411 
-0.1493695225615544 
0.1668820423739564 
-0.2539880896182429 
-0.4221112327186403 
-0.2181365965661256 
-0.2624518749979302 
-0.2147563696436583 
-0.05415864752224074 
-0.2838819605085177 
-0.1543046522159644 
0.08943316519428438 
-0.2092494664617204 
0.1453389620981927 
-0.8152412412158342 
-0.09625093911897267 
-0.02793000436348479 
-0.4468391265764101 
-0.1760066566099984 
-0.6799313743112235 
-0.3514734778257871 
-0.7881174850686699 
-0.4547988714115754 
-0.1507994200414546 
-0.1554058216174875 
-1.06161815859142 
-0.2679410169981732 
0.1880230124950629 
-0.4246770215845926 
0.03129959084054783 
0.2188169057948407 
-0.5749648230085183 
-0.4471663481994588 
-0.1931785492433155 
-0.430371929499258 
-0.1594363528172137 
0.01832507134503413 
-0.5321320575319474 
-0.2856985539235789 
0.2342501832301319 
0.292702955905478 
-0.9027874337406403 
0.1619183355838658 
0.4483634099805641 
-0.3154334630506605 
-0.1921623936553449 
0.09653327443619664 
0.04425403236748938 
0.5751437463007923 
-0.3551535834548114 
-0.03060274035451344 
0.03600264049146656 
0.5756463238816713 
-0.1317128225772138 
-0.3748977718073936 
0.9377024555077327 
-0.4638466025751131 
-0.2755664923565066 
0.2360890656969111 
-0.2993453007180862 
-0.1607946330384287 
-0.3333938119497092 
-0.356249676557186 
-0.4344600408898528 
-0.4337951036792892 
0.1210823736149405 
0.09662856482999535 
-1.36221814287104 
0.3049957742617416 
0.4097581915875552 
-0.5389639166165138 
-0.4992847177423212 
0.05951476644420879 
-0.1673857150103335 
-0.5835658558520644 
-0.2967725591548492 
0.08381670788642104 
-0.7562678821046366 
-0.01576365744562681 
-0.4334850972021853 
-0.4123375094188907 
-0.705115575323064 
0.6215750848281643 
-0.404567254236235 
0.1894872930688631 
0.4778963480320645 
0.006201510799601758 
-0.07324040516960892 
-0.003191432204627708 
-0.2682600432074559 
1.022894819689964 
-0.2651161363045474 
-0.4254619369744718 
0.02735975260093457 
0.0694420915267179 
0.06514479231504795 
0.4553542504030253 
-0.5498101990661346 
-0.403634975323893 
-1.571420791292818 
-0.01828728591963264 
-0.3970250139129881 
-0.1046160127830641 
0.5265815587837918 
0.8914426756463014 
0.1532412327948921 
0.04180084603333292 
-0.5267699231060116 
0.08857400146246094 
0.5723787015141869 
-1.198905037548384 
-0.1711202549248302 
-0.4519540671963971 
-0.1844666256156539 
-0.05801339547600334 
-0.4037191309932476 
0.00149413722364803 
-0.008814537288368528 
-0.3899585010470221 
-0.2264614654346591 
0.5999246058002622 
-0.3537217418678054 
-0.1337899228560549 
-0.3672736162507634 
-0.06995601280404803 
0.6848086093129961 
-0.5138848706690963 
-0.6290966585521014 
0.4825067040277267 
